<?xml version="1.0"?>
<opencv_storage>
<shapeML type_id="opencv-ml-ann-mlp">
  <layer_sizes type_id="opencv-matrix">
    <rows>1</rows>
    <cols>3</cols>
    <dt>i</dt>
    <data>
      1600 40 1</data></layer_sizes>
  <activation_function>SIGMOID_SYM</activation_function>
  <f_param1>5.9999999999999998e-01</f_param1>
  <f_param2>1.</f_param2>
  <min_val>-9.4999999999999996e-01</min_val>
  <max_val>9.4999999999999996e-01</max_val>
  <min_val1>-9.7999999999999998e-01</min_val1>
  <max_val1>9.7999999999999998e-01</max_val1>
  <training_params>
    <train_method>BACKPROP</train_method>
    <dw_scale>1.0000000000000001e-01</dw_scale>
    <moment_scale>1.0000000000000001e-01</moment_scale>
    <term_criteria><epsilon>9.9999999747524271e-07</epsilon>
      <iterations>4000</iterations></term_criteria></training_params>
  <input_scale>
    5.1282051282051280e-02 -7.6923076923076927e-02
    3.6369648372665396e-02 -1.0910894511799618e-01
    5.1282051282051280e-02 -7.6923076923076927e-02 1. 0.
    5.1282051282051280e-02 -7.6923076923076927e-02
    5.1282051282051280e-02 -7.6923076923076927e-02
    3.6369648372665396e-02 -1.0910894511799618e-01
    2.9784470107251351e-02 -1.3403011548263108e-01
    2.3210354127426377e-02 -1.7407765595569782e-01
    2.1252557102111276e-02 -1.9127301391900148e-01
    1.9736308213911233e-02 -2.0723123624606796e-01
    1.7513564583091126e-02 -2.3643312187173021e-01
    2.1252557102111276e-02 -1.9127301391900148e-01
    1.7513564583091126e-02 -2.3643312187173021e-01
    1.7513564583091126e-02 -2.3643312187173021e-01
    1.8518518518518517e-02 -2.2222222222222221e-01
    1.6666666666666666e-02 -2.5000000000000000e-01
    1.4756631713965728e-02 -2.8775431842233168e-01
    1.3826022596405670e-02 -3.1108550841912758e-01
    1.1262289639991433e-02 -4.0544242703969158e-01
    9.5985380620151120e-03 -5.1832105534881601e-01
    1.0728989990783724e-02 -4.3452409462674080e-01
    1.2171612389003692e-02 -3.6514837167011077e-01
    1.4265349750363764e-02 -2.9957234475763905e-01
    1.4756631713965728e-02 -2.8775431842233168e-01
    1.5940936661960347e-02 -2.6302545492234575e-01
    2.1252557102111276e-02 -1.9127301391900148e-01
    1.7513564583091126e-02 -2.3643312187173021e-01
    1.9736308213911233e-02 -2.0723123624606796e-01
    2.9784470107251351e-02 -1.3403011548263108e-01
    2.9784470107251351e-02 -1.3403011548263108e-01
    2.3210354127426377e-02 -1.7407765595569782e-01
    2.1252557102111276e-02 -1.9127301391900148e-01
    2.9784470107251351e-02 -1.3403011548263108e-01
    3.6369648372665396e-02 -1.0910894511799618e-01
    2.9784470107251351e-02 -1.3403011548263108e-01
    3.6369648372665396e-02 -1.0910894511799618e-01
    5.1282051282051280e-02 -7.6923076923076927e-02 1. 0. 1. 0.
    5.1282051282051280e-02 -7.6923076923076927e-02
    3.6369648372665396e-02 -1.0910894511799618e-01
    5.1282051282051280e-02 -7.6923076923076927e-02 1. 0.
    3.6369648372665396e-02 -1.0910894511799618e-01
    3.6369648372665396e-02 -1.0910894511799618e-01
    3.6369648372665396e-02 -1.0910894511799618e-01
    2.5871684190211096e-02 -1.5523010514126656e-01
    1.7513564583091126e-02 -2.3643312187173021e-01
    1.6666666666666666e-02 -2.5000000000000000e-01
    1.6666666666666666e-02 -2.5000000000000000e-01
    1.3826022596405670e-02 -3.1108550841912758e-01
    1.4756631713965728e-02 -2.8775431842233168e-01
    1.2745318548364542e-02 -3.4412360080584264e-01
    1.1262289639991433e-02 -4.0544242703969158e-01
    9.8039215686274508e-03 -5.0000000000000000e-01
    1.0155948592729207e-02 -4.7225160956190815e-01
    9.8039215686274508e-03 -5.0000000000000000e-01
    8.8271190222062677e-03 -6.0907121253223251e-01
    9.5985380620151120e-03 -5.1832105534881601e-01
    8.8271190222062677e-03 -6.0907121253223251e-01
    8.8271190222062677e-03 -6.0907121253223251e-01
    8.8888888888888889e-03 -5.9999999999999998e-01
    9.5034667248096363e-03 -5.2744240322693481e-01
    1.1262289639991433e-02 -4.0544242703969158e-01
    1.2446391765625262e-02 -3.5472216532031997e-01
    1.3071895424836602e-02 -3.3333333333333337e-01
    1.3071895424836602e-02 -3.3333333333333337e-01
    1.3071895424836602e-02 -3.3333333333333337e-01
    1.7513564583091126e-02 -2.3643312187173021e-01
    1.8518518518518517e-02 -2.2222222222222221e-01
    1.9736308213911233e-02 -2.0723123624606796e-01
    1.7513564583091126e-02 -2.3643312187173021e-01
    1.7513564583091126e-02 -2.3643312187173021e-01
    2.1252557102111276e-02 -1.9127301391900148e-01
    2.1252557102111276e-02 -1.9127301391900148e-01
    2.9784470107251351e-02 -1.3403011548263108e-01
    5.1282051282051280e-02 -7.6923076923076927e-02
    5.1282051282051280e-02 -7.6923076923076927e-02
    5.1282051282051280e-02 -7.6923076923076927e-02
    5.1282051282051280e-02 -7.6923076923076927e-02
    3.6369648372665396e-02 -1.0910894511799618e-01
    3.6369648372665396e-02 -1.0910894511799618e-01
    3.6369648372665396e-02 -1.0910894511799618e-01
    2.9784470107251351e-02 -1.3403011548263108e-01
    2.3210354127426377e-02 -1.7407765595569782e-01
    1.9736308213911233e-02 -2.0723123624606796e-01
    1.7513564583091126e-02 -2.3643312187173021e-01
    1.4265349750363764e-02 -2.9957234475763905e-01
    1.3430382733756338e-02 -3.2232918561015211e-01
    1.3071895424836602e-02 -3.3333333333333337e-01
    1.2446391765625262e-02 -3.5472216532031997e-01
    1.0572691328259186e-02 -4.4405303578688582e-01
    9.1668886799403590e-03 -5.6376365381633209e-01
    9.0213732707525203e-03 -5.8187857596353754e-01
    8.7118062248219448e-03 -6.2725004818718000e-01
    8.8271190222062677e-03 -6.0907121253223251e-01
    8.7118062248219448e-03 -6.2725004818718000e-01
    8.2060993986221818e-03 -7.3854894587599640e-01
    9.2450032704204863e-03 -5.5470019622522915e-01
    9.3269745043431489e-03 -5.4562800850407422e-01
    9.1668886799403590e-03 -5.6376365381633209e-01
    9.0213732707525203e-03 -5.8187857596353754e-01
    9.0213732707525203e-03 -5.8187857596353754e-01
    8.3067681942693393e-03 -7.1022868061002853e-01
    8.4659924195495482e-03 -6.7304639735418903e-01
    1.0155948592729207e-02 -4.7225160956190815e-01
    1.1918070753976346e-02 -3.7541922875025491e-01
    1.2446391765625262e-02 -3.5472216532031997e-01
    1.3071895424836602e-02 -3.3333333333333337e-01
    1.4756631713965728e-02 -2.8775431842233168e-01
    1.4265349750363764e-02 -2.9957234475763905e-01
    1.4265349750363764e-02 -2.9957234475763905e-01
    1.4756631713965728e-02 -2.8775431842233168e-01
    1.5940936661960347e-02 -2.6302545492234575e-01
    1.5310507072487510e-02 -2.7558912730477519e-01
    2.1252557102111276e-02 -1.9127301391900148e-01
    2.5871684190211096e-02 -1.5523010514126656e-01
    2.5871684190211096e-02 -1.5523010514126656e-01
    2.9784470107251351e-02 -1.3403011548263108e-01 1. 0.
    5.1282051282051280e-02 -7.6923076923076927e-02
    2.5871684190211096e-02 -1.5523010514126656e-01
    2.5871684190211096e-02 -1.5523010514126656e-01
    1.9736308213911233e-02 -2.0723123624606796e-01
    1.8518518518518517e-02 -2.2222222222222221e-01
    1.4265349750363764e-02 -2.9957234475763905e-01
    1.3071895424836602e-02 -3.3333333333333337e-01
    1.2446391765625262e-02 -3.5472216532031997e-01
    1.2446391765625262e-02 -3.5472216532031997e-01
    1.2171612389003692e-02 -3.6514837167011077e-01
    1.0032154423814102e-02 -4.8154341234307685e-01
    9.4130415787484177e-03 -5.3654336998865981e-01
    8.7681355729783139e-03 -6.1815355789497117e-01
    8.3825948461590874e-03 -6.9156407480812476e-01
    8.2379897210506196e-03 -7.2906209031297986e-01
    8.1758059384954892e-03 -7.4808624337233731e-01
    8.2060993986221818e-03 -7.3854894587599640e-01
    8.6066296582387042e-03 -6.4549722436790280e-01
    8.9535884891708932e-03 -5.9093684028527893e-01
    8.7681355729783139e-03 -6.1815355789497117e-01
    8.8271190222062677e-03 -6.0907121253223251e-01
    8.6580086580086580e-03 -6.3636363636363635e-01
    8.7118062248219448e-03 -6.2725004818718000e-01
    8.5107153531360884e-03 -6.6383579754461486e-01
    9.0213732707525203e-03 -5.8187857596353754e-01
    8.8888888888888889e-03 -5.9999999999999998e-01
    8.5107153531360884e-03 -6.6383579754461486e-01
    1.1072730647165329e-02 -4.1522739926869984e-01
    1.0895340841010225e-02 -4.2491829279939874e-01
    1.1683327287213026e-02 -3.8554980047802989e-01
    1.3071895424836602e-02 -3.3333333333333337e-01
    1.4265349750363764e-02 -2.9957234475763905e-01
    1.4756631713965728e-02 -2.8775431842233168e-01
    1.5310507072487510e-02 -2.7558912730477519e-01
    1.4756631713965728e-02 -2.8775431842233168e-01
    1.7513564583091126e-02 -2.3643312187173021e-01
    2.3210354127426377e-02 -1.7407765595569782e-01
    2.5871684190211096e-02 -1.5523010514126656e-01
    2.5871684190211096e-02 -1.5523010514126656e-01 1. 0.
    2.9784470107251351e-02 -1.3403011548263108e-01
    2.9784470107251351e-02 -1.3403011548263108e-01
    1.8518518518518517e-02 -2.2222222222222221e-01
    1.7513564583091126e-02 -2.3643312187173021e-01
    1.3826022596405670e-02 -3.1108550841912758e-01
    1.2446391765625262e-02 -3.5472216532031997e-01
    1.1072730647165329e-02 -4.1522739926869984e-01
    1.1262289639991433e-02 -4.0544242703969158e-01
    1.1072730647165329e-02 -4.1522739926869984e-01
    9.0924120931663490e-03 -5.7282196186947998e-01
    8.7681355729783139e-03 -6.1815355789497117e-01
    8.5575643229800942e-03 -6.5465367070797720e-01
    8.3437695720293137e-03 -7.0087664405046235e-01
    8.2379897210506196e-03 -7.2906209031297986e-01
    8.2379897210506196e-03 -7.2906209031297986e-01
    7.9681907288959575e-03 -8.3666002653407556e-01
    8.3437695720293137e-03 -7.0087664405046235e-01
    8.4233115953211493e-03 -6.8228823922101312e-01
    8.7118062248219448e-03 -6.2725004818718000e-01
    8.6580086580086580e-03 -6.3636363636363635e-01
    8.7118062248219448e-03 -6.2725004818718000e-01
    8.5575643229800942e-03 -6.5465367070797720e-01
    8.8271190222062677e-03 -6.0907121253223251e-01
    8.6066296582387042e-03 -6.4549722436790280e-01
    8.5575643229800942e-03 -6.5465367070797720e-01
    8.5575643229800942e-03 -6.5465367070797720e-01
    9.0213732707525203e-03 -5.8187857596353754e-01
    9.2450032704204863e-03 -5.5470019622522915e-01
    9.2450032704204863e-03 -5.5470019622522915e-01
    1.0032154423814102e-02 -4.8154341234307685e-01
    1.1465319341501828e-02 -3.9555351728181309e-01
    1.3826022596405670e-02 -3.1108550841912758e-01
    1.3826022596405670e-02 -3.1108550841912758e-01
    1.4756631713965728e-02 -2.8775431842233168e-01
    1.5940936661960347e-02 -2.6302545492234575e-01
    1.7513564583091126e-02 -2.3643312187173021e-01
    1.9736308213911233e-02 -2.0723123624606796e-01
    2.3210354127426377e-02 -1.7407765595569782e-01
    2.3210354127426377e-02 -1.7407765595569782e-01 1. 0.
    2.3210354127426377e-02 -1.7407765595569782e-01
    1.8518518518518517e-02 -2.2222222222222221e-01
    1.5310507072487510e-02 -2.7558912730477519e-01
    1.3071895424836602e-02 -3.3333333333333337e-01
    1.2446391765625262e-02 -3.5472216532031997e-01
    1.0895340841010225e-02 -4.2491829279939874e-01
    9.9149718935422782e-03 -4.9079110873034276e-01
    9.2450032704204863e-03 -5.5470019622522915e-01
    9.3269745043431489e-03 -5.4562800850407422e-01
    8.8888888888888889e-03 -5.9999999999999998e-01
    8.5107153531360884e-03 -6.6383579754461486e-01
    8.2715277830910858e-03 -7.1962291712892446e-01
    9.0213732707525203e-03 -5.8187857596353754e-01
    8.5575643229800942e-03 -6.5465367070797720e-01
    8.0251420280887335e-03 -8.0652677382291771e-01
    7.8453092674761107e-03 -9.7674100380077578e-01
    7.8979850367878988e-03 -8.8852331663863859e-01
    7.9096499646041582e-03 -8.7797114607106153e-01
    8.2715277830910858e-03 -7.1962291712892446e-01
    8.4233115953211493e-03 -6.8228823922101312e-01
    8.2379897210506196e-03 -7.2906209031297986e-01
    8.6580086580086580e-03 -6.3636363636363635e-01
    8.5575643229800942e-03 -6.5465367070797720e-01
    8.4233115953211493e-03 -6.8228823922101312e-01
    8.4659924195495482e-03 -6.7304639735418903e-01
    8.2715277830910858e-03 -7.1962291712892446e-01
    8.7118062248219448e-03 -6.2725004818718000e-01
    9.3269745043431489e-03 -5.4562800850407422e-01
    9.5034667248096363e-03 -5.2744240322693481e-01
    9.3269745043431489e-03 -5.4562800850407422e-01
    9.0213732707525203e-03 -5.8187857596353754e-01
    1.0728989990783724e-02 -4.3452409462674080e-01
    1.1072730647165329e-02 -4.1522739926869984e-01
    1.3430382733756338e-02 -3.2232918561015211e-01
    1.3430382733756338e-02 -3.2232918561015211e-01
    1.5940936661960347e-02 -2.6302545492234575e-01
    1.9736308213911233e-02 -2.0723123624606796e-01
    2.3210354127426377e-02 -1.7407765595569782e-01
    2.3210354127426377e-02 -1.7407765595569782e-01 1. 0.
    1.8518518518518517e-02 -2.2222222222222221e-01
    1.5310507072487510e-02 -2.7558912730477519e-01
    1.3071895424836602e-02 -3.3333333333333337e-01
    1.1918070753976346e-02 -3.7541922875025491e-01
    1.0895340841010225e-02 -4.2491829279939874e-01
    1.0286889997472794e-02 -4.6291004988627571e-01
    9.3269745043431489e-03 -5.4562800850407422e-01
    8.7118062248219448e-03 -6.2725004818718000e-01
    8.5575643229800942e-03 -6.5465367070797720e-01
    8.5107153531360884e-03 -6.6383579754461486e-01
    8.3825948461590874e-03 -6.9156407480812476e-01
    8.2060993986221818e-03 -7.3854894587599640e-01
    8.3437695720293137e-03 -7.0087664405046235e-01
    7.8436800889168622e-03 -9.8830369120352468e-01
    7.8480268224668526e-03 -9.6530729916342284e-01
    7.8431372549019607e-03 -1. 7.8979850367878988e-03
    -8.8852331663863859e-01 7.8567420131838619e-03
    -9.4280904158206347e-01 7.8480268224668526e-03
    -9.6530729916342284e-01 7.8979850367878988e-03
    -8.8852331663863859e-01 8.0048684404679018e-03
    -8.1649658092772603e-01 8.2060993986221818e-03
    -7.3854894587599640e-01 8.4233115953211493e-03
    -6.8228823922101312e-01 8.7681355729783139e-03
    -6.1815355789497117e-01 8.1198232804652170e-03
    -7.6732330000396298e-01 8.2060993986221818e-03
    -7.3854894587599640e-01 8.3825948461590874e-03
    -6.9156407480812476e-01 8.8271190222062677e-03
    -6.0907121253223251e-01 8.6580086580086580e-03
    -6.3636363636363635e-01 9.0924120931663490e-03
    -5.7282196186947998e-01 8.8271190222062677e-03
    -6.0907121253223251e-01 8.7118062248219448e-03
    -6.2725004818718000e-01 1.0425579051926741e-02
    -4.5351268875881323e-01 1.0728989990783724e-02
    -4.3452409462674080e-01 1.1683327287213026e-02
    -3.8554980047802989e-01 1.3430382733756338e-02
    -3.2232918561015211e-01 1.8518518518518517e-02
    -2.2222222222222221e-01 1.8518518518518517e-02
    -2.2222222222222221e-01 2.5871684190211096e-02
    -1.5523010514126656e-01 2.5871684190211096e-02
    -1.5523010514126656e-01 1.5940936661960347e-02
    -2.6302545492234575e-01 1.3071895424836602e-02
    -3.3333333333333337e-01 1.2171612389003692e-02
    -3.6514837167011077e-01 1.0895340841010225e-02
    -4.2491829279939874e-01 1.0032154423814102e-02
    -4.8154341234307685e-01 8.8888888888888889e-03
    -5.9999999999999998e-01 8.6580086580086580e-03
    -6.3636363636363635e-01 8.3825948461590874e-03
    -6.9156407480812476e-01 8.2715277830910858e-03
    -7.1962291712892446e-01 8.0697004355840315e-03
    -7.8679579246944309e-01 7.8453092674761107e-03
    -1.0238128594056324e+00 7.8436800889168622e-03
    -1.0118347314702751e+00 7.8567420131838619e-03
    -1.0606601717798214e+00 7.8431372549019607e-03 -1.
    7.8431372549019607e-03 -1. 7.8698694108314277e-03
    -9.2077472106727709e-01 7.8781075261518518e-03
    -9.0992141927053893e-01 8.0697004355840315e-03
    -7.8679579246944309e-01 8.1198232804652170e-03
    -7.6732330000396298e-01 7.9681907288959575e-03
    -8.3666002653407556e-01 8.0048684404679018e-03
    -8.1649658092772603e-01 7.8781075261518518e-03
    -9.0992141927053893e-01 7.8874754046716830e-03
    -8.9917219613257182e-01 7.9224853312287059e-03
    -8.6751214376954333e-01 8.1198232804652170e-03
    -7.6732330000396298e-01 8.0697004355840315e-03
    -7.8679579246944309e-01 8.2379897210506196e-03
    -7.2906209031297986e-01 8.4233115953211493e-03
    -6.8228823922101312e-01 8.6580086580086580e-03
    -6.3636363636363635e-01 8.7118062248219448e-03
    -6.2725004818718000e-01 8.5575643229800942e-03
    -6.5465367070797720e-01 8.5575643229800942e-03
    -6.5465367070797720e-01 8.5575643229800942e-03
    -6.5465367070797720e-01 1.0155948592729207e-02
    -4.7225160956190815e-01 1.0425579051926741e-02
    -4.5351268875881323e-01 1.1918070753976346e-02
    -3.7541922875025491e-01 1.4756631713965728e-02
    -2.8775431842233168e-01 1.6666666666666666e-02
    -2.5000000000000000e-01 2.5871684190211096e-02
    -1.5523010514126656e-01 2.1252557102111276e-02
    -1.9127301391900148e-01 1.5310507072487510e-02
    -2.7558912730477519e-01 1.3430382733756338e-02
    -3.2232918561015211e-01 1.1918070753976346e-02
    -3.7541922875025491e-01 1.1072730647165329e-02
    -4.1522739926869984e-01 9.0924120931663490e-03
    -5.7282196186947998e-01 8.6066296582387042e-03
    -6.4549722436790280e-01 8.1758059384954892e-03
    -7.4808624337233731e-01 8.0467424930877936e-03
    -7.9662750681569161e-01 7.9681907288959575e-03
    -8.3666002653407556e-01 7.8431372549019607e-03 -1.
    7.8567420131838619e-03 -1.0606601717798214e+00
    7.8518361481952591e-03 -9.5399809200572394e-01
    7.8627505768002846e-03 -9.3173594335083376e-01
    7.8698694108314277e-03 -9.2077472106727709e-01
    7.8480268224668526e-03 -9.6530729916342284e-01
    7.9858933996997550e-03 -8.2653996686892461e-01
    7.9681907288959575e-03 -8.3666002653407556e-01
    8.0251420280887335e-03 -8.0652677382291771e-01
    8.1758059384954892e-03 -7.4808624337233731e-01
    8.2715277830910858e-03 -7.1962291712892446e-01
    8.0940488529772005e-03 -7.7702868988581120e-01
    8.0697004355840315e-03 -7.8679579246944309e-01
    8.5575643229800942e-03 -6.5465367070797720e-01
    8.2379897210506196e-03 -7.2906209031297986e-01
    7.9096499646041582e-03 -8.7797114607106153e-01
    7.8979850367878988e-03 -8.8852331663863859e-01
    8.5107153531360884e-03 -6.6383579754461486e-01
    8.3825948461590874e-03 -6.9156407480812476e-01
    8.3067681942693393e-03 -7.1022868061002853e-01
    8.2060993986221818e-03 -7.3854894587599640e-01
    8.1470619456307375e-03 -7.5767676094365854e-01
    8.2715277830910858e-03 -7.1962291712892446e-01
    8.6580086580086580e-03 -6.3636363636363635e-01
    8.6580086580086580e-03 -6.3636363636363635e-01
    9.9149718935422782e-03 -4.9079110873034276e-01
    1.0728989990783724e-02 -4.3452409462674080e-01
    1.2446391765625262e-02 -3.5472216532031997e-01
    1.5940936661960347e-02 -2.6302545492234575e-01
    2.5871684190211096e-02 -1.5523010514126656e-01
    1.9736308213911233e-02 -2.0723123624606796e-01
    1.5310507072487510e-02 -2.7558912730477519e-01
    1.2745318548364542e-02 -3.4412360080584264e-01
    1.1072730647165329e-02 -4.1522739926869984e-01
    8.8888888888888889e-03 -5.9999999999999998e-01
    8.7681355729783139e-03 -6.1815355789497117e-01
    8.2715277830910858e-03 -7.1962291712892446e-01
    8.0467424930877936e-03 -7.9662750681569161e-01
    7.8979850367878988e-03 -8.8852331663863859e-01
    7.8781075261518518e-03 -9.0992141927053893e-01
    7.8480268224668526e-03 -1.0359395405656247e+00
    7.9224853312287059e-03 -1.1527216156937767e+00
    7.8453092674761107e-03 -1.0238128594056324e+00
    7.8436800889168622e-03 -9.8830369120352468e-01
    7.8567420131838619e-03 -9.4280904158206347e-01
    7.8874754046716830e-03 -8.9917219613257182e-01
    7.8567420131838619e-03 -9.4280904158206347e-01
    7.8781075261518518e-03 -9.0992141927053893e-01
    8.0048684404679018e-03 -8.1649658092772603e-01
    8.1758059384954892e-03 -7.4808624337233731e-01
    8.2715277830910858e-03 -7.1962291712892446e-01
    8.0251420280887335e-03 -8.0652677382291771e-01
    8.0048684404679018e-03 -8.1649658092772603e-01
    8.2715277830910858e-03 -7.1962291712892446e-01
    8.1758059384954892e-03 -7.4808624337233731e-01
    7.8567420131838619e-03 -9.4280904158206347e-01
    7.8698694108314277e-03 -9.2077472106727709e-01
    7.8453092674761107e-03 -9.7674100380077578e-01
    8.0940488529772005e-03 -7.7702868988581120e-01
    7.9517362996057023e-03 -8.4685991590800724e-01
    8.0251420280887335e-03 -8.0652677382291771e-01
    8.3067681942693393e-03 -7.1022868061002853e-01
    8.2060993986221818e-03 -7.3854894587599640e-01
    8.2715277830910858e-03 -7.1962291712892446e-01
    8.5107153531360884e-03 -6.6383579754461486e-01
    8.8271190222062677e-03 -6.0907121253223251e-01
    1.0286889997472794e-02 -4.6291004988627571e-01
    1.1072730647165329e-02 -4.1522739926869984e-01
    1.4756631713965728e-02 -2.8775431842233168e-01
    1.9736308213911233e-02 -2.0723123624606796e-01
    1.5940936661960347e-02 -2.6302545492234575e-01
    1.2745318548364542e-02 -3.4412360080584264e-01
    1.1072730647165329e-02 -4.1522739926869984e-01
    1.0572691328259186e-02 -4.4405303578688582e-01
    8.3067681942693393e-03 -7.1022868061002853e-01
    8.4233115953211493e-03 -6.8228823922101312e-01
    8.2379897210506196e-03 -7.2906209031297986e-01
    7.9365079365079361e-03 -8.5714285714285710e-01
    7.9096499646041582e-03 -8.7797114607106153e-01
    7.8518361481952591e-03 -1.0482201257840671e+00
    7.9517362996057023e-03 -1.1808328404914468e+00
    7.8431372549019607e-03 -1. 7.8453092674761107e-03
    -9.7674100380077578e-01 7.8627505768002846e-03
    -1.0732654537332389e+00 7.8436800889168622e-03
    -1.0118347314702751e+00 7.8431372549019607e-03 -1.
    7.8480268224668526e-03 -9.6530729916342284e-01
    7.8627505768002846e-03 -9.3173594335083376e-01
    7.9517362996057023e-03 -8.4685991590800724e-01
    7.9365079365079361e-03 -8.5714285714285710e-01
    8.0048684404679018e-03 -8.1649658092772603e-01
    7.9224853312287059e-03 -8.6751214376954333e-01
    7.9365079365079361e-03 -8.5714285714285710e-01
    8.0251420280887335e-03 -8.0652677382291771e-01
    8.1198232804652170e-03 -7.6732330000396298e-01
    8.0467424930877936e-03 -7.9662750681569161e-01
    8.0467424930877936e-03 -7.9662750681569161e-01
    7.8979850367878988e-03 -1.1254628677422756e+00
    7.8627505768002846e-03 -1.0732654537332389e+00
    7.8874754046716830e-03 -1.1121340320587072e+00
    7.9224853312287059e-03 -8.6751214376954333e-01
    8.1758059384954892e-03 -7.4808624337233731e-01
    8.2060993986221818e-03 -7.3854894587599640e-01
    8.3437695720293137e-03 -7.0087664405046235e-01
    8.3067681942693393e-03 -7.1022868061002853e-01
    8.6580086580086580e-03 -6.3636363636363635e-01
    9.6985728993774396e-03 -5.0917507721731559e-01
    1.0572691328259186e-02 -4.4405303578688582e-01
    1.2745318548364542e-02 -3.4412360080584264e-01
    1.5940936661960347e-02 -2.6302545492234575e-01
    1.6666666666666666e-02 -2.5000000000000000e-01
    1.2171612389003692e-02 -3.6514837167011077e-01
    1.0032154423814102e-02 -4.8154341234307685e-01
    8.3825948461590874e-03 -6.9156407480812476e-01
    7.9858933996997550e-03 -8.2653996686892461e-01
    8.1470619456307375e-03 -7.5767676094365854e-01
    8.1470619456307375e-03 -7.5767676094365854e-01
    7.8627505768002846e-03 -9.3173594335083376e-01
    7.8431372549019607e-03 -1. 7.8627505768002846e-03
    -1.0732654537332389e+00 7.8979850367878988e-03
    -1.1254628677422756e+00 7.8436800889168622e-03
    -1.0118347314702751e+00 7.8453092674761107e-03
    -9.7674100380077578e-01 7.8627505768002846e-03
    -9.3173594335083376e-01 7.8480268224668526e-03
    -9.6530729916342284e-01 7.8436800889168622e-03
    -9.8830369120352468e-01 7.8436800889168622e-03
    -1.0118347314702751e+00 7.8698694108314277e-03
    -9.2077472106727709e-01 7.9224853312287059e-03
    -8.6751214376954333e-01 7.9224853312287059e-03
    -8.6751214376954333e-01 8.0467424930877936e-03
    -7.9662750681569161e-01 7.9224853312287059e-03
    -8.6751214376954333e-01 8.1758059384954892e-03
    -7.4808624337233731e-01 8.0697004355840315e-03
    -7.8679579246944309e-01 8.1198232804652170e-03
    -7.6732330000396298e-01 7.9858933996997550e-03
    -8.2653996686892461e-01 7.9096499646041582e-03
    -8.7797114607106153e-01 7.8436800889168622e-03
    -9.8830369120352468e-01 7.8979850367878988e-03
    -1.1254628677422756e+00 7.8567420131838619e-03
    -1.0606601717798214e+00 7.8781075261518518e-03
    -1.0989959998981833e+00 7.9858933996997550e-03
    -8.2653996686892461e-01 7.9858933996997550e-03
    -8.2653996686892461e-01 7.9858933996997550e-03
    -8.2653996686892461e-01 8.0467424930877936e-03
    -7.9662750681569161e-01 8.2715277830910858e-03
    -7.1962291712892446e-01 8.8271190222062677e-03
    -6.0907121253223251e-01 1.0425579051926741e-02
    -4.5351268875881323e-01 1.3826022596405670e-02
    -3.1108550841912758e-01 1.5940936661960347e-02
    -2.6302545492234575e-01 1.2745318548364542e-02
    -3.4412360080584264e-01 1.0895340841010225e-02
    -4.2491829279939874e-01 9.4130415787484177e-03
    -5.3654336998865981e-01 8.3067681942693393e-03
    -7.1022868061002853e-01 7.9517362996057023e-03
    -8.4685991590800724e-01 7.8874754046716830e-03
    -8.9917219613257182e-01 7.8781075261518518e-03
    -9.0992141927053893e-01 7.9096499646041582e-03
    -8.7797114607106153e-01 7.8698694108314277e-03
    -1.0860419786947371e+00 7.9365079365079361e-03
    -1.1666666666666665e+00 7.8436800889168622e-03
    -1.0118347314702751e+00 7.8698694108314277e-03
    -1.0860419786947371e+00 7.8480268224668526e-03
    -9.6530729916342284e-01 7.9365079365079361e-03
    -8.5714285714285710e-01 7.8480268224668526e-03
    -9.6530729916342284e-01 7.8480268224668526e-03
    -1.0359395405656247e+00 7.8518361481952591e-03
    -9.5399809200572394e-01 7.8698694108314277e-03
    -9.2077472106727709e-01 7.8979850367878988e-03
    -8.8852331663863859e-01 8.0697004355840315e-03
    -7.8679579246944309e-01 7.9858933996997550e-03
    -8.2653996686892461e-01 7.8979850367878988e-03
    -8.8852331663863859e-01 7.9858933996997550e-03
    -8.2653996686892461e-01 7.9858933996997550e-03
    -8.2653996686892461e-01 8.0697004355840315e-03
    -7.8679579246944309e-01 7.8979850367878988e-03
    -8.8852331663863859e-01 7.8431372549019607e-03 -1.
    7.8567420131838619e-03 -9.4280904158206347e-01
    7.9096499646041582e-03 -1.1389895949029989e+00
    7.8453092674761107e-03 -1.0238128594056324e+00
    7.8518361481952591e-03 -1.0482201257840671e+00
    7.9365079365079361e-03 -8.5714285714285710e-01
    7.9096499646041582e-03 -8.7797114607106153e-01
    7.8698694108314277e-03 -9.2077472106727709e-01
    7.9365079365079361e-03 -8.5714285714285710e-01
    8.1758059384954892e-03 -7.4808624337233731e-01
    8.2715277830910858e-03 -7.1962291712892446e-01
    9.6985728993774396e-03 -5.0917507721731559e-01
    1.1918070753976346e-02 -3.7541922875025491e-01
    1.5940936661960347e-02 -2.6302545492234575e-01
    1.1465319341501828e-02 -3.9555351728181309e-01
    9.8039215686274508e-03 -5.0000000000000000e-01
    8.2379897210506196e-03 -7.2906209031297986e-01
    8.0251420280887335e-03 -8.0652677382291771e-01
    7.8874754046716830e-03 -8.9917219613257182e-01
    7.8436800889168622e-03 -9.8830369120352468e-01
    7.8698694108314277e-03 -9.2077472106727709e-01
    7.8874754046716830e-03 -1.1121340320587072e+00
    7.8979850367878988e-03 -1.1254628677422756e+00
    7.8480268224668526e-03 -1.0359395405656247e+00
    7.8874754046716830e-03 -1.1121340320587072e+00
    7.8480268224668526e-03 -1.0359395405656247e+00
    7.8518361481952591e-03 -1.0482201257840671e+00
    7.8979850367878988e-03 -8.8852331663863859e-01
    7.8627505768002846e-03 -9.3173594335083376e-01
    7.8781075261518518e-03 -9.0992141927053893e-01
    7.8874754046716830e-03 -8.9917219613257182e-01
    7.8567420131838619e-03 -9.4280904158206347e-01
    7.9224853312287059e-03 -8.6751214376954333e-01
    7.9681907288959575e-03 -8.3666002653407556e-01
    8.0940488529772005e-03 -7.7702868988581120e-01
    8.0467424930877936e-03 -7.9662750681569161e-01
    8.1198232804652170e-03 -7.6732330000396298e-01
    7.9681907288959575e-03 -8.3666002653407556e-01
    8.0251420280887335e-03 -8.0652677382291771e-01
    7.9517362996057023e-03 -8.4685991590800724e-01
    7.8453092674761107e-03 -9.7674100380077578e-01
    7.8781075261518518e-03 -9.0992141927053893e-01
    7.8567420131838619e-03 -1.0606601717798214e+00
    8.0940488529772005e-03 -1.2869537676233749e+00
    7.8979850367878988e-03 -1.1254628677422756e+00
    7.8567420131838619e-03 -1.0606601717798214e+00
    7.9517362996057023e-03 -8.4685991590800724e-01
    7.9858933996997550e-03 -8.2653996686892461e-01
    7.9365079365079361e-03 -8.5714285714285710e-01
    8.0048684404679018e-03 -8.1649658092772603e-01
    8.3067681942693393e-03 -7.1022868061002853e-01
    9.1668886799403590e-03 -5.6376365381633209e-01
    9.9149718935422782e-03 -4.9079110873034276e-01
    1.2446391765625262e-02 -3.5472216532031997e-01
    1.0425579051926741e-02 -4.5351268875881323e-01
    9.2450032704204863e-03 -5.5470019622522915e-01
    8.2715277830910858e-03 -7.1962291712892446e-01
    7.9681907288959575e-03 -8.3666002653407556e-01
    7.8698694108314277e-03 -9.2077472106727709e-01
    7.8518361481952591e-03 -9.5399809200572394e-01
    7.8453092674761107e-03 -9.7674100380077578e-01
    7.8781075261518518e-03 -1.0989959998981833e+00
    7.8979850367878988e-03 -1.1254628677422756e+00
    7.9517362996057023e-03 -1.1808328404914468e+00
    7.8781075261518518e-03 -1.0989959998981833e+00
    7.8567420131838619e-03 -1.0606601717798214e+00
    7.8480268224668526e-03 -9.6530729916342284e-01
    7.8698694108314277e-03 -9.2077472106727709e-01
    7.9096499646041582e-03 -8.7797114607106153e-01
    7.9681907288959575e-03 -8.3666002653407556e-01
    7.9224853312287059e-03 -8.6751214376954333e-01
    8.0467424930877936e-03 -7.9662750681569161e-01
    7.9365079365079361e-03 -8.5714285714285710e-01
    7.9681907288959575e-03 -8.3666002653407556e-01
    8.2060993986221818e-03 -7.3854894587599640e-01
    8.1470619456307375e-03 -7.5767676094365854e-01
    8.0467424930877936e-03 -7.9662750681569161e-01
    8.0048684404679018e-03 -8.1649658092772603e-01
    8.0940488529772005e-03 -7.7702868988581120e-01
    7.8874754046716830e-03 -8.9917219613257182e-01
    7.8781075261518518e-03 -9.0992141927053893e-01
    7.8781075261518518e-03 -9.0992141927053893e-01
    7.8518361481952591e-03 -1.0482201257840671e+00
    7.8480268224668526e-03 -1.0359395405656247e+00
    7.9365079365079361e-03 -1.1666666666666665e+00
    7.8627505768002846e-03 -1.0732654537332389e+00
    7.8436800889168622e-03 -1.0118347314702751e+00
    7.8874754046716830e-03 -8.9917219613257182e-01
    7.8567420131838619e-03 -9.4280904158206347e-01
    7.8979850367878988e-03 -8.8852331663863859e-01
    8.0940488529772005e-03 -7.7702868988581120e-01
    8.3067681942693393e-03 -7.1022868061002853e-01
    9.5034667248096363e-03 -5.2744240322693481e-01
    1.1683327287213026e-02 -3.8554980047802989e-01
    1.1072730647165329e-02 -4.1522739926869984e-01
    9.1668886799403590e-03 -5.6376365381633209e-01
    8.0251420280887335e-03 -8.0652677382291771e-01
    7.8874754046716830e-03 -8.9917219613257182e-01
    7.8627505768002846e-03 -9.3173594335083376e-01
    7.8453092674761107e-03 -1.0238128594056324e+00
    7.8436800889168622e-03 -9.8830369120352468e-01
    7.9224853312287059e-03 -1.1527216156937767e+00
    8.0048684404679018e-03 -1.2247448713915889e+00
    7.9365079365079361e-03 -1.1666666666666665e+00
    7.8698694108314277e-03 -1.0860419786947371e+00
    7.8627505768002846e-03 -1.0732654537332389e+00
    7.8874754046716830e-03 -8.9917219613257182e-01
    8.0251420280887335e-03 -8.0652677382291771e-01
    8.0251420280887335e-03 -8.0652677382291771e-01
    8.1198232804652170e-03 -7.6732330000396298e-01
    8.0467424930877936e-03 -7.9662750681569161e-01
    8.0940488529772005e-03 -7.7702868988581120e-01
    8.0697004355840315e-03 -7.8679579246944309e-01
    8.0251420280887335e-03 -8.0652677382291771e-01
    8.2060993986221818e-03 -7.3854894587599640e-01
    8.2715277830910858e-03 -7.1962291712892446e-01
    8.1198232804652170e-03 -7.6732330000396298e-01
    8.1198232804652170e-03 -7.6732330000396298e-01
    8.1758059384954892e-03 -7.4808624337233731e-01
    7.9681907288959575e-03 -8.3666002653407556e-01
    7.8518361481952591e-03 -9.5399809200572394e-01
    7.8781075261518518e-03 -9.0992141927053893e-01
    7.9517362996057023e-03 -8.4685991590800724e-01
    7.8436800889168622e-03 -1.0118347314702751e+00
    7.8436800889168622e-03 -9.8830369120352468e-01
    7.8698694108314277e-03 -1.0860419786947371e+00
    7.8567420131838619e-03 -1.0606601717798214e+00
    7.8436800889168622e-03 -9.8830369120352468e-01
    7.8627505768002846e-03 -9.3173594335083376e-01
    7.9681907288959575e-03 -8.3666002653407556e-01
    7.9517362996057023e-03 -8.4685991590800724e-01
    8.2060993986221818e-03 -7.3854894587599640e-01
    9.0924120931663490e-03 -5.7282196186947998e-01
    1.1072730647165329e-02 -4.1522739926869984e-01
    1.1072730647165329e-02 -4.1522739926869984e-01
    8.6066296582387042e-03 -6.4549722436790280e-01
    7.9517362996057023e-03 -8.4685991590800724e-01
    7.8781075261518518e-03 -9.0992141927053893e-01
    7.8453092674761107e-03 -9.7674100380077578e-01
    7.8453092674761107e-03 -1.0238128594056324e+00
    7.8480268224668526e-03 -1.0359395405656247e+00
    7.9517362996057023e-03 -1.1808328404914468e+00
    8.0697004355840315e-03 -1.2709778186044849e+00
    7.8781075261518518e-03 -1.0989959998981833e+00
    7.9365079365079361e-03 -1.1666666666666665e+00
    7.8627505768002846e-03 -1.0732654537332389e+00
    7.9858933996997550e-03 -8.2653996686892461e-01
    8.1758059384954892e-03 -7.4808624337233731e-01
    8.0467424930877936e-03 -7.9662750681569161e-01
    8.2379897210506196e-03 -7.2906209031297986e-01
    8.1758059384954892e-03 -7.4808624337233731e-01
    8.2060993986221818e-03 -7.3854894587599640e-01
    8.2715277830910858e-03 -7.1962291712892446e-01
    8.1758059384954892e-03 -7.4808624337233731e-01
    8.2379897210506196e-03 -7.2906209031297986e-01
    8.0251420280887335e-03 -8.0652677382291771e-01
    8.1198232804652170e-03 -7.6732330000396298e-01
    8.0467424930877936e-03 -7.9662750681569161e-01
    7.9858933996997550e-03 -8.2653996686892461e-01
    7.9224853312287059e-03 -8.6751214376954333e-01
    7.9681907288959575e-03 -8.3666002653407556e-01
    7.8979850367878988e-03 -8.8852331663863859e-01
    7.8874754046716830e-03 -8.9917219613257182e-01
    7.8781075261518518e-03 -9.0992141927053893e-01
    7.8453092674761107e-03 -1.0238128594056324e+00
    7.8431372549019607e-03 -1. 7.8518361481952591e-03
    -1.0482201257840671e+00 7.8453092674761107e-03
    -9.7674100380077578e-01 7.8874754046716830e-03
    -8.9917219613257182e-01 7.8874754046716830e-03
    -8.9917219613257182e-01 7.8979850367878988e-03
    -8.8852331663863859e-01 7.9681907288959575e-03
    -8.3666002653407556e-01 9.0213732707525203e-03
    -5.8187857596353754e-01 9.9149718935422782e-03
    -4.9079110873034276e-01 1.0425579051926741e-02
    -4.5351268875881323e-01 8.6066296582387042e-03
    -6.4549722436790280e-01 7.9517362996057023e-03
    -8.4685991590800724e-01 7.8453092674761107e-03
    -9.7674100380077578e-01 7.8627505768002846e-03
    -1.0732654537332389e+00 7.8480268224668526e-03
    -1.0359395405656247e+00 7.8436800889168622e-03
    -9.8830369120352468e-01 7.9096499646041582e-03
    -1.1389895949029989e+00 7.8874754046716830e-03
    -1.1121340320587072e+00 7.8518361481952591e-03
    -1.0482201257840671e+00 7.8698694108314277e-03
    -1.0860419786947371e+00 7.9096499646041582e-03
    -8.7797114607106153e-01 8.1470619456307375e-03
    -7.5767676094365854e-01 8.2379897210506196e-03
    -7.2906209031297986e-01 8.0697004355840315e-03
    -7.8679579246944309e-01 8.2379897210506196e-03
    -7.2906209031297986e-01 8.1758059384954892e-03
    -7.4808624337233731e-01 8.0940488529772005e-03
    -7.7702868988581120e-01 8.1758059384954892e-03
    -7.4808624337233731e-01 8.0467424930877936e-03
    -7.9662750681569161e-01 8.1470619456307375e-03
    -7.5767676094365854e-01 8.1198232804652170e-03
    -7.6732330000396298e-01 8.0940488529772005e-03
    -7.7702868988581120e-01 7.9365079365079361e-03
    -8.5714285714285710e-01 7.9365079365079361e-03
    -8.5714285714285710e-01 8.0467424930877936e-03
    -7.9662750681569161e-01 7.9681907288959575e-03
    -8.3666002653407556e-01 7.9681907288959575e-03
    -8.3666002653407556e-01 7.8698694108314277e-03
    -9.2077472106727709e-01 7.9365079365079361e-03
    -8.5714285714285710e-01 7.8698694108314277e-03
    -1.0860419786947371e+00 7.9224853312287059e-03
    -1.1527216156937767e+00 7.9681907288959575e-03
    -1.1952286093343936e+00 7.9517362996057023e-03
    -1.1808328404914468e+00 7.8567420131838619e-03
    -1.0606601717798214e+00 7.8431372549019607e-03 -1.
    7.8453092674761107e-03 -9.7674100380077578e-01
    7.9365079365079361e-03 -8.5714285714285710e-01
    8.8888888888888889e-03 -5.9999999999999998e-01
    1.1465319341501828e-02 -3.9555351728181309e-01
    1.0286889997472794e-02 -4.6291004988627571e-01
    8.7681355729783139e-03 -6.1815355789497117e-01
    8.0467424930877936e-03 -7.9662750681569161e-01
    7.8518361481952591e-03 -9.5399809200572394e-01
    7.8698694108314277e-03 -1.0860419786947371e+00
    7.8480268224668526e-03 -1.0359395405656247e+00
    7.8436800889168622e-03 -9.8830369120352468e-01
    7.8453092674761107e-03 -9.7674100380077578e-01
    7.8781075261518518e-03 -1.0989959998981833e+00
    7.8567420131838619e-03 -1.0606601717798214e+00
    7.8480268224668526e-03 -1.0359395405656247e+00
    7.8480268224668526e-03 -1.0359395405656247e+00
    8.1470619456307375e-03 -7.5767676094365854e-01
    8.0940488529772005e-03 -7.7702868988581120e-01
    8.1470619456307375e-03 -7.5767676094365854e-01
    8.0940488529772005e-03 -7.7702868988581120e-01
    8.1198232804652170e-03 -7.6732330000396298e-01
    7.9517362996057023e-03 -8.4685991590800724e-01
    8.0697004355840315e-03 -7.8679579246944309e-01
    8.0467424930877936e-03 -7.9662750681569161e-01
    8.0048684404679018e-03 -8.1649658092772603e-01
    8.0251420280887335e-03 -8.0652677382291771e-01
    8.0467424930877936e-03 -7.9662750681569161e-01
    8.0048684404679018e-03 -8.1649658092772603e-01
    7.9365079365079361e-03 -8.5714285714285710e-01
    8.0048684404679018e-03 -8.1649658092772603e-01
    8.0467424930877936e-03 -7.9662750681569161e-01
    8.0251420280887335e-03 -8.0652677382291771e-01
    8.0697004355840315e-03 -7.8679579246944309e-01
    8.0048684404679018e-03 -8.1649658092772603e-01
    7.8453092674761107e-03 -1.0238128594056324e+00
    7.8518361481952591e-03 -9.5399809200572394e-01
    8.1758059384954892e-03 -1.3367442709440125e+00
    7.9517362996057023e-03 -1.1808328404914468e+00
    7.8453092674761107e-03 -1.0238128594056324e+00
    7.8627505768002846e-03 -1.0732654537332389e+00
    7.8781075261518518e-03 -9.0992141927053893e-01
    8.0048684404679018e-03 -8.1649658092772603e-01
    8.5107153531360884e-03 -6.6383579754461486e-01
    9.6985728993774396e-03 -5.0917507721731559e-01
    1.1918070753976346e-02 -3.7541922875025491e-01
    9.0213732707525203e-03 -5.8187857596353754e-01
    8.0940488529772005e-03 -7.7702868988581120e-01
    7.8567420131838619e-03 -9.4280904158206347e-01
    7.8627505768002846e-03 -1.0732654537332389e+00
    7.8480268224668526e-03 -9.6530729916342284e-01
    7.8431372549019607e-03 -1. 7.8627505768002846e-03
    -1.0732654537332389e+00 7.8627505768002846e-03
    -1.0732654537332389e+00 7.8453092674761107e-03
    -1.0238128594056324e+00 7.8480268224668526e-03
    -1.0359395405656247e+00 7.8518361481952591e-03
    -9.5399809200572394e-01 7.9858933996997550e-03
    -8.2653996686892461e-01 8.0697004355840315e-03
    -7.8679579246944309e-01 8.1470619456307375e-03
    -7.5767676094365854e-01 8.0940488529772005e-03
    -7.7702868988581120e-01 8.1470619456307375e-03
    -7.5767676094365854e-01 7.8979850367878988e-03
    -8.8852331663863859e-01 7.8979850367878988e-03
    -8.8852331663863859e-01 7.9858933996997550e-03
    -8.2653996686892461e-01 7.9681907288959575e-03
    -8.3666002653407556e-01 8.0048684404679018e-03
    -8.1649658092772603e-01 8.0940488529772005e-03
    -7.7702868988581120e-01 8.0697004355840315e-03
    -7.8679579246944309e-01 7.9517362996057023e-03
    -8.4685991590800724e-01 8.0251420280887335e-03
    -8.0652677382291771e-01 7.9681907288959575e-03
    -8.3666002653407556e-01 8.0697004355840315e-03
    -7.8679579246944309e-01 7.9858933996997550e-03
    -8.2653996686892461e-01 7.9096499646041582e-03
    -8.7797114607106153e-01 7.8453092674761107e-03
    -9.7674100380077578e-01 7.8698694108314277e-03
    -1.0860419786947371e+00 8.0940488529772005e-03
    -1.2869537676233749e+00 8.0251420280887335e-03
    -1.2398844433397094e+00 7.8436800889168622e-03
    -9.8830369120352468e-01 7.8874754046716830e-03
    -1.1121340320587072e+00 7.8436800889168622e-03
    -1.0118347314702751e+00 7.9365079365079361e-03
    -8.5714285714285710e-01 8.8271190222062677e-03
    -6.0907121253223251e-01 1.0155948592729207e-02
    -4.7225160956190815e-01 1.1465319341501828e-02
    -3.9555351728181309e-01 8.9535884891708932e-03
    -5.9093684028527893e-01 8.0048684404679018e-03
    -8.1649658092772603e-01 7.8453092674761107e-03
    -1.0238128594056324e+00 7.8436800889168622e-03
    -1.0118347314702751e+00 7.8431372549019607e-03 -1.
    7.8781075261518518e-03 -1.0989959998981833e+00
    7.8567420131838619e-03 -1.0606601717798214e+00
    7.9517362996057023e-03 -1.1808328404914468e+00
    7.8627505768002846e-03 -9.3173594335083376e-01
    7.8436800889168622e-03 -1.0118347314702751e+00
    7.8518361481952591e-03 -9.5399809200572394e-01
    8.0048684404679018e-03 -8.1649658092772603e-01
    8.0697004355840315e-03 -7.8679579246944309e-01
    8.1470619456307375e-03 -7.5767676094365854e-01
    8.1758059384954892e-03 -7.4808624337233731e-01
    8.0697004355840315e-03 -7.8679579246944309e-01
    7.9858933996997550e-03 -8.2653996686892461e-01
    7.9096499646041582e-03 -8.7797114607106153e-01
    7.8979850367878988e-03 -8.8852331663863859e-01
    7.8567420131838619e-03 -9.4280904158206347e-01
    7.9681907288959575e-03 -8.3666002653407556e-01
    8.0467424930877936e-03 -7.9662750681569161e-01
    7.9096499646041582e-03 -8.7797114607106153e-01
    7.8781075261518518e-03 -9.0992141927053893e-01
    7.9681907288959575e-03 -8.3666002653407556e-01
    7.9858933996997550e-03 -8.2653996686892461e-01
    7.9858933996997550e-03 -8.2653996686892461e-01
    8.0467424930877936e-03 -7.9662750681569161e-01
    7.8874754046716830e-03 -8.9917219613257182e-01
    7.8453092674761107e-03 -1.0238128594056324e+00
    7.9224853312287059e-03 -1.1527216156937767e+00
    7.8627505768002846e-03 -1.0732654537332389e+00
    7.9858933996997550e-03 -1.2098628500545130e+00
    7.8567420131838619e-03 -1.0606601717798214e+00
    7.8480268224668526e-03 -9.6530729916342284e-01
    7.8567420131838619e-03 -9.4280904158206347e-01
    7.9517362996057023e-03 -8.4685991590800724e-01
    8.5107153531360884e-03 -6.6383579754461486e-01
    1.0286889997472794e-02 -4.6291004988627571e-01
    1.0728989990783724e-02 -4.3452409462674080e-01
    9.0924120931663490e-03 -5.7282196186947998e-01
    7.8874754046716830e-03 -8.9917219613257182e-01
    7.8518361481952591e-03 -9.5399809200572394e-01
    7.8627505768002846e-03 -1.0732654537332389e+00
    7.8567420131838619e-03 -1.0606601717798214e+00
    7.8436800889168622e-03 -1.0118347314702751e+00
    7.8627505768002846e-03 -1.0732654537332389e+00
    7.8480268224668526e-03 -9.6530729916342284e-01
    7.8979850367878988e-03 -8.8852331663863859e-01
    7.8567420131838619e-03 -9.4280904158206347e-01
    7.8698694108314277e-03 -9.2077472106727709e-01
    8.0048684404679018e-03 -8.1649658092772603e-01
    8.2379897210506196e-03 -7.2906209031297986e-01
    8.2379897210506196e-03 -7.2906209031297986e-01
    8.0697004355840315e-03 -7.8679579246944309e-01
    8.1198232804652170e-03 -7.6732330000396298e-01
    8.0467424930877936e-03 -7.9662750681569161e-01
    7.9224853312287059e-03 -8.6751214376954333e-01
    7.9681907288959575e-03 -8.3666002653407556e-01
    7.9224853312287059e-03 -8.6751214376954333e-01
    8.0048684404679018e-03 -8.1649658092772603e-01
    8.1758059384954892e-03 -7.4808624337233731e-01
    8.0048684404679018e-03 -8.1649658092772603e-01
    7.9681907288959575e-03 -8.3666002653407556e-01
    8.0697004355840315e-03 -7.8679579246944309e-01
    8.0048684404679018e-03 -8.1649658092772603e-01
    8.2060993986221818e-03 -7.3854894587599640e-01
    8.1198232804652170e-03 -7.6732330000396298e-01
    8.0467424930877936e-03 -7.9662750681569161e-01
    7.8480268224668526e-03 -9.6530729916342284e-01
    7.8518361481952591e-03 -1.0482201257840671e+00
    7.9096499646041582e-03 -1.1389895949029989e+00
    7.9096499646041582e-03 -1.1389895949029989e+00
    7.8781075261518518e-03 -9.0992141927053893e-01
    7.8874754046716830e-03 -8.9917219613257182e-01
    7.9096499646041582e-03 -8.7797114607106153e-01
    8.0467424930877936e-03 -7.9662750681569161e-01
    8.1758059384954892e-03 -7.4808624337233731e-01
    1.0728989990783724e-02 -4.3452409462674080e-01
    1.1262289639991433e-02 -4.0544242703969158e-01
    9.5034667248096363e-03 -5.2744240322693481e-01
    8.1758059384954892e-03 -7.4808624337233731e-01
    7.8453092674761107e-03 -9.7674100380077578e-01
    7.8480268224668526e-03 -1.0359395405656247e+00
    7.8781075261518518e-03 -1.0989959998981833e+00
    7.8453092674761107e-03 -1.0238128594056324e+00
    7.8436800889168622e-03 -9.8830369120352468e-01
    7.8436800889168622e-03 -1.0118347314702751e+00
    7.8781075261518518e-03 -9.0992141927053893e-01
    7.8979850367878988e-03 -8.8852331663863859e-01
    8.0467424930877936e-03 -7.9662750681569161e-01
    7.9096499646041582e-03 -8.7797114607106153e-01
    8.2379897210506196e-03 -7.2906209031297986e-01
    8.2060993986221818e-03 -7.3854894587599640e-01
    8.0251420280887335e-03 -8.0652677382291771e-01
    7.9517362996057023e-03 -8.4685991590800724e-01
    7.9224853312287059e-03 -8.6751214376954333e-01
    8.0251420280887335e-03 -8.0652677382291771e-01
    7.9858933996997550e-03 -8.2653996686892461e-01
    7.9517362996057023e-03 -8.4685991590800724e-01
    8.0940488529772005e-03 -7.7702868988581120e-01
    7.9517362996057023e-03 -8.4685991590800724e-01
    7.9858933996997550e-03 -8.2653996686892461e-01
    7.9858933996997550e-03 -8.2653996686892461e-01
    8.1198232804652170e-03 -7.6732330000396298e-01
    8.0467424930877936e-03 -7.9662750681569161e-01
    8.3437695720293137e-03 -7.0087664405046235e-01
    8.0940488529772005e-03 -7.7702868988581120e-01
    8.0940488529772005e-03 -7.7702868988581120e-01
    7.9365079365079361e-03 -8.5714285714285710e-01
    7.8480268224668526e-03 -9.6530729916342284e-01
    7.8874754046716830e-03 -1.1121340320587072e+00
    8.0697004355840315e-03 -1.2709778186044849e+00
    7.8480268224668526e-03 -9.6530729916342284e-01
    7.8627505768002846e-03 -9.3173594335083376e-01
    7.8627505768002846e-03 -9.3173594335083376e-01
    8.0467424930877936e-03 -7.9662750681569161e-01
    8.0940488529772005e-03 -7.7702868988581120e-01
    9.9149718935422782e-03 -4.9079110873034276e-01
    1.3826022596405670e-02 -3.1108550841912758e-01
    1.0286889997472794e-02 -4.6291004988627571e-01
    8.5107153531360884e-03 -6.6383579754461486e-01
    7.8781075261518518e-03 -9.0992141927053893e-01
    7.8567420131838619e-03 -9.4280904158206347e-01
    7.8453092674761107e-03 -1.0238128594056324e+00
    7.8453092674761107e-03 -9.7674100380077578e-01
    7.8480268224668526e-03 -1.0359395405656247e+00
    7.8453092674761107e-03 -1.0238128594056324e+00
    7.8781075261518518e-03 -9.0992141927053893e-01
    7.9365079365079361e-03 -8.5714285714285710e-01
    7.9365079365079361e-03 -8.5714285714285710e-01
    7.9681907288959575e-03 -8.3666002653407556e-01
    8.1198232804652170e-03 -7.6732330000396298e-01
    8.2060993986221818e-03 -7.3854894587599640e-01
    8.0467424930877936e-03 -7.9662750681569161e-01
    7.9517362996057023e-03 -8.4685991590800724e-01
    7.8698694108314277e-03 -9.2077472106727709e-01
    7.8979850367878988e-03 -8.8852331663863859e-01
    8.0048684404679018e-03 -8.1649658092772603e-01
    7.9858933996997550e-03 -8.2653996686892461e-01
    8.1470619456307375e-03 -7.5767676094365854e-01
    8.0467424930877936e-03 -7.9662750681569161e-01
    8.1470619456307375e-03 -7.5767676094365854e-01
    8.0697004355840315e-03 -7.8679579246944309e-01
    8.3825948461590874e-03 -6.9156407480812476e-01
    8.3067681942693393e-03 -7.1022868061002853e-01
    8.2060993986221818e-03 -7.3854894587599640e-01
    8.0467424930877936e-03 -7.9662750681569161e-01
    7.8627505768002846e-03 -9.3173594335083376e-01
    7.8453092674761107e-03 -9.7674100380077578e-01
    8.0048684404679018e-03 -8.1649658092772603e-01
    7.9096499646041582e-03 -1.1389895949029989e+00
    7.8627505768002846e-03 -1.0732654537332389e+00
    7.8781075261518518e-03 -9.0992141927053893e-01
    7.8874754046716830e-03 -8.9917219613257182e-01
    7.8874754046716830e-03 -8.9917219613257182e-01
    8.0048684404679018e-03 -8.1649658092772603e-01
    8.0697004355840315e-03 -7.8679579246944309e-01
    9.5985380620151120e-03 -5.1832105534881601e-01
    1.4756631713965728e-02 -2.8775431842233168e-01
    9.6985728993774396e-03 -5.0917507721731559e-01
    8.6580086580086580e-03 -6.3636363636363635e-01
    8.3067681942693393e-03 -7.1022868061002853e-01
    7.8698694108314277e-03 -9.2077472106727709e-01
    7.8436800889168622e-03 -9.8830369120352468e-01
    7.8431372549019607e-03 -1. 7.8627505768002846e-03
    -1.0732654537332389e+00 7.8436800889168622e-03
    -9.8830369120352468e-01 7.8627505768002846e-03
    -9.3173594335083376e-01 7.9681907288959575e-03
    -8.3666002653407556e-01 7.9681907288959575e-03
    -8.3666002653407556e-01 7.8874754046716830e-03
    -8.9917219613257182e-01 7.9096499646041582e-03
    -8.7797114607106153e-01 8.0048684404679018e-03
    -8.1649658092772603e-01 7.8781075261518518e-03
    -9.0992141927053893e-01 8.0697004355840315e-03
    -7.8679579246944309e-01 7.9365079365079361e-03
    -8.5714285714285710e-01 7.9096499646041582e-03
    -8.7797114607106153e-01 8.0251420280887335e-03
    -8.0652677382291771e-01 8.1470619456307375e-03
    -7.5767676094365854e-01 8.1198232804652170e-03
    -7.6732330000396298e-01 8.0467424930877936e-03
    -7.9662750681569161e-01 8.2715277830910858e-03
    -7.1962291712892446e-01 8.2060993986221818e-03
    -7.3854894587599640e-01 8.2715277830910858e-03
    -7.1962291712892446e-01 8.0251420280887335e-03
    -8.0652677382291771e-01 8.0251420280887335e-03
    -8.0652677382291771e-01 8.2379897210506196e-03
    -7.2906209031297986e-01 7.9096499646041582e-03
    -8.7797114607106153e-01 8.1758059384954892e-03
    -7.4808624337233731e-01 7.8781075261518518e-03
    -9.0992141927053893e-01 7.9096499646041582e-03
    -1.1389895949029989e+00 7.8979850367878988e-03
    -1.1254628677422756e+00 7.8518361481952591e-03
    -9.5399809200572394e-01 7.8431372549019607e-03 -1.
    7.8698694108314277e-03 -9.2077472106727709e-01
    7.9681907288959575e-03 -8.3666002653407556e-01
    8.0048684404679018e-03 -8.1649658092772603e-01
    9.5985380620151120e-03 -5.1832105534881601e-01
    1.4756631713965728e-02 -2.8775431842233168e-01
    1.0572691328259186e-02 -4.4405303578688582e-01
    8.8888888888888889e-03 -5.9999999999999998e-01
    8.6580086580086580e-03 -6.3636363636363635e-01
    7.9365079365079361e-03 -8.5714285714285710e-01
    7.9858933996997550e-03 -8.2653996686892461e-01
    7.8480268224668526e-03 -1.0359395405656247e+00
    7.8518361481952591e-03 -1.0482201257840671e+00
    7.8453092674761107e-03 -9.7674100380077578e-01
    7.8436800889168622e-03 -1.0118347314702751e+00
    7.8518361481952591e-03 -9.5399809200572394e-01
    7.8627505768002846e-03 -1.0732654537332389e+00
    7.8979850367878988e-03 -1.1254628677422756e+00
    7.8453092674761107e-03 -1.0238128594056324e+00
    7.8480268224668526e-03 -9.6530729916342284e-01
    7.9681907288959575e-03 -8.3666002653407556e-01
    7.9365079365079361e-03 -8.5714285714285710e-01
    8.0697004355840315e-03 -7.8679579246944309e-01
    7.9517362996057023e-03 -8.4685991590800724e-01
    8.0940488529772005e-03 -7.7702868988581120e-01
    8.4659924195495482e-03 -6.7304639735418903e-01
    8.3437695720293137e-03 -7.0087664405046235e-01
    8.5107153531360884e-03 -6.6383579754461486e-01
    8.6066296582387042e-03 -6.4549722436790280e-01
    8.4233115953211493e-03 -6.8228823922101312e-01
    8.3437695720293137e-03 -7.0087664405046235e-01
    8.3437695720293137e-03 -7.0087664405046235e-01
    8.0940488529772005e-03 -7.7702868988581120e-01
    7.9224853312287059e-03 -8.6751214376954333e-01
    7.8698694108314277e-03 -9.2077472106727709e-01
    7.9365079365079361e-03 -8.5714285714285710e-01
    7.8627505768002846e-03 -9.3173594335083376e-01
    7.9224853312287059e-03 -1.1527216156937767e+00
    7.9681907288959575e-03 -1.1952286093343936e+00
    7.8453092674761107e-03 -9.7674100380077578e-01
    7.8480268224668526e-03 -9.6530729916342284e-01
    7.9365079365079361e-03 -8.5714285714285710e-01
    7.9681907288959575e-03 -8.3666002653407556e-01
    7.9858933996997550e-03 -8.2653996686892461e-01
    1.0032154423814102e-02 -4.8154341234307685e-01
    1.7513564583091126e-02 -2.3643312187173021e-01
    1.2446391765625262e-02 -3.5472216532031997e-01
    8.8888888888888889e-03 -5.9999999999999998e-01
    8.4233115953211493e-03 -6.8228823922101312e-01
    7.8979850367878988e-03 -8.8852331663863859e-01
    7.9224853312287059e-03 -8.6751214376954333e-01
    7.8979850367878988e-03 -8.8852331663863859e-01
    7.9096499646041582e-03 -8.7797114607106153e-01
    7.8567420131838619e-03 -9.4280904158206347e-01
    7.8431372549019607e-03 -1. 7.9096499646041582e-03
    -8.7797114607106153e-01 7.8518361481952591e-03
    -9.5399809200572394e-01 7.8436800889168622e-03
    -1.0118347314702751e+00 7.8453092674761107e-03
    -1.0238128594056324e+00 7.8453092674761107e-03
    -1.0238128594056324e+00 7.8453092674761107e-03
    -9.7674100380077578e-01 8.0940488529772005e-03
    -7.7702868988581120e-01 8.0251420280887335e-03
    -8.0652677382291771e-01 7.9517362996057023e-03
    -8.4685991590800724e-01 8.0048684404679018e-03
    -8.1649658092772603e-01 8.1470619456307375e-03
    -7.5767676094365854e-01 8.2715277830910858e-03
    -7.1962291712892446e-01 8.6580086580086580e-03
    -6.3636363636363635e-01 8.3437695720293137e-03
    -7.0087664405046235e-01 8.2060993986221818e-03
    -7.3854894587599640e-01 8.1758059384954892e-03
    -7.4808624337233731e-01 8.1470619456307375e-03
    -7.5767676094365854e-01 8.1198232804652170e-03
    -7.6732330000396298e-01 7.8627505768002846e-03
    -9.3173594335083376e-01 7.8698694108314277e-03
    -9.2077472106727709e-01 7.9365079365079361e-03
    -8.5714285714285710e-01 7.8781075261518518e-03
    -1.0989959998981833e+00 7.9096499646041582e-03
    -1.1389895949029989e+00 7.8567420131838619e-03
    -9.4280904158206347e-01 7.8698694108314277e-03
    -9.2077472106727709e-01 7.8781075261518518e-03
    -9.0992141927053893e-01 8.0048684404679018e-03
    -8.1649658092772603e-01 8.0251420280887335e-03
    -8.0652677382291771e-01 8.3067681942693393e-03
    -7.1022868061002853e-01 1.0728989990783724e-02
    -4.3452409462674080e-01 1.3826022596405670e-02
    -3.1108550841912758e-01 1.1262289639991433e-02
    -4.0544242703969158e-01 9.0924120931663490e-03
    -5.7282196186947998e-01 8.6066296582387042e-03
    -6.4549722436790280e-01 7.9681907288959575e-03
    -8.3666002653407556e-01 7.8698694108314277e-03
    -9.2077472106727709e-01 7.8698694108314277e-03
    -9.2077472106727709e-01 7.8781075261518518e-03
    -9.0992141927053893e-01 7.8453092674761107e-03
    -9.7674100380077578e-01 7.8431372549019607e-03 -1.
    7.8480268224668526e-03 -9.6530729916342284e-01
    7.8480268224668526e-03 -9.6530729916342284e-01
    7.8453092674761107e-03 -9.7674100380077578e-01
    7.8627505768002846e-03 -9.3173594335083376e-01
    7.8567420131838619e-03 -9.4280904158206347e-01
    7.8431372549019607e-03 -1. 7.8567420131838619e-03
    -9.4280904158206347e-01 8.0940488529772005e-03
    -7.7702868988581120e-01 7.9096499646041582e-03
    -8.7797114607106153e-01 7.9517362996057023e-03
    -8.4685991590800724e-01 8.3067681942693393e-03
    -7.1022868061002853e-01 8.2715277830910858e-03
    -7.1962291712892446e-01 8.5107153531360884e-03
    -6.6383579754461486e-01 8.3437695720293137e-03
    -7.0087664405046235e-01 8.0940488529772005e-03
    -7.7702868988581120e-01 8.0940488529772005e-03
    -7.7702868988581120e-01 7.8781075261518518e-03
    -9.0992141927053893e-01 7.9096499646041582e-03
    -8.7797114607106153e-01 8.0048684404679018e-03
    -8.1649658092772603e-01 7.9224853312287059e-03
    -8.6751214376954333e-01 7.9224853312287059e-03
    -8.6751214376954333e-01 7.8979850367878988e-03
    -1.1254628677422756e+00 7.9096499646041582e-03
    -1.1389895949029989e+00 7.8627505768002846e-03
    -9.3173594335083376e-01 7.8518361481952591e-03
    -9.5399809200572394e-01 7.8781075261518518e-03
    -9.0992141927053893e-01 8.0251420280887335e-03
    -8.0652677382291771e-01 8.0697004355840315e-03
    -7.8679579246944309e-01 8.7118062248219448e-03
    -6.2725004818718000e-01 1.1918070753976346e-02
    -3.7541922875025491e-01 1.4756631713965728e-02
    -2.8775431842233168e-01 1.2171612389003692e-02
    -3.6514837167011077e-01 9.3269745043431489e-03
    -5.4562800850407422e-01 8.5575643229800942e-03
    -6.5465367070797720e-01 8.1470619456307375e-03
    -7.5767676094365854e-01 7.9224853312287059e-03
    -8.6751214376954333e-01 7.8627505768002846e-03
    -9.3173594335083376e-01 7.8453092674761107e-03
    -9.7674100380077578e-01 7.8567420131838619e-03
    -1.0606601717798214e+00 7.8567420131838619e-03
    -9.4280904158206347e-01 7.8627505768002846e-03
    -9.3173594335083376e-01 7.8698694108314277e-03
    -9.2077472106727709e-01 7.8781075261518518e-03
    -1.0989959998981833e+00 7.8627505768002846e-03
    -1.0732654537332389e+00 7.8480268224668526e-03
    -1.0359395405656247e+00 7.8480268224668526e-03
    -1.0359395405656247e+00 7.8431372549019607e-03 -1.
    7.8979850367878988e-03 -8.8852331663863859e-01
    7.8518361481952591e-03 -9.5399809200572394e-01
    7.8480268224668526e-03 -9.6530729916342284e-01
    8.1758059384954892e-03 -7.4808624337233731e-01
    7.8979850367878988e-03 -8.8852331663863859e-01
    7.9365079365079361e-03 -8.5714285714285710e-01
    7.9096499646041582e-03 -8.7797114607106153e-01
    7.8436800889168622e-03 -1.0118347314702751e+00
    7.8453092674761107e-03 -9.7674100380077578e-01
    7.8627505768002846e-03 -9.3173594335083376e-01
    7.8567420131838619e-03 -9.4280904158206347e-01
    7.8436800889168622e-03 -1.0118347314702751e+00
    7.9365079365079361e-03 -8.5714285714285710e-01
    7.8453092674761107e-03 -1.0238128594056324e+00
    7.9096499646041582e-03 -1.1389895949029989e+00
    7.8567420131838619e-03 -9.4280904158206347e-01
    7.8874754046716830e-03 -8.9917219613257182e-01
    7.8781075261518518e-03 -9.0992141927053893e-01
    7.9681907288959575e-03 -8.3666002653407556e-01
    7.9858933996997550e-03 -8.2653996686892461e-01
    8.2060993986221818e-03 -7.3854894587599640e-01
    8.6580086580086580e-03 -6.3636363636363635e-01
    1.2171612389003692e-02 -3.6514837167011077e-01
    1.6666666666666666e-02 -2.5000000000000000e-01
    1.3826022596405670e-02 -3.1108550841912758e-01
    1.0032154423814102e-02 -4.8154341234307685e-01
    8.5575643229800942e-03 -6.5465367070797720e-01
    8.2379897210506196e-03 -7.2906209031297986e-01
    8.0697004355840315e-03 -7.8679579246944309e-01
    7.8567420131838619e-03 -9.4280904158206347e-01
    7.8518361481952591e-03 -9.5399809200572394e-01
    7.8431372549019607e-03 -1. 7.8453092674761107e-03
    -9.7674100380077578e-01 7.8480268224668526e-03
    -1.0359395405656247e+00 7.8431372549019607e-03 -1.
    7.8874754046716830e-03 -1.1121340320587072e+00
    8.0467424930877936e-03 -1.2552918289216959e+00
    7.8453092674761107e-03 -1.0238128594056324e+00
    7.8436800889168622e-03 -1.0118347314702751e+00
    7.8480268224668526e-03 -9.6530729916342284e-01
    7.8567420131838619e-03 -9.4280904158206347e-01
    7.8567420131838619e-03 -9.4280904158206347e-01
    7.8627505768002846e-03 -9.3173594335083376e-01
    7.8480268224668526e-03 -9.6530729916342284e-01
    7.8453092674761107e-03 -9.7674100380077578e-01
    7.8979850367878988e-03 -8.8852331663863859e-01
    7.8453092674761107e-03 -9.7674100380077578e-01
    7.8480268224668526e-03 -9.6530729916342284e-01
    7.8431372549019607e-03 -1. 7.8453092674761107e-03
    -9.7674100380077578e-01 7.8480268224668526e-03
    -1.0359395405656247e+00 7.8453092674761107e-03
    -9.7674100380077578e-01 7.9365079365079361e-03
    -8.5714285714285710e-01 7.8436800889168622e-03
    -9.8830369120352468e-01 7.8567420131838619e-03
    -9.4280904158206347e-01 7.9096499646041582e-03
    -8.7797114607106153e-01 7.9224853312287059e-03
    -8.6751214376954333e-01 8.0940488529772005e-03
    -7.7702868988581120e-01 8.0467424930877936e-03
    -7.9662750681569161e-01 8.0467424930877936e-03
    -7.9662750681569161e-01 8.2715277830910858e-03
    -7.1962291712892446e-01 9.0213732707525203e-03
    -5.8187857596353754e-01 1.2171612389003692e-02
    -3.6514837167011077e-01 1.7513564583091126e-02
    -2.3643312187173021e-01 1.4265349750363764e-02
    -2.9957234475763905e-01 1.1918070753976346e-02
    -3.7541922875025491e-01 8.7681355729783139e-03
    -6.1815355789497117e-01 8.1758059384954892e-03
    -7.4808624337233731e-01 8.2060993986221818e-03
    -7.3854894587599640e-01 8.2060993986221818e-03
    -7.3854894587599640e-01 7.9224853312287059e-03
    -8.6751214376954333e-01 7.9681907288959575e-03
    -8.3666002653407556e-01 7.8781075261518518e-03
    -9.0992141927053893e-01 7.8979850367878988e-03
    -8.8852331663863859e-01 7.8979850367878988e-03
    -8.8852331663863859e-01 7.8874754046716830e-03
    -8.9917219613257182e-01 7.8979850367878988e-03
    -1.1254628677422756e+00 7.9096499646041582e-03
    -1.1389895949029989e+00 7.8979850367878988e-03
    -1.1254628677422756e+00 7.8567420131838619e-03
    -1.0606601717798214e+00 7.8627505768002846e-03
    -1.0732654537332389e+00 7.8567420131838619e-03
    -1.0606601717798214e+00 7.8431372549019607e-03 -1.
    7.8431372549019607e-03 -1. 7.8436800889168622e-03
    -1.0118347314702751e+00 7.8567420131838619e-03
    -9.4280904158206347e-01 7.8518361481952591e-03
    -9.5399809200572394e-01 7.8431372549019607e-03 -1.
    7.8567420131838619e-03 -1.0606601717798214e+00
    7.8567420131838619e-03 -1.0606601717798214e+00
    7.9224853312287059e-03 -8.6751214376954333e-01
    7.8480268224668526e-03 -1.0359395405656247e+00
    7.9096499646041582e-03 -8.7797114607106153e-01
    7.9224853312287059e-03 -1.1527216156937767e+00
    7.8698694108314277e-03 -9.2077472106727709e-01
    7.9681907288959575e-03 -8.3666002653407556e-01
    7.9517362996057023e-03 -8.4685991590800724e-01
    8.0467424930877936e-03 -7.9662750681569161e-01
    8.1758059384954892e-03 -7.4808624337233731e-01
    8.0940488529772005e-03 -7.7702868988581120e-01
    8.6580086580086580e-03 -6.3636363636363635e-01
    9.5985380620151120e-03 -5.1832105534881601e-01
    1.3071895424836602e-02 -3.3333333333333337e-01
    1.9736308213911233e-02 -2.0723123624606796e-01
    1.4265349750363764e-02 -2.9957234475763905e-01
    1.2745318548364542e-02 -3.4412360080584264e-01
    9.9149718935422782e-03 -4.9079110873034276e-01
    8.8271190222062677e-03 -6.0907121253223251e-01
    8.3067681942693393e-03 -7.1022868061002853e-01
    8.3067681942693393e-03 -7.1022868061002853e-01
    8.3825948461590874e-03 -6.9156407480812476e-01
    8.0048684404679018e-03 -8.1649658092772603e-01
    8.0697004355840315e-03 -7.8679579246944309e-01
    8.0251420280887335e-03 -8.0652677382291771e-01
    8.0697004355840315e-03 -7.8679579246944309e-01
    7.8781075261518518e-03 -9.0992141927053893e-01
    7.8480268224668526e-03 -9.6530729916342284e-01
    7.8979850367878988e-03 -1.1254628677422756e+00
    8.0048684404679018e-03 -1.2247448713915889e+00
    8.0467424930877936e-03 -1.2552918289216959e+00
    7.9096499646041582e-03 -1.1389895949029989e+00
    7.8436800889168622e-03 -9.8830369120352468e-01
    7.8518361481952591e-03 -1.0482201257840671e+00
    7.8431372549019607e-03 -1. 7.8436800889168622e-03
    -9.8830369120352468e-01 7.8698694108314277e-03
    -1.0860419786947371e+00 7.8431372549019607e-03 -1.
    7.9365079365079361e-03 -8.5714285714285710e-01
    7.8567420131838619e-03 -9.4280904158206347e-01
    7.8480268224668526e-03 -1.0359395405656247e+00
    7.8431372549019607e-03 -1. 7.8698694108314277e-03
    -1.0860419786947371e+00 7.8627505768002846e-03
    -9.3173594335083376e-01 7.8453092674761107e-03
    -9.7674100380077578e-01 8.0048684404679018e-03
    -8.1649658092772603e-01 8.0697004355840315e-03
    -7.8679579246944309e-01 8.1198232804652170e-03
    -7.6732330000396298e-01 8.0940488529772005e-03
    -7.7702868988581120e-01 8.5575643229800942e-03
    -6.5465367070797720e-01 8.3067681942693393e-03
    -7.1022868061002853e-01 8.9535884891708932e-03
    -5.9093684028527893e-01 1.1262289639991433e-02
    -4.0544242703969158e-01 1.3071895424836602e-02
    -3.3333333333333337e-01 2.5871684190211096e-02
    -1.5523010514126656e-01 1.6666666666666666e-02
    -2.5000000000000000e-01 1.3071895424836602e-02
    -3.3333333333333337e-01 1.0425579051926741e-02
    -4.5351268875881323e-01 9.9149718935422782e-03
    -4.9079110873034276e-01 9.0924120931663490e-03
    -5.7282196186947998e-01 8.6580086580086580e-03
    -6.3636363636363635e-01 8.5575643229800942e-03
    -6.5465367070797720e-01 8.2715277830910858e-03
    -7.1962291712892446e-01 7.9858933996997550e-03
    -8.2653996686892461e-01 8.1758059384954892e-03
    -7.4808624337233731e-01 8.0048684404679018e-03
    -8.1649658092772603e-01 7.9224853312287059e-03
    -8.6751214376954333e-01 7.9517362996057023e-03
    -8.4685991590800724e-01 7.8698694108314277e-03
    -9.2077472106727709e-01 7.8480268224668526e-03
    -1.0359395405656247e+00 7.8453092674761107e-03
    -9.7674100380077578e-01 7.8453092674761107e-03
    -9.7674100380077578e-01 7.8453092674761107e-03
    -9.7674100380077578e-01 7.8431372549019607e-03 -1.
    7.8874754046716830e-03 -1.1121340320587072e+00
    7.8453092674761107e-03 -1.0238128594056324e+00
    7.8979850367878988e-03 -1.1254628677422756e+00
    7.8627505768002846e-03 -1.0732654537332389e+00
    7.8627505768002846e-03 -9.3173594335083376e-01
    7.8979850367878988e-03 -8.8852331663863859e-01
    7.8698694108314277e-03 -9.2077472106727709e-01
    7.8627505768002846e-03 -1.0732654537332389e+00
    7.8480268224668526e-03 -9.6530729916342284e-01
    7.8436800889168622e-03 -9.8830369120352468e-01
    7.8698694108314277e-03 -9.2077472106727709e-01
    8.1470619456307375e-03 -7.5767676094365854e-01
    8.3437695720293137e-03 -7.0087664405046235e-01
    8.3437695720293137e-03 -7.0087664405046235e-01
    8.3825948461590874e-03 -6.9156407480812476e-01
    8.3067681942693393e-03 -7.1022868061002853e-01
    8.8271190222062677e-03 -6.0907121253223251e-01
    9.1668886799403590e-03 -5.6376365381633209e-01
    1.1465319341501828e-02 -3.9555351728181309e-01
    1.4756631713965728e-02 -2.8775431842233168e-01
    2.5871684190211096e-02 -1.5523010514126656e-01
    1.9736308213911233e-02 -2.0723123624606796e-01
    1.3430382733756338e-02 -3.2232918561015211e-01
    1.0895340841010225e-02 -4.2491829279939874e-01
    1.0155948592729207e-02 -4.7225160956190815e-01
    9.6985728993774396e-03 -5.0917507721731559e-01
    9.2450032704204863e-03 -5.5470019622522915e-01
    9.0924120931663490e-03 -5.7282196186947998e-01
    8.6580086580086580e-03 -6.3636363636363635e-01
    8.4233115953211493e-03 -6.8228823922101312e-01
    8.2379897210506196e-03 -7.2906209031297986e-01
    8.0940488529772005e-03 -7.7702868988581120e-01
    8.1198232804652170e-03 -7.6732330000396298e-01
    8.0467424930877936e-03 -7.9662750681569161e-01
    8.0467424930877936e-03 -7.9662750681569161e-01
    8.0940488529772005e-03 -7.7702868988581120e-01
    7.8698694108314277e-03 -9.2077472106727709e-01
    7.8781075261518518e-03 -9.0992141927053893e-01
    7.9858933996997550e-03 -8.2653996686892461e-01
    7.8698694108314277e-03 -9.2077472106727709e-01
    7.8431372549019607e-03 -1. 7.8979850367878988e-03
    -1.1254628677422756e+00 7.9365079365079361e-03
    -1.1666666666666665e+00 7.8453092674761107e-03
    -9.7674100380077578e-01 7.8518361481952591e-03
    -9.5399809200572394e-01 7.8453092674761107e-03
    -1.0238128594056324e+00 7.8518361481952591e-03
    -1.0482201257840671e+00 7.8518361481952591e-03
    -9.5399809200572394e-01 7.8781075261518518e-03
    -9.0992141927053893e-01 7.8979850367878988e-03
    -8.8852331663863859e-01 8.2715277830910858e-03
    -7.1962291712892446e-01 8.2379897210506196e-03
    -7.2906209031297986e-01 8.2379897210506196e-03
    -7.2906209031297986e-01 8.3437695720293137e-03
    -7.0087664405046235e-01 8.2379897210506196e-03
    -7.2906209031297986e-01 8.3825948461590874e-03
    -6.9156407480812476e-01 8.8888888888888889e-03
    -5.9999999999999998e-01 9.3269745043431489e-03
    -5.4562800850407422e-01 1.2446391765625262e-02
    -3.5472216532031997e-01 1.4756631713965728e-02
    -2.8775431842233168e-01 2.9784470107251351e-02
    -1.3403011548263108e-01 2.5871684190211096e-02
    -1.5523010514126656e-01 1.4756631713965728e-02
    -2.8775431842233168e-01 1.3826022596405670e-02
    -3.1108550841912758e-01 1.2171612389003692e-02
    -3.6514837167011077e-01 1.0425579051926741e-02
    -4.5351268875881323e-01 1.0286889997472794e-02
    -4.6291004988627571e-01 9.5985380620151120e-03
    -5.1832105534881601e-01 9.0213732707525203e-03
    -5.8187857596353754e-01 9.4130415787484177e-03
    -5.3654336998865981e-01 9.1668886799403590e-03
    -5.6376365381633209e-01 8.7118062248219448e-03
    -6.2725004818718000e-01 8.3825948461590874e-03
    -6.9156407480812476e-01 8.3437695720293137e-03
    -7.0087664405046235e-01 8.2379897210506196e-03
    -7.2906209031297986e-01 8.1198232804652170e-03
    -7.6732330000396298e-01 8.1470619456307375e-03
    -7.5767676094365854e-01 7.8698694108314277e-03
    -9.2077472106727709e-01 7.8781075261518518e-03
    -9.0992141927053893e-01 7.8979850367878988e-03
    -8.8852331663863859e-01 7.9224853312287059e-03
    -8.6751214376954333e-01 7.8781075261518518e-03
    -9.0992141927053893e-01 7.8567420131838619e-03
    -1.0606601717798214e+00 7.8436800889168622e-03
    -1.0118347314702751e+00 7.8518361481952591e-03
    -9.5399809200572394e-01 7.9096499646041582e-03
    -8.7797114607106153e-01 7.8979850367878988e-03
    -8.8852331663863859e-01 7.9224853312287059e-03
    -8.6751214376954333e-01 7.9517362996057023e-03
    -8.4685991590800724e-01 7.9224853312287059e-03
    -8.6751214376954333e-01 8.2715277830910858e-03
    -7.1962291712892446e-01 8.0697004355840315e-03
    -7.8679579246944309e-01 8.2379897210506196e-03
    -7.2906209031297986e-01 8.2060993986221818e-03
    -7.3854894587599640e-01 8.5107153531360884e-03
    -6.6383579754461486e-01 8.8888888888888889e-03
    -5.9999999999999998e-01 9.4130415787484177e-03
    -5.3654336998865981e-01 1.1683327287213026e-02
    -3.8554980047802989e-01 1.2745318548364542e-02
    -3.4412360080584264e-01 1.6666666666666666e-02
    -2.5000000000000000e-01 3.6369648372665396e-02
    -1.0910894511799618e-01 1.9736308213911233e-02
    -2.0723123624606796e-01 1.8518518518518517e-02
    -2.2222222222222221e-01 1.5940936661960347e-02
    -2.6302545492234575e-01 1.3430382733756338e-02
    -3.2232918561015211e-01 1.1465319341501828e-02
    -3.9555351728181309e-01 1.0572691328259186e-02
    -4.4405303578688582e-01 1.0895340841010225e-02
    -4.2491829279939874e-01 1.0155948592729207e-02
    -4.7225160956190815e-01 9.8039215686274508e-03
    -5.0000000000000000e-01 1.0286889997472794e-02
    -4.6291004988627571e-01 9.5985380620151120e-03
    -5.1832105534881601e-01 8.5575643229800942e-03
    -6.5465367070797720e-01 8.3067681942693393e-03
    -7.1022868061002853e-01 8.4233115953211493e-03
    -6.8228823922101312e-01 8.2715277830910858e-03
    -7.1962291712892446e-01 8.2715277830910858e-03
    -7.1962291712892446e-01 8.1758059384954892e-03
    -7.4808624337233731e-01 7.9365079365079361e-03
    -8.5714285714285710e-01 7.9096499646041582e-03
    -8.7797114607106153e-01 7.8627505768002846e-03
    -9.3173594335083376e-01 7.8453092674761107e-03
    -9.7674100380077578e-01 7.8567420131838619e-03
    -9.4280904158206347e-01 8.0048684404679018e-03
    -8.1649658092772603e-01 7.8781075261518518e-03
    -9.0992141927053893e-01 7.9681907288959575e-03
    -8.3666002653407556e-01 7.9858933996997550e-03
    -8.2653996686892461e-01 8.5107153531360884e-03
    -6.6383579754461486e-01 8.3825948461590874e-03
    -6.9156407480812476e-01 8.2379897210506196e-03
    -7.2906209031297986e-01 8.1758059384954892e-03
    -7.4808624337233731e-01 8.1470619456307375e-03
    -7.5767676094365854e-01 8.6580086580086580e-03
    -6.3636363636363635e-01 8.9535884891708932e-03
    -5.9093684028527893e-01 9.0213732707525203e-03
    -5.8187857596353754e-01 9.3269745043431489e-03
    -5.4562800850407422e-01 1.0895340841010225e-02
    -4.2491829279939874e-01 1.2446391765625262e-02
    -3.5472216532031997e-01 1.5940936661960347e-02
    -2.6302545492234575e-01 1.7513564583091126e-02
    -2.3643312187173021e-01 2.9784470107251351e-02
    -1.3403011548263108e-01 2.5871684190211096e-02
    -1.5523010514126656e-01 2.3210354127426377e-02
    -1.7407765595569782e-01 1.8518518518518517e-02
    -2.2222222222222221e-01 1.7513564583091126e-02
    -2.3643312187173021e-01 1.3430382733756338e-02
    -3.2232918561015211e-01 1.1262289639991433e-02
    -4.0544242703969158e-01 1.1262289639991433e-02
    -4.0544242703969158e-01 1.1918070753976346e-02
    -3.7541922875025491e-01 1.0572691328259186e-02
    -4.4405303578688582e-01 1.0155948592729207e-02
    -4.7225160956190815e-01 1.0572691328259186e-02
    -4.4405303578688582e-01 1.0032154423814102e-02
    -4.8154341234307685e-01 9.5985380620151120e-03
    -5.1832105534881601e-01 8.7681355729783139e-03
    -6.1815355789497117e-01 8.5575643229800942e-03
    -6.5465367070797720e-01 8.5575643229800942e-03
    -6.5465367070797720e-01 8.6580086580086580e-03
    -6.3636363636363635e-01 8.0697004355840315e-03
    -7.8679579246944309e-01 7.9517362996057023e-03
    -8.4685991590800724e-01 7.9096499646041582e-03
    -8.7797114607106153e-01 7.8627505768002846e-03
    -9.3173594335083376e-01 7.8698694108314277e-03
    -9.2077472106727709e-01 7.9096499646041582e-03
    -8.7797114607106153e-01 8.0048684404679018e-03
    -8.1649658092772603e-01 7.9365079365079361e-03
    -8.5714285714285710e-01 8.2060993986221818e-03
    -7.3854894587599640e-01 8.4233115953211493e-03
    -6.8228823922101312e-01 8.1758059384954892e-03
    -7.4808624337233731e-01 8.2379897210506196e-03
    -7.2906209031297986e-01 8.4233115953211493e-03
    -6.8228823922101312e-01 8.5107153531360884e-03
    -6.6383579754461486e-01 8.9535884891708932e-03
    -5.9093684028527893e-01 9.2450032704204863e-03
    -5.5470019622522915e-01 9.2450032704204863e-03
    -5.5470019622522915e-01 1.1465319341501828e-02
    -3.9555351728181309e-01 1.2446391765625262e-02
    -3.5472216532031997e-01 1.4756631713965728e-02
    -2.8775431842233168e-01 1.5940936661960347e-02
    -2.6302545492234575e-01 2.1252557102111276e-02
    -1.9127301391900148e-01 3.6369648372665396e-02
    -1.0910894511799618e-01 2.5871684190211096e-02
    -1.5523010514126656e-01 2.9784470107251351e-02
    -1.3403011548263108e-01 2.3210354127426377e-02
    -1.7407765595569782e-01 1.9736308213911233e-02
    -2.0723123624606796e-01 1.6666666666666666e-02
    -2.5000000000000000e-01 1.2446391765625262e-02
    -3.5472216532031997e-01 1.2171612389003692e-02
    -3.6514837167011077e-01 1.2446391765625262e-02
    -3.5472216532031997e-01 1.2446391765625262e-02
    -3.5472216532031997e-01 1.1262289639991433e-02
    -4.0544242703969158e-01 1.1918070753976346e-02
    -3.7541922875025491e-01 1.0155948592729207e-02
    -4.7225160956190815e-01 1.0425579051926741e-02
    -4.5351268875881323e-01 1.0286889997472794e-02
    -4.6291004988627571e-01 9.9149718935422782e-03
    -4.9079110873034276e-01 8.9535884891708932e-03
    -5.9093684028527893e-01 8.6580086580086580e-03
    -6.3636363636363635e-01 8.7681355729783139e-03
    -6.1815355789497117e-01 8.1198232804652170e-03
    -7.6732330000396298e-01 8.0697004355840315e-03
    -7.8679579246944309e-01 8.0697004355840315e-03
    -7.8679579246944309e-01 8.5575643229800942e-03
    -6.5465367070797720e-01 8.2379897210506196e-03
    -7.2906209031297986e-01 8.1758059384954892e-03
    -7.4808624337233731e-01 8.1198232804652170e-03
    -7.6732330000396298e-01 8.4659924195495482e-03
    -6.7304639735418903e-01 8.6066296582387042e-03
    -6.4549722436790280e-01 8.6580086580086580e-03
    -6.3636363636363635e-01 9.1668886799403590e-03
    -5.6376365381633209e-01 9.0924120931663490e-03
    -5.7282196186947998e-01 8.8271190222062677e-03
    -6.0907121253223251e-01 9.4130415787484177e-03
    -5.3654336998865981e-01 9.9149718935422782e-03
    -4.9079110873034276e-01 1.1683327287213026e-02
    -3.8554980047802989e-01 1.4756631713965728e-02
    -2.8775431842233168e-01 1.5940936661960347e-02
    -2.6302545492234575e-01 1.9736308213911233e-02
    -2.0723123624606796e-01 2.5871684190211096e-02
    -1.5523010514126656e-01 3.6369648372665396e-02
    -1.0910894511799618e-01 5.1282051282051280e-02
    -7.6923076923076927e-02 3.6369648372665396e-02
    -1.0910894511799618e-01 2.9784470107251351e-02
    -1.3403011548263108e-01 3.6369648372665396e-02
    -1.0910894511799618e-01 2.1252557102111276e-02
    -1.9127301391900148e-01 2.1252557102111276e-02
    -1.9127301391900148e-01 2.1252557102111276e-02
    -1.9127301391900148e-01 1.5940936661960347e-02
    -2.6302545492234575e-01 1.3430382733756338e-02
    -3.2232918561015211e-01 1.3071895424836602e-02
    -3.3333333333333337e-01 1.2171612389003692e-02
    -3.6514837167011077e-01 1.1918070753976346e-02
    -3.7541922875025491e-01 1.2446391765625262e-02
    -3.5472216532031997e-01 1.0895340841010225e-02
    -4.2491829279939874e-01 1.1072730647165329e-02
    -4.1522739926869984e-01 1.0155948592729207e-02
    -4.7225160956190815e-01 1.0286889997472794e-02
    -4.6291004988627571e-01 9.0213732707525203e-03
    -5.8187857596353754e-01 8.4233115953211493e-03
    -6.8228823922101312e-01 9.0924120931663490e-03
    -5.7282196186947998e-01 9.0213732707525203e-03
    -5.8187857596353754e-01 8.2379897210506196e-03
    -7.2906209031297986e-01 8.8888888888888889e-03
    -5.9999999999999998e-01 8.2715277830910858e-03
    -7.1962291712892446e-01 8.8271190222062677e-03
    -6.0907121253223251e-01 8.2379897210506196e-03
    -7.2906209031297986e-01 8.7681355729783139e-03
    -6.1815355789497117e-01 9.0924120931663490e-03
    -5.7282196186947998e-01 9.4130415787484177e-03
    -5.3654336998865981e-01 9.8039215686274508e-03
    -5.0000000000000000e-01 9.5034667248096363e-03
    -5.2744240322693481e-01 9.2450032704204863e-03
    -5.5470019622522915e-01 1.0032154423814102e-02
    -4.8154341234307685e-01 1.2446391765625262e-02
    -3.5472216532031997e-01 1.4265349750363764e-02
    -2.9957234475763905e-01 1.8518518518518517e-02
    -2.2222222222222221e-01 1.8518518518518517e-02
    -2.2222222222222221e-01 2.1252557102111276e-02
    -1.9127301391900148e-01 2.9784470107251351e-02
    -1.3403011548263108e-01 5.1282051282051280e-02
    -7.6923076923076927e-02 5.1282051282051280e-02
    -7.6923076923076927e-02 3.6369648372665396e-02
    -1.0910894511799618e-01 3.6369648372665396e-02
    -1.0910894511799618e-01 2.9784470107251351e-02
    -1.3403011548263108e-01 5.1282051282051280e-02
    -7.6923076923076927e-02 2.9784470107251351e-02
    -1.3403011548263108e-01 2.5871684190211096e-02
    -1.5523010514126656e-01 2.3210354127426377e-02
    -1.7407765595569782e-01 1.9736308213911233e-02
    -2.0723123624606796e-01 1.5940936661960347e-02
    -2.6302545492234575e-01 1.4756631713965728e-02
    -2.8775431842233168e-01 1.3826022596405670e-02
    -3.1108550841912758e-01 1.3826022596405670e-02
    -3.1108550841912758e-01 1.4265349750363764e-02
    -2.9957234475763905e-01 1.5310507072487510e-02
    -2.7558912730477519e-01 1.2745318548364542e-02
    -3.4412360080584264e-01 1.2446391765625262e-02
    -3.5472216532031997e-01 1.3071895424836602e-02
    -3.3333333333333337e-01 1.3071895424836602e-02
    -3.3333333333333337e-01 1.1683327287213026e-02
    -3.8554980047802989e-01 8.7681355729783139e-03
    -6.1815355789497117e-01 8.8271190222062677e-03
    -6.0907121253223251e-01 9.9149718935422782e-03
    -4.9079110873034276e-01 9.1668886799403590e-03
    -5.6376365381633209e-01 9.0924120931663490e-03
    -5.7282196186947998e-01 9.8039215686274508e-03
    -5.0000000000000000e-01 1.0032154423814102e-02
    -4.8154341234307685e-01 1.0155948592729207e-02
    -4.7225160956190815e-01 1.0032154423814102e-02
    -4.8154341234307685e-01 1.0728989990783724e-02
    -4.3452409462674080e-01 1.0572691328259186e-02
    -4.4405303578688582e-01 1.2745318548364542e-02
    -3.4412360080584264e-01 1.3071895424836602e-02
    -3.3333333333333337e-01 1.8518518518518517e-02
    -2.2222222222222221e-01 1.9736308213911233e-02
    -2.0723123624606796e-01 2.3210354127426377e-02
    -1.7407765595569782e-01 2.9784470107251351e-02
    -1.3403011548263108e-01 2.9784470107251351e-02
    -1.3403011548263108e-01 2.9784470107251351e-02
    -1.3403011548263108e-01 3.6369648372665396e-02
    -1.0910894511799618e-01</input_scale>
  <output_scale>
    1.0526315789473684e+00 0.</output_scale>
  <inv_output_scale>
    9.4999999999999996e-01 0.</inv_output_scale>
  <weights>
    <_>
      1.0633663027195893e-01 2.7647583864266689e-02
      2.9228489458784607e-02 1.4058142051686952e-02
      -2.8355243913560483e-02 9.3644028971224709e-03
      -1.2633621018573109e-02 -2.5385651659806090e-02
      -4.6761271719719319e-03 -8.8427848346383630e-04
      1.1670241103339852e-02 2.5655683488478055e-02
      1.3206651283365000e-02 -1.9420818924649263e-02
      -2.0445774910907129e-03 1.0640360562258942e-02
      -3.1294491316439079e-03 2.3358496523891215e-02
      6.2368752708665649e-04 4.5914487233534489e-03
      -2.4278856451291582e-02 5.3366964014132344e-03
      3.3186764551782571e-03 3.1185612722375022e-02
      1.0156847654444906e-02 -5.7002628512653232e-03
      2.5001373737979220e-02 -1.6169674679945761e-02
      1.5279375889302669e-02 1.1555521581031085e-02
      -2.9722834425113618e-02 -2.6559030027944613e-02
      -5.9055466666279254e-04 1.6127377806027233e-02
      2.0912379843347748e-02 6.4608322258109504e-03
      3.0633605146426289e-02 1.7513948844178451e-02
      -2.7407929917604833e-02 -2.8867946818230385e-02
      1.2569264782738862e-01 2.2105482703879221e-02
      2.2861975009595609e-02 1.8585276768557764e-02
      -2.2940658514121134e-02 1.2080526997549138e-02
      -1.9243536845702316e-02 -2.1001216272599450e-02
      -6.7044842958876531e-03 5.1213372632477284e-03
      1.6918877689747622e-02 2.3545456517013275e-02
      1.8340854097148373e-02 -2.0929161352293890e-02
      -5.9045630786365858e-03 1.7336744674121083e-02
      -7.5126727147638824e-03 2.2547175145523558e-02
      -6.9595942972647843e-03 8.7834113326413447e-03
      -2.2273015644758063e-02 1.1148977086816076e-02
      7.7569218011147379e-03 2.4397791065414610e-02
      1.6243928858547627e-02 -1.0416345927775558e-02
      1.9111094826401477e-02 -1.3313896743241693e-02
      1.8975184282698968e-02 1.6292555323158237e-02
      -2.3531344657204755e-02 -1.9935548239501038e-02
      4.3194723947026755e-03 1.9663101497721464e-02
      2.1257401034266325e-02 1.0097840717112548e-02
      2.3918327287906938e-02 1.9838406929035244e-02
      -2.2729077672295449e-02 -2.2998931173982329e-02
      6.9400753033017237e-02 3.4563486736319199e-03
      2.6089189757461870e-03 1.1182482854509887e-02
      -2.7114291113121891e-03 1.1369430405870559e-02
      -1.1965527856886303e-02 -4.5938724931282020e-03
      -7.3800309734631401e-03 8.2150611599983749e-03
      1.1074501514573638e-02 4.8675328925067429e-03
      1.2378009551312014e-02 -1.1876594975593343e-02
      -4.4081710910538778e-03 1.0734350751611948e-02
      -5.8480518626629844e-03 9.6548875575781061e-03
      -1.0272381326786619e-02 7.2651461405083316e-03
      -6.4278516230549497e-03 9.2459794131875411e-03
      6.3273615391341905e-03 3.5335337313898802e-03
      1.0801099850846482e-02 -6.8747303634910904e-03
      2.2115858775741421e-03 -3.0401175721223254e-03
      1.2839662605370216e-02 1.1216616203409887e-02
      -1.4271844863953838e-03 -3.0870046729507910e-03
      7.5650409034839989e-03 1.0722834245879827e-02
      1.0832526764619738e-02 9.6007393917371796e-03
      1.6490193266947997e-03 1.1750498394303558e-02
      -3.3471009395699097e-03 -2.4765133073394422e-03
      -5.6608375907186883e-04 9.8280077323760939e-04
      5.8674145612284837e-04 -2.3404810589499834e-05
      5.1210201631407039e-04 -3.6144653169046793e-04
      1.0328318839991015e-03 -7.3189054801951596e-04
      3.4695438364743398e-04 -4.4022363701253322e-04
      1.6853111414949609e-04 5.4427262316709827e-04
      4.0928371062340927e-04 -5.0198130336476655e-04
      -5.3837339186742325e-04 5.4130025805742177e-04
      7.2451646606574787e-04 7.2928225531841261e-04
      -8.9596085780997226e-04 -1.0633593111381934e-03
      4.7189397411756106e-04 -4.9248951343733988e-04
      9.9480067882329781e-04 -2.5035076196965137e-04
      1.2025051274339787e-03 7.9488783461768411e-05
      -2.3343960668910767e-04 -8.4511454584403696e-04
      1.2165178234286608e-03 4.8608291870555205e-04
      8.1330602239910749e-04 1.0184280383176761e-03
      1.0704245511725459e-03 -7.2497964613305542e-04
      4.9328224232276271e-04 1.8830881034114335e-04
      9.4414942372186774e-04 6.1239348253836216e-04
      8.3569334300787762e-04 -7.7516820246783386e-04
      1.1510772561634477e-01 3.9054066483653366e-02
      2.8447502100730767e-02 1.3708228907376043e-02
      -2.5380579812900893e-02 9.2805970003043223e-03
      -1.2765923253970390e-02 -2.2446294088425613e-02
      -4.5545405777124197e-03 1.0975554424345661e-02
      1.2930586698487229e-02 2.2081900451840296e-02
      1.3941775269315802e-02 -1.7897317711364880e-02
      -3.6495035220422915e-03 1.0960316742398092e-02
      -3.1239262700704534e-03 2.0091559605951329e-02
      -1.4728245134902533e-02 1.6119109356098952e-02
      -2.1765029428243300e-02 5.7231631973806126e-03
      2.9948839814401980e-03 2.8944076175926540e-02
      1.2292084368269215e-02 -4.6341108649912977e-03
      4.1146145255561567e-02 -3.8265403653202620e-02
      1.2847142020602538e-02 1.1703108934017839e-02
      -3.0217099852858396e-02 -4.0055606488623587e-02
      6.8513679398792982e-03 1.4647611508243992e-02
      1.7507602385329436e-02 6.7402176972069638e-03
      2.7953078573128513e-02 1.7109104697474942e-02
      -3.6495655393501684e-02 -2.6107806164975975e-02
      1.1553348978231144e-01 3.7683073831200301e-02
      2.9298269170885041e-02 1.4338157561186180e-02
      -2.4236493594150831e-02 7.9311959775117211e-03
      -1.3276751317535548e-02 -2.2903804666551866e-02
      -4.4016754273902203e-03 1.1189728676337215e-02
      1.1689962367798413e-02 2.1673621467991809e-02
      1.4135650280177811e-02 -1.8303515110266032e-02
      -2.0499262504803015e-03 1.1418614962830882e-02
      -3.8236697572092897e-03 1.8693965723610963e-02
      -1.6651862649848810e-02 1.5967315267753034e-02
      -2.1755445149755401e-02 7.1137476845287021e-03
      4.4224551430026588e-03 2.9056920402003698e-02
      1.0301684754435006e-02 -5.3294253008929308e-03
      4.2747717784791979e-02 -3.9021792777509237e-02
      1.3341078718467450e-02 1.1977943848048584e-02
      -3.0864083499872415e-02 -4.0154273507238977e-02
      8.3284053125585161e-03 1.5546632268286257e-02
      1.8717343921280855e-02 6.6463914282730782e-03
      2.8731971506306287e-02 1.7095897969465392e-02
      -3.5440004837313702e-02 -2.7533458719959727e-02
      2.9907882695377364e-01 1.7298266751153434e-02
      3.8681933175092109e-02 2.9877880536444024e-02
      -4.8548223473793541e-02 1.7763799501520877e-02
      -2.8372576269204537e-02 -4.8473091590136574e-02
      -9.4950059487853827e-03 -6.0130511308443216e-03
      2.5561848292148446e-02 4.9971719865821190e-02
      2.6891297885043797e-02 -3.6415828377087199e-02
      -6.2868383746183176e-03 2.5622772009682444e-02
      -1.1296049316991026e-02 4.2384261679660300e-02
      6.1016532121204283e-03 -2.1549139799225698e-03
      -4.7884591546455663e-02 1.5539466579437462e-02
      1.1441314731281040e-02 3.5968687429540548e-02
      2.2612323454494876e-02 -1.2016963971763550e-02
      1.3145281503111195e-02 -4.5348155076620471e-03
      2.8107095030583302e-02 2.4927971438680589e-02
      -3.1042092296880028e-02 -1.4577062561035749e-02
      -6.0698770286519693e-03 2.9534616650599380e-02
      4.0442789356740720e-02 1.5573531857421200e-02
      3.5267372010508995e-02 3.4515388671894041e-02
      -2.1723950708674614e-02 -4.1015446093746008e-02
      2.7814192323084824e-01 2.9411017112173938e-02
      4.1935245220320432e-02 2.7018139711808720e-02
      -5.0485252478430567e-02 1.7676780425434899e-02
      -2.5110424871426510e-02 -4.7835244001775828e-02
      -8.1171071902838253e-03 1.4114076725884144e-02
      2.5445490546102893e-02 5.0751420368205569e-02
      2.4306456777139034e-02 -3.4576394561304624e-02
      -5.5594881279432112e-03 2.2095477119222835e-02
      -1.0661776046446778e-02 4.3061725115525008e-02
      -1.4421763185890286e-02 1.7210476267286251e-02
      -4.7164682716982043e-02 1.2652338052971855e-02
      9.9955008192516067e-03 4.2782162026607999e-02
      2.2047624230250803e-02 -1.3015364297299577e-02
      2.6395412621521057e-02 -2.2928293289087597e-02
      2.7803386044857499e-02 2.2837567001010240e-02
      -4.0217801918052014e-02 -2.9291001096925180e-02
      1.5872347377809834e-02 2.8446327891857720e-02
      3.8634677203548816e-02 1.3915622568847128e-02
      4.2114541432514592e-02 3.1794025138332502e-02
      -3.0561367383813157e-02 -4.4371527695047867e-02
      2.5628243204481294e-01 5.5165105490041264e-02
      5.9035997832317756e-02 2.4316823176483541e-02
      -6.1250146259383395e-02 1.0255211533831996e-02
      -2.2059404037473963e-02 -5.6271845358925383e-02
      -4.0783427684722819e-03 5.1000374423734944e-02
      1.8322792445810785e-02 5.5493887415208901e-02
      2.0065606632927255e-02 -3.5556951444837441e-02
      -3.0105548881932745e-03 1.6200780573372601e-02
      -4.6332985637454228e-03 4.4388079345769584e-02
      -5.3476171515142286e-02 5.2469832209131262e-02
      -5.1363757677884807e-02 6.1303648512148722e-03
      4.9277138960212618e-03 5.6998053269165815e-02
      1.5744045433252352e-02 -6.3850158356916018e-03
      5.3445976932989019e-02 -4.7332586543823510e-02
      2.1408444059765566e-02 1.8013895270602438e-02
      -5.9093651391067918e-02 -5.3335657713320835e-02
      5.4799702074259223e-02 2.5124368833336123e-02
      3.7823471457288010e-02 6.8141903849225543e-03
      5.7972691674679236e-02 2.8945598834836595e-02
      -5.3998899960744362e-02 -5.7266040836732826e-02
      9.7013918692438070e-02 1.0838569289771708e-02
      2.1844424919612290e-02 2.4279632275239042e-03
      -2.5481480898247904e-02 -4.0200798939491102e-03
      -1.2115271058766846e-03 -2.3999272659413224e-02
      2.4975608474297898e-03 -3.5136129259530585e-04
      -1.3263728040705972e-04 2.4475550756111464e-02
      -1.1222039105782320e-04 -1.0076614203120093e-02
      4.1596027494012599e-03 -2.8204068607491587e-03
      3.8780580734157997e-03 1.8564624009612396e-02
      1.0727082886130503e-03 1.3518073939204716e-03
      -2.1267817849742032e-02 -3.2743122837032585e-03
      -5.0385483452143505e-03 2.0672139380437913e-02
      -6.8447402065986067e-04 4.2919804514064321e-03
      9.8479539608891647e-03 -5.2530531389392947e-03
      2.0319221778438618e-03 -1.5808599208232735e-03
      -1.8420051615267979e-02 -1.1597894685662913e-02
      2.3688060925647027e-04 4.5037134238399956e-03
      1.3703518010194506e-02 -4.8516171711030266e-03
      2.0631433220860949e-02 8.3374664929495752e-03
      -1.4674077369967110e-02 -2.2415928498806220e-02
      2.1330845345254146e-01 -1.2891811164345349e-02
      2.0370152575059789e-03 8.2972260196062103e-03
      -1.1116942255765528e-02 5.3147029339612748e-03
      -7.9076296590950192e-03 -2.1065598232865371e-02
      -2.5205962822194747e-03 -2.0867477641380788e-02
      7.3064344867475838e-03 2.2588032942191420e-02
      7.8225671112935064e-03 -1.2247409320091508e-02
      -1.9632388144099318e-03 4.5085911661659371e-03
      -3.4295347850701436e-03 1.8288026172693882e-02
      1.9845100132588053e-02 -2.2986132819616537e-02
      -2.4284183389276195e-02 5.2049021761095852e-03
      4.4263636121410358e-03 1.3041265222723767e-03
      5.4127975062010234e-03 -3.3058740510454542e-03
      -1.6659866453171954e-02 1.8610182927200247e-02
      7.9033054714540679e-03 5.5307101310030681e-03
      4.2371469184546663e-03 1.4961299163918352e-02
      -2.0834089745669099e-02 8.6985132201412470e-03
      1.4769007496950029e-02 3.4971167271083741e-03
      2.2625415651314441e-03 1.1643307749606974e-02
      9.9030679539093489e-03 -6.9318627548326864e-03
      3.0245399776338838e-01 2.5322558485891194e-02
      3.5216365797386830e-02 2.1967753058881840e-02
      -4.2133745191274809e-02 1.1353473042963295e-02
      -2.0364466799879903e-02 -4.4495573262337322e-02
      -6.4269761642591072e-03 1.3591745478515891e-02
      1.8845666638582927e-02 4.7000281186667589e-02
      2.0559450274196995e-02 -3.2252618304552477e-02
      -4.7692985495582296e-03 1.7442911730491038e-02
      -7.4769485133839913e-03 4.1551439453205580e-02
      -1.5597943959256996e-02 1.6417629566949189e-02
      -4.6402185641211235e-02 9.8344020433062014e-03
      5.5781133423979702e-03 3.4067736759521725e-02
      1.6707755276270209e-02 -7.7450774550079917e-03
      2.0382884942094021e-02 -1.4685156470197467e-02
      2.2255266143710144e-02 1.5682766447518488e-02
      -3.0337264010856457e-02 -2.1018625834967306e-02
      1.7862246282031723e-02 2.3046483950438488e-02
      3.5949564893857776e-02 9.2212441082885222e-03
      3.4205068108218072e-02 2.6041143326966672e-02
      -2.3617577410360701e-02 -3.6907297244769231e-02
      1.6801317710218450e-01 1.7556326025145647e-02
      2.5266412273790017e-02 1.5770293731062798e-02
      -2.8566474889978682e-02 6.4171554948228319e-03
      -1.2786234433065617e-02 -2.8817876098013749e-02
      -2.7327793890733129e-03 2.3227455801701567e-02
      1.0613185759279116e-02 3.1954318325359013e-02
      1.1910191910900685e-02 -2.1401467023771253e-02
      -2.2898352931336905e-03 1.0817500226394385e-02
      -4.6853319295116751e-03 2.7234833063860153e-02
      -2.6618255044752393e-02 2.2663231156903611e-02
      -2.9331008315624341e-02 4.6113646436174707e-03
      4.3000288005996846e-03 2.5354766698585732e-02
      8.9409116129868238e-03 -5.1069678583661226e-03
      1.7081205420270234e-02 -1.4826375209421325e-02
      1.3985408223928852e-02 9.9377684778506996e-03
      -2.4553187541380243e-02 -1.7809285059468584e-02
      2.8575414832309326e-02 1.5776561936981830e-02
      2.4057025030237513e-02 5.0867679614159536e-03
      2.3448597452951213e-02 1.8475862042042570e-02
      -1.7496576503709539e-02 -2.7763630524640249e-02
      5.2376121147215508e-02 -2.0877009227988737e-02
      -6.5348903405752718e-03 3.7742014962213314e-03
      -6.5843615071590285e-05 3.2621008359883640e-03
      -3.8278343593396865e-03 -1.3039570856343964e-03
      -2.9570763457126390e-03 -4.6702884140703053e-02
      2.7978791936205554e-03 4.2512137098918113e-03
      4.4547373737402647e-03 -7.0005589727039656e-03
      -8.4658983400173629e-04 2.0904776224046715e-03
      -3.2140042135853589e-03 4.6640570012042287e-03
      4.8433460531636732e-02 -3.5810703532378210e-02
      -6.7400370071554420e-03 3.8319973932730827e-03
      2.5777077789134470e-03 -7.2515979646218046e-03
      2.5267918672968190e-03 -3.1903055416920368e-03
      -2.3870642367629820e-02 2.9393622737062912e-02
      4.0688327770639259e-03 2.7358440135009294e-03
      1.0775813681451476e-02 2.2484300704875476e-02
      -5.2498340334885943e-02 5.0966561099078838e-03
      6.1568829280033432e-03 2.8437381182546974e-03
      -8.3728171975137738e-03 4.8415199538175005e-03
      1.6648891431981800e-02 4.3766298394903478e-03
      4.5063943399560674e-01 5.2525942834038705e-02
      5.5714969778677466e-02 4.6878316925773801e-02
      -6.3923649279188380e-02 3.1147576182108689e-02
      -4.3153094609198729e-02 -6.6292977819070231e-02
      -1.8074414324147064e-02 1.8629379500200004e-02
      4.1625975767429775e-02 7.2051729647289384e-02
      4.3904060098525106e-02 -5.5446232472103042e-02
      -1.3515934039575612e-02 3.8164545262611843e-02
      -1.8817822153452998e-02 6.5367453023626163e-02
      -8.5495280242357911e-03 3.8935728817899348e-02
      -7.0905520383642673e-02 2.4742624419863194e-02
      1.9312905921206415e-02 5.7007074187901817e-02
      3.6971803027889216e-02 -2.2178206477997609e-02
      4.8011470376707700e-02 -4.1289755003536960e-02
      4.4879125938283825e-02 3.8680510916569336e-02
      -5.5099950427956942e-02 -4.8633165367885471e-02
      1.6626272451256960e-02 4.8604371624107440e-02
      6.0466358225314744e-02 2.3504130731182359e-02
      5.5828826638275479e-02 5.3656249780175719e-02
      -4.9204755025185253e-02 -6.0681332540371037e-02
      2.5906745398002901e-01 2.7302500389516592e-03
      1.7915476813810279e-02 2.1998790027315855e-02
      -2.7297437136270593e-02 1.6767882799078350e-02
      -2.1695431467905393e-02 -2.9055161606317669e-02
      -1.1083645241183319e-02 -1.0372298356839227e-02
      2.0682012403528360e-02 3.1034424099569354e-02
      2.2057977602907928e-02 -2.8163426905670221e-02
      -6.0788568932812481e-03 1.8309516976005896e-02
      -9.8357057961334961e-03 2.9482254461768165e-02
      1.2990054111018810e-02 -6.1361058094021072e-03
      -3.2093990847908087e-02 1.4353229534156671e-02
      9.6096376047418129e-03 1.7884469492819750e-02
      1.7847825031533600e-02 -1.2692192293520315e-02
      -8.7134610049102619e-03 1.6519972461511479e-02
      2.3630799849649008e-02 1.8556102859115187e-02
      -1.3620719431403703e-02 6.1726421678221467e-03
      -1.9210767037175148e-02 2.4525557968235800e-02
      2.8722728944945302e-02 1.2667648751818011e-02
      1.7602334942598611e-02 2.6476077262952036e-02
      1.1646739030304535e-03 -2.3282622723959180e-02
      1.9268574796330126e-01 1.6174644191414355e-02
      2.7514733545464003e-02 1.3530348897185879e-02
      -3.2118432556741995e-02 1.6758288168314231e-03
      -1.0826765526791141e-02 -3.2190780436017793e-02
      -1.1174446751136752e-03 7.8916891753243804e-03
      7.9048203057380494e-03 3.3193973100687474e-02
      1.0515539005551175e-02 -1.9424141695367259e-02
      -1.0269402819049289e-03 7.3734149344576250e-03
      -6.2000467821431724e-04 2.7820806437399523e-02
      -4.1248864795678380e-03 1.3771505177327181e-02
      -3.0435782819713070e-02 1.3059415653454364e-03
      1.0271397381435757e-04 2.6122118483172516e-02
      6.6422856558497377e-03 -2.4078277882393531e-03
      7.6288326450726623e-03 -1.8634245381301145e-03
      1.1197900564751635e-02 7.8182437352130874e-03
      -2.3597178494191195e-02 -7.6883339440558486e-03
      1.0172099371043460e-03 1.3675526714309988e-02
      2.3517348217121550e-02 2.6094244121865882e-03
      2.5970616057683863e-02 1.5909143919093632e-02
      -1.2591985020850129e-02 -2.9943087215426389e-02
      6.2978996470186108e-02 -3.2476580350555354e-02
      -1.8193492576834568e-02 -6.0709563055184297e-03
      1.1231389957300875e-02 -3.9431132537354396e-03
      5.7489875651853999e-03 5.9154984542310685e-03
      -2.8129032277925814e-04 -2.8844383084532139e-02
      -5.1564378462913970e-03 -6.8704769853486728e-03
      -4.6332337504247628e-03 6.9304058362803060e-03
      7.2162710450041675e-04 -5.7518911254052481e-03
