<?xml version="1.0"?>
<opencv_storage>
<shapeML type_id="opencv-ml-ann-mlp">
  <layer_sizes type_id="opencv-matrix">
    <rows>1</rows>
    <cols>3</cols>
    <dt>i</dt>
    <data>
      1600 40 1</data></layer_sizes>
  <activation_function>SIGMOID_SYM</activation_function>
  <f_param1>5.9999999999999998e-01</f_param1>
  <f_param2>1.</f_param2>
  <min_val>-9.4999999999999996e-01</min_val>
  <max_val>9.4999999999999996e-01</max_val>
  <min_val1>-9.7999999999999998e-01</min_val1>
  <max_val1>9.7999999999999998e-01</max_val1>
  <training_params>
    <train_method>BACKPROP</train_method>
    <dw_scale>1.0000000000000001e-01</dw_scale>
    <moment_scale>1.0000000000000001e-01</moment_scale>
    <term_criteria><epsilon>9.9999999747524271e-07</epsilon>
      <iterations>4000</iterations></term_criteria></training_params>
  <input_scale>
    5.0678754796397184e-02 -7.7849894416152296e-02
    3.5944379075342210e-02 -1.1043152607484655e-01
    5.0678754796397184e-02 -7.7849894416152296e-02 1. 0.
    5.0678754796397184e-02 -7.7849894416152296e-02
    5.0678754796397184e-02 -7.7849894416152296e-02
    3.5944379075342210e-02 -1.1043152607484655e-01
    2.9438350922846405e-02 -1.3566468949384036e-01
    2.2944044030811777e-02 -1.7622684421256032e-01
    2.1010301812759188e-02 -1.9364916731037082e-01
    1.9512832899766665e-02 -2.0982172726556322e-01
    1.7317963767532717e-02 -2.3942606534028665e-01
    2.1010301812759188e-02 -1.9364916731037082e-01
    1.7317963767532717e-02 -2.3942606534028665e-01
    1.7317963767532717e-02 -2.3942606534028665e-01
    1.8310254073894115e-02 -2.2501758018520479e-01
    1.6481836758420455e-02 -2.5318484177091660e-01
    1.4596559974299067e-02 -2.9149154406506872e-01
    1.3678352904417759e-02 -3.1517891481565019e-01
    1.1151110375624534e-02 -4.1111322589651894e-01
    9.5157928892135209e-03 -5.2623481158421759e-01
    1.0789894933909619e-02 -4.3094580368566732e-01
    1.2317779903237942e-02 -3.5951592548908329e-01
    1.4111789700098423e-02 -3.0348848933344197e-01
    1.4596559974299067e-02 -2.9149154406506872e-01
    1.6481836758420455e-02 -2.5318484177091660e-01
    2.2944044030811777e-02 -1.7622684421256032e-01
    1.7317963767532717e-02 -2.3942606534028665e-01
    1.9512832899766665e-02 -2.0982172726556322e-01
    2.9438350922846405e-02 -1.3566468949384036e-01
    2.9438350922846405e-02 -1.3566468949384036e-01
    2.2944044030811777e-02 -1.7622684421256032e-01
    2.1010301812759188e-02 -1.9364916731037082e-01
    3.5944379075342210e-02 -1.1043152607484655e-01
    5.0678754796397184e-02 -7.7849894416152296e-02
    3.5944379075342210e-02 -1.1043152607484655e-01
    3.5944379075342210e-02 -1.1043152607484655e-01
    5.0678754796397184e-02 -7.7849894416152296e-02 1. 0. 1. 0.
    5.0678754796397184e-02 -7.7849894416152296e-02
    3.5944379075342210e-02 -1.1043152607484655e-01
    5.0678754796397184e-02 -7.7849894416152296e-02 1. 0.
    3.5944379075342210e-02 -1.1043152607484655e-01
    3.5944379075342210e-02 -1.1043152607484655e-01
    3.5944379075342210e-02 -1.1043152607484655e-01
    2.5572924984088644e-02 -1.5713484026367722e-01
    1.7317963767532717e-02 -2.3942606534028665e-01
    1.7317963767532717e-02 -2.3942606534028665e-01
    1.6481836758420455e-02 -2.5318484177091660e-01
    1.3678352904417759e-02 -3.1517891481565019e-01
    1.4596559974299067e-02 -2.9149154406506872e-01
    1.2612488909460130e-02 -3.4874291623145781e-01
    1.1151110375624534e-02 -4.1111322589651894e-01
    9.7172076518043469e-03 -5.0751921892255236e-01
    1.0062830940678160e-02 -4.7919685895217384e-01
    9.8261890893315742e-03 -4.9811675413689882e-01
    8.8220388417103984e-03 -6.0983672113630616e-01
    9.6138698308130544e-03 -5.1689029060244884e-01
    8.8220388417103984e-03 -6.0983672113630616e-01
    8.8220388417103984e-03 -6.0983672113630616e-01
    8.8850863737072495e-03 -6.0054619947587551e-01
    9.6138698308130544e-03 -5.1689029060244884e-01
    1.1565790495108278e-02 -3.9086797998528577e-01
    1.2934519881649001e-02 -3.3777797401776155e-01
    1.3678352904417759e-02 -3.1517891481565019e-01
    1.3678352904417759e-02 -3.1517891481565019e-01
    1.3678352904417759e-02 -3.1517891481565019e-01
    1.8310254073894115e-02 -2.2501758018520479e-01
    1.8310254073894115e-02 -2.2501758018520479e-01
    2.1010301812759188e-02 -1.9364916731037082e-01
    1.9512832899766665e-02 -2.0982172726556322e-01
    1.9512832899766665e-02 -2.0982172726556322e-01
    2.5572924984088644e-02 -1.5713484026367722e-01
    2.5572924984088644e-02 -1.5713484026367722e-01
    3.5944379075342210e-02 -1.1043152607484655e-01 1. 0. 1. 0.
    5.0678754796397184e-02 -7.7849894416152296e-02
    5.0678754796397184e-02 -7.7849894416152296e-02
    3.5944379075342210e-02 -1.1043152607484655e-01
    3.5944379075342210e-02 -1.1043152607484655e-01
    3.5944379075342210e-02 -1.1043152607484655e-01
    2.9438350922846405e-02 -1.3566468949384036e-01
    2.2944044030811777e-02 -1.7622684421256032e-01
    2.1010301812759188e-02 -1.9364916731037082e-01
    1.8310254073894115e-02 -2.2501758018520479e-01
    1.4596559974299067e-02 -2.9149154406506872e-01
    1.3678352904417759e-02 -3.1517891481565019e-01
    1.3288081611176719e-02 -3.2659863237109044e-01
    1.2612488909460130e-02 -3.4874291623145781e-01
    1.0472475396722806e-02 -4.5044261646145078e-01
    9.0932885566862732e-03 -5.7271284253105414e-01
    8.9511971815888214e-03 -5.9126431985615313e-01
    8.6498043699170402e-03 -6.3779280414328055e-01
    8.7619015432995571e-03 -6.1913918736689044e-01
    8.7045334379903371e-03 -6.2845682683321802e-01
    8.1931331523805873e-03 -7.4256438721425266e-01
    9.2498298419117515e-03 -5.5415396251694204e-01
    9.3340715251257981e-03 -5.4486236794258425e-01
    9.1696474696035136e-03 -5.6343616981901101e-01
    9.0205375733954010e-03 -5.8198769524737792e-01
    9.0205375733954010e-03 -5.8198769524737792e-01
    8.3707046057866861e-03 -6.9436507482941368e-01
    8.5002930692438736e-03 -6.6594163473202761e-01
    1.0191493364719100e-02 -4.6966821831386218e-01
    1.2317779903237942e-02 -3.5951592548908329e-01
    1.2934519881649001e-02 -3.3777797401776155e-01
    1.3678352904417759e-02 -3.1517891481565019e-01
    1.5765426201885518e-02 -2.6639771383306554e-01
    1.4596559974299067e-02 -2.9149154406506872e-01
    1.4596559974299067e-02 -2.9149154406506872e-01
    1.5143174404524134e-02 -2.7914526311954124e-01
    1.6481836758420455e-02 -2.5318484177091660e-01
    1.6481836758420455e-02 -2.5318484177091660e-01
    2.5572924984088644e-02 -1.5713484026367722e-01
    3.5944379075342210e-02 -1.1043152607484655e-01
    2.9438350922846405e-02 -1.3566468949384036e-01
    3.5944379075342210e-02 -1.1043152607484655e-01 1. 0.
    5.0678754796397184e-02 -7.7849894416152296e-02
    2.5572924984088644e-02 -1.5713484026367722e-01
    2.5572924984088644e-02 -1.5713484026367722e-01
    1.9512832899766665e-02 -2.0982172726556322e-01
    1.8310254073894115e-02 -2.2501758018520479e-01
    1.4596559974299067e-02 -2.9149154406506872e-01
    1.3288081611176719e-02 -3.2659863237109044e-01
    1.2612488909460130e-02 -3.4874291623145781e-01
    1.2317779903237942e-02 -3.5951592548908329e-01
    1.2317779903237942e-02 -3.5951592548908329e-01
    9.9412390995816998e-03 -4.8867777742522089e-01
    9.4226311387273515e-03 -5.3555737827646122e-01
    8.7619015432995571e-03 -6.1913918736689044e-01
    8.3707046057866861e-03 -6.9436507482941368e-01
    8.1931331523805873e-03 -7.4256438721425266e-01
    8.1628036458368802e-03 -7.5235479386327875e-01
    8.1628036458368802e-03 -7.5235479386327875e-01
    8.5975940778140088e-03 -6.4715022892943397e-01
    8.9511971815888214e-03 -5.9126431985615313e-01
    8.8220388417103984e-03 -6.0983672113630616e-01
    8.8220388417103984e-03 -6.0983672113630616e-01
    8.6498043699170402e-03 -6.3779280414328055e-01
    8.7045334379903371e-03 -6.2845682683321802e-01
    8.5975940778140088e-03 -6.4715022892943397e-01
    9.1696474696035136e-03 -5.6343616981901101e-01
    8.9511971815888214e-03 -5.9126431985615313e-01
    8.5975940778140088e-03 -6.4715022892943397e-01
    1.1565790495108278e-02 -3.9086797998528577e-01
    1.1151110375624534e-02 -4.1111322589651894e-01
    1.2046932636549261e-02 -3.7011660509880256e-01
    1.3678352904417759e-02 -3.1517891481565019e-01
    1.5765426201885518e-02 -2.6639771383306554e-01
    1.5143174404524134e-02 -2.7914526311954124e-01
    1.5765426201885518e-02 -2.6639771383306554e-01
    1.5765426201885518e-02 -2.6639771383306554e-01
    1.9512832899766665e-02 -2.0982172726556322e-01
    2.9438350922846405e-02 -1.3566468949384036e-01
    2.9438350922846405e-02 -1.3566468949384036e-01
    2.9438350922846405e-02 -1.3566468949384036e-01 1. 0.
    2.9438350922846405e-02 -1.3566468949384036e-01
    2.9438350922846405e-02 -1.3566468949384036e-01
    1.8310254073894115e-02 -2.2501758018520479e-01
    1.7317963767532717e-02 -2.3942606534028665e-01
    1.4111789700098423e-02 -3.0348848933344197e-01
    1.2612488909460130e-02 -3.4874291623145781e-01
    1.1151110375624534e-02 -4.1111322589651894e-01
    1.1351048279453126e-02 -4.0104757927103968e-01
    1.1151110375624534e-02 -4.1111322589651894e-01
    9.1696474696035136e-03 -5.6343616981901101e-01
    8.8220388417103984e-03 -6.0983672113630616e-01
    8.5477913155740954e-03 -6.5653216429861272e-01
    8.3707046057866861e-03 -6.9436507482941368e-01
    8.2588053568231068e-03 -7.2314298711701119e-01
    8.2588053568231068e-03 -7.2314298711701119e-01
    7.9571490856148435e-03 -8.4340986844212751e-01
    8.3315359664242142e-03 -7.0391440921144333e-01
    8.3707046057866861e-03 -6.9436507482941368e-01
    8.7045334379903371e-03 -6.2845682683321802e-01
    8.6498043699170402e-03 -6.3779280414328055e-01
    8.8220388417103984e-03 -6.0983672113630616e-01
    8.5975940778140088e-03 -6.4715022892943397e-01
    8.8220388417103984e-03 -6.0983672113630616e-01
    8.6498043699170402e-03 -6.3779280414328055e-01
    8.5975940778140088e-03 -6.4715022892943397e-01
    8.5975940778140088e-03 -6.4715022892943397e-01
    9.1696474696035136e-03 -5.6343616981901101e-01
    9.5157928892135209e-03 -5.2623481158421759e-01
    9.4226311387273515e-03 -5.3555737827646122e-01
    1.0062830940678160e-02 -4.7919685895217384e-01
    1.2046932636549261e-02 -3.7011660509880256e-01
    1.4596559974299067e-02 -2.9149154406506872e-01
    1.5143174404524134e-02 -2.7914526311954124e-01
    1.5765426201885518e-02 -2.6639771383306554e-01
    1.7317963767532717e-02 -2.3942606534028665e-01
    1.9512832899766665e-02 -2.0982172726556322e-01
    2.1010301812759188e-02 -1.9364916731037082e-01
    2.9438350922846405e-02 -1.3566468949384036e-01
    2.5572924984088644e-02 -1.5713484026367722e-01 1. 0.
    2.2944044030811777e-02 -1.7622684421256032e-01
    1.8310254073894115e-02 -2.2501758018520479e-01
    1.5143174404524134e-02 -2.7914526311954124e-01
    1.3288081611176719e-02 -3.2659863237109044e-01
    1.2317779903237942e-02 -3.5951592548908329e-01
    1.0964487756630757e-02 -4.2107596053325946e-01
    9.9412390995816998e-03 -4.8867777742522089e-01
    9.2498298419117515e-03 -5.5415396251694204e-01
    9.3340715251257981e-03 -5.4486236794258425e-01
    8.9511971815888214e-03 -5.9126431985615313e-01
    8.5477913155740954e-03 -6.5653216429861272e-01
    8.2942582135927291e-03 -7.1350606801267569e-01
    9.0932885566862732e-03 -5.7271284253105414e-01
    8.5975940778140088e-03 -6.4715022892943397e-01
    8.0343462156151225e-03 -8.0222462966157027e-01
    7.8454152500864755e-03 -9.7618706018395274e-01
    7.8896572042722983e-03 -8.9685440629288105e-01
    7.9129374472714040e-03 -8.7518994898736735e-01
    8.2588053568231068e-03 -7.2314298711701119e-01
    8.5002930692438736e-03 -6.6594163473202761e-01
    8.2942582135927291e-03 -7.1350606801267569e-01
    8.7045334379903371e-03 -6.2845682683321802e-01
    8.5975940778140088e-03 -6.4715022892943397e-01
    8.5002930692438736e-03 -6.6594163473202761e-01
    8.5477913155740954e-03 -6.5653216429861272e-01
    8.2942582135927291e-03 -7.1350606801267569e-01
    8.8220388417103984e-03 -6.0983672113630616e-01
    9.4226311387273515e-03 -5.3555737827646122e-01
    9.6138698308130544e-03 -5.1689029060244884e-01
    9.3340715251257981e-03 -5.4486236794258425e-01
    9.2498298419117515e-03 -5.5415396251694204e-01
    1.1151110375624534e-02 -4.1111322589651894e-01
    1.1565790495108278e-02 -3.9086797998528577e-01
    1.4596559974299067e-02 -2.9149154406506872e-01
    1.4111789700098423e-02 -3.0348848933344197e-01
    1.6481836758420455e-02 -2.5318484177091660e-01
    2.1010301812759188e-02 -1.9364916731037082e-01
    2.5572924984088644e-02 -1.5713484026367722e-01
    2.5572924984088644e-02 -1.5713484026367722e-01 1. 0.
    1.8310254073894115e-02 -2.2501758018520479e-01
    1.5143174404524134e-02 -2.7914526311954124e-01
    1.2934519881649001e-02 -3.3777797401776155e-01
    1.2046932636549261e-02 -3.7011660509880256e-01
    1.0964487756630757e-02 -4.2107596053325946e-01
    1.0327819165828261e-02 -4.6008567910421683e-01
    9.3340715251257981e-03 -5.4486236794258425e-01
    8.7045334379903371e-03 -6.2845682683321802e-01
    8.5477913155740954e-03 -6.5653216429861272e-01
    8.5477913155740954e-03 -6.5653216429861272e-01
    8.4118351113381378e-03 -6.8485512969719842e-01
    8.1931331523805873e-03 -7.4256438721425266e-01
    8.3315359664242142e-03 -7.0391440921144333e-01
    7.8437065676639269e-03 -9.8802352005935368e-01
    7.8522611634746723e-03 -9.5291446468793539e-01
    7.8431372549019607e-03 -1. 7.9006896649978994e-03
    -8.8597191634901151e-01 7.8574073756033751e-03
    -9.4146887169127191e-01 7.8482655372831764e-03
    -9.6448564434082407e-01 7.9006896649978994e-03
    -8.8597191634901151e-01 7.9930569804904390e-03
    -8.2265890669686237e-01 8.2251160283724149e-03
    -7.3282810879293991e-01 8.4550038583703687e-03
    -6.7538163350597047e-01 8.8220388417103984e-03
    -6.0983672113630616e-01 8.1340781480228296e-03
    -7.6220232284635603e-01 8.2588053568231068e-03
    -7.2314298711701119e-01 8.3707046057866861e-03
    -6.9436507482941368e-01 8.8850863737072495e-03
    -6.0054619947587551e-01 8.7619015432995571e-03
    -6.1913918736689044e-01 9.3340715251257981e-03
    -5.4486236794258425e-01 8.9511971815888214e-03
    -5.9126431985615313e-01 8.8220388417103984e-03
    -6.0983672113630616e-01 1.0789894933909619e-02
    -4.3094580368566732e-01 1.1151110375624534e-02
    -4.1111322589651894e-01 1.2317779903237942e-02
    -3.5951592548908329e-01 1.3678352904417759e-02
    -3.1517891481565019e-01 1.9512832899766665e-02
    -2.0982172726556322e-01 1.9512832899766665e-02
    -2.0982172726556322e-01 2.9438350922846405e-02
    -1.3566468949384036e-01 2.5572924984088644e-02
    -1.5713484026367722e-01 1.5765426201885518e-02
    -2.6639771383306554e-01 1.2934519881649001e-02
    -3.3777797401776155e-01 1.2046932636549261e-02
    -3.7011660509880256e-01 1.0789894933909619e-02
    -4.3094580368566732e-01 1.0062830940678160e-02
    -4.7919685895217384e-01 8.8850863737072495e-03
    -6.0054619947587551e-01 8.6498043699170402e-03
    -6.3779280414328055e-01 8.4118351113381378e-03
    -6.8485512969719842e-01 8.2942582135927291e-03
    -7.1350606801267569e-01 8.0812589001412107e-03
    -7.8208086886005146e-01 7.8454152500864755e-03
    -1.0243938285880985e+00 7.8431372549019607e-03 -1.
    7.8574073756033733e-03 -1.0621700090875885e+00
    7.8437065676639269e-03 -1.0121216546949476e+00
    7.8437065676639269e-03 -9.8802352005935368e-01
    7.8798251312173495e-03 -9.0784129900320365e-01
    7.9006896649978994e-03 -8.8597191634901151e-01
    8.1340781480228296e-03 -7.6220232284635603e-01
    8.1628036458368802e-03 -7.5235479386327875e-01
    7.9744440150298218e-03 -8.3299312783504276e-01
    7.9930569804904390e-03 -8.2265890669686237e-01
    7.8711802299517609e-03 -9.1893658347268148e-01
    7.8896572042722983e-03 -8.9685440629288105e-01
    7.9129374472714040e-03 -8.7518994898736735e-01
    8.1340781480228296e-03 -7.6220232284635603e-01
    8.1069107755093305e-03 -7.7210999614941267e-01
    8.2251160283724149e-03 -7.3282810879293991e-01
    8.4550038583703687e-03 -6.7538163350597047e-01
    8.7045334379903371e-03 -6.2845682683321802e-01
    8.8220388417103984e-03 -6.0983672113630616e-01
    8.5975940778140088e-03 -6.4715022892943397e-01
    8.6498043699170402e-03 -6.3779280414328055e-01
    8.6498043699170402e-03 -6.3779280414328055e-01
    1.0472475396722806e-02 -4.5044261646145078e-01
    1.0789894933909619e-02 -4.3094580368566732e-01
    1.2612488909460130e-02 -3.4874291623145781e-01
    1.5143174404524134e-02 -2.7914526311954124e-01
    1.7317963767532717e-02 -2.3942606534028665e-01
    2.5572924984088644e-02 -1.5713484026367722e-01
    2.1010301812759188e-02 -1.9364916731037082e-01
    1.5143174404524134e-02 -2.7914526311954124e-01
    1.3288081611176719e-02 -3.2659863237109044e-01
    1.1797072790646713e-02 -3.8056219755369364e-01
    1.0964487756630757e-02 -4.2107596053325946e-01
    9.0205375733954010e-03 -5.8198769524737792e-01
    8.5477913155740954e-03 -6.5653216429861272e-01
    8.2251160283724149e-03 -7.3282810879293991e-01
    8.0812589001412107e-03 -7.8208086886005146e-01
    7.9930569804904390e-03 -8.2265890669686237e-01
    7.8437065676639269e-03 -9.8802352005935368e-01
    7.8522611634746723e-03 -1.0494121319981062e+00
    7.8637109525302520e-03 -9.3014436477669582e-01
    7.8637109525302520e-03 -9.3014436477669582e-01
    7.8798251312173495e-03 -9.0784129900320365e-01
    7.8522611634746723e-03 -9.5291446468793539e-01
    8.0130147068898944e-03 -8.1240384046359593e-01
    7.9930569804904390e-03 -8.2265890669686237e-01
    8.0812589001412107e-03 -7.8208086886005146e-01
    8.2251160283724149e-03 -7.3282810879293991e-01
    8.3315359664242142e-03 -7.0391440921144333e-01
    8.1340781480228296e-03 -7.6220232284635603e-01
    8.1069107755093305e-03 -7.7210999614941267e-01
    8.6498043699170402e-03 -6.3779280414328055e-01
    8.2942582135927291e-03 -7.1350606801267569e-01
    7.9129374472714040e-03 -8.7518994898736735e-01
    7.9006896649978994e-03 -8.8597191634901151e-01
    8.5002930692438736e-03 -6.6594163473202761e-01
    8.4118351113381378e-03 -6.8485512969719842e-01
    8.4118351113381378e-03 -6.8485512969719842e-01
    8.2588053568231068e-03 -7.2314298711701119e-01
    8.1931331523805873e-03 -7.4256438721425266e-01
    8.3315359664242142e-03 -7.0391440921144333e-01
    8.7045334379903371e-03 -6.2845682683321802e-01
    8.7045334379903371e-03 -6.2845682683321802e-01
    1.0191493364719100e-02 -4.6966821831386218e-01
    1.1151110375624534e-02 -4.1111322589651894e-01
    1.2934519881649001e-02 -3.3777797401776155e-01
    1.5765426201885518e-02 -2.6639771383306554e-01
    2.9438350922846405e-02 -1.3566468949384036e-01
    1.9512832899766665e-02 -2.0982172726556322e-01
    1.5143174404524134e-02 -2.7914526311954124e-01
    1.2612488909460130e-02 -3.4874291623145781e-01
    1.0964487756630757e-02 -4.2107596053325946e-01
    8.8220388417103984e-03 -6.0983672113630616e-01
    8.7619015432995571e-03 -6.1913918736689044e-01
    8.2942582135927291e-03 -7.1350606801267569e-01
    8.0812589001412107e-03 -7.8208086886005146e-01
    7.9129374472714040e-03 -8.7518994898736735e-01
    7.8896572042722983e-03 -8.9685440629288105e-01
    7.8482655372831764e-03 -1.0368220676663857e+00
    7.9129374472714040e-03 -1.1426091000668408e+00
    7.8437065676639269e-03 -1.0121216546949476e+00
    7.8437065676639269e-03 -9.8802352005935368e-01
    7.8637109525302520e-03 -9.3014436477669582e-01
    7.8896572042722983e-03 -8.9685440629288105e-01
    7.8637109525302520e-03 -9.3014436477669582e-01
    7.8896572042722983e-03 -8.9685440629288105e-01
    8.0343462156151225e-03 -8.0222462966157027e-01
    8.2588053568231068e-03 -7.2314298711701119e-01
    8.2942582135927291e-03 -7.1350606801267569e-01
    8.0570829477513688e-03 -7.9211803438133943e-01
    8.0570829477513688e-03 -7.9211803438133943e-01
    8.3315359664242142e-03 -7.0391440921144333e-01
    8.1931331523805873e-03 -7.4256438721425266e-01
    7.8522611634746723e-03 -9.5291446468793539e-01
    7.8711802299517609e-03 -9.1893658347268148e-01
    7.8454152500864755e-03 -9.7618706018395274e-01
    8.1340781480228296e-03 -7.6220232284635603e-01
    7.9571490856148435e-03 -8.4340986844212751e-01
    8.0570829477513688e-03 -7.9211803438133943e-01
    8.2942582135927291e-03 -7.1350606801267569e-01
    8.2588053568231068e-03 -7.2314298711701119e-01
    8.2942582135927291e-03 -7.1350606801267569e-01
    8.5477913155740954e-03 -6.5653216429861272e-01
    8.8850863737072495e-03 -6.0054619947587551e-01
    1.0472475396722806e-02 -4.5044261646145078e-01
    1.1351048279453126e-02 -4.0104757927103968e-01
    1.5765426201885518e-02 -2.6639771383306554e-01
    2.1010301812759188e-02 -1.9364916731037082e-01
    1.5765426201885518e-02 -2.6639771383306554e-01
    1.2612488909460130e-02 -3.4874291623145781e-01
    1.0964487756630757e-02 -4.2107596053325946e-01
    1.0472475396722806e-02 -4.5044261646145078e-01
    8.2588053568231068e-03 -7.2314298711701119e-01
    8.4550038583703687e-03 -6.7538163350597047e-01
    8.2588053568231068e-03 -7.2314298711701119e-01
    7.9411476524243376e-03 -8.5391256382996639e-01
    7.9129374472714040e-03 -8.7518994898736735e-01
    7.8522611634746723e-03 -1.0494121319981062e+00
    7.9744440150298218e-03 -1.2004900959975617e+00
    7.8431372549019607e-03 -1. 7.8454152500864755e-03
    -9.7618706018395274e-01 7.8522611634746723e-03
    -1.0494121319981062e+00 7.8437065676639269e-03
    -1.0121216546949476e+00 7.8437065676639269e-03
    -9.8802352005935368e-01 7.8482655372831764e-03
    -9.6448564434082407e-01 7.8637109525302520e-03
    -9.3014436477669582e-01 7.9744440150298218e-03
    -8.3299312783504276e-01 7.9744440150298218e-03
    -8.3299312783504276e-01 8.0343462156151225e-03
    -8.0222462966157027e-01 7.9411476524243376e-03
    -8.5391256382996639e-01 7.9571490856148435e-03
    -8.4340986844212751e-01 8.0570829477513688e-03
    -7.9211803438133943e-01 8.1628036458368802e-03
    -7.5235479386327875e-01 8.1069107755093305e-03
    -7.7210999614941267e-01 8.0570829477513688e-03
    -7.9211803438133943e-01 7.8896572042723000e-03
    -1.1150081807965553e+00 7.8574073756033733e-03
    -1.0621700090875885e+00 7.8798251312173478e-03
    -1.1015141094572201e+00 7.9264172601227565e-03
    -8.6450472587061755e-01 8.1931331523805873e-03
    -7.4256438721425266e-01 8.2588053568231068e-03
    -7.2314298711701119e-01 8.3315359664242142e-03
    -7.0391440921144333e-01 8.3315359664242142e-03
    -7.0391440921144333e-01 8.7045334379903371e-03
    -6.2845682683321802e-01 9.8261890893315742e-03
    -4.9811675413689882e-01 1.0964487756630757e-02
    -4.2107596053325946e-01 1.3288081611176719e-02
    -3.2659863237109044e-01 1.5765426201885518e-02
    -2.6639771383306554e-01 1.6481836758420455e-02
    -2.5318484177091660e-01 1.2046932636549261e-02
    -3.7011660509880256e-01 9.9412390995816998e-03
    -4.8867777742522089e-01 8.3315359664242142e-03
    -7.0391440921144333e-01 7.9744440150298218e-03
    -8.3299312783504276e-01 8.1628036458368802e-03
    -7.5235479386327875e-01 8.1340781480228296e-03
    -7.6220232284635603e-01 7.8637109525302520e-03
    -9.3014436477669582e-01 7.8431372549019607e-03 -1.
    7.8637109525302520e-03 -1.0751019281185186e+00
    7.9129374472714040e-03 -1.1426091000668408e+00
    7.8437065676639269e-03 -1.0121216546949476e+00
    7.8482655372831764e-03 -9.6448564434082407e-01
    7.8711802299517609e-03 -9.1893658347268148e-01
    7.8522611634746723e-03 -9.5291446468793539e-01
    7.8431372549019607e-03 -1. 7.8437065676639269e-03
    -1.0121216546949476e+00 7.8798251312173495e-03
    -9.0784129900320365e-01 7.9411476524243376e-03
    -8.5391256382996639e-01 7.9411476524243376e-03
    -8.5391256382996639e-01 8.0570829477513688e-03
    -7.9211803438133943e-01 7.9411476524243376e-03
    -8.5391256382996639e-01 8.2251160283724149e-03
    -7.3282810879293991e-01 8.0812589001412107e-03
    -7.8208086886005146e-01 8.1628036458368802e-03
    -7.5235479386327875e-01 7.9930569804904390e-03
    -8.2265890669686237e-01 7.9129374472714040e-03
    -8.7518994898736735e-01 7.8454152500864755e-03
    -9.7618706018395274e-01 7.8896572042723000e-03
    -1.1150081807965553e+00 7.8522611634746723e-03
    -1.0494121319981062e+00 7.8711802299517609e-03
    -1.0882143751650175e+00 7.9930569804904390e-03
    -8.2265890669686237e-01 8.0130147068898944e-03
    -8.1240384046359593e-01 7.9930569804904390e-03
    -8.2265890669686237e-01 8.0570829477513688e-03
    -7.9211803438133943e-01 8.2942582135927291e-03
    -7.1350606801267569e-01 8.8850863737072495e-03
    -6.0054619947587551e-01 1.0789894933909619e-02
    -4.3094580368566732e-01 1.4596559974299067e-02
    -2.9149154406506872e-01 1.5765426201885518e-02
    -2.6639771383306554e-01 1.2612488909460130e-02
    -3.4874291623145781e-01 1.0789894933909619e-02
    -4.3094580368566732e-01 9.3340715251257981e-03
    -5.4486236794258425e-01 8.2588053568231068e-03
    -7.2314298711701119e-01 7.9411476524243376e-03
    -8.5391256382996639e-01 7.8798251312173495e-03
    -9.0784129900320365e-01 7.8711802299517609e-03
    -9.1893658347268148e-01 7.9129374472714040e-03
    -8.7518994898736735e-01 7.8711802299517609e-03
    -1.0882143751650175e+00 7.9411476524243359e-03
    -1.1710800875382392e+00 7.8437065676639269e-03
    -1.0121216546949476e+00 7.8637109525302520e-03
    -1.0751019281185186e+00 7.8522611634746723e-03
    -9.5291446468793539e-01 7.9744440150298218e-03
    -8.3299312783504276e-01 7.8482655372831764e-03
    -9.6448564434082407e-01 7.8522611634746723e-03
    -1.0494121319981062e+00 7.8482655372831764e-03
    -9.6448564434082407e-01 7.8711802299517609e-03
    -9.1893658347268148e-01 7.9006896649978994e-03
    -8.8597191634901151e-01 8.0812589001412107e-03
    -7.8208086886005146e-01 8.0130147068898944e-03
    -8.1240384046359593e-01 7.9129374472714040e-03
    -8.7518994898736735e-01 7.9930569804904390e-03
    -8.2265890669686237e-01 7.9744440150298218e-03
    -8.3299312783504276e-01 8.1340781480228296e-03
    -7.6220232284635603e-01 7.9264172601227565e-03
    -8.6450472587061755e-01 7.8437065676639269e-03
    -9.8802352005935368e-01 7.8637109525302520e-03
    -9.3014436477669582e-01 7.9129374472714040e-03
    -1.1426091000668408e+00 7.8454152500864755e-03
    -1.0243938285880985e+00 7.8574073756033733e-03
    -1.0621700090875885e+00 7.9264172601227565e-03
    -8.6450472587061755e-01 7.9129374472714040e-03
    -8.7518994898736735e-01 7.8798251312173495e-03
    -9.0784129900320365e-01 7.9571490856148435e-03
    -8.4340986844212751e-01 8.1931331523805873e-03
    -7.4256438721425266e-01 8.2942582135927291e-03
    -7.1350606801267569e-01 9.9412390995816998e-03
    -4.8867777742522089e-01 1.2317779903237942e-02
    -3.5951592548908329e-01 1.6481836758420455e-02
    -2.5318484177091660e-01 1.1351048279453126e-02
    -4.0104757927103968e-01 9.7172076518043469e-03
    -5.0751921892255236e-01 8.1931331523805873e-03
    -7.4256438721425266e-01 8.0130147068898944e-03
    -8.1240384046359593e-01 7.8896572042722983e-03
    -8.9685440629288105e-01 7.8431372549019607e-03 -1.
    7.8637109525302520e-03 -9.3014436477669582e-01
    7.8896572042723000e-03 -1.1150081807965553e+00
    7.9129374472714040e-03 -1.1426091000668408e+00
    7.8522611634746723e-03 -1.0494121319981062e+00
    7.8896572042723000e-03 -1.1150081807965553e+00
    7.8482655372831764e-03 -1.0368220676663857e+00
    7.8522611634746723e-03 -1.0494121319981062e+00
    7.9129374472714040e-03 -8.7518994898736735e-01
    7.8711802299517609e-03 -9.1893658347268148e-01
    7.8798251312173495e-03 -9.0784129900320365e-01
    7.8896572042722983e-03 -8.9685440629288105e-01
    7.8637109525302520e-03 -9.3014436477669582e-01
    7.9264172601227565e-03 -8.6450472587061755e-01
    7.9930569804904390e-03 -8.2265890669686237e-01
    8.1340781480228296e-03 -7.6220232284635603e-01
    8.0812589001412107e-03 -7.8208086886005146e-01
    8.1628036458368802e-03 -7.5235479386327875e-01
    7.9930569804904390e-03 -8.2265890669686237e-01
    8.0570829477513688e-03 -7.9211803438133943e-01
    7.9744440150298218e-03 -8.3299312783504276e-01
    7.8482655372831764e-03 -9.6448564434082407e-01
    7.8798251312173495e-03 -9.0784129900320365e-01
    7.8522611634746723e-03 -1.0494121319981062e+00
    8.1069107755093305e-03 -1.2951522516054665e+00
    7.9129374472714040e-03 -1.1426091000668408e+00
    7.8522611634746723e-03 -1.0494121319981062e+00
    7.9744440150298218e-03 -8.3299312783504276e-01
    7.9930569804904390e-03 -8.2265890669686237e-01
    7.9411476524243376e-03 -8.5391256382996639e-01
    8.0343462156151225e-03 -8.0222462966157027e-01
    8.3707046057866861e-03 -6.9436507482941368e-01
    9.3340715251257981e-03 -5.4486236794258425e-01
    1.0062830940678160e-02 -4.7919685895217384e-01
    1.2612488909460130e-02 -3.4874291623145781e-01
    1.0327819165828261e-02 -4.6008567910421683e-01
    9.1696474696035136e-03 -5.6343616981901101e-01
    8.2251160283724149e-03 -7.3282810879293991e-01
    7.9571490856148435e-03 -8.4340986844212751e-01
    7.8711802299517609e-03 -9.1893658347268148e-01
    7.8482655372831764e-03 -9.6448564434082407e-01
    7.8437065676639269e-03 -9.8802352005935368e-01
    7.8896572042723000e-03 -1.1150081807965553e+00
    7.9006896649978994e-03 -1.1287039482254528e+00
    7.9571490856148452e-03 -1.1856631483896578e+00
    7.8798251312173478e-03 -1.1015141094572201e+00
    7.8574073756033733e-03 -1.0621700090875885e+00
    7.8482655372831764e-03 -9.6448564434082407e-01
    7.8711802299517609e-03 -9.1893658347268148e-01
    7.9129374472714040e-03 -8.7518994898736735e-01
    8.0130147068898944e-03 -8.1240384046359593e-01
    7.9411476524243376e-03 -8.5391256382996639e-01
    8.0812589001412107e-03 -7.8208086886005146e-01
    7.9571490856148435e-03 -8.4340986844212751e-01
    7.9930569804904390e-03 -8.2265890669686237e-01
    8.2588053568231068e-03 -7.2314298711701119e-01
    8.1931331523805873e-03 -7.4256438721425266e-01
    8.0812589001412107e-03 -7.8208086886005146e-01
    7.9930569804904390e-03 -8.2265890669686237e-01
    8.0570829477513688e-03 -7.9211803438133943e-01
    7.8798251312173495e-03 -9.0784129900320365e-01
    7.8798251312173495e-03 -9.0784129900320365e-01
    7.8798251312173495e-03 -9.0784129900320365e-01
    7.8482655372831764e-03 -1.0368220676663857e+00
    7.8522611634746723e-03 -1.0494121319981062e+00
    7.9744440150298218e-03 -1.2004900959975617e+00
    7.8637109525302520e-03 -1.0751019281185186e+00
    7.8437065676639269e-03 -1.0121216546949476e+00
    7.8896572042722983e-03 -8.9685440629288105e-01
    7.8522611634746723e-03 -9.5291446468793539e-01
    7.9129374472714040e-03 -8.7518994898736735e-01
    8.1628036458368802e-03 -7.5235479386327875e-01
    8.3707046057866861e-03 -6.9436507482941368e-01
    9.5157928892135209e-03 -5.2623481158421759e-01
    1.1797072790646713e-02 -3.8056219755369364e-01
    1.0964487756630757e-02 -4.2107596053325946e-01
    9.0932885566862732e-03 -5.7271284253105414e-01
    7.9930569804904390e-03 -8.2265890669686237e-01
    7.8798251312173495e-03 -9.0784129900320365e-01
    7.8574073756033751e-03 -9.4146887169127191e-01
    7.8482655372831764e-03 -1.0368220676663857e+00
    7.8431372549019607e-03 -1. 7.9411476524243359e-03
    -1.1710800875382392e+00 8.0343462156151225e-03
    -1.2465336553202861e+00 7.9411476524243359e-03
    -1.1710800875382392e+00 7.8711802299517609e-03
    -1.0882143751650175e+00 7.8637109525302520e-03
    -1.0751019281185186e+00 7.8798251312173495e-03
    -9.0784129900320365e-01 8.0343462156151225e-03
    -8.0222462966157027e-01 8.0343462156151225e-03
    -8.0222462966157027e-01 8.1628036458368802e-03
    -7.5235479386327875e-01 8.0812589001412107e-03
    -7.8208086886005146e-01 8.1628036458368802e-03
    -7.5235479386327875e-01 8.1069107755093305e-03
    -7.7210999614941267e-01 8.0570829477513688e-03
    -7.9211803438133943e-01 8.2588053568231068e-03
    -7.2314298711701119e-01 8.3315359664242142e-03
    -7.0391440921144333e-01 8.1340781480228296e-03
    -7.6220232284635603e-01 8.1069107755093305e-03
    -7.7210999614941267e-01 8.1628036458368802e-03
    -7.5235479386327875e-01 7.9571490856148435e-03
    -8.4340986844212751e-01 7.8574073756033751e-03
    -9.4146887169127191e-01 7.8798251312173495e-03
    -9.0784129900320365e-01 7.9571490856148435e-03
    -8.4340986844212751e-01 7.8437065676639269e-03
    -1.0121216546949476e+00 7.8437065676639269e-03
    -1.0121216546949476e+00 7.8711802299517609e-03
    -1.0882143751650175e+00 7.8574073756033733e-03
    -1.0621700090875885e+00 7.8437065676639269e-03
    -9.8802352005935368e-01 7.8637109525302520e-03
    -9.3014436477669582e-01 7.9744440150298218e-03
    -8.3299312783504276e-01 7.9930569804904390e-03
    -8.2265890669686237e-01 8.2251160283724149e-03
    -7.3282810879293991e-01 9.0205375733954010e-03
    -5.8198769524737792e-01 1.0964487756630757e-02
    -4.2107596053325946e-01 1.0964487756630757e-02
    -4.2107596053325946e-01 8.5477913155740954e-03
    -6.5653216429861272e-01 7.9264172601227565e-03
    -8.6450472587061755e-01 7.8798251312173495e-03
    -9.0784129900320365e-01 7.8437065676639269e-03
    -9.8802352005935368e-01 7.8482655372831764e-03
    -1.0368220676663857e+00 7.8522611634746723e-03
    -1.0494121319981062e+00 7.9571490856148452e-03
    -1.1856631483896578e+00 8.0812589001412107e-03
    -1.2786401506759570e+00 7.8798251312173478e-03
    -1.1015141094572201e+00 7.9411476524243359e-03
    -1.1710800875382392e+00 7.8637109525302520e-03
    -1.0751019281185186e+00 7.9930569804904390e-03
    -8.2265890669686237e-01 8.1931331523805873e-03
    -7.4256438721425266e-01 8.1069107755093305e-03
    -7.7210999614941267e-01 8.3315359664242142e-03
    -7.0391440921144333e-01 8.2251160283724149e-03
    -7.3282810879293991e-01 8.2588053568231068e-03
    -7.2314298711701119e-01 8.3315359664242142e-03
    -7.0391440921144333e-01 8.2251160283724149e-03
    -7.3282810879293991e-01 8.2942582135927291e-03
    -7.1350606801267569e-01 8.0570829477513688e-03
    -7.9211803438133943e-01 8.1340781480228296e-03
    -7.6220232284635603e-01 8.0570829477513688e-03
    -7.9211803438133943e-01 7.9930569804904390e-03
    -8.2265890669686237e-01 7.9264172601227565e-03
    -8.6450472587061755e-01 8.0130147068898944e-03
    -8.1240384046359593e-01 7.9129374472714040e-03
    -8.7518994898736735e-01 7.8896572042722983e-03
    -8.9685440629288105e-01 7.8896572042722983e-03
    -8.9685440629288105e-01 7.8437065676639269e-03
    -1.0121216546949476e+00 7.8431372549019607e-03 -1.
    7.8522611634746723e-03 -1.0494121319981062e+00
    7.8454152500864755e-03 -9.7618706018395274e-01
    7.9006896649978994e-03 -8.8597191634901151e-01
    7.9006896649978994e-03 -8.8597191634901151e-01
    7.9264172601227565e-03 -8.6450472587061755e-01
    7.9744440150298218e-03 -8.3299312783504276e-01
    8.9511971815888214e-03 -5.9126431985615313e-01
    9.8261890893315742e-03 -4.9811675413689882e-01
    1.0327819165828261e-02 -4.6008567910421683e-01
    8.5477913155740954e-03 -6.5653216429861272e-01
    7.9264172601227565e-03 -8.6450472587061755e-01
    7.8454152500864755e-03 -9.7618706018395274e-01
    7.8711802299517609e-03 -1.0882143751650175e+00
    7.8522611634746723e-03 -1.0494121319981062e+00
    7.8431372549019607e-03 -1. 7.9129374472714040e-03
    -1.1426091000668408e+00 7.8896572042723000e-03
    -1.1150081807965553e+00 7.8522611634746723e-03
    -1.0494121319981062e+00 7.8711802299517609e-03
    -1.0882143751650175e+00 7.9006896649978994e-03
    -8.8597191634901151e-01 8.1069107755093305e-03
    -7.7210999614941267e-01 8.1931331523805873e-03
    -7.4256438721425266e-01 8.0343462156151225e-03
    -8.0222462966157027e-01 8.2251160283724149e-03
    -7.3282810879293991e-01 8.2588053568231068e-03
    -7.2314298711701119e-01 8.1340781480228296e-03
    -7.6220232284635603e-01 8.2251160283724149e-03
    -7.3282810879293991e-01 8.1069107755093305e-03
    -7.7210999614941267e-01 8.2251160283724149e-03
    -7.3282810879293991e-01 8.1628036458368802e-03
    -7.5235479386327875e-01 8.1340781480228296e-03
    -7.6220232284635603e-01 7.9411476524243376e-03
    -8.5391256382996639e-01 7.9411476524243376e-03
    -8.5391256382996639e-01 8.0570829477513688e-03
    -7.9211803438133943e-01 7.9930569804904390e-03
    -8.2265890669686237e-01 7.9571490856148435e-03
    -8.4340986844212751e-01 7.8798251312173495e-03
    -9.0784129900320365e-01 7.9571490856148435e-03
    -8.4340986844212751e-01 7.8637109525302520e-03
    -1.0751019281185186e+00 7.9129374472714040e-03
    -1.1426091000668408e+00 7.9744440150298218e-03
    -1.2004900959975617e+00 7.9411476524243359e-03
    -1.1710800875382392e+00 7.8522611634746723e-03
    -1.0494121319981062e+00 7.8437065676639269e-03
    -9.8802352005935368e-01 7.8454152500864755e-03
    -9.7618706018395274e-01 7.9264172601227565e-03
    -8.6450472587061755e-01 8.8220388417103984e-03
    -6.0983672113630616e-01 1.1351048279453126e-02
    -4.0104757927103968e-01 1.0191493364719100e-02
    -4.6966821831386218e-01 8.7045334379903371e-03
    -6.2845682683321802e-01 8.0343462156151225e-03
    -8.0222462966157027e-01 7.8482655372831764e-03
    -9.6448564434082407e-01 7.8798251312173478e-03
    -1.1015141094572201e+00 7.8482655372831764e-03
    -1.0368220676663857e+00 7.8437065676639269e-03
    -9.8802352005935368e-01 7.8454152500864755e-03
    -9.7618706018395274e-01 7.8798251312173478e-03
    -1.1015141094572201e+00 7.8522611634746723e-03
    -1.0494121319981062e+00 7.8482655372831764e-03
    -1.0368220676663857e+00 7.8522611634746723e-03
    -1.0494121319981062e+00 8.1340781480228296e-03
    -7.6220232284635603e-01 8.0570829477513688e-03
    -7.9211803438133943e-01 8.1069107755093305e-03
    -7.7210999614941267e-01 8.0812589001412107e-03
    -7.8208086886005146e-01 8.1340781480228296e-03
    -7.6220232284635603e-01 7.9930569804904390e-03
    -8.2265890669686237e-01 8.1069107755093305e-03
    -7.7210999614941267e-01 8.0812589001412107e-03
    -7.8208086886005146e-01 8.0343462156151225e-03
    -8.0222462966157027e-01 8.0570829477513688e-03
    -7.9211803438133943e-01 8.0812589001412107e-03
    -7.8208086886005146e-01 8.0130147068898944e-03
    -8.1240384046359593e-01 7.9264172601227565e-03
    -8.6450472587061755e-01 8.0130147068898944e-03
    -8.1240384046359593e-01 8.0343462156151225e-03
    -8.0222462966157027e-01 8.0130147068898944e-03
    -8.1240384046359593e-01 8.1069107755093305e-03
    -7.7210999614941267e-01 8.0130147068898944e-03
    -8.1240384046359593e-01 7.8437065676639269e-03
    -1.0121216546949476e+00 7.8574073756033751e-03
    -9.4146887169127191e-01 8.1628036458368820e-03
    -1.3291601358251262e+00 7.9411476524243359e-03
    -1.1710800875382392e+00 7.8431372549019607e-03 -1.
    7.8574073756033733e-03 -1.0621700090875885e+00
    7.8711802299517609e-03 -9.1893658347268148e-01
    8.0130147068898944e-03 -8.1240384046359593e-01
    8.4550038583703687e-03 -6.7538163350597047e-01
    9.6138698308130544e-03 -5.1689029060244884e-01
    1.1797072790646713e-02 -3.8056219755369364e-01
    8.9511971815888214e-03 -5.9126431985615313e-01
    8.1069107755093305e-03 -7.7210999614941267e-01
    7.8522611634746723e-03 -9.5291446468793539e-01
    7.8711802299517609e-03 -1.0882143751650175e+00
    7.8454152500864755e-03 -9.7618706018395274e-01
    7.8437065676639269e-03 -1.0121216546949476e+00
    7.8711802299517609e-03 -1.0882143751650175e+00
    7.8637109525302520e-03 -1.0751019281185186e+00
    7.8454152500864755e-03 -1.0243938285880985e+00
    7.8454152500864755e-03 -1.0243938285880985e+00
    7.8522611634746723e-03 -9.5291446468793539e-01
    7.9744440150298218e-03 -8.3299312783504276e-01
    8.0343462156151225e-03 -8.0222462966157027e-01
    8.1340781480228296e-03 -7.6220232284635603e-01
    8.0812589001412107e-03 -7.8208086886005146e-01
    8.1931331523805873e-03 -7.4256438721425266e-01
    7.9129374472714040e-03 -8.7518994898736735e-01
    7.9129374472714040e-03 -8.7518994898736735e-01
    8.0130147068898944e-03 -8.1240384046359593e-01
    7.9744440150298218e-03 -8.3299312783504276e-01
    8.0130147068898944e-03 -8.1240384046359593e-01
    8.1069107755093305e-03 -7.7210999614941267e-01
    8.0812589001412107e-03 -7.8208086886005146e-01
    7.9411476524243376e-03 -8.5391256382996639e-01
    8.0343462156151225e-03 -8.0222462966157027e-01
    7.9744440150298218e-03 -8.3299312783504276e-01
    8.1069107755093305e-03 -7.7210999614941267e-01
    8.0130147068898944e-03 -8.1240384046359593e-01
    7.8896572042722983e-03 -8.9685440629288105e-01
    7.8482655372831764e-03 -9.6448564434082407e-01
    7.8637109525302520e-03 -1.0751019281185186e+00
    8.0812589001412107e-03 -1.2786401506759570e+00
    7.9930569804904390e-03 -1.2155706233281995e+00
    7.8454152500864755e-03 -9.7618706018395274e-01
    7.8896572042723000e-03 -1.1150081807965553e+00
    7.8437065676639269e-03 -1.0121216546949476e+00
    7.9264172601227565e-03 -8.6450472587061755e-01
    8.8220388417103984e-03 -6.0983672113630616e-01
    1.0191493364719100e-02 -4.6966821831386218e-01
    1.1351048279453126e-02 -4.0104757927103968e-01
    8.8850863737072495e-03 -6.0054619947587551e-01
    8.0130147068898944e-03 -8.1240384046359593e-01
    7.8482655372831764e-03 -1.0368220676663857e+00
    7.8454152500864755e-03 -1.0243938285880985e+00
    7.8437065676639269e-03 -1.0121216546949476e+00
    7.8798251312173478e-03 -1.1015141094572201e+00
    7.8574073756033733e-03 -1.0621700090875885e+00
    7.9571490856148452e-03 -1.1856631483896578e+00
    7.8711802299517609e-03 -9.1893658347268148e-01
    7.8437065676639269e-03 -1.0121216546949476e+00
    7.8482655372831764e-03 -9.6448564434082407e-01
    8.0130147068898944e-03 -8.1240384046359593e-01
    8.0570829477513688e-03 -7.9211803438133943e-01
    8.1340781480228296e-03 -7.6220232284635603e-01
    8.1628036458368802e-03 -7.5235479386327875e-01
    8.0570829477513688e-03 -7.9211803438133943e-01
    8.0130147068898944e-03 -8.1240384046359593e-01
    7.9264172601227565e-03 -8.6450472587061755e-01
    7.9129374472714040e-03 -8.7518994898736735e-01
    7.8637109525302520e-03 -9.3014436477669582e-01
    7.9744440150298218e-03 -8.3299312783504276e-01
    8.0570829477513688e-03 -7.9211803438133943e-01
    7.9129374472714040e-03 -8.7518994898736735e-01
    7.8711802299517609e-03 -9.1893658347268148e-01
    7.9571490856148435e-03 -8.4340986844212751e-01
    7.9930569804904390e-03 -8.2265890669686237e-01
    7.9744440150298218e-03 -8.3299312783504276e-01
    8.0343462156151225e-03 -8.0222462966157027e-01
    7.8896572042722983e-03 -8.9685440629288105e-01
    7.8454152500864755e-03 -1.0243938285880985e+00
    7.9264172601227565e-03 -1.1567316754606853e+00
    7.8637109525302520e-03 -1.0751019281185186e+00
    7.9571490856148452e-03 -1.1856631483896578e+00
    7.8522611634746723e-03 -1.0494121319981062e+00
    7.8522611634746723e-03 -9.5291446468793539e-01
    7.8522611634746723e-03 -9.5291446468793539e-01
    7.9411476524243376e-03 -8.5391256382996639e-01
    8.5002930692438736e-03 -6.6594163473202761e-01
    1.0191493364719100e-02 -4.6966821831386218e-01
    1.0626215652437784e-02 -4.4073189618695269e-01
    9.0932885566862732e-03 -5.7271284253105414e-01
    7.8896572042722983e-03 -8.9685440629288105e-01
    7.8482655372831764e-03 -9.6448564434082407e-01
    7.8711802299517609e-03 -1.0882143751650175e+00
    7.8637109525302520e-03 -1.0751019281185186e+00
    7.8437065676639269e-03 -1.0121216546949476e+00
    7.8574073756033733e-03 -1.0621700090875885e+00
    7.8482655372831764e-03 -9.6448564434082407e-01
    7.9006896649978994e-03 -8.8597191634901151e-01
    7.8574073756033751e-03 -9.4146887169127191e-01
    7.8711802299517609e-03 -9.1893658347268148e-01
    8.0130147068898944e-03 -8.1240384046359593e-01
    8.2251160283724149e-03 -7.3282810879293991e-01
    8.2588053568231068e-03 -7.2314298711701119e-01
    8.0570829477513688e-03 -7.9211803438133943e-01
    8.1069107755093305e-03 -7.7210999614941267e-01
    8.0343462156151225e-03 -8.0222462966157027e-01
    7.9411476524243376e-03 -8.5391256382996639e-01
    7.9930569804904390e-03 -8.2265890669686237e-01
    7.9411476524243376e-03 -8.5391256382996639e-01
    8.0130147068898944e-03 -8.1240384046359593e-01
    8.1931331523805873e-03 -7.4256438721425266e-01
    8.0130147068898944e-03 -8.1240384046359593e-01
    7.9930569804904390e-03 -8.2265890669686237e-01
    8.0812589001412107e-03 -7.8208086886005146e-01
    8.0130147068898944e-03 -8.1240384046359593e-01
    8.1931331523805873e-03 -7.4256438721425266e-01
    8.1069107755093305e-03 -7.7210999614941267e-01
    8.0570829477513688e-03 -7.9211803438133943e-01
    7.8482655372831764e-03 -9.6448564434082407e-01
    7.8574073756033733e-03 -1.0621700090875885e+00
    7.9006896649978994e-03 -1.1287039482254528e+00
    7.9006896649978994e-03 -1.1287039482254528e+00
    7.8798251312173495e-03 -9.0784129900320365e-01
    7.8896572042722983e-03 -8.9685440629288105e-01
    7.9129374472714040e-03 -8.7518994898736735e-01
    8.0343462156151225e-03 -8.0222462966157027e-01
    8.1340781480228296e-03 -7.6220232284635603e-01
    1.0626215652437784e-02 -4.4073189618695269e-01
    1.1351048279453126e-02 -4.0104757927103968e-01
    9.5157928892135209e-03 -5.2623481158421759e-01
    8.1931331523805873e-03 -7.4256438721425266e-01
    7.8454152500864755e-03 -9.7618706018395274e-01
    7.8522611634746723e-03 -1.0494121319981062e+00
    7.8711802299517609e-03 -1.0882143751650175e+00
    7.8437065676639269e-03 -1.0121216546949476e+00
    7.8437065676639269e-03 -9.8802352005935368e-01
    7.8437065676639269e-03 -1.0121216546949476e+00
    7.8798251312173495e-03 -9.0784129900320365e-01
    7.9006896649978994e-03 -8.8597191634901151e-01
    8.0343462156151225e-03 -8.0222462966157027e-01
    7.9129374472714040e-03 -8.7518994898736735e-01
    8.1931331523805873e-03 -7.4256438721425266e-01
    8.2251160283724149e-03 -7.3282810879293991e-01
    8.0343462156151225e-03 -8.0222462966157027e-01
    7.9930569804904390e-03 -8.2265890669686237e-01
    7.9411476524243376e-03 -8.5391256382996639e-01
    8.0570829477513688e-03 -7.9211803438133943e-01
    8.0130147068898944e-03 -8.1240384046359593e-01
    7.9744440150298218e-03 -8.3299312783504276e-01
    8.1069107755093305e-03 -7.7210999614941267e-01
    7.9744440150298218e-03 -8.3299312783504276e-01
    8.0130147068898944e-03 -8.1240384046359593e-01
    8.0130147068898944e-03 -8.1240384046359593e-01
    8.1628036458368802e-03 -7.5235479386327875e-01
    8.0812589001412107e-03 -7.8208086886005146e-01
    8.3315359664242142e-03 -7.0391440921144333e-01
    8.0812589001412107e-03 -7.8208086886005146e-01
    8.0812589001412107e-03 -7.8208086886005146e-01
    7.9411476524243376e-03 -8.5391256382996639e-01
    7.8522611634746723e-03 -9.5291446468793539e-01
    7.8798251312173478e-03 -1.1015141094572201e+00
    8.0570829477513688e-03 -1.2624381172952597e+00
    7.8482655372831764e-03 -9.6448564434082407e-01
    7.8637109525302520e-03 -9.3014436477669582e-01
    7.8574073756033751e-03 -9.4146887169127191e-01
    8.0130147068898944e-03 -8.1240384046359593e-01
    8.0570829477513688e-03 -7.9211803438133943e-01
    9.8261890893315742e-03 -4.9811675413689882e-01
    1.3678352904417759e-02 -3.1517891481565019e-01
    1.0327819165828261e-02 -4.6008567910421683e-01
    8.5477913155740954e-03 -6.5653216429861272e-01
    7.8798251312173495e-03 -9.0784129900320365e-01
    7.8522611634746723e-03 -9.5291446468793539e-01
    7.8454152500864755e-03 -1.0243938285880985e+00
    7.8437065676639269e-03 -9.8802352005935368e-01
    7.8522611634746723e-03 -1.0494121319981062e+00
    7.8454152500864755e-03 -1.0243938285880985e+00
    7.8711802299517609e-03 -9.1893658347268148e-01
    7.9264172601227565e-03 -8.6450472587061755e-01
    7.9264172601227565e-03 -8.6450472587061755e-01
    7.9571490856148435e-03 -8.4340986844212751e-01
    8.1069107755093305e-03 -7.7210999614941267e-01
    8.2251160283724149e-03 -7.3282810879293991e-01
    8.0812589001412107e-03 -7.8208086886005146e-01
    7.9744440150298218e-03 -8.3299312783504276e-01
    7.8896572042722983e-03 -8.9685440629288105e-01
    7.9129374472714040e-03 -8.7518994898736735e-01
    8.0343462156151225e-03 -8.0222462966157027e-01
    8.0130147068898944e-03 -8.1240384046359593e-01
    8.1931331523805873e-03 -7.4256438721425266e-01
    8.1069107755093305e-03 -7.7210999614941267e-01
    8.1628036458368802e-03 -7.5235479386327875e-01
    8.0812589001412107e-03 -7.8208086886005146e-01
    8.3315359664242142e-03 -7.0391440921144333e-01
    8.4118351113381378e-03 -6.8485512969719842e-01
    8.2251160283724149e-03 -7.3282810879293991e-01
    8.0570829477513688e-03 -7.9211803438133943e-01
    7.8574073756033751e-03 -9.4146887169127191e-01
    7.8437065676639269e-03 -9.8802352005935368e-01
    8.0343462156151225e-03 -8.0222462966157027e-01
    7.9006896649978994e-03 -1.1287039482254528e+00
    7.8574073756033733e-03 -1.0621700090875885e+00
    7.8798251312173495e-03 -9.0784129900320365e-01
    7.8896572042722983e-03 -8.9685440629288105e-01
    7.8711802299517609e-03 -9.1893658347268148e-01
    7.9744440150298218e-03 -8.3299312783504276e-01
    8.0343462156151225e-03 -8.0222462966157027e-01
    9.5157928892135209e-03 -5.2623481158421759e-01
    1.4596559974299067e-02 -2.9149154406506872e-01
    9.7172076518043469e-03 -5.0751921892255236e-01
    8.7045334379903371e-03 -6.2845682683321802e-01
    8.2942582135927291e-03 -7.1350606801267569e-01
    7.8637109525302520e-03 -9.3014436477669582e-01
    7.8437065676639269e-03 -9.8802352005935368e-01
    7.8437065676639269e-03 -1.0121216546949476e+00
    7.8711802299517609e-03 -1.0882143751650175e+00
    7.8431372549019607e-03 -1. 7.8522611634746723e-03
    -9.5291446468793539e-01 7.9930569804904390e-03
    -8.2265890669686237e-01 7.9930569804904390e-03
    -8.2265890669686237e-01 7.8896572042722983e-03
    -8.9685440629288105e-01 7.9129374472714040e-03
    -8.7518994898736735e-01 8.0130147068898944e-03
    -8.1240384046359593e-01 7.8798251312173495e-03
    -9.0784129900320365e-01 8.0570829477513688e-03
    -7.9211803438133943e-01 7.9571490856148435e-03
    -8.4340986844212751e-01 7.9264172601227565e-03
    -8.6450472587061755e-01 8.0570829477513688e-03
    -7.9211803438133943e-01 8.2251160283724149e-03
    -7.3282810879293991e-01 8.1340781480228296e-03
    -7.6220232284635603e-01 8.0570829477513688e-03
    -7.9211803438133943e-01 8.2942582135927291e-03
    -7.1350606801267569e-01 8.2251160283724149e-03
    -7.3282810879293991e-01 8.2588053568231068e-03
    -7.2314298711701119e-01 8.0343462156151225e-03
    -8.0222462966157027e-01 8.0570829477513688e-03
    -7.9211803438133943e-01 8.2942582135927291e-03
    -7.1350606801267569e-01 7.9129374472714040e-03
    -8.7518994898736735e-01 8.2251160283724149e-03
    -7.3282810879293991e-01 7.8896572042722983e-03
    -8.9685440629288105e-01 7.8896572042723000e-03
    -1.1150081807965553e+00 7.8896572042723000e-03
    -1.1150081807965553e+00 7.8482655372831764e-03
    -9.6448564434082407e-01 7.8437065676639269e-03
    -1.0121216546949476e+00 7.8574073756033751e-03
    -9.4146887169127191e-01 7.9411476524243376e-03
    -8.5391256382996639e-01 7.9744440150298218e-03
    -8.3299312783504276e-01 9.5157928892135209e-03
    -5.2623481158421759e-01 1.4596559974299067e-02
    -2.9149154406506872e-01 1.0626215652437784e-02
    -4.4073189618695269e-01 9.0205375733954010e-03
    -5.8198769524737792e-01 8.7045334379903371e-03
    -6.2845682683321802e-01 7.9411476524243376e-03
    -8.5391256382996639e-01 7.9930569804904390e-03
    -8.2265890669686237e-01 7.8482655372831764e-03
    -1.0368220676663857e+00 7.8522611634746723e-03
    -1.0494121319981062e+00 7.8437065676639269e-03
    -9.8802352005935368e-01 7.8454152500864755e-03
    -1.0243938285880985e+00 7.8482655372831764e-03
    -9.6448564434082407e-01 7.8574073756033733e-03
    -1.0621700090875885e+00 7.9006896649978994e-03
    -1.1287039482254528e+00 7.8454152500864755e-03
    -1.0243938285880985e+00 7.8522611634746723e-03
    -9.5291446468793539e-01 7.9744440150298218e-03
    -8.3299312783504276e-01 7.9411476524243376e-03
    -8.5391256382996639e-01 8.1069107755093305e-03
    -7.7210999614941267e-01 7.9744440150298218e-03
    -8.3299312783504276e-01 8.1069107755093305e-03
    -7.7210999614941267e-01 8.5002930692438736e-03
    -6.6594163473202761e-01 8.4118351113381378e-03
    -6.8485512969719842e-01 8.5002930692438736e-03
    -6.6594163473202761e-01 8.6498043699170402e-03
    -6.3779280414328055e-01 8.4550038583703687e-03
    -6.7538163350597047e-01 8.3315359664242142e-03
    -7.0391440921144333e-01 8.3707046057866861e-03
    -6.9436507482941368e-01 8.1340781480228296e-03
    -7.6220232284635603e-01 7.9411476524243376e-03
    -8.5391256382996639e-01 7.8798251312173495e-03
    -9.0784129900320365e-01 7.9571490856148435e-03
    -8.4340986844212751e-01 7.8711802299517609e-03
    -9.1893658347268148e-01 7.9129374472714040e-03
    -1.1426091000668408e+00 7.9571490856148452e-03
    -1.1856631483896578e+00 7.8437065676639269e-03
    -9.8802352005935368e-01 7.8437065676639269e-03
    -9.8802352005935368e-01 7.9129374472714040e-03
    -8.7518994898736735e-01 7.9411476524243376e-03
    -8.5391256382996639e-01 7.9571490856148435e-03
    -8.4340986844212751e-01 9.9412390995816998e-03
    -4.8867777742522089e-01 1.7317963767532717e-02
    -2.3942606534028665e-01 1.2317779903237942e-02
    -3.5951592548908329e-01 9.0205375733954010e-03
    -5.8198769524737792e-01 8.4550038583703687e-03
    -6.7538163350597047e-01 7.9006896649978994e-03
    -8.8597191634901151e-01 7.9129374472714040e-03
    -8.7518994898736735e-01 7.8896572042722983e-03
    -8.9685440629288105e-01 7.9006896649978994e-03
    -8.8597191634901151e-01 7.8574073756033751e-03
    -9.4146887169127191e-01 7.8437065676639269e-03
    -1.0121216546949476e+00 7.9006896649978994e-03
    -8.8597191634901151e-01 7.8522611634746723e-03
    -9.5291446468793539e-01 7.8437065676639269e-03
    -1.0121216546949476e+00 7.8454152500864755e-03
    -1.0243938285880985e+00 7.8437065676639269e-03
    -1.0121216546949476e+00 7.8454152500864755e-03
    -9.7618706018395274e-01 8.1340781480228296e-03
    -7.6220232284635603e-01 8.0570829477513688e-03
    -7.9211803438133943e-01 7.9744440150298218e-03
    -8.3299312783504276e-01 8.0343462156151225e-03
    -8.0222462966157027e-01 8.1628036458368802e-03
    -7.5235479386327875e-01 8.3707046057866861e-03
    -6.9436507482941368e-01 8.7045334379903371e-03
    -6.2845682683321802e-01 8.4118351113381378e-03
    -6.8485512969719842e-01 8.2588053568231068e-03
    -7.2314298711701119e-01 8.2251160283724149e-03
    -7.3282810879293991e-01 8.1628036458368802e-03
    -7.5235479386327875e-01 8.1069107755093305e-03
    -7.7210999614941267e-01 7.8637109525302520e-03
    -9.3014436477669582e-01 7.8711802299517609e-03
    -9.1893658347268148e-01 7.9571490856148435e-03
    -8.4340986844212751e-01 7.8637109525302520e-03
    -1.0751019281185186e+00 7.9006896649978994e-03
    -1.1287039482254528e+00 7.8637109525302520e-03
    -9.3014436477669582e-01 7.8711802299517609e-03
    -9.1893658347268148e-01 7.8711802299517609e-03
    -9.1893658347268148e-01 7.9744440150298218e-03
    -8.3299312783504276e-01 7.9930569804904390e-03
    -8.2265890669686237e-01 8.2588053568231068e-03
    -7.2314298711701119e-01 1.0626215652437784e-02
    -4.4073189618695269e-01 1.3678352904417759e-02
    -3.1517891481565019e-01 1.1351048279453126e-02
    -4.0104757927103968e-01 9.0932885566862732e-03
    -5.7271284253105414e-01 8.7619015432995571e-03
    -6.1913918736689044e-01 7.9744440150298218e-03
    -8.3299312783504276e-01 7.8798251312173495e-03
    -9.0784129900320365e-01 7.8711802299517609e-03
    -9.1893658347268148e-01 7.8711802299517609e-03
    -9.1893658347268148e-01 7.8454152500864755e-03
    -9.7618706018395274e-01 7.8431372549019607e-03 -1.
    7.8454152500864755e-03 -9.7618706018395274e-01
    7.8482655372831764e-03 -9.6448564434082407e-01
    7.8454152500864755e-03 -9.7618706018395274e-01
    7.8522611634746723e-03 -9.5291446468793539e-01
    7.8522611634746723e-03 -9.5291446468793539e-01
    7.8431372549019607e-03 -1. 7.8637109525302520e-03
    -9.3014436477669582e-01 8.1340781480228296e-03
    -7.6220232284635603e-01 7.9264172601227565e-03
    -8.6450472587061755e-01 7.9744440150298218e-03
    -8.3299312783504276e-01 8.3707046057866861e-03
    -6.9436507482941368e-01 8.3315359664242142e-03
    -7.0391440921144333e-01 8.5477913155740954e-03
    -6.5653216429861272e-01 8.2942582135927291e-03
    -7.1350606801267569e-01 8.1340781480228296e-03
    -7.6220232284635603e-01 8.1069107755093305e-03
    -7.7210999614941267e-01 7.8798251312173495e-03
    -9.0784129900320365e-01 7.9129374472714040e-03
    -8.7518994898736735e-01 8.0130147068898944e-03
    -8.1240384046359593e-01 7.9264172601227565e-03
    -8.6450472587061755e-01 7.9264172601227565e-03
    -8.6450472587061755e-01 7.8896572042723000e-03
    -1.1150081807965553e+00 7.8896572042723000e-03
    -1.1150081807965553e+00 7.8637109525302520e-03
    -9.3014436477669582e-01 7.8482655372831764e-03
    -9.6448564434082407e-01 7.8711802299517609e-03
    -9.1893658347268148e-01 7.9930569804904390e-03
    -8.2265890669686237e-01 8.0343462156151225e-03
    -8.0222462966157027e-01 8.6498043699170402e-03
    -6.3779280414328055e-01 1.1797072790646713e-02
    -3.8056219755369364e-01 1.4596559974299067e-02
    -2.9149154406506872e-01 1.2046932636549261e-02
    -3.7011660509880256e-01 9.3340715251257981e-03
    -5.4486236794258425e-01 8.7045334379903371e-03
    -6.2845682683321802e-01 8.2251160283724149e-03
    -7.3282810879293991e-01 7.9571490856148435e-03
    -8.4340986844212751e-01 7.8711802299517609e-03
    -9.1893658347268148e-01 7.8454152500864755e-03
    -9.7618706018395274e-01 7.8574073756033733e-03
    -1.0621700090875885e+00 7.8522611634746723e-03
    -9.5291446468793539e-01 7.8637109525302520e-03
    -9.3014436477669582e-01 7.8574073756033751e-03
    -9.4146887169127191e-01 7.8798251312173478e-03
    -1.1015141094572201e+00 7.8798251312173478e-03
    -1.1015141094572201e+00 7.8454152500864755e-03
    -1.0243938285880985e+00 7.8482655372831764e-03
    -1.0368220676663857e+00 7.8437065676639269e-03
    -9.8802352005935368e-01 7.9129374472714040e-03
    -8.7518994898736735e-01 7.8522611634746723e-03
    -9.5291446468793539e-01 7.8482655372831764e-03
    -9.6448564434082407e-01 8.1931331523805873e-03
    -7.4256438721425266e-01 7.9129374472714040e-03
    -8.7518994898736735e-01 7.9571490856148435e-03
    -8.4340986844212751e-01 7.9264172601227565e-03
    -8.6450472587061755e-01 7.8437065676639269e-03
    -1.0121216546949476e+00 7.8454152500864755e-03
    -9.7618706018395274e-01 7.8798251312173495e-03
    -9.0784129900320365e-01 7.8637109525302520e-03
    -9.3014436477669582e-01 7.8431372549019607e-03 -1.
    7.9411476524243376e-03 -8.5391256382996639e-01
    7.8482655372831764e-03 -1.0368220676663857e+00
    7.9129374472714040e-03 -1.1426091000668408e+00
    7.8637109525302520e-03 -9.3014436477669582e-01
    7.8896572042722983e-03 -8.9685440629288105e-01
    7.8896572042722983e-03 -8.9685440629288105e-01
    7.9571490856148435e-03 -8.4340986844212751e-01
    7.9571490856148435e-03 -8.4340986844212751e-01
    8.1628036458368802e-03 -7.5235479386327875e-01
    8.5975940778140088e-03 -6.4715022892943397e-01
    1.2046932636549261e-02 -3.7011660509880256e-01
    1.7317963767532717e-02 -2.3942606534028665e-01
    1.4111789700098423e-02 -3.0348848933344197e-01
    1.0062830940678160e-02 -4.7919685895217384e-01
    8.6498043699170402e-03 -6.3779280414328055e-01
    8.3315359664242142e-03 -7.0391440921144333e-01
    8.1340781480228296e-03 -7.6220232284635603e-01
    7.8637109525302520e-03 -9.3014436477669582e-01
    7.8574073756033751e-03 -9.4146887169127191e-01
    7.8437065676639269e-03 -9.8802352005935368e-01
    7.8437065676639269e-03 -9.8802352005935368e-01
    7.8522611634746723e-03 -1.0494121319981062e+00
    7.8431372549019607e-03 -1. 7.8896572042723000e-03
    -1.1150081807965553e+00 8.0570829477513688e-03
    -1.2624381172952597e+00 7.8454152500864755e-03
    -1.0243938285880985e+00 7.8437065676639269e-03
    -1.0121216546949476e+00 7.8522611634746723e-03
    -9.5291446468793539e-01 7.8637109525302520e-03
    -9.3014436477669582e-01 7.8711802299517609e-03
    -9.1893658347268148e-01 7.8637109525302520e-03
    -9.3014436477669582e-01 7.8482655372831764e-03
    -9.6448564434082407e-01 7.8454152500864755e-03
    -9.7618706018395274e-01 7.8896572042722983e-03
    -8.9685440629288105e-01 7.8482655372831764e-03
    -9.6448564434082407e-01 7.8454152500864755e-03
    -9.7618706018395274e-01 7.8437065676639269e-03
    -1.0121216546949476e+00 7.8454152500864755e-03
    -9.7618706018395274e-01 7.8482655372831764e-03
    -1.0368220676663857e+00 7.8437065676639269e-03
    -9.8802352005935368e-01 7.9411476524243376e-03
    -8.5391256382996639e-01 7.8454152500864755e-03
    -9.7618706018395274e-01 7.8711802299517609e-03
    -9.1893658347268148e-01 7.9264172601227565e-03
    -8.6450472587061755e-01 7.9571490856148435e-03
    -8.4340986844212751e-01 8.1069107755093305e-03
    -7.7210999614941267e-01 8.0570829477513688e-03
    -7.9211803438133943e-01 8.0130147068898944e-03
    -8.1240384046359593e-01 8.2251160283724149e-03
    -7.3282810879293991e-01 8.9511971815888214e-03
    -5.9126431985615313e-01 1.2046932636549261e-02
    -3.7011660509880256e-01 1.7317963767532717e-02
    -2.3942606534028665e-01 1.4596559974299067e-02
    -2.9149154406506872e-01 1.1797072790646713e-02
    -3.8056219755369364e-01 8.8220388417103984e-03
    -6.0983672113630616e-01 8.2588053568231068e-03
    -7.2314298711701119e-01 8.2251160283724149e-03
    -7.3282810879293991e-01 8.2588053568231068e-03
    -7.2314298711701119e-01 7.9411476524243376e-03
    -8.5391256382996639e-01 7.9930569804904390e-03
    -8.2265890669686237e-01 7.8896572042722983e-03
    -8.9685440629288105e-01 7.9129374472714040e-03
    -8.7518994898736735e-01 7.9129374472714040e-03
    -8.7518994898736735e-01 7.9006896649978994e-03
    -8.8597191634901151e-01 7.9006896649978994e-03
    -1.1287039482254528e+00 7.9264172601227565e-03
    -1.1567316754606853e+00 7.9129374472714040e-03
    -1.1426091000668408e+00 7.8574073756033733e-03
    -1.0621700090875885e+00 7.8637109525302520e-03
    -1.0751019281185186e+00 7.8522611634746723e-03
    -1.0494121319981062e+00 7.8437065676639269e-03
    -9.8802352005935368e-01 7.8431372549019607e-03 -1.
    7.8437065676639269e-03 -1.0121216546949476e+00
    7.8574073756033751e-03 -9.4146887169127191e-01
    7.8522611634746723e-03 -9.5291446468793539e-01
    7.8454152500864755e-03 -9.7618706018395274e-01
    7.8522611634746723e-03 -1.0494121319981062e+00
    7.8482655372831764e-03 -1.0368220676663857e+00
    7.9411476524243376e-03 -8.5391256382996639e-01
    7.8437065676639269e-03 -1.0121216546949476e+00
    7.9264172601227565e-03 -8.6450472587061755e-01
    7.9006896649978994e-03 -1.1287039482254528e+00
    7.8896572042722983e-03 -8.9685440629288105e-01
    7.9744440150298218e-03 -8.3299312783504276e-01
    7.9571490856148435e-03 -8.4340986844212751e-01
    8.0570829477513688e-03 -7.9211803438133943e-01
    8.1931331523805873e-03 -7.4256438721425266e-01
    8.0812589001412107e-03 -7.8208086886005146e-01
    8.5975940778140088e-03 -6.4715022892943397e-01
    9.5157928892135209e-03 -5.2623481158421759e-01
    1.2934519881649001e-02 -3.3777797401776155e-01
    1.9512832899766665e-02 -2.0982172726556322e-01
    1.4596559974299067e-02 -2.9149154406506872e-01
    1.2934519881649001e-02 -3.3777797401776155e-01
    1.0191493364719100e-02 -4.6966821831386218e-01
    8.8850863737072495e-03 -6.0054619947587551e-01
    8.3315359664242142e-03 -7.0391440921144333e-01
    8.3315359664242142e-03 -7.0391440921144333e-01
    8.4550038583703687e-03 -6.7538163350597047e-01
    8.0130147068898944e-03 -8.1240384046359593e-01
    8.0812589001412107e-03 -7.8208086886005146e-01
    8.0570829477513688e-03 -7.9211803438133943e-01
    8.1069107755093305e-03 -7.7210999614941267e-01
    7.8798251312173495e-03 -9.0784129900320365e-01
    7.8482655372831764e-03 -9.6448564434082407e-01
    7.9006896649978994e-03 -1.1287039482254528e+00
    8.0343462156151225e-03 -1.2465336553202861e+00
    8.0570829477513688e-03 -1.2624381172952597e+00
    7.9129374472714040e-03 -1.1426091000668408e+00
    7.8437065676639269e-03 -9.8802352005935368e-01
    7.8522611634746723e-03 -1.0494121319981062e+00
    7.8437065676639269e-03 -9.8802352005935368e-01
    7.8454152500864755e-03 -9.7618706018395274e-01
    7.8637109525302520e-03 -1.0751019281185186e+00
    7.8454152500864755e-03 -1.0243938285880985e+00
    7.9264172601227565e-03 -8.6450472587061755e-01
    7.8482655372831764e-03 -9.6448564434082407e-01
    7.8482655372831764e-03 -1.0368220676663857e+00
    7.8431372549019607e-03 -1. 7.8574073756033733e-03
    -1.0621700090875885e+00 7.8798251312173495e-03
    -9.0784129900320365e-01 7.8482655372831764e-03
    -9.6448564434082407e-01 8.0130147068898944e-03
    -8.1240384046359593e-01 8.0812589001412107e-03
    -7.8208086886005146e-01 8.1340781480228296e-03
    -7.6220232284635603e-01 8.1069107755093305e-03
    -7.7210999614941267e-01 8.5975940778140088e-03
    -6.4715022892943397e-01 8.3315359664242142e-03
    -7.0391440921144333e-01 8.8850863737072495e-03
    -6.0054619947587551e-01 1.1151110375624534e-02
    -4.1111322589651894e-01 1.2934519881649001e-02
    -3.3777797401776155e-01 2.5572924984088644e-02
    -1.5713484026367722e-01 1.7317963767532717e-02
    -2.3942606534028665e-01 1.3288081611176719e-02
    -3.2659863237109044e-01 1.0626215652437784e-02
    -4.4073189618695269e-01 9.9412390995816998e-03
    -4.8867777742522089e-01 9.1696474696035136e-03
    -5.6343616981901101e-01 8.7045334379903371e-03
    -6.2845682683321802e-01 8.5975940778140088e-03
    -6.4715022892943397e-01 8.2942582135927291e-03
    -7.1350606801267569e-01 7.9930569804904390e-03
    -8.2265890669686237e-01 8.1931331523805873e-03
    -7.4256438721425266e-01 8.0130147068898944e-03
    -8.1240384046359593e-01 7.9264172601227565e-03
    -8.6450472587061755e-01 7.9571490856148435e-03
    -8.4340986844212751e-01 7.8798251312173495e-03
    -9.0784129900320365e-01 7.8454152500864755e-03
    -1.0243938285880985e+00 7.8454152500864755e-03
    -9.7618706018395274e-01 7.8454152500864755e-03
    -9.7618706018395274e-01 7.8454152500864755e-03
    -9.7618706018395274e-01 7.8431372549019607e-03 -1.
    7.8798251312173478e-03 -1.1015141094572201e+00
    7.8437065676639269e-03 -1.0121216546949476e+00
    7.8896572042723000e-03 -1.1150081807965553e+00
    7.8637109525302520e-03 -1.0751019281185186e+00
    7.8637109525302520e-03 -9.3014436477669582e-01
    7.9006896649978994e-03 -8.8597191634901151e-01
    7.8711802299517609e-03 -9.1893658347268148e-01
    7.8637109525302520e-03 -1.0751019281185186e+00
    7.8574073756033751e-03 -9.4146887169127191e-01
    7.8482655372831764e-03 -9.6448564434082407e-01
    7.8798251312173495e-03 -9.0784129900320365e-01
    8.1931331523805873e-03 -7.4256438721425266e-01
    8.3707046057866861e-03 -6.9436507482941368e-01
    8.2942582135927291e-03 -7.1350606801267569e-01
    8.3707046057866861e-03 -6.9436507482941368e-01
    8.3315359664242142e-03 -7.0391440921144333e-01
    8.8850863737072495e-03 -6.0054619947587551e-01
    9.2498298419117515e-03 -5.5415396251694204e-01
    1.1351048279453126e-02 -4.0104757927103968e-01
    1.4596559974299067e-02 -2.9149154406506872e-01
    2.5572924984088644e-02 -1.5713484026367722e-01
    1.9512832899766665e-02 -2.0982172726556322e-01
    1.3678352904417759e-02 -3.1517891481565019e-01
    1.1151110375624534e-02 -4.1111322589651894e-01
    1.0191493364719100e-02 -4.6966821831386218e-01
    9.7172076518043469e-03 -5.0751921892255236e-01
    9.3340715251257981e-03 -5.4486236794258425e-01
    9.1696474696035136e-03 -5.6343616981901101e-01
    8.7045334379903371e-03 -6.2845682683321802e-01
    8.5002930692438736e-03 -6.6594163473202761e-01
    8.2942582135927291e-03 -7.1350606801267569e-01
    8.1340781480228296e-03 -7.6220232284635603e-01
    8.1340781480228296e-03 -7.6220232284635603e-01
    8.0343462156151225e-03 -8.0222462966157027e-01
    8.0570829477513688e-03 -7.9211803438133943e-01
    8.1340781480228296e-03 -7.6220232284635603e-01
    7.8711802299517609e-03 -9.1893658347268148e-01
    7.8798251312173495e-03 -9.0784129900320365e-01
    8.0130147068898944e-03 -8.1240384046359593e-01
    7.8798251312173495e-03 -9.0784129900320365e-01
    7.8437065676639269e-03 -9.8802352005935368e-01
    7.8896572042723000e-03 -1.1150081807965553e+00
    7.9411476524243359e-03 -1.1710800875382392e+00
    7.8454152500864755e-03 -9.7618706018395274e-01
    7.8522611634746723e-03 -9.5291446468793539e-01
    7.8437065676639269e-03 -1.0121216546949476e+00
    7.8454152500864755e-03 -1.0243938285880985e+00
    7.8574073756033751e-03 -9.4146887169127191e-01
    7.8896572042722983e-03 -8.9685440629288105e-01
    7.9006896649978994e-03 -8.8597191634901151e-01
    8.2942582135927291e-03 -7.1350606801267569e-01
    8.2251160283724149e-03 -7.3282810879293991e-01
    8.2942582135927291e-03 -7.1350606801267569e-01
    8.3315359664242142e-03 -7.0391440921144333e-01
    8.2251160283724149e-03 -7.3282810879293991e-01
    8.3707046057866861e-03 -6.9436507482941368e-01
    8.8220388417103984e-03 -6.0983672113630616e-01
    9.4226311387273515e-03 -5.3555737827646122e-01
    1.2612488909460130e-02 -3.4874291623145781e-01
    1.4596559974299067e-02 -2.9149154406506872e-01
    2.9438350922846405e-02 -1.3566468949384036e-01
    2.5572924984088644e-02 -1.5713484026367722e-01
    1.5143174404524134e-02 -2.7914526311954124e-01
    1.4596559974299067e-02 -2.9149154406506872e-01
    1.2612488909460130e-02 -3.4874291623145781e-01
    1.0789894933909619e-02 -4.3094580368566732e-01
    1.0327819165828261e-02 -4.6008567910421683e-01
    9.8261890893315742e-03 -4.9811675413689882e-01
    9.1696474696035136e-03 -5.6343616981901101e-01
    9.6138698308130544e-03 -5.1689029060244884e-01
    9.2498298419117515e-03 -5.5415396251694204e-01
    8.7619015432995571e-03 -6.1913918736689044e-01
    8.4118351113381378e-03 -6.8485512969719842e-01
    8.4118351113381378e-03 -6.8485512969719842e-01
    8.2942582135927291e-03 -7.1350606801267569e-01
    8.1628036458368802e-03 -7.5235479386327875e-01
    8.1628036458368802e-03 -7.5235479386327875e-01
    7.8637109525302520e-03 -9.3014436477669582e-01
    7.8711802299517609e-03 -9.1893658347268148e-01
    7.8896572042722983e-03 -8.9685440629288105e-01
    7.9264172601227565e-03 -8.6450472587061755e-01
    7.8896572042722983e-03 -8.9685440629288105e-01
    7.8522611634746723e-03 -1.0494121319981062e+00
    7.8437065676639269e-03 -9.8802352005935368e-01
    7.8574073756033751e-03 -9.4146887169127191e-01
    7.9129374472714040e-03 -8.7518994898736735e-01
    7.9264172601227565e-03 -8.6450472587061755e-01
    7.9264172601227565e-03 -8.6450472587061755e-01
    7.9571490856148435e-03 -8.4340986844212751e-01
    7.9129374472714040e-03 -8.7518994898736735e-01
    8.2588053568231068e-03 -7.2314298711701119e-01
    8.0570829477513688e-03 -7.9211803438133943e-01
    8.1931331523805873e-03 -7.4256438721425266e-01
    8.1931331523805873e-03 -7.4256438721425266e-01
    8.5002930692438736e-03 -6.6594163473202761e-01
    8.8850863737072495e-03 -6.0054619947587551e-01
    9.3340715251257981e-03 -5.4486236794258425e-01
    1.1797072790646713e-02 -3.8056219755369364e-01
    1.2934519881649001e-02 -3.3777797401776155e-01
    1.6481836758420455e-02 -2.5318484177091660e-01
    3.5944379075342210e-02 -1.1043152607484655e-01
    1.9512832899766665e-02 -2.0982172726556322e-01
    1.8310254073894115e-02 -2.2501758018520479e-01
    1.5765426201885518e-02 -2.6639771383306554e-01
    1.4111789700098423e-02 -3.0348848933344197e-01
    1.1797072790646713e-02 -3.8056219755369364e-01
    1.0626215652437784e-02 -4.4073189618695269e-01
    1.1351048279453126e-02 -4.0104757927103968e-01
    1.0472475396722806e-02 -4.5044261646145078e-01
    9.9412390995816998e-03 -4.8867777742522089e-01
    1.0472475396722806e-02 -4.5044261646145078e-01
    9.6138698308130544e-03 -5.1689029060244884e-01
    8.5477913155740954e-03 -6.5653216429861272e-01
    8.3707046057866861e-03 -6.9436507482941368e-01
    8.5002930692438736e-03 -6.6594163473202761e-01
    8.3315359664242142e-03 -7.0391440921144333e-01
    8.2942582135927291e-03 -7.1350606801267569e-01
    8.1931331523805873e-03 -7.4256438721425266e-01
    7.9264172601227565e-03 -8.6450472587061755e-01
    7.9264172601227565e-03 -8.6450472587061755e-01
    7.8574073756033751e-03 -9.4146887169127191e-01
    7.8437065676639269e-03 -9.8802352005935368e-01
    7.8637109525302520e-03 -9.3014436477669582e-01
    8.0130147068898944e-03 -8.1240384046359593e-01
    7.8798251312173495e-03 -9.0784129900320365e-01
    7.9571490856148435e-03 -8.4340986844212751e-01
    8.0343462156151225e-03 -8.0222462966157027e-01
    8.5477913155740954e-03 -6.5653216429861272e-01
    8.4118351113381378e-03 -6.8485512969719842e-01
    8.2588053568231068e-03 -7.2314298711701119e-01
    8.1931331523805873e-03 -7.4256438721425266e-01
    8.1340781480228296e-03 -7.6220232284635603e-01
    8.6498043699170402e-03 -6.3779280414328055e-01
    8.9511971815888214e-03 -5.9126431985615313e-01
    9.0205375733954010e-03 -5.8198769524737792e-01
    9.3340715251257981e-03 -5.4486236794258425e-01
    1.0789894933909619e-02 -4.3094580368566732e-01
    1.2612488909460130e-02 -3.4874291623145781e-01
    1.5765426201885518e-02 -2.6639771383306554e-01
    1.7317963767532717e-02 -2.3942606534028665e-01
    2.9438350922846405e-02 -1.3566468949384036e-01
    2.5572924984088644e-02 -1.5713484026367722e-01
    2.2944044030811777e-02 -1.7622684421256032e-01
    1.8310254073894115e-02 -2.2501758018520479e-01
    1.7317963767532717e-02 -2.3942606534028665e-01
    1.4111789700098423e-02 -3.0348848933344197e-01
    1.1351048279453126e-02 -4.0104757927103968e-01
    1.1565790495108278e-02 -3.9086797998528577e-01
    1.2046932636549261e-02 -3.7011660509880256e-01
    1.0472475396722806e-02 -4.5044261646145078e-01
    1.0191493364719100e-02 -4.6966821831386218e-01
    1.0626215652437784e-02 -4.4073189618695269e-01
    9.9412390995816998e-03 -4.8867777742522089e-01
    9.7172076518043469e-03 -5.0751921892255236e-01
    8.8850863737072495e-03 -6.0054619947587551e-01
    8.6498043699170402e-03 -6.3779280414328055e-01
    8.6498043699170402e-03 -6.3779280414328055e-01
    8.8220388417103984e-03 -6.0983672113630616e-01
    8.1340781480228296e-03 -7.6220232284635603e-01
    7.9744440150298218e-03 -8.3299312783504276e-01
    7.9006896649978994e-03 -8.8597191634901151e-01
    7.8574073756033751e-03 -9.4146887169127191e-01
    7.8637109525302520e-03 -9.3014436477669582e-01
    7.9264172601227565e-03 -8.6450472587061755e-01
    8.0130147068898944e-03 -8.1240384046359593e-01
    7.9411476524243376e-03 -8.5391256382996639e-01
    8.2588053568231068e-03 -7.2314298711701119e-01
    8.5002930692438736e-03 -6.6594163473202761e-01
    8.1931331523805873e-03 -7.4256438721425266e-01
    8.2251160283724149e-03 -7.3282810879293991e-01
    8.4118351113381378e-03 -6.8485512969719842e-01
    8.5002930692438736e-03 -6.6594163473202761e-01
    9.0205375733954010e-03 -5.8198769524737792e-01
    9.3340715251257981e-03 -5.4486236794258425e-01
    9.2498298419117515e-03 -5.5415396251694204e-01
    1.1351048279453126e-02 -4.0104757927103968e-01
    1.2612488909460130e-02 -3.4874291623145781e-01
    1.4596559974299067e-02 -2.9149154406506872e-01
    1.5765426201885518e-02 -2.6639771383306554e-01
    2.1010301812759188e-02 -1.9364916731037082e-01
    3.5944379075342210e-02 -1.1043152607484655e-01
    2.5572924984088644e-02 -1.5713484026367722e-01
    2.9438350922846405e-02 -1.3566468949384036e-01
    2.2944044030811777e-02 -1.7622684421256032e-01
    1.9512832899766665e-02 -2.0982172726556322e-01
    1.6481836758420455e-02 -2.5318484177091660e-01
    1.2612488909460130e-02 -3.4874291623145781e-01
    1.2046932636549261e-02 -3.7011660509880256e-01
    1.2612488909460130e-02 -3.4874291623145781e-01
    1.2317779903237942e-02 -3.5951592548908329e-01
    1.1351048279453126e-02 -4.0104757927103968e-01
    1.1797072790646713e-02 -3.8056219755369364e-01
    1.0327819165828261e-02 -4.6008567910421683e-01
    1.0789894933909619e-02 -4.3094580368566732e-01
    1.0789894933909619e-02 -4.3094580368566732e-01
    1.0191493364719100e-02 -4.6966821831386218e-01
    9.1696474696035136e-03 -5.6343616981901101e-01
    8.7619015432995571e-03 -6.1913918736689044e-01
    8.8850863737072495e-03 -6.0054619947587551e-01
    8.1628036458368802e-03 -7.5235479386327875e-01
    8.0812589001412107e-03 -7.8208086886005146e-01
    8.0812589001412107e-03 -7.8208086886005146e-01
    8.5975940778140088e-03 -6.4715022892943397e-01
    8.2588053568231068e-03 -7.2314298711701119e-01
    8.1628036458368802e-03 -7.5235479386327875e-01
    8.1069107755093305e-03 -7.7210999614941267e-01
    8.5002930692438736e-03 -6.6594163473202761e-01
    8.6498043699170402e-03 -6.3779280414328055e-01
    8.7045334379903371e-03 -6.2845682683321802e-01
    9.2498298419117515e-03 -5.5415396251694204e-01
    9.1696474696035136e-03 -5.6343616981901101e-01
    8.8850863737072495e-03 -6.0054619947587551e-01
    9.5157928892135209e-03 -5.2623481158421759e-01
    1.0062830940678160e-02 -4.7919685895217384e-01
    1.2046932636549261e-02 -3.7011660509880256e-01
    1.5143174404524134e-02 -2.7914526311954124e-01
    1.6481836758420455e-02 -2.5318484177091660e-01
    1.9512832899766665e-02 -2.0982172726556322e-01
    2.5572924984088644e-02 -1.5713484026367722e-01
    3.5944379075342210e-02 -1.1043152607484655e-01
    5.0678754796397184e-02 -7.7849894416152296e-02
    3.5944379075342210e-02 -1.1043152607484655e-01
    2.9438350922846405e-02 -1.3566468949384036e-01
    3.5944379075342210e-02 -1.1043152607484655e-01
    2.1010301812759188e-02 -1.9364916731037082e-01
    2.1010301812759188e-02 -1.9364916731037082e-01
    2.1010301812759188e-02 -1.9364916731037082e-01
    1.5765426201885518e-02 -2.6639771383306554e-01
    1.3288081611176719e-02 -3.2659863237109044e-01
    1.3288081611176719e-02 -3.2659863237109044e-01
    1.2317779903237942e-02 -3.5951592548908329e-01
    1.2046932636549261e-02 -3.7011660509880256e-01
    1.2317779903237942e-02 -3.5951592548908329e-01
    1.1151110375624534e-02 -4.1111322589651894e-01
    1.1565790495108278e-02 -3.9086797998528577e-01
    1.0327819165828261e-02 -4.6008567910421683e-01
    1.0327819165828261e-02 -4.6008567910421683e-01
    9.0932885566862732e-03 -5.7271284253105414e-01
    8.4550038583703687e-03 -6.7538163350597047e-01
    9.1696474696035136e-03 -5.6343616981901101e-01
    9.0932885566862732e-03 -5.7271284253105414e-01
    8.2588053568231068e-03 -7.2314298711701119e-01
    8.9511971815888214e-03 -5.9126431985615313e-01
    8.2942582135927291e-03 -7.1350606801267569e-01
    8.8850863737072495e-03 -6.0054619947587551e-01
    8.2588053568231068e-03 -7.2314298711701119e-01
    8.8220388417103984e-03 -6.0983672113630616e-01
    9.1696474696035136e-03 -5.6343616981901101e-01
    9.5157928892135209e-03 -5.2623481158421759e-01
    9.9412390995816998e-03 -4.8867777742522089e-01
    9.6138698308130544e-03 -5.1689029060244884e-01
    9.3340715251257981e-03 -5.4486236794258425e-01
    1.0191493364719100e-02 -4.6966821831386218e-01
    1.2934519881649001e-02 -3.3777797401776155e-01
    1.4596559974299067e-02 -2.9149154406506872e-01
    1.9512832899766665e-02 -2.0982172726556322e-01
    1.9512832899766665e-02 -2.0982172726556322e-01
    2.1010301812759188e-02 -1.9364916731037082e-01
    2.9438350922846405e-02 -1.3566468949384036e-01
    5.0678754796397184e-02 -7.7849894416152296e-02
    5.0678754796397184e-02 -7.7849894416152296e-02
    3.5944379075342210e-02 -1.1043152607484655e-01
    3.5944379075342210e-02 -1.1043152607484655e-01
    2.9438350922846405e-02 -1.3566468949384036e-01
    5.0678754796397184e-02 -7.7849894416152296e-02
    2.9438350922846405e-02 -1.3566468949384036e-01
    2.5572924984088644e-02 -1.5713484026367722e-01
    2.2944044030811777e-02 -1.7622684421256032e-01
    2.1010301812759188e-02 -1.9364916731037082e-01
    1.6481836758420455e-02 -2.5318484177091660e-01
    1.5143174404524134e-02 -2.7914526311954124e-01
    1.4111789700098423e-02 -3.0348848933344197e-01
    1.4111789700098423e-02 -3.0348848933344197e-01
    1.4596559974299067e-02 -2.9149154406506872e-01
    1.5765426201885518e-02 -2.6639771383306554e-01
    1.2612488909460130e-02 -3.4874291623145781e-01
    1.2317779903237942e-02 -3.5951592548908329e-01
    1.2934519881649001e-02 -3.3777797401776155e-01
    1.2934519881649001e-02 -3.3777797401776155e-01
    1.1797072790646713e-02 -3.8056219755369364e-01
    8.7619015432995571e-03 -6.1913918736689044e-01
    8.7619015432995571e-03 -6.1913918736689044e-01
    9.9412390995816998e-03 -4.8867777742522089e-01
    9.1696474696035136e-03 -5.6343616981901101e-01
    9.0932885566862732e-03 -5.7271284253105414e-01
    9.9412390995816998e-03 -4.8867777742522089e-01
    1.0062830940678160e-02 -4.7919685895217384e-01
    1.0191493364719100e-02 -4.6966821831386218e-01
    1.0191493364719100e-02 -4.6966821831386218e-01
    1.0626215652437784e-02 -4.4073189618695269e-01
    1.0626215652437784e-02 -4.4073189618695269e-01
    1.2612488909460130e-02 -3.4874291623145781e-01
    1.3288081611176719e-02 -3.2659863237109044e-01
    1.8310254073894115e-02 -2.2501758018520479e-01
    1.9512832899766665e-02 -2.0982172726556322e-01
    2.2944044030811777e-02 -1.7622684421256032e-01
    2.9438350922846405e-02 -1.3566468949384036e-01
    2.9438350922846405e-02 -1.3566468949384036e-01
    2.9438350922846405e-02 -1.3566468949384036e-01
    3.5944379075342210e-02 -1.1043152607484655e-01</input_scale>
  <output_scale>
    1.0526315789473684e+00 0.</output_scale>
  <inv_output_scale>
    9.4999999999999996e-01 0.</inv_output_scale>
  <weights>
    <_>
      3.8857632242250972e-02 1.5298427237103876e-02
      1.1385412136398465e-02 4.0396092003683534e-03
      -1.0734374611785454e-02 2.6216424532576020e-03
      -3.0016936692203421e-03 -9.6493837303433198e-03
      -9.2923664100032525e-04 1.7341101162199134e-02
      2.4637314022512426e-03 9.3375487439791103e-03
      3.8100847064882867e-03 -6.9951949094187909e-03
      5.2198770354971872e-04 2.0012658006795217e-03
      7.4533148866412469e-04 9.3036281276965629e-03
      -1.9046670395624025e-02 1.9034262211131851e-02
      -8.8900268948802329e-03 -5.0992227280815522e-05
      -4.0453399689028603e-04 1.3326056142664907e-02
      1.8767929675189156e-03 -8.9599461896593309e-04
      1.7237749568418160e-02 -1.7925414291281430e-02
      5.3722409352412459e-03 2.9136553012469820e-03
      -1.2258886475960368e-02 -1.6610644042679545e-02
      1.9056763333859777e-02 5.5992918166533241e-03
      8.1377411183170736e-03 1.2119542175187696e-03
      1.3121915772516209e-02 6.0458667645321793e-03
      -1.2965550769107119e-02 -1.1615804361717717e-02
      5.3537727044103284e-02 6.3962712493900609e-03
      5.8179647961750722e-03 7.9874146559374658e-03
      -6.5531106419266160e-03 5.3653664262227957e-03
      -9.3582664626626396e-03 -5.6058738262939117e-03
      -3.5942744540420511e-03 6.9638189988337970e-03
      7.4669997206158615e-03 6.9884804686358376e-03
      8.8074218727349513e-03 -7.6489427789058588e-03
      -3.8947113903216235e-03 8.4494522521500123e-03
      -4.2606579495867141e-03 6.7827462801532757e-03
      -9.1260860369223647e-03 9.1667988199684164e-03
      -5.7879303074631063e-03 6.3299434236888793e-03
      4.3481119210236306e-03 7.1196429090312034e-03
      7.7077454678406250e-03 -5.9139220925168885e-03
      7.2655594228644149e-03 -8.1898223903546785e-03
      8.7491347755914613e-03 7.4429866335297750e-03
      -5.8093089768223105e-03 -6.5307320621792947e-03
      6.6926039036394637e-03 8.8788517812424250e-03
      7.2180874222089447e-03 5.3935252585109667e-03
      6.6535843670488997e-03 7.7805261560115833e-03
      -6.4660603336091412e-03 -6.7905597489928814e-03
      3.5134287249435819e-02 -6.3455120413388718e-03
      -3.5810975945037402e-03 6.2569384644700727e-03
      2.7751419080510402e-03 8.6430117095190329e-03
      -7.6581512123723907e-03 1.3782410158117561e-03
      -6.7409872185703566e-03 -7.4131600079031384e-03
      6.9528191880534624e-03 -2.1606553801415090e-03
      8.3313676629230213e-03 -5.5760017637964520e-03
      -4.1404420122116096e-03 6.8413624134135076e-03
      -5.1369575781620236e-03 1.4809013114671806e-03
      6.3440029798878710e-03 -6.6379309400665613e-03
      1.4282847628008305e-03 7.8381606477633398e-03
      5.2436209225427246e-03 -2.9701151706096026e-03
      7.0441883273031324e-03 -5.3299671395390718e-03
      -6.7279940348873865e-03 5.9414456434800644e-03
      8.3269955434074078e-03 7.3795877053786599e-03
      6.0979698880842780e-03 5.8664150443066077e-03
      -8.7369099945596232e-03 6.0440217184314048e-03
      3.8106806322321923e-03 8.2158666972233715e-03
      -5.1835685047278623e-03 6.2158549977404500e-03
      5.1423284000235124e-03 3.1261553716555612e-03
      -5.6608375907186883e-04 9.8280077323760939e-04
      5.8674145612284837e-04 -2.3404810589499834e-05
      5.1210201631407039e-04 -3.6144653169046793e-04
      1.0328318839991015e-03 -7.3189054801951596e-04
      3.4695438364743398e-04 -4.4022363701253322e-04
      1.6853111414949609e-04 5.4427262316709827e-04
      4.0928371062340927e-04 -5.0198130336476655e-04
      -5.3837339186742325e-04 5.4130025805742177e-04
      7.2451646606574787e-04 7.2928225531841261e-04
      -8.9596085780997226e-04 -1.0633593111381934e-03
      4.7189397411756106e-04 -4.9248951343733988e-04
      9.9480067882329781e-04 -2.5035076196965137e-04
      1.2025051274339787e-03 7.9488783461768411e-05
      -2.3343960668910767e-04 -8.4511454584403696e-04
      1.2165178234286608e-03 4.8608291870555205e-04
      8.1330602239910749e-04 1.0184280383176761e-03
      1.0704245511725459e-03 -7.2497964613305542e-04
      4.9328224232276271e-04 1.8830881034114335e-04
      9.4414942372186774e-04 6.1239348253836216e-04
      8.3569334300787762e-04 -7.7516820246783386e-04
      -1.8097824783719671e-02 2.0017083544499547e-03
      -6.7755019443139350e-05 -2.8858065722015482e-03
      -8.6639551749910558e-04 -4.0262025848386380e-03
      3.3945646567027890e-03 6.8906608119868244e-04
      3.7428519155886615e-03 -7.3249269990168322e-04
      -2.9068671641419921e-03 -1.3347598773105712e-03
      -1.8708103762668771e-03 1.4560552458467890e-04
      2.4299805419476985e-03 -4.5008412844609533e-03
      5.2499742626838462e-03 3.4967259172597755e-04
      -1.3601696465419032e-03 9.1304430790098705e-04
      -5.2202052632551528e-04 -5.3893179254315329e-03
      -5.1225941549145546e-03 8.4514545956847003e-04
      -2.9903770003429503e-03 5.3246586966463885e-03
      6.0569080653809389e-04 -2.6430833139762819e-04
      -3.5251783746257830e-03 -3.6144430732522985e-03
      8.5393882427301339e-04 -1.5608727099167578e-04
      1.5829222251384948e-04 -2.2197729423347706e-03
      -1.5005491484286508e-03 -4.1399478617459642e-03
      4.7629311183416723e-04 -1.4392868916307940e-04
      -1.3840476395041012e-03 1.3268970060212257e-03
      -1.7672060617752974e-02 6.3071570199692002e-04
      7.8301205071110895e-04 -2.2558779183914270e-03
      2.7769070125093620e-04 -5.3756036076312210e-03
      2.8837365931376102e-03 2.3155550307243241e-04
      3.8957170659108514e-03 -5.1831844791013458e-04
      -4.1474914948308062e-03 -1.7430388611590559e-03
      -1.6769353654048774e-03 -2.6059187431647172e-04
      4.0295578135096542e-03 -4.0425430640281534e-03
      4.5502307755450029e-03 -1.0479212906143801e-03
      -3.2837871614883455e-03 7.6125021955504915e-04
      -5.1243624783761719e-04 -3.9987334382834373e-03
      -3.6950229933519641e-03 9.5798968564563187e-04
      -4.9807766141771858e-03 4.6293442607447926e-03
      2.2072633357684457e-03 -1.0206974557042359e-03
      -3.0312416767608510e-03 -3.3396081592215561e-03
      2.0695517725898303e-04 -2.5475428960707719e-04
      1.6353295951931244e-03 -1.3207521822926128e-03
      -2.9080761247724250e-04 -4.2337741306798533e-03
      1.2551860450119307e-03 -1.5713541717263000e-04
      -3.2839708331611477e-04 -9.8755548962528659e-05
      8.7853918635998896e-02 3.1656338647576346e-02
      2.6677220207555020e-02 1.1323070232211765e-02
      -2.3918165623228647e-02 4.4828256663405376e-03
      -1.0245631824866253e-02 -2.1574365215191984e-02
      -1.6117392678483325e-03 3.9683426094611791e-02
      8.4941507177344645e-03 2.0044579134367357e-02
      9.1674061474610290e-03 -1.3231800230047863e-02
      -1.2398194190809146e-03 8.9825766174283107e-03
      -3.6086906277268470e-03 1.5687228973581394e-02
      -3.9769637192798850e-02 4.0872298876078350e-02
      -1.8800345141155046e-02 4.8676373999437051e-03
      3.4048492634099099e-03 2.5128392809144053e-02
      6.6776584982595928e-03 -2.1202001038518421e-03
      3.4923459105513747e-02 -3.5233889120999076e-02
      9.4664858656710368e-03 8.4972180584367198e-03
      -2.6945532521100168e-02 -3.3086138342567899e-02
      4.0319721004310027e-02 1.0291098032812963e-02
      1.5709315328802161e-02 4.7716887436355252e-03
      2.4983007725361300e-02 1.3246201153500087e-02
      -3.0234138492113441e-02 -2.3825789174037389e-02
      1.0620764178448350e-01 2.2115279416545078e-02
      1.7171033633319635e-02 1.3766814587729069e-02
      -1.8038479001906055e-02 9.8583441381168372e-03
      -1.2798361315919412e-02 -1.6142154180748821e-02
      -4.3157550009062110e-03 2.7920690248337567e-02
      1.4104799597360915e-02 1.7161527467567914e-02
      1.2499199046007414e-02 -1.5082314975067356e-02
      -3.2396371906681762e-03 1.1339035671234642e-02
      -6.7258096658026007e-03 1.5910319933749906e-02
      -2.8572433671476088e-02 2.8844846046570494e-02
      -1.5612922885687552e-02 6.7213105565035900e-03
      5.9741399545545065e-03 1.8861548396041657e-02
      1.1547123188878473e-02 -7.5226825299379158e-03
      2.3552392314141354e-02 -2.6403619431920027e-02
      1.4710405372635214e-02 1.2261456738686255e-02
      -2.0257906959295427e-02 -2.4270460346333296e-02
      2.8785752832606371e-02 1.4520279598405727e-02
      1.6007266989328556e-02 7.9933603253031539e-03
      1.8963518092611629e-02 1.5236794656061438e-02
      -1.9263831477867154e-02 -1.6998737255457537e-02
      4.5476059144499960e-02 1.3206681610538651e-02
      8.8070528524876353e-03 5.1948776104689155e-03
      -9.2178440168234500e-03 1.6130488921914355e-03
      -4.8098348990321914e-03 -9.4580306633211802e-03
      -2.4473590048456039e-04 1.5382849067406680e-02
      2.6183351367634294e-03 8.6533797224156560e-03
      3.4416040395848740e-03 -7.1798743027338104e-03
      -4.3332891773368307e-04 2.0342218959007730e-03
      -2.7240493153986685e-04 7.3471675224520737e-03
      -1.6330924982539328e-02 1.5676929455098975e-02
      -8.1520835975813846e-03 -6.1487805217760275e-04
      1.2839184040077929e-03 7.6211814097641682e-03
      1.9086069571036515e-03 -7.7448148558502449e-04
      1.4719697763673299e-02 -1.4695748901855977e-02
      2.8576556704378864e-03 3.8349145915321306e-03
      -9.7770901512685277e-03 -1.3070065429665623e-02
      1.4379538678698163e-02 4.6847779556144636e-03
      5.9933828714748899e-03 3.8467892201200305e-04
      9.9350136281133126e-03 4.6808817368847863e-03
      -1.1216801773602516e-02 -7.4477717432573070e-03
      3.7518254263464196e-02 2.2456424968531535e-02
      1.8070542723446735e-02 9.3763649912517516e-04
      -1.5789101010988099e-02 -4.2974307501566483e-03
      2.3393658953821866e-04 -1.4583337713549421e-02
      3.0480128166894059e-03 3.0087420290004920e-02
      -1.2601218439002473e-03 1.4321523243609866e-02
      -1.6847577988457168e-03 -5.7829557742719671e-03
      4.5997463651553565e-03 -3.6209680215105390e-03
      4.5028084069640610e-03 1.2520826274594695e-02
      -2.9276361973898522e-02 3.0643300218202538e-02
      -1.2829752846757830e-02 -4.1147122582391345e-03
      -5.2279942915642481e-03 1.7570615090789301e-02
      -1.6769343088652194e-03 4.6998284182885762e-03
      2.5608705887918290e-02 -2.6173920625946485e-02
      1.6943807895677246e-04 -2.4643354222530674e-03
      -1.9094528464400958e-02 -2.5190140999781441e-02
      2.9906161180679090e-02 2.3355051506127045e-03
      8.3895654843987415e-03 -5.6493117294473139e-03
      1.8328884114921590e-02 5.3057030577734520e-03
      -2.1598673786982114e-02 -1.6477771501305135e-02
      1.1538920605531043e-01 4.4519864164334275e-02
      3.8407442533536812e-02 5.4966236581744949e-03
      -3.3432571377882622e-02 -2.4585916448010407e-03
      -3.4389333763341660e-03 -3.1729746600978680e-02
      4.5305585095923688e-03 4.7738098982374279e-02
      2.1463236708752949e-03 2.8541996897536885e-02
      2.6040520207689156e-03 -1.2828438256508827e-02
      2.6071362245420997e-03 -1.3002555031334160e-03
      2.8454238431468103e-03 2.2606435455938483e-02
      -5.1384670699152708e-02 4.9092765554391370e-02
      -2.8082732783808538e-02 -2.4588957980579964e-03
      -2.3437758489132823e-03 3.8950105254850653e-02
      -3.1026190051434597e-04 3.8043625137762160e-03
      4.6557845428849269e-02 -4.7849192997016961e-02
      3.7795054195686449e-03 -1.1555213903199475e-04
      -3.9778967309712997e-02 -4.4751931370521116e-02
      5.1113046540692916e-02 5.7208123724436944e-03
      1.7023303520113331e-02 -4.5020816173137078e-03
      3.9500364289839551e-02 1.0799717220080112e-02
      -4.2865957910799009e-02 -3.5520068652221348e-02
      1.2335793431922668e-01 4.4346785930637379e-02
      3.7514840295123121e-02 7.2002844113621270e-03
      -3.4538741213175475e-02 -1.8611720243178584e-03
      -5.1352728930999826e-03 -2.9923554323408388e-02
      2.6703700031106793e-03 4.5491258132915623e-02
      3.7627234393605175e-03 2.8332580246631871e-02
      5.0718697224003684e-03 -1.6204788419965400e-02
      1.2933898421566643e-03 2.7230352046086429e-03
      1.2469896065167867e-03 2.5144063487813006e-02
      -4.9032877905547195e-02 5.0437992906258410e-02
      -2.7069384568897729e-02 -1.6691675998314868e-03
      -3.2839203532592266e-03 3.7622388781305811e-02
      2.4243060148948364e-03 2.6275752110813976e-03
      4.6168633645814972e-02 -4.7514307109315861e-02
      6.7328817622656295e-03 1.0843737759258796e-03
      -3.7490638136075630e-02 -4.3068876686633464e-02
      5.0401679839862802e-02 7.4674459235685407e-03
      2.0232624942882801e-02 -2.3535375115176071e-03
      3.7873699289399453e-02 1.0569122497275801e-02
      -3.9818021764783718e-02 -3.3967272567657088e-02
      9.3282779821487707e-02 3.7491378584954278e-02
      2.7761971854920301e-02 6.8218632201247987e-03
      -2.3413689219398789e-02 -1.8389800007316435e-03
      -3.2110221768024568e-03 -2.2199189639712843e-02
      2.6526055573454256e-03 4.7942322489369284e-02
      1.1479495465713337e-03 2.2369321565860804e-02
      2.1781220758441853e-03 -1.1664547953397967e-02
      1.4137673958602467e-03 1.4834179300924721e-03
      3.9070435470534281e-04 1.8696558678589700e-02
      -4.9279463695785938e-02 4.9068562339116592e-02
      -1.9559108836515817e-02 -2.1847869659839697e-03
      -8.6808514017055463e-04 2.9177273382067877e-02
      1.4488424884167490e-04 8.6238272781997462e-04
      4.2720273854509307e-02 -4.4375812226115890e-02
      4.3740369532416987e-03 6.8541179541017243e-04
      -3.2152262586632722e-02 -4.0825575878569213e-02
      5.0716183516360133e-02 6.2566045816548725e-03
      1.5028369346594364e-02 -1.7873353758382227e-03
      2.7989945308094719e-02 9.1099365927781797e-03
      -3.3808443311915765e-02 -2.6757421818188146e-02
      1.6965834767797169e-01 4.7577166658231550e-02
      3.7957951151146502e-02 1.5906401714981477e-02
      -3.3085652668358265e-02 5.5170744852419155e-03
      -1.3768714383478790e-02 -2.9733371787693409e-02
      -3.0646772865819513e-03 6.2582179504439603e-02
      1.1445192297981478e-02 2.9562249976270032e-02
      1.3997721431248760e-02 -2.4647758729298037e-02
      -1.0599707046641536e-03 9.2812806749294138e-03
      -4.1575530019312716e-03 2.7011627220946220e-02
      -6.8778345954010792e-02 6.7529606770568212e-02
      -3.0127423449332471e-02 5.6765261261289574e-03
      2.7397282607344387e-03 3.8074611751788195e-02
      9.6923963944477668e-03 -4.7042028462782014e-03
      5.3766507726617951e-02 -5.4548751883237052e-02
      1.4918742813912998e-02 1.0140955981122048e-02
      -4.1701160774319311e-02 -5.1073424686877540e-02
      7.3102654552113427e-02 1.7936335263934008e-02
      2.5795333271054509e-02 4.1917411992539672e-03
      3.6811232663352393e-02 2.0426524419330787e-02
      -4.4969053634942434e-02 -3.4168246983573680e-02
      3.6130408358329125e-01 8.6023229178256083e-02
      7.1646434006830823e-02 4.2851761933421863e-02
      -6.7404773249104225e-02 2.4706115487603878e-02
      -3.8410544084610587e-02 -6.1689604709512340e-02
      -1.4327524562367001e-02 9.7818338425507384e-02
      3.6487762771074725e-02 6.1550300764989407e-02
      3.9142065420512774e-02 -5.0995866846079201e-02
      -1.1739769679464317e-02 3.2827069390600420e-02
      -1.5567497151086950e-02 5.6338027299639007e-02
      -9.9192670711515454e-02 1.0020164632973405e-01
      -5.8618612913577943e-02 1.9985806703690837e-02
      1.5095773025456781e-02 7.3430954223170225e-02
      3.1794114632922352e-02 -1.7312572012942010e-02
      9.0774635260792449e-02 -9.2751240795740014e-02
      3.9917253890946573e-02 3.3655943315223848e-02
      -7.6033799887117226e-02 -8.7282898418240384e-02
      1.0272504345485836e-01 4.4478840810229972e-02
      5.4879187553527713e-02 1.8425606608541988e-02
      7.2072615559181541e-02 4.9697371780761307e-02
      -8.1134064088464575e-02 -6.9800941735553346e-02
      1.5693326592082571e-01 6.4741436929303925e-02
      4.8635656250811551e-02 1.3975572576797934e-02
      -4.2389034400607505e-02 4.5178509802807163e-03
      -1.2085502659694663e-02 -3.7449538822160747e-02
      -1.5905432094083470e-03 8.0758823562777554e-02
      1.0684361566938015e-02 3.4409207751941950e-02
      1.2212235435259521e-02 -2.3183332705291347e-02
      2.1979979535719681e-04 7.6983590864860641e-03
      -1.2287189854717521e-03 2.9127157428918870e-02
      -8.2103888448751092e-02 8.1570785673228244e-02
      -3.3237022062318808e-02 3.7208118678503338e-03
      1.6331634451395064e-04 5.0068082682990483e-02
      7.9067804301867321e-03 -2.6758107463418480e-03
      7.1551323775944795e-02 -7.3773207615500921e-02
      1.4530089241017246e-02 8.1943415787102264e-03
      -5.5613719864665054e-02 -6.9439775348305977e-02
      8.5250351193638177e-02 1.6449763911977607e-02
      2.5754910939272978e-02 1.6596469319055593e-03
      4.9537439197784680e-02 1.9888569988500412e-02
      -6.0237702868508526e-02 -4.4908988994946795e-02
      1.0405243719555207e-01 6.8819344155009052e-02
      5.2868579481467115e-02 6.3954595350681851e-03
      -4.4165542551601204e-02 -8.0436864096670828e-03
      -2.2303915480156211e-03 -3.9297732361322266e-02
      7.6601748870415961e-03 8.4613946438082621e-02
      -8.3327859791592967e-04 3.7227057116810486e-02
      1.5984035182848850e-03 -1.4933678988504661e-02
      5.1909474482391494e-03 -1.4216256010865604e-03
      7.5106659643272827e-03 2.9865753841413902e-02
      -8.4240187872079916e-02 8.7076955861897259e-02
      -3.3511505592532305e-02 -8.2246350773354151e-03
      -7.9688794728973063e-03 5.2939485552287162e-02
      -1.6979097298421922e-03 6.0628703213729089e-03
      7.4610524791842769e-02 -7.7357886942659007e-02
      3.0013307565831581e-03 -1.0497777619717264e-03
      -5.9274785064930641e-02 -7.1064288371089274e-02
      8.8525760275760715e-02 6.0854271347726523e-03
      2.1244651485458677e-02 -7.1378755747581197e-03
      5.3023102945200816e-02 9.7725963644679000e-03
      -6.4110562235374979e-02 -4.7377781367394817e-02
      -5.0659086191373994e-03 4.9112500134265462e-03
      2.4526490339545781e-04 -9.5007046484679308e-03
      2.1116771274506635e-03 -9.4352622122129883e-03
      1.0405399000079562e-02 -2.8880702863297552e-04
      4.9187596236490464e-03 7.0180971935504943e-03
