<?xml version="1.0"?>
<opencv_storage>
<shapeML type_id="opencv-ml-ann-mlp">
  <layer_sizes type_id="opencv-matrix">
    <rows>1</rows>
    <cols>3</cols>
    <dt>i</dt>
    <data>
      1600 40 1</data></layer_sizes>
  <activation_function>SIGMOID_SYM</activation_function>
  <f_param1>5.9999999999999998e-01</f_param1>
  <f_param2>1.</f_param2>
  <min_val>-9.4999999999999996e-01</min_val>
  <max_val>9.4999999999999996e-01</max_val>
  <min_val1>-9.7999999999999998e-01</min_val1>
  <max_val1>9.7999999999999998e-01</max_val1>
  <training_params>
    <train_method>BACKPROP</train_method>
    <dw_scale>1.0000000000000001e-01</dw_scale>
    <moment_scale>1.0000000000000001e-01</moment_scale>
    <term_criteria><epsilon>9.9999999747524271e-07</epsilon>
      <iterations>4000</iterations></term_criteria></training_params>
  <input_scale>
    5.0374397567852940e-02 -7.8326044998795738e-02
    3.5729847494553379e-02 -1.1111111111111112e-01
    5.0374397567852940e-02 -7.8326044998795738e-02 1. 0.
    5.0374397567852940e-02 -7.8326044998795738e-02
    5.0374397567852940e-02 -7.8326044998795738e-02
    3.5729847494553379e-02 -1.1111111111111112e-01
    2.9263758373215515e-02 -1.3650472655798701e-01
    2.2809727833261375e-02 -1.7733172553297716e-01
    2.0888126981119113e-02 -1.9487094073848929e-01
    1.9400138097001748e-02 -2.1115394209236660e-01
    1.7219342475818276e-02 -2.4096579867074966e-01
    2.0888126981119113e-02 -1.9487094073848929e-01
    1.8205238588207225e-02 -2.2645540682891915e-01
    1.8205238588207225e-02 -2.2645540682891915e-01
    1.8205238588207225e-02 -2.2645540682891915e-01
    1.6388654783484429e-02 -2.5482359571881275e-01
    1.4515884963461761e-02 -2.9341560154802282e-01
    1.3603946141586640e-02 -3.1728715848517625e-01
    1.1095171738445696e-02 -4.1403933560541262e-01
    9.4743065453099518e-03 -5.3033008588991071e-01
    1.0736863958847565e-02 -4.3405736614121559e-01
    1.2253012202610618e-02 -3.6198685440029538e-01
    1.4034405489687355e-02 -3.0550504633038938e-01
    1.4515884963461761e-02 -2.9341560154802282e-01
    1.6388654783484429e-02 -2.5482359571881275e-01
    2.2809727833261375e-02 -1.7733172553297716e-01
    1.7219342475818276e-02 -2.4096579867074966e-01
    1.9400138097001748e-02 -2.1115394209236660e-01
    2.9263758373215515e-02 -1.3650472655798701e-01
    2.9263758373215515e-02 -1.3650472655798701e-01
    2.2809727833261375e-02 -1.7733172553297716e-01
    2.0888126981119113e-02 -1.9487094073848929e-01
    3.5729847494553379e-02 -1.1111111111111112e-01
    5.0374397567852940e-02 -7.8326044998795738e-02
    3.5729847494553379e-02 -1.1111111111111112e-01
    3.5729847494553379e-02 -1.1111111111111112e-01
    5.0374397567852940e-02 -7.8326044998795738e-02 1. 0. 1. 0.
    5.0374397567852940e-02 -7.8326044998795738e-02
    3.5729847494553379e-02 -1.1111111111111112e-01
    5.0374397567852940e-02 -7.8326044998795738e-02 1. 0.
    3.5729847494553379e-02 -1.1111111111111112e-01
    3.5729847494553379e-02 -1.1111111111111112e-01
    3.5729847494553379e-02 -1.1111111111111112e-01
    2.5422232169981088e-02 -1.5811388300841897e-01
    1.7219342475818276e-02 -2.4096579867074966e-01
    1.7219342475818276e-02 -2.4096579867074966e-01
    1.6388654783484429e-02 -2.5482359571881275e-01
    1.3603946141586640e-02 -3.1728715848517625e-01
    1.4515884963461761e-02 -2.9341560154802282e-01
    1.2865318419080876e-02 -3.4006802040680245e-01
    1.1293542571132908e-02 -4.0388187304691775e-01
    9.6736981731151625e-03 -5.1140831195675895e-01
    1.0016061908453479e-02 -4.8278639869710216e-01
    9.7816259160534037e-03 -5.0190476880237433e-01
    8.7886856285809920e-03 -6.1494004626809073e-01
    9.5713851018001134e-03 -5.2088178069247570e-01
    8.7886856285809920e-03 -6.1494004626809073e-01
    8.7886856285809920e-03 -6.1494004626809073e-01
    8.8508851706236829e-03 -6.0553007081949839e-01
    9.5713851018001134e-03 -5.2088178069247570e-01
    1.1506630174723545e-02 -3.9361094683048226e-01
    1.2865318419080876e-02 -3.4006802040680245e-01
    1.3603946141586640e-02 -3.1728715848517625e-01
    1.3603946141586640e-02 -3.1728715848517625e-01
    1.3603946141586640e-02 -3.1728715848517625e-01
    1.8205238588207225e-02 -2.2645540682891915e-01
    1.8205238588207225e-02 -2.2645540682891915e-01
    2.0888126981119113e-02 -1.9487094073848929e-01
    1.9400138097001748e-02 -2.1115394209236660e-01
    1.9400138097001748e-02 -2.1115394209236660e-01
    2.5422232169981088e-02 -1.5811388300841897e-01
    2.5422232169981088e-02 -1.5811388300841897e-01
    3.5729847494553379e-02 -1.1111111111111112e-01 1. 0. 1. 0.
    5.0374397567852940e-02 -7.8326044998795738e-02
    5.0374397567852940e-02 -7.8326044998795738e-02
    3.5729847494553379e-02 -1.1111111111111112e-01
    3.5729847494553379e-02 -1.1111111111111112e-01
    3.5729847494553379e-02 -1.1111111111111112e-01
    2.9263758373215515e-02 -1.3650472655798701e-01
    2.2809727833261375e-02 -1.7733172553297716e-01
    2.0888126981119113e-02 -1.9487094073848929e-01
    1.8205238588207225e-02 -2.2645540682891915e-01
    1.4515884963461761e-02 -2.9341560154802282e-01
    1.3603946141586640e-02 -3.1728715848517625e-01
    1.3216389175528722e-02 -3.2879797461071458e-01
    1.2545587019715957e-02 -3.5112344158839170e-01
    1.0574540428939396e-02 -4.4393726130029115e-01
    9.1319353741684938e-03 -5.6796183424706481e-01
    8.9846074530633788e-03 -5.8673869403846823e-01
    8.6728494526985955e-03 -6.3380549201580894e-01
    8.7886856285809920e-03 -6.1494004626809073e-01
    8.7293870124368744e-03 -6.2436408326758874e-01
    8.1711467869087385e-03 -7.4960306956732903e-01
    9.2945120916310894e-03 -5.4916964736527596e-01
    9.2945120916310894e-03 -5.4916964736527596e-01
    9.1319353741684938e-03 -5.6796183424706481e-01
    8.9846074530633788e-03 -5.8673869403846823e-01
    8.9846074530633788e-03 -5.8673869403846823e-01
    8.3446945648686134e-03 -7.0064904974537079e-01
    8.4718714606604739e-03 -6.7180907527981382e-01
    1.0143565573700776e-02 -4.7316022340738378e-01
    1.2253012202610618e-02 -3.6198685440029538e-01
    1.2865318419080876e-02 -3.4006802040680245e-01
    1.3603946141586640e-02 -3.1728715848517625e-01
    1.5676951314620838e-02 -2.6813322217994789e-01
    1.4515884963461761e-02 -2.9341560154802282e-01
    1.4515884963461761e-02 -2.9341560154802282e-01
    1.5058830696019394e-02 -2.8097574347450821e-01
    1.6388654783484429e-02 -2.5482359571881275e-01
    1.6388654783484429e-02 -2.5482359571881275e-01
    2.5422232169981088e-02 -1.5811388300841897e-01
    3.5729847494553379e-02 -1.1111111111111112e-01
    2.9263758373215515e-02 -1.3650472655798701e-01
    3.5729847494553379e-02 -1.1111111111111112e-01 1. 0.
    5.0374397567852940e-02 -7.8326044998795738e-02
    2.5422232169981088e-02 -1.5811388300841897e-01
    2.5422232169981088e-02 -1.5811388300841897e-01
    1.9400138097001748e-02 -2.1115394209236660e-01
    1.8205238588207225e-02 -2.2645540682891915e-01
    1.4515884963461761e-02 -2.9341560154802282e-01
    1.3603946141586640e-02 -3.1728715848517625e-01
    1.2865318419080876e-02 -3.4006802040680245e-01
    1.2545587019715957e-02 -3.5112344158839170e-01
    1.2545587019715957e-02 -3.5112344158839170e-01
    1.0016061908453479e-02 -4.8278639869710216e-01
    9.4743065453099518e-03 -5.3033008588991071e-01
    8.7886856285809920e-03 -6.1494004626809073e-01
    8.3850227144969345e-03 -6.9099745113674427e-01
    8.2023205596889175e-03 -7.3970927486462867e-01
    8.1711467869087385e-03 -7.4960306956732903e-01
    8.1711467869087385e-03 -7.4960306956732903e-01
    8.6189439075195270e-03 -6.4326752090267691e-01
    8.9846074530633788e-03 -5.8673869403846823e-01
    8.7886856285809920e-03 -6.1494004626809073e-01
    8.7886856285809920e-03 -6.1494004626809073e-01
    8.6189439075195270e-03 -6.4326752090267691e-01
    8.6728494526985955e-03 -6.3380549201580894e-01
    8.5675511793507821e-03 -6.5275336576821963e-01
    9.1319353741684938e-03 -5.6796183424706481e-01
    8.9161374454713605e-03 -5.9613077493654554e-01
    8.5675511793507821e-03 -6.5275336576821963e-01
    1.1506630174723545e-02 -3.9361094683048226e-01
    1.1095171738445696e-02 -4.1403933560541262e-01
    1.1984155173528285e-02 -3.7267799624996495e-01
    1.3603946141586640e-02 -3.1728715848517625e-01
    1.5676951314620838e-02 -2.6813322217994789e-01
    1.5058830696019394e-02 -2.8097574347450821e-01
    1.5676951314620838e-02 -2.6813322217994789e-01
    1.5676951314620838e-02 -2.6813322217994789e-01
    1.9400138097001748e-02 -2.1115394209236660e-01
    2.9263758373215515e-02 -1.3650472655798701e-01
    2.9263758373215515e-02 -1.3650472655798701e-01
    2.9263758373215515e-02 -1.3650472655798701e-01 1. 0.
    2.9263758373215515e-02 -1.3650472655798701e-01
    2.9263758373215515e-02 -1.3650472655798701e-01
    1.8205238588207225e-02 -2.2645540682891915e-01
    1.7219342475818276e-02 -2.4096579867074966e-01
    1.4034405489687355e-02 -3.0550504633038938e-01
    1.2865318419080876e-02 -3.4006802040680245e-01
    1.1293542571132908e-02 -4.0388187304691775e-01
    1.1506630174723545e-02 -3.9361094683048226e-01
    1.1293542571132908e-02 -4.0388187304691775e-01
    9.2112030856836870e-03 -5.5856960175075776e-01
    8.8508851706236829e-03 -6.0553007081949839e-01
    8.5675511793507821e-03 -6.5275336576821963e-01
    8.3850227144969345e-03 -6.9099745113674427e-01
    8.2698527430663648e-03 -7.2008229982309568e-01
    8.2698527430663648e-03 -7.2008229982309568e-01
    7.9600096592242452e-03 -8.4162541153017323e-01
    8.3446945648686134e-03 -7.0064904974537079e-01
    8.3850227144969345e-03 -6.9099745113674427e-01
    8.6728494526985955e-03 -6.3380549201580894e-01
    8.6189439075195270e-03 -6.4326752090267691e-01
    8.7886856285809920e-03 -6.1494004626809073e-01
    8.5675511793507821e-03 -6.5275336576821963e-01
    8.7886856285809920e-03 -6.1494004626809073e-01
    8.6189439075195270e-03 -6.4326752090267691e-01
    8.5675511793507821e-03 -6.5275336576821963e-01
    8.5675511793507821e-03 -6.5275336576821963e-01
    9.1319353741684938e-03 -5.6796183424706481e-01
    9.4743065453099518e-03 -5.3033008588991071e-01
    9.3821191727056618e-03 -5.3975789264925567e-01
    1.0016061908453479e-02 -4.8278639869710216e-01
    1.1984155173528285e-02 -3.7267799624996495e-01
    1.4515884963461761e-02 -2.9341560154802282e-01
    1.5058830696019394e-02 -2.8097574347450821e-01
    1.5676951314620838e-02 -2.6813322217994789e-01
    1.7219342475818276e-02 -2.4096579867074966e-01
    1.9400138097001748e-02 -2.1115394209236660e-01
    2.0888126981119113e-02 -1.9487094073848929e-01
    2.9263758373215515e-02 -1.3650472655798701e-01
    2.5422232169981088e-02 -1.5811388300841897e-01 1. 0.
    2.2809727833261375e-02 -1.7733172553297716e-01
    1.8205238588207225e-02 -2.2645540682891915e-01
    1.5058830696019394e-02 -2.8097574347450821e-01
    1.3216389175528722e-02 -3.2879797461071458e-01
    1.2253012202610618e-02 -3.6198685440029538e-01
    1.1095171738445696e-02 -4.1403933560541262e-01
    1.0016061908453479e-02 -4.8278639869710216e-01
    9.2945120916310894e-03 -5.4916964736527596e-01
    9.3821191727056618e-03 -5.3975789264925567e-01
    8.9846074530633788e-03 -5.8673869403846823e-01
    8.5675511793507821e-03 -6.5275336576821963e-01
    8.3063279498512659e-03 -7.1034298473575608e-01
    9.1319353741684938e-03 -5.6796183424706481e-01
    8.6189439075195270e-03 -6.4326752090267691e-01
    8.0392156862745100e-03 -8.0000000000000004e-01
    7.8454711746842858e-03 -9.7590007294853309e-01
    7.8908091843261346e-03 -8.9565495711116461e-01
    7.9146737758906856e-03 -8.7375102873476129e-01
    8.2352037929966978e-03 -7.2987004348296947e-01
    8.4718714606604739e-03 -6.7180907527981382e-01
    8.2698527430663648e-03 -7.2008229982309568e-01
    8.6728494526985955e-03 -6.3380549201580894e-01
    8.5675511793507821e-03 -6.5275336576821963e-01
    8.4718714606604739e-03 -6.7180907527981382e-01
    8.5185610415163589e-03 -6.6226617853252190e-01
    8.2698527430663648e-03 -7.2008229982309568e-01
    8.7886856285809920e-03 -6.1494004626809073e-01
    9.3821191727056618e-03 -5.3975789264925567e-01
    9.5713851018001134e-03 -5.2088178069247570e-01
    9.2945120916310894e-03 -5.4916964736527596e-01
    9.2112030856836870e-03 -5.5856960175075776e-01
    1.1095171738445696e-02 -4.1403933560541262e-01
    1.1506630174723545e-02 -3.9361094683048226e-01
    1.4515884963461761e-02 -2.9341560154802282e-01
    1.4034405489687355e-02 -3.0550504633038938e-01
    1.6388654783484429e-02 -2.5482359571881275e-01
    2.0888126981119113e-02 -1.9487094073848929e-01
    2.5422232169981088e-02 -1.5811388300841897e-01
    2.5422232169981088e-02 -1.5811388300841897e-01 1. 0.
    1.8205238588207225e-02 -2.2645540682891915e-01
    1.5058830696019394e-02 -2.8097574347450821e-01
    1.2865318419080876e-02 -3.4006802040680245e-01
    1.2253012202610618e-02 -3.6198685440029538e-01
    1.1095171738445696e-02 -4.1403933560541262e-01
    1.0422099084564212e-02 -4.5374260648651510e-01
    9.3821191727056618e-03 -5.3975789264925567e-01
    8.7293870124368744e-03 -6.2436408326758874e-01
    8.5675511793507821e-03 -6.5275336576821963e-01
    8.5675511793507821e-03 -6.5275336576821963e-01
    8.4273879030585599e-03 -6.8138514386924698e-01
    8.2023205596889175e-03 -7.3970927486462867e-01
    8.3446945648686134e-03 -7.0064904974537079e-01
    7.8437205395682861e-03 -9.8787833990721308e-01
    7.8524854551865406e-03 -9.5235326648573349e-01
    7.8431372549019607e-03 -1. 7.8908091843261346e-03
    -8.9565495711116461e-01 7.8524854551865406e-03
    -9.5235326648573349e-01 7.8454711746842858e-03
    -9.7590007294853309e-01 7.8908091843261346e-03
    -8.9565495711116461e-01 7.9777495682680187e-03
    -8.3109665471865302e-01 8.2023205596889175e-03
    -7.3970927486462867e-01 8.4273879030585599e-03
    -6.8138514386924698e-01 8.7886856285809920e-03
    -6.1494004626809073e-01 8.1137222679062513e-03
    -7.6956676754440079e-01 8.2352037929966978e-03
    -7.2987004348296947e-01 8.3446945648686134e-03
    -7.0064904974537079e-01 8.8508851706236829e-03
    -6.0553007081949839e-01 8.7293870124368744e-03
    -6.2436408326758874e-01 9.2945120916310894e-03
    -5.4916964736527596e-01 8.9161374454713605e-03
    -5.9613077493654554e-01 8.7886856285809920e-03
    -6.1494004626809073e-01 1.0736863958847565e-02
    -4.3405736614121559e-01 1.1095171738445696e-02
    -4.1403933560541262e-01 1.2253012202610618e-02
    -3.6198685440029538e-01 1.3603946141586640e-02
    -3.1728715848517625e-01 1.9400138097001748e-02
    -2.1115394209236660e-01 1.9400138097001748e-02
    -2.1115394209236660e-01 2.9263758373215515e-02
    -1.3650472655798701e-01 2.5422232169981088e-02
    -1.5811388300841897e-01 1.5676951314620838e-02
    -2.6813322217994789e-01 1.2865318419080876e-02
    -3.4006802040680245e-01 1.1984155173528285e-02
    -3.7267799624996495e-01 1.0910037997452176e-02
    -4.2409446483998553e-01 1.0143565573700776e-02
    -4.7316022340738378e-01 8.9161374454713605e-03
    -5.9613077493654554e-01 8.6728494526985955e-03
    -6.3380549201580894e-01 8.4273879030585599e-03
    -6.8138514386924698e-01 8.3063279498512659e-03
    -7.1034298473575608e-01 8.0873779011537764e-03
    -7.7964295498317815e-01 7.8454711746842858e-03
    -1.0246950765959599e+00 7.8431372549019607e-03 -1.
    7.8577585293936776e-03 -1.0629534937475533e+00
    7.8437205395682861e-03 -1.0122703976826999e+00
    7.8437205395682861e-03 -9.8787833990721308e-01
    7.8807318969532324e-03 -9.0676470058236280e-01
    7.9021179115696498e-03 -8.8465173692938270e-01
    8.1416302059667319e-03 -7.5955452531275003e-01
    8.1416302059667319e-03 -7.5955452531275003e-01
    7.9600096592242452e-03 -8.4162541153017323e-01
    7.9777495682680187e-03 -8.3109665471865302e-01
    7.8642178469902971e-03 -9.2932037728458516e-01
    7.8807318969532324e-03 -9.0676470058236280e-01
    7.9021179115696498e-03 -8.8465173692938270e-01
    8.1137222679062513e-03 -7.6956676754440079e-01
    8.0873779011537764e-03 -7.7964295498317815e-01
    8.2023205596889175e-03 -7.3970927486462867e-01
    8.4273879030585599e-03 -6.8138514386924698e-01
    8.6728494526985955e-03 -6.3380549201580894e-01
    8.7886856285809920e-03 -6.1494004626809073e-01
    8.5675511793507821e-03 -6.5275336576821963e-01
    8.6189439075195270e-03 -6.4326752090267691e-01
    8.6189439075195270e-03 -6.4326752090267691e-01
    1.0422099084564212e-02 -4.5374260648651510e-01
    1.0736863958847565e-02 -4.3405736614121559e-01
    1.2545587019715957e-02 -3.5112344158839170e-01
    1.5058830696019394e-02 -2.8097574347450821e-01
    1.7219342475818276e-02 -2.4096579867074966e-01
    2.5422232169981088e-02 -1.5811388300841897e-01
    2.0888126981119113e-02 -1.9487094073848929e-01
    1.5058830696019394e-02 -2.8097574347450821e-01
    1.3216389175528722e-02 -3.2879797461071458e-01
    1.1736159455950702e-02 -3.8321423101595131e-01
    1.0910037997452176e-02 -4.2409446483998553e-01
    9.0564748108176597e-03 -5.7735026918962584e-01
    8.5675511793507821e-03 -6.5275336576821963e-01
    8.2352037929966978e-03 -7.2987004348296947e-01
    8.0873779011537764e-03 -7.7964295498317815e-01
    7.9968446993653915e-03 -8.2065180664828985e-01
    7.8437205395682861e-03 -9.8787833990721308e-01
    7.8524854551865406e-03 -1.0500305245868344e+00
    7.8642178469902971e-03 -9.2932037728458516e-01
    7.8718721618341297e-03 -9.1798509204315681e-01
    7.8908091843261346e-03 -8.9565495711116461e-01
    7.8577585293936776e-03 -9.4077493124783451e-01
    8.0173232084385336e-03 -8.1028739134066274e-01
    7.9777495682680187e-03 -8.3109665471865302e-01
    8.0625552920859239e-03 -7.8978628516683147e-01
    8.2023205596889175e-03 -7.3970927486462867e-01
    8.3063279498512659e-03 -7.1034298473575608e-01
    8.1137222679062513e-03 -7.6956676754440079e-01
    8.0873779011537764e-03 -7.7964295498317815e-01
    8.6189439075195270e-03 -6.4326752090267691e-01
    8.2698527430663648e-03 -7.2008229982309568e-01
    7.9021179115696498e-03 -8.8465173692938270e-01
    7.8908091843261346e-03 -8.9565495711116461e-01
    8.4718714606604739e-03 -6.7180907527981382e-01
    8.3850227144969345e-03 -6.9099745113674427e-01
    8.3850227144969345e-03 -6.9099745113674427e-01
    8.2352037929966978e-03 -7.2987004348296947e-01
    8.1711467869087385e-03 -7.4960306956732903e-01
    8.3063279498512659e-03 -7.1034298473575608e-01
    8.6728494526985955e-03 -6.3380549201580894e-01
    8.6728494526985955e-03 -6.3380549201580894e-01
    1.0143565573700776e-02 -4.7316022340738378e-01
    1.1095171738445696e-02 -4.1403933560541262e-01
    1.2865318419080876e-02 -3.4006802040680245e-01
    1.5676951314620838e-02 -2.6813322217994789e-01
    2.9263758373215515e-02 -1.3650472655798701e-01
    1.9400138097001748e-02 -2.1115394209236660e-01
    1.5058830696019394e-02 -2.8097574347450821e-01
    1.2545587019715957e-02 -3.5112344158839170e-01
    1.0910037997452176e-02 -4.2409446483998553e-01
    8.7886856285809920e-03 -6.1494004626809073e-01
    8.7293870124368744e-03 -6.2436408326758874e-01
    8.3446945648686134e-03 -7.0064904974537079e-01
    8.0873779011537764e-03 -7.7964295498317815e-01
    7.9146737758906856e-03 -8.7375102873476129e-01
    7.8908091843261346e-03 -8.9565495711116461e-01
    7.8483915065087392e-03 -1.0372797920949812e+00
    7.9146737758906838e-03 -1.1444907841173630e+00
    7.8431372549019607e-03 -1. 7.8454711746842858e-03
    -9.7590007294853309e-01 7.8718721618341297e-03
    -9.1798509204315681e-01 7.9021179115696498e-03
    -8.8465173692938270e-01 7.8718721618341297e-03
    -9.1798509204315681e-01 7.8807318969532324e-03
    -9.0676470058236280e-01 8.0173232084385336e-03
    -8.1028739134066274e-01 8.2352037929966978e-03
    -7.2987004348296947e-01 8.2698527430663648e-03
    -7.2008229982309568e-01 8.0392156862745100e-03
    -8.0000000000000004e-01 8.0392156862745100e-03
    -8.0000000000000004e-01 8.3063279498512659e-03
    -7.1034298473575608e-01 8.1711467869087385e-03
    -7.4960306956732903e-01 7.8483915065087392e-03
    -9.6406004206474716e-01 7.8642178469902971e-03
    -9.2932037728458516e-01 7.8437205395682861e-03
    -9.8787833990721308e-01 8.1137222679062513e-03
    -7.6956676754440079e-01 7.9435991305026200e-03
    -8.5224162622679023e-01 8.0392156862745100e-03
    -8.0000000000000004e-01 8.2698527430663648e-03
    -7.2008229982309568e-01 8.2352037929966978e-03
    -7.2987004348296947e-01 8.2698527430663648e-03
    -7.2008229982309568e-01 8.5185610415163589e-03
    -6.6226617853252190e-01 8.8508851706236829e-03
    -6.0553007081949839e-01 1.0422099084564212e-02
    -4.5374260648651510e-01 1.1293542571132908e-02
    -4.0388187304691775e-01 1.5676951314620838e-02
    -2.6813322217994789e-01 2.0888126981119113e-02
    -1.9487094073848929e-01 1.5676951314620838e-02
    -2.6813322217994789e-01 1.2545587019715957e-02
    -3.5112344158839170e-01 1.0910037997452176e-02
    -4.2409446483998553e-01 1.0422099084564212e-02
    -4.5374260648651510e-01 8.3063279498512659e-03
    -7.1034298473575608e-01 8.5185610415163589e-03
    -6.6226617853252190e-01 8.3063279498512659e-03
    -7.1034298473575608e-01 7.9600096592242452e-03
    -8.4162541153017323e-01 7.9284943457188454e-03
    -8.6294892726269146e-01 7.8483915065087392e-03
    -1.0372797920949812e+00 7.9600096592242452e-03
    -1.1881770515720094e+00 7.8437205395682861e-03
    -9.8787833990721308e-01 7.8483915065087392e-03
    -9.6406004206474716e-01 7.8483915065087392e-03
    -1.0372797920949812e+00 7.8431372549019607e-03 -1.
    7.8454711746842858e-03 -9.7590007294853309e-01
    7.8524854551865406e-03 -9.5235326648573349e-01
    7.8718721618341297e-03 -9.1798509204315681e-01
    7.9777495682680187e-03 -8.3109665471865302e-01
    7.9600096592242452e-03 -8.4162541153017323e-01
    8.0173232084385336e-03 -8.1028739134066274e-01
    7.9284943457188454e-03 -8.6294892726269146e-01
    7.9435991305026200e-03 -8.5224162622679023e-01
    8.0392156862745100e-03 -8.0000000000000004e-01
    8.1416302059667319e-03 -7.5955452531275003e-01
    8.0873779011537764e-03 -7.7964295498317815e-01
    8.0392156862745100e-03 -8.0000000000000004e-01
    7.9021179115696498e-03 -1.1303883305208779e+00
    7.8642178469902971e-03 -1.0760551736979407e+00
    7.8908091843261346e-03 -1.1165013848919998e+00
    7.9146737758906856e-03 -8.7375102873476129e-01
    8.1711467869087385e-03 -7.4960306956732903e-01
    8.2352037929966978e-03 -7.2987004348296947e-01
    8.3063279498512659e-03 -7.1034298473575608e-01
    8.3063279498512659e-03 -7.1034298473575608e-01
    8.7293870124368744e-03 -6.2436408326758874e-01
    9.7816259160534037e-03 -5.0190476880237433e-01
    1.0910037997452176e-02 -4.2409446483998553e-01
    1.3216389175528722e-02 -3.2879797461071458e-01
    1.5676951314620838e-02 -2.6813322217994789e-01
    1.6388654783484429e-02 -2.5482359571881275e-01
    1.1984155173528285e-02 -3.7267799624996495e-01
    9.8955904512796899e-03 -4.9236596391733095e-01
    8.3446945648686134e-03 -7.0064904974537079e-01
    7.9968446993653915e-03 -8.2065180664828985e-01
    8.2023205596889175e-03 -7.3970927486462867e-01
    8.1711467869087385e-03 -7.4960306956732903e-01
    7.8718721618341297e-03 -9.1798509204315681e-01
    7.8437205395682861e-03 -9.8787833990721308e-01
    7.8577585293936776e-03 -1.0629534937475533e+00
    7.9021179115696498e-03 -1.1303883305208779e+00
    7.8431372549019607e-03 -1. 7.8524854551865406e-03
    -9.5235326648573349e-01 7.8807318969532324e-03
    -9.0676470058236280e-01 7.8577585293936776e-03
    -9.4077493124783451e-01 7.8437205395682861e-03
    -9.8787833990721308e-01 7.8431372549019607e-03 -1.
    7.8807318969532324e-03 -9.0676470058236280e-01
    7.9435991305026200e-03 -8.5224162622679023e-01
    7.9435991305026200e-03 -8.5224162622679023e-01
    8.0392156862745100e-03 -8.0000000000000004e-01
    7.9284943457188454e-03 -8.6294892726269146e-01
    8.2023205596889175e-03 -7.3970927486462867e-01
    8.0625552920859239e-03 -7.8978628516683147e-01
    8.1416302059667319e-03 -7.5955452531275003e-01
    7.9777495682680187e-03 -8.3109665471865302e-01
    7.9021179115696498e-03 -8.8465173692938270e-01
    7.8437205395682861e-03 -9.8787833990721308e-01
    7.9021179115696498e-03 -1.1303883305208779e+00
    7.8577585293936776e-03 -1.0629534937475533e+00
    7.8807318969532341e-03 -1.1028219331407116e+00
    7.9968446993653915e-03 -8.2065180664828985e-01
    8.0173232084385336e-03 -8.1028739134066274e-01
    7.9777495682680187e-03 -8.3109665471865302e-01
    8.0625552920859239e-03 -7.8978628516683147e-01
    8.3063279498512659e-03 -7.1034298473575608e-01
    8.8508851706236829e-03 -6.0553007081949839e-01
    1.0736863958847565e-02 -4.3405736614121559e-01
    1.4515884963461761e-02 -2.9341560154802282e-01
    1.5676951314620838e-02 -2.6813322217994789e-01
    1.2865318419080876e-02 -3.4006802040680245e-01
    1.0910037997452176e-02 -4.2409446483998553e-01
    9.3821191727056618e-03 -5.3975789264925567e-01
    8.3063279498512659e-03 -7.1034298473575608e-01
    7.9600096592242452e-03 -8.4162541153017323e-01
    7.8908091843261346e-03 -8.9565495711116461e-01
    7.8807318969532324e-03 -9.0676470058236280e-01
    7.9284943457188454e-03 -8.6294892726269146e-01
    7.8642178469902971e-03 -1.0760551736979407e+00
    7.9284943457188454e-03 -1.1588171308956141e+00
    7.8431372549019607e-03 -1. 7.8577585293936776e-03
    -1.0629534937475533e+00 7.8577585293936776e-03
    -9.4077493124783451e-01 7.9968446993653915e-03
    -8.2065180664828985e-01 7.8524854551865406e-03
    -9.5235326648573349e-01 7.8483915065087392e-03
    -1.0372797920949812e+00 7.8524854551865406e-03
    -9.5235326648573349e-01 7.8807318969532324e-03
    -9.0676470058236280e-01 7.9021179115696498e-03
    -8.8465173692938270e-01 8.0873779011537764e-03
    -7.7964295498317815e-01 7.9968446993653915e-03
    -8.2065180664828985e-01 7.9021179115696498e-03
    -8.8465173692938270e-01 7.9777495682680187e-03
    -8.3109665471865302e-01 7.9600096592242452e-03
    -8.4162541153017323e-01 8.1137222679062513e-03
    -7.6956676754440079e-01 7.9146737758906856e-03
    -8.7375102873476129e-01 7.8431372549019607e-03 -1.
    7.8577585293936776e-03 -9.4077493124783451e-01
    7.9284943457188454e-03 -1.1588171308956141e+00
    7.8483915065087392e-03 -1.0372797920949812e+00
    7.8642178469902971e-03 -1.0760551736979407e+00
    7.9146737758906856e-03 -8.7375102873476129e-01
    7.9021179115696498e-03 -8.8465173692938270e-01
    7.8807318969532324e-03 -9.0676470058236280e-01
    7.9435991305026200e-03 -8.5224162622679023e-01
    8.2023205596889175e-03 -7.3970927486462867e-01
    8.3063279498512659e-03 -7.1034298473575608e-01
    1.0016061908453479e-02 -4.8278639869710216e-01
    1.2253012202610618e-02 -3.6198685440029538e-01
    1.6388654783484429e-02 -2.5482359571881275e-01
    1.1506630174723545e-02 -3.9361094683048226e-01
    9.7816259160534037e-03 -5.0190476880237433e-01
    8.2023205596889175e-03 -7.3970927486462867e-01
    8.0392156862745100e-03 -8.0000000000000004e-01
    7.9021179115696498e-03 -8.8465173692938270e-01
    7.8437205395682861e-03 -9.8787833990721308e-01
    7.8718721618341297e-03 -9.1798509204315681e-01
    7.8807318969532341e-03 -1.1028219331407116e+00
    7.9021179115696498e-03 -1.1303883305208779e+00
    7.8483915065087392e-03 -1.0372797920949812e+00
    7.8807318969532341e-03 -1.1028219331407116e+00
    7.8454711746842858e-03 -1.0246950765959599e+00
    7.8483915065087392e-03 -1.0372797920949812e+00
    7.9284943457188454e-03 -8.6294892726269146e-01
    7.8807318969532324e-03 -9.0676470058236280e-01
    7.8908091843261346e-03 -8.9565495711116461e-01
    7.9021179115696498e-03 -8.8465173692938270e-01
    7.8718721618341297e-03 -9.1798509204315681e-01
    7.9284943457188454e-03 -8.6294892726269146e-01
    7.9777495682680187e-03 -8.3109665471865302e-01
    8.1137222679062513e-03 -7.6956676754440079e-01
    8.0625552920859239e-03 -7.8978628516683147e-01
    8.1416302059667319e-03 -7.5955452531275003e-01
    7.9777495682680187e-03 -8.3109665471865302e-01
    8.0392156862745100e-03 -8.0000000000000004e-01
    7.9600096592242452e-03 -8.4162541153017323e-01
    7.8454711746842858e-03 -9.7590007294853309e-01
    7.8718721618341297e-03 -9.1798509204315681e-01
    7.8577585293936776e-03 -1.0629534937475533e+00
    8.1137222679062513e-03 -1.2994324107716932e+00
    7.9146737758906838e-03 -1.1444907841173630e+00
    7.8524854551865406e-03 -1.0500305245868344e+00
    7.9777495682680187e-03 -8.3109665471865302e-01
    7.9968446993653915e-03 -8.2065180664828985e-01
    7.9284943457188454e-03 -8.6294892726269146e-01
    8.0392156862745100e-03 -8.0000000000000004e-01
    8.3850227144969345e-03 -6.9099745113674427e-01
    9.3821191727056618e-03 -5.3975789264925567e-01
    1.0143565573700776e-02 -4.7316022340738378e-01
    1.2865318419080876e-02 -3.4006802040680245e-01
    1.0278690384784706e-02 -4.6348119143587135e-01
    9.1319353741684938e-03 -5.6796183424706481e-01
    8.2352037929966978e-03 -7.2987004348296947e-01
    7.9777495682680187e-03 -8.3109665471865302e-01
    7.8807318969532324e-03 -9.0676470058236280e-01
    7.8524854551865406e-03 -9.5235326648573349e-01
    7.8454711746842858e-03 -9.7590007294853309e-01
    7.8807318969532341e-03 -1.1028219331407116e+00
    7.8908091843261346e-03 -1.1165013848919998e+00
    7.9435991305026217e-03 -1.1733761520513781e+00
    7.8718721618341297e-03 -1.0893423092245460e+00
    7.8524854551865406e-03 -1.0500305245868344e+00
    7.8524854551865406e-03 -9.5235326648573349e-01
    7.8718721618341297e-03 -9.1798509204315681e-01
    7.9146737758906856e-03 -8.7375102873476129e-01
    8.0173232084385336e-03 -8.1028739134066274e-01
    7.9600096592242452e-03 -8.4162541153017323e-01
    8.1137222679062513e-03 -7.6956676754440079e-01
    7.9600096592242452e-03 -8.4162541153017323e-01
    7.9968446993653915e-03 -8.2065180664828985e-01
    8.2352037929966978e-03 -7.2987004348296947e-01
    8.1711467869087385e-03 -7.4960306956732903e-01
    8.0625552920859239e-03 -7.8978628516683147e-01
    7.9777495682680187e-03 -8.3109665471865302e-01
    8.0392156862745100e-03 -8.0000000000000004e-01
    7.8718721618341297e-03 -9.1798509204315681e-01
    7.8718721618341297e-03 -9.1798509204315681e-01
    7.8718721618341297e-03 -9.1798509204315681e-01
    7.8524854551865406e-03 -1.0500305245868344e+00
    7.8577585293936776e-03 -1.0629534937475533e+00
    7.9600096592242452e-03 -1.1881770515720094e+00
    7.8642178469902971e-03 -1.0760551736979407e+00
    7.8437205395682861e-03 -1.0122703976826999e+00
    7.8908091843261346e-03 -8.9565495711116461e-01
    7.8483915065087392e-03 -9.6406004206474716e-01
    7.9146737758906856e-03 -8.7375102873476129e-01
    8.1711467869087385e-03 -7.4960306956732903e-01
    8.3446945648686134e-03 -7.0064904974537079e-01
    9.5713851018001134e-03 -5.2088178069247570e-01
    1.1984155173528285e-02 -3.7267799624996495e-01
    1.0910037997452176e-02 -4.2409446483998553e-01
    9.0564748108176597e-03 -5.7735026918962584e-01
    8.0173232084385336e-03 -8.1028739134066274e-01
    7.8908091843261346e-03 -8.9565495711116461e-01
    7.8642178469902971e-03 -9.2932037728458516e-01
    7.8454711746842858e-03 -1.0246950765959599e+00
    7.8437205395682861e-03 -9.8787833990721308e-01
    7.9284943457188454e-03 -1.1588171308956141e+00
    8.0173232084385353e-03 -1.2341300268111637e+00
    7.9284943457188454e-03 -1.1588171308956141e+00
    7.8718721618341297e-03 -1.0893423092245460e+00
    7.8642178469902971e-03 -1.0760551736979407e+00
    7.8807318969532324e-03 -9.0676470058236280e-01
    8.0392156862745100e-03 -8.0000000000000004e-01
    8.0392156862745100e-03 -8.0000000000000004e-01
    8.1711467869087385e-03 -7.4960306956732903e-01
    8.1137222679062513e-03 -7.6956676754440079e-01
    8.2023205596889175e-03 -7.3970927486462867e-01
    8.1137222679062513e-03 -7.6956676754440079e-01
    8.0625552920859239e-03 -7.8978628516683147e-01
    8.2352037929966978e-03 -7.2987004348296947e-01
    8.3063279498512659e-03 -7.1034298473575608e-01
    8.1137222679062513e-03 -7.6956676754440079e-01
    8.0873779011537764e-03 -7.7964295498317815e-01
    8.1416302059667319e-03 -7.5955452531275003e-01
    7.9435991305026200e-03 -8.5224162622679023e-01
    7.8524854551865406e-03 -9.5235326648573349e-01
    7.8718721618341297e-03 -9.1798509204315681e-01
    7.9435991305026200e-03 -8.5224162622679023e-01
    7.8454711746842858e-03 -1.0246950765959599e+00
    7.8437205395682861e-03 -1.0122703976826999e+00
    7.8718721618341297e-03 -1.0893423092245460e+00
    7.8577585293936776e-03 -1.0629534937475533e+00
    7.8454711746842858e-03 -9.7590007294853309e-01
    7.8642178469902971e-03 -9.2932037728458516e-01
    7.9777495682680187e-03 -8.3109665471865302e-01
    7.9968446993653915e-03 -8.2065180664828985e-01
    8.2698527430663648e-03 -7.2008229982309568e-01
    9.0564748108176597e-03 -5.7735026918962584e-01
    1.0910037997452176e-02 -4.2409446483998553e-01
    1.0910037997452176e-02 -4.2409446483998553e-01
    8.5185610415163589e-03 -6.6226617853252190e-01
    7.9435991305026200e-03 -8.5224162622679023e-01
    7.8908091843261346e-03 -8.9565495711116461e-01
    7.8454711746842858e-03 -9.7590007294853309e-01
    7.8454711746842858e-03 -1.0246950765959599e+00
    7.8483915065087392e-03 -1.0372797920949812e+00
    7.9435991305026217e-03 -1.1733761520513781e+00
    8.0625552920859239e-03 -1.2661653143150791e+00
    7.8718721618341297e-03 -1.0893423092245460e+00
    7.9284943457188454e-03 -1.1588171308956141e+00
    7.8642178469902971e-03 -1.0760551736979407e+00
    7.9968446993653915e-03 -8.2065180664828985e-01
    8.2023205596889175e-03 -7.3970927486462867e-01
    8.1416302059667319e-03 -7.5955452531275003e-01
    8.3850227144969345e-03 -6.9099745113674427e-01
    8.2698527430663648e-03 -7.2008229982309568e-01
    8.3063279498512659e-03 -7.1034298473575608e-01
    8.3446945648686134e-03 -7.0064904974537079e-01
    8.2023205596889175e-03 -7.3970927486462867e-01
    8.2698527430663648e-03 -7.2008229982309568e-01
    8.0392156862745100e-03 -8.0000000000000004e-01
    8.1137222679062513e-03 -7.6956676754440079e-01
    8.0392156862745100e-03 -8.0000000000000004e-01
    7.9777495682680187e-03 -8.3109665471865302e-01
    7.9146737758906856e-03 -8.7375102873476129e-01
    7.9968446993653915e-03 -8.2065180664828985e-01
    7.9021179115696498e-03 -8.8465173692938270e-01
    7.8807318969532324e-03 -9.0676470058236280e-01
    7.8908091843261346e-03 -8.9565495711116461e-01
    7.8437205395682861e-03 -1.0122703976826999e+00
    7.8431372549019607e-03 -1. 7.8524854551865406e-03
    -1.0500305245868344e+00 7.8454711746842858e-03
    -9.7590007294853309e-01 7.9146737758906856e-03
    -8.7375102873476129e-01 7.9146737758906856e-03
    -8.7375102873476129e-01 7.9435991305026200e-03
    -8.5224162622679023e-01 7.9968446993653915e-03
    -8.2065180664828985e-01 8.9846074530633788e-03
    -5.8673869403846823e-01 9.7816259160534037e-03
    -5.0190476880237433e-01 1.0278690384784706e-02
    -4.6348119143587135e-01 8.5185610415163589e-03
    -6.6226617853252190e-01 7.9435991305026200e-03
    -8.5224162622679023e-01 7.8483915065087392e-03
    -9.6406004206474716e-01 7.8642178469902971e-03
    -1.0760551736979407e+00 7.8483915065087392e-03
    -1.0372797920949812e+00 7.8437205395682861e-03
    -9.8787833990721308e-01 7.9021179115696498e-03
    -1.1303883305208779e+00 7.8908091843261346e-03
    -1.1165013848919998e+00 7.8483915065087392e-03
    -1.0372797920949812e+00 7.8642178469902971e-03
    -1.0760551736979407e+00 7.9021179115696498e-03
    -8.8465173692938270e-01 8.1416302059667319e-03
    -7.5955452531275003e-01 8.2352037929966978e-03
    -7.2987004348296947e-01 8.0625552920859239e-03
    -7.8978628516683147e-01 8.2352037929966978e-03
    -7.2987004348296947e-01 8.2698527430663648e-03
    -7.2008229982309568e-01 8.1416302059667319e-03
    -7.5955452531275003e-01 8.2352037929966978e-03
    -7.2987004348296947e-01 8.0873779011537764e-03
    -7.7964295498317815e-01 8.2023205596889175e-03
    -7.3970927486462867e-01 8.1416302059667319e-03
    -7.5955452531275003e-01 8.1137222679062513e-03
    -7.6956676754440079e-01 7.9284943457188454e-03
    -8.6294892726269146e-01 7.9284943457188454e-03
    -8.6294892726269146e-01 8.0392156862745100e-03
    -8.0000000000000004e-01 7.9968446993653915e-03
    -8.2065180664828985e-01 7.9435991305026200e-03
    -8.5224162622679023e-01 7.8718721618341297e-03
    -9.1798509204315681e-01 7.9600096592242452e-03
    -8.4162541153017323e-01 7.8577585293936776e-03
    -1.0629534937475533e+00 7.9021179115696498e-03
    -1.1303883305208779e+00 7.9777495682680187e-03
    -1.2032294851896916e+00 7.9435991305026217e-03
    -1.1733761520513781e+00 7.8483915065087392e-03
    -1.0372797920949812e+00 7.8454711746842858e-03
    -9.7590007294853309e-01 7.8483915065087392e-03
    -9.6406004206474716e-01 7.9435991305026200e-03
    -8.5224162622679023e-01 8.8508851706236829e-03
    -6.0553007081949839e-01 1.1293542571132908e-02
    -4.0388187304691775e-01 1.0278690384784706e-02
    -4.6348119143587135e-01 8.6728494526985955e-03
    -6.3380549201580894e-01 8.0173232084385336e-03
    -8.1028739134066274e-01 7.8524854551865406e-03
    -9.5235326648573349e-01 7.8718721618341297e-03
    -1.0893423092245460e+00 7.8454711746842858e-03
    -1.0246950765959599e+00 7.8454711746842858e-03
    -9.7590007294853309e-01 7.8454711746842858e-03
    -9.7590007294853309e-01 7.8807318969532341e-03
    -1.1028219331407116e+00 7.8524854551865406e-03
    -1.0500305245868344e+00 7.8454711746842858e-03
    -1.0246950765959599e+00 7.8483915065087392e-03
    -1.0372797920949812e+00 8.1416302059667319e-03
    -7.5955452531275003e-01 8.0625552920859239e-03
    -7.8978628516683147e-01 8.1137222679062513e-03
    -7.6956676754440079e-01 8.1137222679062513e-03
    -7.6956676754440079e-01 8.1416302059667319e-03
    -7.5955452531275003e-01 7.9968446993653915e-03
    -8.2065180664828985e-01 8.1137222679062513e-03
    -7.6956676754440079e-01 8.0873779011537764e-03
    -7.7964295498317815e-01 8.0173232084385336e-03
    -8.1028739134066274e-01 8.0392156862745100e-03
    -8.0000000000000004e-01 8.0625552920859239e-03
    -7.8978628516683147e-01 7.9968446993653915e-03
    -8.2065180664828985e-01 7.9146737758906856e-03
    -8.7375102873476129e-01 7.9968446993653915e-03
    -8.2065180664828985e-01 8.0173232084385336e-03
    -8.1028739134066274e-01 8.0173232084385336e-03
    -8.1028739134066274e-01 8.1137222679062513e-03
    -7.6956676754440079e-01 8.0173232084385336e-03
    -8.1028739134066274e-01 7.8431372549019607e-03 -1.
    7.8642178469902971e-03 -9.2932037728458516e-01
    8.1416302059667319e-03 -1.3165611772087666e+00
    7.9284943457188454e-03 -1.1588171308956141e+00
    7.8437205395682861e-03 -9.8787833990721308e-01
    7.8524854551865406e-03 -1.0500305245868344e+00
    7.8807318969532324e-03 -9.0676470058236280e-01
    8.0392156862745100e-03 -8.0000000000000004e-01
    8.5185610415163589e-03 -6.6226617853252190e-01
    9.7816259160534037e-03 -5.0190476880237433e-01
    1.1736159455950702e-02 -3.8321423101595131e-01
    8.9161374454713605e-03 -5.9613077493654554e-01
    8.1137222679062513e-03 -7.6956676754440079e-01
    7.8524854551865406e-03 -9.5235326648573349e-01
    7.8642178469902971e-03 -1.0760551736979407e+00
    7.8483915065087392e-03 -9.6406004206474716e-01
    7.8431372549019607e-03 -1. 7.8807318969532341e-03
    -1.1028219331407116e+00 7.8718721618341297e-03
    -1.0893423092245460e+00 7.8483915065087392e-03
    -1.0372797920949812e+00 7.8437205395682861e-03
    -1.0122703976826999e+00 7.8577585293936776e-03
    -9.4077493124783451e-01 7.9777495682680187e-03
    -8.3109665471865302e-01 8.0392156862745100e-03
    -8.0000000000000004e-01 8.1416302059667319e-03
    -7.5955452531275003e-01 8.0873779011537764e-03
    -7.7964295498317815e-01 8.2023205596889175e-03
    -7.3970927486462867e-01 7.9146737758906856e-03
    -8.7375102873476129e-01 7.9146737758906856e-03
    -8.7375102873476129e-01 8.0173232084385336e-03
    -8.1028739134066274e-01 7.9777495682680187e-03
    -8.3109665471865302e-01 7.9968446993653915e-03
    -8.2065180664828985e-01 8.1137222679062513e-03
    -7.6956676754440079e-01 8.0625552920859239e-03
    -7.8978628516683147e-01 7.9284943457188454e-03
    -8.6294892726269146e-01 8.0392156862745100e-03
    -8.0000000000000004e-01 7.9777495682680187e-03
    -8.3109665471865302e-01 8.1137222679062513e-03
    -7.6956676754440079e-01 8.0173232084385336e-03
    -8.1028739134066274e-01 7.8908091843261346e-03
    -8.9565495711116461e-01 7.8524854551865406e-03
    -9.5235326648573349e-01 7.8577585293936776e-03
    -1.0629534937475533e+00 8.0625552920859239e-03
    -1.2661653143150791e+00 7.9777495682680187e-03
    -1.2032294851896916e+00 7.8483915065087392e-03
    -9.6406004206474716e-01 7.8908091843261346e-03
    -1.1165013848919998e+00 7.8431372549019607e-03 -1.
    7.9435991305026200e-03 -8.5224162622679023e-01
    8.9161374454713605e-03 -5.9613077493654554e-01
    1.0278690384784706e-02 -4.6348119143587135e-01
    1.1293542571132908e-02 -4.0388187304691775e-01
    8.8508851706236829e-03 -6.0553007081949839e-01
    8.0392156862745100e-03 -8.0000000000000004e-01
    7.8454711746842858e-03 -1.0246950765959599e+00
    7.8437205395682861e-03 -1.0122703976826999e+00
    7.8431372549019607e-03 -1. 7.8718721618341297e-03
    -1.0893423092245460e+00 7.8577585293936776e-03
    -1.0629534937475533e+00 7.9777495682680187e-03
    -1.2032294851896916e+00 7.8642178469902971e-03
    -9.2932037728458516e-01 7.8437205395682861e-03
    -1.0122703976826999e+00 7.8483915065087392e-03
    -9.6406004206474716e-01 8.0173232084385336e-03
    -8.1028739134066274e-01 8.0625552920859239e-03
    -7.8978628516683147e-01 8.1416302059667319e-03
    -7.5955452531275003e-01 8.2023205596889175e-03
    -7.3970927486462867e-01 8.0873779011537764e-03
    -7.7964295498317815e-01 8.0392156862745100e-03
    -8.0000000000000004e-01 7.9435991305026200e-03
    -8.5224162622679023e-01 7.9284943457188454e-03
    -8.6294892726269146e-01 7.8718721618341297e-03
    -9.1798509204315681e-01 7.9968446993653915e-03
    -8.2065180664828985e-01 8.0625552920859239e-03
    -7.8978628516683147e-01 7.9146737758906856e-03
    -8.7375102873476129e-01 7.8718721618341297e-03
    -9.1798509204315681e-01 7.9600096592242452e-03
    -8.4162541153017323e-01 7.9968446993653915e-03
    -8.2065180664828985e-01 7.9777495682680187e-03
    -8.3109665471865302e-01 8.0173232084385336e-03
    -8.1028739134066274e-01 7.8908091843261346e-03
    -8.9565495711116461e-01 7.8437205395682861e-03
    -1.0122703976826999e+00 7.9146737758906838e-03
    -1.1444907841173630e+00 7.8577585293936776e-03
    -1.0629534937475533e+00 7.9435991305026217e-03
    -1.1733761520513781e+00 7.8483915065087392e-03
    -1.0372797920949812e+00 7.8524854551865406e-03
    -9.5235326648573349e-01 7.8577585293936776e-03
    -9.4077493124783451e-01 7.9600096592242452e-03
    -8.4162541153017323e-01 8.5675511793507821e-03
    -6.5275336576821963e-01 1.0278690384784706e-02
    -4.6348119143587135e-01 1.0574540428939396e-02
    -4.4393726130029115e-01 9.2112030856836870e-03
    -5.5856960175075776e-01 7.9021179115696498e-03
    -8.8465173692938270e-01 7.8524854551865406e-03
    -9.5235326648573349e-01 7.8642178469902971e-03
    -1.0760551736979407e+00 7.8577585293936776e-03
    -1.0629534937475533e+00 7.8431372549019607e-03 -1.
    7.8524854551865406e-03 -1.0500305245868344e+00
    7.8483915065087392e-03 -9.6406004206474716e-01
    7.8908091843261346e-03 -8.9565495711116461e-01
    7.8577585293936776e-03 -9.4077493124783451e-01
    7.8718721618341297e-03 -9.1798509204315681e-01
    8.0173232084385336e-03 -8.1028739134066274e-01
    8.2023205596889175e-03 -7.3970927486462867e-01
    8.2698527430663648e-03 -7.2008229982309568e-01
    8.0625552920859239e-03 -7.8978628516683147e-01
    8.1137222679062513e-03 -7.6956676754440079e-01
    8.0625552920859239e-03 -7.8978628516683147e-01
    7.9600096592242452e-03 -8.4162541153017323e-01
    8.0173232084385336e-03 -8.1028739134066274e-01
    7.9435991305026200e-03 -8.5224162622679023e-01
    8.0173232084385336e-03 -8.1028739134066274e-01
    8.2023205596889175e-03 -7.3970927486462867e-01
    8.0173232084385336e-03 -8.1028739134066274e-01
    7.9968446993653915e-03 -8.2065180664828985e-01
    8.0873779011537764e-03 -7.7964295498317815e-01
    8.0173232084385336e-03 -8.1028739134066274e-01
    8.2023205596889175e-03 -7.3970927486462867e-01
    8.1137222679062513e-03 -7.6956676754440079e-01
    8.0625552920859239e-03 -7.8978628516683147e-01
    7.8524854551865406e-03 -9.5235326648573349e-01
    7.8524854551865406e-03 -1.0500305245868344e+00
    7.8908091843261346e-03 -1.1165013848919998e+00
    7.9021179115696498e-03 -1.1303883305208779e+00
    7.8908091843261346e-03 -8.9565495711116461e-01
    7.8908091843261346e-03 -8.9565495711116461e-01
    7.9284943457188454e-03 -8.6294892726269146e-01
    8.0625552920859239e-03 -7.8978628516683147e-01
    8.1711467869087385e-03 -7.4960306956732903e-01
    1.0736863958847565e-02 -4.3405736614121559e-01
    1.1506630174723545e-02 -3.9361094683048226e-01
    9.6736981731151625e-03 -5.1140831195675895e-01
    8.2352037929966978e-03 -7.2987004348296947e-01
    7.8454711746842858e-03 -9.7590007294853309e-01
    7.8483915065087392e-03 -1.0372797920949812e+00
    7.8642178469902971e-03 -1.0760551736979407e+00
    7.8437205395682861e-03 -1.0122703976826999e+00
    7.8437205395682861e-03 -9.8787833990721308e-01
    7.8437205395682861e-03 -1.0122703976826999e+00
    7.8807318969532324e-03 -9.0676470058236280e-01
    7.8908091843261346e-03 -8.9565495711116461e-01
    8.0392156862745100e-03 -8.0000000000000004e-01
    7.9146737758906856e-03 -8.7375102873476129e-01
    8.1711467869087385e-03 -7.4960306956732903e-01
    8.2023205596889175e-03 -7.3970927486462867e-01
    8.0392156862745100e-03 -8.0000000000000004e-01
    7.9968446993653915e-03 -8.2065180664828985e-01
    7.9600096592242452e-03 -8.4162541153017323e-01
    8.0873779011537764e-03 -7.7964295498317815e-01
    8.0173232084385336e-03 -8.1028739134066274e-01
    7.9968446993653915e-03 -8.2065180664828985e-01
    8.1416302059667319e-03 -7.5955452531275003e-01
    7.9968446993653915e-03 -8.2065180664828985e-01
    8.0392156862745100e-03 -8.0000000000000004e-01
    8.0392156862745100e-03 -8.0000000000000004e-01
    8.1711467869087385e-03 -7.4960306956732903e-01
    8.0873779011537764e-03 -7.7964295498317815e-01
    8.3063279498512659e-03 -7.1034298473575608e-01
    8.0873779011537764e-03 -7.7964295498317815e-01
    8.0873779011537764e-03 -7.7964295498317815e-01
    7.9600096592242452e-03 -8.4162541153017323e-01
    7.8577585293936776e-03 -9.4077493124783451e-01
    7.8718721618341297e-03 -1.0893423092245460e+00
    8.0392156862745100e-03 -1.2500000000000002e+00
    7.8483915065087392e-03 -9.6406004206474716e-01
    7.8642178469902971e-03 -9.2932037728458516e-01
    7.8642178469902971e-03 -9.2932037728458516e-01
    8.0392156862745100e-03 -8.0000000000000004e-01
    8.0873779011537764e-03 -7.7964295498317815e-01
    1.0016061908453479e-02 -4.8278639869710216e-01
    1.4034405489687355e-02 -3.0550504633038938e-01
    1.0422099084564212e-02 -4.5374260648651510e-01
    8.6189439075195270e-03 -6.4326752090267691e-01
    7.8807318969532324e-03 -9.0676470058236280e-01
    7.8524854551865406e-03 -9.5235326648573349e-01
    7.8454711746842858e-03 -1.0246950765959599e+00
    7.8437205395682861e-03 -9.8787833990721308e-01
    7.8524854551865406e-03 -1.0500305245868344e+00
    7.8454711746842858e-03 -1.0246950765959599e+00
    7.8718721618341297e-03 -9.1798509204315681e-01
    7.9146737758906856e-03 -8.7375102873476129e-01
    7.9146737758906856e-03 -8.7375102873476129e-01
    7.9435991305026200e-03 -8.5224162622679023e-01
    8.0873779011537764e-03 -7.7964295498317815e-01
    8.2352037929966978e-03 -7.2987004348296947e-01
    8.0873779011537764e-03 -7.7964295498317815e-01
    7.9968446993653915e-03 -8.2065180664828985e-01
    7.9021179115696498e-03 -8.8465173692938270e-01
    7.9284943457188454e-03 -8.6294892726269146e-01
    8.0625552920859239e-03 -7.8978628516683147e-01
    8.0392156862745100e-03 -8.0000000000000004e-01
    8.2352037929966978e-03 -7.2987004348296947e-01
    8.1416302059667319e-03 -7.5955452531275003e-01
    8.2023205596889175e-03 -7.3970927486462867e-01
    8.1137222679062513e-03 -7.6956676754440079e-01
    8.3850227144969345e-03 -6.9099745113674427e-01
    8.3850227144969345e-03 -6.9099745113674427e-01
    8.2023205596889175e-03 -7.3970927486462867e-01
    8.0625552920859239e-03 -7.8978628516683147e-01
    7.8577585293936776e-03 -9.4077493124783451e-01
    7.8454711746842858e-03 -9.7590007294853309e-01
    8.0625552920859239e-03 -7.8978628516683147e-01
    7.8908091843261346e-03 -1.1165013848919998e+00
    7.8577585293936776e-03 -1.0629534937475533e+00
    7.8807318969532324e-03 -9.0676470058236280e-01
    7.8908091843261346e-03 -8.9565495711116461e-01
    7.8807318969532324e-03 -9.0676470058236280e-01
    7.9968446993653915e-03 -8.2065180664828985e-01
    8.0625552920859239e-03 -7.8978628516683147e-01
    9.6736981731151625e-03 -5.1140831195675895e-01
    1.5058830696019394e-02 -2.8097574347450821e-01
    9.7816259160534037e-03 -5.0190476880237433e-01
    8.7293870124368744e-03 -6.2436408326758874e-01
    8.3063279498512659e-03 -7.1034298473575608e-01
    7.8642178469902971e-03 -9.2932037728458516e-01
    7.8437205395682861e-03 -9.8787833990721308e-01
    7.8437205395682861e-03 -1.0122703976826999e+00
    7.8642178469902971e-03 -1.0760551736979407e+00
    7.8437205395682861e-03 -9.8787833990721308e-01
    7.8577585293936776e-03 -9.4077493124783451e-01
    7.9968446993653915e-03 -8.2065180664828985e-01
    7.9968446993653915e-03 -8.2065180664828985e-01
    7.9021179115696498e-03 -8.8465173692938270e-01
    7.9284943457188454e-03 -8.6294892726269146e-01
    8.0392156862745100e-03 -8.0000000000000004e-01
    7.8908091843261346e-03 -8.9565495711116461e-01
    8.0873779011537764e-03 -7.7964295498317815e-01
    7.9777495682680187e-03 -8.3109665471865302e-01
    7.9435991305026200e-03 -8.5224162622679023e-01
    8.0873779011537764e-03 -7.7964295498317815e-01
    8.2352037929966978e-03 -7.2987004348296947e-01
    8.1416302059667319e-03 -7.5955452531275003e-01
    8.0873779011537764e-03 -7.7964295498317815e-01
    8.3446945648686134e-03 -7.0064904974537079e-01
    8.2698527430663648e-03 -7.2008229982309568e-01
    8.3063279498512659e-03 -7.1034298473575608e-01
    8.0392156862745100e-03 -8.0000000000000004e-01
    8.0392156862745100e-03 -8.0000000000000004e-01
    8.3063279498512659e-03 -7.1034298473575608e-01
    7.9146737758906856e-03 -8.7375102873476129e-01
    8.2698527430663648e-03 -7.2008229982309568e-01
    7.9021179115696498e-03 -8.8465173692938270e-01
    7.8908091843261346e-03 -1.1165013848919998e+00
    7.8908091843261346e-03 -1.1165013848919998e+00
    7.8524854551865406e-03 -9.5235326648573349e-01
    7.8437205395682861e-03 -1.0122703976826999e+00
    7.8577585293936776e-03 -9.4077493124783451e-01
    7.9600096592242452e-03 -8.4162541153017323e-01
    7.9600096592242452e-03 -8.4162541153017323e-01
    9.5713851018001134e-03 -5.2088178069247570e-01
    1.5058830696019394e-02 -2.8097574347450821e-01
    1.0736863958847565e-02 -4.3405736614121559e-01
    9.0564748108176597e-03 -5.7735026918962584e-01
    8.7886856285809920e-03 -6.1494004626809073e-01
    7.9600096592242452e-03 -8.4162541153017323e-01
    8.0173232084385336e-03 -8.1028739134066274e-01
    7.8454711746842858e-03 -1.0246950765959599e+00
    7.8483915065087392e-03 -1.0372797920949812e+00
    7.8454711746842858e-03 -9.7590007294853309e-01
    7.8437205395682861e-03 -1.0122703976826999e+00
    7.8524854551865406e-03 -9.5235326648573349e-01
    7.8524854551865406e-03 -1.0500305245868344e+00
    7.8908091843261346e-03 -1.1165013848919998e+00
    7.8437205395682861e-03 -1.0122703976826999e+00
    7.8577585293936776e-03 -9.4077493124783451e-01
    7.9968446993653915e-03 -8.2065180664828985e-01
    7.9600096592242452e-03 -8.4162541153017323e-01
    8.1137222679062513e-03 -7.6956676754440079e-01
    7.9968446993653915e-03 -8.2065180664828985e-01
    8.1416302059667319e-03 -7.5955452531275003e-01
    8.5185610415163589e-03 -6.6226617853252190e-01
    8.4273879030585599e-03 -6.8138514386924698e-01
    8.5185610415163589e-03 -6.6226617853252190e-01
    8.7293870124368744e-03 -6.2436408326758874e-01
    8.5185610415163589e-03 -6.6226617853252190e-01
    8.3850227144969345e-03 -6.9099745113674427e-01
    8.3850227144969345e-03 -6.9099745113674427e-01
    8.1416302059667319e-03 -7.5955452531275003e-01
    7.9435991305026200e-03 -8.5224162622679023e-01
    7.8807318969532324e-03 -9.0676470058236280e-01
    7.9777495682680187e-03 -8.3109665471865302e-01
    7.8807318969532324e-03 -9.0676470058236280e-01
    7.9021179115696498e-03 -1.1303883305208779e+00
    7.9435991305026217e-03 -1.1733761520513781e+00
    7.8454711746842858e-03 -9.7590007294853309e-01
    7.8454711746842858e-03 -9.7590007294853309e-01
    7.9284943457188454e-03 -8.6294892726269146e-01
    7.9600096592242452e-03 -8.4162541153017323e-01
    7.9600096592242452e-03 -8.4162541153017323e-01
    1.0016061908453479e-02 -4.8278639869710216e-01
    1.8205238588207225e-02 -2.2645540682891915e-01
    1.2545587019715957e-02 -3.5112344158839170e-01
    9.0564748108176597e-03 -5.7735026918962584e-01
    8.4718714606604739e-03 -6.7180907527981382e-01
    7.9146737758906856e-03 -8.7375102873476129e-01
    7.9284943457188454e-03 -8.6294892726269146e-01
    7.9021179115696498e-03 -8.8465173692938270e-01
    7.9146737758906856e-03 -8.7375102873476129e-01
    7.8642178469902971e-03 -9.2932037728458516e-01
    7.8431372549019607e-03 -1. 7.9146737758906856e-03
    -8.7375102873476129e-01 7.8577585293936776e-03
    -9.4077493124783451e-01 7.8431372549019607e-03 -1.
    7.8437205395682861e-03 -1.0122703976826999e+00
    7.8431372549019607e-03 -1. 7.8483915065087392e-03
    -9.6406004206474716e-01 8.1711467869087385e-03
    -7.4960306956732903e-01 8.0873779011537764e-03
    -7.7964295498317815e-01 7.9968446993653915e-03
    -8.2065180664828985e-01 8.0625552920859239e-03
    -7.8978628516683147e-01 8.1711467869087385e-03
    -7.4960306956732903e-01 8.3446945648686134e-03
    -7.0064904974537079e-01 8.6728494526985955e-03
    -6.3380549201580894e-01 8.4273879030585599e-03
    -6.8138514386924698e-01 8.2698527430663648e-03
    -7.2008229982309568e-01 8.2352037929966978e-03
    -7.2987004348296947e-01 8.1711467869087385e-03
    -7.4960306956732903e-01 8.1137222679062513e-03
    -7.6956676754440079e-01 7.8577585293936776e-03
    -9.4077493124783451e-01 7.8718721618341297e-03
    -9.1798509204315681e-01 7.9777495682680187e-03
    -8.3109665471865302e-01 7.8577585293936776e-03
    -1.0629534937475533e+00 7.8908091843261346e-03
    -1.1165013848919998e+00 7.8718721618341297e-03
    -9.1798509204315681e-01 7.8807318969532324e-03
    -9.0676470058236280e-01 7.8807318969532324e-03
    -9.0676470058236280e-01 7.9968446993653915e-03
    -8.2065180664828985e-01 7.9968446993653915e-03
    -8.2065180664828985e-01 8.2352037929966978e-03
    -7.2987004348296947e-01 1.0574540428939396e-02
    -4.4393726130029115e-01 1.4034405489687355e-02
    -3.0550504633038938e-01 1.1506630174723545e-02
    -3.9361094683048226e-01 9.2112030856836870e-03
    -5.5856960175075776e-01 8.7886856285809920e-03
    -6.1494004626809073e-01 7.9777495682680187e-03
    -8.3109665471865302e-01 7.8908091843261346e-03
    -8.9565495711116461e-01 7.8807318969532324e-03
    -9.0676470058236280e-01 7.8807318969532324e-03
    -9.0676470058236280e-01 7.8454711746842858e-03
    -9.7590007294853309e-01 7.8437205395682861e-03
    -9.8787833990721308e-01 7.8483915065087392e-03
    -9.6406004206474716e-01 7.8524854551865406e-03
    -9.5235326648573349e-01 7.8483915065087392e-03
    -9.6406004206474716e-01 7.8577585293936776e-03
    -9.4077493124783451e-01 7.8577585293936776e-03
    -9.4077493124783451e-01 7.8437205395682861e-03
    -9.8787833990721308e-01 7.8718721618341297e-03
    -9.1798509204315681e-01 8.1416302059667319e-03
    -7.5955452531275003e-01 7.9435991305026200e-03
    -8.5224162622679023e-01 7.9968446993653915e-03
    -8.2065180664828985e-01 8.3850227144969345e-03
    -6.9099745113674427e-01 8.3063279498512659e-03
    -7.1034298473575608e-01 8.5675511793507821e-03
    -6.5275336576821963e-01 8.3063279498512659e-03
    -7.1034298473575608e-01 8.1416302059667319e-03
    -7.5955452531275003e-01 8.1137222679062513e-03
    -7.6956676754440079e-01 7.8807318969532324e-03
    -9.0676470058236280e-01 7.9146737758906856e-03
    -8.7375102873476129e-01 8.0173232084385336e-03
    -8.1028739134066274e-01 7.9435991305026200e-03
    -8.5224162622679023e-01 7.9435991305026200e-03
    -8.5224162622679023e-01 7.8807318969532341e-03
    -1.1028219331407116e+00 7.8807318969532341e-03
    -1.1028219331407116e+00 7.8718721618341297e-03
    -9.1798509204315681e-01 7.8524854551865406e-03
    -9.5235326648573349e-01 7.8718721618341297e-03
    -9.1798509204315681e-01 8.0173232084385336e-03
    -8.1028739134066274e-01 8.0392156862745100e-03
    -8.0000000000000004e-01 8.6189439075195270e-03
    -6.4326752090267691e-01 1.1736159455950702e-02
    -3.8321423101595131e-01 1.5058830696019394e-02
    -2.8097574347450821e-01 1.2253012202610618e-02
    -3.6198685440029538e-01 9.4743065453099518e-03
    -5.3033008588991071e-01 8.7886856285809920e-03
    -6.1494004626809073e-01 8.2352037929966978e-03
    -7.2987004348296947e-01 7.9777495682680187e-03
    -8.3109665471865302e-01 7.8718721618341297e-03
    -9.1798509204315681e-01 7.8454711746842858e-03
    -9.7590007294853309e-01 7.8524854551865406e-03
    -1.0500305245868344e+00 7.8577585293936776e-03
    -9.4077493124783451e-01 7.8642178469902971e-03
    -9.2932037728458516e-01 7.8642178469902971e-03
    -9.2932037728458516e-01 7.8718721618341297e-03
    -1.0893423092245460e+00 7.8718721618341297e-03
    -1.0893423092245460e+00 7.8437205395682861e-03
    -1.0122703976826999e+00 7.8454711746842858e-03
    -1.0246950765959599e+00 7.8454711746842858e-03
    -9.7590007294853309e-01 7.9284943457188454e-03
    -8.6294892726269146e-01 7.8577585293936776e-03
    -9.4077493124783451e-01 7.8524854551865406e-03
    -9.5235326648573349e-01 8.2352037929966978e-03
    -7.2987004348296947e-01 7.9284943457188454e-03
    -8.6294892726269146e-01 7.9777495682680187e-03
    -8.3109665471865302e-01 7.9284943457188454e-03
    -8.6294892726269146e-01 7.8437205395682861e-03
    -1.0122703976826999e+00 7.8454711746842858e-03
    -9.7590007294853309e-01 7.8908091843261346e-03
    -8.9565495711116461e-01 7.8718721618341297e-03
    -9.1798509204315681e-01 7.8437205395682861e-03
    -9.8787833990721308e-01 7.9600096592242452e-03
    -8.4162541153017323e-01 7.8454711746842858e-03
    -1.0246950765959599e+00 7.9021179115696498e-03
    -1.1303883305208779e+00 7.8718721618341297e-03
    -9.1798509204315681e-01 7.9021179115696498e-03
    -8.8465173692938270e-01 7.9021179115696498e-03
    -8.8465173692938270e-01 7.9600096592242452e-03
    -8.4162541153017323e-01 7.9600096592242452e-03
    -8.4162541153017323e-01 8.1711467869087385e-03
    -7.4960306956732903e-01 8.5675511793507821e-03
    -6.5275336576821963e-01 1.1984155173528285e-02
    -3.7267799624996495e-01 1.9400138097001748e-02
    -2.1115394209236660e-01 1.5058830696019394e-02
    -2.8097574347450821e-01 1.0278690384784706e-02
    -4.6348119143587135e-01 8.7293870124368744e-03
    -6.2436408326758874e-01 8.3850227144969345e-03
    -6.9099745113674427e-01 8.1711467869087385e-03
    -7.4960306956732903e-01 7.8718721618341297e-03
    -9.1798509204315681e-01 7.8577585293936776e-03
    -9.4077493124783451e-01 7.8454711746842858e-03
    -9.7590007294853309e-01 7.8454711746842858e-03
    -9.7590007294853309e-01 7.8524854551865406e-03
    -1.0500305245868344e+00 7.8437205395682861e-03
    -9.8787833990721308e-01 7.8807318969532341e-03
    -1.1028219331407116e+00 8.0392156862745100e-03
    -1.2500000000000002e+00 7.8437205395682861e-03
    -1.0122703976826999e+00 7.8431372549019607e-03 -1.
    7.8524854551865406e-03 -9.5235326648573349e-01
    7.8718721618341297e-03 -9.1798509204315681e-01
    7.8718721618341297e-03 -9.1798509204315681e-01
    7.8642178469902971e-03 -9.2932037728458516e-01
    7.8524854551865406e-03 -9.5235326648573349e-01
    7.8483915065087392e-03 -9.6406004206474716e-01
    7.8908091843261346e-03 -8.9565495711116461e-01
    7.8483915065087392e-03 -9.6406004206474716e-01
    7.8483915065087392e-03 -9.6406004206474716e-01
    7.8431372549019607e-03 -1. 7.8483915065087392e-03
    -9.6406004206474716e-01 7.8454711746842858e-03
    -1.0246950765959599e+00 7.8454711746842858e-03
    -9.7590007294853309e-01 7.9600096592242452e-03
    -8.4162541153017323e-01 7.8454711746842858e-03
    -9.7590007294853309e-01 7.8807318969532324e-03
    -9.0676470058236280e-01 7.9284943457188454e-03
    -8.6294892726269146e-01 7.9600096592242452e-03
    -8.4162541153017323e-01 8.1137222679062513e-03
    -7.6956676754440079e-01 8.0625552920859239e-03
    -7.8978628516683147e-01 8.0173232084385336e-03
    -8.1028739134066274e-01 8.2352037929966978e-03
    -7.2987004348296947e-01 8.9161374454713605e-03
    -5.9613077493654554e-01 1.1984155173528285e-02
    -3.7267799624996495e-01 1.8205238588207225e-02
    -2.2645540682891915e-01 1.5058830696019394e-02
    -2.8097574347450821e-01 1.2253012202610618e-02
    -3.6198685440029538e-01 8.9161374454713605e-03
    -5.9613077493654554e-01 8.3063279498512659e-03
    -7.1034298473575608e-01 8.2698527430663648e-03
    -7.2008229982309568e-01 8.3063279498512659e-03
    -7.1034298473575608e-01 7.9600096592242452e-03
    -8.4162541153017323e-01 8.0173232084385336e-03
    -8.1028739134066274e-01 7.9021179115696498e-03
    -8.8465173692938270e-01 7.9284943457188454e-03
    -8.6294892726269146e-01 7.9284943457188454e-03
    -8.6294892726269146e-01 7.9146737758906856e-03
    -8.7375102873476129e-01 7.8908091843261346e-03
    -1.1165013848919998e+00 7.9146737758906838e-03
    -1.1444907841173630e+00 7.9021179115696498e-03
    -1.1303883305208779e+00 7.8524854551865406e-03
    -1.0500305245868344e+00 7.8577585293936776e-03
    -1.0629534937475533e+00 7.8524854551865406e-03
    -1.0500305245868344e+00 7.8437205395682861e-03
    -9.8787833990721308e-01 7.8431372549019607e-03 -1.
    7.8437205395682861e-03 -1.0122703976826999e+00
    7.8577585293936776e-03 -9.4077493124783451e-01
    7.8524854551865406e-03 -9.5235326648573349e-01
    7.8454711746842858e-03 -9.7590007294853309e-01
    7.8524854551865406e-03 -1.0500305245868344e+00
    7.8483915065087392e-03 -1.0372797920949812e+00
    7.9435991305026200e-03 -8.5224162622679023e-01
    7.8437205395682861e-03 -1.0122703976826999e+00
    7.9284943457188454e-03 -8.6294892726269146e-01
    7.9021179115696498e-03 -1.1303883305208779e+00
    7.8908091843261346e-03 -8.9565495711116461e-01
    7.9777495682680187e-03 -8.3109665471865302e-01
    7.9600096592242452e-03 -8.4162541153017323e-01
    8.0625552920859239e-03 -7.8978628516683147e-01
    8.1711467869087385e-03 -7.4960306956732903e-01
    8.0625552920859239e-03 -7.8978628516683147e-01
    8.5675511793507821e-03 -6.5275336576821963e-01
    9.4743065453099518e-03 -5.3033008588991071e-01
    1.3216389175528722e-02 -3.2879797461071458e-01
    2.0888126981119113e-02 -1.9487094073848929e-01
    1.5058830696019394e-02 -2.8097574347450821e-01
    1.3216389175528722e-02 -3.2879797461071458e-01
    1.0422099084564212e-02 -4.5374260648651510e-01
    8.9846074530633788e-03 -5.8673869403846823e-01
    8.3850227144969345e-03 -6.9099745113674427e-01
    8.3850227144969345e-03 -6.9099745113674427e-01
    8.5185610415163589e-03 -6.6226617853252190e-01
    8.0392156862745100e-03 -8.0000000000000004e-01
    8.1137222679062513e-03 -7.6956676754440079e-01
    8.0873779011537764e-03 -7.7964295498317815e-01
    8.1416302059667319e-03 -7.5955452531275003e-01
    7.8908091843261346e-03 -8.9565495711116461e-01
    7.8524854551865406e-03 -9.5235326648573349e-01
    7.8908091843261346e-03 -1.1165013848919998e+00
    8.0173232084385353e-03 -1.2341300268111637e+00
    8.0392156862745100e-03 -1.2500000000000002e+00
    7.9021179115696498e-03 -1.1303883305208779e+00
    7.8437205395682861e-03 -9.8787833990721308e-01
    7.8524854551865406e-03 -1.0500305245868344e+00
    7.8437205395682861e-03 -9.8787833990721308e-01
    7.8454711746842858e-03 -9.7590007294853309e-01
    7.8642178469902971e-03 -1.0760551736979407e+00
    7.8454711746842858e-03 -1.0246950765959599e+00
    7.9284943457188454e-03 -8.6294892726269146e-01
    7.8483915065087392e-03 -9.6406004206474716e-01
    7.8483915065087392e-03 -1.0372797920949812e+00
    7.8431372549019607e-03 -1. 7.8577585293936776e-03
    -1.0629534937475533e+00 7.8807318969532324e-03
    -9.0676470058236280e-01 7.8483915065087392e-03
    -9.6406004206474716e-01 8.0173232084385336e-03
    -8.1028739134066274e-01 8.0873779011537764e-03
    -7.7964295498317815e-01 8.1416302059667319e-03
    -7.5955452531275003e-01 8.1137222679062513e-03
    -7.6956676754440079e-01 8.6189439075195270e-03
    -6.4326752090267691e-01 8.3063279498512659e-03
    -7.1034298473575608e-01 8.8508851706236829e-03
    -6.0553007081949839e-01 1.1095171738445696e-02
    -4.1403933560541262e-01 1.3216389175528722e-02
    -3.2879797461071458e-01 2.5422232169981088e-02
    -1.5811388300841897e-01 1.8205238588207225e-02
    -2.2645540682891915e-01 1.3603946141586640e-02
    -3.1728715848517625e-01 1.0910037997452176e-02
    -4.2409446483998553e-01 1.0143565573700776e-02
    -4.7316022340738378e-01 9.2945120916310894e-03
    -5.4916964736527596e-01 8.7886856285809920e-03
    -6.1494004626809073e-01 8.6728494526985955e-03
    -6.3380549201580894e-01 8.3446945648686134e-03
    -7.0064904974537079e-01 8.0173232084385336e-03
    -8.1028739134066274e-01 8.2352037929966978e-03
    -7.2987004348296947e-01 8.0392156862745100e-03
    -8.0000000000000004e-01 7.9435991305026200e-03
    -8.5224162622679023e-01 7.9777495682680187e-03
    -8.3109665471865302e-01 7.8908091843261346e-03
    -8.9565495711116461e-01 7.8437205395682861e-03
    -1.0122703976826999e+00 7.8483915065087392e-03
    -9.6406004206474716e-01 7.8483915065087392e-03
    -9.6406004206474716e-01 7.8483915065087392e-03
    -9.6406004206474716e-01 7.8437205395682861e-03
    -9.8787833990721308e-01 7.8718721618341297e-03
    -1.0893423092245460e+00 7.8431372549019607e-03 -1.
    7.8908091843261346e-03 -1.1165013848919998e+00
    7.8642178469902971e-03 -1.0760551736979407e+00
    7.8642178469902971e-03 -9.2932037728458516e-01
    7.9021179115696498e-03 -8.8465173692938270e-01
    7.8718721618341297e-03 -9.1798509204315681e-01
    7.8642178469902971e-03 -1.0760551736979407e+00
    7.8642178469902971e-03 -9.2932037728458516e-01
    7.8483915065087392e-03 -9.6406004206474716e-01
    7.8807318969532324e-03 -9.0676470058236280e-01
    8.2023205596889175e-03 -7.3970927486462867e-01
    8.3850227144969345e-03 -6.9099745113674427e-01
    8.3446945648686134e-03 -7.0064904974537079e-01
    8.4273879030585599e-03 -6.8138514386924698e-01
    8.3446945648686134e-03 -7.0064904974537079e-01
    8.9161374454713605e-03 -5.9613077493654554e-01
    9.2945120916310894e-03 -5.4916964736527596e-01
    1.1506630174723545e-02 -3.9361094683048226e-01
    1.5058830696019394e-02 -2.8097574347450821e-01
    2.5422232169981088e-02 -1.5811388300841897e-01
    2.0888126981119113e-02 -1.9487094073848929e-01
    1.4034405489687355e-02 -3.0550504633038938e-01
    1.1506630174723545e-02 -3.9361094683048226e-01
    1.0422099084564212e-02 -4.5374260648651510e-01
    9.8955904512796899e-03 -4.9236596391733095e-01
    9.4743065453099518e-03 -5.3033008588991071e-01
    9.2945120916310894e-03 -5.4916964736527596e-01
    8.7886856285809920e-03 -6.1494004626809073e-01
    8.5675511793507821e-03 -6.5275336576821963e-01
    8.3446945648686134e-03 -7.0064904974537079e-01
    8.1711467869087385e-03 -7.4960306956732903e-01
    8.1711467869087385e-03 -7.4960306956732903e-01
    8.0625552920859239e-03 -7.8978628516683147e-01
    8.0873779011537764e-03 -7.7964295498317815e-01
    8.1711467869087385e-03 -7.4960306956732903e-01
    7.8807318969532324e-03 -9.0676470058236280e-01
    7.8908091843261346e-03 -8.9565495711116461e-01
    8.0392156862745100e-03 -8.0000000000000004e-01
    7.8908091843261346e-03 -8.9565495711116461e-01
    7.8454711746842858e-03 -9.7590007294853309e-01
    7.8807318969532341e-03 -1.1028219331407116e+00
    7.9284943457188454e-03 -1.1588171308956141e+00
    7.8483915065087392e-03 -9.6406004206474716e-01
    7.8577585293936776e-03 -9.4077493124783451e-01
    7.8431372549019607e-03 -1. 7.8437205395682861e-03
    -1.0122703976826999e+00 7.8642178469902971e-03
    -9.2932037728458516e-01 7.9021179115696498e-03
    -8.8465173692938270e-01 7.9146737758906856e-03
    -8.7375102873476129e-01 8.3446945648686134e-03
    -7.0064904974537079e-01 8.2698527430663648e-03
    -7.2008229982309568e-01 8.3446945648686134e-03
    -7.0064904974537079e-01 8.3850227144969345e-03
    -6.9099745113674427e-01 8.2698527430663648e-03
    -7.2008229982309568e-01 8.4273879030585599e-03
    -6.8138514386924698e-01 8.9161374454713605e-03
    -5.9613077493654554e-01 9.4743065453099518e-03
    -5.3033008588991071e-01 1.2865318419080876e-02
    -3.4006802040680245e-01 1.5058830696019394e-02
    -2.8097574347450821e-01 2.9263758373215515e-02
    -1.3650472655798701e-01 2.5422232169981088e-02
    -1.5811388300841897e-01 1.5676951314620838e-02
    -2.6813322217994789e-01 1.5058830696019394e-02
    -2.8097574347450821e-01 1.2865318419080876e-02
    -3.4006802040680245e-01 1.0910037997452176e-02
    -4.2409446483998553e-01 1.0422099084564212e-02
    -4.5374260648651510e-01 9.8955904512796899e-03
    -4.9236596391733095e-01 9.2112030856836870e-03
    -5.5856960175075776e-01 9.6736981731151625e-03
    -5.1140831195675895e-01 9.2945120916310894e-03
    -5.4916964736527596e-01 8.7886856285809920e-03
    -6.1494004626809073e-01 8.4273879030585599e-03
    -6.8138514386924698e-01 8.4273879030585599e-03
    -6.8138514386924698e-01 8.3063279498512659e-03
    -7.1034298473575608e-01 8.1711467869087385e-03
    -7.4960306956732903e-01 8.1711467869087385e-03
    -7.4960306956732903e-01 7.8642178469902971e-03
    -9.2932037728458516e-01 7.8718721618341297e-03
    -9.1798509204315681e-01 7.8908091843261346e-03
    -8.9565495711116461e-01 7.9284943457188454e-03
    -8.6294892726269146e-01 7.8908091843261346e-03
    -8.9565495711116461e-01 7.8524854551865406e-03
    -1.0500305245868344e+00 7.8437205395682861e-03
    -9.8787833990721308e-01 7.8577585293936776e-03
    -9.4077493124783451e-01 7.9146737758906856e-03
    -8.7375102873476129e-01 7.9284943457188454e-03
    -8.6294892726269146e-01 7.9284943457188454e-03
    -8.6294892726269146e-01 7.9600096592242452e-03
    -8.4162541153017323e-01 7.9146737758906856e-03
    -8.7375102873476129e-01 8.2698527430663648e-03
    -7.2008229982309568e-01 8.0625552920859239e-03
    -7.8978628516683147e-01 8.2023205596889175e-03
    -7.3970927486462867e-01 8.1711467869087385e-03
    -7.4960306956732903e-01 8.4718714606604739e-03
    -6.7180907527981382e-01 8.8508851706236829e-03
    -6.0553007081949839e-01 9.2945120916310894e-03
    -5.4916964736527596e-01 1.1736159455950702e-02
    -3.8321423101595131e-01 1.2865318419080876e-02
    -3.4006802040680245e-01 1.6388654783484429e-02
    -2.5482359571881275e-01 3.5729847494553379e-02
    -1.1111111111111112e-01 1.9400138097001748e-02
    -2.1115394209236660e-01 1.9400138097001748e-02
    -2.1115394209236660e-01 1.6388654783484429e-02
    -2.5482359571881275e-01 1.4515884963461761e-02
    -2.9341560154802282e-01 1.1736159455950702e-02
    -3.8321423101595131e-01 1.0736863958847565e-02
    -4.3405736614121559e-01 1.1506630174723545e-02
    -3.9361094683048226e-01 1.0574540428939396e-02
    -4.4393726130029115e-01 9.8955904512796899e-03
    -4.9236596391733095e-01 1.0574540428939396e-02
    -4.4393726130029115e-01 9.6736981731151625e-03
    -5.1140831195675895e-01 8.5675511793507821e-03
    -6.5275336576821963e-01 8.3850227144969345e-03
    -6.9099745113674427e-01 8.5185610415163589e-03
    -6.6226617853252190e-01 8.3446945648686134e-03
    -7.0064904974537079e-01 8.3063279498512659e-03
    -7.1034298473575608e-01 8.2023205596889175e-03
    -7.3970927486462867e-01 7.9284943457188454e-03
    -8.6294892726269146e-01 7.9284943457188454e-03
    -8.6294892726269146e-01 7.8577585293936776e-03
    -9.4077493124783451e-01 7.8437205395682861e-03
    -9.8787833990721308e-01 7.8642178469902971e-03
    -9.2932037728458516e-01 8.0173232084385336e-03
    -8.1028739134066274e-01 7.8807318969532324e-03
    -9.0676470058236280e-01 7.9600096592242452e-03
    -8.4162541153017323e-01 8.0173232084385336e-03
    -8.1028739134066274e-01 8.5185610415163589e-03
    -6.6226617853252190e-01 8.3850227144969345e-03
    -6.9099745113674427e-01 8.2698527430663648e-03
    -7.2008229982309568e-01 8.1711467869087385e-03
    -7.4960306956732903e-01 8.1137222679062513e-03
    -7.6956676754440079e-01 8.6189439075195270e-03
    -6.4326752090267691e-01 8.9161374454713605e-03
    -5.9613077493654554e-01 8.9846074530633788e-03
    -5.8673869403846823e-01 9.2945120916310894e-03
    -5.4916964736527596e-01 1.0736863958847565e-02
    -4.3405736614121559e-01 1.2545587019715957e-02
    -3.5112344158839170e-01 1.5676951314620838e-02
    -2.6813322217994789e-01 1.7219342475818276e-02
    -2.4096579867074966e-01 2.9263758373215515e-02
    -1.3650472655798701e-01 2.5422232169981088e-02
    -1.5811388300841897e-01 2.2809727833261375e-02
    -1.7733172553297716e-01 1.8205238588207225e-02
    -2.2645540682891915e-01 1.7219342475818276e-02
    -2.4096579867074966e-01 1.4034405489687355e-02
    -3.0550504633038938e-01 1.1506630174723545e-02
    -3.9361094683048226e-01 1.1736159455950702e-02
    -3.8321423101595131e-01 1.1984155173528285e-02
    -3.7267799624996495e-01 1.0422099084564212e-02
    -4.5374260648651510e-01 1.0278690384784706e-02
    -4.6348119143587135e-01 1.0736863958847565e-02
    -4.3405736614121559e-01 1.0016061908453479e-02
    -4.8278639869710216e-01 9.7816259160534037e-03
    -5.0190476880237433e-01 8.9161374454713605e-03
    -5.9613077493654554e-01 8.6728494526985955e-03
    -6.3380549201580894e-01 8.6728494526985955e-03
    -6.3380549201580894e-01 8.8508851706236829e-03
    -6.0553007081949839e-01 8.1416302059667319e-03
    -7.5955452531275003e-01 7.9777495682680187e-03
    -8.3109665471865302e-01 7.9021179115696498e-03
    -8.8465173692938270e-01 7.8577585293936776e-03
    -9.4077493124783451e-01 7.8642178469902971e-03
    -9.2932037728458516e-01 7.9284943457188454e-03
    -8.6294892726269146e-01 8.0173232084385336e-03
    -8.1028739134066274e-01 7.9435991305026200e-03
    -8.5224162622679023e-01 8.2352037929966978e-03
    -7.2987004348296947e-01 8.4718714606604739e-03
    -6.7180907527981382e-01 8.1711467869087385e-03
    -7.4960306956732903e-01 8.2023205596889175e-03
    -7.3970927486462867e-01 8.3850227144969345e-03
    -6.9099745113674427e-01 8.4718714606604739e-03
    -6.7180907527981382e-01 8.9846074530633788e-03
    -5.8673869403846823e-01 9.2945120916310894e-03
    -5.4916964736527596e-01 9.2112030856836870e-03
    -5.5856960175075776e-01 1.1293542571132908e-02
    -4.0388187304691775e-01 1.2545587019715957e-02
    -3.5112344158839170e-01 1.4515884963461761e-02
    -2.9341560154802282e-01 1.5676951314620838e-02
    -2.6813322217994789e-01 2.0888126981119113e-02
    -1.9487094073848929e-01 3.5729847494553379e-02
    -1.1111111111111112e-01 2.5422232169981088e-02
    -1.5811388300841897e-01 2.9263758373215515e-02
    -1.3650472655798701e-01 2.2809727833261375e-02
    -1.7733172553297716e-01 1.9400138097001748e-02
    -2.1115394209236660e-01 1.6388654783484429e-02
    -2.5482359571881275e-01 1.2865318419080876e-02
    -3.4006802040680245e-01 1.2253012202610618e-02
    -3.6198685440029538e-01 1.2545587019715957e-02
    -3.5112344158839170e-01 1.2253012202610618e-02
    -3.6198685440029538e-01 1.1506630174723545e-02
    -3.9361094683048226e-01 1.1984155173528285e-02
    -3.7267799624996495e-01 1.0422099084564212e-02
    -4.5374260648651510e-01 1.0910037997452176e-02
    -4.2409446483998553e-01 1.0910037997452176e-02
    -4.2409446483998553e-01 1.0278690384784706e-02
    -4.6348119143587135e-01 9.2112030856836870e-03
    -5.5856960175075776e-01 8.7886856285809920e-03
    -6.1494004626809073e-01 8.9161374454713605e-03
    -5.9613077493654554e-01 8.1711467869087385e-03
    -7.4960306956732903e-01 8.0873779011537764e-03
    -7.7964295498317815e-01 8.0873779011537764e-03
    -7.7964295498317815e-01 8.6189439075195270e-03
    -6.4326752090267691e-01 8.2698527430663648e-03
    -7.2008229982309568e-01 8.1711467869087385e-03
    -7.4960306956732903e-01 8.1137222679062513e-03
    -7.6956676754440079e-01 8.4718714606604739e-03
    -6.7180907527981382e-01 8.6189439075195270e-03
    -6.4326752090267691e-01 8.6728494526985955e-03
    -6.3380549201580894e-01 9.2112030856836870e-03
    -5.5856960175075776e-01 9.1319353741684938e-03
    -5.6796183424706481e-01 8.8508851706236829e-03
    -6.0553007081949839e-01 9.4743065453099518e-03
    -5.3033008588991071e-01 1.0016061908453479e-02
    -4.8278639869710216e-01 1.1984155173528285e-02
    -3.7267799624996495e-01 1.5058830696019394e-02
    -2.8097574347450821e-01 1.6388654783484429e-02
    -2.5482359571881275e-01 1.9400138097001748e-02
    -2.1115394209236660e-01 2.5422232169981088e-02
    -1.5811388300841897e-01 3.5729847494553379e-02
    -1.1111111111111112e-01 5.0374397567852940e-02
    -7.8326044998795738e-02 3.5729847494553379e-02
    -1.1111111111111112e-01 2.9263758373215515e-02
    -1.3650472655798701e-01 3.5729847494553379e-02
    -1.1111111111111112e-01 2.0888126981119113e-02
    -1.9487094073848929e-01 2.0888126981119113e-02
    -1.9487094073848929e-01 2.0888126981119113e-02
    -1.9487094073848929e-01 1.5676951314620838e-02
    -2.6813322217994789e-01 1.3216389175528722e-02
    -3.2879797461071458e-01 1.3216389175528722e-02
    -3.2879797461071458e-01 1.2545587019715957e-02
    -3.5112344158839170e-01 1.2253012202610618e-02
    -3.6198685440029538e-01 1.2545587019715957e-02
    -3.5112344158839170e-01 1.1293542571132908e-02
    -4.0388187304691775e-01 1.1736159455950702e-02
    -3.8321423101595131e-01 1.0422099084564212e-02
    -4.5374260648651510e-01 1.0422099084564212e-02
    -4.5374260648651510e-01 9.1319353741684938e-03
    -5.6796183424706481e-01 8.4718714606604739e-03
    -6.7180907527981382e-01 9.2112030856836870e-03
    -5.5856960175075776e-01 9.1319353741684938e-03
    -5.6796183424706481e-01 8.2698527430663648e-03
    -7.2008229982309568e-01 8.9161374454713605e-03
    -5.9613077493654554e-01 8.2698527430663648e-03
    -7.2008229982309568e-01 8.9161374454713605e-03
    -5.9613077493654554e-01 8.2352037929966978e-03
    -7.2987004348296947e-01 8.7886856285809920e-03
    -6.1494004626809073e-01 9.1319353741684938e-03
    -5.6796183424706481e-01 9.4743065453099518e-03
    -5.3033008588991071e-01 9.8955904512796899e-03
    -4.9236596391733095e-01 9.5713851018001134e-03
    -5.2088178069247570e-01 9.2945120916310894e-03
    -5.4916964736527596e-01 1.0143565573700776e-02
    -4.7316022340738378e-01 1.2865318419080876e-02
    -3.4006802040680245e-01 1.4515884963461761e-02
    -2.9341560154802282e-01 1.9400138097001748e-02
    -2.1115394209236660e-01 1.9400138097001748e-02
    -2.1115394209236660e-01 2.0888126981119113e-02
    -1.9487094073848929e-01 2.9263758373215515e-02
    -1.3650472655798701e-01 5.0374397567852940e-02
    -7.8326044998795738e-02 5.0374397567852940e-02
    -7.8326044998795738e-02 3.5729847494553379e-02
    -1.1111111111111112e-01 3.5729847494553379e-02
    -1.1111111111111112e-01 2.9263758373215515e-02
    -1.3650472655798701e-01 5.0374397567852940e-02
    -7.8326044998795738e-02 2.9263758373215515e-02
    -1.3650472655798701e-01 2.5422232169981088e-02
    -1.5811388300841897e-01 2.2809727833261375e-02
    -1.7733172553297716e-01 2.0888126981119113e-02
    -1.9487094073848929e-01 1.6388654783484429e-02
    -2.5482359571881275e-01 1.5058830696019394e-02
    -2.8097574347450821e-01 1.4034405489687355e-02
    -3.0550504633038938e-01 1.4515884963461761e-02
    -2.9341560154802282e-01 1.5058830696019394e-02
    -2.8097574347450821e-01 1.5676951314620838e-02
    -2.6813322217994789e-01 1.2545587019715957e-02
    -3.5112344158839170e-01 1.2253012202610618e-02
    -3.6198685440029538e-01 1.2865318419080876e-02
    -3.4006802040680245e-01 1.2865318419080876e-02
    -3.4006802040680245e-01 1.1736159455950702e-02
    -3.8321423101595131e-01 8.7293870124368744e-03
    -6.2436408326758874e-01 8.7293870124368744e-03
    -6.2436408326758874e-01 9.8955904512796899e-03
    -4.9236596391733095e-01 9.1319353741684938e-03
    -5.6796183424706481e-01 9.0564748108176597e-03
    -5.7735026918962584e-01 9.8955904512796899e-03
    -4.9236596391733095e-01 1.0016061908453479e-02
    -4.8278639869710216e-01 1.0143565573700776e-02
    -4.7316022340738378e-01 1.0143565573700776e-02
    -4.7316022340738378e-01 1.0574540428939396e-02
    -4.4393726130029115e-01 1.0574540428939396e-02
    -4.4393726130029115e-01 1.2545587019715957e-02
    -3.5112344158839170e-01 1.3216389175528722e-02
    -3.2879797461071458e-01 1.8205238588207225e-02
    -2.2645540682891915e-01 1.9400138097001748e-02
    -2.1115394209236660e-01 2.2809727833261375e-02
    -1.7733172553297716e-01 2.9263758373215515e-02
    -1.3650472655798701e-01 2.9263758373215515e-02
    -1.3650472655798701e-01 2.9263758373215515e-02
    -1.3650472655798701e-01 3.5729847494553379e-02
    -1.1111111111111112e-01</input_scale>
  <output_scale>
    1.0526315789473684e+00 0.</output_scale>
  <inv_output_scale>
    9.4999999999999996e-01 0.</inv_output_scale>
  <weights>
    <_>
      -2.8574889040953098e-02 -6.0014954619176603e-03
      -6.1233524896491670e-03 -3.5802313022197311e-03
      5.0892929799324924e-03 -1.7106252590029483e-03
      4.0736391319245004e-03 4.6007739031846250e-03
      1.4243372156266987e-03 -7.8143945544304882e-03
      -4.2273343487097322e-03 -4.4988381233065618e-03
      -3.1541199285983123e-03 2.5145326994567871e-03
      2.3027628265772826e-03 -4.3576563550020049e-03
      3.2365821934645018e-03 -2.8889184839775723e-03
      6.9117644301918526e-03 -7.5164385397628458e-03
      4.5487709978576530e-03 -3.3844664440956661e-03
      -2.6276881260547981e-03 -4.2359809957447534e-03
      -4.2145236339663919e-03 2.1061709784074745e-03
      -5.1033950477467147e-03 5.2796533086804506e-03
      -2.0436719004421570e-03 -3.4386815002656582e-03
      6.5526855547159485e-03 5.4740760729148994e-03
      -7.4351671982424237e-03 -2.2200674891888796e-03
      -2.3590871946931771e-03 -1.9802906235520967e-03
      -4.3209811335831539e-03 -2.5922698416326424e-03
      6.7226461882387437e-03 4.8742976086836240e-03
      1.0881590345303534e-01 4.3954778990460637e-02
      3.4942710364835976e-02 1.3061878043710229e-02
      -3.1917973865170111e-02 5.5037845421146200e-03
      -1.3145679265954960e-02 -2.7636349924157956e-02
      -1.9236242198897057e-03 5.2758428010414200e-02
      1.0351315846532420e-02 2.8545122610264869e-02
      1.2123769958408206e-02 -1.7546787333323065e-02
      -2.3703897334852297e-03 1.0594259972489349e-02
      -2.9341416339065296e-03 2.3144043779334943e-02
      -5.4931379827312603e-02 5.5450149524147140e-02
      -2.5235876361030297e-02 5.6720694307373356e-03
      2.9266289405413984e-03 3.6884853632306189e-02
      1.0132799200937261e-02 -5.1049702872951099e-03
      4.8653557782732129e-02 -5.1020802425789352e-02
      1.3398889669124909e-02 9.6801802539373105e-03
      -3.8519587105369027e-02 -4.6063530626333615e-02
      5.5051712070683108e-02 1.4629916535230186e-02
      1.9650113194635246e-02 4.7029281155086793e-03
      3.5981862558249048e-02 1.5751250525824472e-02
      -4.2246413197887238e-02 -3.3872001239903887e-02
      1.8049901431554138e-01 6.7906635388167880e-02
      5.4989404301594498e-02 2.1030668636663412e-02
      -4.8809335782445250e-02 1.3170095725306027e-02
      -2.0072802405809151e-02 -4.3931691851071208e-02
      -6.7389218434570665e-03 8.2306320332347097e-02
      1.7709965120065497e-02 4.2067457226814660e-02
      1.9970748920239426e-02 -2.9039977088135199e-02
      -3.7719387109081308e-03 1.6223770548648993e-02
      -5.7577566827466294e-03 3.6740397721176606e-02
      -8.4193456491576613e-02 8.5165782302627113e-02
      -3.9429248580669519e-02 1.0243829715858068e-02
      5.4624373713542266e-03 5.6556645787936781e-02
      1.6554124338751315e-02 -7.1913529438596309e-03
      7.3964423608216964e-02 -7.7649291098997611e-02
      2.2298020384145825e-02 1.6885660920150834e-02
      -5.8830481999486893e-02 -7.1954000443150160e-02
      8.5934602209098002e-02 2.1971184458492506e-02
      3.1834658110885219e-02 1.0434171741386557e-02
      5.3608048453498515e-02 2.6091235560972030e-02
      -6.4991173835402344e-02 -5.1544899713977715e-02
      -5.6608375907186883e-04 9.8280077323760939e-04
      5.8674145612284837e-04 -2.3404810589499834e-05
      5.1210201631407039e-04 -3.6144653169046793e-04
      1.0328318839991015e-03 -7.3189054801951596e-04
      3.4695438364743398e-04 -4.4022363701253322e-04
      1.6853111414949609e-04 5.4427262316709827e-04
      4.0928371062340927e-04 -5.0198130336476655e-04
      -5.3837339186742325e-04 5.4130025805742177e-04
      7.2451646606574787e-04 7.2928225531841261e-04
      -8.9596085780997226e-04 -1.0633593111381934e-03
      4.7189397411756106e-04 -4.9248951343733988e-04
      9.9480067882329781e-04 -2.5035076196965137e-04
      1.2025051274339787e-03 7.9488783461768411e-05
      -2.3343960668910767e-04 -8.4511454584403696e-04
      1.2165178234286608e-03 4.8608291870555205e-04
      8.1330602239910749e-04 1.0184280383176761e-03
      1.0704245511725459e-03 -7.2497964613305542e-04
      4.9328224232276271e-04 1.8830881034114335e-04
      9.4414942372186774e-04 6.1239348253836216e-04
      8.3569334300787762e-04 -7.7516820246783386e-04
      2.5808322904881476e-01 8.6564746625764369e-02
      7.1055212312778115e-02 2.8829383186608250e-02
      -6.5100695558399549e-02 1.6829081878651949e-02
      -2.6495943122953565e-02 -5.5096838914368930e-02
      -8.4138146128717676e-03 1.0331157855433716e-01
      2.5256764983552359e-02 5.4717096908040858e-02
      2.7358730161295287e-02 -3.9301919133905877e-02
      -6.2468009112582115e-03 2.2411190125253680e-02
      -6.9705905977003896e-03 4.7584643474494349e-02
      -1.0499522193765826e-01 1.0570502258382536e-01
      -5.3586509665285637e-02 1.1485188094356346e-02
      6.5467707396639138e-03 7.2254110419459658e-02
      2.3275749407089961e-02 -9.4703145575090950e-03
      9.1203374631248099e-02 -9.3783769244375828e-02
      2.7245983284172607e-02 2.3500328732712458e-02
      -7.5354867173204471e-02 -8.8552193763622514e-02
      1.0873584524359986e-01 3.0578335111513873e-02
      4.0574719890049168e-02 1.2409839297812338e-02
      6.9502198166297810e-02 3.6080728002639735e-02
      -8.0501149447559761e-02 -6.5854612478669972e-02
      2.5850899321478144e-01 8.5193753973311317e-02
      7.1905979382932389e-02 2.9459311840418390e-02
      -6.3956609339649487e-02 1.5479680855859393e-02
      -2.7006771186518726e-02 -5.5554349492495193e-02
      -8.2609494625495699e-03 1.0352575280632871e-01
      2.4016140652863543e-02 5.4308817924192371e-02
      2.7552605172157289e-02 -3.9708116532807036e-02
      -4.6472236396962940e-03 2.2869488345686473e-02
      -7.6703340848392979e-03 4.6187049592153986e-02
      -1.0691883945260475e-01 1.0555322849547943e-01
      -5.3576925386797737e-02 1.2875772581504446e-02
      7.9743419012263273e-03 7.2366954645536816e-02
      2.1285349793255751e-02 -1.0165628993410732e-02
      9.2804947160478504e-02 -9.4540158368682459e-02
      2.7739919982037526e-02 2.3775163646743199e-02
      -7.6001850820218486e-02 -8.8650860782237897e-02
      1.1021288261627910e-01 3.1477355871556256e-02
      4.1784461426000591e-02 1.2316013028878454e-02
      7.0281091099475584e-02 3.6067521274630185e-02
      -7.9445498891371771e-02 -6.7280265033653724e-02
      3.3594605053290406e-02 1.4081947598999103e-02
      1.2823147162686007e-02 4.1965158354132148e-03
      -1.1647801270212017e-02 -7.2825061796414253e-05
      -3.4201807199706604e-03 -1.0299974306209792e-02
      1.3144113188816001e-03 1.6696566477376152e-02
      1.9649840352310207e-03 9.4165236189809667e-03
      2.3711292827381034e-03 -5.1878059752457082e-03
      1.1176581808146437e-03 2.5898954014604869e-03
      -5.4068106046804344e-04 6.1095004689387415e-03
      -1.6920783092662560e-02 1.7053384917164943e-02
      -8.4277717319092543e-03 1.0526914142620649e-03
      5.8114598754345872e-04 1.1335994361325976e-02
      5.7575884683783727e-04 1.4463326958951562e-03
      1.5745292991522480e-02 -1.5065701953255694e-02
      2.3800276708955039e-03 2.2067461417925229e-03
      -1.1967224659475938e-02 -1.4561876487226063e-02
      1.7022559164001881e-02 2.9795086924381022e-03
      6.9730989499852871e-03 1.1503227648613078e-03
      1.1039579255880025e-02 5.5838271035011247e-03
      -1.4369719253765770e-02 -1.0790239674390658e-02
      2.1257950185807656e-01 7.3085542439378690e-02
      5.8476270047712303e-02 1.8341063880838147e-02
      -5.4076979120329320e-02 8.8105699963946116e-03
      -1.5639760308212364e-02 -4.6199363777287408e-02
      -1.5731078890936655e-03 8.9016656965142091e-02
      1.6092172722224397e-02 4.6897652645999051e-02
      1.4750174129096223e-02 -2.7090991818805504e-02
      -7.0835248784250899e-04 1.2311077691356120e-02
      -4.4878322306015159e-03 3.7852027758817498e-02
      -8.9600565549392747e-02 8.9664878388562588e-02
      -4.2009502330566023e-02 5.1359677944703523e-03
      3.5823772725909072e-03 6.0435364047286687e-02
      1.3022841760006811e-02 -5.7580557947375976e-03
      7.8037771113171020e-02 -8.3043984316229308e-02
      1.8370596653334445e-02 1.3288061750810216e-02
      -6.5765762018438617e-02 -7.7285458994869799e-02
      9.2310989734435606e-02 1.9728924934550546e-02
      3.1746612992771935e-02 6.1669372833840297e-03
      5.9724210185378185e-02 2.3923226640190004e-02
      -6.7502720750095696e-02 -5.5203482774183334e-02
      1.3725829189814376e-01 5.2706599266202629e-02
      4.1011506829473798e-02 1.2149474735383272e-02
      -3.6592325344555116e-02 4.3276487960736722e-03
      -1.0587940324165993e-02 -3.1317461772212375e-02
      -8.6554695239948439e-04 6.1976153295778678e-02
      7.7374377080541186e-03 3.0332208301513449e-02
      8.8671173325092587e-03 -1.8683196529790759e-02
      -5.7862245302029900e-04 6.3864905032103734e-03
      -1.2076052807211139e-03 2.3283689853336027e-02
      -6.3442443130675777e-02 6.2118826389942768e-02
      -2.7023519556684347e-02 1.4097371006636370e-03
      2.1190835885049829e-03 3.9940590734345499e-02
      6.5695164805858706e-03 -2.3151566122147737e-03
      5.7098459265690939e-02 -5.8789642872950153e-02
      9.2446234199292775e-03 8.2886378372399629e-03
      -4.5640213957908717e-02 -5.4263873323211469e-02
      6.3449451783980260e-02 1.2120071544969409e-02
      1.9200320338919975e-02 2.1822948982489422e-03
      4.1381242303286478e-02 1.4274865504787472e-02
      -4.9118024626657819e-02 -3.6846792831610790e-02
      8.0869696249572631e-02 4.3506460936114794e-02
      3.5032646109719984e-02 3.3911889083235207e-04
      -2.9984569035063892e-02 -5.5346226910731313e-03
      8.5909661298590981e-04 -2.4060890839935477e-02
      5.2485023507469024e-03 5.4035248268362930e-02
      -1.8465706471275218e-03 2.3891182174553514e-02
      -2.3355178274648428e-03 -7.8481577285065933e-03
      6.9172427464944848e-03 -4.2713859460214677e-03
      6.5554047621528199e-03 1.7372977319357028e-02
      -5.3851280915531312e-02 5.4337915353017269e-02
      -1.9984323149435990e-02 -5.4662447946051702e-03
      -7.0185631279556975e-03 3.4569189580757768e-02
      -2.0263552966974241e-03 6.5984616445395267e-03
      4.8541629212405318e-02 -5.0142300895182151e-02
      -5.8184208257010934e-04 -3.1132445702487109e-03
      -3.8190893068311631e-02 -4.7202295459753726e-02
      5.5012192267848641e-02 2.1490156171213920e-03
      1.1391615921025781e-02 -7.1578199415772512e-03
      3.4571202310647288e-02 6.2801865009032461e-03
      -4.1902916766112880e-02 -3.1876343715741204e-02
      3.6545588527695017e-01 -2.3831754034835100e-03
      -7.0145662576757896e-04 9.5519351106635036e-03
      -2.7613447120757397e-03 6.3170142892671295e-03
      -9.5234589105319661e-03 -2.0104710853442110e-02
      -4.5908114408770235e-03 -5.2823545627243571e-03
      8.7555670525498643e-03 1.8161920268424447e-02
      8.6699959199561614e-03 -1.3055305124175359e-02
      -5.2011121996424102e-03 5.8132381593288002e-03
      -5.5010885541337063e-03 1.8178770552770215e-02
      3.8485391030550439e-03 -6.6212815472562183e-03
      -2.0339158535059933e-02 6.1632243103125917e-03
      6.4517835080681110e-03 -3.9130536748333363e-04
      6.4492312094077608e-03 -4.4401455797279258e-03
      -2.7703427203571913e-03 2.6831507843337482e-03
      8.4028005990492392e-03 7.1542772055298055e-03
      1.6303184189189396e-03 2.4535770824847588e-03
      -6.7357216938767599e-03 9.5889006465390246e-03
      1.3818922909518519e-02 4.5794905332820143e-03
      -2.1497148727864938e-05 1.2935654079905861e-02
      1.2694895444774034e-03 -1.5134063073581048e-04
      3.1823997232255208e-01 -4.7407618806044553e-03
      -3.2155092371827917e-03 9.4511993074101481e-03
      -1.5322466903297844e-03 5.8214004165878450e-03
      -9.3400263184909692e-03 -1.4925595782328563e-02
      -5.8682932597862126e-03 -1.0910855893730524e-02
      8.5903430151864028e-03 1.4552216237202150e-02
      9.2870075874446536e-03 -1.4182008397604464e-02
      -6.2233894419718690e-03 8.1339011915959013e-03
      -6.5848560199246696e-03 1.7574492815085781e-02
      9.3347591140450631e-03 -8.7840020502967502e-03
      -1.5920046960306192e-02 6.1267503254882373e-03
      4.9481796373703297e-03 -3.3291636664060289e-03
      7.6509026345848007e-03 -4.9995828495863611e-03
      -5.5826205052788378e-03 5.6556085779453803e-03
      9.5699093509698206e-03 6.6453210189869856e-03
      5.4638059931240053e-03 6.5464039594129407e-03
      -1.0350059615866438e-02 9.4019957920156196e-03
      1.4702263187306799e-02 5.8698270250731963e-03
      -3.2571763885494848e-03 1.0582998953368920e-02
      5.9076545976568902e-03 3.3083986990672626e-03
      3.8447627247883015e-01 -1.9497499762738197e-02
      -1.4066553074393549e-02 1.5896328255332725e-02
      7.3550108285303983e-03 1.1535020955245502e-02
      -1.4171083318042817e-02 -1.5027643447496351e-02
      -1.0353788905738017e-02 -2.6229546581634025e-02
      1.2686231053498163e-02 1.6310161000821187e-02
      1.3132004155991613e-02 -1.7141978735106197e-02
      -1.0028444634793299e-02 1.3569741145644581e-02
      -1.1950330186067039e-02 2.0590896901618232e-02
      2.3961376695572450e-02 -2.5829502240958625e-02
      -1.7309394257912062e-02 1.0587103758052076e-02
      1.1570450408288057e-02 -1.3129277745221083e-02
      1.1868697320279849e-02 -1.1606964634106041e-02
      -1.9991470262693763e-02 2.1233371994426632e-02
      1.4048298202941307e-02 1.2845493421654433e-02
      1.5057119875622881e-02 1.9165939846000311e-02
      -2.5682755821141903e-02 1.5104986610704533e-02
      1.7593616385688331e-02 1.1317892906953744e-02
      -1.3959404132165983e-02 1.6163814244173531e-02
      1.7696579352252360e-02 9.9359633758740462e-03
      2.9620593141754553e-01 -2.3733087501603571e-02
      -1.9947774328387964e-02 7.4999721452567595e-03
      1.3567479061187443e-02 7.4335168097817254e-03
      -7.8632478700102967e-03 -3.9993386536023318e-03
      -8.1703570978820597e-03 -3.5309327764814734e-02
      6.9635386048946153e-03 4.2240637451191618e-03
      8.1356122074451032e-03 -1.0413759646622037e-02
      -6.5766854922619470e-03 6.1524782438673875e-03
      -8.6474209020230303e-03 9.5632853062681301e-03
      3.3102598154958321e-02 -3.4168371756895265e-02
      -8.8616151819815858e-03 8.5052654452912671e-03
      7.4498866457370543e-03 -2.0210477153906201e-02
      6.9694436908889351e-03 -7.9101551695745162e-03
      -2.7422456767802944e-02 3.0126155869104044e-02
      7.4851517998805774e-03 6.9343843736724151e-03
      2.1683724182507112e-02 2.3829064674077912e-02
      -3.7539222008006815e-02 8.8098255539648656e-03
      9.1212228732073172e-03 7.5587799843745297e-03
      -2.0984705898437227e-02 8.3773384864830255e-03
      2.1790882863353508e-02 1.8623044906913015e-02
      4.1174558126095750e-01 1.8865657816083143e-02
      1.5520072792763694e-02 1.7564232735426705e-02
      -1.9974123192742638e-02 9.9781286964849888e-03
      -1.4934181591273464e-02 -3.2600286301396171e-02
      -6.6416177368090667e-03 2.0264706419268311e-02
      1.4423942770326771e-02 3.3101664100656493e-02
      1.5493963000060285e-02 -2.2368879518353778e-02
      -7.0329167377567638e-03 1.1840664124934910e-02
      -7.5104619969272157e-03 3.1034736944083950e-02
      -2.0415085694611888e-02 2.0006468938655556e-02
      -3.2140418443097098e-02 8.1027620148487987e-03
      7.7625085696310268e-03 1.7179756698083679e-02
      1.1869974109716807e-02 -7.0806830624308478e-03
      1.9808823898254987e-02 -1.9987392750113155e-02
      1.5103162367403188e-02 1.2669510251947524e-02
      -1.6656275382093817e-02 -1.8889321911964279e-02
      1.9935128823324755e-02 1.8294661272582492e-02
      2.6027382587393746e-02 7.2243741781189601e-03
      1.5757745690643747e-02 2.2273585708770145e-02
      -1.8171434877074726e-02 -1.7849066969295169e-02
      4.1422296981950019e-01 1.1867296895507744e-02
      1.4108630484693891e-02 1.6259367279423207e-02
      -1.9110646323203688e-02 9.8888486753173771e-03
      -1.5511350247060770e-02 -3.2228307038529289e-02
      -7.1445316298138963e-03 9.8057423335260983e-03
      1.4266120177054064e-02 3.0621462984617352e-02
      1.5408387812156433e-02 -2.4314139829041164e-02
      -4.2136370050176661e-03 1.1542158175287450e-02
      -6.0778320831691227e-03 2.9789242598868993e-02
      -1.3590382149763514e-02 8.6178977228498297e-03
      -3.1932914549522851e-02 8.7408960197737969e-03
      5.3581022641545272e-03 1.4940013129225072e-02
      1.1534563379088054e-02 -7.3741312218897981e-03
      1.2160025780990564e-02 -1.1914442607500887e-02
      1.7025669740213127e-02 1.2141949391055068e-02
      -1.4114876259358981e-02 -1.2719884227468800e-02
      8.0631811517879910e-03 1.8857443885779694e-02
      2.5234556573987404e-02 7.2135458208810541e-03
      1.4420746679935391e-02 2.1950437715637837e-02
      -1.3661281965549730e-02 -1.6063604998592461e-02
      3.9326482267805862e-01 2.2914833910258593e-02
      2.3762277745407213e-02 1.7327331575891509e-02
      -2.5671357437838115e-02 5.6841257546024577e-03
      -1.4546010139096312e-02 -3.5837446185717443e-02
      -4.1812617808536963e-03 2.3378288228286314e-02
      1.1560090391637762e-02 3.5459770417579826e-02
      1.3848006755360189e-02 -2.3483177757130283e-02
      -3.7270625678031311e-03 1.1229047134075883e-02
      -3.4439391838159607e-03 3.3249125797067729e-02
      -2.5526886226067885e-02 2.4249902702203709e-02
      -3.4157875576007142e-02 4.4740015620010724e-03
      3.3135217874801144e-03 2.3301004396378115e-02
      1.0453822347760964e-02 -5.5272767292277227e-03
      2.3524355657072369e-02 -2.4275328612202354e-02
      1.4282676304358071e-02 1.1824158156298500e-02
      -2.3507424195643351e-02 -2.1897287211614859e-02
      2.2308246825320809e-02 1.7169626775679049e-02
      2.6862660792768112e-02 5.9830317252009347e-03
      2.3129474529805034e-02 1.9972761971594737e-02
      -2.3882641420119369e-02 -2.3909170243429308e-02
      2.9177660955141926e-01 -3.7542637603973509e-03
      -9.9027057808993477e-04 6.3022649780410632e-03
      -2.2207808347774901e-03 3.4939582819026229e-03
      -5.8692676151032618e-03 -1.5167291875963428e-02
      -4.6992563736347418e-03 -1.0034008247168309e-02
      5.5719977933546376e-03 1.2745884363369278e-02
      6.2711749009961718e-03 -8.8305554843620179e-03
