<?xml version="1.0"?>
<opencv_storage>
<shapeML type_id="opencv-ml-ann-mlp">
  <layer_sizes type_id="opencv-matrix">
    <rows>1</rows>
    <cols>3</cols>
    <dt>i</dt>
    <data>
      1600 40 1</data></layer_sizes>
  <activation_function>SIGMOID_SYM</activation_function>
  <f_param1>5.9999999999999998e-01</f_param1>
  <f_param2>1.</f_param2>
  <min_val>-9.4999999999999996e-01</min_val>
  <max_val>9.4999999999999996e-01</max_val>
  <min_val1>-9.7999999999999998e-01</min_val1>
  <max_val1>9.7999999999999998e-01</max_val1>
  <training_params>
    <train_method>BACKPROP</train_method>
    <dw_scale>1.0000000000000001e-01</dw_scale>
    <moment_scale>1.0000000000000001e-01</moment_scale>
    <term_criteria><epsilon>9.9999999747524271e-07</epsilon>
      <iterations>4000</iterations></term_criteria></training_params>
  <input_scale>
    5.0526805316901964e-02 -7.8086880944303036e-02
    3.5837273716698967e-02 -1.1076975512434226e-01
    5.0526805316901964e-02 -7.8086880944303036e-02 1. 0.
    5.0526805316901964e-02 -7.8086880944303036e-02
    5.0526805316901964e-02 -7.8086880944303036e-02
    3.5837273716698967e-02 -1.1076975512434226e-01
    2.9351184281715639e-02 -1.3608276348795434e-01
    2.2876984097211832e-02 -1.7677669529663689e-01
    2.0949302913588052e-02 -1.9425717247145285e-01
    1.9456566389902646e-02 -2.1048467276349228e-01
    1.7268722469176063e-02 -2.4019223070763068e-01
    2.0949302913588052e-02 -1.9425717247145285e-01
    1.7268722469176063e-02 -2.4019223070763068e-01
    1.7268722469176063e-02 -2.4019223070763068e-01
    1.8257820964159129e-02 -2.2573305919324013e-01
    1.6435310552965831e-02 -2.5400025400038101e-01
    1.4556276403895067e-02 -2.9244882593280086e-01
    1.3641197749745950e-02 -3.1622776601683794e-01
    1.1123170302790909e-02 -4.1256849850351734e-01
    9.4950587937077079e-03 -5.2827054379537430e-01
    1.0763405190083045e-02 -4.3249319036515504e-01
    1.2285434912837746e-02 -3.6074504334969015e-01
    1.4073148562335039e-02 -3.0449175980324900e-01
    1.4556276403895067e-02 -2.9244882593280086e-01
    1.6435310552965831e-02 -2.5400025400038101e-01
    2.2876984097211832e-02 -1.7677669529663689e-01
    1.7268722469176063e-02 -2.4019223070763068e-01
    1.9456566389902646e-02 -2.1048467276349228e-01
    2.9351184281715639e-02 -1.3608276348795434e-01
    2.9351184281715639e-02 -1.3608276348795434e-01
    2.2876984097211832e-02 -1.7677669529663689e-01
    2.0949302913588052e-02 -1.9425717247145285e-01
    3.5837273716698967e-02 -1.1076975512434226e-01
    5.0526805316901964e-02 -7.8086880944303036e-02
    3.5837273716698967e-02 -1.1076975512434226e-01
    3.5837273716698967e-02 -1.1076975512434226e-01
    5.0526805316901964e-02 -7.8086880944303036e-02 1. 0. 1. 0.
    5.0526805316901964e-02 -7.8086880944303036e-02
    3.5837273716698967e-02 -1.1076975512434226e-01
    5.0526805316901964e-02 -7.8086880944303036e-02 1. 0.
    3.5837273716698967e-02 -1.1076975512434226e-01
    3.5837273716698967e-02 -1.1076975512434226e-01
    3.5837273716698967e-02 -1.1076975512434226e-01
    2.5497689613617962e-02 -1.5762208124782012e-01
    1.7268722469176063e-02 -2.4019223070763068e-01
    1.7268722469176063e-02 -2.4019223070763068e-01
    1.6435310552965831e-02 -2.5400025400038101e-01
    1.3641197749745950e-02 -3.1622776601683794e-01
    1.4556276403895067e-02 -2.9244882593280086e-01
    1.2579078977878131e-02 -3.4992710611188255e-01
    1.1123170302790909e-02 -4.1256849850351734e-01
    9.6954653238648346e-03 -5.0945263247217043e-01
    1.0039463790395775e-02 -4.8098158341259756e-01
    9.8039215686274508e-03 -5.0000000000000000e-01
    8.8053552845146921e-03 -6.1237243569579447e-01
    9.5926382156142510e-03 -5.1887452166277093e-01
    8.8053552845146921e-03 -6.1237243569579447e-01
    8.8053552845146921e-03 -6.1237243569579447e-01
    8.8679807228754012e-03 -6.0302268915552726e-01
    9.5926382156142510e-03 -5.1887452166277093e-01
    1.1536243243422589e-02 -3.9223227027636803e-01
    1.2899962428114560e-02 -3.3891719470228254e-01
    1.3641197749745950e-02 -3.1622776601683794e-01
    1.3641197749745950e-02 -3.1622776601683794e-01
    1.3641197749745950e-02 -3.1622776601683794e-01
    1.8257820964159129e-02 -2.2573305919324013e-01
    1.8257820964159129e-02 -2.2573305919324013e-01
    2.0949302913588052e-02 -1.9425717247145285e-01
    1.9456566389902646e-02 -2.1048467276349228e-01
    1.9456566389902646e-02 -2.1048467276349228e-01
    2.5497689613617962e-02 -1.5762208124782012e-01
    2.5497689613617962e-02 -1.5762208124782012e-01
    3.5837273716698967e-02 -1.1076975512434226e-01 1. 0. 1. 0.
    5.0526805316901964e-02 -7.8086880944303036e-02
    5.0526805316901964e-02 -7.8086880944303036e-02
    3.5837273716698967e-02 -1.1076975512434226e-01
    3.5837273716698967e-02 -1.1076975512434226e-01
    3.5837273716698967e-02 -1.1076975512434226e-01
    2.9351184281715639e-02 -1.3608276348795434e-01
    2.2876984097211832e-02 -1.7677669529663689e-01
    2.0949302913588052e-02 -1.9425717247145285e-01
    1.8257820964159129e-02 -2.2573305919324013e-01
    1.4556276403895067e-02 -2.9244882593280086e-01
    1.3641197749745950e-02 -3.1622776601683794e-01
    1.3252281067219774e-02 -3.2769276820761623e-01
    1.2579078977878131e-02 -3.4992710611188255e-01
    1.0447309589598372e-02 -4.5208357860443865e-01
    9.0748821293902340e-03 -5.7501753128954480e-01
    8.9336641288399014e-03 -5.9368258892563341e-01
    8.6343612345880314e-03 -6.4051261522034852e-01
    8.7456353862766460e-03 -6.2173517018803071e-01
    8.6886805702475357e-03 -6.3111416142070742e-01
    8.1821007963822859e-03 -7.4605882716103944e-01
    9.2305204267059647e-03 -5.5634864026418673e-01
    9.3142974945780183e-03 -5.4700328922703634e-01
    9.1507936388847324e-03 -5.6568542494923801e-01
    9.0025711592416728e-03 -5.8434870979077769e-01
    9.0025711592416728e-03 -5.8434870979077769e-01
    8.3576733737386402e-03 -6.9748583246291562e-01
    8.4860629696185980e-03 -6.6885605405993853e-01
    1.0167548487649704e-02 -4.7140452079103173e-01
    1.2285434912837746e-02 -3.6074504334969015e-01
    1.2899962428114560e-02 -3.3891719470228254e-01
    1.3641197749745950e-02 -3.1622776601683794e-01
    1.5721249524260256e-02 -2.6726124191242434e-01
    1.4556276403895067e-02 -2.9244882593280086e-01
    1.4556276403895067e-02 -2.9244882593280086e-01
    1.5101059729713831e-02 -2.8005601680560199e-01
    1.6435310552965831e-02 -2.5400025400038101e-01
    1.6435310552965831e-02 -2.5400025400038101e-01
    2.5497689613617962e-02 -1.5762208124782012e-01
    3.5837273716698967e-02 -1.1076975512434226e-01
    2.9351184281715639e-02 -1.3608276348795434e-01
    3.5837273716698967e-02 -1.1076975512434226e-01 1. 0.
    5.0526805316901964e-02 -7.8086880944303036e-02
    2.5497689613617962e-02 -1.5762208124782012e-01
    2.5497689613617962e-02 -1.5762208124782012e-01
    1.9456566389902646e-02 -2.1048467276349228e-01
    1.8257820964159129e-02 -2.2573305919324013e-01
    1.4556276403895067e-02 -2.9244882593280086e-01
    1.3252281067219774e-02 -3.2769276820761623e-01
    1.2579078977878131e-02 -3.4992710611188255e-01
    1.2285434912837746e-02 -3.6074504334969015e-01
    1.2285434912837746e-02 -3.6074504334969015e-01
    9.9184304916685642e-03 -4.9051147158797259e-01
    9.4023825454559711e-03 -5.3764532919016417e-01
    8.7456353862766460e-03 -6.2173517018803071e-01
    8.3576733737386402e-03 -6.9748583246291562e-01
    8.1821007963822859e-03 -7.4605882716103944e-01
    8.1521749080421570e-03 -7.5592894601845462e-01
    8.1521749080421570e-03 -7.5592894601845462e-01
    8.5825576468385335e-03 -6.4993368361968173e-01
    8.9336641288399014e-03 -5.9368258892563341e-01
    8.8053552845146921e-03 -6.1237243569579447e-01
    8.8053552845146921e-03 -6.1237243569579447e-01
    8.6343612345880314e-03 -6.4051261522034852e-01
    8.6886805702475357e-03 -6.3111416142070742e-01
    8.5825576468385335e-03 -6.4993368361968173e-01
    9.1507936388847324e-03 -5.6568542494923801e-01
    8.9336641288399014e-03 -5.9368258892563341e-01
    8.5825576468385335e-03 -6.4993368361968173e-01
    1.1536243243422589e-02 -3.9223227027636803e-01
    1.1123170302790909e-02 -4.1256849850351734e-01
    1.2015580705573944e-02 -3.7139067635410372e-01
    1.3641197749745950e-02 -3.1622776601683794e-01
    1.5721249524260256e-02 -2.6726124191242434e-01
    1.5101059729713831e-02 -2.8005601680560199e-01
    1.5721249524260256e-02 -2.6726124191242434e-01
    1.5721249524260256e-02 -2.6726124191242434e-01
    1.9456566389902646e-02 -2.1048467276349228e-01
    2.9351184281715639e-02 -1.3608276348795434e-01
    2.9351184281715639e-02 -1.3608276348795434e-01
    2.9351184281715639e-02 -1.3608276348795434e-01 1. 0.
    2.9351184281715639e-02 -1.3608276348795434e-01
    2.9351184281715639e-02 -1.3608276348795434e-01
    1.8257820964159129e-02 -2.2573305919324013e-01
    1.7268722469176063e-02 -2.4019223070763068e-01
    1.4073148562335039e-02 -3.0449175980324900e-01
    1.2579078977878131e-02 -3.4992710611188255e-01
    1.1123170302790909e-02 -4.1256849850351734e-01
    1.1322326478478802e-02 -4.0245724118956472e-01
    1.1123170302790909e-02 -4.1256849850351734e-01
    9.1507936388847324e-03 -5.6568542494923801e-01
    8.8053552845146921e-03 -6.1237243569579447e-01
    8.5331590674748905e-03 -6.5938047339578698e-01
    8.3576733737386402e-03 -6.9748583246291562e-01
    8.2469708254123506e-03 -7.2648315725677892e-01
    8.2469708254123506e-03 -7.2648315725677892e-01
    7.9503015573719037e-03 -8.4779124789065852e-01
    8.3189033080770299e-03 -7.0710678118654757e-01
    8.3576733737386402e-03 -6.9748583246291562e-01
    8.6886805702475357e-03 -6.3111416142070742e-01
    8.6343612345880314e-03 -6.4051261522034852e-01
    8.8053552845146921e-03 -6.1237243569579447e-01
    8.5825576468385335e-03 -6.4993368361968173e-01
    8.8053552845146921e-03 -6.1237243569579447e-01
    8.6343612345880314e-03 -6.4051261522034852e-01
    8.5825576468385335e-03 -6.4993368361968173e-01
    8.5825576468385335e-03 -6.4993368361968173e-01
    9.1507936388847324e-03 -5.6568542494923801e-01
    9.4950587937077079e-03 -5.2827054379537430e-01
    9.4023825454559711e-03 -5.3764532919016417e-01
    1.0039463790395775e-02 -4.8098158341259756e-01
    1.2015580705573944e-02 -3.7139067635410372e-01
    1.4556276403895067e-02 -2.9244882593280086e-01
    1.5101059729713831e-02 -2.8005601680560199e-01
    1.5721249524260256e-02 -2.6726124191242434e-01
    1.7268722469176063e-02 -2.4019223070763068e-01
    1.9456566389902646e-02 -2.1048467276349228e-01
    2.0949302913588052e-02 -1.9425717247145285e-01
    2.9351184281715639e-02 -1.3608276348795434e-01
    2.5497689613617962e-02 -1.5762208124782012e-01 1. 0.
    2.2876984097211832e-02 -1.7677669529663689e-01
    1.8257820964159129e-02 -2.2573305919324013e-01
    1.5101059729713831e-02 -2.8005601680560199e-01
    1.3252281067219774e-02 -3.2769276820761623e-01
    1.2285434912837746e-02 -3.6074504334969015e-01
    1.0937290355310212e-02 -4.2257712736425818e-01
    9.9184304916685642e-03 -4.9051147158797259e-01
    9.2305204267059647e-03 -5.5634864026418673e-01
    9.3142974945780183e-03 -5.4700328922703634e-01
    8.9336641288399014e-03 -5.9368258892563341e-01
    8.5331590674748905e-03 -6.5938047339578698e-01
    8.2820243169713474e-03 -7.1677155906879297e-01
    9.0748821293902340e-03 -5.7501753128954480e-01
    8.5825576468385335e-03 -6.4993368361968173e-01
    8.0257769440076066e-03 -8.0622577482985502e-01
    7.8444339627317516e-03 -9.8198050606196563e-01
    7.8851000411682623e-03 -9.0176871379906121e-01
    7.9074424766415984e-03 -8.7988269012811959e-01
    8.2469708254123506e-03 -7.2648315725677892e-01
    8.4860629696185980e-03 -6.6885605405993853e-01
    8.2820243169713474e-03 -7.1677155906879297e-01
    8.6886805702475357e-03 -6.3111416142070742e-01
    8.5825576468385335e-03 -6.4993368361968173e-01
    8.4860629696185980e-03 -6.6885605405993853e-01
    8.5331590674748905e-03 -6.5938047339578698e-01
    8.2820243169713474e-03 -7.1677155906879297e-01
    8.8053552845146921e-03 -6.1237243569579447e-01
    9.4023825454559711e-03 -5.3764532919016417e-01
    9.5926382156142510e-03 -5.1887452166277093e-01
    9.3142974945780183e-03 -5.4700328922703634e-01
    9.2305204267059647e-03 -5.5634864026418673e-01
    1.1123170302790909e-02 -4.1256849850351734e-01
    1.1536243243422589e-02 -3.9223227027636803e-01
    1.4556276403895067e-02 -2.9244882593280086e-01
    1.4073148562335039e-02 -3.0449175980324900e-01
    1.6435310552965831e-02 -2.5400025400038101e-01
    2.0949302913588052e-02 -1.9425717247145285e-01
    2.5497689613617962e-02 -1.5762208124782012e-01
    2.5497689613617962e-02 -1.5762208124782012e-01 1. 0.
    1.8257820964159129e-02 -2.2573305919324013e-01
    1.5101059729713831e-02 -2.8005601680560199e-01
    1.2899962428114560e-02 -3.3891719470228254e-01
    1.2015580705573944e-02 -3.7139067635410372e-01
    1.0937290355310212e-02 -4.2257712736425818e-01
    1.0303275453357798e-02 -4.6177407259139952e-01
    9.3142974945780183e-03 -5.4700328922703634e-01
    8.6886805702475357e-03 -6.3111416142070742e-01
    8.5331590674748905e-03 -6.5938047339578698e-01
    8.5331590674748905e-03 -6.5938047339578698e-01
    8.3984050708276695e-03 -6.8790572443779363e-01
    8.1821007963822859e-03 -7.4605882716103944e-01
    8.3189033080770299e-03 -7.0710678118654757e-01
    7.8432813017949993e-03 -9.9395764860929359e-01
    7.8502048999963166e-03 -9.5843865279045937e-01
    7.8432813017949993e-03 -1.0060790833484314e+00
    7.8956596620546778e-03 -8.9077396732816860e-01
    7.8548308313936537e-03 -9.4686415294799864e-01
    7.8467408099990085e-03 -9.7014250014533199e-01
    7.8956596620546778e-03 -8.9077396732816860e-01
    7.9853383877268591e-03 -8.2684549305644484e-01
    8.2136818753594208e-03 -7.3624457537312626e-01
    8.4411743428544749e-03 -6.7836346537121417e-01
    8.8053552845146921e-03 -6.1237243569579447e-01
    8.1238552506912934e-03 -7.6585799045153369e-01
    8.2469708254123506e-03 -7.2648315725677892e-01
    8.3576733737386402e-03 -6.9748583246291562e-01
    8.8679807228754012e-03 -6.0302268915552726e-01
    8.7456353862766460e-03 -6.2173517018803071e-01
    9.3142974945780183e-03 -5.4700328922703634e-01
    8.9336641288399014e-03 -5.9368258892563341e-01
    8.8053552845146921e-03 -6.1237243569579447e-01
    1.0763405190083045e-02 -4.3249319036515504e-01
    1.1123170302790909e-02 -4.1256849850351734e-01
    1.2285434912837746e-02 -3.6074504334969015e-01
    1.3641197749745950e-02 -3.1622776601683794e-01
    1.9456566389902646e-02 -2.1048467276349228e-01
    1.9456566389902646e-02 -2.1048467276349228e-01
    2.9351184281715639e-02 -1.3608276348795434e-01
    2.5497689613617962e-02 -1.5762208124782012e-01
    1.5721249524260256e-02 -2.6726124191242434e-01
    1.2899962428114560e-02 -3.3891719470228254e-01
    1.2015580705573944e-02 -3.7139067635410372e-01
    1.0763405190083045e-02 -4.3249319036515504e-01
    1.0039463790395775e-02 -4.8098158341259756e-01
    8.8679807228754012e-03 -6.0302268915552726e-01
    8.6343612345880314e-03 -6.4051261522034852e-01
    8.3984050708276695e-03 -6.8790572443779363e-01
    8.2820243169713474e-03 -7.1677155906879297e-01
    8.0718559551140358e-03 -7.8590524799337569e-01
    7.8467408099990085e-03 -1.0307764064044154e+00
    7.8432813017949993e-03 -1.0060790833484314e+00
    7.8606247621301282e-03 -1.0690449676496974e+00
    7.8444339627317533e-03 -1.0183501544346312e+00
    7.8432813017949993e-03 -9.9395764860929359e-01
    7.8757491928847425e-03 -9.1287092917527690e-01
    7.8956596620546778e-03 -8.9077396732816860e-01
    8.1238552506912934e-03 -7.6585799045153369e-01
    8.1521749080421570e-03 -7.5592894601845462e-01
    7.9671581902299605e-03 -8.3727589708234862e-01
    7.9853383877268591e-03 -8.2684549305644484e-01
    7.8675944322702529e-03 -9.2408472786301510e-01
    7.8851000411682623e-03 -9.0176871379906121e-01
    7.9074424766415984e-03 -8.7988269012811959e-01
    8.1238552506912934e-03 -7.6585799045153369e-01
    8.0970963417799045e-03 -7.7584904947600175e-01
    8.2136818753594208e-03 -7.3624457537312626e-01
    8.4411743428544749e-03 -6.7836346537121417e-01
    8.6886805702475357e-03 -6.3111416142070742e-01
    8.8053552845146921e-03 -6.1237243569579447e-01
    8.5825576468385335e-03 -6.4993368361968173e-01
    8.6343612345880314e-03 -6.4051261522034852e-01
    8.6343612345880314e-03 -6.4051261522034852e-01
    1.0447309589598372e-02 -4.5208357860443865e-01
    1.0763405190083045e-02 -4.3249319036515504e-01
    1.2579078977878131e-02 -3.4992710611188255e-01
    1.5101059729713831e-02 -2.8005601680560199e-01
    1.7268722469176063e-02 -2.4019223070763068e-01
    2.5497689613617962e-02 -1.5762208124782012e-01
    2.0949302913588052e-02 -1.9425717247145285e-01
    1.5101059729713831e-02 -2.8005601680560199e-01
    1.3252281067219774e-02 -3.2769276820761623e-01
    1.1766650944097630e-02 -3.8188130791298669e-01
    1.0937290355310212e-02 -4.2257712736425818e-01
    9.0025711592416728e-03 -5.8434870979077769e-01
    8.5331590674748905e-03 -6.5938047339578698e-01
    8.2136818753594208e-03 -7.3624457537312626e-01
    8.0718559551140358e-03 -7.8590524799337569e-01
    7.9853383877268591e-03 -8.2684549305644484e-01
    7.8432813017949993e-03 -9.9395764860929359e-01
    7.8548308313936572e-03 -1.0561177090573837e+00
    7.8606247621301282e-03 -9.3541434669348522e-01
    7.8675944322702529e-03 -9.2408472786301510e-01
    7.8851000411682623e-03 -9.0176871379906121e-01
    7.8548308313936537e-03 -9.4686415294799864e-01
    8.0048684404679018e-03 -8.1649658092772603e-01
    7.9853383877268591e-03 -8.2684549305644484e-01
    8.0718559551140358e-03 -7.8590524799337569e-01
    8.2136818753594208e-03 -7.3624457537312626e-01
    8.3189033080770299e-03 -7.0710678118654757e-01
    8.1238552506912934e-03 -7.6585799045153369e-01
    8.0970963417799045e-03 -7.7584904947600175e-01
    8.6343612345880314e-03 -6.4051261522034852e-01
    8.2820243169713474e-03 -7.1677155906879297e-01
    7.9074424766415984e-03 -8.7988269012811959e-01
    7.8956596620546778e-03 -8.9077396732816860e-01
    8.4860629696185980e-03 -6.6885605405993853e-01
    8.3984050708276695e-03 -6.8790572443779363e-01
    8.3984050708276695e-03 -6.8790572443779363e-01
    8.2469708254123506e-03 -7.2648315725677892e-01
    8.1821007963822859e-03 -7.4605882716103944e-01
    8.3189033080770299e-03 -7.0710678118654757e-01
    8.6886805702475357e-03 -6.3111416142070742e-01
    8.6886805702475357e-03 -6.3111416142070742e-01
    1.0167548487649704e-02 -4.7140452079103173e-01
    1.1123170302790909e-02 -4.1256849850351734e-01
    1.2899962428114560e-02 -3.3891719470228254e-01
    1.5721249524260256e-02 -2.6726124191242434e-01
    2.9351184281715639e-02 -1.3608276348795434e-01
    1.9456566389902646e-02 -2.1048467276349228e-01
    1.5101059729713831e-02 -2.8005601680560199e-01
    1.2579078977878131e-02 -3.4992710611188255e-01
    1.0937290355310212e-02 -4.2257712736425818e-01
    8.8053552845146921e-03 -6.1237243569579447e-01
    8.7456353862766460e-03 -6.2173517018803071e-01
    8.3189033080770299e-03 -7.0710678118654757e-01
    8.0718559551140358e-03 -7.8590524799337569e-01
    7.9074424766415984e-03 -8.7988269012811959e-01
    7.8851000411682623e-03 -9.0176871379906121e-01
    7.8502048999963166e-03 -1.0433635967086012e+00
    7.9204646977912921e-03 -1.1506275079154986e+00
    7.8432813017949993e-03 -1.0060790833484314e+00
    7.8444339627317516e-03 -9.8198050606196563e-01
    7.8675944322702529e-03 -9.2408472786301510e-01
    7.8956596620546778e-03 -8.9077396732816860e-01
    7.8675944322702529e-03 -9.2408472786301510e-01
    7.8851000411682623e-03 -9.0176871379906121e-01
    8.0257769440076066e-03 -8.0622577482985502e-01
    8.2469708254123506e-03 -7.2648315725677892e-01
    8.2820243169713474e-03 -7.1677155906879297e-01
    8.0480949208160887e-03 -7.9602975216799132e-01
    8.0480949208160887e-03 -7.9602975216799132e-01
    8.3189033080770299e-03 -7.0710678118654757e-01
    8.1821007963822859e-03 -7.4605882716103944e-01
    7.8502048999963166e-03 -9.5843865279045937e-01
    7.8675944322702529e-03 -9.2408472786301510e-01
    7.8444339627317516e-03 -9.8198050606196563e-01
    8.1238552506912934e-03 -7.6585799045153369e-01
    7.9503015573719037e-03 -8.4779124789065852e-01
    8.0480949208160887e-03 -7.9602975216799132e-01
    8.2820243169713474e-03 -7.1677155906879297e-01
    8.2469708254123506e-03 -7.2648315725677892e-01
    8.2820243169713474e-03 -7.1677155906879297e-01
    8.5331590674748905e-03 -6.5938047339578698e-01
    8.8679807228754012e-03 -6.0302268915552726e-01
    1.0447309589598372e-02 -4.5208357860443865e-01
    1.1322326478478802e-02 -4.0245724118956472e-01
    1.5721249524260256e-02 -2.6726124191242434e-01
    2.0949302913588052e-02 -1.9425717247145285e-01
    1.5721249524260256e-02 -2.6726124191242434e-01
    1.2579078977878131e-02 -3.4992710611188255e-01
    1.0937290355310212e-02 -4.2257712736425818e-01
    1.0447309589598372e-02 -4.5208357860443865e-01
    8.2820243169713474e-03 -7.1677155906879297e-01
    8.4860629696185980e-03 -6.6885605405993853e-01
    8.2820243169713474e-03 -7.1677155906879297e-01
    7.9503015573719037e-03 -8.4779124789065852e-01
    7.9204646977912921e-03 -8.6909099002128087e-01
    7.8502048999963166e-03 -1.0433635967086012e+00
    7.9671581902299605e-03 -1.1943494414262914e+00
    7.8432813017949993e-03 -9.9395764860929359e-01
    7.8467408099990085e-03 -9.7014250014533199e-01
    7.8502048999963166e-03 -1.0433635967086012e+00
    7.8432813017949993e-03 -1.0060790833484314e+00
    7.8444339627317516e-03 -9.8198050606196563e-01
    7.8502048999963166e-03 -9.5843865279045937e-01
    7.8675944322702529e-03 -9.2408472786301510e-01
    7.9671581902299605e-03 -8.3727589708234862e-01
    7.9671581902299605e-03 -8.3727589708234862e-01
    8.0257769440076066e-03 -8.0622577482985502e-01
    7.9347443933348513e-03 -8.5839507527895209e-01
    7.9503015573719037e-03 -8.4779124789065852e-01
    8.0480949208160887e-03 -7.9602975216799132e-01
    8.1521749080421570e-03 -7.5592894601845462e-01
    8.0970963417799045e-03 -7.7584904947600175e-01
    8.0480949208160887e-03 -7.9602975216799132e-01
    7.8956596620546778e-03 -1.1226192464957743e+00
    7.8606247621301282e-03 -1.0690449676496974e+00
    7.8851000411682623e-03 -1.1089317966988455e+00
    7.9204646977912921e-03 -8.6909099002128087e-01
    8.1821007963822859e-03 -7.4605882716103944e-01
    8.2469708254123506e-03 -7.2648315725677892e-01
    8.3189033080770299e-03 -7.0710678118654757e-01
    8.3189033080770299e-03 -7.0710678118654757e-01
    8.7456353862766460e-03 -6.2173517018803071e-01
    9.8039215686274508e-03 -5.0000000000000000e-01
    1.0937290355310212e-02 -4.2257712736425818e-01
    1.3252281067219774e-02 -3.2769276820761623e-01
    1.5721249524260256e-02 -2.6726124191242434e-01
    1.6435310552965831e-02 -2.5400025400038101e-01
    1.2015580705573944e-02 -3.7139067635410372e-01
    9.9184304916685642e-03 -4.9051147158797259e-01
    8.3189033080770299e-03 -7.0710678118654757e-01
    7.9853383877268591e-03 -8.2684549305644484e-01
    8.1821007963822859e-03 -7.4605882716103944e-01
    8.1521749080421570e-03 -7.5592894601845462e-01
    7.8675944322702529e-03 -9.2408472786301510e-01
    7.8432813017949993e-03 -9.9395764860929359e-01
    7.8606247621301282e-03 -1.0690449676496974e+00
    7.9074424766415984e-03 -1.1365151414154879e+00
    7.8432813017949993e-03 -1.0060790833484314e+00
    7.8502048999963166e-03 -9.5843865279045937e-01
    7.8757491928847425e-03 -9.1287092917527690e-01
    7.8548308313936537e-03 -9.4686415294799864e-01
    7.8432813017949993e-03 -9.9395764860929359e-01
    7.8432813017949993e-03 -1.0060790833484314e+00
    7.8851000411682623e-03 -9.0176871379906121e-01
    7.9503015573719037e-03 -8.4779124789065852e-01
    7.9503015573719037e-03 -8.4779124789065852e-01
    8.0480949208160887e-03 -7.9602975216799132e-01
    7.9347443933348513e-03 -8.5839507527895209e-01
    8.2136818753594208e-03 -7.3624457537312626e-01
    8.0718559551140358e-03 -7.8590524799337569e-01
    8.1521749080421570e-03 -7.5592894601845462e-01
    7.9853383877268591e-03 -8.2684549305644484e-01
    7.9074424766415984e-03 -8.7988269012811959e-01
    7.8444339627317516e-03 -9.8198050606196563e-01
    7.8956596620546778e-03 -1.1226192464957743e+00
    7.8548308313936572e-03 -1.0561177090573837e+00
    7.8757491928847425e-03 -1.0954451150103324e+00
    8.0048684404679018e-03 -8.1649658092772603e-01
    8.0257769440076066e-03 -8.0622577482985502e-01
    7.9853383877268591e-03 -8.2684549305644484e-01
    8.0718559551140358e-03 -7.8590524799337569e-01
    8.3189033080770299e-03 -7.0710678118654757e-01
    8.8679807228754012e-03 -6.0302268915552726e-01
    1.0763405190083045e-02 -4.3249319036515504e-01
    1.4556276403895067e-02 -2.9244882593280086e-01
    1.5721249524260256e-02 -2.6726124191242434e-01
    1.2899962428114560e-02 -3.3891719470228254e-01
    1.0937290355310212e-02 -4.2257712736425818e-01
    9.4023825454559711e-03 -5.3764532919016417e-01
    8.2820243169713474e-03 -7.1677155906879297e-01
    7.9503015573719037e-03 -8.4779124789065852e-01
    7.8851000411682623e-03 -9.0176871379906121e-01
    7.8757491928847425e-03 -9.1287092917527690e-01
    7.9204646977912921e-03 -8.6909099002128087e-01
    7.8675944322702529e-03 -1.0821518523658993e+00
    7.9347443933348513e-03 -1.1649647450214349e+00
    7.8432813017949993e-03 -1.0060790833484314e+00
    7.8606247621301282e-03 -1.0690449676496974e+00
    7.8548308313936537e-03 -9.4686415294799864e-01
    7.9853383877268591e-03 -8.2684549305644484e-01
    7.8502048999963166e-03 -9.5843865279045937e-01
    7.8502048999963166e-03 -1.0433635967086012e+00
    7.8502048999963166e-03 -9.5843865279045937e-01
    7.8757491928847425e-03 -9.1287092917527690e-01
    7.9074424766415984e-03 -8.7988269012811959e-01
    8.0970963417799045e-03 -7.7584904947600175e-01
    8.0048684404679018e-03 -8.1649658092772603e-01
    7.9074424766415984e-03 -8.7988269012811959e-01
    7.9853383877268591e-03 -8.2684549305644484e-01
    7.9671581902299605e-03 -8.3727589708234862e-01
    8.1238552506912934e-03 -7.6585799045153369e-01
    7.9204646977912921e-03 -8.6909099002128087e-01
    7.8432813017949993e-03 -9.9395764860929359e-01
    7.8606247621301282e-03 -9.3541434669348522e-01
    7.9204646977912921e-03 -1.1506275079154986e+00
    7.8467408099990085e-03 -1.0307764064044154e+00
    7.8606247621301282e-03 -1.0690449676496974e+00
    7.9204646977912921e-03 -8.6909099002128087e-01
    7.9074424766415984e-03 -8.7988269012811959e-01
    7.8851000411682623e-03 -9.0176871379906121e-01
    7.9503015573719037e-03 -8.4779124789065852e-01
    8.2136818753594208e-03 -7.3624457537312626e-01
    8.3189033080770299e-03 -7.0710678118654757e-01
    1.0039463790395775e-02 -4.8098158341259756e-01
    1.2285434912837746e-02 -3.6074504334969015e-01
    1.6435310552965831e-02 -2.5400025400038101e-01
    1.1536243243422589e-02 -3.9223227027636803e-01
    9.8039215686274508e-03 -5.0000000000000000e-01
    8.2136818753594208e-03 -7.3624457537312626e-01
    8.0257769440076066e-03 -8.0622577482985502e-01
    7.8956596620546778e-03 -8.9077396732816860e-01
    7.8432813017949993e-03 -9.9395764860929359e-01
    7.8675944322702529e-03 -9.2408472786301510e-01
    7.8851000411682623e-03 -1.1089317966988455e+00
    7.9074424766415984e-03 -1.1365151414154879e+00
    7.8502048999963166e-03 -1.0433635967086012e+00
    7.8851000411682623e-03 -1.1089317966988455e+00
    7.8467408099990085e-03 -1.0307764064044154e+00
    7.8502048999963166e-03 -1.0433635967086012e+00
    7.9204646977912921e-03 -8.6909099002128087e-01
    7.8757491928847425e-03 -9.1287092917527690e-01
    7.8851000411682623e-03 -9.0176871379906121e-01
    7.8956596620546778e-03 -8.9077396732816860e-01
    7.8675944322702529e-03 -9.2408472786301510e-01
    7.9204646977912921e-03 -8.6909099002128087e-01
    7.9853383877268591e-03 -8.2684549305644484e-01
    8.1238552506912934e-03 -7.6585799045153369e-01
    8.0718559551140358e-03 -7.8590524799337569e-01
    8.1521749080421570e-03 -7.5592894601845462e-01
    7.9853383877268591e-03 -8.2684549305644484e-01
    8.0480949208160887e-03 -7.9602975216799132e-01
    7.9671581902299605e-03 -8.3727589708234862e-01
    7.8467408099990085e-03 -9.7014250014533199e-01
    7.8757491928847425e-03 -9.1287092917527690e-01
    7.8548308313936572e-03 -1.0561177090573837e+00
    8.1238552506912934e-03 -1.3057250984747459e+00
    7.9204646977912921e-03 -1.1506275079154986e+00
    7.8548308313936572e-03 -1.0561177090573837e+00
    7.9671581902299605e-03 -8.3727589708234862e-01
    8.0048684404679018e-03 -8.1649658092772603e-01
    7.9347443933348513e-03 -8.5839507527895209e-01
    8.0480949208160887e-03 -7.9602975216799132e-01
    8.3984050708276695e-03 -6.8790572443779363e-01
    9.4023825454559711e-03 -5.3764532919016417e-01
    1.0167548487649704e-02 -4.7140452079103173e-01
    1.2899962428114560e-02 -3.3891719470228254e-01
    1.0303275453357798e-02 -4.6177407259139952e-01
    9.1507936388847324e-03 -5.6568542494923801e-01
    8.2469708254123506e-03 -7.2648315725677892e-01
    7.9671581902299605e-03 -8.3727589708234862e-01
    7.8757491928847425e-03 -9.1287092917527690e-01
    7.8502048999963166e-03 -9.5843865279045937e-01
    7.8444339627317516e-03 -9.8198050606196563e-01
    7.8851000411682623e-03 -1.1089317966988455e+00
    7.8956596620546778e-03 -1.1226192464957743e+00
    7.9503015573719055e-03 -1.1795356492391773e+00
    7.8757491928847425e-03 -1.0954451150103324e+00
    7.8548308313936572e-03 -1.0561177090573837e+00
    7.8502048999963166e-03 -9.5843865279045937e-01
    7.8675944322702529e-03 -9.2408472786301510e-01
    7.9074424766415984e-03 -8.7988269012811959e-01
    8.0048684404679018e-03 -8.1649658092772603e-01
    7.9503015573719037e-03 -8.4779124789065852e-01
    8.0970963417799045e-03 -7.7584904947600175e-01
    7.9503015573719037e-03 -8.4779124789065852e-01
    7.9853383877268591e-03 -8.2684549305644484e-01
    8.2469708254123506e-03 -7.2648315725677892e-01
    8.1821007963822859e-03 -7.4605882716103944e-01
    8.0718559551140358e-03 -7.8590524799337569e-01
    7.9853383877268591e-03 -8.2684549305644484e-01
    8.0480949208160887e-03 -7.9602975216799132e-01
    7.8757491928847425e-03 -9.1287092917527690e-01
    7.8757491928847425e-03 -9.1287092917527690e-01
    7.8757491928847425e-03 -9.1287092917527690e-01
    7.8502048999963166e-03 -1.0433635967086012e+00
    7.8548308313936572e-03 -1.0561177090573837e+00
    7.9671581902299605e-03 -1.1943494414262914e+00
    7.8675944322702529e-03 -1.0821518523658993e+00
    7.8444339627317533e-03 -1.0183501544346312e+00
    7.8956596620546778e-03 -8.9077396732816860e-01
    7.8502048999963166e-03 -9.5843865279045937e-01
    7.9204646977912921e-03 -8.6909099002128087e-01
    8.1821007963822859e-03 -7.4605882716103944e-01
    8.3576733737386402e-03 -6.9748583246291562e-01
    9.5926382156142510e-03 -5.1887452166277093e-01
    1.2015580705573944e-02 -3.7139067635410372e-01
    1.0937290355310212e-02 -4.2257712736425818e-01
    9.0748821293902340e-03 -5.7501753128954480e-01
    8.0048684404679018e-03 -8.1649658092772603e-01
    7.8851000411682623e-03 -9.0176871379906121e-01
    7.8606247621301282e-03 -9.3541434669348522e-01
    7.8467408099990085e-03 -1.0307764064044154e+00
    7.8432813017949993e-03 -9.9395764860929359e-01
    7.9347443933348513e-03 -1.1649647450214349e+00
    8.0257769440076048e-03 -1.2403473458920842e+00
    7.9347443933348513e-03 -1.1649647450214349e+00
    7.8757491928847425e-03 -1.0954451150103324e+00
    7.8675944322702529e-03 -1.0821518523658993e+00
    7.8757491928847425e-03 -9.1287092917527690e-01
    8.0257769440076066e-03 -8.0622577482985502e-01
    8.0257769440076066e-03 -8.0622577482985502e-01
    8.1521749080421570e-03 -7.5592894601845462e-01
    8.0970963417799045e-03 -7.7584904947600175e-01
    8.1821007963822859e-03 -7.4605882716103944e-01
    8.0970963417799045e-03 -7.7584904947600175e-01
    8.0480949208160887e-03 -7.9602975216799132e-01
    8.2469708254123506e-03 -7.2648315725677892e-01
    8.3189033080770299e-03 -7.0710678118654757e-01
    8.1238552506912934e-03 -7.6585799045153369e-01
    8.0970963417799045e-03 -7.7584904947600175e-01
    8.1521749080421570e-03 -7.5592894601845462e-01
    7.9503015573719037e-03 -8.4779124789065852e-01
    7.8548308313936537e-03 -9.4686415294799864e-01
    7.8757491928847425e-03 -9.1287092917527690e-01
    7.9503015573719037e-03 -8.4779124789065852e-01
    7.8444339627317533e-03 -1.0183501544346312e+00
    7.8444339627317533e-03 -1.0183501544346312e+00
    7.8757491928847425e-03 -1.0954451150103324e+00
    7.8606247621301282e-03 -1.0690449676496974e+00
    7.8444339627317516e-03 -9.8198050606196563e-01
    7.8675944322702529e-03 -9.2408472786301510e-01
    7.9853383877268591e-03 -8.2684549305644484e-01
    8.0048684404679018e-03 -8.1649658092772603e-01
    8.2469708254123506e-03 -7.2648315725677892e-01
    9.0748821293902340e-03 -5.7501753128954480e-01
    1.0937290355310212e-02 -4.2257712736425818e-01
    1.0937290355310212e-02 -4.2257712736425818e-01
    8.5331590674748905e-03 -6.5938047339578698e-01
    7.9347443933348513e-03 -8.5839507527895209e-01
    7.8851000411682623e-03 -9.0176871379906121e-01
    7.8444339627317516e-03 -9.8198050606196563e-01
    7.8467408099990085e-03 -1.0307764064044154e+00
    7.8502048999963166e-03 -1.0433635967086012e+00
    7.9503015573719055e-03 -1.1795356492391773e+00
    8.0718559551140358e-03 -1.2724180205607034e+00
    7.8757491928847425e-03 -1.0954451150103324e+00
    7.9347443933348513e-03 -1.1649647450214349e+00
    7.8675944322702529e-03 -1.0821518523658993e+00
    7.9853383877268591e-03 -8.2684549305644484e-01
    8.1821007963822859e-03 -7.4605882716103944e-01
    8.1238552506912934e-03 -7.6585799045153369e-01
    8.3576733737386402e-03 -6.9748583246291562e-01
    8.2469708254123506e-03 -7.2648315725677892e-01
    8.2820243169713474e-03 -7.1677155906879297e-01
    8.3189033080770299e-03 -7.0710678118654757e-01
    8.2136818753594208e-03 -7.3624457537312626e-01
    8.2820243169713474e-03 -7.1677155906879297e-01
    8.0480949208160887e-03 -7.9602975216799132e-01
    8.1238552506912934e-03 -7.6585799045153369e-01
    8.0480949208160887e-03 -7.9602975216799132e-01
    7.9853383877268591e-03 -8.2684549305644484e-01
    7.9204646977912921e-03 -8.6909099002128087e-01
    8.0048684404679018e-03 -8.1649658092772603e-01
    7.9074424766415984e-03 -8.7988269012811959e-01
    7.8851000411682623e-03 -9.0176871379906121e-01
    7.8851000411682623e-03 -9.0176871379906121e-01
    7.8444339627317533e-03 -1.0183501544346312e+00
    7.8432813017949993e-03 -1.0060790833484314e+00
    7.8548308313936572e-03 -1.0561177090573837e+00
    7.8444339627317516e-03 -9.8198050606196563e-01
    7.9074424766415984e-03 -8.7988269012811959e-01
    7.9074424766415984e-03 -8.7988269012811959e-01
    7.9347443933348513e-03 -8.5839507527895209e-01
    7.9853383877268591e-03 -8.2684549305644484e-01
    9.0025711592416728e-03 -5.8434870979077769e-01
    9.8039215686274508e-03 -5.0000000000000000e-01
    1.0303275453357798e-02 -4.6177407259139952e-01
    8.5331590674748905e-03 -6.5938047339578698e-01
    7.9347443933348513e-03 -8.5839507527895209e-01
    7.8467408099990085e-03 -9.7014250014533199e-01
    7.8675944322702529e-03 -1.0821518523658993e+00
    7.8502048999963166e-03 -1.0433635967086012e+00
    7.8432813017949993e-03 -9.9395764860929359e-01
    7.9074424766415984e-03 -1.1365151414154879e+00
    7.8956596620546778e-03 -1.1226192464957743e+00
    7.8502048999963166e-03 -1.0433635967086012e+00
    7.8675944322702529e-03 -1.0821518523658993e+00
    7.8956596620546778e-03 -8.9077396732816860e-01
    8.1238552506912934e-03 -7.6585799045153369e-01
    8.2136818753594208e-03 -7.3624457537312626e-01
    8.0480949208160887e-03 -7.9602975216799132e-01
    8.2136818753594208e-03 -7.3624457537312626e-01
    8.2469708254123506e-03 -7.2648315725677892e-01
    8.1238552506912934e-03 -7.6585799045153369e-01
    8.2136818753594208e-03 -7.3624457537312626e-01
    8.0970963417799045e-03 -7.7584904947600175e-01
    8.2136818753594208e-03 -7.3624457537312626e-01
    8.1521749080421570e-03 -7.5592894601845462e-01
    8.1238552506912934e-03 -7.6585799045153369e-01
    7.9347443933348513e-03 -8.5839507527895209e-01
    7.9347443933348513e-03 -8.5839507527895209e-01
    8.0480949208160887e-03 -7.9602975216799132e-01
    8.0048684404679018e-03 -8.1649658092772603e-01
    7.9503015573719037e-03 -8.4779124789065852e-01
    7.8757491928847425e-03 -9.1287092917527690e-01
    7.9503015573719037e-03 -8.4779124789065852e-01
    7.8606247621301282e-03 -1.0690449676496974e+00
    7.9074424766415984e-03 -1.1365151414154879e+00
    7.9853383877268608e-03 -1.2094157958139047e+00
    7.9503015573719055e-03 -1.1795356492391773e+00
    7.8502048999963166e-03 -1.0433635967086012e+00
    7.8444339627317516e-03 -9.8198050606196563e-01
    7.8467408099990085e-03 -9.7014250014533199e-01
    7.9347443933348513e-03 -8.5839507527895209e-01
    8.8679807228754012e-03 -6.0302268915552726e-01
    1.1322326478478802e-02 -4.0245724118956472e-01
    1.0303275453357798e-02 -4.6177407259139952e-01
    8.6886805702475357e-03 -6.3111416142070742e-01
    8.0257769440076066e-03 -8.0622577482985502e-01
    7.8502048999963166e-03 -9.5843865279045937e-01
    7.8757491928847425e-03 -1.0954451150103324e+00
    7.8467408099990085e-03 -1.0307764064044154e+00
    7.8444339627317516e-03 -9.8198050606196563e-01
    7.8444339627317516e-03 -9.8198050606196563e-01
    7.8851000411682623e-03 -1.1089317966988455e+00
    7.8548308313936572e-03 -1.0561177090573837e+00
    7.8467408099990085e-03 -1.0307764064044154e+00
    7.8502048999963166e-03 -1.0433635967086012e+00
    8.1238552506912934e-03 -7.6585799045153369e-01
    8.0480949208160887e-03 -7.9602975216799132e-01
    8.0970963417799045e-03 -7.7584904947600175e-01
    8.0970963417799045e-03 -7.7584904947600175e-01
    8.1238552506912934e-03 -7.6585799045153369e-01
    7.9853383877268591e-03 -8.2684549305644484e-01
    8.0970963417799045e-03 -7.7584904947600175e-01
    8.0718559551140358e-03 -7.8590524799337569e-01
    8.0257769440076066e-03 -8.0622577482985502e-01
    8.0480949208160887e-03 -7.9602975216799132e-01
    8.0718559551140358e-03 -7.8590524799337569e-01
    8.0048684404679018e-03 -8.1649658092772603e-01
    7.9204646977912921e-03 -8.6909099002128087e-01
    8.0048684404679018e-03 -8.1649658092772603e-01
    8.0257769440076066e-03 -8.0622577482985502e-01
    8.0257769440076066e-03 -8.0622577482985502e-01
    8.1238552506912934e-03 -7.6585799045153369e-01
    8.0257769440076066e-03 -8.0622577482985502e-01
    7.8432813017949993e-03 -1.0060790833484314e+00
    7.8606247621301282e-03 -9.3541434669348522e-01
    8.1521749080421570e-03 -1.3228756555322956e+00
    7.9347443933348513e-03 -1.1649647450214349e+00
    7.8432813017949993e-03 -9.9395764860929359e-01
    7.8548308313936572e-03 -1.0561177090573837e+00
    7.8757491928847425e-03 -9.1287092917527690e-01
    8.0257769440076066e-03 -8.0622577482985502e-01
    8.4860629696185980e-03 -6.6885605405993853e-01
    9.6954653238648346e-03 -5.0945263247217043e-01
    1.1766650944097630e-02 -3.8188130791298669e-01
    8.9336641288399014e-03 -5.9368258892563341e-01
    8.1238552506912934e-03 -7.6585799045153369e-01
    7.8548308313936537e-03 -9.4686415294799864e-01
    7.8675944322702529e-03 -1.0821518523658993e+00
    7.8467408099990085e-03 -9.7014250014533199e-01
    7.8432813017949993e-03 -1.0060790833484314e+00
    7.8757491928847425e-03 -1.0954451150103324e+00
    7.8675944322702529e-03 -1.0821518523658993e+00
    7.8467408099990085e-03 -1.0307764064044154e+00
    7.8444339627317533e-03 -1.0183501544346312e+00
    7.8548308313936537e-03 -9.4686415294799864e-01
    7.9671581902299605e-03 -8.3727589708234862e-01
    8.0257769440076066e-03 -8.0622577482985502e-01
    8.1238552506912934e-03 -7.6585799045153369e-01
    8.0718559551140358e-03 -7.8590524799337569e-01
    8.1821007963822859e-03 -7.4605882716103944e-01
    7.9074424766415984e-03 -8.7988269012811959e-01
    7.9074424766415984e-03 -8.7988269012811959e-01
    8.0048684404679018e-03 -8.1649658092772603e-01
    7.9671581902299605e-03 -8.3727589708234862e-01
    8.0048684404679018e-03 -8.1649658092772603e-01
    8.1238552506912934e-03 -7.6585799045153369e-01
    8.0718559551140358e-03 -7.8590524799337569e-01
    7.9347443933348513e-03 -8.5839507527895209e-01
    8.0480949208160887e-03 -7.9602975216799132e-01
    7.9853383877268591e-03 -8.2684549305644484e-01
    8.1238552506912934e-03 -7.6585799045153369e-01
    8.0257769440076066e-03 -8.0622577482985502e-01
    7.8956596620546778e-03 -8.9077396732816860e-01
    7.8502048999963166e-03 -9.5843865279045937e-01
    7.8606247621301282e-03 -1.0690449676496974e+00
    8.0718559551140358e-03 -1.2724180205607034e+00
    7.9853383877268608e-03 -1.2094157958139047e+00
    7.8467408099990085e-03 -9.7014250014533199e-01
    7.8956596620546778e-03 -1.1226192464957743e+00
    7.8432813017949993e-03 -1.0060790833484314e+00
    7.9347443933348513e-03 -8.5839507527895209e-01
    8.8679807228754012e-03 -6.0302268915552726e-01
    1.0303275453357798e-02 -4.6177407259139952e-01
    1.1322326478478802e-02 -4.0245724118956472e-01
    8.8679807228754012e-03 -6.0302268915552726e-01
    8.0257769440076066e-03 -8.0622577482985502e-01
    7.8467408099990085e-03 -1.0307764064044154e+00
    7.8444339627317533e-03 -1.0183501544346312e+00
    7.8432813017949993e-03 -1.0060790833484314e+00
    7.8757491928847425e-03 -1.0954451150103324e+00
    7.8548308313936572e-03 -1.0561177090573837e+00
    7.9671581902299605e-03 -1.1943494414262914e+00
    7.8675944322702529e-03 -9.2408472786301510e-01
    7.8444339627317533e-03 -1.0183501544346312e+00
    7.8467408099990085e-03 -9.7014250014533199e-01
    8.0048684404679018e-03 -8.1649658092772603e-01
    8.0480949208160887e-03 -7.9602975216799132e-01
    8.1238552506912934e-03 -7.6585799045153369e-01
    8.1821007963822859e-03 -7.4605882716103944e-01
    8.0718559551140358e-03 -7.8590524799337569e-01
    8.0257769440076066e-03 -8.0622577482985502e-01
    7.9347443933348513e-03 -8.5839507527895209e-01
    7.9204646977912921e-03 -8.6909099002128087e-01
    7.8675944322702529e-03 -9.2408472786301510e-01
    7.9853383877268591e-03 -8.2684549305644484e-01
    8.0718559551140358e-03 -7.8590524799337569e-01
    7.9204646977912921e-03 -8.6909099002128087e-01
    7.8757491928847425e-03 -9.1287092917527690e-01
    7.9671581902299605e-03 -8.3727589708234862e-01
    8.0048684404679018e-03 -8.1649658092772603e-01
    7.9853383877268591e-03 -8.2684549305644484e-01
    8.0257769440076066e-03 -8.0622577482985502e-01
    7.8956596620546778e-03 -8.9077396732816860e-01
    7.8444339627317533e-03 -1.0183501544346312e+00
    7.9204646977912921e-03 -1.1506275079154986e+00
    7.8606247621301282e-03 -1.0690449676496974e+00
    7.9503015573719055e-03 -1.1795356492391773e+00
    7.8502048999963166e-03 -1.0433635967086012e+00
    7.8502048999963166e-03 -9.5843865279045937e-01
    7.8548308313936537e-03 -9.4686415294799864e-01
    7.9503015573719037e-03 -8.4779124789065852e-01
    8.5331590674748905e-03 -6.5938047339578698e-01
    1.0303275453357798e-02 -4.6177407259139952e-01
    1.0600402076495872e-02 -4.4232586846469141e-01
    9.1507936388847324e-03 -5.6568542494923801e-01
    7.8956596620546778e-03 -8.9077396732816860e-01
    7.8502048999963166e-03 -9.5843865279045937e-01
    7.8675944322702529e-03 -1.0821518523658993e+00
    7.8606247621301282e-03 -1.0690449676496974e+00
    7.8432813017949993e-03 -1.0060790833484314e+00
    7.8548308313936572e-03 -1.0561177090573837e+00
    7.8502048999963166e-03 -9.5843865279045937e-01
    7.8956596620546778e-03 -8.9077396732816860e-01
    7.8548308313936537e-03 -9.4686415294799864e-01
    7.8675944322702529e-03 -9.2408472786301510e-01
    8.0048684404679018e-03 -8.1649658092772603e-01
    8.2136818753594208e-03 -7.3624457537312626e-01
    8.2820243169713474e-03 -7.1677155906879297e-01
    8.0480949208160887e-03 -7.9602975216799132e-01
    8.0970963417799045e-03 -7.7584904947600175e-01
    8.0480949208160887e-03 -7.9602975216799132e-01
    7.9503015573719037e-03 -8.4779124789065852e-01
    8.0048684404679018e-03 -8.1649658092772603e-01
    7.9347443933348513e-03 -8.5839507527895209e-01
    8.0048684404679018e-03 -8.1649658092772603e-01
    8.2136818753594208e-03 -7.3624457537312626e-01
    8.0257769440076066e-03 -8.0622577482985502e-01
    8.0048684404679018e-03 -8.1649658092772603e-01
    8.0970963417799045e-03 -7.7584904947600175e-01
    8.0257769440076066e-03 -8.0622577482985502e-01
    8.2136818753594208e-03 -7.3624457537312626e-01
    8.1238552506912934e-03 -7.6585799045153369e-01
    8.0718559551140358e-03 -7.8590524799337569e-01
    7.8502048999963166e-03 -9.5843865279045937e-01
    7.8548308313936572e-03 -1.0561177090573837e+00
    7.8956596620546778e-03 -1.1226192464957743e+00
    7.8956596620546778e-03 -1.1226192464957743e+00
    7.8851000411682623e-03 -9.0176871379906121e-01
    7.8851000411682623e-03 -9.0176871379906121e-01
    7.9204646977912921e-03 -8.6909099002128087e-01
    8.0480949208160887e-03 -7.9602975216799132e-01
    8.1521749080421570e-03 -7.5592894601845462e-01
    1.0763405190083045e-02 -4.3249319036515504e-01
    1.1536243243422589e-02 -3.9223227027636803e-01
    9.5926382156142510e-03 -5.1887452166277093e-01
    8.2136818753594208e-03 -7.3624457537312626e-01
    7.8444339627317516e-03 -9.8198050606196563e-01
    7.8502048999963166e-03 -1.0433635967086012e+00
    7.8675944322702529e-03 -1.0821518523658993e+00
    7.8444339627317533e-03 -1.0183501544346312e+00
    7.8432813017949993e-03 -9.9395764860929359e-01
    7.8444339627317533e-03 -1.0183501544346312e+00
    7.8757491928847425e-03 -9.1287092917527690e-01
    7.8956596620546778e-03 -8.9077396732816860e-01
    8.0480949208160887e-03 -7.9602975216799132e-01
    7.9074424766415984e-03 -8.7988269012811959e-01
    8.1821007963822859e-03 -7.4605882716103944e-01
    8.2136818753594208e-03 -7.3624457537312626e-01
    8.0257769440076066e-03 -8.0622577482985502e-01
    7.9853383877268591e-03 -8.2684549305644484e-01
    7.9503015573719037e-03 -8.4779124789065852e-01
    8.0718559551140358e-03 -7.8590524799337569e-01
    8.0048684404679018e-03 -8.1649658092772603e-01
    7.9853383877268591e-03 -8.2684549305644484e-01
    8.1238552506912934e-03 -7.6585799045153369e-01
    7.9853383877268591e-03 -8.2684549305644484e-01
    8.0257769440076066e-03 -8.0622577482985502e-01
    8.0257769440076066e-03 -8.0622577482985502e-01
    8.1821007963822859e-03 -7.4605882716103944e-01
    8.0970963417799045e-03 -7.7584904947600175e-01
    8.3189033080770299e-03 -7.0710678118654757e-01
    8.0970963417799045e-03 -7.7584904947600175e-01
    8.0970963417799045e-03 -7.7584904947600175e-01
    7.9503015573719037e-03 -8.4779124789065852e-01
    7.8548308313936537e-03 -9.4686415294799864e-01
    7.8757491928847425e-03 -1.0954451150103324e+00
    8.0480949208160905e-03 -1.2562344526401117e+00
    7.8467408099990085e-03 -9.7014250014533199e-01
    7.8606247621301282e-03 -9.3541434669348522e-01
    7.8606247621301282e-03 -9.3541434669348522e-01
    8.0257769440076066e-03 -8.0622577482985502e-01
    8.0718559551140358e-03 -7.8590524799337569e-01
    9.9184304916685642e-03 -4.9051147158797259e-01
    1.4073148562335039e-02 -3.0449175980324900e-01
    1.0447309589598372e-02 -4.5208357860443865e-01
    8.5825576468385335e-03 -6.4993368361968173e-01
    7.8757491928847425e-03 -9.1287092917527690e-01
    7.8502048999963166e-03 -9.5843865279045937e-01
    7.8467408099990085e-03 -1.0307764064044154e+00
    7.8432813017949993e-03 -9.9395764860929359e-01
    7.8548308313936572e-03 -1.0561177090573837e+00
    7.8467408099990085e-03 -1.0307764064044154e+00
    7.8675944322702529e-03 -9.2408472786301510e-01
    7.9204646977912921e-03 -8.6909099002128087e-01
    7.9204646977912921e-03 -8.6909099002128087e-01
    7.9503015573719037e-03 -8.4779124789065852e-01
    8.0970963417799045e-03 -7.7584904947600175e-01
    8.2136818753594208e-03 -7.3624457537312626e-01
    8.0718559551140358e-03 -7.8590524799337569e-01
    7.9853383877268591e-03 -8.2684549305644484e-01
    7.8956596620546778e-03 -8.9077396732816860e-01
    7.9204646977912921e-03 -8.6909099002128087e-01
    8.0480949208160887e-03 -7.9602975216799132e-01
    8.0257769440076066e-03 -8.0622577482985502e-01
    8.2136818753594208e-03 -7.3624457537312626e-01
    8.1238552506912934e-03 -7.6585799045153369e-01
    8.1821007963822859e-03 -7.4605882716103944e-01
    8.0970963417799045e-03 -7.7584904947600175e-01
    8.3576733737386402e-03 -6.9748583246291562e-01
    8.3984050708276695e-03 -6.8790572443779363e-01
    8.2136818753594208e-03 -7.3624457537312626e-01
    8.0718559551140358e-03 -7.8590524799337569e-01
    7.8606247621301282e-03 -9.3541434669348522e-01
    7.8444339627317516e-03 -9.8198050606196563e-01
    8.0480949208160887e-03 -7.9602975216799132e-01
    7.8956596620546778e-03 -1.1226192464957743e+00
    7.8606247621301282e-03 -1.0690449676496974e+00
    7.8757491928847425e-03 -9.1287092917527690e-01
    7.8851000411682623e-03 -9.0176871379906121e-01
    7.8757491928847425e-03 -9.1287092917527690e-01
    7.9853383877268591e-03 -8.2684549305644484e-01
    8.0480949208160887e-03 -7.9602975216799132e-01
    9.5926382156142510e-03 -5.1887452166277093e-01
    1.5101059729713831e-02 -2.8005601680560199e-01
    9.8039215686274508e-03 -5.0000000000000000e-01
    8.7456353862766460e-03 -6.2173517018803071e-01
    8.2820243169713474e-03 -7.1677155906879297e-01
    7.8606247621301282e-03 -9.3541434669348522e-01
    7.8432813017949993e-03 -9.9395764860929359e-01
    7.8444339627317533e-03 -1.0183501544346312e+00
    7.8675944322702529e-03 -1.0821518523658993e+00
    7.8432813017949993e-03 -9.9395764860929359e-01
    7.8548308313936537e-03 -9.4686415294799864e-01
    7.9853383877268591e-03 -8.2684549305644484e-01
    7.9853383877268591e-03 -8.2684549305644484e-01
    7.8956596620546778e-03 -8.9077396732816860e-01
    7.9204646977912921e-03 -8.6909099002128087e-01
    8.0257769440076066e-03 -8.0622577482985502e-01
    7.8851000411682623e-03 -9.0176871379906121e-01
    8.0718559551140358e-03 -7.8590524799337569e-01
    7.9671581902299605e-03 -8.3727589708234862e-01
    7.9347443933348513e-03 -8.5839507527895209e-01
    8.0718559551140358e-03 -7.8590524799337569e-01
    8.2469708254123506e-03 -7.2648315725677892e-01
    8.1521749080421570e-03 -7.5592894601845462e-01
    8.0718559551140358e-03 -7.8590524799337569e-01
    8.3189033080770299e-03 -7.0710678118654757e-01
    8.2469708254123506e-03 -7.2648315725677892e-01
    8.2820243169713474e-03 -7.1677155906879297e-01
    8.0257769440076066e-03 -8.0622577482985502e-01
    8.0480949208160887e-03 -7.9602975216799132e-01
    8.3189033080770299e-03 -7.0710678118654757e-01
    7.9204646977912921e-03 -8.6909099002128087e-01
    8.2469708254123506e-03 -7.2648315725677892e-01
    7.8956596620546778e-03 -8.9077396732816860e-01
    7.8956596620546778e-03 -1.1226192464957743e+00
    7.8956596620546778e-03 -1.1226192464957743e+00
    7.8502048999963166e-03 -9.5843865279045937e-01
    7.8444339627317533e-03 -1.0183501544346312e+00
    7.8548308313936537e-03 -9.4686415294799864e-01
    7.9503015573719037e-03 -8.4779124789065852e-01
    7.9671581902299605e-03 -8.3727589708234862e-01
    9.5926382156142510e-03 -5.1887452166277093e-01
    1.5101059729713831e-02 -2.8005601680560199e-01
    1.0763405190083045e-02 -4.3249319036515504e-01
    9.0748821293902340e-03 -5.7501753128954480e-01
    8.7456353862766460e-03 -6.2173517018803071e-01
    7.9503015573719037e-03 -8.4779124789065852e-01
    8.0048684404679018e-03 -8.1649658092772603e-01
    7.8467408099990085e-03 -1.0307764064044154e+00
    7.8502048999963166e-03 -1.0433635967086012e+00
    7.8444339627317516e-03 -9.8198050606196563e-01
    7.8444339627317533e-03 -1.0183501544346312e+00
    7.8502048999963166e-03 -9.5843865279045937e-01
    7.8548308313936572e-03 -1.0561177090573837e+00
    7.8956596620546778e-03 -1.1226192464957743e+00
    7.8444339627317533e-03 -1.0183501544346312e+00
    7.8548308313936537e-03 -9.4686415294799864e-01
    7.9853383877268591e-03 -8.2684549305644484e-01
    7.9503015573719037e-03 -8.4779124789065852e-01
    8.0970963417799045e-03 -7.7584904947600175e-01
    7.9853383877268591e-03 -8.2684549305644484e-01
    8.1238552506912934e-03 -7.6585799045153369e-01
    8.5331590674748905e-03 -6.5938047339578698e-01
    8.4411743428544749e-03 -6.7836346537121417e-01
    8.5331590674748905e-03 -6.5938047339578698e-01
    8.6886805702475357e-03 -6.3111416142070742e-01
    8.4860629696185980e-03 -6.6885605405993853e-01
    8.3576733737386402e-03 -6.9748583246291562e-01
    8.3576733737386402e-03 -6.9748583246291562e-01
    8.1521749080421570e-03 -7.5592894601845462e-01
    7.9503015573719037e-03 -8.4779124789065852e-01
    7.8851000411682623e-03 -9.0176871379906121e-01
    7.9671581902299605e-03 -8.3727589708234862e-01
    7.8757491928847425e-03 -9.1287092917527690e-01
    7.9074424766415984e-03 -1.1365151414154879e+00
    7.9503015573719055e-03 -1.1795356492391773e+00
    7.8444339627317516e-03 -9.8198050606196563e-01
    7.8444339627317516e-03 -9.8198050606196563e-01
    7.9204646977912921e-03 -8.6909099002128087e-01
    7.9503015573719037e-03 -8.4779124789065852e-01
    7.9671581902299605e-03 -8.3727589708234862e-01
    1.0039463790395775e-02 -4.8098158341259756e-01
    1.8257820964159129e-02 -2.2573305919324013e-01
    1.2579078977878131e-02 -3.4992710611188255e-01
    9.0748821293902340e-03 -5.7501753128954480e-01
    8.4860629696185980e-03 -6.6885605405993853e-01
    7.9074424766415984e-03 -8.7988269012811959e-01
    7.9204646977912921e-03 -8.6909099002128087e-01
    7.8956596620546778e-03 -8.9077396732816860e-01
    7.9074424766415984e-03 -8.7988269012811959e-01
    7.8606247621301282e-03 -9.3541434669348522e-01
    7.8432813017949993e-03 -1.0060790833484314e+00
    7.9074424766415984e-03 -8.7988269012811959e-01
    7.8548308313936537e-03 -9.4686415294799864e-01
    7.8432813017949993e-03 -1.0060790833484314e+00
    7.8444339627317533e-03 -1.0183501544346312e+00
    7.8432813017949993e-03 -1.0060790833484314e+00
    7.8467408099990085e-03 -9.7014250014533199e-01
    8.1521749080421570e-03 -7.5592894601845462e-01
    8.0718559551140358e-03 -7.8590524799337569e-01
    7.9853383877268591e-03 -8.2684549305644484e-01
    8.0480949208160887e-03 -7.9602975216799132e-01
    8.1821007963822859e-03 -7.4605882716103944e-01
    8.3576733737386402e-03 -6.9748583246291562e-01
    8.6886805702475357e-03 -6.3111416142070742e-01
    8.3984050708276695e-03 -6.8790572443779363e-01
    8.2469708254123506e-03 -7.2648315725677892e-01
    8.2136818753594208e-03 -7.3624457537312626e-01
    8.1521749080421570e-03 -7.5592894601845462e-01
    8.0970963417799045e-03 -7.7584904947600175e-01
    7.8606247621301282e-03 -9.3541434669348522e-01
    7.8675944322702529e-03 -9.2408472786301510e-01
    7.9671581902299605e-03 -8.3727589708234862e-01
    7.8606247621301282e-03 -1.0690449676496974e+00
    7.8956596620546778e-03 -1.1226192464957743e+00
    7.8675944322702529e-03 -9.2408472786301510e-01
    7.8757491928847425e-03 -9.1287092917527690e-01
    7.8757491928847425e-03 -9.1287092917527690e-01
    7.9853383877268591e-03 -8.2684549305644484e-01
    8.0048684404679018e-03 -8.1649658092772603e-01
    8.2469708254123506e-03 -7.2648315725677892e-01
    1.0600402076495872e-02 -4.4232586846469141e-01
    1.4073148562335039e-02 -3.0449175980324900e-01
    1.1536243243422589e-02 -3.9223227027636803e-01
    9.1507936388847324e-03 -5.6568542494923801e-01
    8.8053552845146921e-03 -6.1237243569579447e-01
    7.9853383877268591e-03 -8.2684549305644484e-01
    7.8851000411682623e-03 -9.0176871379906121e-01
    7.8757491928847425e-03 -9.1287092917527690e-01
    7.8757491928847425e-03 -9.1287092917527690e-01
    7.8444339627317516e-03 -9.8198050606196563e-01
    7.8432813017949993e-03 -9.9395764860929359e-01
    7.8467408099990085e-03 -9.7014250014533199e-01
    7.8502048999963166e-03 -9.5843865279045937e-01
    7.8467408099990085e-03 -9.7014250014533199e-01
    7.8548308313936537e-03 -9.4686415294799864e-01
    7.8548308313936537e-03 -9.4686415294799864e-01
    7.8432813017949993e-03 -9.9395764860929359e-01
    7.8675944322702529e-03 -9.2408472786301510e-01
    8.1238552506912934e-03 -7.6585799045153369e-01
    7.9347443933348513e-03 -8.5839507527895209e-01
    7.9853383877268591e-03 -8.2684549305644484e-01
    8.3984050708276695e-03 -6.8790572443779363e-01
    8.3189033080770299e-03 -7.0710678118654757e-01
    8.5331590674748905e-03 -6.5938047339578698e-01
    8.2820243169713474e-03 -7.1677155906879297e-01
    8.1238552506912934e-03 -7.6585799045153369e-01
    8.0970963417799045e-03 -7.7584904947600175e-01
    7.8757491928847425e-03 -9.1287092917527690e-01
    7.9074424766415984e-03 -8.7988269012811959e-01
    8.0048684404679018e-03 -8.1649658092772603e-01
    7.9347443933348513e-03 -8.5839507527895209e-01
    7.9347443933348513e-03 -8.5839507527895209e-01
    7.8851000411682623e-03 -1.1089317966988455e+00
    7.8851000411682623e-03 -1.1089317966988455e+00
    7.8675944322702529e-03 -9.2408472786301510e-01
    7.8502048999963166e-03 -9.5843865279045937e-01
    7.8757491928847425e-03 -9.1287092917527690e-01
    8.0048684404679018e-03 -8.1649658092772603e-01
    8.0480949208160887e-03 -7.9602975216799132e-01
    8.6343612345880314e-03 -6.4051261522034852e-01
    1.1766650944097630e-02 -3.8188130791298669e-01
    1.5101059729713831e-02 -2.8005601680560199e-01
    1.2285434912837746e-02 -3.6074504334969015e-01
    9.4023825454559711e-03 -5.3764532919016417e-01
    8.7456353862766460e-03 -6.2173517018803071e-01
    8.2469708254123506e-03 -7.2648315725677892e-01
    7.9671581902299605e-03 -8.3727589708234862e-01
    7.8675944322702529e-03 -9.2408472786301510e-01
    7.8444339627317516e-03 -9.8198050606196563e-01
    7.8548308313936572e-03 -1.0561177090573837e+00
    7.8548308313936537e-03 -9.4686415294799864e-01
    7.8606247621301282e-03 -9.3541434669348522e-01
    7.8606247621301282e-03 -9.3541434669348522e-01
    7.8757491928847425e-03 -1.0954451150103324e+00
    7.8757491928847425e-03 -1.0954451150103324e+00
    7.8444339627317533e-03 -1.0183501544346312e+00
    7.8467408099990085e-03 -1.0307764064044154e+00
    7.8444339627317516e-03 -9.8198050606196563e-01
    7.9204646977912921e-03 -8.6909099002128087e-01
    7.8548308313936537e-03 -9.4686415294799864e-01
    7.8502048999963166e-03 -9.5843865279045937e-01
    8.2136818753594208e-03 -7.3624457537312626e-01
    7.9204646977912921e-03 -8.6909099002128087e-01
    7.9671581902299605e-03 -8.3727589708234862e-01
    7.9204646977912921e-03 -8.6909099002128087e-01
    7.8444339627317533e-03 -1.0183501544346312e+00
    7.8444339627317516e-03 -9.8198050606196563e-01
    7.8851000411682623e-03 -9.0176871379906121e-01
    7.8675944322702529e-03 -9.2408472786301510e-01
    7.8432813017949993e-03 -9.9395764860929359e-01
    7.9503015573719037e-03 -8.4779124789065852e-01
    7.8467408099990085e-03 -1.0307764064044154e+00
    7.9074424766415984e-03 -1.1365151414154879e+00
    7.8675944322702529e-03 -9.2408472786301510e-01
    7.8956596620546778e-03 -8.9077396732816860e-01
    7.8956596620546778e-03 -8.9077396732816860e-01
    7.9503015573719037e-03 -8.4779124789065852e-01
    7.9503015573719037e-03 -8.4779124789065852e-01
    8.1521749080421570e-03 -7.5592894601845462e-01
    8.5825576468385335e-03 -6.4993368361968173e-01
    1.2015580705573944e-02 -3.7139067635410372e-01
    1.8257820964159129e-02 -2.2573305919324013e-01
    1.4556276403895067e-02 -2.9244882593280086e-01
    1.0167548487649704e-02 -4.7140452079103173e-01
    8.6886805702475357e-03 -6.3111416142070742e-01
    8.3576733737386402e-03 -6.9748583246291562e-01
    8.1521749080421570e-03 -7.5592894601845462e-01
    7.8675944322702529e-03 -9.2408472786301510e-01
    7.8548308313936537e-03 -9.4686415294799864e-01
    7.8444339627317516e-03 -9.8198050606196563e-01
    7.8444339627317516e-03 -9.8198050606196563e-01
    7.8548308313936572e-03 -1.0561177090573837e+00
    7.8432813017949993e-03 -9.9395764860929359e-01
    7.8851000411682623e-03 -1.1089317966988455e+00
    8.0480949208160905e-03 -1.2562344526401117e+00
    7.8444339627317533e-03 -1.0183501544346312e+00
    7.8432813017949993e-03 -1.0060790833484314e+00
    7.8502048999963166e-03 -9.5843865279045937e-01
    7.8675944322702529e-03 -9.2408472786301510e-01
    7.8675944322702529e-03 -9.2408472786301510e-01
    7.8606247621301282e-03 -9.3541434669348522e-01
    7.8502048999963166e-03 -9.5843865279045937e-01
    7.8467408099990085e-03 -9.7014250014533199e-01
    7.8956596620546778e-03 -8.9077396732816860e-01
    7.8502048999963166e-03 -9.5843865279045937e-01
    7.8467408099990085e-03 -9.7014250014533199e-01
    7.8432813017949993e-03 -1.0060790833484314e+00
    7.8467408099990085e-03 -9.7014250014533199e-01
    7.8467408099990085e-03 -1.0307764064044154e+00
    7.8444339627317516e-03 -9.8198050606196563e-01
    7.9503015573719037e-03 -8.4779124789065852e-01
    7.8444339627317516e-03 -9.8198050606196563e-01
    7.8757491928847425e-03 -9.1287092917527690e-01
    7.9204646977912921e-03 -8.6909099002128087e-01
    7.9503015573719037e-03 -8.4779124789065852e-01
    8.0970963417799045e-03 -7.7584904947600175e-01
    8.0480949208160887e-03 -7.9602975216799132e-01
    8.0048684404679018e-03 -8.1649658092772603e-01
    8.2136818753594208e-03 -7.3624457537312626e-01
    8.9336641288399014e-03 -5.9368258892563341e-01
    1.2015580705573944e-02 -3.7139067635410372e-01
    1.8257820964159129e-02 -2.2573305919324013e-01
    1.5101059729713831e-02 -2.8005601680560199e-01
    1.2015580705573944e-02 -3.7139067635410372e-01
    8.8679807228754012e-03 -6.0302268915552726e-01
    8.2820243169713474e-03 -7.1677155906879297e-01
    8.2469708254123506e-03 -7.2648315725677892e-01
    8.2820243169713474e-03 -7.1677155906879297e-01
    7.9503015573719037e-03 -8.4779124789065852e-01
    8.0048684404679018e-03 -8.1649658092772603e-01
    7.8956596620546778e-03 -8.9077396732816860e-01
    7.9204646977912921e-03 -8.6909099002128087e-01
    7.9204646977912921e-03 -8.6909099002128087e-01
    7.9074424766415984e-03 -8.7988269012811959e-01
    7.8956596620546778e-03 -1.1226192464957743e+00
    7.9204646977912921e-03 -1.1506275079154986e+00
    7.9074424766415984e-03 -1.1365151414154879e+00
    7.8548308313936572e-03 -1.0561177090573837e+00
    7.8606247621301282e-03 -1.0690449676496974e+00
    7.8548308313936572e-03 -1.0561177090573837e+00
    7.8432813017949993e-03 -9.9395764860929359e-01
    7.8432813017949993e-03 -1.0060790833484314e+00
    7.8444339627317533e-03 -1.0183501544346312e+00
    7.8548308313936537e-03 -9.4686415294799864e-01
    7.8502048999963166e-03 -9.5843865279045937e-01
    7.8444339627317516e-03 -9.8198050606196563e-01
    7.8548308313936572e-03 -1.0561177090573837e+00
    7.8502048999963166e-03 -1.0433635967086012e+00
    7.9347443933348513e-03 -8.5839507527895209e-01
    7.8444339627317533e-03 -1.0183501544346312e+00
    7.9204646977912921e-03 -8.6909099002128087e-01
    7.9074424766415984e-03 -1.1365151414154879e+00
    7.8851000411682623e-03 -9.0176871379906121e-01
    7.9671581902299605e-03 -8.3727589708234862e-01
    7.9503015573719037e-03 -8.4779124789065852e-01
    8.0480949208160887e-03 -7.9602975216799132e-01
    8.1821007963822859e-03 -7.4605882716103944e-01
    8.0718559551140358e-03 -7.8590524799337569e-01
    8.5825576468385335e-03 -6.4993368361968173e-01
    9.4950587937077079e-03 -5.2827054379537430e-01
    1.3252281067219774e-02 -3.2769276820761623e-01
    2.0949302913588052e-02 -1.9425717247145285e-01
    1.5101059729713831e-02 -2.8005601680560199e-01
    1.3252281067219774e-02 -3.2769276820761623e-01
    1.0303275453357798e-02 -4.6177407259139952e-01
    8.9336641288399014e-03 -5.9368258892563341e-01
    8.3576733737386402e-03 -6.9748583246291562e-01
    8.3576733737386402e-03 -6.9748583246291562e-01
    8.4860629696185980e-03 -6.6885605405993853e-01
    8.0257769440076066e-03 -8.0622577482985502e-01
    8.0970963417799045e-03 -7.7584904947600175e-01
    8.0718559551140358e-03 -7.8590524799337569e-01
    8.1238552506912934e-03 -7.6585799045153369e-01
    7.8851000411682623e-03 -9.0176871379906121e-01
    7.8502048999963166e-03 -9.5843865279045937e-01
    7.8956596620546778e-03 -1.1226192464957743e+00
    8.0257769440076048e-03 -1.2403473458920842e+00
    8.0480949208160905e-03 -1.2562344526401117e+00
    7.9074424766415984e-03 -1.1365151414154879e+00
    7.8432813017949993e-03 -9.9395764860929359e-01
    7.8548308313936572e-03 -1.0561177090573837e+00
    7.8432813017949993e-03 -9.9395764860929359e-01
    7.8444339627317516e-03 -9.8198050606196563e-01
    7.8675944322702529e-03 -1.0821518523658993e+00
    7.8467408099990085e-03 -1.0307764064044154e+00
    7.9204646977912921e-03 -8.6909099002128087e-01
    7.8467408099990085e-03 -9.7014250014533199e-01
    7.8502048999963166e-03 -1.0433635967086012e+00
    7.8432813017949993e-03 -1.0060790833484314e+00
    7.8606247621301282e-03 -1.0690449676496974e+00
    7.8757491928847425e-03 -9.1287092917527690e-01
    7.8467408099990085e-03 -9.7014250014533199e-01
    8.0048684404679018e-03 -8.1649658092772603e-01
    8.0718559551140358e-03 -7.8590524799337569e-01
    8.1238552506912934e-03 -7.6585799045153369e-01
    8.0970963417799045e-03 -7.7584904947600175e-01
    8.6343612345880314e-03 -6.4051261522034852e-01
    8.3189033080770299e-03 -7.0710678118654757e-01
    8.8679807228754012e-03 -6.0302268915552726e-01
    1.1123170302790909e-02 -4.1256849850351734e-01
    1.3252281067219774e-02 -3.2769276820761623e-01
    2.5497689613617962e-02 -1.5762208124782012e-01
    1.8257820964159129e-02 -2.2573305919324013e-01
    1.3641197749745950e-02 -3.1622776601683794e-01
    1.0763405190083045e-02 -4.3249319036515504e-01
    1.0039463790395775e-02 -4.8098158341259756e-01
    9.2305204267059647e-03 -5.5634864026418673e-01
    8.7456353862766460e-03 -6.2173517018803071e-01
    8.6343612345880314e-03 -6.4051261522034852e-01
    8.3189033080770299e-03 -7.0710678118654757e-01
    8.0048684404679018e-03 -8.1649658092772603e-01
    8.2136818753594208e-03 -7.3624457537312626e-01
    8.0257769440076066e-03 -8.0622577482985502e-01
    7.9347443933348513e-03 -8.5839507527895209e-01
    7.9671581902299605e-03 -8.3727589708234862e-01
    7.8851000411682623e-03 -9.0176871379906121e-01
    7.8444339627317533e-03 -1.0183501544346312e+00
    7.8467408099990085e-03 -9.7014250014533199e-01
    7.8467408099990085e-03 -9.7014250014533199e-01
    7.8467408099990085e-03 -9.7014250014533199e-01
    7.8432813017949993e-03 -9.9395764860929359e-01
    7.8757491928847425e-03 -1.0954451150103324e+00
    7.8432813017949993e-03 -1.0060790833484314e+00
    7.8956596620546778e-03 -1.1226192464957743e+00
    7.8675944322702529e-03 -1.0821518523658993e+00
    7.8606247621301282e-03 -9.3541434669348522e-01
    7.8956596620546778e-03 -8.9077396732816860e-01
    7.8675944322702529e-03 -9.2408472786301510e-01
    7.8675944322702529e-03 -1.0821518523658993e+00
    7.8606247621301282e-03 -9.3541434669348522e-01
    7.8467408099990085e-03 -9.7014250014533199e-01
    7.8757491928847425e-03 -9.1287092917527690e-01
    8.1821007963822859e-03 -7.4605882716103944e-01
    8.3576733737386402e-03 -6.9748583246291562e-01
    8.3189033080770299e-03 -7.0710678118654757e-01
    8.3984050708276695e-03 -6.8790572443779363e-01
    8.3576733737386402e-03 -6.9748583246291562e-01
    8.9336641288399014e-03 -5.9368258892563341e-01
    9.3142974945780183e-03 -5.4700328922703634e-01
    1.1536243243422589e-02 -3.9223227027636803e-01
    1.5101059729713831e-02 -2.8005601680560199e-01
    2.5497689613617962e-02 -1.5762208124782012e-01
    2.0949302913588052e-02 -1.9425717247145285e-01
    1.4073148562335039e-02 -3.0449175980324900e-01
    1.1322326478478802e-02 -4.0245724118956472e-01
    1.0303275453357798e-02 -4.6177407259139952e-01
    9.8039215686274508e-03 -5.0000000000000000e-01
    9.4023825454559711e-03 -5.3764532919016417e-01
    9.2305204267059647e-03 -5.5634864026418673e-01
    8.7456353862766460e-03 -6.2173517018803071e-01
    8.5331590674748905e-03 -6.5938047339578698e-01
    8.3189033080770299e-03 -7.0710678118654757e-01
    8.1521749080421570e-03 -7.5592894601845462e-01
    8.1521749080421570e-03 -7.5592894601845462e-01
    8.0480949208160887e-03 -7.9602975216799132e-01
    8.0718559551140358e-03 -7.8590524799337569e-01
    8.1521749080421570e-03 -7.5592894601845462e-01
    7.8757491928847425e-03 -9.1287092917527690e-01
    7.8851000411682623e-03 -9.0176871379906121e-01
    8.0257769440076066e-03 -8.0622577482985502e-01
    7.8851000411682623e-03 -9.0176871379906121e-01
    7.8444339627317516e-03 -9.8198050606196563e-01
    7.8851000411682623e-03 -1.1089317966988455e+00
    7.9347443933348513e-03 -1.1649647450214349e+00
    7.8467408099990085e-03 -9.7014250014533199e-01
    7.8548308313936537e-03 -9.4686415294799864e-01
    7.8432813017949993e-03 -1.0060790833484314e+00
    7.8444339627317533e-03 -1.0183501544346312e+00
    7.8606247621301282e-03 -9.3541434669348522e-01
    7.8956596620546778e-03 -8.9077396732816860e-01
    7.9074424766415984e-03 -8.7988269012811959e-01
    8.3189033080770299e-03 -7.0710678118654757e-01
    8.2469708254123506e-03 -7.2648315725677892e-01
    8.3189033080770299e-03 -7.0710678118654757e-01
    8.3576733737386402e-03 -6.9748583246291562e-01
    8.2469708254123506e-03 -7.2648315725677892e-01
    8.3984050708276695e-03 -6.8790572443779363e-01
    8.8679807228754012e-03 -6.0302268915552726e-01
    9.4950587937077079e-03 -5.2827054379537430e-01
    1.2899962428114560e-02 -3.3891719470228254e-01
    1.5101059729713831e-02 -2.8005601680560199e-01
    2.9351184281715639e-02 -1.3608276348795434e-01
    2.5497689613617962e-02 -1.5762208124782012e-01
    1.5101059729713831e-02 -2.8005601680560199e-01
    1.4556276403895067e-02 -2.9244882593280086e-01
    1.2579078977878131e-02 -3.4992710611188255e-01
    1.0763405190083045e-02 -4.3249319036515504e-01
    1.0303275453357798e-02 -4.6177407259139952e-01
    9.8039215686274508e-03 -5.0000000000000000e-01
    9.1507936388847324e-03 -5.6568542494923801e-01
    9.5926382156142510e-03 -5.1887452166277093e-01
    9.2305204267059647e-03 -5.5634864026418673e-01
    8.7456353862766460e-03 -6.2173517018803071e-01
    8.3984050708276695e-03 -6.8790572443779363e-01
    8.3984050708276695e-03 -6.8790572443779363e-01
    8.2820243169713474e-03 -7.1677155906879297e-01
    8.1521749080421570e-03 -7.5592894601845462e-01
    8.1521749080421570e-03 -7.5592894601845462e-01
    7.8606247621301282e-03 -9.3541434669348522e-01
    7.8675944322702529e-03 -9.2408472786301510e-01
    7.8851000411682623e-03 -9.0176871379906121e-01
    7.9204646977912921e-03 -8.6909099002128087e-01
    7.8851000411682623e-03 -9.0176871379906121e-01
    7.8548308313936572e-03 -1.0561177090573837e+00
    7.8432813017949993e-03 -9.9395764860929359e-01
    7.8548308313936537e-03 -9.4686415294799864e-01
    7.9074424766415984e-03 -8.7988269012811959e-01
    7.9204646977912921e-03 -8.6909099002128087e-01
    7.9204646977912921e-03 -8.6909099002128087e-01
    7.9503015573719037e-03 -8.4779124789065852e-01
    7.9074424766415984e-03 -8.7988269012811959e-01
    8.2469708254123506e-03 -7.2648315725677892e-01
    8.0480949208160887e-03 -7.9602975216799132e-01
    8.1821007963822859e-03 -7.4605882716103944e-01
    8.1821007963822859e-03 -7.4605882716103944e-01
    8.4860629696185980e-03 -6.6885605405993853e-01
    8.8679807228754012e-03 -6.0302268915552726e-01
    9.3142974945780183e-03 -5.4700328922703634e-01
    1.1766650944097630e-02 -3.8188130791298669e-01
    1.2899962428114560e-02 -3.3891719470228254e-01
    1.6435310552965831e-02 -2.5400025400038101e-01
    3.5837273716698967e-02 -1.1076975512434226e-01
    1.9456566389902646e-02 -2.1048467276349228e-01
    1.8257820964159129e-02 -2.2573305919324013e-01
    1.5721249524260256e-02 -2.6726124191242434e-01
    1.4073148562335039e-02 -3.0449175980324900e-01
    1.1766650944097630e-02 -3.8188130791298669e-01
    1.0600402076495872e-02 -4.4232586846469141e-01
    1.1322326478478802e-02 -4.0245724118956472e-01
    1.0447309589598372e-02 -4.5208357860443865e-01
    9.9184304916685642e-03 -4.9051147158797259e-01
    1.0447309589598372e-02 -4.5208357860443865e-01
    9.5926382156142510e-03 -5.1887452166277093e-01
    8.5331590674748905e-03 -6.5938047339578698e-01
    8.3576733737386402e-03 -6.9748583246291562e-01
    8.4860629696185980e-03 -6.6885605405993853e-01
    8.3189033080770299e-03 -7.0710678118654757e-01
    8.2820243169713474e-03 -7.1677155906879297e-01
    8.1821007963822859e-03 -7.4605882716103944e-01
    7.9204646977912921e-03 -8.6909099002128087e-01
    7.9204646977912921e-03 -8.6909099002128087e-01
    7.8548308313936537e-03 -9.4686415294799864e-01
    7.8432813017949993e-03 -9.9395764860929359e-01
    7.8606247621301282e-03 -9.3541434669348522e-01
    8.0048684404679018e-03 -8.1649658092772603e-01
    7.8757491928847425e-03 -9.1287092917527690e-01
    7.9503015573719037e-03 -8.4779124789065852e-01
    8.0257769440076066e-03 -8.0622577482985502e-01
    8.5331590674748905e-03 -6.5938047339578698e-01
    8.3984050708276695e-03 -6.8790572443779363e-01
    8.2469708254123506e-03 -7.2648315725677892e-01
    8.1821007963822859e-03 -7.4605882716103944e-01
    8.1238552506912934e-03 -7.6585799045153369e-01
    8.6343612345880314e-03 -6.4051261522034852e-01
    8.9336641288399014e-03 -5.9368258892563341e-01
    9.0025711592416728e-03 -5.8434870979077769e-01
    9.3142974945780183e-03 -5.4700328922703634e-01
    1.0763405190083045e-02 -4.3249319036515504e-01
    1.2579078977878131e-02 -3.4992710611188255e-01
    1.5721249524260256e-02 -2.6726124191242434e-01
    1.7268722469176063e-02 -2.4019223070763068e-01
    2.9351184281715639e-02 -1.3608276348795434e-01
    2.5497689613617962e-02 -1.5762208124782012e-01
    2.2876984097211832e-02 -1.7677669529663689e-01
    1.8257820964159129e-02 -2.2573305919324013e-01
    1.7268722469176063e-02 -2.4019223070763068e-01
    1.4073148562335039e-02 -3.0449175980324900e-01
    1.1322326478478802e-02 -4.0245724118956472e-01
    1.1536243243422589e-02 -3.9223227027636803e-01
    1.2015580705573944e-02 -3.7139067635410372e-01
    1.0447309589598372e-02 -4.5208357860443865e-01
    1.0167548487649704e-02 -4.7140452079103173e-01
    1.0600402076495872e-02 -4.4232586846469141e-01
    9.9184304916685642e-03 -4.9051147158797259e-01
    9.6954653238648346e-03 -5.0945263247217043e-01
    8.8679807228754012e-03 -6.0302268915552726e-01
    8.6343612345880314e-03 -6.4051261522034852e-01
    8.6343612345880314e-03 -6.4051261522034852e-01
    8.8053552845146921e-03 -6.1237243569579447e-01
    8.1238552506912934e-03 -7.6585799045153369e-01
    7.9671581902299605e-03 -8.3727589708234862e-01
    7.8956596620546778e-03 -8.9077396732816860e-01
    7.8548308313936537e-03 -9.4686415294799864e-01
    7.8606247621301282e-03 -9.3541434669348522e-01
    7.9204646977912921e-03 -8.6909099002128087e-01
    8.0048684404679018e-03 -8.1649658092772603e-01
    7.9347443933348513e-03 -8.5839507527895209e-01
    8.2469708254123506e-03 -7.2648315725677892e-01
    8.4860629696185980e-03 -6.6885605405993853e-01
    8.1821007963822859e-03 -7.4605882716103944e-01
    8.2136818753594208e-03 -7.3624457537312626e-01
    8.3984050708276695e-03 -6.8790572443779363e-01
    8.4860629696185980e-03 -6.6885605405993853e-01
    9.0025711592416728e-03 -5.8434870979077769e-01
    9.3142974945780183e-03 -5.4700328922703634e-01
    9.2305204267059647e-03 -5.5634864026418673e-01
    1.1322326478478802e-02 -4.0245724118956472e-01
    1.2579078977878131e-02 -3.4992710611188255e-01
    1.4556276403895067e-02 -2.9244882593280086e-01
    1.5721249524260256e-02 -2.6726124191242434e-01
    2.0949302913588052e-02 -1.9425717247145285e-01
    3.5837273716698967e-02 -1.1076975512434226e-01
    2.5497689613617962e-02 -1.5762208124782012e-01
    2.9351184281715639e-02 -1.3608276348795434e-01
    2.2876984097211832e-02 -1.7677669529663689e-01
    1.9456566389902646e-02 -2.1048467276349228e-01
    1.6435310552965831e-02 -2.5400025400038101e-01
    1.2579078977878131e-02 -3.4992710611188255e-01
    1.2015580705573944e-02 -3.7139067635410372e-01
    1.2579078977878131e-02 -3.4992710611188255e-01
    1.2285434912837746e-02 -3.6074504334969015e-01
    1.1322326478478802e-02 -4.0245724118956472e-01
    1.1766650944097630e-02 -3.8188130791298669e-01
    1.0303275453357798e-02 -4.6177407259139952e-01
    1.0763405190083045e-02 -4.3249319036515504e-01
    1.0763405190083045e-02 -4.3249319036515504e-01
    1.0167548487649704e-02 -4.7140452079103173e-01
    9.1507936388847324e-03 -5.6568542494923801e-01
    8.7456353862766460e-03 -6.2173517018803071e-01
    8.8679807228754012e-03 -6.0302268915552726e-01
    8.1521749080421570e-03 -7.5592894601845462e-01
    8.0718559551140358e-03 -7.8590524799337569e-01
    8.0718559551140358e-03 -7.8590524799337569e-01
    8.5825576468385335e-03 -6.4993368361968173e-01
    8.2469708254123506e-03 -7.2648315725677892e-01
    8.1521749080421570e-03 -7.5592894601845462e-01
    8.0970963417799045e-03 -7.7584904947600175e-01
    8.4860629696185980e-03 -6.6885605405993853e-01
    8.6343612345880314e-03 -6.4051261522034852e-01
    8.6886805702475357e-03 -6.3111416142070742e-01
    9.2305204267059647e-03 -5.5634864026418673e-01
    9.1507936388847324e-03 -5.6568542494923801e-01
    8.8679807228754012e-03 -6.0302268915552726e-01
    9.4950587937077079e-03 -5.2827054379537430e-01
    1.0039463790395775e-02 -4.8098158341259756e-01
    1.2015580705573944e-02 -3.7139067635410372e-01
    1.5101059729713831e-02 -2.8005601680560199e-01
    1.6435310552965831e-02 -2.5400025400038101e-01
    1.9456566389902646e-02 -2.1048467276349228e-01
    2.5497689613617962e-02 -1.5762208124782012e-01
    3.5837273716698967e-02 -1.1076975512434226e-01
    5.0526805316901964e-02 -7.8086880944303036e-02
    3.5837273716698967e-02 -1.1076975512434226e-01
    2.9351184281715639e-02 -1.3608276348795434e-01
    3.5837273716698967e-02 -1.1076975512434226e-01
    2.0949302913588052e-02 -1.9425717247145285e-01
    2.0949302913588052e-02 -1.9425717247145285e-01
    2.0949302913588052e-02 -1.9425717247145285e-01
    1.5721249524260256e-02 -2.6726124191242434e-01
    1.3252281067219774e-02 -3.2769276820761623e-01
    1.3252281067219774e-02 -3.2769276820761623e-01
    1.2285434912837746e-02 -3.6074504334969015e-01
    1.2015580705573944e-02 -3.7139067635410372e-01
    1.2285434912837746e-02 -3.6074504334969015e-01
    1.1123170302790909e-02 -4.1256849850351734e-01
    1.1536243243422589e-02 -3.9223227027636803e-01
    1.0303275453357798e-02 -4.6177407259139952e-01
    1.0303275453357798e-02 -4.6177407259139952e-01
    9.0748821293902340e-03 -5.7501753128954480e-01
    8.4411743428544749e-03 -6.7836346537121417e-01
    9.1507936388847324e-03 -5.6568542494923801e-01
    9.0748821293902340e-03 -5.7501753128954480e-01
    8.2469708254123506e-03 -7.2648315725677892e-01
    8.9336641288399014e-03 -5.9368258892563341e-01
    8.2820243169713474e-03 -7.1677155906879297e-01
    8.8679807228754012e-03 -6.0302268915552726e-01
    8.2469708254123506e-03 -7.2648315725677892e-01
    8.8053552845146921e-03 -6.1237243569579447e-01
    9.1507936388847324e-03 -5.6568542494923801e-01
    9.4950587937077079e-03 -5.2827054379537430e-01
    9.9184304916685642e-03 -4.9051147158797259e-01
    9.5926382156142510e-03 -5.1887452166277093e-01
    9.3142974945780183e-03 -5.4700328922703634e-01
    1.0167548487649704e-02 -4.7140452079103173e-01
    1.2899962428114560e-02 -3.3891719470228254e-01
    1.4556276403895067e-02 -2.9244882593280086e-01
    1.9456566389902646e-02 -2.1048467276349228e-01
    1.9456566389902646e-02 -2.1048467276349228e-01
    2.0949302913588052e-02 -1.9425717247145285e-01
    2.9351184281715639e-02 -1.3608276348795434e-01
    5.0526805316901964e-02 -7.8086880944303036e-02
    5.0526805316901964e-02 -7.8086880944303036e-02
    3.5837273716698967e-02 -1.1076975512434226e-01
    3.5837273716698967e-02 -1.1076975512434226e-01
    2.9351184281715639e-02 -1.3608276348795434e-01
    5.0526805316901964e-02 -7.8086880944303036e-02
    2.9351184281715639e-02 -1.3608276348795434e-01
    2.5497689613617962e-02 -1.5762208124782012e-01
    2.2876984097211832e-02 -1.7677669529663689e-01
    2.0949302913588052e-02 -1.9425717247145285e-01
    1.6435310552965831e-02 -2.5400025400038101e-01
    1.5101059729713831e-02 -2.8005601680560199e-01
    1.4073148562335039e-02 -3.0449175980324900e-01
    1.4073148562335039e-02 -3.0449175980324900e-01
    1.4556276403895067e-02 -2.9244882593280086e-01
    1.5721249524260256e-02 -2.6726124191242434e-01
    1.2579078977878131e-02 -3.4992710611188255e-01
    1.2285434912837746e-02 -3.6074504334969015e-01
    1.2899962428114560e-02 -3.3891719470228254e-01
    1.2899962428114560e-02 -3.3891719470228254e-01
    1.1766650944097630e-02 -3.8188130791298669e-01
    8.7456353862766460e-03 -6.2173517018803071e-01
    8.7456353862766460e-03 -6.2173517018803071e-01
    9.9184304916685642e-03 -4.9051147158797259e-01
    9.1507936388847324e-03 -5.6568542494923801e-01
    9.0748821293902340e-03 -5.7501753128954480e-01
    9.9184304916685642e-03 -4.9051147158797259e-01
    1.0039463790395775e-02 -4.8098158341259756e-01
    1.0167548487649704e-02 -4.7140452079103173e-01
    1.0167548487649704e-02 -4.7140452079103173e-01
    1.0600402076495872e-02 -4.4232586846469141e-01
    1.0600402076495872e-02 -4.4232586846469141e-01
    1.2579078977878131e-02 -3.4992710611188255e-01
    1.3252281067219774e-02 -3.2769276820761623e-01
    1.8257820964159129e-02 -2.2573305919324013e-01
    1.9456566389902646e-02 -2.1048467276349228e-01
    2.2876984097211832e-02 -1.7677669529663689e-01
    2.9351184281715639e-02 -1.3608276348795434e-01
    2.9351184281715639e-02 -1.3608276348795434e-01
    2.9351184281715639e-02 -1.3608276348795434e-01
    3.5837273716698967e-02 -1.1076975512434226e-01</input_scale>
  <output_scale>
    1.0526315789473684e+00 0.</output_scale>
  <inv_output_scale>
    9.4999999999999996e-01 0.</inv_output_scale>
  <weights>
    <_>
      1.1816017641013150e-01 4.4937816080852913e-02
      3.6403560657892020e-02 1.3881739098538884e-02
      -3.3434648048230944e-02 8.7041617072596104e-03
      -1.2111078307523211e-02 -2.9506109981467871e-02
      -3.8917730271072377e-03 5.3502583112729096e-02
      1.1237126846251399e-02 2.9408843557903044e-02
      1.2846725502652029e-02 -2.0000703105547819e-02
      -1.0042625177966247e-03 1.0347501591968402e-02
      -2.2700573076584814e-03 2.5765097247551553e-02
      -5.0879183766128981e-02 4.9963835130498256e-02
      -2.7604276399435839e-02 4.6952848889618990e-03
      2.4728993328123026e-03 3.8545770532082364e-02
      1.0062847664528866e-02 -4.8720643755308830e-03
      4.8983915067942661e-02 -5.0867412480091349e-02
      1.4794291628622806e-02 1.1312923337682175e-02
      -3.8802793891811314e-02 -4.7801707144193510e-02
      4.0892979119928848e-02 1.5873130881206655e-02
      2.2462609435601837e-02 5.7365996411766285e-03
      3.7826628524307349e-02 1.7619729708291856e-02
      -4.1088589841315290e-02 -3.5107250184923978e-02
      1.2723844038582335e-01 2.9149055336807322e-02
      2.4212908677463292e-02 1.9235135407879269e-02
      -2.5397640370130554e-02 1.3672601769946608e-02
      -1.9912780805086707e-02 -2.4696437492102825e-02
      -8.6295519194895722e-03 3.4302657741877490e-02
      1.8210506869049538e-02 2.6444309908702619e-02
      1.9529605727038990e-02 -2.0966458559408669e-02
      -8.4393836876469827e-03 1.8832953887568043e-02
      -9.3435656292443978e-03 2.3958081990769920e-02
      -3.3296087628116804e-02 3.3011777764964244e-02
      -2.4807110667558620e-02 1.3281926477584654e-02
      9.3109716571273017e-03 2.6097709450748071e-02
      1.7969199940563268e-02 -1.2431984355060634e-02
      3.1490642316410918e-02 -3.3179059498595585e-02
      1.9458476893622390e-02 1.7738357666471968e-02
      -2.5635710060993969e-02 -3.0438066784218287e-02
      2.4256201423328617e-02 2.0027540647140889e-02
      2.1986527737266861e-02 1.2136923747039292e-02
      2.6315257473355780e-02 2.0137838757091277e-02
      -2.8147587634956832e-02 -2.4921299000525386e-02
      5.9740658550417963e-02 -3.9060274527385227e-03
      -2.6644659398498663e-03 1.2272700016453324e-02
      -1.0932406200686781e-03 1.4272658362106191e-02
      -1.3429310131391967e-02 -5.6805775306321303e-03
      -1.0877545031940579e-02 -5.0299424360807400e-03
      1.3326432162316564e-02 5.1985782463673993e-03
      1.4411665736505153e-02 -1.1346591008226593e-02
      -9.0216122305433188e-03 1.3134572713537020e-02
      -9.2878185631511262e-03 9.2346924225764765e-03
      4.0995575545195138e-03 -3.9487977922071883e-03
      -6.6723619630219451e-03 1.2893308383668400e-02
      9.3631845532684051e-03 -1.4329001531197059e-03
      1.3325517583153243e-02 -1.0543551880619338e-02
      -4.3195143195098101e-03 3.6514304626611618e-03
      1.4003781551810559e-02 1.3495510056493491e-02
      4.6888862889067177e-03 3.3508192941577577e-03
      -5.8104984659760805e-03 1.1488446826379343e-02
      1.0307580578544542e-02 1.3198564066469866e-02
      -2.1675312893577651e-03 1.2064294997338529e-02
      2.6968313091900323e-03 1.0553186488894640e-03
      -5.6608375907186883e-04 9.8280077323760939e-04
      5.8674145612284837e-04 -2.3404810589499834e-05
      5.1210201631407039e-04 -3.6144653169046793e-04
      1.0328318839991015e-03 -7.3189054801951596e-04
      3.4695438364743398e-04 -4.4022363701253322e-04
      1.6853111414949609e-04 5.4427262316709827e-04
      4.0928371062340927e-04 -5.0198130336476655e-04
      -5.3837339186742325e-04 5.4130025805742177e-04
      7.2451646606574787e-04 7.2928225531841261e-04
      -8.9596085780997226e-04 -1.0633593111381934e-03
      4.7189397411756106e-04 -4.9248951343733988e-04
      9.9480067882329781e-04 -2.5035076196965137e-04
      1.2025051274339787e-03 7.9488783461768411e-05
      -2.3343960668910767e-04 -8.4511454584403696e-04
      1.2165178234286608e-03 4.8608291870555205e-04
      8.1330602239910749e-04 1.0184280383176761e-03
      1.0704245511725459e-03 -7.2497964613305542e-04
      4.9328224232276271e-04 1.8830881034114335e-04
      9.4414942372186774e-04 6.1239348253836216e-04
      8.3569334300787762e-04 -7.7516820246783386e-04
      -5.8744320939639251e-02 -2.9776878710706684e-03
      -2.4686098111918191e-03 -7.1531827310081769e-03
      1.7008939643521261e-03 -9.7403749549410078e-03
      8.0635821286468394e-03 4.1865863404333195e-03
      8.3560754983170414e-03 -5.2431564764670539e-03
      -7.8836309768202974e-03 -4.3771031928923447e-03
      -6.6563860613182216e-03 3.5283071042382197e-03
      7.4202685244105695e-03 -9.4079656815793146e-03
      9.9023065583650205e-03 -2.8463935620354811e-03
      5.4212050994298672e-03 -5.4489536514679953e-03
      2.8008135344625164e-03 -1.0699894864942628e-02
      -9.7427272070329911e-03 -1.7648862311647672e-03
      -7.7807991376036643e-03 1.0721327162461335e-02
      -4.5396773131270995e-03 4.8020778485940588e-03
      -7.8629198071277061e-03 -8.5253867826559186e-03
      4.1781670714501869e-03 4.6915896694241181e-03
      -5.4658320600893609e-03 -6.0638631554345394e-03
      -4.4252598517642433e-03 -9.4449955450960962e-03
      -2.7750557622528362e-03 -4.0248879821428241e-03
      2.7960540813162216e-03 3.1528363351776309e-03
      -5.8318556773672654e-02 -4.3486805235237146e-03
      -1.6178427410375308e-03 -6.5232540771980943e-03
      2.8449801831021779e-03 -1.1089775977733581e-02
      7.5527540650816866e-03 3.7290757623070978e-03
      8.5089406486392478e-03 -5.0289822244754855e-03
      -9.1242553075090820e-03 -4.7853821767408272e-03
      -6.4625110504562128e-03 3.1221097053370727e-03
      9.0198457959724636e-03 -8.9496674611464766e-03
      9.2025630712262631e-03 -4.2439874443758602e-03
      3.4975875844833284e-03 -5.6007477398139112e-03
      2.8103978129504167e-03 -9.3093103777945850e-03
      -8.3151560454703833e-03 -1.6520420050876103e-03
      -9.7711987514378842e-03 1.0026012726559683e-02
      -2.9381047838967474e-03 4.0456887242874837e-03
      -7.3689831092628418e-03 -8.2505518686251840e-03
      3.5311834244361848e-03 4.5929226508087638e-03
      -3.9887946874101231e-03 -5.1648423953923753e-03
      -3.2155183158128109e-03 -9.5388218140299748e-03
      -1.9961628290750262e-03 -4.0380947101523708e-03
      3.8517046375042174e-03 1.7271837801938726e-03
      2.4773376496405475e-01 9.6258384935478281e-02
      8.0933566612267763e-02 2.9736697691644803e-02
      -7.2894661297719168e-02 1.1108540383487089e-02
      -2.5918189310986894e-02 -6.4228585327319093e-02
      -2.6846773485993233e-03 1.1687707174372344e-01
      2.2309656961210463e-02 6.3087474545848066e-02
      2.4094069392519020e-02 -4.0532625983353950e-02
      -5.1239364380000438e-05 2.0910466728044055e-02
      -5.1920620483840302e-03 5.1513639222203450e-02
      -1.1479739938391047e-01 1.1568369614740832e-01
      -5.9250894285301385e-02 9.0899375184246220e-03
      4.5174151428606490e-03 7.9952261991481796e-02
      1.8468310955282209e-02 -4.8096245178981924e-03
      1.0253132196763695e-01 -1.0479208320282109e-01
      2.6521170619695750e-02 2.0893353134008495e-02
      -8.4788813939411123e-02 -1.0015828438444205e-01
      1.1041700382289049e-01 2.9941308807669438e-02
      4.6124665935320178e-02 8.3819397097679334e-03
      7.8625341066134655e-02 3.6991462801720290e-02
      -9.1319686956835344e-02 -7.4497233249094477e-02
      2.3494501820029653e-01 7.6271542852772684e-02
      6.2268515136764242e-02 3.0838799495619882e-02
      -5.8202372059396580e-02 1.8541636688533671e-02
      -2.7916979151812665e-02 -5.0505770696066529e-02
      -7.7168307739011932e-03 9.2733282687272794e-02
      2.8325728532001521e-02 5.1561630542950813e-02
      2.7282177275927036e-02 -3.5534892617168100e-02
      -5.2256849541136643e-03 2.4209594114308373e-02
      -1.0606968628865999e-02 4.3455596421507432e-02
      -9.1429460677760199e-02 9.1737920390114247e-02
      -4.7469833013907427e-02 1.3164797536766243e-02
      9.4605297296947374e-03 6.4568877172444111e-02
      2.4473463158180629e-02 -1.2863014921449091e-02
      8.0194431642104588e-02 -8.4762462674776551e-02
      3.0746842780115091e-02 2.5373944814068256e-02
      -6.8720656508260189e-02 -8.0546028470804248e-02
      8.8000471507418854e-02 3.1828218308720693e-02
      3.8467573892260430e-02 1.3910372199752703e-02
      6.3743264647212791e-02 3.4226237203109175e-02
      -7.0633643312070782e-02 -5.8842064107464453e-02
      1.5011696998171928e-01 5.7381691483410623e-02
      4.6805090127756070e-02 1.9748706181626049e-02
      -4.3373723500889944e-02 9.8693362088308218e-03
      -1.7934616276705881e-02 -3.8374488579798728e-02
      -3.8043128563546237e-03 6.7840041011090604e-02
      1.5109946434760125e-02 3.7452176493901874e-02
      1.6386014063026172e-02 -2.4297793221457659e-02
      -2.2215436167020725e-03 1.3658078427862600e-02
      -4.1635941312101786e-03 2.9382432557706256e-02
      -6.8112589391835662e-02 6.7043195141077760e-02
      -3.4454716214589197e-02 5.5585628781470954e-03
      4.8354203618733941e-03 4.6198772036749838e-02
      1.3515920242678682e-02 -5.8073655845695587e-03
      6.0727120218069988e-02 -6.2393044209185747e-02
      1.6673873099055287e-02 1.5723675481772423e-02
      -5.0258481502517077e-02 -5.8881284040520510e-02
      6.5181899380870170e-02 1.9561236813618817e-02
      2.4969292789297885e-02 6.1303446987322451e-03
      4.7793796778910540e-02 2.0783368428327082e-02
      -5.3926843396421280e-02 -4.3050707497979686e-02
      8.2505694681710345e-02 4.8549460794135892e-02
      4.1201888386015705e-02 9.8117269736942205e-03
      -3.6290348478485376e-02 -1.8367006477405974e-03
      -8.0634921766541256e-03 -3.1426588631841029e-02
      3.4373329417284920e-03 6.0471240781039631e-02
      6.5219167777866034e-03 3.1368672863355027e-02
      6.4997413228202921e-03 -1.5434741364612734e-02
      6.8010479136722240e-03 3.4700160586812702e-03
      4.6953353351002246e-03 2.4529386935182241e-02
      -5.8207153788104350e-02 5.9771564517318583e-02
      -2.8083477992774750e-02 -3.0931192718742701e-03
      -5.6209798206759412e-03 4.1140224164878628e-02
      5.1173017593205599e-03 4.7186998028557496e-03
      5.2379889127970085e-02 -5.3588771016621344e-02
      8.6914797404330155e-03 5.0563238081551571e-03
      -4.3166063874985956e-02 -5.2177572064428634e-02
      5.6068999270078537e-02 1.1546777148963783e-02
      1.9075013069277579e-02 -4.9501838530435355e-03
      4.0970606343649130e-02 1.4625106284889482e-02
      -4.6960494236318526e-02 -3.8093113738356235e-02
      4.0676102272020953e-01 1.0857263865669015e-02
      2.5062009287611948e-02 1.8557703513016690e-02
      -2.1004669421372812e-02 4.8821518678785784e-03
      -1.5989805872379949e-02 -2.1392207877639638e-02
      -1.5263833400376518e-03 9.5002441738534591e-03
      1.3778554504482518e-02 2.0169140879165715e-02
      1.4822351448134763e-02 -2.8626986603081359e-02
      -1.7715394141271806e-03 9.7100333783040633e-03
      -3.1478178875500602e-03 3.0468294303264955e-02
      -3.5553147934770282e-02 1.3713982930478812e-02
      -2.3232521661038737e-02 4.2438706356425484e-03
      3.5309118606164603e-03 2.5861111527638647e-02
      1.0179426656325281e-02 -1.8976795667853777e-03
      1.4305041605481928e-02 -3.0498597079087555e-02
      1.6794891741893726e-02 1.1167597595874120e-02
      -2.5100857164527143e-02 -4.3414157429293573e-03
      3.1981972366083765e-02 2.0159452842034301e-02
      3.0327652913270334e-02 2.0229282749761484e-03
      2.5633158187212877e-02 2.4781643807201638e-02
      -2.7043789254768871e-02 -2.3062845294347687e-02
      4.1125890720999159e-01 2.5063274474061193e-02
      3.5080170782620275e-02 2.2989192852473916e-02
      -3.2562423070930782e-02 8.2111446110065267e-03
      -2.0209778276500910e-02 -2.8815432293493547e-02
      -4.9517929939648063e-03 2.4271836830112390e-02
      1.8129218156042074e-02 2.8995951297889271e-02
      1.9927140820262267e-02 -3.5363378724769128e-02
      -4.4778504200097893e-03 1.6499357979539657e-02
      -6.3398849059147248e-03 3.8758507577567554e-02
      -4.6948307584514161e-02 3.0209583373593883e-02
      -3.0324814952062185e-02 7.3062931118157053e-03
      4.1411088593480312e-03 3.5607712501743043e-02
      1.5767301028765980e-02 -5.2476177494378135e-03
      2.8740392963079450e-02 -4.3977031000755326e-02
      2.2329934625354524e-02 1.5082513766369626e-02
      -3.4464777031789934e-02 -1.8282585745859139e-02
      4.3195884825270141e-02 2.4525477866309962e-02
      3.7820993403612654e-02 6.3834157584970706e-03
      3.5220123024709532e-02 2.7615773134208214e-02
      -3.6321097339414500e-02 -3.2031423074856659e-02
      7.1797356167495260e-02 1.2673189313292138e-02
      2.7888962956994792e-02 8.3714641756901711e-03
      -2.5474149962186710e-02 -3.3836728285516083e-03
      -4.8071273196309064e-03 -2.3481723796233145e-02
      4.6519309504001408e-03 1.1367328972106256e-02
      2.3499492378772574e-03 2.5283948730918354e-02
      3.5580742139729948e-03 -1.3834658298162715e-02
      4.1762143812483794e-03 2.2538044598969490e-03
      2.3394743590594942e-03 2.0793199362925775e-02
      -4.1381339889604185e-02 1.8218062133436783e-02
      -2.2425386091500257e-02 -4.0821137058047853e-03
      -2.9318371195261252e-03 2.9570804516392494e-02
      6.9513788112291061e-04 3.3473995166290729e-03
      1.8064088822888447e-02 -3.4990566373124678e-02
      5.8241368506236684e-03 1.8783984249968926e-03
      -2.9446008752997518e-02 -6.7585158995373462e-03
      4.0017389915495104e-02 8.3175172180677669e-03
      1.7382004925201196e-02 -3.7946864018231804e-03
      2.8187571614410756e-02 1.1184657624604678e-02
      -2.9530114516057752e-02 -2.8328428792479179e-02
      2.3252746529145329e-01 5.9553398175807647e-02
      6.4349211737113804e-02 2.5384137092664384e-02
      -5.7646881104116962e-02 1.0922501663933975e-02
      -2.3260062898622431e-02 -4.9500416759139715e-02
      -4.9812450527348629e-03 6.1097651459160178e-02
      2.0841567697543917e-02 4.9758674853810893e-02
      2.3243024417975534e-02 -3.4607170806318109e-02
      -1.9098989890194429e-03 1.8292234888038439e-02
      -6.3228774911747972e-03 4.1741138986503598e-02
      -9.0056224611605673e-02 6.8763720905949732e-02
      -4.8705155227460155e-02 9.3453392585891061e-03
      4.5281804622167281e-03 6.4849829711097179e-02
      1.8537360560152684e-02 -7.1929493017481522e-03
      6.6367050491096063e-02 -7.8794396365375274e-02
      2.4236598245082643e-02 1.9241076096452522e-02
      -6.7123822597062052e-02 -5.6222073972380590e-02
      9.2536625858147703e-02 2.7618371393443305e-02
      3.7195383522763713e-02 7.5379251414128086e-03
      6.1815958774644138e-02 3.0364121990735710e-02
      -7.1249809217588542e-02 -5.9568936743305864e-02
      6.7462706739685585e-01 9.2345139375927060e-02
      8.8758280203716969e-02 5.6805941575225158e-02
      -8.2345534804241310e-02 3.2203709268102329e-02
      -5.1069829765586688e-02 -7.4119669751475312e-02
      -1.9544414070703689e-02 1.0371108675950128e-01
      4.8813220627376384e-02 7.4798986791230940e-02
      5.1546946257762835e-02 -6.9281681826628097e-02
      -1.7047366592028521e-02 4.4218389855305594e-02
      -2.1149790544473548e-02 7.8186130958743841e-02
      -1.2750583379828462e-01 1.0757138800534601e-01
      -7.2947593448288647e-02 2.6689327807637473e-02
      2.0474479193430876e-02 9.1274014529384814e-02
      4.3288617818618383e-02 -2.3601877692642225e-02
      1.0093466917646239e-01 -1.1755275747828484e-01
      5.3322477881902607e-02 4.5021197867578765e-02
      -9.4716706099961287e-02 -8.8924264660415295e-02
      1.2826679446667447e-01 5.9199149372156368e-02
      7.4084411944787376e-02 2.4721738729207569e-02
      8.8485932066164091e-02 6.5261449181981984e-02
      -1.0101446226610004e-01 -8.5601094295373784e-02
      2.2380607214130785e-01 4.0134764035643686e-02
      5.5156735986869737e-02 2.2841739554796306e-02
      -5.2566416349882877e-02 8.8993378498081633e-03
      -2.0942087683016284e-02 -4.7202636743128155e-02
      -3.3189839633693320e-03 4.0204367854696783e-02
      1.8990092121225589e-02 4.5941114981107957e-02
      2.0893827337305076e-02 -3.2374076780870294e-02
      4.0522654583676301e-04 1.5351827748265054e-02
      -2.8432238286779069e-03 3.9124581735672737e-02
      -5.7360074492095840e-02 4.2025947596910244e-02
      -4.4249288884623900e-02 6.8453717654218165e-03
      1.6314724078782359e-03 5.6136805098902155e-02
      1.5054993716878866e-02 -4.7621357458147986e-03
      4.3112690299394407e-02 -4.9414985151602427e-02
      2.3304101077209510e-02 1.6111039701702187e-02
      -5.5421839295631180e-02 -3.5916544564823114e-02
      4.7675706369589309e-02 2.5787322732422530e-02
      3.5202168955090471e-02 4.6596251708179602e-03
      5.5816718164719073e-02 2.9440782810649008e-02
      -5.1734495156357620e-02 -5.3751695869025319e-02
      2.1403753985522431e-01 6.5924725284858043e-02
      7.6276558125311367e-02 1.9981958499153168e-02
      -6.6099415028391020e-02 -2.8826155739967805e-03
      -1.5522529639977307e-02 -5.7406888389342360e-02
      7.2844145411342792e-03 6.4902667665095407e-02
      1.1166827692528983e-02 5.6564446170193225e-02
      1.4471994035355734e-02 -3.0674305230771689e-02
      8.5473778318603637e-03 9.5363325360212133e-03
      7.3148316207855410e-03 4.5277695713024382e-02
      -8.1726629451945795e-02 7.0288002132473493e-02
      -5.1443403562435763e-02 -5.5827235033554731e-03
      -7.9232738986575232e-03 7.4794288127025182e-02
      8.3690285549842501e-03 5.4541963045884184e-03
      6.8357783511193079e-02 -7.4926878771138836e-02
      1.6575473126635494e-02 1.0238249756832679e-02
      -7.7089550566672285e-02 -6.1148916738014807e-02
      7.4902143465332374e-02 2.0742745281358058e-02
