<?xml version="1.0"?>
<opencv_storage>
<shapeML type_id="opencv-ml-ann-mlp">
  <layer_sizes type_id="opencv-matrix">
    <rows>1</rows>
    <cols>3</cols>
    <dt>i</dt>
    <data>
      1600 40 1</data></layer_sizes>
  <activation_function>SIGMOID_SYM</activation_function>
  <f_param1>5.9999999999999998e-01</f_param1>
  <f_param2>1.</f_param2>
  <min_val>-9.4999999999999996e-01</min_val>
  <max_val>9.4999999999999996e-01</max_val>
  <min_val1>-9.7999999999999998e-01</min_val1>
  <max_val1>9.7999999999999998e-01</max_val1>
  <training_params>
    <train_method>BACKPROP</train_method>
    <dw_scale>1.0000000000000001e-01</dw_scale>
    <moment_scale>1.0000000000000001e-01</moment_scale>
    <term_criteria><epsilon>9.9999999747524271e-07</epsilon>
      <iterations>4000</iterations></term_criteria></training_params>
  <input_scale>
    5.0068190514013448e-02 -7.8811040623910061e-02
    3.5514020819114304e-02 -1.1180339887498948e-01
    5.0068190514013448e-02 -7.8811040623910061e-02 1. 0.
    5.0068190514013448e-02 -7.8811040623910061e-02
    5.0068190514013448e-02 -7.8811040623910061e-02
    3.5514020819114304e-02 -1.1180339887498948e-01
    2.9088119424428259e-02 -1.3736056394868901e-01
    2.2674619384356168e-02 -1.7845765256206245e-01
    2.0765237838160665e-02 -1.9611613513818407e-01
    1.9286790587542048e-02 -2.1251185925162072e-01
    1.7120161767270561e-02 -2.4253562503633294e-01
    2.0765237838160665e-02 -1.9611613513818407e-01
    1.8099620967118965e-02 -2.2792115291927587e-01
    1.8099620967118965e-02 -2.2792115291927587e-01
    1.8099620967118965e-02 -2.2792115291927587e-01
    1.6294950297823036e-02 -2.5649458802128855e-01
    1.4434775165622166e-02 -2.9537826959282393e-01
    1.3529150788234022e-02 -3.1943828249996997e-01
    1.1038998391256898e-02 -4.1702882811414949e-01
    9.4327497145561545e-03 -5.3452248382484868e-01
    1.0683626728176727e-02 -4.3723731609760308e-01
    1.2187931786629649e-02 -3.6450944139642377e-01
    1.3956610505201370e-02 -3.0756234261462279e-01
    1.4434775165622166e-02 -2.9537826959282393e-01
    1.6294950297823036e-02 -2.5649458802128855e-01
    2.2674619384356168e-02 -1.7845765256206245e-01
    1.7120161767270561e-02 -2.4253562503633294e-01
    1.9286790587542048e-02 -2.1251185925162072e-01
    2.9088119424428259e-02 -1.3736056394868901e-01
    2.9088119424428259e-02 -1.3736056394868901e-01
    2.2674619384356168e-02 -1.7845765256206245e-01
    2.0765237838160665e-02 -1.9611613513818407e-01
    3.5514020819114304e-02 -1.1180339887498948e-01
    5.0068190514013448e-02 -7.8811040623910061e-02
    3.5514020819114304e-02 -1.1180339887498948e-01
    3.5514020819114304e-02 -1.1180339887498948e-01
    5.0068190514013448e-02 -7.8811040623910061e-02 1. 0. 1. 0.
    5.0068190514013448e-02 -7.8811040623910061e-02
    3.5514020819114304e-02 -1.1180339887498948e-01
    5.0068190514013448e-02 -7.8811040623910061e-02 1. 0.
    3.5514020819114304e-02 -1.1180339887498948e-01
    3.5514020819114304e-02 -1.1180339887498948e-01
    3.5514020819114304e-02 -1.1180339887498948e-01
    2.5270643144405542e-02 -1.5911145683514602e-01
    1.7120161767270561e-02 -2.4253562503633294e-01
    1.7120161767270561e-02 -2.4253562503633294e-01
    1.6294950297823036e-02 -2.5649458802128855e-01
    1.3529150788234022e-02 -3.1943828249996997e-01
    1.4434775165622166e-02 -2.9537826959282393e-01
    1.2795768442229729e-02 -3.4240528516707330e-01
    1.1235787476262932e-02 -4.0677712066840799e-01
    9.6300909940896916e-03 -5.1538820320220757e-01
    9.9691547915831836e-03 -4.8645783103373497e-01
    9.7369515502242956e-03 -5.0578053885887309e-01
    8.7553930298264783e-03 -6.2017367294604220e-01
    9.5288162323011703e-03 -5.2496719057585151e-01
    8.7553930298264783e-03 -6.2017367294604220e-01
    8.7553930298264783e-03 -6.2017367294604220e-01
    8.8167290027299765e-03 -6.1064011981870570e-01
    9.5288162323011703e-03 -5.2496719057585151e-01
    1.1447205408367103e-02 -3.9641248358604592e-01
    1.2795768442229729e-02 -3.4240528516707330e-01
    1.3529150788234022e-02 -3.1943828249996997e-01
    1.3529150788234022e-02 -3.1943828249996997e-01
    1.3529150788234022e-02 -3.1943828249996997e-01
    1.8099620967118965e-02 -2.2792115291927587e-01
    1.8099620967118965e-02 -2.2792115291927587e-01
    2.0765237838160665e-02 -1.9611613513818407e-01
    1.9286790587542048e-02 -2.1251185925162072e-01
    1.9286790587542048e-02 -2.1251185925162072e-01
    2.5270643144405542e-02 -1.5911145683514602e-01
    2.5270643144405542e-02 -1.5911145683514602e-01
    3.5514020819114304e-02 -1.1180339887498948e-01 1. 0. 1. 0.
    5.0068190514013448e-02 -7.8811040623910061e-02
    5.0068190514013448e-02 -7.8811040623910061e-02
    3.5514020819114304e-02 -1.1180339887498948e-01
    3.5514020819114304e-02 -1.1180339887498948e-01
    3.5514020819114304e-02 -1.1180339887498948e-01
    2.9088119424428259e-02 -1.3736056394868901e-01
    2.2674619384356168e-02 -1.7845765256206245e-01
    2.0765237838160665e-02 -1.9611613513818407e-01
    1.8099620967118965e-02 -2.2792115291927587e-01
    1.4434775165622166e-02 -2.9537826959282393e-01
    1.3529150788234022e-02 -3.1943828249996997e-01
    1.3144328818978784e-02 -3.3104235544094718e-01
    1.2478354962115544e-02 -3.5355339059327373e-01
    1.0522672835293128e-02 -4.4721359549995793e-01
    9.0942088391026132e-03 -5.7259833431386820e-01
    8.9486921088901758e-03 -5.9160797830996170e-01
    8.6412582588103939e-03 -6.3929308785088002e-01
    8.7553930298264783e-03 -6.2017367294604220e-01
    8.6969490066009566e-03 -6.2972352992240255e-01
    8.1494859609570029e-03 -7.5684577952221055e-01
    9.2549098601163275e-03 -5.5358071941066178e-01
    9.2549098601163275e-03 -5.5358071941066178e-01
    9.0942088391026132e-03 -5.7259833431386820e-01
    8.9486921088901758e-03 -5.9160797830996170e-01
    8.9486921088901758e-03 -5.9160797830996170e-01
    8.3189033080770299e-03 -7.0710678118654757e-01
    8.4436117711295302e-03 -6.7783438940456497e-01
    1.0095486239070977e-02 -4.7673129462279612e-01
    1.2187931786629649e-02 -3.6450944139642377e-01
    1.2795768442229729e-02 -3.4240528516707330e-01
    1.3529150788234022e-02 -3.1943828249996997e-01
    1.5587986388143229e-02 -2.6990309764655401e-01
    1.4434775165622166e-02 -2.9537826959282393e-01
    1.4434775165622166e-02 -2.9537826959282393e-01
    1.4974025954538653e-02 -2.8284271247461901e-01
    1.6294950297823036e-02 -2.5649458802128855e-01
    1.6294950297823036e-02 -2.5649458802128855e-01
    2.5270643144405542e-02 -1.5911145683514602e-01
    3.5514020819114304e-02 -1.1180339887498948e-01
    2.9088119424428259e-02 -1.3736056394868901e-01
    3.5514020819114304e-02 -1.1180339887498948e-01 1. 0.
    5.0068190514013448e-02 -7.8811040623910061e-02
    2.5270643144405542e-02 -1.5911145683514602e-01
    2.5270643144405542e-02 -1.5911145683514602e-01
    1.9286790587542048e-02 -2.1251185925162072e-01
    1.8099620967118965e-02 -2.2792115291927587e-01
    1.4434775165622166e-02 -2.9537826959282393e-01
    1.3529150788234022e-02 -3.1943828249996997e-01
    1.2795768442229729e-02 -3.4240528516707330e-01
    1.2478354962115544e-02 -3.5355339059327373e-01
    1.2478354962115544e-02 -3.5355339059327373e-01
    9.9691547915831836e-03 -4.8645783103373497e-01
    9.4327497145561545e-03 -5.3452248382484868e-01
    8.7553930298264783e-03 -6.2017367294604220e-01
    8.3584096117108025e-03 -6.9730806112513266e-01
    8.1798279240378399e-03 -7.4678799380567684e-01
    8.1494859609570029e-03 -7.5684577952221055e-01
    8.1494859609570029e-03 -7.5684577952221055e-01
    8.5881928833933113e-03 -6.4888568452305018e-01
    8.9486921088901758e-03 -5.9160797830996170e-01
    8.7553930298264783e-03 -6.2017367294604220e-01
    8.7553930298264783e-03 -6.2017367294604220e-01
    8.5881928833933113e-03 -6.4888568452305018e-01
    8.6412582588103939e-03 -6.3929308785088002e-01
    8.5376347718847494e-03 -6.5850460786851817e-01
    9.0942088391026132e-03 -5.7259833431386820e-01
    8.8811074729810389e-03 -6.0111940395825370e-01
    8.5376347718847494e-03 -6.5850460786851817e-01
    1.1447205408367103e-02 -3.9641248358604592e-01
    1.1038998391256898e-02 -4.1702882811414949e-01
    1.1921081691824495e-02 -3.7529331252040077e-01
    1.3529150788234022e-02 -3.1943828249996997e-01
    1.5587986388143229e-02 -2.6990309764655401e-01
    1.4974025954538653e-02 -2.8284271247461901e-01
    1.5587986388143229e-02 -2.6990309764655401e-01
    1.5587986388143229e-02 -2.6990309764655401e-01
    1.9286790587542048e-02 -2.1251185925162072e-01
    2.9088119424428259e-02 -1.3736056394868901e-01
    2.9088119424428259e-02 -1.3736056394868901e-01
    2.9088119424428259e-02 -1.3736056394868901e-01 1. 0.
    2.9088119424428259e-02 -1.3736056394868901e-01
    2.9088119424428259e-02 -1.3736056394868901e-01
    1.8099620967118965e-02 -2.2792115291927587e-01
    1.7120161767270561e-02 -2.4253562503633294e-01
    1.3956610505201370e-02 -3.0756234261462279e-01
    1.2795768442229729e-02 -3.4240528516707330e-01
    1.1235787476262932e-02 -4.0677712066840799e-01
    1.1447205408367103e-02 -3.9641248358604592e-01
    1.1235787476262932e-02 -4.0677712066840799e-01
    9.3415504924860282e-03 -5.4405882034941777e-01
    8.9486921088901758e-03 -5.9160797830996170e-01
    8.6412582588103939e-03 -6.3929308785088002e-01
    8.3584096117108025e-03 -6.9730806112513266e-01
    8.2457067968126213e-03 -7.2684378431163110e-01
    8.2457067968126213e-03 -7.2684378431163110e-01
    7.9461443637676571e-03 -8.5053174856624181e-01
    8.3189033080770299e-03 -7.0710678118654757e-01
    8.3584096117108025e-03 -6.9730806112513266e-01
    8.6412582588103939e-03 -6.3929308785088002e-01
    8.5881928833933113e-03 -6.4888568452305018e-01
    8.7553930298264783e-03 -6.2017367294604220e-01
    8.5376347718847494e-03 -6.5850460786851817e-01
    8.7553930298264783e-03 -6.2017367294604220e-01
    8.5881928833933113e-03 -6.4888568452305018e-01
    8.5376347718847494e-03 -6.5850460786851817e-01
    8.5376347718847494e-03 -6.5850460786851817e-01
    9.0942088391026132e-03 -5.7259833431386820e-01
    9.4327497145561545e-03 -5.3452248382484868e-01
    9.3415504924860282e-03 -5.4405882034941777e-01
    9.9691547915831836e-03 -4.8645783103373497e-01
    1.1921081691824495e-02 -3.7529331252040077e-01
    1.4434775165622166e-02 -2.9537826959282393e-01
    1.4974025954538653e-02 -2.8284271247461901e-01
    1.5587986388143229e-02 -2.6990309764655401e-01
    1.7120161767270561e-02 -2.4253562503633294e-01
    1.9286790587542048e-02 -2.1251185925162072e-01
    2.0765237838160665e-02 -1.9611613513818407e-01
    2.9088119424428259e-02 -1.3736056394868901e-01
    2.5270643144405542e-02 -1.5911145683514602e-01 1. 0.
    2.2674619384356168e-02 -1.7845765256206245e-01
    1.8099620967118965e-02 -2.2792115291927587e-01
    1.4974025954538653e-02 -2.8284271247461901e-01
    1.3144328818978784e-02 -3.3104235544094718e-01
    1.2187931786629649e-02 -3.6450944139642377e-01
    1.1038998391256898e-02 -4.1702882811414949e-01
    9.9691547915831836e-03 -4.8645783103373497e-01
    9.2549098601163275e-03 -5.5358071941066178e-01
    9.3415504924860282e-03 -5.4405882034941777e-01
    9.0942088391026132e-03 -5.7259833431386820e-01
    8.6412582588103939e-03 -6.3929308785088002e-01
    8.3584096117108025e-03 -6.9730806112513266e-01
    9.0942088391026132e-03 -5.7259833431386820e-01
    8.5881928833933113e-03 -6.4888568452305018e-01
    8.0217996185028492e-03 -8.0812203564176854e-01
    7.8437350322173287e-03 -9.8772959664958948e-01
    7.8816727843249168e-03 -9.0566258568029834e-01
    7.9036002007473877e-03 -8.8330050391686077e-01
    8.2118830693709774e-03 -7.3678839761300718e-01
    8.4436117711295302e-03 -6.7783438940456497e-01
    8.2457067968126213e-03 -7.2684378431163110e-01
    8.6412582588103939e-03 -6.3929308785088002e-01
    8.5376347718847494e-03 -6.5850460786851817e-01
    8.4436117711295302e-03 -6.7783438940456497e-01
    8.4894747431005398e-03 -6.6815310478106105e-01
    8.2457067968126213e-03 -7.2684378431163110e-01
    8.7553930298264783e-03 -6.2017367294604220e-01
    9.3415504924860282e-03 -5.4405882034941777e-01
    9.5288162323011703e-03 -5.2496719057585151e-01
    9.2549098601163275e-03 -5.5358071941066178e-01
    9.1725476151009178e-03 -5.6309250637147301e-01
    1.1038998391256898e-02 -4.1702882811414949e-01
    1.1447205408367103e-02 -3.9641248358604592e-01
    1.4434775165622166e-02 -2.9537826959282393e-01
    1.3956610505201370e-02 -3.0756234261462279e-01
    1.6294950297823036e-02 -2.5649458802128855e-01
    2.0765237838160665e-02 -1.9611613513818407e-01
    2.5270643144405542e-02 -1.5911145683514602e-01
    2.5270643144405542e-02 -1.5911145683514602e-01 1. 0.
    1.8099620967118965e-02 -2.2792115291927587e-01
    1.4974025954538653e-02 -2.8284271247461901e-01
    1.2795768442229729e-02 -3.4240528516707330e-01
    1.2187931786629649e-02 -3.6450944139642377e-01
    1.1038998391256898e-02 -4.1702882811414949e-01
    1.0371544122414799e-02 -4.5711620391383745e-01
    9.3415504924860282e-03 -5.4405882034941777e-01
    8.8167290027299765e-03 -6.1064011981870570e-01
    8.6412582588103939e-03 -6.3929308785088002e-01
    8.6412582588103939e-03 -6.3929308785088002e-01
    8.4894747431005398e-03 -6.6815310478106105e-01
    8.2457067968126213e-03 -7.2684378431163110e-01
    8.3999522967026560e-03 -6.8755165095232851e-01
    7.8455291845869989e-03 -9.7560608286114248e-01
    7.8581228187487792e-03 -9.4006432239105764e-01
    7.8437350322173287e-03 -9.8772959664958948e-01
    7.9036002007473877e-03 -8.8330050391686077e-01
    7.8581228187487792e-03 -9.4006432239105764e-01
    7.8437350322173287e-03 -9.8772959664958948e-01
    7.8816727843249168e-03 -9.0566258568029834e-01
    7.9629800947946024e-03 -8.3979947481213446e-01
    8.1798279240378399e-03 -7.4678799380567684e-01
    8.3999522967026560e-03 -6.8755165095232851e-01
    8.7553930298264783e-03 -6.2017367294604220e-01
    8.0937396371657151e-03 -7.7714888923526360e-01
    8.2118830693709774e-03 -7.3678839761300718e-01
    8.3189033080770299e-03 -7.0710678118654757e-01
    8.8167290027299765e-03 -6.1064011981870570e-01
    8.6969490066009566e-03 -6.2972352992240255e-01
    9.2549098601163275e-03 -5.5358071941066178e-01
    8.8811074729810389e-03 -6.0111940395825370e-01
    8.7553930298264783e-03 -6.2017367294604220e-01
    1.0683626728176727e-02 -4.3723731609760308e-01
    1.1038998391256898e-02 -4.1702882811414949e-01
    1.2187931786629649e-02 -3.6450944139642377e-01
    1.3529150788234022e-02 -3.1943828249996997e-01
    1.9286790587542048e-02 -2.1251185925162072e-01
    1.9286790587542048e-02 -2.1251185925162072e-01
    2.9088119424428259e-02 -1.3736056394868901e-01
    2.5270643144405542e-02 -1.5911145683514602e-01
    1.5587986388143229e-02 -2.6990309764655401e-01
    1.2795768442229729e-02 -3.4240528516707330e-01
    1.1921081691824495e-02 -3.7529331252040077e-01
    1.0855367886283549e-02 -4.2717882885838043e-01
    1.0095486239070977e-02 -4.7673129462279612e-01
    8.8811074729810389e-03 -6.0111940395825370e-01
    8.6412582588103939e-03 -6.3929308785088002e-01
    8.4894747431005398e-03 -6.6815310478106105e-01
    8.3584096117108025e-03 -6.9730806112513266e-01
    8.1208057642662753e-03 -7.6696498884737041e-01
    7.8437350322173287e-03 -1.0124228365658292e+00
    7.8437350322173287e-03 -9.8772959664958948e-01
    7.8527181254825339e-03 -1.0506646010483576e+00
    7.8431372549019607e-03 -1. 7.8455291845869989e-03
    -9.7560608286114248e-01 7.8920046264698458e-03
    -8.9442719099991586e-01 7.9164760173759553e-03
    -8.7227837598864699e-01 8.1798279240378399e-03
    -7.4678799380567684e-01 8.1208057642662753e-03
    -7.6696498884737041e-01 7.9461443637676571e-03
    -8.5053174856624181e-01 7.9629800947946024e-03
    -8.3979947481213446e-01 7.8581228187487792e-03
    -9.4006432239105764e-01 7.8725900715343900e-03
    -9.1701095462872806e-01 7.8920046264698458e-03
    -8.9442719099991586e-01 8.0937396371657151e-03
    -7.7714888923526360e-01 8.0682433623650435e-03
    -7.8740078740118113e-01 8.1798279240378399e-03
    -7.4678799380567684e-01 8.3999522967026560e-03
    -6.8755165095232851e-01 8.6412582588103939e-03
    -6.3929308785088002e-01 8.7553930298264783e-03
    -6.2017367294604220e-01 8.5376347718847494e-03
    -6.5850460786851817e-01 8.5881928833933113e-03
    -6.4888568452305018e-01 8.5881928833933113e-03
    -6.4888568452305018e-01 1.0371544122414799e-02
    -4.5711620391383745e-01 1.0683626728176727e-02
    -4.3723731609760308e-01 1.2478354962115544e-02
    -3.5355339059327373e-01 1.4974025954538653e-02
    -2.8284271247461901e-01 1.7120161767270561e-02
    -2.4253562503633294e-01 2.5270643144405542e-02
    -1.5911145683514602e-01 2.0765237838160665e-02
    -1.9611613513818407e-01 1.4974025954538653e-02
    -2.8284271247461901e-01 1.3144328818978784e-02
    -3.3104235544094718e-01 1.1674966159481746e-02
    -3.8592249249397992e-01 1.0855367886283549e-02
    -4.2717882885838043e-01 9.0196611144221697e-03
    -5.8210220340298635e-01 8.6412582588103939e-03
    -6.3929308785088002e-01 8.2813587834000765e-03
    -7.1695096874806219e-01 8.1208057642662753e-03
    -7.6696498884737041e-01 8.0217996185028492e-03
    -8.0812203564176854e-01 7.8455291845869989e-03
    -9.7560608286114248e-01 7.8485221764116597e-03
    -1.0377490433255416e+00 7.8725900715343900e-03
    -9.1701095462872806e-01 7.8816727843249168e-03
    -9.0566258568029834e-01 7.9036002007473877e-03
    -8.8330050391686077e-01 7.8647437345574899e-03
    -9.2847669088525919e-01 8.0442759853862084e-03
    -7.9772403521746571e-01 8.0007792633647410e-03
    -8.1859824870537390e-01 8.0937396371657151e-03
    -7.7714888923526360e-01 8.1798279240378399e-03
    -7.4678799380567684e-01 8.2813587834000765e-03
    -7.1695096874806219e-01 8.0937396371657151e-03
    -7.7714888923526360e-01 8.0682433623650435e-03
    -7.8740078740118113e-01 8.5881928833933113e-03
    -6.4888568452305018e-01 8.2457067968126213e-03
    -7.2684378431163110e-01 7.8920046264698458e-03
    -8.9442719099991586e-01 7.8816727843249168e-03
    -9.0566258568029834e-01 8.4436117711295302e-03
    -6.7783438940456497e-01 8.3584096117108025e-03
    -6.9730806112513266e-01 8.3584096117108025e-03
    -6.9730806112513266e-01 8.2118830693709774e-03
    -7.3678839761300718e-01 8.1494859609570029e-03
    -7.5684577952221055e-01 8.2813587834000765e-03
    -7.1695096874806219e-01 8.6412582588103939e-03
    -6.3929308785088002e-01 8.6412582588103939e-03
    -6.3929308785088002e-01 1.0095486239070977e-02
    -4.7673129462279612e-01 1.1038998391256898e-02
    -4.1702882811414949e-01 1.2795768442229729e-02
    -3.4240528516707330e-01 1.5587986388143229e-02
    -2.6990309764655401e-01 2.9088119424428259e-02
    -1.3736056394868901e-01 1.9286790587542048e-02
    -2.1251185925162072e-01 1.4974025954538653e-02
    -2.8284271247461901e-01 1.2478354962115544e-02
    -3.5355339059327373e-01 1.0855367886283549e-02
    -4.2717882885838043e-01 8.7553930298264783e-03
    -6.2017367294604220e-01 8.6969490066009566e-03
    -6.2972352992240255e-01 8.3999522967026560e-03
    -6.8755165095232851e-01 8.1208057642662753e-03
    -7.6696498884737041e-01 7.9306505605391108e-03
    -8.6135676921410897e-01 7.9036002007473877e-03
    -8.8330050391686077e-01 7.8455291845869989e-03
    -1.0250038592085422e+00 7.9036002007473859e-03
    -1.1321175472737228e+00 7.8437350322173287e-03
    -9.8772959664958948e-01 7.8485221764116597e-03
    -9.6362411165943151e-01 7.8816727843249168e-03
    -9.0566258568029834e-01 7.9164760173759553e-03
    -8.7227837598864699e-01 7.8816727843249168e-03
    -9.0566258568029834e-01 7.8920046264698458e-03
    -8.9442719099991586e-01 8.0442759853862084e-03
    -7.9772403521746571e-01 8.2118830693709774e-03
    -7.3678839761300718e-01 8.2457067968126213e-03
    -7.2684378431163110e-01 8.0217996185028492e-03
    -8.0812203564176854e-01 8.0217996185028492e-03
    -8.0812203564176854e-01 8.2813587834000765e-03
    -7.1695096874806219e-01 8.1494859609570029e-03
    -7.5684577952221055e-01 7.8455291845869989e-03
    -9.7560608286114248e-01 7.8581228187487792e-03
    -9.4006432239105764e-01 7.8431372549019607e-03 -1.
    8.0937396371657151e-03 -7.7714888923526360e-01
    7.9306505605391108e-03 -8.6135676921410897e-01
    8.0217996185028492e-03 -8.0812203564176854e-01
    8.2457067968126213e-03 -7.2684378431163110e-01
    8.2118830693709774e-03 -7.3678839761300718e-01
    8.2457067968126213e-03 -7.2684378431163110e-01
    8.4894747431005398e-03 -6.6815310478106105e-01
    8.8167290027299765e-03 -6.1064011981870570e-01
    1.0371544122414799e-02 -4.5711620391383745e-01
    1.1235787476262932e-02 -4.0677712066840799e-01
    1.5587986388143229e-02 -2.6990309764655401e-01
    2.0765237838160665e-02 -1.9611613513818407e-01
    1.5587986388143229e-02 -2.6990309764655401e-01
    1.2478354962115544e-02 -3.5355339059327373e-01
    1.0855367886283549e-02 -4.2717882885838043e-01
    1.0371544122414799e-02 -4.5711620391383745e-01
    8.3584096117108025e-03 -6.9730806112513266e-01
    8.5881928833933113e-03 -6.4888568452305018e-01
    8.3584096117108025e-03 -6.9730806112513266e-01
    7.9811826505878595e-03 -8.2915619758884984e-01
    7.9461443637676571e-03 -8.5053174856624181e-01
    7.8455291845869989e-03 -1.0250038592085422e+00
    7.9461443637676571e-03 -1.1757350641945108e+00
    7.8455291845869989e-03 -9.7560608286114248e-01
    7.8527181254825322e-03 -9.5177852094968840e-01
    7.8455291845869989e-03 -1.0250038592085422e+00
    7.8437350322173287e-03 -9.8772959664958948e-01
    7.8485221764116597e-03 -9.6362411165943151e-01
    7.8581228187487792e-03 -9.4006432239105764e-01
    7.8816727843249168e-03 -9.0566258568029834e-01
    8.0007792633647410e-03 -8.1859824870537390e-01
    7.9811826505878595e-03 -8.2915619758884984e-01
    8.0442759853862084e-03 -7.9772403521746571e-01
    7.9461443637676571e-03 -8.5053174856624181e-01
    7.9306505605391108e-03 -8.6135676921410897e-01
    8.0217996185028492e-03 -8.0812203564176854e-01
    8.1208057642662753e-03 -7.6696498884737041e-01
    8.0682433623650435e-03 -7.8740078740118113e-01
    8.0217996185028492e-03 -8.0812203564176854e-01
    7.9164760173759535e-03 -1.1464230084422213e+00
    7.8725900715343900e-03 -1.0904995136125413e+00
    7.9036002007473859e-03 -1.1321175472737228e+00
    7.9036002007473877e-03 -8.8330050391686077e-01
    8.1494859609570029e-03 -7.5684577952221055e-01
    8.2118830693709774e-03 -7.3678839761300718e-01
    8.2813587834000765e-03 -7.1695096874806219e-01
    8.2813587834000765e-03 -7.1695096874806219e-01
    8.6969490066009566e-03 -6.2972352992240255e-01
    9.7369515502242956e-03 -5.0578053885887309e-01
    1.0855367886283549e-02 -4.2717882885838043e-01
    1.3144328818978784e-02 -3.3104235544094718e-01
    1.5587986388143229e-02 -2.6990309764655401e-01
    1.6294950297823036e-02 -2.5649458802128855e-01
    1.1921081691824495e-02 -3.7529331252040077e-01
    9.8498171585547894e-03 -4.9613893835683387e-01
    8.3189033080770299e-03 -7.0710678118654757e-01
    8.0217996185028492e-03 -8.0812203564176854e-01
    8.2457067968126213e-03 -7.2684378431163110e-01
    8.2118830693709774e-03 -7.3678839761300718e-01
    7.8816727843249168e-03 -9.0566258568029834e-01
    7.8455291845869989e-03 -9.7560608286114248e-01
    7.8527181254825339e-03 -1.0506646010483576e+00
    7.8920046264698458e-03 -1.1180339887498947e+00
    7.8437350322173287e-03 -9.8772959664958948e-01
    7.8581228187487792e-03 -9.4006432239105764e-01
    7.8920046264698458e-03 -8.9442719099991586e-01
    7.8647437345574899e-03 -9.2847669088525919e-01
    7.8455291845869989e-03 -9.7560608286114248e-01
    7.8437350322173287e-03 -9.8772959664958948e-01
    7.8920046264698458e-03 -8.9442719099991586e-01
    7.9629800947946024e-03 -8.3979947481213446e-01
    7.9629800947946024e-03 -8.3979947481213446e-01
    8.0682433623650435e-03 -7.8740078740118113e-01
    7.9461443637676571e-03 -8.5053174856624181e-01
    8.1798279240378399e-03 -7.4678799380567684e-01
    8.0442759853862084e-03 -7.9772403521746571e-01
    8.1208057642662753e-03 -7.6696498884737041e-01
    7.9629800947946024e-03 -8.3979947481213446e-01
    7.8920046264698458e-03 -8.9442719099991586e-01
    7.8431372549019607e-03 -1. 7.9164760173759535e-03
    -1.1464230084422213e+00 7.8647437345574917e-03
    -1.0770329614269010e+00 7.8920046264698458e-03
    -1.1180339887498947e+00 7.9811826505878595e-03
    -8.2915619758884984e-01 8.0007792633647410e-03
    -8.1859824870537390e-01 7.9629800947946024e-03
    -8.3979947481213446e-01 8.0442759853862084e-03
    -7.9772403521746571e-01 8.2813587834000765e-03
    -7.1695096874806219e-01 8.8167290027299765e-03
    -6.1064011981870570e-01 1.0683626728176727e-02
    -4.3723731609760308e-01 1.4434775165622166e-02
    -2.9537826959282393e-01 1.5587986388143229e-02
    -2.6990309764655401e-01 1.2795768442229729e-02
    -3.4240528516707330e-01 1.0855367886283549e-02
    -4.2717882885838043e-01 9.5288162323011703e-03
    -5.2496719057585151e-01 8.3584096117108025e-03
    -6.9730806112513266e-01 7.9811826505878595e-03
    -8.2915619758884984e-01 7.9036002007473877e-03
    -8.8330050391686077e-01 7.8920046264698458e-03
    -8.9442719099991586e-01 7.9461443637676571e-03
    -8.5053174856624181e-01 7.8581228187487792e-03
    -1.0637569963898812e+00 7.9164760173759535e-03
    -1.1464230084422213e+00 7.8437350322173287e-03
    -9.8772959664958948e-01 7.8527181254825339e-03
    -1.0506646010483576e+00 7.8647437345574899e-03
    -9.2847669088525919e-01 8.0217996185028492e-03
    -8.0812203564176854e-01 7.8581228187487792e-03
    -9.4006432239105764e-01 7.8455291845869989e-03
    -1.0250038592085422e+00 7.8581228187487792e-03
    -9.4006432239105764e-01 7.8920046264698458e-03
    -8.9442719099991586e-01 7.9164760173759553e-03
    -8.7227837598864699e-01 8.1208057642662753e-03
    -7.6696498884737041e-01 8.0217996185028492e-03
    -8.0812203564176854e-01 7.9164760173759553e-03
    -8.7227837598864699e-01 7.9629800947946024e-03
    -8.3979947481213446e-01 7.9461443637676571e-03
    -8.5053174856624181e-01 8.0937396371657151e-03
    -7.7714888923526360e-01 7.9036002007473877e-03
    -8.8330050391686077e-01 7.8437350322173287e-03
    -1.0124228365658292e+00 7.8527181254825322e-03
    -9.5177852094968840e-01 7.9461443637676571e-03
    -1.1757350641945108e+00 7.8527181254825339e-03
    -1.0506646010483576e+00 7.8725900715343900e-03
    -1.0904995136125413e+00 7.9036002007473877e-03
    -8.8330050391686077e-01 7.8920046264698458e-03
    -8.9442719099991586e-01 7.8725900715343900e-03
    -9.1701095462872806e-01 7.9306505605391108e-03
    -8.6135676921410897e-01 8.1798279240378399e-03
    -7.4678799380567684e-01 8.2813587834000765e-03
    -7.1695096874806219e-01 9.9691547915831836e-03
    -4.8645783103373497e-01 1.2187931786629649e-02
    -3.6450944139642377e-01 1.6294950297823036e-02
    -2.5649458802128855e-01 1.1447205408367103e-02
    -3.9641248358604592e-01 9.7369515502242956e-03
    -5.0578053885887309e-01 8.2457067968126213e-03
    -7.2684378431163110e-01 8.0682433623650435e-03
    -7.8740078740118113e-01 7.9164760173759553e-03
    -8.7227837598864699e-01 7.8455291845869989e-03
    -9.7560608286114248e-01 7.8816727843249168e-03
    -9.0566258568029834e-01 7.8725900715343900e-03
    -1.0904995136125413e+00 7.8920046264698458e-03
    -1.1180339887498947e+00 7.8455291845869989e-03
    -1.0250038592085422e+00 7.8725900715343900e-03
    -1.0904995136125413e+00 7.8437350322173287e-03
    -1.0124228365658292e+00 7.8455291845869989e-03
    -1.0250038592085422e+00 7.9461443637676571e-03
    -8.5053174856624181e-01 7.8920046264698458e-03
    -8.9442719099991586e-01 7.9036002007473877e-03
    -8.8330050391686077e-01 7.9164760173759553e-03
    -8.7227837598864699e-01 7.8816727843249168e-03
    -9.0566258568029834e-01 7.9461443637676571e-03
    -8.5053174856624181e-01 8.0007792633647410e-03
    -8.1859824870537390e-01 8.1494859609570029e-03
    -7.5684577952221055e-01 8.0937396371657151e-03
    -7.7714888923526360e-01 8.1208057642662753e-03
    -7.6696498884737041e-01 7.9629800947946024e-03
    -8.3979947481213446e-01 8.0217996185028492e-03
    -8.0812203564176854e-01 7.9461443637676571e-03
    -8.5053174856624181e-01 7.8437350322173287e-03
    -9.8772959664958948e-01 7.8647437345574899e-03
    -9.2847669088525919e-01 7.8647437345574917e-03
    -1.0770329614269010e+00 8.1494859609570012e-03
    -1.3212731405218248e+00 7.9306505605391108e-03
    -1.1609591237233643e+00 7.8581228187487792e-03
    -1.0637569963898812e+00 7.9629800947946024e-03
    -8.3979947481213446e-01 7.9811826505878595e-03
    -8.2915619758884984e-01 7.9164760173759553e-03
    -8.7227837598864699e-01 8.0217996185028492e-03
    -8.0812203564176854e-01 8.3584096117108025e-03
    -6.9730806112513266e-01 9.3415504924860282e-03
    -5.4405882034941777e-01 1.0095486239070977e-02
    -4.7673129462279612e-01 1.2795768442229729e-02
    -3.4240528516707330e-01 1.0522672835293128e-02
    -4.4721359549995793e-01 9.2549098601163275e-03
    -5.5358071941066178e-01 8.2813587834000765e-03
    -7.1695096874806219e-01 8.0007792633647410e-03
    -8.1859824870537390e-01 7.8920046264698458e-03
    -8.9442719099991586e-01 7.8581228187487792e-03
    -9.4006432239105764e-01 7.8485221764116597e-03
    -9.6362411165943151e-01 7.8725900715343900e-03
    -1.0904995136125413e+00 7.8816727843249168e-03
    -1.1041639743225553e+00 7.9306505605391108e-03
    -1.1609591237233643e+00 7.8647437345574917e-03
    -1.0770329614269010e+00 7.8485221764116597e-03
    -1.0377490433255416e+00 7.8581228187487792e-03
    -9.4006432239105764e-01 7.8816727843249168e-03
    -9.0566258568029834e-01 7.9306505605391108e-03
    -8.6135676921410897e-01 8.0442759853862084e-03
    -7.9772403521746571e-01 7.9811826505878595e-03
    -8.2915619758884984e-01 8.1494859609570029e-03
    -7.5684577952221055e-01 7.9811826505878595e-03
    -8.2915619758884984e-01 8.0217996185028492e-03
    -8.0812203564176854e-01 8.2813587834000765e-03
    -7.1695096874806219e-01 8.2118830693709774e-03
    -7.3678839761300718e-01 8.0442759853862084e-03
    -7.9772403521746571e-01 7.9629800947946024e-03
    -8.3979947481213446e-01 8.0217996185028492e-03
    -8.0812203564176854e-01 7.8647437345574899e-03
    -9.2847669088525919e-01 7.8647437345574899e-03
    -9.2847669088525919e-01 7.8647437345574899e-03
    -9.2847669088525919e-01 7.8581228187487792e-03
    -1.0637569963898812e+00 7.8647437345574917e-03
    -1.0770329614269010e+00 7.9811826505878595e-03
    -1.2060453783110543e+00 7.8725900715343900e-03
    -1.0904995136125413e+00 7.8455291845869989e-03
    -1.0250038592085422e+00 7.8816727843249168e-03
    -9.0566258568029834e-01 7.8455291845869989e-03
    -9.7560608286114248e-01 7.9036002007473877e-03
    -8.8330050391686077e-01 8.1494859609570029e-03
    -7.5684577952221055e-01 8.3189033080770299e-03
    -7.0710678118654757e-01 9.5288162323011703e-03
    -5.2496719057585151e-01 1.1921081691824495e-02
    -3.7529331252040077e-01 1.1235787476262932e-02
    -4.0677712066840799e-01 9.1725476151009178e-03
    -5.6309250637147301e-01 8.0442759853862084e-03
    -7.9772403521746571e-01 7.9036002007473877e-03
    -8.8330050391686077e-01 7.8725900715343900e-03
    -9.1701095462872806e-01 7.8437350322173287e-03
    -1.0124228365658292e+00 7.8455291845869989e-03
    -9.7560608286114248e-01 7.9164760173759535e-03
    -1.1464230084422213e+00 8.0007792633647410e-03
    -1.2216004634526350e+00 7.9164760173759535e-03
    -1.1464230084422213e+00 7.8647437345574917e-03
    -1.0770329614269010e+00 7.8581228187487792e-03
    -1.0637569963898812e+00 7.8920046264698458e-03
    -8.9442719099991586e-01 8.0682433623650435e-03
    -7.8740078740118113e-01 8.0682433623650435e-03
    -7.8740078740118113e-01 8.2118830693709774e-03
    -7.3678839761300718e-01 8.1494859609570029e-03
    -7.5684577952221055e-01 8.2457067968126213e-03
    -7.2684378431163110e-01 8.1494859609570029e-03
    -7.5684577952221055e-01 8.0937396371657151e-03
    -7.7714888923526360e-01 8.2813587834000765e-03
    -7.1695096874806219e-01 8.3584096117108025e-03
    -6.9730806112513266e-01 8.0937396371657151e-03
    -7.7714888923526360e-01 8.0682433623650435e-03
    -7.8740078740118113e-01 8.1208057642662753e-03
    -7.6696498884737041e-01 7.9306505605391108e-03
    -8.6135676921410897e-01 7.8485221764116597e-03
    -9.6362411165943151e-01 7.8647437345574899e-03
    -9.2847669088525919e-01 7.9306505605391108e-03
    -8.6135676921410897e-01 7.8485221764116597e-03
    -1.0377490433255416e+00 7.8455291845869989e-03
    -1.0250038592085422e+00 7.8816727843249168e-03
    -1.1041639743225553e+00 7.8647437345574917e-03
    -1.0770329614269010e+00 7.8437350322173287e-03
    -9.8772959664958948e-01 7.8581228187487792e-03
    -9.4006432239105764e-01 7.9629800947946024e-03
    -8.3979947481213446e-01 7.9811826505878595e-03
    -8.2915619758884984e-01 8.2457067968126213e-03
    -7.2684378431163110e-01 9.0196611144221697e-03
    -5.8210220340298635e-01 1.0855367886283549e-02
    -4.2717882885838043e-01 1.1235787476262932e-02
    -4.0677712066840799e-01 8.5881928833933113e-03
    -6.4888568452305018e-01 7.9629800947946024e-03
    -8.3979947481213446e-01 7.9036002007473877e-03
    -8.8330050391686077e-01 7.8485221764116597e-03
    -9.6362411165943151e-01 7.8437350322173287e-03
    -1.0124228365658292e+00 7.8455291845869989e-03
    -1.0250038592085422e+00 7.9306505605391108e-03
    -1.1609591237233643e+00 8.0442759853862084e-03
    -1.2535663410560176e+00 7.8647437345574917e-03
    -1.0770329614269010e+00 7.9164760173759535e-03
    -1.1464230084422213e+00 7.8581228187487792e-03
    -1.0637569963898812e+00 8.0217996185028492e-03
    -8.0812203564176854e-01 8.2457067968126213e-03
    -7.2684378431163110e-01 8.1798279240378399e-03
    -7.4678799380567684e-01 8.4436117711295302e-03
    -6.7783438940456497e-01 8.3189033080770299e-03
    -7.0710678118654757e-01 8.3584096117108025e-03
    -6.9730806112513266e-01 8.3999522967026560e-03
    -6.8755165095232851e-01 8.2457067968126213e-03
    -7.2684378431163110e-01 8.3189033080770299e-03
    -7.0710678118654757e-01 8.0682433623650435e-03
    -7.8740078740118113e-01 8.0937396371657151e-03
    -7.7714888923526360e-01 8.0217996185028492e-03
    -8.0812203564176854e-01 7.9629800947946024e-03
    -8.3979947481213446e-01 7.9036002007473877e-03
    -8.8330050391686077e-01 7.9811826505878595e-03
    -8.2915619758884984e-01 7.8920046264698458e-03
    -8.9442719099991586e-01 7.8725900715343900e-03
    -9.1701095462872806e-01 7.8816727843249168e-03
    -9.0566258568029834e-01 7.8455291845869989e-03
    -1.0250038592085422e+00 7.8437350322173287e-03
    -1.0124228365658292e+00 7.8581228187487792e-03
    -1.0637569963898812e+00 7.8437350322173287e-03
    -9.8772959664958948e-01 7.9036002007473877e-03
    -8.8330050391686077e-01 7.9036002007473877e-03
    -8.8330050391686077e-01 7.9306505605391108e-03
    -8.6135676921410897e-01 7.9811826505878595e-03
    -8.2915619758884984e-01 8.9486921088901758e-03
    -5.9160797830996170e-01 9.7369515502242956e-03
    -5.0578053885887309e-01 1.0522672835293128e-02
    -4.4721359549995793e-01 8.5881928833933113e-03
    -6.4888568452305018e-01 7.9629800947946024e-03
    -8.3979947481213446e-01 7.8527181254825322e-03
    -9.5177852094968840e-01 7.8581228187487792e-03
    -1.0637569963898812e+00 7.8455291845869989e-03
    -1.0250038592085422e+00 7.8455291845869989e-03
    -9.7560608286114248e-01 7.8920046264698458e-03
    -1.1180339887498947e+00 7.9036002007473859e-03
    -1.1321175472737228e+00 7.8527181254825339e-03
    -1.0506646010483576e+00 7.8725900715343900e-03
    -1.0904995136125413e+00 7.8920046264698458e-03
    -8.9442719099991586e-01 8.1208057642662753e-03
    -7.6696498884737041e-01 8.2118830693709774e-03
    -7.3678839761300718e-01 8.0442759853862084e-03
    -7.9772403521746571e-01 8.2118830693709774e-03
    -7.3678839761300718e-01 8.2457067968126213e-03
    -7.2684378431163110e-01 8.1798279240378399e-03
    -7.4678799380567684e-01 8.2813587834000765e-03
    -7.1695096874806219e-01 8.1208057642662753e-03
    -7.6696498884737041e-01 8.2457067968126213e-03
    -7.2684378431163110e-01 8.1798279240378399e-03
    -7.4678799380567684e-01 8.1494859609570029e-03
    -7.5684577952221055e-01 7.9461443637676571e-03
    -8.5053174856624181e-01 7.9461443637676571e-03
    -8.5053174856624181e-01 8.0682433623650435e-03
    -7.8740078740118113e-01 8.0217996185028492e-03
    -8.0812203564176854e-01 7.9629800947946024e-03
    -8.3979947481213446e-01 7.8816727843249168e-03
    -9.0566258568029834e-01 7.9811826505878595e-03
    -8.2915619758884984e-01 7.8527181254825339e-03
    -1.0506646010483576e+00 7.8920046264698458e-03
    -1.1180339887498947e+00 7.9629800947946024e-03
    -1.1907604493604891e+00 7.9629800947946024e-03
    -1.1907604493604891e+00 7.8527181254825339e-03
    -1.0506646010483576e+00 7.8437350322173287e-03
    -9.8772959664958948e-01 7.8455291845869989e-03
    -9.7560608286114248e-01 7.9306505605391108e-03
    -8.6135676921410897e-01 8.8167290027299765e-03
    -6.1064011981870570e-01 1.1235787476262932e-02
    -4.0677712066840799e-01 1.0522672835293128e-02
    -4.4721359549995793e-01 8.7553930298264783e-03
    -6.2017367294604220e-01 8.0442759853862084e-03
    -7.9772403521746571e-01 7.8581228187487792e-03
    -9.4006432239105764e-01 7.8647437345574917e-03
    -1.0770329614269010e+00 7.8437350322173287e-03
    -1.0124228365658292e+00 7.8485221764116597e-03
    -9.6362411165943151e-01 7.8485221764116597e-03
    -9.6362411165943151e-01 7.8920046264698458e-03
    -1.1180339887498947e+00 7.8581228187487792e-03
    -1.0637569963898812e+00 7.8485221764116597e-03
    -1.0377490433255416e+00 7.8527181254825339e-03
    -1.0506646010483576e+00 8.1208057642662753e-03
    -7.6696498884737041e-01 8.0442759853862084e-03
    -7.9772403521746571e-01 8.0937396371657151e-03
    -7.7714888923526360e-01 8.0937396371657151e-03
    -7.7714888923526360e-01 8.1208057642662753e-03
    -7.6696498884737041e-01 8.0217996185028492e-03
    -8.0812203564176854e-01 8.1494859609570029e-03
    -7.5684577952221055e-01 8.1208057642662753e-03
    -7.6696498884737041e-01 8.0442759853862084e-03
    -7.9772403521746571e-01 8.0682433623650435e-03
    -7.8740078740118113e-01 8.0937396371657151e-03
    -7.7714888923526360e-01 8.0217996185028492e-03
    -8.0812203564176854e-01 7.9306505605391108e-03
    -8.6135676921410897e-01 8.0217996185028492e-03
    -8.0812203564176854e-01 8.0442759853862084e-03
    -7.9772403521746571e-01 8.0442759853862084e-03
    -7.9772403521746571e-01 8.1494859609570029e-03
    -7.5684577952221055e-01 8.0442759853862084e-03
    -7.9772403521746571e-01 7.8437350322173287e-03
    -9.8772959664958948e-01 7.8725900715343900e-03
    -9.1701095462872806e-01 8.1208057642662753e-03
    -1.3038404810405297e+00 7.9461443637676571e-03
    -1.1757350641945108e+00 7.8431372549019607e-03 -1.
    7.8581228187487792e-03 -1.0637569963898812e+00
    7.8725900715343900e-03 -9.1701095462872806e-01
    8.0217996185028492e-03 -8.0812203564176854e-01
    8.4894747431005398e-03 -6.6815310478106105e-01
    9.7369515502242956e-03 -5.0578053885887309e-01
    1.2187931786629649e-02 -3.6450944139642377e-01
    9.0196611144221697e-03 -5.8210220340298635e-01
    8.1494859609570029e-03 -7.5684577952221055e-01
    7.8581228187487792e-03 -9.4006432239105764e-01
    7.8581228187487792e-03 -1.0637569963898812e+00
    7.8527181254825322e-03 -9.5177852094968840e-01
    7.8437350322173287e-03 -9.8772959664958948e-01
    7.8725900715343900e-03 -1.0904995136125413e+00
    7.8816727843249168e-03 -1.1041639743225553e+00
    7.8527181254825339e-03 -1.0506646010483576e+00
    7.8455291845869989e-03 -1.0250038592085422e+00
    7.8527181254825322e-03 -9.5177852094968840e-01
    7.9629800947946024e-03 -8.3979947481213446e-01
    8.0217996185028492e-03 -8.0812203564176854e-01
    8.1208057642662753e-03 -7.6696498884737041e-01
    8.0682433623650435e-03 -7.8740078740118113e-01
    8.1798279240378399e-03 -7.4678799380567684e-01
    7.9306505605391108e-03 -8.6135676921410897e-01
    7.9306505605391108e-03 -8.6135676921410897e-01
    8.0442759853862084e-03 -7.9772403521746571e-01
    8.0007792633647410e-03 -8.1859824870537390e-01
    8.0217996185028492e-03 -8.0812203564176854e-01
    8.1494859609570029e-03 -7.5684577952221055e-01
    8.0937396371657151e-03 -7.7714888923526360e-01
    7.9461443637676571e-03 -8.5053174856624181e-01
    8.0682433623650435e-03 -7.8740078740118113e-01
    8.0007792633647410e-03 -8.1859824870537390e-01
    8.1494859609570029e-03 -7.5684577952221055e-01
    8.0442759853862084e-03 -7.9772403521746571e-01
    7.9036002007473877e-03 -8.8330050391686077e-01
    7.8581228187487792e-03 -9.4006432239105764e-01
    7.8527181254825339e-03 -1.0506646010483576e+00
    8.0442759853862084e-03 -1.2535663410560176e+00
    7.9629800947946024e-03 -1.1907604493604891e+00
    7.8527181254825322e-03 -9.5177852094968840e-01
    7.8816727843249168e-03 -1.1041639743225553e+00
    7.8437350322173287e-03 -9.8772959664958948e-01
    7.9306505605391108e-03 -8.6135676921410897e-01
    8.8811074729810389e-03 -6.0111940395825370e-01
    1.0229396549980740e-02 -4.6695300917967630e-01
    1.1674966159481746e-02 -3.8592249249397992e-01
    8.9486921088901758e-03 -5.9160797830996170e-01
    8.0682433623650435e-03 -7.8740078740118113e-01
    7.8437350322173287e-03 -1.0124228365658292e+00
    7.8431372549019607e-03 -1. 7.8437350322173287e-03
    -9.8772959664958948e-01 7.8647437345574917e-03
    -1.0770329614269010e+00 7.8527181254825339e-03
    -1.0506646010483576e+00 8.0007792633647410e-03
    -1.2216004634526350e+00 7.8581228187487792e-03
    -9.4006432239105764e-01 7.8455291845869989e-03
    -1.0250038592085422e+00 7.8455291845869989e-03
    -9.7560608286114248e-01 8.0007792633647410e-03
    -8.1859824870537390e-01 8.0442759853862084e-03
    -7.9772403521746571e-01 8.1208057642662753e-03
    -7.6696498884737041e-01 8.1798279240378399e-03
    -7.4678799380567684e-01 8.0682433623650435e-03
    -7.8740078740118113e-01 8.0682433623650435e-03
    -7.8740078740118113e-01 7.9629800947946024e-03
    -8.3979947481213446e-01 7.9461443637676571e-03
    -8.5053174856624181e-01 7.8816727843249168e-03
    -9.0566258568029834e-01 8.0217996185028492e-03
    -8.0812203564176854e-01 8.0937396371657151e-03
    -7.7714888923526360e-01 7.9306505605391108e-03
    -8.6135676921410897e-01 7.8816727843249168e-03
    -9.0566258568029834e-01 7.9811826505878595e-03
    -8.2915619758884984e-01 8.0217996185028492e-03
    -8.0812203564176854e-01 8.0007792633647410e-03
    -8.1859824870537390e-01 8.0442759853862084e-03
    -7.9772403521746571e-01 7.9036002007473877e-03
    -8.8330050391686077e-01 7.8431372549019607e-03 -1.
    7.9036002007473859e-03 -1.1321175472737228e+00
    7.8527181254825339e-03 -1.0506646010483576e+00
    7.9306505605391108e-03 -1.1609591237233643e+00
    7.8455291845869989e-03 -1.0250038592085422e+00
    7.8581228187487792e-03 -9.4006432239105764e-01
    7.8647437345574899e-03 -9.2847669088525919e-01
    7.9461443637676571e-03 -8.5053174856624181e-01
    8.5376347718847494e-03 -6.5850460786851817e-01
    1.0229396549980740e-02 -4.6695300917967630e-01
    1.0855367886283549e-02 -4.2717882885838043e-01
    9.3415504924860282e-03 -5.4405882034941777e-01
    7.9164760173759553e-03 -8.7227837598864699e-01
    7.8581228187487792e-03 -9.4006432239105764e-01
    7.8581228187487792e-03 -1.0637569963898812e+00
    7.8527181254825339e-03 -1.0506646010483576e+00
    7.8437350322173287e-03 -9.8772959664958948e-01
    7.8485221764116597e-03 -1.0377490433255416e+00
    7.8455291845869989e-03 -9.7560608286114248e-01
    7.8816727843249168e-03 -9.0566258568029834e-01
    7.8527181254825322e-03 -9.5177852094968840e-01
    7.8647437345574899e-03 -9.2847669088525919e-01
    8.0007792633647410e-03 -8.1859824870537390e-01
    8.1798279240378399e-03 -7.4678799380567684e-01
    8.2457067968126213e-03 -7.2684378431163110e-01
    8.0442759853862084e-03 -7.9772403521746571e-01
    8.0937396371657151e-03 -7.7714888923526360e-01
    8.0937396371657151e-03 -7.7714888923526360e-01
    7.9811826505878595e-03 -8.2915619758884984e-01
    8.0442759853862084e-03 -7.9772403521746571e-01
    7.9629800947946024e-03 -8.3979947481213446e-01
    8.0442759853862084e-03 -7.9772403521746571e-01
    8.2457067968126213e-03 -7.2684378431163110e-01
    8.0442759853862084e-03 -7.9772403521746571e-01
    8.0217996185028492e-03 -8.0812203564176854e-01
    8.1208057642662753e-03 -7.6696498884737041e-01
    8.0442759853862084e-03 -7.9772403521746571e-01
    8.2457067968126213e-03 -7.2684378431163110e-01
    8.1494859609570029e-03 -7.5684577952221055e-01
    8.0937396371657151e-03 -7.7714888923526360e-01
    7.8581228187487792e-03 -9.4006432239105764e-01
    7.8485221764116597e-03 -1.0377490433255416e+00
    7.8816727843249168e-03 -1.1041639743225553e+00
    7.8920046264698458e-03 -1.1180339887498947e+00
    7.9036002007473877e-03 -8.8330050391686077e-01
    7.9036002007473877e-03 -8.8330050391686077e-01
    7.9461443637676571e-03 -8.5053174856624181e-01
    8.0442759853862084e-03 -7.9772403521746571e-01
    8.1494859609570029e-03 -7.5684577952221055e-01
    1.0683626728176727e-02 -4.3723731609760308e-01
    1.1921081691824495e-02 -3.7529331252040077e-01
    9.8498171585547894e-03 -4.9613893835683387e-01
    8.2813587834000765e-03 -7.1695096874806219e-01
    7.8485221764116597e-03 -9.6362411165943151e-01
    7.8455291845869989e-03 -1.0250038592085422e+00
    7.8581228187487792e-03 -1.0637569963898812e+00
    7.8431372549019607e-03 -1. 7.8455291845869989e-03
    -9.7560608286114248e-01 7.8455291845869989e-03
    -1.0250038592085422e+00 7.8725900715343900e-03
    -9.1701095462872806e-01 7.8816727843249168e-03
    -9.0566258568029834e-01 8.0217996185028492e-03
    -8.0812203564176854e-01 7.9036002007473877e-03
    -8.8330050391686077e-01 8.1494859609570029e-03
    -7.5684577952221055e-01 8.1798279240378399e-03
    -7.4678799380567684e-01 8.0217996185028492e-03
    -8.0812203564176854e-01 7.9811826505878595e-03
    -8.2915619758884984e-01 7.9811826505878595e-03
    -8.2915619758884984e-01 8.1208057642662753e-03
    -7.6696498884737041e-01 8.0442759853862084e-03
    -7.9772403521746571e-01 8.0217996185028492e-03
    -8.0812203564176854e-01 8.1798279240378399e-03
    -7.4678799380567684e-01 8.0217996185028492e-03
    -8.0812203564176854e-01 8.0682433623650435e-03
    -7.8740078740118113e-01 8.0682433623650435e-03
    -7.8740078740118113e-01 8.2118830693709774e-03
    -7.3678839761300718e-01 8.1208057642662753e-03
    -7.6696498884737041e-01 8.3584096117108025e-03
    -6.9730806112513266e-01 8.1208057642662753e-03
    -7.6696498884737041e-01 8.1208057642662753e-03
    -7.6696498884737041e-01 7.9811826505878595e-03
    -8.2915619758884984e-01 7.8647437345574899e-03
    -9.2847669088525919e-01 7.8647437345574917e-03
    -1.0770329614269010e+00 8.0217996185028527e-03
    -1.2374368670764586e+00 7.8527181254825322e-03
    -9.5177852094968840e-01 7.8725900715343900e-03
    -9.1701095462872806e-01 7.8725900715343900e-03
    -9.1701095462872806e-01 8.0217996185028492e-03
    -8.0812203564176854e-01 8.0682433623650435e-03
    -7.8740078740118113e-01 9.9691547915831836e-03
    -4.8645783103373497e-01 1.3956610505201370e-02
    -3.0756234261462279e-01 1.0371544122414799e-02
    -4.5711620391383745e-01 8.5881928833933113e-03
    -6.4888568452305018e-01 7.8725900715343900e-03
    -9.1701095462872806e-01 7.8581228187487792e-03
    -9.4006432239105764e-01 7.8437350322173287e-03
    -1.0124228365658292e+00 7.8455291845869989e-03
    -9.7560608286114248e-01 7.8485221764116597e-03
    -1.0377490433255416e+00 7.8485221764116597e-03
    -1.0377490433255416e+00 7.8647437345574899e-03
    -9.2847669088525919e-01 7.9036002007473877e-03
    -8.8330050391686077e-01 7.9036002007473877e-03
    -8.8330050391686077e-01 7.9306505605391108e-03
    -8.6135676921410897e-01 8.0682433623650435e-03
    -7.8740078740118113e-01 8.2118830693709774e-03
    -7.3678839761300718e-01 8.1208057642662753e-03
    -7.6696498884737041e-01 8.0217996185028492e-03
    -8.0812203564176854e-01 7.9164760173759553e-03
    -8.7227837598864699e-01 7.9461443637676571e-03
    -8.5053174856624181e-01 8.0937396371657151e-03
    -7.7714888923526360e-01 8.0682433623650435e-03
    -7.8740078740118113e-01 8.2813587834000765e-03
    -7.1695096874806219e-01 8.1798279240378399e-03
    -7.4678799380567684e-01 8.2457067968126213e-03
    -7.2684378431163110e-01 8.1494859609570029e-03
    -7.5684577952221055e-01 8.4436117711295302e-03
    -6.7783438940456497e-01 8.4436117711295302e-03
    -6.7783438940456497e-01 8.2457067968126213e-03
    -7.2684378431163110e-01 8.0442759853862084e-03
    -7.9772403521746571e-01 7.8527181254825322e-03
    -9.5177852094968840e-01 7.8437350322173287e-03
    -9.8772959664958948e-01 8.0442759853862084e-03
    -7.9772403521746571e-01 7.9036002007473859e-03
    -1.1321175472737228e+00 7.8527181254825339e-03
    -1.0506646010483576e+00 7.8920046264698458e-03
    -8.9442719099991586e-01 7.9036002007473877e-03
    -8.8330050391686077e-01 7.8920046264698458e-03
    -8.9442719099991586e-01 8.0217996185028492e-03
    -8.0812203564176854e-01 8.0937396371657151e-03
    -7.7714888923526360e-01 9.8498171585547894e-03
    -4.9613893835683387e-01 1.4974025954538653e-02
    -2.8284271247461901e-01 9.7369515502242956e-03
    -5.0578053885887309e-01 8.6969490066009566e-03
    -6.2972352992240255e-01 8.2813587834000765e-03
    -7.1695096874806219e-01 7.8725900715343900e-03
    -9.1701095462872806e-01 7.8455291845869989e-03
    -9.7560608286114248e-01 7.8431372549019607e-03 -1.
    7.8581228187487792e-03 -1.0637569963898812e+00
    7.8431372549019607e-03 -1. 7.8527181254825322e-03
    -9.5177852094968840e-01 7.9811826505878595e-03
    -8.2915619758884984e-01 7.9811826505878595e-03
    -8.2915619758884984e-01 7.8920046264698458e-03
    -8.9442719099991586e-01 7.9164760173759553e-03
    -8.7227837598864699e-01 8.0217996185028492e-03
    -8.0812203564176854e-01 7.9036002007473877e-03
    -8.8330050391686077e-01 8.1208057642662753e-03
    -7.6696498884737041e-01 8.0007792633647410e-03
    -8.1859824870537390e-01 7.9629800947946024e-03
    -8.3979947481213446e-01 8.1208057642662753e-03
    -7.6696498884737041e-01 8.2813587834000765e-03
    -7.1695096874806219e-01 8.1798279240378399e-03
    -7.4678799380567684e-01 8.1208057642662753e-03
    -7.6696498884737041e-01 8.3999522967026560e-03
    -6.8755165095232851e-01 8.3189033080770299e-03
    -7.0710678118654757e-01 8.3584096117108025e-03
    -6.9730806112513266e-01 8.0682433623650435e-03
    -7.8740078740118113e-01 8.0682433623650435e-03
    -7.8740078740118113e-01 8.2813587834000765e-03
    -7.1695096874806219e-01 7.9036002007473877e-03
    -8.8330050391686077e-01 8.2457067968126213e-03
    -7.2684378431163110e-01 7.8920046264698458e-03
    -8.9442719099991586e-01 7.9036002007473859e-03
    -1.1321175472737228e+00 7.8816727843249168e-03
    -1.1041639743225553e+00 7.8581228187487792e-03
    -9.4006432239105764e-01 7.8431372549019607e-03 -1.
    7.8647437345574899e-03 -9.2847669088525919e-01
    7.9811826505878595e-03 -8.2915619758884984e-01
    7.9811826505878595e-03 -8.2915619758884984e-01
    9.7369515502242956e-03 -5.0578053885887309e-01
    1.4974025954538653e-02 -2.8284271247461901e-01
    1.0683626728176727e-02 -4.3723731609760308e-01
    9.0196611144221697e-03 -5.8210220340298635e-01
    8.7553930298264783e-03 -6.2017367294604220e-01
    7.9811826505878595e-03 -8.2915619758884984e-01
    8.0442759853862084e-03 -7.9772403521746571e-01
    7.8437350322173287e-03 -1.0124228365658292e+00
    7.8455291845869989e-03 -1.0250038592085422e+00
    7.8485221764116597e-03 -9.6362411165943151e-01
    7.8431372549019607e-03 -1. 7.8581228187487792e-03
    -9.4006432239105764e-01 7.8485221764116597e-03
    -1.0377490433255416e+00 7.8816727843249168e-03
    -1.1041639743225553e+00 7.8431372549019607e-03 -1.
    7.8647437345574899e-03 -9.2847669088525919e-01
    8.0217996185028492e-03 -8.0812203564176854e-01
    7.9811826505878595e-03 -8.2915619758884984e-01
    8.1494859609570029e-03 -7.5684577952221055e-01
    8.0217996185028492e-03 -8.0812203564176854e-01
    8.1798279240378399e-03 -7.4678799380567684e-01
    8.5881928833933113e-03 -6.4888568452305018e-01
    8.4894747431005398e-03 -6.6815310478106105e-01
    8.4894747431005398e-03 -6.6815310478106105e-01
    8.6969490066009566e-03 -6.2972352992240255e-01
    8.4894747431005398e-03 -6.6815310478106105e-01
    8.3584096117108025e-03 -6.9730806112513266e-01
    8.3584096117108025e-03 -6.9730806112513266e-01
    8.1208057642662753e-03 -7.6696498884737041e-01
    7.9306505605391108e-03 -8.6135676921410897e-01
    7.8725900715343900e-03 -9.1701095462872806e-01
    7.9629800947946024e-03 -8.3979947481213446e-01
    7.8725900715343900e-03 -9.1701095462872806e-01
    7.9164760173759535e-03 -1.1464230084422213e+00
    7.9629800947946024e-03 -1.1907604493604891e+00
    7.8437350322173287e-03 -9.8772959664958948e-01
    7.8485221764116597e-03 -9.6362411165943151e-01
    7.9461443637676571e-03 -8.5053174856624181e-01
    7.9811826505878595e-03 -8.2915619758884984e-01
    7.9811826505878595e-03 -8.2915619758884984e-01
    1.0229396549980740e-02 -4.6695300917967630e-01
    1.8099620967118965e-02 -2.2792115291927587e-01
    1.2478354962115544e-02 -3.5355339059327373e-01
    9.0196611144221697e-03 -5.8210220340298635e-01
    8.4436117711295302e-03 -6.7783438940456497e-01
    7.9036002007473877e-03 -8.8330050391686077e-01
    7.9164760173759553e-03 -8.7227837598864699e-01
    7.8920046264698458e-03 -8.9442719099991586e-01
    7.9036002007473877e-03 -8.8330050391686077e-01
    7.8581228187487792e-03 -9.4006432239105764e-01
    7.8437350322173287e-03 -1.0124228365658292e+00
    7.9036002007473877e-03 -8.8330050391686077e-01
    7.8527181254825322e-03 -9.5177852094968840e-01
    7.8437350322173287e-03 -1.0124228365658292e+00
    7.8455291845869989e-03 -1.0250038592085422e+00
    7.8437350322173287e-03 -1.0124228365658292e+00
    7.8455291845869989e-03 -9.7560608286114248e-01
    8.1494859609570029e-03 -7.5684577952221055e-01
    8.0682433623650435e-03 -7.8740078740118113e-01
    7.9811826505878595e-03 -8.2915619758884984e-01
    8.0937396371657151e-03 -7.7714888923526360e-01
    8.2118830693709774e-03 -7.3678839761300718e-01
    8.3999522967026560e-03 -6.8755165095232851e-01
    8.6412582588103939e-03 -6.3929308785088002e-01
    8.3999522967026560e-03 -6.8755165095232851e-01
    8.2457067968126213e-03 -7.2684378431163110e-01
    8.2118830693709774e-03 -7.3678839761300718e-01
    8.1494859609570029e-03 -7.5684577952221055e-01
    8.0937396371657151e-03 -7.7714888923526360e-01
    7.8527181254825322e-03 -9.5177852094968840e-01
    7.8647437345574899e-03 -9.2847669088525919e-01
    7.9629800947946024e-03 -8.3979947481213446e-01
    7.8647437345574917e-03 -1.0770329614269010e+00
    7.9036002007473859e-03 -1.1321175472737228e+00
    7.8647437345574899e-03 -9.2847669088525919e-01
    7.8725900715343900e-03 -9.1701095462872806e-01
    7.8920046264698458e-03 -8.9442719099991586e-01
    8.0217996185028492e-03 -8.0812203564176854e-01
    8.0217996185028492e-03 -8.0812203564176854e-01
    8.2813587834000765e-03 -7.1695096874806219e-01
    1.0855367886283549e-02 -4.2717882885838043e-01
    1.3956610505201370e-02 -3.0756234261462279e-01
    1.1447205408367103e-02 -3.9641248358604592e-01
    9.1725476151009178e-03 -5.6309250637147301e-01
    8.7553930298264783e-03 -6.2017367294604220e-01
    7.9629800947946024e-03 -8.3979947481213446e-01
    7.8816727843249168e-03 -9.0566258568029834e-01
    7.8725900715343900e-03 -9.1701095462872806e-01
    7.8725900715343900e-03 -9.1701095462872806e-01
    7.8437350322173287e-03 -9.8772959664958948e-01
    7.8431372549019607e-03 -1. 7.8455291845869989e-03
    -9.7560608286114248e-01 7.8485221764116597e-03
    -9.6362411165943151e-01 7.8455291845869989e-03
    -9.7560608286114248e-01 7.8527181254825322e-03
    -9.5177852094968840e-01 7.8527181254825322e-03
    -9.5177852094968840e-01 7.8431372549019607e-03 -1.
    7.8647437345574899e-03 -9.2847669088525919e-01
    8.1208057642662753e-03 -7.6696498884737041e-01
    7.9306505605391108e-03 -8.6135676921410897e-01
    8.0217996185028492e-03 -8.0812203564176854e-01
    8.4436117711295302e-03 -6.7783438940456497e-01
    8.3584096117108025e-03 -6.9730806112513266e-01
    8.5376347718847494e-03 -6.5850460786851817e-01
    8.2813587834000765e-03 -7.1695096874806219e-01
    8.1208057642662753e-03 -7.6696498884737041e-01
    8.0937396371657151e-03 -7.7714888923526360e-01
    7.8725900715343900e-03 -9.1701095462872806e-01
    7.9036002007473877e-03 -8.8330050391686077e-01
    8.0007792633647410e-03 -8.1859824870537390e-01
    7.9306505605391108e-03 -8.6135676921410897e-01
    7.9306505605391108e-03 -8.6135676921410897e-01
    7.8920046264698458e-03 -1.1180339887498947e+00
    7.8920046264698458e-03 -1.1180339887498947e+00
    7.8647437345574899e-03 -9.2847669088525919e-01
    7.8485221764116597e-03 -9.6362411165943151e-01
    7.8816727843249168e-03 -9.0566258568029834e-01
    8.0442759853862084e-03 -7.9772403521746571e-01
    8.0682433623650435e-03 -7.8740078740118113e-01
    8.6969490066009566e-03 -6.2972352992240255e-01
    1.2187931786629649e-02 -3.6450944139642377e-01
    1.4974025954538653e-02 -2.8284271247461901e-01
    1.2187931786629649e-02 -3.6450944139642377e-01
    9.4327497145561545e-03 -5.3452248382484868e-01
    8.7553930298264783e-03 -6.2017367294604220e-01
    8.2118830693709774e-03 -7.3678839761300718e-01
    7.9629800947946024e-03 -8.3979947481213446e-01
    7.8647437345574899e-03 -9.2847669088525919e-01
    7.8437350322173287e-03 -9.8772959664958948e-01
    7.8581228187487792e-03 -1.0637569963898812e+00
    7.8527181254825322e-03 -9.5177852094968840e-01
    7.8581228187487792e-03 -9.4006432239105764e-01
    7.8581228187487792e-03 -9.4006432239105764e-01
    7.8816727843249168e-03 -1.1041639743225553e+00
    7.8816727843249168e-03 -1.1041639743225553e+00
    7.8455291845869989e-03 -1.0250038592085422e+00
    7.8485221764116597e-03 -1.0377490433255416e+00
    7.8437350322173287e-03 -9.8772959664958948e-01
    7.9164760173759553e-03 -8.7227837598864699e-01
    7.8527181254825322e-03 -9.5177852094968840e-01
    7.8581228187487792e-03 -9.4006432239105764e-01
    8.2813587834000765e-03 -7.1695096874806219e-01
    7.9461443637676571e-03 -8.5053174856624181e-01
    7.9629800947946024e-03 -8.3979947481213446e-01
    7.9164760173759553e-03 -8.7227837598864699e-01
    7.8455291845869989e-03 -1.0250038592085422e+00
    7.8437350322173287e-03 -9.8772959664958948e-01
    7.8816727843249168e-03 -9.0566258568029834e-01
    7.8647437345574899e-03 -9.2847669088525919e-01
    7.8431372549019607e-03 -1. 7.9461443637676571e-03
    -8.5053174856624181e-01 7.8485221764116597e-03
    -1.0377490433255416e+00 7.9164760173759535e-03
    -1.1464230084422213e+00 7.8647437345574899e-03
    -9.2847669088525919e-01 7.8920046264698458e-03
    -8.9442719099991586e-01 7.8920046264698458e-03
    -8.9442719099991586e-01 7.9811826505878595e-03
    -8.2915619758884984e-01 7.9811826505878595e-03
    -8.2915619758884984e-01 8.2118830693709774e-03
    -7.3678839761300718e-01 8.6412582588103939e-03
    -6.3929308785088002e-01 1.2478354962115544e-02
    -3.5355339059327373e-01 1.9286790587542048e-02
    -2.1251185925162072e-01 1.4974025954538653e-02
    -2.8284271247461901e-01 1.0229396549980740e-02
    -4.6695300917967630e-01 8.6969490066009566e-03
    -6.2972352992240255e-01 8.3584096117108025e-03
    -6.9730806112513266e-01 8.1494859609570029e-03
    -7.5684577952221055e-01 7.8647437345574899e-03
    -9.2847669088525919e-01 7.8527181254825322e-03
    -9.5177852094968840e-01 7.8437350322173287e-03
    -9.8772959664958948e-01 7.8437350322173287e-03
    -9.8772959664958948e-01 7.8581228187487792e-03
    -1.0637569963898812e+00 7.8431372549019607e-03 -1.
    7.8920046264698458e-03 -1.1180339887498947e+00
    8.0682433623650435e-03 -1.2700012700019050e+00
    7.8455291845869989e-03 -1.0250038592085422e+00
    7.8437350322173287e-03 -1.0124228365658292e+00
    7.8485221764116597e-03 -9.6362411165943151e-01
    7.8647437345574899e-03 -9.2847669088525919e-01
    7.8647437345574899e-03 -9.2847669088525919e-01
    7.8725900715343900e-03 -9.1701095462872806e-01
    7.8581228187487792e-03 -9.4006432239105764e-01
    7.8527181254825322e-03 -9.5177852094968840e-01
    7.8816727843249168e-03 -9.0566258568029834e-01
    7.8455291845869989e-03 -9.7560608286114248e-01
    7.8455291845869989e-03 -9.7560608286114248e-01
    7.8437350322173287e-03 -1.0124228365658292e+00
    7.8455291845869989e-03 -9.7560608286114248e-01
    7.8485221764116597e-03 -1.0377490433255416e+00
    7.8437350322173287e-03 -9.8772959664958948e-01
    7.9461443637676571e-03 -8.5053174856624181e-01
    7.8437350322173287e-03 -9.8772959664958948e-01
    7.8725900715343900e-03 -9.1701095462872806e-01
    7.9164760173759553e-03 -8.7227837598864699e-01
    7.9461443637676571e-03 -8.5053174856624181e-01
    8.0937396371657151e-03 -7.7714888923526360e-01
    8.0937396371657151e-03 -7.7714888923526360e-01
    8.0442759853862084e-03 -7.9772403521746571e-01
    8.2813587834000765e-03 -7.1695096874806219e-01
    9.0196611144221697e-03 -5.8210220340298635e-01
    1.2478354962115544e-02 -3.5355339059327373e-01
    1.8099620967118965e-02 -2.2792115291927587e-01
    1.4974025954538653e-02 -2.8284271247461901e-01
    1.2187931786629649e-02 -3.6450944139642377e-01
    8.8811074729810389e-03 -6.0111940395825370e-01
    8.2813587834000765e-03 -7.1695096874806219e-01
    8.2457067968126213e-03 -7.2684378431163110e-01
    8.2813587834000765e-03 -7.1695096874806219e-01
    7.9461443637676571e-03 -8.5053174856624181e-01
    8.0007792633647410e-03 -8.1859824870537390e-01
    7.8920046264698458e-03 -8.9442719099991586e-01
    7.9164760173759553e-03 -8.7227837598864699e-01
    7.9164760173759553e-03 -8.7227837598864699e-01
    7.9036002007473877e-03 -8.8330050391686077e-01
    7.9036002007473859e-03 -1.1321175472737228e+00
    7.9306505605391108e-03 -1.1609591237233643e+00
    7.9164760173759535e-03 -1.1464230084422213e+00
    7.8581228187487792e-03 -1.0637569963898812e+00
    7.8647437345574917e-03 -1.0770329614269010e+00
    7.8581228187487792e-03 -1.0637569963898812e+00
    7.8455291845869989e-03 -9.7560608286114248e-01
    7.8437350322173287e-03 -9.8772959664958948e-01
    7.8431372549019607e-03 -1. 7.8527181254825322e-03
    -9.5177852094968840e-01 7.8485221764116597e-03
    -9.6362411165943151e-01 7.8437350322173287e-03
    -9.8772959664958948e-01 7.8581228187487792e-03
    -1.0637569963898812e+00 7.8527181254825339e-03
    -1.0506646010483576e+00 7.9306505605391108e-03
    -8.6135676921410897e-01 7.8455291845869989e-03
    -1.0250038592085422e+00 7.9164760173759553e-03
    -8.7227837598864699e-01 7.9164760173759535e-03
    -1.1464230084422213e+00 7.8816727843249168e-03
    -9.0566258568029834e-01 7.9629800947946024e-03
    -8.3979947481213446e-01 7.9461443637676571e-03
    -8.5053174856624181e-01 8.0442759853862084e-03
    -7.9772403521746571e-01 8.2118830693709774e-03
    -7.3678839761300718e-01 8.0937396371657151e-03
    -7.7714888923526360e-01 8.6412582588103939e-03
    -6.3929308785088002e-01 9.6300909940896916e-03
    -5.1538820320220757e-01 1.3956610505201370e-02
    -3.0756234261462279e-01 2.0765237838160665e-02
    -1.9611613513818407e-01 1.4974025954538653e-02
    -2.8284271247461901e-01 1.3144328818978784e-02
    -3.3104235544094718e-01 1.0371544122414799e-02
    -4.5711620391383745e-01 8.9486921088901758e-03
    -5.9160797830996170e-01 8.3584096117108025e-03
    -6.9730806112513266e-01 8.3584096117108025e-03
    -6.9730806112513266e-01 8.4894747431005398e-03
    -6.6815310478106105e-01 8.0217996185028492e-03
    -8.0812203564176854e-01 8.0937396371657151e-03
    -7.7714888923526360e-01 8.0682433623650435e-03
    -7.8740078740118113e-01 8.1208057642662753e-03
    -7.6696498884737041e-01 7.8816727843249168e-03
    -9.0566258568029834e-01 7.8485221764116597e-03
    -9.6362411165943151e-01 7.9036002007473859e-03
    -1.1321175472737228e+00 8.0442759853862084e-03
    -1.2535663410560176e+00 8.0682433623650435e-03
    -1.2700012700019050e+00 7.9164760173759535e-03
    -1.1464230084422213e+00 7.8431372549019607e-03 -1.
    7.8485221764116597e-03 -1.0377490433255416e+00
    7.8455291845869989e-03 -9.7560608286114248e-01
    7.8485221764116597e-03 -9.6362411165943151e-01
    7.8725900715343900e-03 -1.0904995136125413e+00
    7.8485221764116597e-03 -1.0377490433255416e+00
    7.9164760173759553e-03 -8.7227837598864699e-01
    7.8455291845869989e-03 -9.7560608286114248e-01
    7.8527181254825339e-03 -1.0506646010483576e+00
    7.8437350322173287e-03 -1.0124228365658292e+00
    7.8647437345574917e-03 -1.0770329614269010e+00
    7.8725900715343900e-03 -9.1701095462872806e-01
    7.8455291845869989e-03 -9.7560608286114248e-01
    8.0007792633647410e-03 -8.1859824870537390e-01
    8.0682433623650435e-03 -7.8740078740118113e-01
    8.1208057642662753e-03 -7.6696498884737041e-01
    8.0937396371657151e-03 -7.7714888923526360e-01
    8.6969490066009566e-03 -6.2972352992240255e-01
    8.3584096117108025e-03 -6.9730806112513266e-01
    8.9486921088901758e-03 -5.9160797830996170e-01
    1.1447205408367103e-02 -3.9641248358604592e-01
    1.3956610505201370e-02 -3.0756234261462279e-01
    2.5270643144405542e-02 -1.5911145683514602e-01
    1.8099620967118965e-02 -2.2792115291927587e-01
    1.3529150788234022e-02 -3.1943828249996997e-01
    1.0855367886283549e-02 -4.2717882885838043e-01
    1.0095486239070977e-02 -4.7673129462279612e-01
    9.2549098601163275e-03 -5.5358071941066178e-01
    8.7553930298264783e-03 -6.2017367294604220e-01
    8.6412582588103939e-03 -6.3929308785088002e-01
    8.3189033080770299e-03 -7.0710678118654757e-01
    8.0007792633647410e-03 -8.1859824870537390e-01
    8.2118830693709774e-03 -7.3678839761300718e-01
    8.0217996185028492e-03 -8.0812203564176854e-01
    7.9306505605391108e-03 -8.6135676921410897e-01
    7.9629800947946024e-03 -8.3979947481213446e-01
    7.8816727843249168e-03 -9.0566258568029834e-01
    7.8455291845869989e-03 -1.0250038592085422e+00
    7.8455291845869989e-03 -9.7560608286114248e-01
    7.8455291845869989e-03 -9.7560608286114248e-01
    7.8455291845869989e-03 -9.7560608286114248e-01
    7.8431372549019607e-03 -1. 7.8647437345574917e-03
    -1.0770329614269010e+00 7.8437350322173287e-03
    -9.8772959664958948e-01 7.8816727843249168e-03
    -1.1041639743225553e+00 7.8581228187487792e-03
    -1.0637569963898812e+00 7.8725900715343900e-03
    -9.1701095462872806e-01 7.9164760173759553e-03
    -8.7227837598864699e-01 7.8647437345574899e-03
    -9.2847669088525919e-01 7.8725900715343900e-03
    -1.0904995136125413e+00 7.8581228187487792e-03
    -9.4006432239105764e-01 7.8455291845869989e-03
    -9.7560608286114248e-01 7.8725900715343900e-03
    -9.1701095462872806e-01 8.1798279240378399e-03
    -7.4678799380567684e-01 8.3584096117108025e-03
    -6.9730806112513266e-01 8.3189033080770299e-03
    -7.0710678118654757e-01 8.3999522967026560e-03
    -6.8755165095232851e-01 8.3999522967026560e-03
    -6.8755165095232851e-01 9.0196611144221697e-03
    -5.8210220340298635e-01 9.4327497145561545e-03
    -5.3452248382484868e-01 1.1921081691824495e-02
    -3.7529331252040077e-01 1.6294950297823036e-02
    -2.5649458802128855e-01 2.5270643144405542e-02
    -1.5911145683514602e-01 2.0765237838160665e-02
    -1.9611613513818407e-01 1.3956610505201370e-02
    -3.0756234261462279e-01 1.1447205408367103e-02
    -3.9641248358604592e-01 1.0371544122414799e-02
    -4.5711620391383745e-01 9.8498171585547894e-03
    -4.9613893835683387e-01 9.4327497145561545e-03
    -5.3452248382484868e-01 9.2549098601163275e-03
    -5.5358071941066178e-01 8.7553930298264783e-03
    -6.2017367294604220e-01 8.5376347718847494e-03
    -6.5850460786851817e-01 8.3189033080770299e-03
    -7.0710678118654757e-01 8.1494859609570029e-03
    -7.5684577952221055e-01 8.1494859609570029e-03
    -7.5684577952221055e-01 8.0442759853862084e-03
    -7.9772403521746571e-01 8.0682433623650435e-03
    -7.8740078740118113e-01 8.1494859609570029e-03
    -7.5684577952221055e-01 7.8725900715343900e-03
    -9.1701095462872806e-01 7.8816727843249168e-03
    -9.0566258568029834e-01 8.0217996185028492e-03
    -8.0812203564176854e-01 7.8816727843249168e-03
    -9.0566258568029834e-01 7.8485221764116597e-03
    -9.6362411165943151e-01 7.8725900715343900e-03
    -1.0904995136125413e+00 7.9164760173759535e-03
    -1.1464230084422213e+00 7.8527181254825322e-03
    -9.5177852094968840e-01 7.8647437345574899e-03
    -9.2847669088525919e-01 7.8437350322173287e-03
    -9.8772959664958948e-01 7.8455291845869989e-03
    -1.0250038592085422e+00 7.8581228187487792e-03
    -9.4006432239105764e-01 7.8920046264698458e-03
    -8.9442719099991586e-01 7.9036002007473877e-03
    -8.8330050391686077e-01 8.3189033080770299e-03
    -7.0710678118654757e-01 8.2457067968126213e-03
    -7.2684378431163110e-01 8.3189033080770299e-03
    -7.0710678118654757e-01 8.3584096117108025e-03
    -6.9730806112513266e-01 8.2457067968126213e-03
    -7.2684378431163110e-01 8.4894747431005398e-03
    -6.6815310478106105e-01 9.0196611144221697e-03
    -5.8210220340298635e-01 9.6300909940896916e-03
    -5.1538820320220757e-01 1.3529150788234022e-02
    -3.1943828249996997e-01 1.6294950297823036e-02
    -2.5649458802128855e-01 2.9088119424428259e-02
    -1.3736056394868901e-01 2.5270643144405542e-02
    -1.5911145683514602e-01 1.5587986388143229e-02
    -2.6990309764655401e-01 1.4974025954538653e-02
    -2.8284271247461901e-01 1.2795768442229729e-02
    -3.4240528516707330e-01 1.0855367886283549e-02
    -4.2717882885838043e-01 1.0371544122414799e-02
    -4.5711620391383745e-01 9.8498171585547894e-03
    -4.9613893835683387e-01 9.1725476151009178e-03
    -5.6309250637147301e-01 9.6300909940896916e-03
    -5.1538820320220757e-01 9.2549098601163275e-03
    -5.5358071941066178e-01 8.7553930298264783e-03
    -6.2017367294604220e-01 8.3999522967026560e-03
    -6.8755165095232851e-01 8.3999522967026560e-03
    -6.8755165095232851e-01 8.2813587834000765e-03
    -7.1695096874806219e-01 8.1494859609570029e-03
    -7.5684577952221055e-01 8.1494859609570029e-03
    -7.5684577952221055e-01 7.8581228187487792e-03
    -9.4006432239105764e-01 7.8647437345574899e-03
    -9.2847669088525919e-01 7.8816727843249168e-03
    -9.0566258568029834e-01 7.9461443637676571e-03
    -8.5053174856624181e-01 7.9036002007473877e-03
    -8.8330050391686077e-01 7.8485221764116597e-03
    -1.0377490433255416e+00 7.8455291845869989e-03
    -9.7560608286114248e-01 7.8647437345574899e-03
    -9.2847669088525919e-01 7.9306505605391108e-03
    -8.6135676921410897e-01 7.9461443637676571e-03
    -8.5053174856624181e-01 7.9461443637676571e-03
    -8.5053174856624181e-01 7.9811826505878595e-03
    -8.2915619758884984e-01 7.9306505605391108e-03
    -8.6135676921410897e-01 8.3189033080770299e-03
    -7.0710678118654757e-01 8.0937396371657151e-03
    -7.7714888923526360e-01 8.2457067968126213e-03
    -7.2684378431163110e-01 8.2118830693709774e-03
    -7.3678839761300718e-01 8.5376347718847494e-03
    -6.5850460786851817e-01 8.9486921088901758e-03
    -5.9160797830996170e-01 9.4327497145561545e-03
    -5.3452248382484868e-01 1.2187931786629649e-02
    -3.6450944139642377e-01 1.3529150788234022e-02
    -3.1943828249996997e-01 1.8099620967118965e-02
    -2.2792115291927587e-01 3.5514020819114304e-02
    -1.1180339887498948e-01 1.9286790587542048e-02
    -2.1251185925162072e-01 1.9286790587542048e-02
    -2.1251185925162072e-01 1.6294950297823036e-02
    -2.5649458802128855e-01 1.4434775165622166e-02
    -2.9537826959282393e-01 1.1674966159481746e-02
    -3.8592249249397992e-01 1.0683626728176727e-02
    -4.3723731609760308e-01 1.1447205408367103e-02
    -3.9641248358604592e-01 1.0522672835293128e-02
    -4.4721359549995793e-01 9.8498171585547894e-03
    -4.9613893835683387e-01 1.0522672835293128e-02
    -4.4721359549995793e-01 9.6300909940896916e-03
    -5.1538820320220757e-01 8.5376347718847494e-03
    -6.5850460786851817e-01 8.3584096117108025e-03
    -6.9730806112513266e-01 8.4894747431005398e-03
    -6.6815310478106105e-01 8.3189033080770299e-03
    -7.0710678118654757e-01 8.2813587834000765e-03
    -7.1695096874806219e-01 8.1798279240378399e-03
    -7.4678799380567684e-01 7.9164760173759553e-03
    -8.7227837598864699e-01 7.9164760173759553e-03
    -8.7227837598864699e-01 7.8647437345574899e-03
    -9.2847669088525919e-01 7.8455291845869989e-03
    -9.7560608286114248e-01 7.8725900715343900e-03
    -9.1701095462872806e-01 8.0442759853862084e-03
    -7.9772403521746571e-01 7.8920046264698458e-03
    -8.9442719099991586e-01 7.9811826505878595e-03
    -8.2915619758884984e-01 8.0442759853862084e-03
    -7.9772403521746571e-01 8.5881928833933113e-03
    -6.4888568452305018e-01 8.4436117711295302e-03
    -6.7783438940456497e-01 8.3189033080770299e-03
    -7.0710678118654757e-01 8.2118830693709774e-03
    -7.3678839761300718e-01 8.1494859609570029e-03
    -7.5684577952221055e-01 8.6969490066009566e-03
    -6.2972352992240255e-01 9.0196611144221697e-03
    -5.8210220340298635e-01 9.0942088391026132e-03
    -5.7259833431386820e-01 9.4327497145561545e-03
    -5.3452248382484868e-01 1.1038998391256898e-02
    -4.1702882811414949e-01 1.3144328818978784e-02
    -3.3104235544094718e-01 1.7120161767270561e-02
    -2.4253562503633294e-01 1.9286790587542048e-02
    -2.1251185925162072e-01 2.9088119424428259e-02
    -1.3736056394868901e-01 2.5270643144405542e-02
    -1.5911145683514602e-01 2.2674619384356168e-02
    -1.7845765256206245e-01 1.8099620967118965e-02
    -2.2792115291927587e-01 1.7120161767270561e-02
    -2.4253562503633294e-01 1.3956610505201370e-02
    -3.0756234261462279e-01 1.1447205408367103e-02
    -3.9641248358604592e-01 1.1674966159481746e-02
    -3.8592249249397992e-01 1.1921081691824495e-02
    -3.7529331252040077e-01 1.0371544122414799e-02
    -4.5711620391383745e-01 1.0229396549980740e-02
    -4.6695300917967630e-01 1.0683626728176727e-02
    -4.3723731609760308e-01 9.9691547915831836e-03
    -4.8645783103373497e-01 9.7369515502242956e-03
    -5.0578053885887309e-01 8.8811074729810389e-03
    -6.0111940395825370e-01 8.6412582588103939e-03
    -6.3929308785088002e-01 8.6412582588103939e-03
    -6.3929308785088002e-01 8.8167290027299765e-03
    -6.1064011981870570e-01 8.1208057642662753e-03
    -7.6696498884737041e-01 7.9629800947946024e-03
    -8.3979947481213446e-01 7.9164760173759553e-03
    -8.7227837598864699e-01 7.8647437345574899e-03
    -9.2847669088525919e-01 7.8725900715343900e-03
    -9.1701095462872806e-01 7.9461443637676571e-03
    -8.5053174856624181e-01 8.0442759853862084e-03
    -7.9772403521746571e-01 7.9629800947946024e-03
    -8.3979947481213446e-01 8.2813587834000765e-03
    -7.1695096874806219e-01 8.5376347718847494e-03
    -6.5850460786851817e-01 8.2118830693709774e-03
    -7.3678839761300718e-01 8.2457067968126213e-03
    -7.2684378431163110e-01 8.4436117711295302e-03
    -6.7783438940456497e-01 8.5376347718847494e-03
    -6.5850460786851817e-01 9.0942088391026132e-03
    -5.7259833431386820e-01 9.4327497145561545e-03
    -5.3452248382484868e-01 9.3415504924860282e-03
    -5.4405882034941777e-01 1.1674966159481746e-02
    -3.8592249249397992e-01 1.3144328818978784e-02
    -3.3104235544094718e-01 1.5587986388143229e-02
    -2.6990309764655401e-01 1.7120161767270561e-02
    -2.4253562503633294e-01 2.5270643144405542e-02
    -1.5911145683514602e-01 3.5514020819114304e-02
    -1.1180339887498948e-01 2.5270643144405542e-02
    -1.5911145683514602e-01 2.9088119424428259e-02
    -1.3736056394868901e-01 2.2674619384356168e-02
    -1.7845765256206245e-01 1.9286790587542048e-02
    -2.1251185925162072e-01 1.6294950297823036e-02
    -2.5649458802128855e-01 1.2795768442229729e-02
    -3.4240528516707330e-01 1.2187931786629649e-02
    -3.6450944139642377e-01 1.2478354962115544e-02
    -3.5355339059327373e-01 1.2187931786629649e-02
    -3.6450944139642377e-01 1.1447205408367103e-02
    -3.9641248358604592e-01 1.1921081691824495e-02
    -3.7529331252040077e-01 1.0371544122414799e-02
    -4.5711620391383745e-01 1.0855367886283549e-02
    -4.2717882885838043e-01 1.0855367886283549e-02
    -4.2717882885838043e-01 1.0229396549980740e-02
    -4.6695300917967630e-01 9.1725476151009178e-03
    -5.6309250637147301e-01 8.7553930298264783e-03
    -6.2017367294604220e-01 8.8811074729810389e-03
    -6.0111940395825370e-01 8.1494859609570029e-03
    -7.5684577952221055e-01 8.0682433623650435e-03
    -7.8740078740118113e-01 8.0682433623650435e-03
    -7.8740078740118113e-01 8.5881928833933113e-03
    -6.4888568452305018e-01 8.2457067968126213e-03
    -7.2684378431163110e-01 8.1494859609570029e-03
    -7.5684577952221055e-01 8.0937396371657151e-03
    -7.7714888923526360e-01 8.4436117711295302e-03
    -6.7783438940456497e-01 8.5881928833933113e-03
    -6.4888568452305018e-01 8.6412582588103939e-03
    -6.3929308785088002e-01 9.1725476151009178e-03
    -5.6309250637147301e-01 9.0942088391026132e-03
    -5.7259833431386820e-01 8.8167290027299765e-03
    -6.1064011981870570e-01 9.4327497145561545e-03
    -5.3452248382484868e-01 9.9691547915831836e-03
    -4.8645783103373497e-01 1.1921081691824495e-02
    -3.7529331252040077e-01 1.4974025954538653e-02
    -2.8284271247461901e-01 1.6294950297823036e-02
    -2.5649458802128855e-01 1.9286790587542048e-02
    -2.1251185925162072e-01 2.5270643144405542e-02
    -1.5911145683514602e-01 3.5514020819114304e-02
    -1.1180339887498948e-01 5.0068190514013448e-02
    -7.8811040623910061e-02 3.5514020819114304e-02
    -1.1180339887498948e-01 2.9088119424428259e-02
    -1.3736056394868901e-01 3.5514020819114304e-02
    -1.1180339887498948e-01 2.0765237838160665e-02
    -1.9611613513818407e-01 2.0765237838160665e-02
    -1.9611613513818407e-01 2.0765237838160665e-02
    -1.9611613513818407e-01 1.5587986388143229e-02
    -2.6990309764655401e-01 1.3144328818978784e-02
    -3.3104235544094718e-01 1.3144328818978784e-02
    -3.3104235544094718e-01 1.2478354962115544e-02
    -3.5355339059327373e-01 1.2187931786629649e-02
    -3.6450944139642377e-01 1.2478354962115544e-02
    -3.5355339059327373e-01 1.1235787476262932e-02
    -4.0677712066840799e-01 1.1674966159481746e-02
    -3.8592249249397992e-01 1.0371544122414799e-02
    -4.5711620391383745e-01 1.0371544122414799e-02
    -4.5711620391383745e-01 9.0942088391026132e-03
    -5.7259833431386820e-01 8.4436117711295302e-03
    -6.7783438940456497e-01 9.1725476151009178e-03
    -5.6309250637147301e-01 9.0942088391026132e-03
    -5.7259833431386820e-01 8.2457067968126213e-03
    -7.2684378431163110e-01 8.8811074729810389e-03
    -6.0111940395825370e-01 8.2457067968126213e-03
    -7.2684378431163110e-01 8.8811074729810389e-03
    -6.0111940395825370e-01 8.2118830693709774e-03
    -7.3678839761300718e-01 8.7553930298264783e-03
    -6.2017367294604220e-01 9.0942088391026132e-03
    -5.7259833431386820e-01 9.4327497145561545e-03
    -5.3452248382484868e-01 9.8498171585547894e-03
    -4.9613893835683387e-01 9.5288162323011703e-03
    -5.2496719057585151e-01 9.2549098601163275e-03
    -5.5358071941066178e-01 1.0095486239070977e-02
    -4.7673129462279612e-01 1.2795768442229729e-02
    -3.4240528516707330e-01 1.4434775165622166e-02
    -2.9537826959282393e-01 1.9286790587542048e-02
    -2.1251185925162072e-01 1.9286790587542048e-02
    -2.1251185925162072e-01 2.0765237838160665e-02
    -1.9611613513818407e-01 2.9088119424428259e-02
    -1.3736056394868901e-01 5.0068190514013448e-02
    -7.8811040623910061e-02 5.0068190514013448e-02
    -7.8811040623910061e-02 3.5514020819114304e-02
    -1.1180339887498948e-01 3.5514020819114304e-02
    -1.1180339887498948e-01 2.9088119424428259e-02
    -1.3736056394868901e-01 5.0068190514013448e-02
    -7.8811040623910061e-02 2.9088119424428259e-02
    -1.3736056394868901e-01 2.5270643144405542e-02
    -1.5911145683514602e-01 2.2674619384356168e-02
    -1.7845765256206245e-01 2.0765237838160665e-02
    -1.9611613513818407e-01 1.6294950297823036e-02
    -2.5649458802128855e-01 1.4974025954538653e-02
    -2.8284271247461901e-01 1.3956610505201370e-02
    -3.0756234261462279e-01 1.4434775165622166e-02
    -2.9537826959282393e-01 1.4974025954538653e-02
    -2.8284271247461901e-01 1.5587986388143229e-02
    -2.6990309764655401e-01 1.2478354962115544e-02
    -3.5355339059327373e-01 1.2187931786629649e-02
    -3.6450944139642377e-01 1.2795768442229729e-02
    -3.4240528516707330e-01 1.2795768442229729e-02
    -3.4240528516707330e-01 1.1674966159481746e-02
    -3.8592249249397992e-01 8.6969490066009566e-03
    -6.2972352992240255e-01 8.6969490066009566e-03
    -6.2972352992240255e-01 9.8498171585547894e-03
    -4.9613893835683387e-01 9.0942088391026132e-03
    -5.7259833431386820e-01 9.0196611144221697e-03
    -5.8210220340298635e-01 9.8498171585547894e-03
    -4.9613893835683387e-01 9.9691547915831836e-03
    -4.8645783103373497e-01 1.0095486239070977e-02
    -4.7673129462279612e-01 1.0095486239070977e-02
    -4.7673129462279612e-01 1.0522672835293128e-02
    -4.4721359549995793e-01 1.0522672835293128e-02
    -4.4721359549995793e-01 1.2478354962115544e-02
    -3.5355339059327373e-01 1.3144328818978784e-02
    -3.3104235544094718e-01 1.8099620967118965e-02
    -2.2792115291927587e-01 1.9286790587542048e-02
    -2.1251185925162072e-01 2.2674619384356168e-02
    -1.7845765256206245e-01 2.9088119424428259e-02
    -1.3736056394868901e-01 2.9088119424428259e-02
    -1.3736056394868901e-01 2.9088119424428259e-02
    -1.3736056394868901e-01 3.5514020819114304e-02
    -1.1180339887498948e-01</input_scale>
  <output_scale>
    1.0526315789473684e+00 0.</output_scale>
  <inv_output_scale>
    9.4999999999999996e-01 0.</inv_output_scale>
  <weights>
    <_>
      3.7515377441289369e-02 1.2873187623796420e-02
      1.0438968345303421e-02 4.5642263705181502e-03
      -1.0609311686914343e-02 2.9648973465343483e-03
      -3.6561495921426310e-03 -9.6506986356464930e-03
      -1.2083149361158574e-03 1.1639832692544757e-02
      3.1031882760852868e-03 9.7656332351320294e-03
      4.4597580653811556e-03 -7.3762751403931752e-03
      4.2251534027436526e-04 2.5417824367104610e-03
      5.7555568994949700e-04 9.1868902817087879e-03
      -1.3607061826424944e-02 1.3033526013033260e-02
      -8.9905935042592037e-03 3.3625885198088784e-04
      -1.0038381790456721e-04 1.2616340694160295e-02
      2.4366610288740838e-03 -1.2391394006302182e-03
      1.3994091642600031e-02 -1.3419054623487274e-02
      5.8828584910513996e-03 3.5396172398043818e-03
      -1.0705156743000635e-02 -1.3500058779750357e-02
      1.3482310369657021e-02 6.1629478281522102e-03
      8.2040311121234239e-03 1.6484771263109573e-03
      1.2364829139077589e-02 6.5740052022896052e-03
      -1.1218817206149907e-02 -1.1022450325043618e-02
      1.8521501681686367e-01 7.1966752848354493e-02
      5.8275413530539222e-02 2.1193062931113036e-02
      -5.3890972933091037e-02 8.5297282683730602e-03
      -2.0407898910831120e-02 -4.7230103856737905e-02
      -3.1921105474746413e-03 8.2347915078051920e-02
      1.6871923884890193e-02 4.7908005848967233e-02
      1.9064751052058064e-02 -3.0026566213755022e-02
      -3.1216671244392782e-03 1.6505373485129111e-02
      -4.1206501792115822e-03 3.9265470175533446e-02
      -8.6049766300183503e-02 8.6364025671124112e-02
      -4.3731488081284811e-02 7.9054180987952853e-03
      4.0932187378455529e-03 6.0730277515879970e-02
      1.5684957177825570e-02 -6.8447615574883337e-03
      7.7643998827899421e-02 -7.9919615059619503e-02
      2.1222774749277768e-02 1.5721999611115325e-02
      -6.3488694019032066e-02 -7.4436941350720306e-02
      8.6823501785943308e-02 2.3557264337955644e-02
      3.3527566266446797e-02 6.8659159163300424e-03
      5.9389479983927587e-02 2.6350051620894859e-02
      -6.8660852047780108e-02 -5.6040982731971237e-02
      2.2211151692977624e-01 8.8521263614443568e-02
      7.1319956863418993e-02 2.4348952189761804e-02
      -6.4086890876942540e-02 1.2760242327745627e-02
      -2.2580745689810396e-02 -5.7302278303709001e-02
      -5.8944431548967587e-03 1.0456489662483519e-01
      1.9571698203127610e-02 5.5099579641670150e-02
      2.2141739174487612e-02 -3.6742385671471020e-02
      -2.9507461095957324e-03 1.7657369088487522e-02
      -4.7693156046716197e-03 4.7391587779755329e-02
      -1.0754287342085476e-01 1.0819570349200436e-01
      -5.1963894077798112e-02 9.6714515647675151e-03
      4.5796464468807118e-03 7.3320019176847273e-02
      1.7729924946315857e-02 -6.2985992546073502e-03
      9.5735466839892619e-02 -9.9689836791924419e-02
      2.5401024108607725e-02 1.8424663941386400e-02
      -7.6772357788570555e-02 -9.2978608286746520e-02
      1.0980642144155627e-01 2.6173310484074046e-02
      4.0835120282128073e-02 9.8545578345501008e-03
      6.9920744998943310e-02 3.1866433337017677e-02
      -8.4286936233182466e-02 -6.6900510342030733e-02
      -5.6608375907186883e-04 9.8280077323760939e-04
      5.8674145612284837e-04 -2.3404810589499834e-05
      5.1210201631407039e-04 -3.6144653169046793e-04
      1.0328318839991015e-03 -7.3189054801951596e-04
      3.4695438364743398e-04 -4.4022363701253322e-04
      1.6853111414949609e-04 5.4427262316709827e-04
      4.0928371062340927e-04 -5.0198130336476655e-04
      -5.3837339186742325e-04 5.4130025805742177e-04
      7.2451646606574787e-04 7.2928225531841261e-04
      -8.9596085780997226e-04 -1.0633593111381934e-03
      4.7189397411756106e-04 -4.9248951343733988e-04
      9.9480067882329781e-04 -2.5035076196965137e-04
      1.2025051274339787e-03 7.9488783461768411e-05
      -2.3343960668910767e-04 -8.4511454584403696e-04
      1.2165178234286608e-03 4.8608291870555205e-04
      8.1330602239910749e-04 1.0184280383176761e-03
      1.0704245511725459e-03 -7.2497964613305542e-04
      4.9328224232276271e-04 1.8830881034114335e-04
      9.4414942372186774e-04 6.1239348253836216e-04
      8.3569334300787762e-04 -7.7516820246783386e-04
      1.0977928778316949e-01 4.2766410054533362e-02
      3.4569790821250904e-02 1.3091594283578952e-02
      -3.1758835764375402e-02 8.1732379351581209e-03
      -1.2050545063128987e-02 -2.6608111116949003e-02
      -4.0779950671919396e-03 5.1445131327469286e-02
      1.2012578187979657e-02 2.6155785442651312e-02
      1.3282636897175496e-02 -1.8488344665794673e-02
      -3.2409516262108932e-03 1.0200102048609437e-02
      -2.4346967844860357e-03 2.2552029745183548e-02
      -5.1499456208711228e-02 5.2049082618620866e-02
      -2.6115024964275427e-02 4.9580718218276924e-03
      2.3640047812542755e-03 3.5376779680881237e-02
      1.1487537918140524e-02 -3.8331350858611295e-03
      4.4781828129321889e-02 -4.6547334312540399e-02
      1.2182052699886699e-02 1.0963969482786783e-02
      -3.6313365054616485e-02 -4.3492739939096955e-02
      5.3181526061459469e-02 1.4358877328310342e-02
      1.8446132964812702e-02 6.0556150871302616e-03
      3.3919166726944970e-02 1.7273266686501476e-02
      -4.0077867579879398e-02 -3.1697663266979932e-02
      1.1020505194913614e-01 4.1395417402080296e-02
      3.5420557891405163e-02 1.3721522937389092e-02
      -3.0614749545624511e-02 6.8238369123655579e-03
      -1.2561373126694149e-02 -2.7065621695075263e-02
      -3.9251299168697419e-03 5.1659305579460836e-02
      1.0771953857290842e-02 2.5747506458802829e-02
      1.3476511908037501e-02 -1.8894542064695822e-02
      -1.6413743546489779e-03 1.0658400269042230e-02
      -3.1344402716248780e-03 2.1154435862843178e-02
      -5.3423073723657719e-02 5.1897288530274949e-02
      -2.6105440685787528e-02 6.3486563089757905e-03
      3.7915759428167714e-03 3.5489623906958388e-02
      9.4971383043063184e-03 -4.5284495217627592e-03
      4.6383400658552308e-02 -4.7303723436847023e-02
      1.2675989397751612e-02 1.1238804396817528e-02
      -3.6960348701630508e-02 -4.3591406957712353e-02
      5.4658563434138711e-02 1.5257898088352500e-02
      1.9655874500764111e-02 5.9617888181963761e-03
      3.4698059660122745e-02 1.7260059958491926e-02
      -3.9022217023691415e-02 -3.3123315821963574e-02
      5.4206843351972026e-02 1.8045492032806504e-02
      1.7556268978058662e-02 8.4925035632801467e-03
      -1.6632216740564951e-02 2.7778245478508974e-03
      -7.6433223991129208e-03 -1.5050003758925366e-02
      -6.6549240498765577e-04 1.8229003355087384e-02
      6.1890422811647847e-03 1.4462121085955352e-02
      6.6118584682956722e-03 -9.3953200211413773e-03
      -4.2876454001054490e-04 6.4919612676871165e-03
      -2.5103631740596237e-03 1.0642740791822519e-02
      -1.9555240163453190e-02 1.9499746056801305e-02
      -1.3408041892492412e-02 3.5296374153130994e-03
      2.4673947832840933e-03 1.6306894971051721e-02
      4.3446269172060983e-03 -9.1651751846055047e-04
      1.8139684011796671e-02 -1.6346544112644565e-02
      6.6340943775225689e-03 6.1686022426165167e-03
      -1.6205197502673796e-02 -1.7602509235456480e-02
      1.8769011172241622e-02 7.3113235223305076e-03
      1.1022085062284442e-02 3.5194091389879095e-03
      1.6043937870147771e-02 9.8238571791000005e-03
      -1.8517073223170335e-02 -1.5513153951378143e-02
      1.0246685698088606e-01 1.2812100484242674e-02
      1.2254710521133336e-02 1.6759374352082072e-02
      -1.5401155734552842e-02 1.2447610025491194e-02
      -1.5645148910590656e-02 -1.5013776812723164e-02
      -6.0640318280192037e-03 1.0812405279781161e-02
      1.6951763951942020e-02 1.7000208175584737e-02
      1.5291849079416782e-02 -1.7666993009232915e-02
      -4.6946080078654768e-03 1.4109261598331747e-02
      -8.4845590639005871e-03 1.7641277941548020e-02
      -1.2305143200854466e-02 1.1695574414175002e-02
      -1.6287298496269500e-02 8.8004463545365303e-03
      7.5038230380554136e-03 1.4060188874694846e-02
      1.4434865722950947e-02 -9.6181957185253568e-03
      1.0932015784586486e-02 -1.1761590357907957e-02
      1.7458293535920686e-02 1.4960011196648320e-02
      -1.3643673694962978e-02 -1.3054353558948946e-02
      1.1495826990961936e-02 1.7299055712675964e-02
      1.7770072932164503e-02 9.8611495040196347e-03
      1.4261459145741909e-02 1.7868968946527678e-02
      -1.1823863712533220e-02 -1.3182148307307115e-02
      6.1762917288174367e-02 8.6019681509931899e-03
      8.4065786091837187e-03 1.1098821154272184e-02
      -1.0405521778047962e-02 6.5329216325164313e-03
      -1.0678825686438919e-02 -1.1154918311787200e-02
      -3.6901514784374030e-03 1.8183373904963060e-03
      8.3911243900006045e-03 1.1092932044606084e-02
      9.3141468085709226e-03 -1.2301549322173361e-02
      -3.0558521462653292e-03 7.6842748809937940e-03
      -3.6587323193802211e-03 1.0259075781787376e-02
      -4.0114817390462260e-03 2.4904127321332941e-03
      -1.1067718015240771e-02 3.5787415720716061e-03
      4.5036761661747509e-03 7.3106104181388546e-03
      7.4847468782806145e-03 -4.6616216313672991e-03
      7.0113620249423921e-03 -4.5322149732392181e-03
      8.6106274315026956e-03 9.5018958773205094e-03
      -7.8737505110209587e-03 -6.6901010449441165e-03
      1.2445891947262858e-03 1.0512374747903593e-02
      9.9337686624655086e-03 4.4142057948929050e-03
      9.6426960822816061e-03 1.0231721313617579e-02
      -8.4806540992198986e-03 -7.9747905736841269e-03
      -2.5485415275124687e-03 4.4627036632484711e-04
      3.2078947537605902e-03 1.1410389913560838e-03
      -3.8938633529506145e-03 -2.6954725238466639e-03
      -7.1774511089487476e-04 -4.7577378300858375e-03
      1.1935718663660143e-03 -2.0233689141468747e-03
      -2.8413628247290952e-05 5.4343957041759691e-03
      -5.7187095949022852e-04 -3.2918588610028718e-03
      3.2453092394089896e-03 -2.3873172210247041e-03
      2.9166710356580594e-03 5.3813727425807683e-03
      2.1554927288075835e-03 -1.5640173709752080e-03
      -4.9801576518216364e-03 -2.3855705127148606e-03
      -3.4564807962249693e-03 2.8023186654262179e-03
      -6.6180662021590655e-04 3.1461568635980895e-03
      -1.3359681571251838e-04 1.7333783064520758e-03
      6.2781813069354630e-04 -9.6521200934452322e-04
      -1.6166611640902710e-03 -1.1509446989717634e-03
      -3.0490585686959474e-03 2.4914951274163000e-03
      3.8737909313879388e-03 -3.8310020576964770e-03
      3.6323186391823185e-03 4.1743769677405661e-03
      -2.5486264423409577e-03 -3.3668323332943484e-03
      3.4504317865640943e-01 2.6816148552270703e-02
      2.6856126225818289e-02 1.9604868414964390e-02
      -3.2824252591581178e-02 9.8536716298763816e-03
      -1.8022036065282986e-02 -3.8278753251534486e-02
      -4.7738607981106813e-03 2.9862407384651745e-02
      1.6608402775685836e-02 3.7589377720854779e-02
      1.7541455966085358e-02 -2.6454638267900871e-02
      -4.1837526709471405e-03 1.2808402166815339e-02
      -5.9684981282496167e-03 3.4427963761840374e-02
      -3.0228807754489835e-02 2.9582617886760788e-02
      -3.7208537062413699e-02 8.5075153030006647e-03
      6.2962543406650476e-03 2.6839935450730944e-02
      1.3033202677566105e-02 -6.0659758005310611e-03
      2.5815710889387118e-02 -2.8207396680384581e-02
      1.8420890154430155e-02 1.4123235693483175e-02
      -2.5733987876443251e-02 -2.7384220437338711e-02
      3.0489098480995267e-02 2.0416197182167129e-02
      3.0461464753694587e-02 6.3317813386267255e-03
      2.7254239217767651e-02 2.4505688759952283e-02
      -2.7208130852803519e-02 -2.9163968017700152e-02
      3.3220402915672720e-01 2.9807500126723941e-02
      2.9056443776123150e-02 2.0812735096261387e-02
      -3.6111494512188112e-02 9.8663802967825787e-03
      -1.9122672428099324e-02 -3.7592186548779015e-02
      -6.0712883010211336e-03 2.7528591678111794e-02
      1.7599245013507299e-02 3.8371352159899841e-02
      1.9358033675706824e-02 -2.9491899440889740e-02
      -5.1360495220008255e-03 1.6246529781021046e-02
      -7.0748984752673737e-03 3.7139968557037342e-02
      -2.8727981109614741e-02 3.1220691740907913e-02
      -3.7059023797221730e-02 8.7118710183375792e-03
      4.8438272504727339e-03 2.8753015226639020e-02
      1.5303106214226618e-02 -6.7657392787226142e-03
      2.8171738185473885e-02 -2.9349220115124034e-02
      2.0760528187496508e-02 1.4690724769615552e-02
      -2.6638452438793769e-02 -2.8268373592418464e-02
      3.0439352293430769e-02 2.1586878787015509e-02
      3.3377773414162037e-02 7.8534312237477852e-03
      2.8904886712455953e-02 2.3867960354677458e-02
      -2.7395473807107155e-02 -3.0332946916694730e-02
      9.3223236594438583e-02 3.2718046266537827e-02
      2.8645873031697806e-02 1.3224067595180144e-02
      -2.6294545961927696e-02 2.8079922654789258e-03
      -9.8008415806997672e-03 -2.5339434279073213e-02
      -3.5345028078982883e-04 3.5168223147929521e-02
      7.5559567776849980e-03 2.6745390067186719e-02
      8.9945970253110467e-03 -1.6684860854411419e-02
      -6.1916111327647632e-04 7.5947500123393083e-03
      -2.2850199491461875e-03 2.2709249383106690e-02
      -3.7192990636018899e-02 3.7388684900474693e-02
      -2.4631727746140357e-02 1.4211520042053949e-03
      1.7980537177269935e-03 2.9565520148184265e-02
      5.5315286331917152e-03 -2.1338883475614055e-03
      3.3399075073332750e-02 -3.4583649261797689e-02
      1.0888748462092711e-02 6.9729054883256305e-03
      -3.1122820767085991e-02 -3.4410871443748006e-02
      3.8708554514799730e-02 1.3008976649467641e-02
      1.8687687351460675e-02 1.7711249582780710e-03
      2.8017123129805453e-02 1.4941626259177174e-02
      -3.1376483571151532e-02 -2.8785898266204712e-02
      6.3357868227042660e-02 2.5580350198252728e-02
      2.5277558383662815e-02 7.0924286064676960e-03
      -2.3234026284795796e-02 -6.2390189543618413e-04
      -5.5576477778091363e-03 -1.9903413394302082e-02
      1.1777981219455130e-03 2.2654078563813823e-02
      3.6191060972310461e-03 2.0533079692312155e-02
      5.8793122964635311e-03 -1.3259676245712263e-02
      2.3924298171577743e-03 1.6301429035495267e-03
      4.7253987452717508e-04 1.6266742478676797e-02
      -2.5987006406131503e-02 2.6075960302247687e-02
      -2.1574085390987475e-02 -8.7609806990383494e-06
      -1.7237654603321389e-03 2.4917502677251808e-02
      1.8944176030716430e-03 8.8676430216467420e-04
      2.6072374504943874e-02 -2.4708062467105527e-02
      6.4842576578140309e-03 2.5898716879683681e-03
      -2.5680704504862928e-02 -2.6794493366551007e-02
      2.1731652898204112e-02 9.0648657067042056e-03
      1.3637854965897169e-02 -1.1801068693772716e-03
      2.3435457278522209e-02 1.0078944966295779e-02
      -2.6714469611206465e-02 -2.3228174585145034e-02
      4.3266144670394013e-01 6.1544145230761002e-02
      5.3675101769357178e-02 3.2518402636778798e-02
      -5.9680076924628442e-02 1.6761033323414401e-02
      -2.8082871486722040e-02 -5.9267184360260419e-02
      -8.9955453684061933e-03 7.0214657178854181e-02
      2.6715705748139900e-02 6.0982555410603073e-02
      2.8956024221445425e-02 -4.1988320914612853e-02
      -7.6833867670736021e-03 2.3084083555205737e-02
      -9.9985629482015597e-03 5.4797850843027948e-02
      -6.9246498833759759e-02 7.1377811749574874e-02
      -5.6986268154894971e-02 1.3128065704658133e-02
      9.6014528750247435e-03 5.5217369589772150e-02
      2.2518055324440733e-02 -1.1134090503736371e-02
      6.2587448334497836e-02 -6.4603699769526901e-02
      2.9871891416710976e-02 2.3855217144701762e-02
      -5.5835583039648078e-02 -6.2363380525785557e-02
      7.2912489453616156e-02 3.4184931331979661e-02
      4.9007822276787578e-02 1.1577866267650038e-02
      5.3752590439881003e-02 3.9267053719460585e-02
      -5.9098285632760483e-02 -5.6747130952474314e-02
      3.3276158618347929e-01 8.3786480151673684e-02
      8.1378560116619730e-02 2.9353640201087591e-02
      -7.4336382566046022e-02 1.2613749203024351e-02
      -2.6357944808158073e-02 -6.6309982529652770e-02
      -5.4389741577397996e-03 7.7944322718071710e-02
      2.3885977552984463e-02 6.3902607742896189e-02
      2.6307526625279905e-02 -4.2578111301878961e-02
      -1.6137486760788083e-03 1.9701941966117537e-02
      -4.6852739996535156e-03 5.2968691554090674e-02
      -8.0833050619628644e-02 7.8679161700693126e-02
      -6.0858723466170980e-02 9.8205634208498437e-03
      3.5247796516527105e-03 8.2204069075591857e-02
      1.9133890394285015e-02 -7.4677362756331838e-03
      7.5388216789754992e-02 -7.5353534254401486e-02
      2.9539233834800869e-02 2.0629281061413086e-02
      -8.5027841865286419e-02 -8.0956046255702116e-02
      7.9399744797070071e-02 3.2976873826005518e-02
      4.6203238937673814e-02 7.5848043234615411e-03
      8.0842606294557612e-02 3.7974809268505445e-02
      -8.2829088711084131e-02 -7.6829998970732866e-02
      1.7520907989028403e-01 6.7388798585949233e-02
      6.4322155511173110e-02 9.6472674265742995e-03
      -5.5412526276021008e-02 -7.8435942941948271e-03
      -5.2806288380331870e-03 -4.7478995606174350e-02
      7.8829238685322236e-03 6.3355751955603168e-02
      1.8212858572993276e-03 4.5895743460437149e-02
      4.6433860526937003e-03 -1.9659869783190911e-02
      6.5096702515682666e-03 2.5988918735619292e-04
      8.4125819697429115e-03 3.3311747264383754e-02
      -6.4226309507982068e-02 6.5657539934649636e-02
      -3.9947363896499541e-02 -8.0020140225114875e-03
      -8.2432318395859756e-03 6.4693301974150047e-02
      -5.9743960461175959e-04 6.7160916898883552e-03
      6.0209420317820068e-02 -6.1094820835145704e-02
      6.3589002308081441e-03 1.2776070839228149e-03
      -6.8569373877651205e-02 -6.3500370003040318e-02
      6.4448344124650919e-02 1.0387107565782311e-02
      2.5581561948931315e-02 -6.5351314930641360e-03
      6.3584928204673249e-02 1.4375068201006062e-02
      -6.7122474587407624e-02 -5.8600382673714931e-02
      8.8009274624059441e-02 1.2167627532034936e-02
      1.7677909490601718e-02 -1.9067983461919422e-03
      -1.3987084625268034e-02 -4.9877574601252233e-03
      2.8184775630115660e-03 -1.2776543900894362e-02
      2.4906509349636560e-03 -3.2011334098948252e-03
