<?xml version="1.0"?>
<opencv_storage>
<shapeML type_id="opencv-ml-ann-mlp">
  <layer_sizes type_id="opencv-matrix">
    <rows>1</rows>
    <cols>3</cols>
    <dt>i</dt>
    <data>
      1600 40 1</data></layer_sizes>
  <activation_function>SIGMOID_SYM</activation_function>
  <f_param1>5.9999999999999998e-01</f_param1>
  <f_param2>1.</f_param2>
  <min_val>-9.4999999999999996e-01</min_val>
  <max_val>9.4999999999999996e-01</max_val>
  <min_val1>-9.7999999999999998e-01</min_val1>
  <max_val1>9.7999999999999998e-01</max_val1>
  <training_params>
    <train_method>BACKPROP</train_method>
    <dw_scale>1.0000000000000001e-01</dw_scale>
    <moment_scale>1.0000000000000001e-01</moment_scale>
    <term_criteria><epsilon>9.9999999747524271e-07</epsilon>
      <iterations>4000</iterations></term_criteria></training_params>
  <input_scale>
    4.9605336542721992e-02 -7.9555728417573010e-02
    3.5187800403652138e-02 -1.1286652959662007e-01
    4.9605336542721992e-02 -7.9555728417573010e-02 1. 0.
    4.9605336542721992e-02 -7.9555728417573010e-02
    4.9605336542721992e-02 -7.9555728417573010e-02
    3.5187800403652138e-02 -1.1286652959662007e-01
    2.8822657254840338e-02 -1.3867504905630729e-01
    2.2470440246053939e-02 -1.8018749253911176e-01
    2.0579537167750486e-02 -1.9802950859533486e-01
    1.9115520583943051e-02 -2.1459876881973805e-01
    1.6970321093791953e-02 -2.4494897427831783e-01
    2.0579537167750486e-02 -1.9802950859533486e-01
    1.7940042879627711e-02 -2.3017413505937442e-01
    1.7940042879627711e-02 -2.3017413505937442e-01
    1.7940042879627711e-02 -2.3017413505937442e-01
    1.6153394875290886e-02 -2.5906388007541986e-01
    1.4312280521564174e-02 -2.9839754672317759e-01
    1.3416216820195627e-02 -3.2274861218395140e-01
    1.0954295162674777e-02 -4.2163702135578385e-01
    9.3702922818380222e-03 -5.4100178080045946e-01
    1.0603383018860617e-02 -4.4214106550343324e-01
    1.2089716741018384e-02 -3.6839419880650359e-01
    1.3839134332811288e-02 -3.1072773313293273e-01
    1.4312280521564174e-02 -2.9839754672317759e-01
    1.6153394875290886e-02 -2.5906388007541986e-01
    2.2470440246053939e-02 -1.8018749253911176e-01
    1.6970321093791953e-02 -2.4494897427831783e-01
    1.9115520583943051e-02 -2.1459876881973805e-01
    2.8822657254840338e-02 -1.3867504905630729e-01
    2.8822657254840338e-02 -1.3867504905630729e-01
    2.2470440246053939e-02 -1.8018749253911176e-01
    2.0579537167750486e-02 -1.9802950859533486e-01
    3.5187800403652138e-02 -1.1286652959662007e-01
    4.9605336542721992e-02 -7.9555728417573010e-02
    3.5187800403652138e-02 -1.1286652959662007e-01
    3.5187800403652138e-02 -1.1286652959662007e-01
    4.9605336542721992e-02 -7.9555728417573010e-02 1. 0. 1. 0.
    4.9605336542721992e-02 -7.9555728417573010e-02
    3.5187800403652138e-02 -1.1286652959662007e-01
    4.9605336542721992e-02 -7.9555728417573010e-02 1. 0.
    3.5187800403652138e-02 -1.1286652959662007e-01
    3.5187800403652138e-02 -1.1286652959662007e-01
    3.5187800403652138e-02 -1.1286652959662007e-01
    2.5041543783430847e-02 -1.6064386578049977e-01
    1.6970321093791953e-02 -2.4494897427831783e-01
    1.6970321093791953e-02 -2.4494897427831783e-01
    1.6153394875290886e-02 -2.5906388007541986e-01
    1.3416216820195627e-02 -3.2274861218395140e-01
    1.4312280521564174e-02 -2.9839754672317759e-01
    1.2690779868736823e-02 -3.4600333793065491e-01
    1.1148683121224716e-02 -4.1123916041498709e-01
    9.5645045668025022e-03 -5.2153619241621196e-01
    9.8985393103089656e-03 -4.9212549212573825e-01
    9.6697378727684229e-03 -5.1176631571915898e-01
    8.7055910350822985e-03 -6.2828086243754322e-01
    9.4648138994419297e-03 -5.3127964812905171e-01
    8.7055910350822985e-03 -6.2828086243754322e-01
    8.7055910350822985e-03 -6.2828086243754322e-01
    8.7656007432715469e-03 -6.1855371282708649e-01
    9.4648138994419297e-03 -5.3127964812905171e-01
    1.1357567325180102e-02 -4.0072926222805261e-01
    1.2690779868736823e-02 -3.4600333793065491e-01
    1.3416216820195627e-02 -3.2274861218395140e-01
    1.3416216820195627e-02 -3.2274861218395140e-01
    1.3416216820195627e-02 -3.2274861218395140e-01
    1.7940042879627711e-02 -2.3017413505937442e-01
    1.7940042879627711e-02 -2.3017413505937442e-01
    2.0579537167750486e-02 -1.9802950859533486e-01
    1.9115520583943051e-02 -2.1459876881973805e-01
    1.9115520583943051e-02 -2.1459876881973805e-01
    2.5041543783430847e-02 -1.6064386578049977e-01
    2.5041543783430847e-02 -1.6064386578049977e-01
    3.5187800403652138e-02 -1.1286652959662007e-01 1. 0. 1. 0.
    4.9605336542721992e-02 -7.9555728417573010e-02
    4.9605336542721992e-02 -7.9555728417573010e-02
    3.5187800403652138e-02 -1.1286652959662007e-01
    3.5187800403652138e-02 -1.1286652959662007e-01
    3.5187800403652138e-02 -1.1286652959662007e-01
    2.8822657254840338e-02 -1.3867504905630729e-01
    2.2470440246053939e-02 -1.8018749253911176e-01
    2.0579537167750486e-02 -1.9802950859533486e-01
    1.7940042879627711e-02 -2.3017413505937442e-01
    1.4312280521564174e-02 -2.9839754672317759e-01
    1.3416216820195627e-02 -3.2274861218395140e-01
    1.3035537214816416e-02 -3.3449680400283638e-01
    1.2376878710312518e-02 -3.5729480050524820e-01
    1.0444510629164360e-02 -4.5226701686664544e-01
    9.0376073204646371e-03 -5.7977103565244836e-01
    8.8948651384621116e-03 -5.9914468951527800e-01
    8.5940723118407281e-03 -6.4779846954346620e-01
    8.7055910350822985e-03 -6.2828086243754322e-01
    8.6484605018837517e-03 -6.3802793513897105e-01
    8.1176615082160768e-03 -7.6811457478686085e-01
    9.1954388448453623e-03 -5.6040127299717968e-01
    9.1954388448453623e-03 -5.6040127299717968e-01
    9.0376073204646371e-03 -5.7977103565244836e-01
    8.8948651384621116e-03 -5.9914468951527800e-01
    8.8948651384621116e-03 -5.9914468951527800e-01
    8.2806687966957993e-03 -7.1713716560063623e-01
    8.4015608672716648e-03 -6.8718427093627676e-01
    1.0023086107855624e-02 -4.8224282217041214e-01
    1.2089716741018384e-02 -3.6839419880650359e-01
    1.2690779868736823e-02 -3.4600333793065491e-01
    1.3416216820195627e-02 -3.2274861218395140e-01
    1.5453602733011950e-02 -2.7262487840313532e-01
    1.4312280521564174e-02 -2.9839754672317759e-01
    1.4312280521564174e-02 -2.9839754672317759e-01
    1.4845938375350141e-02 -2.8571428571428570e-01
    1.6153394875290886e-02 -2.5906388007541986e-01
    1.6153394875290886e-02 -2.5906388007541986e-01
    2.5041543783430847e-02 -1.6064386578049977e-01
    3.5187800403652138e-02 -1.1286652959662007e-01
    2.8822657254840338e-02 -1.3867504905630729e-01
    3.5187800403652138e-02 -1.1286652959662007e-01 1. 0.
    4.9605336542721992e-02 -7.9555728417573010e-02
    2.5041543783430847e-02 -1.6064386578049977e-01
    2.5041543783430847e-02 -1.6064386578049977e-01
    1.9115520583943051e-02 -2.1459876881973805e-01
    1.7940042879627711e-02 -2.3017413505937442e-01
    1.4312280521564174e-02 -2.9839754672317759e-01
    1.3416216820195627e-02 -3.2274861218395140e-01
    1.2690779868736823e-02 -3.4600333793065491e-01
    1.2376878710312518e-02 -3.5729480050524820e-01
    1.2376878710312518e-02 -3.5729480050524820e-01
    9.8985393103089656e-03 -4.9212549212573825e-01
    9.3702922818380222e-03 -5.4100178080045946e-01
    8.7055910350822985e-03 -6.2828086243754322e-01
    8.3189033080770299e-03 -7.0710678118654757e-01
    8.1467100617522940e-03 -7.5779774725356253e-01
    8.1176615082160768e-03 -7.6811457478686085e-01
    8.1176615082160768e-03 -7.6811457478686085e-01
    8.5423003207685654e-03 -6.5759594922142917e-01
    8.8948651384621116e-03 -5.9914468951527800e-01
    8.7055910350822985e-03 -6.2828086243754322e-01
    8.7055910350822985e-03 -6.2828086243754322e-01
    8.5940723118407281e-03 -6.4779846954346620e-01
    8.5940723118407281e-03 -6.4779846954346620e-01
    8.5423003207685654e-03 -6.5759594922142917e-01
    9.0376073204646371e-03 -5.7977103565244836e-01
    8.8948651384621116e-03 -5.9914468951527800e-01
    8.5423003207685654e-03 -6.5759594922142917e-01
    1.1357567325180102e-02 -4.0072926222805261e-01
    1.0954295162674777e-02 -4.2163702135578385e-01
    1.1825909357640213e-02 -3.7932162090544075e-01
    1.3416216820195627e-02 -3.2274861218395140e-01
    1.5453602733011950e-02 -2.7262487840313532e-01
    1.4845938375350141e-02 -2.8571428571428570e-01
    1.5453602733011950e-02 -2.7262487840313532e-01
    1.5453602733011950e-02 -2.7262487840313532e-01
    1.9115520583943051e-02 -2.1459876881973805e-01
    2.8822657254840338e-02 -1.3867504905630729e-01
    2.8822657254840338e-02 -1.3867504905630729e-01
    2.8822657254840338e-02 -1.3867504905630729e-01 1. 0.
    2.8822657254840338e-02 -1.3867504905630729e-01
    2.8822657254840338e-02 -1.3867504905630729e-01
    1.7940042879627711e-02 -2.3017413505937442e-01
    1.6970321093791953e-02 -2.4494897427831783e-01
    1.3839134332811288e-02 -3.1072773313293273e-01
    1.2690779868736823e-02 -3.4600333793065491e-01
    1.1148683121224716e-02 -4.1123916041498709e-01
    1.1582645202546548e-02 -3.9009474880274692e-01
    1.1357567325180102e-02 -4.0072926222805261e-01
    9.4648138994419297e-03 -5.3127964812905171e-01
    9.0376073204646371e-03 -5.7977103565244836e-01
    8.7055910350822985e-03 -6.2828086243754322e-01
    8.3591743438532623e-03 -6.9712359622323428e-01
    8.2443976245414972e-03 -7.2721809235342449e-01
    8.2443976245414972e-03 -7.2721809235342449e-01
    7.9265059757614234e-03 -8.6443782150756654e-01
    8.3189033080770299e-03 -7.0710678118654757e-01
    8.3189033080770299e-03 -7.0710678118654757e-01
    8.5940723118407281e-03 -6.4779846954346620e-01
    8.5423003207685654e-03 -6.5759594922142917e-01
    8.7055910350822985e-03 -6.2828086243754322e-01
    8.5423003207685654e-03 -6.5759594922142917e-01
    8.7656007432715469e-03 -6.1855371282708649e-01
    8.5940723118407281e-03 -6.4779846954346620e-01
    8.5423003207685654e-03 -6.5759594922142917e-01
    8.4930281058851077e-03 -6.6742381247191462e-01
    9.0376073204646371e-03 -5.7977103565244836e-01
    9.3702922818380222e-03 -5.4100178080045946e-01
    9.2806023895203281e-03 -5.5070744368002700e-01
    9.8985393103089656e-03 -4.9212549212573825e-01
    1.1825909357640213e-02 -3.7932162090544075e-01
    1.4312280521564174e-02 -2.9839754672317759e-01
    1.4845938375350141e-02 -2.8571428571428570e-01
    1.5453602733011950e-02 -2.7262487840313532e-01
    1.6970321093791953e-02 -2.4494897427831783e-01
    1.9115520583943051e-02 -2.1459876881973805e-01
    2.0579537167750486e-02 -1.9802950859533486e-01
    2.8822657254840338e-02 -1.3867504905630729e-01
    2.5041543783430847e-02 -1.6064386578049977e-01 1. 0.
    2.2470440246053939e-02 -1.8018749253911176e-01
    1.7940042879627711e-02 -2.3017413505937442e-01
    1.4845938375350141e-02 -2.8571428571428570e-01
    1.3035537214816416e-02 -3.3449680400283638e-01
    1.2089716741018384e-02 -3.6839419880650359e-01
    1.0954295162674777e-02 -4.2163702135578385e-01
    9.8985393103089656e-03 -4.9212549212573825e-01
    9.2806023895203281e-03 -5.5070744368002700e-01
    9.3702922818380222e-03 -5.4100178080045946e-01
    9.1954388448453623e-03 -5.6040127299717968e-01
    8.6484605018837517e-03 -6.3802793513897105e-01
    8.3591743438532623e-03 -6.9712359622323428e-01
    9.0376073204646371e-03 -5.7977103565244836e-01
    8.5423003207685654e-03 -6.5759594922142917e-01
    7.9965959794872313e-03 -8.2078268166812340e-01
    7.8432923787091942e-03 -1.0063092108532550e+00
    7.8782737862121335e-03 -9.0971765229468415e-01
    7.8997422325791256e-03 -8.8685785441218490e-01
    8.2100219461574524e-03 -7.3735291440961281e-01
    8.4461481078507306e-03 -6.7728546147859625e-01
    8.2443976245414972e-03 -7.2721809235342449e-01
    8.6484605018837517e-03 -6.3802793513897105e-01
    8.5423003207685654e-03 -6.5759594922142917e-01
    8.4461481078507306e-03 -6.7728546147859625e-01
    8.4930281058851077e-03 -6.6742381247191462e-01
    8.2100219461574524e-03 -7.3735291440961281e-01
    8.7055910350822985e-03 -6.2828086243754322e-01
    9.2806023895203281e-03 -5.5070744368002700e-01
    9.4648138994419297e-03 -5.3127964812905171e-01
    9.1954388448453623e-03 -5.6040127299717968e-01
    9.1145245143671658e-03 -5.7008771254956891e-01
    1.0954295162674777e-02 -4.2163702135578385e-01
    1.1357567325180102e-02 -4.0072926222805261e-01
    1.4312280521564174e-02 -2.9839754672317759e-01
    1.3839134332811288e-02 -3.1072773313293273e-01
    1.6153394875290886e-02 -2.5906388007541986e-01
    2.0579537167750486e-02 -1.9802950859533486e-01
    2.5041543783430847e-02 -1.6064386578049977e-01
    2.5041543783430847e-02 -1.6064386578049977e-01 1. 0.
    1.7940042879627711e-02 -2.3017413505937442e-01
    1.4845938375350141e-02 -2.8571428571428570e-01
    1.2690779868736823e-02 -3.4600333793065491e-01
    1.2089716741018384e-02 -3.6839419880650359e-01
    1.0954295162674777e-02 -4.2163702135578385e-01
    1.0295377615953763e-02 -4.6232073067867846e-01
    9.2806023895203281e-03 -5.5070744368002700e-01
    8.8948651384621116e-03 -5.9914468951527800e-01
    8.7055910350822985e-03 -6.2828086243754322e-01
    8.6484605018837517e-03 -6.3802793513897105e-01
    8.4930281058851077e-03 -6.6742381247191462e-01
    8.2443976245414972e-03 -7.2721809235342449e-01
    8.4015608672716648e-03 -6.8718427093627676e-01
    7.8445337006096180e-03 -9.8130676292531638e-01
    7.8557321841133503e-03 -9.4491118252306805e-01
    7.8432923787091942e-03 -9.9373034571758934e-01
    7.8997422325791256e-03 -8.8685785441218490e-01
    7.8557321841133503e-03 -9.4491118252306805e-01
    7.8432923787091942e-03 -1.0063092108532550e+00
    7.8782737862121335e-03 -9.0971765229468415e-01
    7.9587250581522814e-03 -8.4242353917423207e-01
    8.1774788616324687e-03 -7.4754500159640214e-01
    8.4015608672716648e-03 -6.8718427093627676e-01
    8.7656007432715469e-03 -6.1855371282708649e-01
    8.0645286390814818e-03 -7.8895435837051853e-01
    8.1774788616324687e-03 -7.4754500159640214e-01
    8.2806687966957993e-03 -7.1713716560063623e-01
    8.7656007432715469e-03 -6.1855371282708649e-01
    8.6484605018837517e-03 -6.3802793513897105e-01
    9.1954388448453623e-03 -5.6040127299717968e-01
    8.8286382367046314e-03 -6.0884288217274396e-01
    8.7055910350822985e-03 -6.2828086243754322e-01
    1.0603383018860617e-02 -4.4214106550343324e-01
    1.0954295162674777e-02 -4.2163702135578385e-01
    1.2089716741018384e-02 -3.6839419880650359e-01
    1.3416216820195627e-02 -3.2274861218395140e-01
    1.9115520583943051e-02 -2.1459876881973805e-01
    1.9115520583943051e-02 -2.1459876881973805e-01
    2.8822657254840338e-02 -1.3867504905630729e-01
    2.5041543783430847e-02 -1.6064386578049977e-01
    1.5453602733011950e-02 -2.7262487840313532e-01
    1.2690779868736823e-02 -3.4600333793065491e-01
    1.1825909357640213e-02 -3.7932162090544075e-01
    1.0772947424896963e-02 -4.3193421279068006e-01
    1.0023086107855624e-02 -4.8224282217041214e-01
    8.8286382367046314e-03 -6.0884288217274396e-01
    8.5940723118407281e-03 -6.4779846954346620e-01
    8.5423003207685654e-03 -6.5759594922142917e-01
    8.4015608672716648e-03 -6.8718427093627676e-01
    8.1774788616324687e-03 -7.4754500159640214e-01
    7.8432923787091942e-03 -1.0063092108532550e+00
    7.8432923787091942e-03 -9.9373034571758934e-01
    7.8557321841133485e-03 -1.0583005244258359e+00
    7.8432923787091942e-03 -1.0063092108532550e+00
    7.8445337006096180e-03 -9.8130676292531638e-01
    7.8883547548737193e-03 -8.9823058388043198e-01
    7.9124530086715078e-03 -8.7559503577091302e-01
    8.1774788616324687e-03 -7.4754500159640214e-01
    8.0902831452079830e-03 -7.7849894416152299e-01
    7.9419222094033494e-03 -8.5338201853871842e-01
    7.9587250581522814e-03 -8.4242353917423207e-01
    7.8507491628798786e-03 -9.5690263381517016e-01
    7.8619743242989825e-03 -9.3305317924227549e-01
    7.8782737862121335e-03 -9.0971765229468415e-01
    8.0645286390814818e-03 -7.8895435837051853e-01
    8.0403551433172685e-03 -7.9948436991098126e-01
    8.1467100617522940e-03 -7.5779774725356253e-01
    8.3591743438532623e-03 -6.9712359622323428e-01
    8.5940723118407281e-03 -6.4779846954346620e-01
    8.7055910350822985e-03 -6.2828086243754322e-01
    8.4930281058851077e-03 -6.6742381247191462e-01
    8.5423003207685654e-03 -6.5759594922142917e-01
    8.5423003207685654e-03 -6.5759594922142917e-01
    1.0295377615953763e-02 -4.6232073067867846e-01
    1.0603383018860617e-02 -4.4214106550343324e-01
    1.2376878710312518e-02 -3.5729480050524820e-01
    1.4845938375350141e-02 -2.8571428571428570e-01
    1.6970321093791953e-02 -2.4494897427831783e-01
    2.5041543783430847e-02 -1.6064386578049977e-01
    2.0579537167750486e-02 -1.9802950859533486e-01
    1.4845938375350141e-02 -2.8571428571428570e-01
    1.3035537214816416e-02 -3.3449680400283638e-01
    1.1582645202546548e-02 -3.9009474880274692e-01
    1.0772947424896963e-02 -4.3193421279068006e-01
    8.9644574851134185e-03 -5.8945536482302385e-01
    8.6484605018837517e-03 -6.3802793513897105e-01
    8.2806687966957993e-03 -7.1713716560063623e-01
    8.1467100617522940e-03 -7.5779774725356253e-01
    8.0403551433172685e-03 -7.9948436991098126e-01
    7.8507491628798786e-03 -9.5690263381517016e-01
    7.8507491628798803e-03 -1.0450384027191992e+00
    7.8694845705499037e-03 -9.2132361811815378e-01
    7.8782737862121335e-03 -9.0971765229468415e-01
    7.8997422325791256e-03 -8.8685785441218490e-01
    7.8694845705499037e-03 -9.2132361811815378e-01
    8.0645286390814818e-03 -7.8895435837051853e-01
    8.0177230862655598e-03 -8.1009258730098255e-01
    8.0902831452079830e-03 -7.7849894416152299e-01
    8.1467100617522940e-03 -7.5779774725356253e-01
    8.2443976245414972e-03 -7.2721809235342449e-01
    8.0902831452079830e-03 -7.7849894416152299e-01
    8.0645286390814818e-03 -7.8895435837051853e-01
    8.5423003207685654e-03 -6.5759594922142917e-01
    8.2100219461574524e-03 -7.3735291440961281e-01
    7.8782737862121335e-03 -9.0971765229468415e-01
    7.8782737862121335e-03 -9.0971765229468415e-01
    8.4461481078507306e-03 -6.7728546147859625e-01
    8.3189033080770299e-03 -7.0710678118654757e-01
    8.3189033080770299e-03 -7.0710678118654757e-01
    8.1774788616324687e-03 -7.4754500159640214e-01
    8.1176615082160768e-03 -7.6811457478686085e-01
    8.2443976245414972e-03 -7.2721809235342449e-01
    8.5940723118407281e-03 -6.4779846954346620e-01
    8.5940723118407281e-03 -6.4779846954346620e-01
    1.0023086107855624e-02 -4.8224282217041214e-01
    1.0954295162674777e-02 -4.2163702135578385e-01
    1.2690779868736823e-02 -3.4600333793065491e-01
    1.5453602733011950e-02 -2.7262487840313532e-01
    2.8822657254840338e-02 -1.3867504905630729e-01
    1.9115520583943051e-02 -2.1459876881973805e-01
    1.4845938375350141e-02 -2.8571428571428570e-01
    1.2376878710312518e-02 -3.5729480050524820e-01
    1.0772947424896963e-02 -4.3193421279068006e-01
    8.7055910350822985e-03 -6.2828086243754322e-01
    8.6484605018837517e-03 -6.3802793513897105e-01
    8.4015608672716648e-03 -6.8718427093627676e-01
    8.1176615082160768e-03 -7.6811457478686085e-01
    7.9587250581522814e-03 -8.4242353917423207e-01
    7.9265059757614234e-03 -8.6443782150756654e-01
    7.8432923787091942e-03 -1.0063092108532550e+00
    7.8997422325791274e-03 -1.1275764148954923e+00
    7.8432923787091942e-03 -9.9373034571758934e-01
    7.8470181135620425e-03 -9.6903270855214274e-01
    7.8883547548737193e-03 -8.9823058388043198e-01
    7.9265059757614234e-03 -8.6443782150756654e-01
    7.8883547548737193e-03 -8.9823058388043198e-01
    7.8997422325791256e-03 -8.8685785441218490e-01
    8.0403551433172685e-03 -7.9948436991098126e-01
    8.1774788616324687e-03 -7.4754500159640214e-01
    8.2100219461574524e-03 -7.3735291440961281e-01
    8.0177230862655598e-03 -8.1009258730098255e-01
    8.0177230862655598e-03 -8.1009258730098255e-01
    8.2443976245414972e-03 -7.2721809235342449e-01
    8.1176615082160768e-03 -7.6811457478686085e-01
    7.8445337006096180e-03 -9.8130676292531638e-01
    7.8557321841133503e-03 -9.4491118252306805e-01
    7.8432923787091942e-03 -1.0063092108532550e+00
    8.0902831452079830e-03 -7.7849894416152299e-01
    7.9124530086715078e-03 -8.7559503577091302e-01
    7.9965959794872313e-03 -8.2078268166812340e-01
    8.2100219461574524e-03 -7.3735291440961281e-01
    8.1774788616324687e-03 -7.4754500159640214e-01
    8.2100219461574524e-03 -7.3735291440961281e-01
    8.4461481078507306e-03 -6.7728546147859625e-01
    8.7656007432715469e-03 -6.1855371282708649e-01
    1.0295377615953763e-02 -4.6232073067867846e-01
    1.1148683121224716e-02 -4.1123916041498709e-01
    1.5453602733011950e-02 -2.7262487840313532e-01
    2.0579537167750486e-02 -1.9802950859533486e-01
    1.5453602733011950e-02 -2.7262487840313532e-01
    1.2376878710312518e-02 -3.5729480050524820e-01
    1.0954295162674777e-02 -4.2163702135578385e-01
    1.0295377615953763e-02 -4.6232073067867846e-01
    8.3591743438532623e-03 -6.9712359622323428e-01
    8.5940723118407281e-03 -6.4779846954346620e-01
    8.3591743438532623e-03 -6.9712359622323428e-01
    7.9965959794872313e-03 -8.2078268166812340e-01
    7.9769402447731098e-03 -8.3155839344097038e-01
    7.8470181135620442e-03 -1.0319569104061783e+00
    7.9265059757614234e-03 -1.1568212023115965e+00
    7.8470181135620425e-03 -9.6903270855214274e-01
    7.8507491628798786e-03 -9.5690263381517016e-01
    7.8470181135620442e-03 -1.0319569104061783e+00
    7.8432923787091942e-03 -9.9373034571758934e-01
    7.8507491628798786e-03 -9.5690263381517016e-01
    7.8557321841133503e-03 -9.4491118252306805e-01
    7.8883547548737193e-03 -8.9823058388043198e-01
    8.0177230862655598e-03 -8.1009258730098255e-01
    7.9769402447731098e-03 -8.3155839344097038e-01
    8.0645286390814818e-03 -7.8895435837051853e-01
    7.9587250581522814e-03 -8.4242353917423207e-01
    7.9265059757614234e-03 -8.6443782150756654e-01
    8.0177230862655598e-03 -8.1009258730098255e-01
    8.1176615082160768e-03 -7.6811457478686085e-01
    8.0403551433172685e-03 -7.9948436991098126e-01
    8.0177230862655598e-03 -8.1009258730098255e-01
    7.9265059757614234e-03 -1.1568212023115965e+00
    7.8782737862121335e-03 -1.0992421631894100e+00
    7.9265059757614234e-03 -1.1568212023115965e+00
    7.8883547548737193e-03 -8.9823058388043198e-01
    8.1176615082160768e-03 -7.6811457478686085e-01
    8.1774788616324687e-03 -7.4754500159640214e-01
    8.2443976245414972e-03 -7.2721809235342449e-01
    8.2443976245414972e-03 -7.2721809235342449e-01
    8.6484605018837517e-03 -6.3802793513897105e-01
    9.6697378727684229e-03 -5.1176631571915898e-01
    1.0772947424896963e-02 -4.3193421279068006e-01
    1.3035537214816416e-02 -3.3449680400283638e-01
    1.5453602733011950e-02 -2.7262487840313532e-01
    1.6153394875290886e-02 -2.5906388007541986e-01
    1.2089716741018384e-02 -3.6839419880650359e-01
    9.8985393103089656e-03 -4.9212549212573825e-01
    8.2806687966957993e-03 -7.1713716560063623e-01
    8.0177230862655598e-03 -8.1009258730098255e-01
    8.2806687966957993e-03 -7.1713716560063623e-01
    8.2100219461574524e-03 -7.3735291440961281e-01
    7.8997422325791256e-03 -8.8685785441218490e-01
    7.8470181135620425e-03 -9.6903270855214274e-01
    7.8507491628798803e-03 -1.0450384027191992e+00
    7.8883547548737176e-03 -1.1132998786123660e+00
    7.8445337006096180e-03 -9.8130676292531638e-01
    7.8557321841133503e-03 -9.4491118252306805e-01
    7.8883547548737193e-03 -8.9823058388043198e-01
    7.8619743242989825e-03 -9.3305317924227549e-01
    7.8470181135620425e-03 -9.6903270855214274e-01
    7.8445337006096180e-03 -9.8130676292531638e-01
    7.8997422325791256e-03 -8.8685785441218490e-01
    7.9769402447731098e-03 -8.3155839344097038e-01
    7.9769402447731098e-03 -8.3155839344097038e-01
    8.0645286390814818e-03 -7.8895435837051853e-01
    7.9587250581522814e-03 -8.4242353917423207e-01
    8.1467100617522940e-03 -7.5779774725356253e-01
    8.0403551433172685e-03 -7.9948436991098126e-01
    8.0902831452079830e-03 -7.7849894416152299e-01
    7.9419222094033494e-03 -8.5338201853871842e-01
    7.8883547548737193e-03 -8.9823058388043198e-01
    7.8432923787091942e-03 -1.0063092108532550e+00
    7.9265059757614234e-03 -1.1568212023115965e+00
    7.8694845705499037e-03 -1.0853949473720717e+00
    7.9124530086715095e-03 -1.1420804814403216e+00
    7.9587250581522814e-03 -8.4242353917423207e-01
    7.9769402447731098e-03 -8.3155839344097038e-01
    7.9419222094033494e-03 -8.5338201853871842e-01
    8.0177230862655598e-03 -8.1009258730098255e-01
    8.2443976245414972e-03 -7.2721809235342449e-01
    8.7656007432715469e-03 -6.1855371282708649e-01
    1.0603383018860617e-02 -4.4214106550343324e-01
    1.4312280521564174e-02 -2.9839754672317759e-01
    1.5453602733011950e-02 -2.7262487840313532e-01
    1.3035537214816416e-02 -3.3449680400283638e-01
    1.0954295162674777e-02 -4.2163702135578385e-01
    9.6697378727684229e-03 -5.1176631571915898e-01
    8.3591743438532623e-03 -6.9712359622323428e-01
    7.9965959794872313e-03 -8.2078268166812340e-01
    7.9265059757614234e-03 -8.6443782150756654e-01
    7.9124530086715078e-03 -8.7559503577091302e-01
    7.9769402447731098e-03 -8.3155839344097038e-01
    7.8557321841133485e-03 -1.0583005244258359e+00
    7.9265059757614234e-03 -1.1568212023115965e+00
    7.8432923787091942e-03 -9.9373034571758934e-01
    7.8507491628798803e-03 -1.0450384027191992e+00
    7.8619743242989825e-03 -9.3305317924227549e-01
    8.0177230862655598e-03 -8.1009258730098255e-01
    7.8557321841133503e-03 -9.4491118252306805e-01
    7.8470181135620442e-03 -1.0319569104061783e+00
    7.8557321841133503e-03 -9.4491118252306805e-01
    7.8997422325791256e-03 -8.8685785441218490e-01
    7.9265059757614234e-03 -8.6443782150756654e-01
    8.1467100617522940e-03 -7.5779774725356253e-01
    8.0177230862655598e-03 -8.1009258730098255e-01
    7.9265059757614234e-03 -8.6443782150756654e-01
    7.9587250581522814e-03 -8.4242353917423207e-01
    7.9265059757614234e-03 -8.6443782150756654e-01
    8.0645286390814818e-03 -7.8895435837051853e-01
    7.8883547548737193e-03 -8.9823058388043198e-01
    7.8445337006096180e-03 -1.0190493307301363e+00
    7.8507491628798786e-03 -9.5690263381517016e-01
    7.9769402447731081e-03 -1.2025613689761723e+00
    7.8557321841133485e-03 -1.0583005244258359e+00
    7.8782737862121335e-03 -1.0992421631894100e+00
    7.8883547548737193e-03 -8.9823058388043198e-01
    7.8883547548737193e-03 -8.9823058388043198e-01
    7.8694845705499037e-03 -9.2132361811815378e-01
    7.9265059757614234e-03 -8.6443782150756654e-01
    8.1467100617522940e-03 -7.5779774725356253e-01
    8.2443976245414972e-03 -7.2721809235342449e-01
    9.8985393103089656e-03 -4.9212549212573825e-01
    1.2089716741018384e-02 -3.6839419880650359e-01
    1.6153394875290886e-02 -2.5906388007541986e-01
    1.1357567325180102e-02 -4.0072926222805261e-01
    9.7809287271536476e-03 -5.0196464411052688e-01
    8.3189033080770299e-03 -7.0710678118654757e-01
    8.1176615082160768e-03 -7.6811457478686085e-01
    7.9419222094033494e-03 -8.5338201853871842e-01
    7.8507491628798786e-03 -9.5690263381517016e-01
    7.8997422325791256e-03 -8.8685785441218490e-01
    7.8619743242989808e-03 -1.0717502734539648e+00
    7.8883547548737176e-03 -1.1132998786123660e+00
    7.8445337006096180e-03 -1.0190493307301363e+00
    7.8694845705499037e-03 -1.0853949473720717e+00
    7.8432923787091942e-03 -1.0063092108532550e+00
    7.8445337006096180e-03 -1.0190493307301363e+00
    7.9587250581522814e-03 -8.4242353917423207e-01
    7.8883547548737193e-03 -8.9823058388043198e-01
    7.8997422325791256e-03 -8.8685785441218490e-01
    7.9124530086715078e-03 -8.7559503577091302e-01
    7.8883547548737193e-03 -8.9823058388043198e-01
    7.9587250581522814e-03 -8.4242353917423207e-01
    8.0177230862655598e-03 -8.1009258730098255e-01
    8.1774788616324687e-03 -7.4754500159640214e-01
    8.1176615082160768e-03 -7.6811457478686085e-01
    8.1176615082160768e-03 -7.6811457478686085e-01
    7.9419222094033494e-03 -8.5338201853871842e-01
    7.9965959794872313e-03 -8.2078268166812340e-01
    7.9265059757614234e-03 -8.6443782150756654e-01
    7.8432923787091942e-03 -9.9373034571758934e-01
    7.8619743242989825e-03 -9.3305317924227549e-01
    7.8782737862121335e-03 -1.0992421631894100e+00
    8.1774788616324669e-03 -1.3377121081198771e+00
    7.9419222094033477e-03 -1.1718081448591353e+00
    7.8694845705499037e-03 -1.0853949473720717e+00
    7.9587250581522814e-03 -8.4242353917423207e-01
    7.9769402447731098e-03 -8.3155839344097038e-01
    7.9124530086715078e-03 -8.7559503577091302e-01
    8.0177230862655598e-03 -8.1009258730098255e-01
    8.3189033080770299e-03 -7.0710678118654757e-01
    9.2806023895203281e-03 -5.5070744368002700e-01
    1.0023086107855624e-02 -4.8224282217041214e-01
    1.2690779868736823e-02 -3.4600333793065491e-01
    1.0772947424896963e-02 -4.3193421279068006e-01
    9.3702922818380222e-03 -5.4100178080045946e-01
    8.3591743438532623e-03 -6.9712359622323428e-01
    8.0403551433172685e-03 -7.9948436991098126e-01
    7.9124530086715078e-03 -8.7559503577091302e-01
    7.8694845705499037e-03 -9.2132361811815378e-01
    7.8557321841133503e-03 -9.4491118252306805e-01
    7.8619743242989808e-03 -1.0717502734539648e+00
    7.8782737862121335e-03 -1.0992421631894100e+00
    7.9419222094033477e-03 -1.1718081448591353e+00
    7.8694845705499037e-03 -1.0853949473720717e+00
    7.8470181135620442e-03 -1.0319569104061783e+00
    7.8619743242989825e-03 -9.3305317924227549e-01
    7.8883547548737193e-03 -8.9823058388043198e-01
    7.9265059757614234e-03 -8.6443782150756654e-01
    8.0403551433172685e-03 -7.9948436991098126e-01
    7.9769402447731098e-03 -8.3155839344097038e-01
    8.1467100617522940e-03 -7.5779774725356253e-01
    7.9769402447731098e-03 -8.3155839344097038e-01
    8.0403551433172685e-03 -7.9948436991098126e-01
    8.3189033080770299e-03 -7.0710678118654757e-01
    8.2443976245414972e-03 -7.2721809235342449e-01
    8.0177230862655598e-03 -8.1009258730098255e-01
    7.9419222094033494e-03 -8.5338201853871842e-01
    7.9965959794872313e-03 -8.2078268166812340e-01
    7.8557321841133503e-03 -9.4491118252306805e-01
    7.8619743242989825e-03 -9.3305317924227549e-01
    7.8619743242989825e-03 -9.3305317924227549e-01
    7.8619743242989808e-03 -1.0717502734539648e+00
    7.8619743242989808e-03 -1.0717502734539648e+00
    7.9965959794872313e-03 -1.2183492931011206e+00
    7.8782737862121335e-03 -1.0992421631894100e+00
    7.8470181135620442e-03 -1.0319569104061783e+00
    7.8782737862121335e-03 -9.0971765229468415e-01
    7.8445337006096180e-03 -9.8130676292531638e-01
    7.8997422325791256e-03 -8.8685785441218490e-01
    8.1176615082160768e-03 -7.6811457478686085e-01
    8.2806687966957993e-03 -7.1713716560063623e-01
    9.4648138994419297e-03 -5.3127964812905171e-01
    1.1825909357640213e-02 -3.7932162090544075e-01
    1.1582645202546548e-02 -3.9009474880274692e-01
    9.2806023895203281e-03 -5.5070744368002700e-01
    8.0902831452079830e-03 -7.7849894416152299e-01
    7.9265059757614234e-03 -8.6443782150756654e-01
    7.8883547548737193e-03 -8.9823058388043198e-01
    7.8432923787091942e-03 -9.9373034571758934e-01
    7.8470181135620425e-03 -9.6903270855214274e-01
    7.9124530086715095e-03 -1.1420804814403216e+00
    7.9965959794872313e-03 -1.2183492931011206e+00
    7.9265059757614234e-03 -1.1568212023115965e+00
    7.8694845705499037e-03 -1.0853949473720717e+00
    7.8557321841133485e-03 -1.0583005244258359e+00
    7.8997422325791256e-03 -8.8685785441218490e-01
    8.0902831452079830e-03 -7.7849894416152299e-01
    8.0645286390814818e-03 -7.8895435837051853e-01
    8.2100219461574524e-03 -7.3735291440961281e-01
    8.1467100617522940e-03 -7.5779774725356253e-01
    8.2443976245414972e-03 -7.2721809235342449e-01
    8.1467100617522940e-03 -7.5779774725356253e-01
    8.1176615082160768e-03 -7.6811457478686085e-01
    8.3189033080770299e-03 -7.0710678118654757e-01
    8.4015608672716648e-03 -6.8718427093627676e-01
    8.0645286390814818e-03 -7.8895435837051853e-01
    8.0403551433172685e-03 -7.9948436991098126e-01
    8.0902831452079830e-03 -7.7849894416152299e-01
    7.9124530086715078e-03 -8.7559503577091302e-01
    7.8470181135620425e-03 -9.6903270855214274e-01
    7.8619743242989825e-03 -9.3305317924227549e-01
    7.9265059757614234e-03 -8.6443782150756654e-01
    7.8507491628798803e-03 -1.0450384027191992e+00
    7.8470181135620442e-03 -1.0319569104061783e+00
    7.8883547548737176e-03 -1.1132998786123660e+00
    7.8694845705499037e-03 -1.0853949473720717e+00
    7.8432923787091942e-03 -9.9373034571758934e-01
    7.8557321841133503e-03 -9.4491118252306805e-01
    7.9587250581522814e-03 -8.4242353917423207e-01
    7.9769402447731098e-03 -8.3155839344097038e-01
    8.2100219461574524e-03 -7.3735291440961281e-01
    8.9644574851134185e-03 -5.8945536482302385e-01
    1.0772947424896963e-02 -4.3193421279068006e-01
    1.1582645202546548e-02 -3.9009474880274692e-01
    8.7055910350822985e-03 -6.2828086243754322e-01
    7.9965959794872313e-03 -8.2078268166812340e-01
    7.9265059757614234e-03 -8.6443782150756654e-01
    7.8557321841133503e-03 -9.4491118252306805e-01
    7.8432923787091942e-03 -9.9373034571758934e-01
    7.8445337006096180e-03 -1.0190493307301363e+00
    7.9265059757614234e-03 -1.1568212023115965e+00
    8.0403551433172685e-03 -1.2508061916349222e+00
    7.8619743242989808e-03 -1.0717502734539648e+00
    7.9124530086715095e-03 -1.1420804814403216e+00
    7.8619743242989808e-03 -1.0717502734539648e+00
    8.0177230862655598e-03 -8.1009258730098255e-01
    8.2806687966957993e-03 -7.1713716560063623e-01
    8.2100219461574524e-03 -7.3735291440961281e-01
    8.4461481078507306e-03 -6.7728546147859625e-01
    8.3189033080770299e-03 -7.0710678118654757e-01
    8.3591743438532623e-03 -6.9712359622323428e-01
    8.4015608672716648e-03 -6.8718427093627676e-01
    8.2806687966957993e-03 -7.1713716560063623e-01
    8.3591743438532623e-03 -6.9712359622323428e-01
    8.0902831452079830e-03 -7.7849894416152299e-01
    8.0645286390814818e-03 -7.8895435837051853e-01
    7.9965959794872313e-03 -8.2078268166812340e-01
    7.9587250581522814e-03 -8.4242353917423207e-01
    7.8997422325791256e-03 -8.8685785441218490e-01
    7.9587250581522814e-03 -8.4242353917423207e-01
    7.8782737862121335e-03 -9.0971765229468415e-01
    7.8619743242989825e-03 -9.3305317924227549e-01
    7.8782737862121335e-03 -9.0971765229468415e-01
    7.8445337006096180e-03 -1.0190493307301363e+00
    7.8445337006096180e-03 -1.0190493307301363e+00
    7.8694845705499037e-03 -1.0853949473720717e+00
    7.8432923787091942e-03 -1.0063092108532550e+00
    7.8883547548737193e-03 -8.9823058388043198e-01
    7.8997422325791256e-03 -8.8685785441218490e-01
    7.9265059757614234e-03 -8.6443782150756654e-01
    7.9769402447731098e-03 -8.3155839344097038e-01
    8.8948651384621116e-03 -5.9914468951527800e-01
    9.6697378727684229e-03 -5.1176631571915898e-01
    1.0772947424896963e-02 -4.3193421279068006e-01
    8.7055910350822985e-03 -6.2828086243754322e-01
    7.9965959794872313e-03 -8.2078268166812340e-01
    7.8619743242989825e-03 -9.3305317924227549e-01
    7.8507491628798803e-03 -1.0450384027191992e+00
    7.8445337006096180e-03 -1.0190493307301363e+00
    7.8470181135620425e-03 -9.6903270855214274e-01
    7.8883547548737176e-03 -1.1132998786123660e+00
    7.9124530086715095e-03 -1.1420804814403216e+00
    7.8557321841133485e-03 -1.0583005244258359e+00
    7.8782737862121335e-03 -1.0992421631894100e+00
    7.8782737862121335e-03 -9.0971765229468415e-01
    8.0902831452079830e-03 -7.7849894416152299e-01
    8.2100219461574524e-03 -7.3735291440961281e-01
    8.0403551433172685e-03 -7.9948436991098126e-01
    8.1774788616324687e-03 -7.4754500159640214e-01
    8.2100219461574524e-03 -7.3735291440961281e-01
    8.1774788616324687e-03 -7.4754500159640214e-01
    8.2806687966957993e-03 -7.1713716560063623e-01
    8.1467100617522940e-03 -7.5779774725356253e-01
    8.2443976245414972e-03 -7.2721809235342449e-01
    8.1774788616324687e-03 -7.4754500159640214e-01
    8.1467100617522940e-03 -7.5779774725356253e-01
    7.9419222094033494e-03 -8.5338201853871842e-01
    7.9587250581522814e-03 -8.4242353917423207e-01
    8.0645286390814818e-03 -7.8895435837051853e-01
    8.0177230862655598e-03 -8.1009258730098255e-01
    7.9587250581522814e-03 -8.4242353917423207e-01
    7.8782737862121335e-03 -9.0971765229468415e-01
    7.9965959794872313e-03 -8.2078268166812340e-01
    7.8470181135620442e-03 -1.0319569104061783e+00
    7.8883547548737176e-03 -1.1132998786123660e+00
    7.9769402447731081e-03 -1.2025613689761723e+00
    7.9965959794872313e-03 -1.2183492931011206e+00
    7.8619743242989808e-03 -1.0717502734539648e+00
    7.8432923787091942e-03 -9.9373034571758934e-01
    7.8445337006096180e-03 -9.8130676292531638e-01
    7.9265059757614234e-03 -8.6443782150756654e-01
    8.7656007432715469e-03 -6.1855371282708649e-01
    1.1148683121224716e-02 -4.1123916041498709e-01
    1.0603383018860617e-02 -4.4214106550343324e-01
    8.8948651384621116e-03 -5.9914468951527800e-01
    8.0902831452079830e-03 -7.7849894416152299e-01
    7.8694845705499037e-03 -9.2132361811815378e-01
    7.8619743242989808e-03 -1.0717502734539648e+00
    7.8432923787091942e-03 -1.0063092108532550e+00
    7.8507491628798786e-03 -9.5690263381517016e-01
    7.8507491628798786e-03 -9.5690263381517016e-01
    7.8997422325791274e-03 -1.1275764148954923e+00
    7.8619743242989808e-03 -1.0717502734539648e+00
    7.8507491628798803e-03 -1.0450384027191992e+00
    7.8619743242989808e-03 -1.0717502734539648e+00
    8.0902831452079830e-03 -7.7849894416152299e-01
    8.0177230862655598e-03 -8.1009258730098255e-01
    8.0645286390814818e-03 -7.8895435837051853e-01
    8.0645286390814818e-03 -7.8895435837051853e-01
    8.0902831452079830e-03 -7.7849894416152299e-01
    8.0177230862655598e-03 -8.1009258730098255e-01
    8.1467100617522940e-03 -7.5779774725356253e-01
    8.1176615082160768e-03 -7.6811457478686085e-01
    8.0403551433172685e-03 -7.9948436991098126e-01
    8.0645286390814818e-03 -7.8895435837051853e-01
    8.0902831452079830e-03 -7.7849894416152299e-01
    8.0177230862655598e-03 -8.1009258730098255e-01
    7.9419222094033494e-03 -8.5338201853871842e-01
    8.0403551433172685e-03 -7.9948436991098126e-01
    8.0403551433172685e-03 -7.9948436991098126e-01
    8.0645286390814818e-03 -7.8895435837051853e-01
    8.1467100617522940e-03 -7.5779774725356253e-01
    8.0902831452079830e-03 -7.7849894416152299e-01
    7.8470181135620425e-03 -9.6903270855214274e-01
    7.8782737862121335e-03 -9.0971765229468415e-01
    8.1176615082160751e-03 -1.3018891098082384e+00
    7.9769402447731081e-03 -1.2025613689761723e+00
    7.8432923787091942e-03 -1.0063092108532550e+00
    7.8619743242989808e-03 -1.0717502734539648e+00
    7.8694845705499037e-03 -9.2132361811815378e-01
    8.0177230862655598e-03 -8.1009258730098255e-01
    8.4461481078507306e-03 -6.7728546147859625e-01
    9.6697378727684229e-03 -5.1176631571915898e-01
    1.2376878710312518e-02 -3.5729480050524820e-01
    9.1145245143671658e-03 -5.7008771254956891e-01
    8.2100219461574524e-03 -7.3735291440961281e-01
    7.8619743242989825e-03 -9.3305317924227549e-01
    7.8557321841133485e-03 -1.0583005244258359e+00
    7.8557321841133503e-03 -9.4491118252306805e-01
    7.8445337006096180e-03 -9.8130676292531638e-01
    7.8619743242989808e-03 -1.0717502734539648e+00
    7.8883547548737176e-03 -1.1132998786123660e+00
    7.8557321841133485e-03 -1.0583005244258359e+00
    7.8507491628798803e-03 -1.0450384027191992e+00
    7.8470181135620425e-03 -9.6903270855214274e-01
    7.9419222094033494e-03 -8.5338201853871842e-01
    7.9965959794872313e-03 -8.2078268166812340e-01
    8.0902831452079830e-03 -7.7849894416152299e-01
    8.0645286390814818e-03 -7.8895435837051853e-01
    8.1774788616324687e-03 -7.4754500159640214e-01
    7.9419222094033494e-03 -8.5338201853871842e-01
    7.9265059757614234e-03 -8.6443782150756654e-01
    8.0403551433172685e-03 -7.9948436991098126e-01
    7.9965959794872313e-03 -8.2078268166812340e-01
    8.0403551433172685e-03 -7.9948436991098126e-01
    8.1467100617522940e-03 -7.5779774725356253e-01
    8.0902831452079830e-03 -7.7849894416152299e-01
    7.9419222094033494e-03 -8.5338201853871842e-01
    8.0645286390814818e-03 -7.8895435837051853e-01
    8.0177230862655598e-03 -8.1009258730098255e-01
    8.1774788616324687e-03 -7.4754500159640214e-01
    8.0403551433172685e-03 -7.9948436991098126e-01
    7.9124530086715078e-03 -8.7559503577091302e-01
    7.8619743242989825e-03 -9.3305317924227549e-01
    7.8470181135620442e-03 -1.0319569104061783e+00
    8.0403551433172685e-03 -1.2508061916349222e+00
    7.9769402447731081e-03 -1.2025613689761723e+00
    7.8507491628798786e-03 -9.5690263381517016e-01
    7.8782737862121335e-03 -1.0992421631894100e+00
    7.8432923787091942e-03 -9.9373034571758934e-01
    7.9124530086715078e-03 -8.7559503577091302e-01
    8.8286382367046314e-03 -6.0884288217274396e-01
    1.0155148272110642e-02 -4.7231019793873086e-01
    1.1825909357640213e-02 -3.7932162090544075e-01
    8.9644574851134185e-03 -5.8945536482302385e-01
    8.1176615082160768e-03 -7.6811457478686085e-01
    7.8432923787091942e-03 -1.0063092108532550e+00
    7.8432923787091942e-03 -9.9373034571758934e-01
    7.8445337006096180e-03 -9.8130676292531638e-01
    7.8619743242989808e-03 -1.0717502734539648e+00
    7.8470181135620442e-03 -1.0319569104061783e+00
    7.9965959794872313e-03 -1.2183492931011206e+00
    7.8557321841133503e-03 -9.4491118252306805e-01
    7.8507491628798803e-03 -1.0450384027191992e+00
    7.8432923787091942e-03 -9.9373034571758934e-01
    7.9769402447731098e-03 -8.3155839344097038e-01
    8.0177230862655598e-03 -8.1009258730098255e-01
    8.0902831452079830e-03 -7.7849894416152299e-01
    8.1774788616324687e-03 -7.4754500159640214e-01
    8.0645286390814818e-03 -7.8895435837051853e-01
    8.0902831452079830e-03 -7.7849894416152299e-01
    7.9769402447731098e-03 -8.3155839344097038e-01
    7.9419222094033494e-03 -8.5338201853871842e-01
    7.8883547548737193e-03 -8.9823058388043198e-01
    8.0403551433172685e-03 -7.9948436991098126e-01
    8.0902831452079830e-03 -7.7849894416152299e-01
    7.9265059757614234e-03 -8.6443782150756654e-01
    7.8782737862121335e-03 -9.0971765229468415e-01
    7.9769402447731098e-03 -8.3155839344097038e-01
    8.0177230862655598e-03 -8.1009258730098255e-01
    7.9965959794872313e-03 -8.2078268166812340e-01
    8.0902831452079830e-03 -7.7849894416152299e-01
    7.9265059757614234e-03 -8.6443782150756654e-01
    7.8432923787091942e-03 -9.9373034571758934e-01
    7.8997422325791274e-03 -1.1275764148954923e+00
    7.8507491628798803e-03 -1.0450384027191992e+00
    7.9419222094033477e-03 -1.1718081448591353e+00
    7.8470181135620442e-03 -1.0319569104061783e+00
    7.8557321841133503e-03 -9.4491118252306805e-01
    7.8619743242989825e-03 -9.3305317924227549e-01
    7.9265059757614234e-03 -8.6443782150756654e-01
    8.4930281058851077e-03 -6.6742381247191462e-01
    1.0155148272110642e-02 -4.7231019793873086e-01
    1.0954295162674777e-02 -4.2163702135578385e-01
    9.3702922818380222e-03 -5.4100178080045946e-01
    7.9265059757614234e-03 -8.6443782150756654e-01
    7.8619743242989825e-03 -9.3305317924227549e-01
    7.8557321841133485e-03 -1.0583005244258359e+00
    7.8507491628798803e-03 -1.0450384027191992e+00
    7.8445337006096180e-03 -9.8130676292531638e-01
    7.8445337006096180e-03 -1.0190493307301363e+00
    7.8432923787091942e-03 -9.9373034571758934e-01
    7.8782737862121335e-03 -9.0971765229468415e-01
    7.8507491628798786e-03 -9.5690263381517016e-01
    7.8619743242989825e-03 -9.3305317924227549e-01
    7.9965959794872313e-03 -8.2078268166812340e-01
    8.1467100617522940e-03 -7.5779774725356253e-01
    8.2100219461574524e-03 -7.3735291440961281e-01
    8.0403551433172685e-03 -7.9948436991098126e-01
    8.0902831452079830e-03 -7.7849894416152299e-01
    8.0902831452079830e-03 -7.7849894416152299e-01
    7.9965959794872313e-03 -8.2078268166812340e-01
    8.0645286390814818e-03 -7.8895435837051853e-01
    7.9769402447731098e-03 -8.3155839344097038e-01
    8.0403551433172685e-03 -7.9948436991098126e-01
    8.2443976245414972e-03 -7.2721809235342449e-01
    8.0403551433172685e-03 -7.9948436991098126e-01
    8.0177230862655598e-03 -8.1009258730098255e-01
    8.1176615082160768e-03 -7.6811457478686085e-01
    8.0403551433172685e-03 -7.9948436991098126e-01
    8.2443976245414972e-03 -7.2721809235342449e-01
    8.1467100617522940e-03 -7.5779774725356253e-01
    8.1467100617522940e-03 -7.5779774725356253e-01
    7.8694845705499037e-03 -9.2132361811815378e-01
    7.8470181135620442e-03 -1.0319569104061783e+00
    7.8782737862121335e-03 -1.0992421631894100e+00
    7.8997422325791274e-03 -1.1275764148954923e+00
    7.8997422325791256e-03 -8.8685785441218490e-01
    7.8997422325791256e-03 -8.8685785441218490e-01
    7.9419222094033494e-03 -8.5338201853871842e-01
    8.0177230862655598e-03 -8.1009258730098255e-01
    8.1176615082160768e-03 -7.6811457478686085e-01
    1.0603383018860617e-02 -4.4214106550343324e-01
    1.2089716741018384e-02 -3.6839419880650359e-01
    1.0023086107855624e-02 -4.8224282217041214e-01
    8.3189033080770299e-03 -7.0710678118654757e-01
    7.8507491628798786e-03 -9.5690263381517016e-01
    7.8432923787091942e-03 -1.0063092108532550e+00
    7.8557321841133485e-03 -1.0583005244258359e+00
    7.8432923787091942e-03 -9.9373034571758934e-01
    7.8470181135620425e-03 -9.6903270855214274e-01
    7.8507491628798803e-03 -1.0450384027191992e+00
    7.8619743242989825e-03 -9.3305317924227549e-01
    7.8694845705499037e-03 -9.2132361811815378e-01
    7.9965959794872313e-03 -8.2078268166812340e-01
    7.8997422325791256e-03 -8.8685785441218490e-01
    8.1467100617522940e-03 -7.5779774725356253e-01
    8.1467100617522940e-03 -7.5779774725356253e-01
    8.0403551433172685e-03 -7.9948436991098126e-01
    7.9769402447731098e-03 -8.3155839344097038e-01
    8.0177230862655598e-03 -8.1009258730098255e-01
    8.1176615082160768e-03 -7.6811457478686085e-01
    8.0645286390814818e-03 -7.8895435837051853e-01
    8.0403551433172685e-03 -7.9948436991098126e-01
    8.1774788616324687e-03 -7.4754500159640214e-01
    8.0177230862655598e-03 -8.1009258730098255e-01
    8.0645286390814818e-03 -7.8895435837051853e-01
    8.0645286390814818e-03 -7.8895435837051853e-01
    8.2100219461574524e-03 -7.3735291440961281e-01
    8.1176615082160768e-03 -7.6811457478686085e-01
    8.3591743438532623e-03 -6.9712359622323428e-01
    8.1176615082160768e-03 -7.6811457478686085e-01
    8.1467100617522940e-03 -7.5779774725356253e-01
    7.9965959794872313e-03 -8.2078268166812340e-01
    7.8694845705499037e-03 -9.2132361811815378e-01
    7.8694845705499037e-03 -1.0853949473720717e+00
    8.0177230862655598e-03 -1.2344267996967351e+00
    7.8619743242989825e-03 -9.3305317924227549e-01
    7.8782737862121335e-03 -9.0971765229468415e-01
    7.8782737862121335e-03 -9.0971765229468415e-01
    8.0177230862655598e-03 -8.1009258730098255e-01
    8.0645286390814818e-03 -7.8895435837051853e-01
    1.0023086107855624e-02 -4.8224282217041214e-01
    1.3839134332811288e-02 -3.1072773313293273e-01
    1.0444510629164360e-02 -4.5226701686664544e-01
    8.5940723118407281e-03 -6.4779846954346620e-01
    7.8782737862121335e-03 -9.0971765229468415e-01
    7.8694845705499037e-03 -9.2132361811815378e-01
    7.8445337006096180e-03 -1.0190493307301363e+00
    7.8470181135620425e-03 -9.6903270855214274e-01
    7.8470181135620442e-03 -1.0319569104061783e+00
    7.8557321841133485e-03 -1.0583005244258359e+00
    7.8557321841133503e-03 -9.4491118252306805e-01
    7.8997422325791256e-03 -8.8685785441218490e-01
    7.8997422325791256e-03 -8.8685785441218490e-01
    7.9265059757614234e-03 -8.6443782150756654e-01
    8.0902831452079830e-03 -7.7849894416152299e-01
    8.2443976245414972e-03 -7.2721809235342449e-01
    8.1774788616324687e-03 -7.4754500159640214e-01
    8.0645286390814818e-03 -7.8895435837051853e-01
    7.9419222094033494e-03 -8.5338201853871842e-01
    7.9587250581522814e-03 -8.4242353917423207e-01
    8.1176615082160768e-03 -7.6811457478686085e-01
    8.0902831452079830e-03 -7.7849894416152299e-01
    8.2806687966957993e-03 -7.1713716560063623e-01
    8.1774788616324687e-03 -7.4754500159640214e-01
    8.2443976245414972e-03 -7.2721809235342449e-01
    8.1467100617522940e-03 -7.5779774725356253e-01
    8.4461481078507306e-03 -6.7728546147859625e-01
    8.4461481078507306e-03 -6.7728546147859625e-01
    8.2443976245414972e-03 -7.2721809235342449e-01
    8.0403551433172685e-03 -7.9948436991098126e-01
    7.8470181135620425e-03 -9.6903270855214274e-01
    7.8432923787091942e-03 -9.9373034571758934e-01
    8.0403551433172685e-03 -7.9948436991098126e-01
    7.9124530086715095e-03 -1.1420804814403216e+00
    7.8507491628798803e-03 -1.0450384027191992e+00
    7.9124530086715078e-03 -8.7559503577091302e-01
    7.9265059757614234e-03 -8.6443782150756654e-01
    7.8997422325791256e-03 -8.8685785441218490e-01
    8.0645286390814818e-03 -7.8895435837051853e-01
    8.1176615082160768e-03 -7.6811457478686085e-01
    1.0023086107855624e-02 -4.8224282217041214e-01
    1.5453602733011950e-02 -2.7262487840313532e-01
    9.7809287271536476e-03 -5.0196464411052688e-01
    8.7055910350822985e-03 -6.2828086243754322e-01
    8.3189033080770299e-03 -7.0710678118654757e-01
    7.8782737862121335e-03 -9.0971765229468415e-01
    7.8470181135620425e-03 -9.6903270855214274e-01
    7.8445337006096180e-03 -9.8130676292531638e-01
    7.8507491628798803e-03 -1.0450384027191992e+00
    7.8432923787091942e-03 -1.0063092108532550e+00
    7.8507491628798786e-03 -9.5690263381517016e-01
    7.9587250581522814e-03 -8.4242353917423207e-01
    7.9587250581522814e-03 -8.4242353917423207e-01
    7.8883547548737193e-03 -8.9823058388043198e-01
    7.9265059757614234e-03 -8.6443782150756654e-01
    8.0177230862655598e-03 -8.1009258730098255e-01
    7.9265059757614234e-03 -8.6443782150756654e-01
    8.1467100617522940e-03 -7.5779774725356253e-01
    8.0403551433172685e-03 -7.9948436991098126e-01
    7.9769402447731098e-03 -8.3155839344097038e-01
    8.1467100617522940e-03 -7.5779774725356253e-01
    8.3189033080770299e-03 -7.0710678118654757e-01
    8.2100219461574524e-03 -7.3735291440961281e-01
    8.1176615082160768e-03 -7.6811457478686085e-01
    8.4015608672716648e-03 -6.8718427093627676e-01
    8.3189033080770299e-03 -7.0710678118654757e-01
    8.3591743438532623e-03 -6.9712359622323428e-01
    8.0645286390814818e-03 -7.8895435837051853e-01
    8.0645286390814818e-03 -7.8895435837051853e-01
    8.2443976245414972e-03 -7.2721809235342449e-01
    7.8883547548737193e-03 -8.9823058388043198e-01
    8.2100219461574524e-03 -7.3735291440961281e-01
    7.8782737862121335e-03 -9.0971765229468415e-01
    7.9124530086715095e-03 -1.1420804814403216e+00
    7.8782737862121335e-03 -1.0992421631894100e+00
    7.8619743242989825e-03 -9.3305317924227549e-01
    7.8445337006096180e-03 -9.8130676292531638e-01
    7.8694845705499037e-03 -9.2132361811815378e-01
    8.0177230862655598e-03 -8.1009258730098255e-01
    8.0177230862655598e-03 -8.1009258730098255e-01
    9.8985393103089656e-03 -4.9212549212573825e-01
    1.5453602733011950e-02 -2.7262487840313532e-01
    1.0772947424896963e-02 -4.3193421279068006e-01
    9.0376073204646371e-03 -5.7977103565244836e-01
    8.8286382367046314e-03 -6.0884288217274396e-01
    7.9965959794872313e-03 -8.2078268166812340e-01
    8.0645286390814818e-03 -7.8895435837051853e-01
    7.8432923787091942e-03 -1.0063092108532550e+00
    7.8445337006096180e-03 -1.0190493307301363e+00
    7.8507491628798786e-03 -9.5690263381517016e-01
    7.8432923787091942e-03 -9.9373034571758934e-01
    7.8619743242989825e-03 -9.3305317924227549e-01
    7.8470181135620442e-03 -1.0319569104061783e+00
    7.8782737862121335e-03 -1.0992421631894100e+00
    7.8432923787091942e-03 -9.9373034571758934e-01
    7.8782737862121335e-03 -9.0971765229468415e-01
    8.0645286390814818e-03 -7.8895435837051853e-01
    7.9965959794872313e-03 -8.2078268166812340e-01
    8.1774788616324687e-03 -7.4754500159640214e-01
    8.0403551433172685e-03 -7.9948436991098126e-01
    8.1774788616324687e-03 -7.4754500159640214e-01
    8.5940723118407281e-03 -6.4779846954346620e-01
    8.4930281058851077e-03 -6.6742381247191462e-01
    8.4461481078507306e-03 -6.7728546147859625e-01
    8.6484605018837517e-03 -6.3802793513897105e-01
    8.4461481078507306e-03 -6.7728546147859625e-01
    8.3189033080770299e-03 -7.0710678118654757e-01
    8.3189033080770299e-03 -7.0710678118654757e-01
    8.0902831452079830e-03 -7.7849894416152299e-01
    7.9124530086715078e-03 -8.7559503577091302e-01
    7.8619743242989825e-03 -9.3305317924227549e-01
    7.9419222094033494e-03 -8.5338201853871842e-01
    7.8619743242989825e-03 -9.3305317924227549e-01
    7.9265059757614234e-03 -1.1568212023115965e+00
    7.9587250581522797e-03 -1.1870513506545994e+00
    7.8445337006096180e-03 -9.8130676292531638e-01
    7.8507491628798786e-03 -9.5690263381517016e-01
    7.9587250581522814e-03 -8.4242353917423207e-01
    8.0177230862655598e-03 -8.1009258730098255e-01
    7.9965959794872313e-03 -8.2078268166812340e-01
    1.0444510629164360e-02 -4.5226701686664544e-01
    1.9115520583943051e-02 -2.1459876881973805e-01
    1.2690779868736823e-02 -3.4600333793065491e-01
    9.0376073204646371e-03 -5.7977103565244836e-01
    8.4930281058851077e-03 -6.6742381247191462e-01
    7.9124530086715078e-03 -8.7559503577091302e-01
    7.9124530086715078e-03 -8.7559503577091302e-01
    7.8883547548737193e-03 -8.9823058388043198e-01
    7.8997422325791256e-03 -8.8685785441218490e-01
    7.8557321841133503e-03 -9.4491118252306805e-01
    7.8445337006096180e-03 -1.0190493307301363e+00
    7.8997422325791256e-03 -8.8685785441218490e-01
    7.8507491628798786e-03 -9.5690263381517016e-01
    7.8445337006096180e-03 -1.0190493307301363e+00
    7.8470181135620442e-03 -1.0319569104061783e+00
    7.8445337006096180e-03 -1.0190493307301363e+00
    7.8470181135620425e-03 -9.6903270855214274e-01
    8.1467100617522940e-03 -7.5779774725356253e-01
    8.0403551433172685e-03 -7.9948436991098126e-01
    7.9769402447731098e-03 -8.3155839344097038e-01
    8.0902831452079830e-03 -7.7849894416152299e-01
    8.2100219461574524e-03 -7.3735291440961281e-01
    8.4015608672716648e-03 -6.8718427093627676e-01
    8.5940723118407281e-03 -6.4779846954346620e-01
    8.3591743438532623e-03 -6.9712359622323428e-01
    8.2100219461574524e-03 -7.3735291440961281e-01
    8.1774788616324687e-03 -7.4754500159640214e-01
    8.1176615082160768e-03 -7.6811457478686085e-01
    8.0645286390814818e-03 -7.8895435837051853e-01
    7.8470181135620425e-03 -9.6903270855214274e-01
    7.8557321841133503e-03 -9.4491118252306805e-01
    7.9419222094033494e-03 -8.5338201853871842e-01
    7.8694845705499037e-03 -1.0853949473720717e+00
    7.9124530086715095e-03 -1.1420804814403216e+00
    7.8619743242989825e-03 -9.3305317924227549e-01
    7.8782737862121335e-03 -9.0971765229468415e-01
    7.8997422325791256e-03 -8.8685785441218490e-01
    8.0403551433172685e-03 -7.9948436991098126e-01
    8.0645286390814818e-03 -7.8895435837051853e-01
    8.3591743438532623e-03 -6.9712359622323428e-01
    1.1148683121224716e-02 -4.1123916041498709e-01
    1.4312280521564174e-02 -2.9839754672317759e-01
    1.1582645202546548e-02 -3.9009474880274692e-01
    9.1954388448453623e-03 -5.6040127299717968e-01
    8.7656007432715469e-03 -6.1855371282708649e-01
    7.9769402447731098e-03 -8.3155839344097038e-01
    7.8782737862121335e-03 -9.0971765229468415e-01
    7.8694845705499037e-03 -9.2132361811815378e-01
    7.8694845705499037e-03 -9.2132361811815378e-01
    7.8432923787091942e-03 -9.9373034571758934e-01
    7.8432923787091942e-03 -1.0063092108532550e+00
    7.8470181135620425e-03 -9.6903270855214274e-01
    7.8507491628798786e-03 -9.5690263381517016e-01
    7.8445337006096180e-03 -9.8130676292531638e-01
    7.8507491628798786e-03 -9.5690263381517016e-01
    7.8507491628798786e-03 -9.5690263381517016e-01
    7.8432923787091942e-03 -9.9373034571758934e-01
    7.8694845705499037e-03 -9.2132361811815378e-01
    8.1176615082160768e-03 -7.6811457478686085e-01
    7.9265059757614234e-03 -8.6443782150756654e-01
    8.0645286390814818e-03 -7.8895435837051853e-01
    8.4930281058851077e-03 -6.6742381247191462e-01
    8.3591743438532623e-03 -6.9712359622323428e-01
    8.4930281058851077e-03 -6.6742381247191462e-01
    8.2443976245414972e-03 -7.2721809235342449e-01
    8.0902831452079830e-03 -7.7849894416152299e-01
    8.0645286390814818e-03 -7.8895435837051853e-01
    7.8619743242989825e-03 -9.3305317924227549e-01
    7.8883547548737193e-03 -8.9823058388043198e-01
    7.9769402447731098e-03 -8.3155839344097038e-01
    7.9124530086715078e-03 -8.7559503577091302e-01
    7.9265059757614234e-03 -8.6443782150756654e-01
    7.8997422325791274e-03 -1.1275764148954923e+00
    7.8997422325791274e-03 -1.1275764148954923e+00
    7.8619743242989825e-03 -9.3305317924227549e-01
    7.8507491628798786e-03 -9.5690263381517016e-01
    7.8997422325791256e-03 -8.8685785441218490e-01
    8.0902831452079830e-03 -7.7849894416152299e-01
    8.1176615082160768e-03 -7.6811457478686085e-01
    8.8286382367046314e-03 -6.0884288217274396e-01
    1.2376878710312518e-02 -3.5729480050524820e-01
    1.5453602733011950e-02 -2.7262487840313532e-01
    1.2376878710312518e-02 -3.5729480050524820e-01
    9.4648138994419297e-03 -5.3127964812905171e-01
    8.7656007432715469e-03 -6.1855371282708649e-01
    8.2443976245414972e-03 -7.2721809235342449e-01
    7.9769402447731098e-03 -8.3155839344097038e-01
    7.8694845705499037e-03 -9.2132361811815378e-01
    7.8445337006096180e-03 -9.8130676292531638e-01
    7.8557321841133485e-03 -1.0583005244258359e+00
    7.8557321841133503e-03 -9.4491118252306805e-01
    7.8557321841133503e-03 -9.4491118252306805e-01
    7.8557321841133503e-03 -9.4491118252306805e-01
    7.8883547548737176e-03 -1.1132998786123660e+00
    7.8883547548737176e-03 -1.1132998786123660e+00
    7.8470181135620442e-03 -1.0319569104061783e+00
    7.8470181135620442e-03 -1.0319569104061783e+00
    7.8445337006096180e-03 -9.8130676292531638e-01
    7.8997422325791256e-03 -8.8685785441218490e-01
    7.8507491628798786e-03 -9.5690263381517016e-01
    7.8619743242989825e-03 -9.3305317924227549e-01
    8.3189033080770299e-03 -7.0710678118654757e-01
    7.9419222094033494e-03 -8.5338201853871842e-01
    7.9419222094033494e-03 -8.5338201853871842e-01
    7.8997422325791256e-03 -8.8685785441218490e-01
    7.8507491628798803e-03 -1.0450384027191992e+00
    7.8432923787091942e-03 -1.0063092108532550e+00
    7.8694845705499037e-03 -9.2132361811815378e-01
    7.8557321841133503e-03 -9.4491118252306805e-01
    7.8445337006096180e-03 -1.0190493307301363e+00
    7.9419222094033494e-03 -8.5338201853871842e-01
    7.8557321841133485e-03 -1.0583005244258359e+00
    7.9265059757614234e-03 -1.1568212023115965e+00
    7.8619743242989825e-03 -9.3305317924227549e-01
    7.8883547548737193e-03 -8.9823058388043198e-01
    7.8997422325791256e-03 -8.8685785441218490e-01
    8.0177230862655598e-03 -8.1009258730098255e-01
    8.0177230862655598e-03 -8.1009258730098255e-01
    8.2443976245414972e-03 -7.2721809235342449e-01
    8.7055910350822985e-03 -6.2828086243754322e-01
    1.2690779868736823e-02 -3.4600333793065491e-01
    2.0579537167750486e-02 -1.9802950859533486e-01
    1.5453602733011950e-02 -2.7262487840313532e-01
    1.0295377615953763e-02 -4.6232073067867846e-01
    8.7055910350822985e-03 -6.2828086243754322e-01
    8.3591743438532623e-03 -6.9712359622323428e-01
    8.1467100617522940e-03 -7.5779774725356253e-01
    7.8694845705499037e-03 -9.2132361811815378e-01
    7.8557321841133503e-03 -9.4491118252306805e-01
    7.8445337006096180e-03 -9.8130676292531638e-01
    7.8445337006096180e-03 -9.8130676292531638e-01
    7.8619743242989808e-03 -1.0717502734539648e+00
    7.8432923787091942e-03 -1.0063092108532550e+00
    7.8997422325791274e-03 -1.1275764148954923e+00
    8.1176615082160751e-03 -1.3018891098082384e+00
    7.8507491628798803e-03 -1.0450384027191992e+00
    7.8470181135620442e-03 -1.0319569104061783e+00
    7.8470181135620425e-03 -9.6903270855214274e-01
    7.8557321841133503e-03 -9.4491118252306805e-01
    7.8619743242989825e-03 -9.3305317924227549e-01
    7.8782737862121335e-03 -9.0971765229468415e-01
    7.8694845705499037e-03 -9.2132361811815378e-01
    7.8507491628798786e-03 -9.5690263381517016e-01
    7.8782737862121335e-03 -9.0971765229468415e-01
    7.8445337006096180e-03 -9.8130676292531638e-01
    7.8445337006096180e-03 -9.8130676292531638e-01
    7.8445337006096180e-03 -1.0190493307301363e+00
    7.8445337006096180e-03 -9.8130676292531638e-01
    7.8507491628798803e-03 -1.0450384027191992e+00
    7.8432923787091942e-03 -9.9373034571758934e-01
    7.9419222094033494e-03 -8.5338201853871842e-01
    7.8432923787091942e-03 -1.0063092108532550e+00
    7.8694845705499037e-03 -9.2132361811815378e-01
    7.9124530086715078e-03 -8.7559503577091302e-01
    7.9587250581522814e-03 -8.4242353917423207e-01
    8.0902831452079830e-03 -7.7849894416152299e-01
    8.1176615082160768e-03 -7.6811457478686085e-01
    8.0645286390814818e-03 -7.8895435837051853e-01
    8.3189033080770299e-03 -7.0710678118654757e-01
    9.1145245143671658e-03 -5.7008771254956891e-01
    1.2690779868736823e-02 -3.4600333793065491e-01
    1.7940042879627711e-02 -2.3017413505937442e-01
    1.4845938375350141e-02 -2.8571428571428570e-01
    1.2089716741018384e-02 -3.6839419880650359e-01
    8.8948651384621116e-03 -5.9914468951527800e-01
    8.2806687966957993e-03 -7.1713716560063623e-01
    8.2443976245414972e-03 -7.2721809235342449e-01
    8.2806687966957993e-03 -7.1713716560063623e-01
    7.9419222094033494e-03 -8.5338201853871842e-01
    8.0177230862655598e-03 -8.1009258730098255e-01
    7.8883547548737193e-03 -8.9823058388043198e-01
    7.9124530086715078e-03 -8.7559503577091302e-01
    7.8997422325791256e-03 -8.8685785441218490e-01
    7.8997422325791256e-03 -8.8685785441218490e-01
    7.9124530086715095e-03 -1.1420804814403216e+00
    7.9419222094033477e-03 -1.1718081448591353e+00
    7.9419222094033477e-03 -1.1718081448591353e+00
    7.8694845705499037e-03 -1.0853949473720717e+00
    7.8694845705499037e-03 -1.0853949473720717e+00
    7.8694845705499037e-03 -1.0853949473720717e+00
    7.8445337006096180e-03 -9.8130676292531638e-01
    7.8432923787091942e-03 -9.9373034571758934e-01
    7.8432923787091942e-03 -1.0063092108532550e+00
    7.8557321841133503e-03 -9.4491118252306805e-01
    7.8445337006096180e-03 -9.8130676292531638e-01
    7.8432923787091942e-03 -1.0063092108532550e+00
    7.8619743242989808e-03 -1.0717502734539648e+00
    7.8557321841133485e-03 -1.0583005244258359e+00
    7.9265059757614234e-03 -8.6443782150756654e-01
    7.8470181135620442e-03 -1.0319569104061783e+00
    7.9124530086715078e-03 -8.7559503577091302e-01
    7.9265059757614234e-03 -1.1568212023115965e+00
    7.8782737862121335e-03 -9.0971765229468415e-01
    7.9587250581522814e-03 -8.4242353917423207e-01
    7.9419222094033494e-03 -8.5338201853871842e-01
    8.0403551433172685e-03 -7.9948436991098126e-01
    8.2443976245414972e-03 -7.2721809235342449e-01
    8.1176615082160768e-03 -7.6811457478686085e-01
    8.7055910350822985e-03 -6.2828086243754322e-01
    9.7809287271536476e-03 -5.0196464411052688e-01
    1.4312280521564174e-02 -2.9839754672317759e-01
    2.0579537167750486e-02 -1.9802950859533486e-01
    1.4845938375350141e-02 -2.8571428571428570e-01
    1.3035537214816416e-02 -3.3449680400283638e-01
    1.0295377615953763e-02 -4.6232073067867846e-01
    8.8948651384621116e-03 -5.9914468951527800e-01
    8.3189033080770299e-03 -7.0710678118654757e-01
    8.3189033080770299e-03 -7.0710678118654757e-01
    8.4461481078507306e-03 -6.7728546147859625e-01
    8.0177230862655598e-03 -8.1009258730098255e-01
    8.0902831452079830e-03 -7.7849894416152299e-01
    8.0403551433172685e-03 -7.9948436991098126e-01
    8.0902831452079830e-03 -7.7849894416152299e-01
    7.8782737862121335e-03 -9.0971765229468415e-01
    7.8470181135620425e-03 -9.6903270855214274e-01
    7.9124530086715095e-03 -1.1420804814403216e+00
    8.0902831452079847e-03 -1.2845232578665131e+00
    8.0902831452079847e-03 -1.2845232578665131e+00
    7.9124530086715095e-03 -1.1420804814403216e+00
    7.8432923787091942e-03 -1.0063092108532550e+00
    7.8507491628798803e-03 -1.0450384027191992e+00
    7.8470181135620425e-03 -9.6903270855214274e-01
    7.8470181135620425e-03 -9.6903270855214274e-01
    7.8782737862121335e-03 -1.0992421631894100e+00
    7.8470181135620442e-03 -1.0319569104061783e+00
    7.9124530086715078e-03 -8.7559503577091302e-01
    7.8445337006096180e-03 -9.8130676292531638e-01
    7.8557321841133485e-03 -1.0583005244258359e+00
    7.8445337006096180e-03 -1.0190493307301363e+00
    7.8694845705499037e-03 -1.0853949473720717e+00
    7.8694845705499037e-03 -9.2132361811815378e-01
    7.8445337006096180e-03 -9.8130676292531638e-01
    7.9965959794872313e-03 -8.2078268166812340e-01
    8.0645286390814818e-03 -7.8895435837051853e-01
    8.1176615082160768e-03 -7.6811457478686085e-01
    8.0902831452079830e-03 -7.7849894416152299e-01
    8.7656007432715469e-03 -6.1855371282708649e-01
    8.4015608672716648e-03 -6.8718427093627676e-01
    9.0376073204646371e-03 -5.7977103565244836e-01
    1.1825909357640213e-02 -3.7932162090544075e-01
    1.4312280521564174e-02 -2.9839754672317759e-01
    2.5041543783430847e-02 -1.6064386578049977e-01
    1.7940042879627711e-02 -2.3017413505937442e-01
    1.3416216820195627e-02 -3.2274861218395140e-01
    1.0772947424896963e-02 -4.3193421279068006e-01
    1.0023086107855624e-02 -4.8224282217041214e-01
    9.1954388448453623e-03 -5.6040127299717968e-01
    8.7656007432715469e-03 -6.1855371282708649e-01
    8.6484605018837517e-03 -6.3802793513897105e-01
    8.3189033080770299e-03 -7.0710678118654757e-01
    7.9965959794872313e-03 -8.2078268166812340e-01
    8.1774788616324687e-03 -7.4754500159640214e-01
    7.9965959794872313e-03 -8.2078268166812340e-01
    7.9265059757614234e-03 -8.6443782150756654e-01
    7.9587250581522814e-03 -8.4242353917423207e-01
    7.8782737862121335e-03 -9.0971765229468415e-01
    7.8470181135620442e-03 -1.0319569104061783e+00
    7.8445337006096180e-03 -9.8130676292531638e-01
    7.8445337006096180e-03 -9.8130676292531638e-01
    7.8470181135620425e-03 -9.6903270855214274e-01
    7.8432923787091942e-03 -1.0063092108532550e+00
    7.8557321841133485e-03 -1.0583005244258359e+00
    7.8470181135620425e-03 -9.6903270855214274e-01
    7.8694845705499037e-03 -1.0853949473720717e+00
    7.8507491628798803e-03 -1.0450384027191992e+00
    7.8883547548737193e-03 -8.9823058388043198e-01
    7.9265059757614234e-03 -8.6443782150756654e-01
    7.8619743242989825e-03 -9.3305317924227549e-01
    7.8694845705499037e-03 -1.0853949473720717e+00
    7.8557321841133503e-03 -9.4491118252306805e-01
    7.8445337006096180e-03 -9.8130676292531638e-01
    7.8782737862121335e-03 -9.0971765229468415e-01
    8.2100219461574524e-03 -7.3735291440961281e-01
    8.3591743438532623e-03 -6.9712359622323428e-01
    8.3189033080770299e-03 -7.0710678118654757e-01
    8.4015608672716648e-03 -6.8718427093627676e-01
    8.4461481078507306e-03 -6.7728546147859625e-01
    9.1145245143671658e-03 -5.7008771254956891e-01
    9.5645045668025022e-03 -5.2153619241621196e-01
    1.2089716741018384e-02 -3.6839419880650359e-01
    1.6970321093791953e-02 -2.4494897427831783e-01
    2.5041543783430847e-02 -1.6064386578049977e-01
    2.0579537167750486e-02 -1.9802950859533486e-01
    1.3839134332811288e-02 -3.1072773313293273e-01
    1.1357567325180102e-02 -4.0072926222805261e-01
    1.0295377615953763e-02 -4.6232073067867846e-01
    9.7809287271536476e-03 -5.0196464411052688e-01
    9.4648138994419297e-03 -5.3127964812905171e-01
    9.2806023895203281e-03 -5.5070744368002700e-01
    8.7656007432715469e-03 -6.1855371282708649e-01
    8.4930281058851077e-03 -6.6742381247191462e-01
    8.2806687966957993e-03 -7.1713716560063623e-01
    8.1176615082160768e-03 -7.6811457478686085e-01
    8.1176615082160768e-03 -7.6811457478686085e-01
    8.0403551433172685e-03 -7.9948436991098126e-01
    8.0645286390814818e-03 -7.8895435837051853e-01
    8.1176615082160768e-03 -7.6811457478686085e-01
    7.8694845705499037e-03 -9.2132361811815378e-01
    7.8782737862121335e-03 -9.0971765229468415e-01
    8.0177230862655598e-03 -8.1009258730098255e-01
    7.8782737862121335e-03 -9.0971765229468415e-01
    7.8507491628798786e-03 -9.5690263381517016e-01
    7.8694845705499037e-03 -1.0853949473720717e+00
    7.9124530086715095e-03 -1.1420804814403216e+00
    7.8557321841133503e-03 -9.4491118252306805e-01
    7.8694845705499037e-03 -9.2132361811815378e-01
    7.8445337006096180e-03 -9.8130676292531638e-01
    7.8470181135620442e-03 -1.0319569104061783e+00
    7.8557321841133503e-03 -9.4491118252306805e-01
    7.8883547548737193e-03 -8.9823058388043198e-01
    7.8997422325791256e-03 -8.8685785441218490e-01
    8.3189033080770299e-03 -7.0710678118654757e-01
    8.2443976245414972e-03 -7.2721809235342449e-01
    8.3189033080770299e-03 -7.0710678118654757e-01
    8.3591743438532623e-03 -6.9712359622323428e-01
    8.2443976245414972e-03 -7.2721809235342449e-01
    8.5423003207685654e-03 -6.5759594922142917e-01
    9.1145245143671658e-03 -5.7008771254956891e-01
    9.7809287271536476e-03 -5.0196464411052688e-01
    1.3839134332811288e-02 -3.1072773313293273e-01
    1.6970321093791953e-02 -2.4494897427831783e-01
    2.8822657254840338e-02 -1.3867504905630729e-01
    2.5041543783430847e-02 -1.6064386578049977e-01
    1.5453602733011950e-02 -2.7262487840313532e-01
    1.4845938375350141e-02 -2.8571428571428570e-01
    1.2690779868736823e-02 -3.4600333793065491e-01
    1.0772947424896963e-02 -4.3193421279068006e-01
    1.0295377615953763e-02 -4.6232073067867846e-01
    9.7809287271536476e-03 -5.0196464411052688e-01
    9.1145245143671658e-03 -5.7008771254956891e-01
    9.5645045668025022e-03 -5.2153619241621196e-01
    9.1954388448453623e-03 -5.6040127299717968e-01
    8.7055910350822985e-03 -6.2828086243754322e-01
    8.3591743438532623e-03 -6.9712359622323428e-01
    8.3591743438532623e-03 -6.9712359622323428e-01
    8.2443976245414972e-03 -7.2721809235342449e-01
    8.1176615082160768e-03 -7.6811457478686085e-01
    8.1467100617522940e-03 -7.5779774725356253e-01
    7.8557321841133503e-03 -9.4491118252306805e-01
    7.8557321841133503e-03 -9.4491118252306805e-01
    7.8694845705499037e-03 -9.2132361811815378e-01
    7.9587250581522814e-03 -8.4242353917423207e-01
    7.9124530086715078e-03 -8.7559503577091302e-01
    7.8470181135620442e-03 -1.0319569104061783e+00
    7.8470181135620425e-03 -9.6903270855214274e-01
    7.8694845705499037e-03 -9.2132361811815378e-01
    7.9419222094033494e-03 -8.5338201853871842e-01
    7.9587250581522814e-03 -8.4242353917423207e-01
    7.9419222094033494e-03 -8.5338201853871842e-01
    7.9769402447731098e-03 -8.3155839344097038e-01
    7.9265059757614234e-03 -8.6443782150756654e-01
    8.3591743438532623e-03 -6.9712359622323428e-01
    8.1176615082160768e-03 -7.6811457478686085e-01
    8.2806687966957993e-03 -7.1713716560063623e-01
    8.2443976245414972e-03 -7.2721809235342449e-01
    8.5940723118407281e-03 -6.4779846954346620e-01
    9.0376073204646371e-03 -5.7977103565244836e-01
    9.4648138994419297e-03 -5.3127964812905171e-01
    1.2690779868736823e-02 -3.4600333793065491e-01
    1.3839134332811288e-02 -3.1072773313293273e-01
    1.9115520583943051e-02 -2.1459876881973805e-01
    3.5187800403652138e-02 -1.1286652959662007e-01
    1.9115520583943051e-02 -2.1459876881973805e-01
    1.9115520583943051e-02 -2.1459876881973805e-01
    1.6153394875290886e-02 -2.5906388007541986e-01
    1.4312280521564174e-02 -2.9839754672317759e-01
    1.1582645202546548e-02 -3.9009474880274692e-01
    1.0603383018860617e-02 -4.4214106550343324e-01
    1.1357567325180102e-02 -4.0072926222805261e-01
    1.0444510629164360e-02 -4.5226701686664544e-01
    9.7809287271536476e-03 -5.0196464411052688e-01
    1.0444510629164360e-02 -4.5226701686664544e-01
    9.5645045668025022e-03 -5.2153619241621196e-01
    8.4930281058851077e-03 -6.6742381247191462e-01
    8.3189033080770299e-03 -7.0710678118654757e-01
    8.4461481078507306e-03 -6.7728546147859625e-01
    8.2806687966957993e-03 -7.1713716560063623e-01
    8.2443976245414972e-03 -7.2721809235342449e-01
    8.1467100617522940e-03 -7.5779774725356253e-01
    7.8997422325791256e-03 -8.8685785441218490e-01
    7.8997422325791256e-03 -8.8685785441218490e-01
    7.8694845705499037e-03 -9.2132361811815378e-01
    7.8470181135620425e-03 -9.6903270855214274e-01
    7.8782737862121335e-03 -9.0971765229468415e-01
    8.0645286390814818e-03 -7.8895435837051853e-01
    7.8997422325791256e-03 -8.8685785441218490e-01
    7.9965959794872313e-03 -8.2078268166812340e-01
    8.0403551433172685e-03 -7.9948436991098126e-01
    8.5940723118407281e-03 -6.4779846954346620e-01
    8.4461481078507306e-03 -6.7728546147859625e-01
    8.3189033080770299e-03 -7.0710678118654757e-01
    8.2100219461574524e-03 -7.3735291440961281e-01
    8.1467100617522940e-03 -7.5779774725356253e-01
    8.7055910350822985e-03 -6.2828086243754322e-01
    9.1145245143671658e-03 -5.7008771254956891e-01
    9.1954388448453623e-03 -5.6040127299717968e-01
    9.5645045668025022e-03 -5.2153619241621196e-01
    1.1148683121224716e-02 -4.1123916041498709e-01
    1.3416216820195627e-02 -3.2274861218395140e-01
    1.7940042879627711e-02 -2.3017413505937442e-01
    2.0579537167750486e-02 -1.9802950859533486e-01
    2.8822657254840338e-02 -1.3867504905630729e-01
    2.5041543783430847e-02 -1.6064386578049977e-01
    2.2470440246053939e-02 -1.8018749253911176e-01
    1.7940042879627711e-02 -2.3017413505937442e-01
    1.6970321093791953e-02 -2.4494897427831783e-01
    1.3839134332811288e-02 -3.1072773313293273e-01
    1.1357567325180102e-02 -4.0072926222805261e-01
    1.1582645202546548e-02 -3.9009474880274692e-01
    1.1825909357640213e-02 -3.7932162090544075e-01
    1.0295377615953763e-02 -4.6232073067867846e-01
    1.0155148272110642e-02 -4.7231019793873086e-01
    1.0603383018860617e-02 -4.4214106550343324e-01
    9.8985393103089656e-03 -4.9212549212573825e-01
    9.6697378727684229e-03 -5.1176631571915898e-01
    8.8286382367046314e-03 -6.0884288217274396e-01
    8.5940723118407281e-03 -6.4779846954346620e-01
    8.5940723118407281e-03 -6.4779846954346620e-01
    8.7656007432715469e-03 -6.1855371282708649e-01
    8.0902831452079830e-03 -7.7849894416152299e-01
    7.9419222094033494e-03 -8.5338201853871842e-01
    7.9265059757614234e-03 -8.6443782150756654e-01
    7.8694845705499037e-03 -9.2132361811815378e-01
    7.8782737862121335e-03 -9.0971765229468415e-01
    7.9587250581522814e-03 -8.4242353917423207e-01
    8.0645286390814818e-03 -7.8895435837051853e-01
    7.9769402447731098e-03 -8.3155839344097038e-01
    8.2806687966957993e-03 -7.1713716560063623e-01
    8.5423003207685654e-03 -6.5759594922142917e-01
    8.2100219461574524e-03 -7.3735291440961281e-01
    8.2443976245414972e-03 -7.2721809235342449e-01
    8.4461481078507306e-03 -6.7728546147859625e-01
    8.5423003207685654e-03 -6.5759594922142917e-01
    9.1145245143671658e-03 -5.7008771254956891e-01
    9.5645045668025022e-03 -5.2153619241621196e-01
    9.4648138994419297e-03 -5.3127964812905171e-01
    1.1825909357640213e-02 -3.7932162090544075e-01
    1.3839134332811288e-02 -3.1072773313293273e-01
    1.6970321093791953e-02 -2.4494897427831783e-01
    1.9115520583943051e-02 -2.1459876881973805e-01
    2.8822657254840338e-02 -1.3867504905630729e-01
    3.5187800403652138e-02 -1.1286652959662007e-01
    2.5041543783430847e-02 -1.6064386578049977e-01
    2.8822657254840338e-02 -1.3867504905630729e-01
    2.2470440246053939e-02 -1.8018749253911176e-01
    1.9115520583943051e-02 -2.1459876881973805e-01
    1.6153394875290886e-02 -2.5906388007541986e-01
    1.2690779868736823e-02 -3.4600333793065491e-01
    1.2089716741018384e-02 -3.6839419880650359e-01
    1.2376878710312518e-02 -3.5729480050524820e-01
    1.2089716741018384e-02 -3.6839419880650359e-01
    1.1357567325180102e-02 -4.0072926222805261e-01
    1.1825909357640213e-02 -3.7932162090544075e-01
    1.0295377615953763e-02 -4.6232073067867846e-01
    1.0772947424896963e-02 -4.3193421279068006e-01
    1.0772947424896963e-02 -4.3193421279068006e-01
    1.0155148272110642e-02 -4.7231019793873086e-01
    9.1145245143671658e-03 -5.7008771254956891e-01
    8.7055910350822985e-03 -6.2828086243754322e-01
    8.8948651384621116e-03 -5.9914468951527800e-01
    8.1467100617522940e-03 -7.5779774725356253e-01
    8.0645286390814818e-03 -7.8895435837051853e-01
    8.0403551433172685e-03 -7.9948436991098126e-01
    8.5423003207685654e-03 -6.5759594922142917e-01
    8.2443976245414972e-03 -7.2721809235342449e-01
    8.1467100617522940e-03 -7.5779774725356253e-01
    8.0902831452079830e-03 -7.7849894416152299e-01
    8.4015608672716648e-03 -6.8718427093627676e-01
    8.5423003207685654e-03 -6.5759594922142917e-01
    8.5940723118407281e-03 -6.4779846954346620e-01
    9.1145245143671658e-03 -5.7008771254956891e-01
    9.0376073204646371e-03 -5.7977103565244836e-01
    8.7656007432715469e-03 -6.1855371282708649e-01
    9.3702922818380222e-03 -5.4100178080045946e-01
    9.8985393103089656e-03 -4.9212549212573825e-01
    1.2089716741018384e-02 -3.6839419880650359e-01
    1.4845938375350141e-02 -2.8571428571428570e-01
    1.6153394875290886e-02 -2.5906388007541986e-01
    1.9115520583943051e-02 -2.1459876881973805e-01
    2.5041543783430847e-02 -1.6064386578049977e-01
    3.5187800403652138e-02 -1.1286652959662007e-01
    4.9605336542721992e-02 -7.9555728417573010e-02
    3.5187800403652138e-02 -1.1286652959662007e-01
    2.8822657254840338e-02 -1.3867504905630729e-01
    3.5187800403652138e-02 -1.1286652959662007e-01
    2.0579537167750486e-02 -1.9802950859533486e-01
    2.0579537167750486e-02 -1.9802950859533486e-01
    2.0579537167750486e-02 -1.9802950859533486e-01
    1.5453602733011950e-02 -2.7262487840313532e-01
    1.3035537214816416e-02 -3.3449680400283638e-01
    1.3035537214816416e-02 -3.3449680400283638e-01
    1.2376878710312518e-02 -3.5729480050524820e-01
    1.2089716741018384e-02 -3.6839419880650359e-01
    1.2376878710312518e-02 -3.5729480050524820e-01
    1.1148683121224716e-02 -4.1123916041498709e-01
    1.1582645202546548e-02 -3.9009474880274692e-01
    1.0295377615953763e-02 -4.6232073067867846e-01
    1.0295377615953763e-02 -4.6232073067867846e-01
    9.0376073204646371e-03 -5.7977103565244836e-01
    8.4015608672716648e-03 -6.8718427093627676e-01
    9.1145245143671658e-03 -5.7008771254956891e-01
    9.0376073204646371e-03 -5.7977103565244836e-01
    8.2100219461574524e-03 -7.3735291440961281e-01
    8.8286382367046314e-03 -6.0884288217274396e-01
    8.2100219461574524e-03 -7.3735291440961281e-01
    8.8286382367046314e-03 -6.0884288217274396e-01
    8.1774788616324687e-03 -7.4754500159640214e-01
    8.7055910350822985e-03 -6.2828086243754322e-01
    9.0376073204646371e-03 -5.7977103565244836e-01
    9.3702922818380222e-03 -5.4100178080045946e-01
    9.7809287271536476e-03 -5.0196464411052688e-01
    9.4648138994419297e-03 -5.3127964812905171e-01
    9.1954388448453623e-03 -5.6040127299717968e-01
    1.0023086107855624e-02 -4.8224282217041214e-01
    1.2690779868736823e-02 -3.4600333793065491e-01
    1.4312280521564174e-02 -2.9839754672317759e-01
    1.9115520583943051e-02 -2.1459876881973805e-01
    1.9115520583943051e-02 -2.1459876881973805e-01
    2.0579537167750486e-02 -1.9802950859533486e-01
    2.8822657254840338e-02 -1.3867504905630729e-01
    4.9605336542721992e-02 -7.9555728417573010e-02
    4.9605336542721992e-02 -7.9555728417573010e-02
    3.5187800403652138e-02 -1.1286652959662007e-01
    3.5187800403652138e-02 -1.1286652959662007e-01
    2.8822657254840338e-02 -1.3867504905630729e-01
    4.9605336542721992e-02 -7.9555728417573010e-02
    2.8822657254840338e-02 -1.3867504905630729e-01
    2.5041543783430847e-02 -1.6064386578049977e-01
    2.2470440246053939e-02 -1.8018749253911176e-01
    2.0579537167750486e-02 -1.9802950859533486e-01
    1.6153394875290886e-02 -2.5906388007541986e-01
    1.4845938375350141e-02 -2.8571428571428570e-01
    1.3839134332811288e-02 -3.1072773313293273e-01
    1.4312280521564174e-02 -2.9839754672317759e-01
    1.4845938375350141e-02 -2.8571428571428570e-01
    1.5453602733011950e-02 -2.7262487840313532e-01
    1.2376878710312518e-02 -3.5729480050524820e-01
    1.2089716741018384e-02 -3.6839419880650359e-01
    1.2690779868736823e-02 -3.4600333793065491e-01
    1.2690779868736823e-02 -3.4600333793065491e-01
    1.1582645202546548e-02 -3.9009474880274692e-01
    8.6484605018837517e-03 -6.3802793513897105e-01
    8.6484605018837517e-03 -6.3802793513897105e-01
    9.7809287271536476e-03 -5.0196464411052688e-01
    9.0376073204646371e-03 -5.7977103565244836e-01
    8.9644574851134185e-03 -5.8945536482302385e-01
    9.7809287271536476e-03 -5.0196464411052688e-01
    9.8985393103089656e-03 -4.9212549212573825e-01
    1.0023086107855624e-02 -4.8224282217041214e-01
    1.0023086107855624e-02 -4.8224282217041214e-01
    1.0444510629164360e-02 -4.5226701686664544e-01
    1.0444510629164360e-02 -4.5226701686664544e-01
    1.2376878710312518e-02 -3.5729480050524820e-01
    1.3035537214816416e-02 -3.3449680400283638e-01
    1.7940042879627711e-02 -2.3017413505937442e-01
    1.9115520583943051e-02 -2.1459876881973805e-01
    2.2470440246053939e-02 -1.8018749253911176e-01
    2.8822657254840338e-02 -1.3867504905630729e-01
    2.8822657254840338e-02 -1.3867504905630729e-01
    2.8822657254840338e-02 -1.3867504905630729e-01
    3.5187800403652138e-02 -1.1286652959662007e-01</input_scale>
  <output_scale>
    1.0526315789473684e+00 0.</output_scale>
  <inv_output_scale>
    9.4999999999999996e-01 0.</inv_output_scale>
  <weights>
    <_>
      2.8150025671896772e-01 9.4783173116924010e-02
      7.6682086292812257e-02 3.1544388531528349e-02
      -6.9434084030723722e-02 1.9156896729442000e-02
      -2.8207318914931022e-02 -6.0424116276688498e-02
      -1.0190854835189859e-02 1.1657811636621621e-01
      2.6126153420476056e-02 6.0253161796490956e-02
      2.8497706637982852e-02 -4.2222693658777351e-02
      -6.0503507581748809e-03 2.4267885340237726e-02
      -8.7454166790723285e-03 5.2081855216973040e-02
      -1.1778537591517191e-01 1.1819477321786255e-01
      -5.6284811625855455e-02 1.3154421376755697e-02
      8.7188934588607325e-03 7.9360896707803871e-02
      2.3750493088862557e-02 -1.2742157109680182e-02
      1.0343134702126658e-01 -1.0677717942351278e-01
      3.1440973292998241e-02 2.5272061909779150e-02
      -8.2815616722821853e-02 -9.9755407849005981e-02
      1.2311028488163325e-01 3.3985998114534323e-02
      4.5981533460610811e-02 1.4255837540441655e-02
      7.7668298978859351e-02 3.8155438505974748e-02
      -8.7499910476013854e-02 -7.2438970930963381e-02
      2.6534147336069924e-01 8.2996183339098445e-02
      6.8636045169309018e-02 2.9959021661570332e-02
      -6.2924129199497997e-02 1.6464644557160919e-02
      -2.8816260042954539e-02 -5.4692980648745552e-02
      -8.5987029891212551e-03 1.0202552854086418e-01
      2.5293017654116092e-02 5.5664765634441608e-02
      2.7601685703249893e-02 -3.8320480117382781e-02
      -7.3009123778398355e-03 2.4920767059497185e-02
      -9.7324633604258231e-03 4.7290328800989948e-02
      -1.0373250716172326e-01 1.0440263475051660e-01
      -5.1213735672975040e-02 1.4641784261023385e-02
      9.3826898254889528e-03 7.0537632633178887e-02
      2.4073691213325029e-02 -1.3359276264926858e-02
      8.9989367712915977e-02 -9.3685690405373487e-02
      2.9372985468933802e-02 2.3967452462242026e-02
      -7.3735075548647319e-02 -8.6531904098474999e-02
      1.0638378217943133e-01 3.1725051189914186e-02
      4.1529735027390616e-02 1.3478652200689428e-02
      6.9362599688894272e-02 3.4752198861430030e-02
      -7.8501944587168984e-02 -6.5295767429693702e-02
      9.1067984955815334e-02 2.2153778611028564e-02
      1.9677626921845572e-02 9.7246352820716635e-03
      -1.7991973191440521e-02 7.7535450382931184e-03
      -9.8814874263661728e-03 -1.7045542962243879e-02
      -4.5333952551522491e-03 2.7359805999836530e-02
      8.4187465680402428e-03 1.5543079163303008e-02
      1.0137018354088752e-02 -1.3585625939605311e-02
      -2.3692634808562137e-03 7.7933815991468825e-03
      -3.3591256335481702e-03 1.5806269759825988e-02
      -2.8285351396029047e-02 2.8456888599148102e-02
      -1.5213955979967331e-02 6.3491635516042750e-03
      3.2167525762928431e-03 2.0396206903646359e-02
      8.2406690872945318e-03 -3.9787991380673439e-03
      2.3695379720305880e-02 -2.5731551558756487e-02
      1.1330785549285610e-02 8.3147428177779096e-03
      -1.9101206177772147e-02 -2.3767645898735514e-02
      2.7745818434984693e-02 9.8627121857484436e-03
      1.4335726494048021e-02 6.5687967827668843e-03
      1.8671797427248126e-02 1.2127530136735853e-02
      -2.1873461277774828e-02 -1.8526109563078107e-02
      -5.6608375907186883e-04 9.8280077323760939e-04
      5.8674145612284837e-04 -2.3404810589499834e-05
      5.1210201631407039e-04 -3.6144653169046793e-04
      1.0328318839991015e-03 -7.3189054801951596e-04
      3.4695438364743398e-04 -4.4022363701253322e-04
      1.6853111414949609e-04 5.4427262316709827e-04
      4.0928371062340927e-04 -5.0198130336476655e-04
      -5.3837339186742325e-04 5.4130025805742177e-04
      7.2451646606574787e-04 7.2928225531841261e-04
      -8.9596085780997226e-04 -1.0633593111381934e-03
      4.7189397411756106e-04 -4.9248951343733988e-04
      9.9480067882329781e-04 -2.5035076196965137e-04
      1.2025051274339787e-03 7.9488783461768411e-05
      -2.3343960668910767e-04 -8.4511454584403696e-04
      1.2165178234286608e-03 4.8608291870555205e-04
      8.1330602239910749e-04 1.0184280383176761e-03
      1.0704245511725459e-03 -7.2497964613305542e-04
      4.9328224232276271e-04 1.8830881034114335e-04
      9.4414942372186774e-04 6.1239348253836216e-04
      8.3569334300787762e-04 -7.7516820246783386e-04
      7.6696952026701029e-02 2.6110147644793771e-02
      2.1281029233625078e-02 7.1782069960447644e-03
      -1.9496378245950262e-02 4.6651603377628392e-03
      -6.2854215024399050e-03 -1.5539938111419663e-02
      -2.0946095123259463e-03 3.2923786509150572e-02
      6.6194433692807544e-03 1.5341578821531187e-02
      7.6919671205265584e-03 -1.1166227837394488e-02
      -1.8521942986643772e-03 4.9054802864592403e-03
      -6.1982583434373858e-04 1.3497996531183909e-02
      -3.2220302029642600e-02 3.2839763965372221e-02
      -1.5523963893421349e-02 2.2315136140824208e-03
      5.6497975717786203e-04 2.1973643909213292e-02
      6.5539714365464496e-03 -1.4538674034698506e-03
      2.7487867275044629e-02 -2.8793286418184478e-02
      6.3261303049993002e-03 5.7174751750083694e-03
      -2.1609432124878723e-02 -2.6222080178063597e-02
      3.3567879568647783e-02 8.0373482362363410e-03
      1.0670244777525385e-02 3.3049529398765519e-03
      2.0754517210464611e-02 1.0563962425561492e-02
      -2.4246264021901311e-02 -1.8918857136050099e-02
      7.7122716192667695e-02 2.4739154992340685e-02
      2.2131796303779344e-02 7.8081356498548565e-03
      -1.8352292027200200e-02 3.3157593149702042e-03
      -6.7962495660049971e-03 -1.5997448689545956e-02
      -1.9417443620037477e-03 3.3137960761142123e-02
      5.3788190385919976e-03 1.4933299837682724e-02
      7.8858421313885846e-03 -1.1572425236295640e-02
      -2.5261702710244725e-04 5.3637785068920384e-03
      -1.3195693214825535e-03 1.2100402648843536e-02
      -3.4143919544589091e-02 3.2687969877026303e-02
      -1.5514379614933477e-02 3.6220981012306092e-03
      1.9925509187404167e-03 2.2086488135290450e-02
      4.5635718227122314e-03 -2.1491818393714825e-03
      2.9089439804275061e-02 -2.9549675542491157e-02
      6.8200670028641776e-03 5.9923100890391049e-03
      -2.2256415771892739e-02 -2.6320747196678988e-02
      3.5044916941327026e-02 8.9363689962785233e-03
      1.1879986313476802e-02 3.2111266709426646e-03
      2.1533410143642386e-02 1.0550755697551942e-02
      -2.3190613465713321e-02 -2.0344509691033852e-02
      2.4819785461139326e-01 8.2908039880329326e-02
      7.0115205965633615e-02 3.1733240053489979e-02
      -6.3431786234623116e-02 1.7422240891703206e-02
      -2.8974548642883954e-02 -5.6467383284088707e-02
      -9.2395492366904534e-03 1.0429130802018260e-01
      2.6097440657822751e-02 5.5349133036663639e-02
      2.7543173713047733e-02 -3.9258234692848219e-02
      -6.7538428430760945e-03 2.5705130770140819e-02
      -1.1334313933196349e-02 4.6376582047173938e-02
      -1.0449307523832141e-01 1.0576444933989582e-01
      -5.2086772231525170e-02 1.5285134624356369e-02
      1.0854342274025854e-02 6.8878985348429039e-02
      2.3132718436758584e-02 -1.1701744065396735e-02
      9.0717068837678869e-02 -9.2854187842615302e-02
      2.8793641158327238e-02 2.5263150135205657e-02
      -7.3075911262183532e-02 -8.6879937937589219e-02
      1.0927282619042000e-01 3.1254946384223589e-02
      4.3288273044949241e-02 1.5218722249572327e-02
      6.7672037421015713e-02 3.6964566112786305e-02
      -7.8619458263106845e-02 -6.4374372591441284e-02
      2.3025406807062057e-01 6.4217671209447671e-02
      5.4229277570989283e-02 3.1884163348981684e-02
      -5.4211167948333375e-02 2.1135765314899163e-02
      -2.9106076030206696e-02 -4.9752103061629749e-02
      -1.0815927929556844e-02 8.1258617572366507e-02
      2.9318862718307404e-02 5.0941160768698493e-02
      2.8360962759477637e-02 -3.8932424389966615e-02
      -8.1815267968826811e-03 2.5895761810571290e-02
      -1.3395685315013442e-02 4.5907135312220917e-02
      -8.1931432398329077e-02 8.2430663740040377e-02
      -4.8452870994134860e-02 1.5629701666241377e-02
      1.2296886980376988e-02 5.5943979644758245e-02
      2.6040781229891521e-02 -1.6037972109564841e-02
      6.9436831579353736e-02 -7.3886307168548895e-02
      3.1742189656115992e-02 2.6677208566618031e-02
      -5.8717170260941517e-02 -6.8585513730336722e-02
      8.5790627730050195e-02 3.2925164462455830e-02
      4.1827076576602978e-02 1.6964196711224542e-02
      5.5865070417501814e-02 3.6490358822000038e-02
      -5.9401112019107631e-02 -5.3252653483684534e-02
      1.3199194076578377e-01 2.6317118690791830e-02
      2.4662453649059845e-02 2.2597376589123787e-02
      -2.6608747720726710e-02 1.5633306984992049e-02
      -2.1522628784882702e-02 -2.6833653030350929e-02
      -9.7402225600448627e-03 3.2708993241751659e-02
      1.8637809578842576e-02 2.6393031540664143e-02
      1.9976546477895141e-02 -2.5921252964398872e-02
      -7.6831709968840150e-03 1.7883519222542887e-02
      -9.6736796408634744e-03 2.5212984423807008e-02
      -3.3786800682325778e-02 3.3130744442371039e-02
      -2.6042316212486111e-02 1.1189047380482995e-02
      1.0341508144285546e-02 2.3103267574118465e-02
      1.7598620825113001e-02 -1.2058531139124171e-02
      2.9070932309598629e-02 -2.9568103187725625e-02
      1.9894477157643947e-02 1.9656619821694022e-02
      -2.4047049586536206e-02 -2.7134292670326413e-02
      3.4087470914106528e-02 2.2121653523899006e-02
      2.4196126708237918e-02 1.2251054656236073e-02
      2.5839668871662998e-02 2.2966710423178834e-02
      -2.4986646132933193e-02 -2.4069015792932049e-02
      6.6644637368968820e-02 1.8267949002471383e-02
      1.8131846570243037e-02 8.8351377909676038e-03
      -1.7834203307690911e-02 5.1319154793438831e-03
      -8.2220540029746946e-03 -1.7739602034611467e-02
      -3.9236759325920805e-03 2.6090236125408024e-02
      7.4897504548451311e-03 1.8106550419400416e-02
      6.9982941203705646e-03 -1.3103773859916673e-02
      -7.2269084996994220e-04 5.7587190221961137e-03
      -2.2422976161700207e-03 1.7295742923717997e-02
      -2.5669326138150574e-02 2.6685284338412309e-02
      -1.7124282433190367e-02 4.1487967785881199e-03
      1.4590611085288998e-03 1.7467516431953194e-02
      7.6040546417367443e-03 -2.9577478789966378e-03
      2.2022614657711246e-02 -2.2373170738739279e-02
      8.1830433054880733e-03 6.9682606869746859e-03
      -1.7213374048975875e-02 -2.1525376028603292e-02
      2.6648068582821198e-02 1.0227976989159634e-02
      1.4662108965734538e-02 2.6352332589802139e-03
      1.8160860835668449e-02 1.2912483502384647e-02
      -1.8637974044868069e-02 -1.7406121463937680e-02
      -8.7939437492673966e-02 -3.0296470147865392e-02
      -2.2337316200594402e-02 -1.0820218697637520e-02
      2.1864008742785511e-02 -6.2969790089934590e-03
      9.5899020675472239e-03 1.6983338123562512e-02
      4.4412590709974747e-03 -3.5564354310572130e-02
      -9.1741611713019987e-03 -1.8381064088442606e-02
      -9.8146720085182625e-03 1.2850635256605708e-02
      2.4516421001369417e-03 -1.0833644717103621e-02
      3.4940461991280563e-03 -1.5939328783745245e-02
      3.4409253967727205e-02 -3.6587937937073101e-02
      1.5885266398312278e-02 -4.6488124809911978e-03
      -2.4926310488185364e-03 -2.2446138009438989e-02
      -9.9073700770063462e-03 5.6299102719262134e-03
      -3.1388651882791913e-02 3.1704395529459133e-02
      -1.1185183267333539e-02 -9.6086470336912578e-03
      2.5594091546812726e-02 3.0648799626500720e-02
      -3.7278072354755783e-02 -1.1350534282153423e-02
      -1.3792309554366470e-02 -6.3030155738135847e-03
      -2.1435509612460511e-02 -1.0564306534064722e-02
      2.7582435055390153e-02 2.2102624836064524e-02
      2.4464671589397788e-02 4.9983654601752810e-03
      7.3851482536937086e-03 3.0107921924250624e-03
      -7.2184296866809996e-03 1.0021021344936789e-03
      -2.9489974572188679e-03 -5.3907160086354910e-03
      -9.5682737922145376e-04 4.8539312000580922e-03
      2.5093253826555359e-03 5.3482782749859860e-03
      3.2042543307433543e-03 -6.5117184045379124e-03
      -1.4507114772666710e-03 2.5855979223317650e-03
      -1.8309213111816502e-03 6.5779797790458290e-03
      -6.1842706697711842e-03 7.7222387177359386e-03
      -5.3579099283677864e-03 1.3783326731837001e-03
      6.1924422916956947e-05 7.0174608600196827e-03
      2.1326151670648355e-03 -3.5075490758384727e-04
      5.9183797421483598e-03 -6.6618367845502719e-03
      3.1951479735673294e-03 9.6398657412723253e-04
      -4.3976025806006487e-03 -4.3506993968641279e-03
      7.2643351070272770e-03 2.8540342254323057e-03
      6.8375117808042798e-03 9.8989864394498296e-04
      7.4462770466267366e-03 3.5078661361727043e-03
      -3.2065307410699454e-03 -5.2937472579243344e-03
      -9.1840732194687427e-02 -2.9307972771092053e-02
      -2.1660707425167312e-02 -1.0000946707765709e-02
      2.0142382202517663e-02 -8.0886188990991099e-03
      1.0976791909954830e-02 1.6757356181639045e-02
      4.9698480458329683e-03 -3.3864406235759793e-02
      -1.1489333349995646e-02 -1.5275235374838417e-02
      -1.1542108924824875e-02 1.1896756570118999e-02
      3.0107769798273149e-03 -9.5852264067970844e-03
      3.2106397447709688e-03 -1.3393502269674876e-02
      3.1452813458092289e-02 -3.2873368351521125e-02
      1.6034999061852500e-02 -6.8047903823475484e-03
      -3.2567350608934263e-03 -2.0963756254384670e-02
      -1.0908665480044237e-02 5.0341533876157958e-03
      -2.8694587724830665e-02 2.9847431971150494e-02
      -1.1449627397835654e-02 -1.0490465339281005e-02
      2.3689365755809971e-02 2.8298938658663671e-02
      -3.2669256773129172e-02 -1.1177740719599843e-02
      -1.2120849871234331e-02 -6.1045767693258240e-03
      -2.1488194397797492e-02 -1.1579870767077340e-02
      2.7423845433077087e-02 1.9246728653995772e-02
      -3.7720203257348588e-02 -4.4702388635221944e-03
      -1.9285961406159783e-04 -1.0293620635381868e-02
      2.6656822664685238e-03 -9.4167730012563178e-03
      1.0411638508241285e-02 5.1096337308592756e-03
      6.7986638023952899e-03 -2.8549083178082212e-02
      -1.1123749025091443e-02 -5.2009284115019684e-03
      -9.9743171160195706e-03 6.5605624589229802e-03
      6.5324700018720462e-03 -1.1725258928991204e-02
      6.0547133472988110e-03 -7.3539058860373416e-03
      2.5604976336898875e-02 -2.6945580856243441e-02
      4.3636105351549485e-03 -7.2530176588189946e-03
      -6.9917869213173608e-03 -3.1962118195514195e-04
      -1.0568513163318638e-02 7.7313614098447943e-03
      -1.4600441202981131e-02 2.1354419025850849e-02
      -1.0476177791010052e-02 -1.0840390119145685e-02
      1.5157373802090872e-03 9.3404527655130878e-03
      -3.0906559341146583e-02 -8.9160503661362377e-03
      -6.8496686347593863e-03 -8.3838609933164238e-03
      -2.1497757371203197e-03 -8.9351522727769174e-03
      1.9242044974863810e-03 3.7049055516457582e-03
      1.5473910242077923e-01 5.9683168090879653e-02
      4.9299669750490382e-02 1.5190782508917216e-02
      -4.4692728184411196e-02 6.1824641652871862e-03
      -1.1737398139237062e-02 -3.7464643372057106e-02
      -1.9879188923969961e-03 7.4139269423052004e-02
      1.1150478058336908e-02 3.8208159369692109e-02
      1.2459597712519489e-02 -2.1861423332200182e-02
      -2.3723343081490790e-03 8.6742538387266158e-03
      -3.0693288358067516e-03 3.0618732443459182e-02
      -7.3653545488643710e-02 7.4810441171849235e-02
      -3.4447766789499505e-02 4.0721432795140103e-03
      3.1763753647477012e-03 5.1128143749356925e-02
      8.6499964187176804e-03 -2.7875117152226566e-03
      6.5193989825316032e-02 -6.7119876322366739e-02
      1.2307821899876175e-02 9.3616154278590175e-03
      -5.3156881217721663e-02 -6.2356893633754885e-02
      7.7358160972307147e-02 1.6164384631352148e-02
      2.6761543534517918e-02 2.8865241125497062e-03
      4.9156353876775923e-02 2.0967434239671470e-02
      -5.5982358441372206e-02 -4.7047513707180300e-02
      1.9843278737974018e-01 4.4121441632736028e-02
      4.1630114117460600e-02 1.7402651146307461e-02
      -3.9328325783738384e-02 1.0344995927151329e-02
      -1.6156295689031441e-02 -3.5690922265609215e-02
      -6.0357040530590270e-03 2.8695702049766576e-02
      1.4875392914008427e-02 3.4440094696434519e-02
      1.6267255767854077e-02 -2.5884109848862014e-02
      -2.4717614937695086e-03 1.2472974382439175e-02
      -5.1299914176019127e-03 3.0116317543290624e-02
      -3.1169765312521254e-02 2.8830564070977598e-02
      -3.3772176709662871e-02 8.6917843738779227e-03
      4.1735281684987550e-03 4.2486908900050108e-02
      1.2409621729183015e-02 -7.1547832767577457e-03
      3.3522534270669022e-02 -3.0454335117398416e-02
      1.7957105900233243e-02 1.2809501751203376e-02
      -4.4363743506886058e-02 -3.8016297744495234e-02
      2.9341916050059164e-02 1.9959148409229150e-02
      2.7401700280334885e-02 6.8730653838627136e-03
      4.1918852104509560e-02 2.3442418446778156e-02
      -4.4720269426098136e-02 -3.9998106927331301e-02
      2.0453404456664143e-01 6.5924981925311169e-02
      5.6706272319972752e-02 1.8507991020091815e-02
      -4.9655929065844970e-02 6.0307434894984694e-03
      -1.4993492003418417e-02 -4.4271733088786278e-02
      -3.1067338874487265e-03 5.9289852825779858e-02
      1.2001141995377947e-02 4.4149769793238570e-02
      1.4517340293783659e-02 -2.6171831682517646e-02
      -2.2032840929946161e-03 1.1903738378667393e-02
      -2.5722770963451545e-03 3.6869286126168181e-02
      -6.0200164592515509e-02 6.1770304787633408e-02
      -4.0364021583986040e-02 4.3653745128935106e-03
      2.1739533462365439e-03 5.6601255067136994e-02
      1.1247197388069329e-02 -5.1745229256193528e-03
      5.8828066274417300e-02 -5.7903530196747030e-02
      1.5122344242145171e-02 1.2313742701585003e-02
      -6.1135044932526125e-02 -6.0256453666868118e-02
      6.1164865081682965e-02 1.8452012694005447e-02
