<?xml version="1.0"?>
<opencv_storage>
<shapeML type_id="opencv-ml-ann-mlp">
  <layer_sizes type_id="opencv-matrix">
    <rows>1</rows>
    <cols>3</cols>
    <dt>i</dt>
    <data>
      1600 40 1</data></layer_sizes>
  <activation_function>SIGMOID_SYM</activation_function>
  <f_param1>5.9999999999999998e-01</f_param1>
  <f_param2>1.</f_param2>
  <min_val>-9.4999999999999996e-01</min_val>
  <max_val>9.4999999999999996e-01</max_val>
  <min_val1>-9.7999999999999998e-01</min_val1>
  <max_val1>9.7999999999999998e-01</max_val1>
  <training_params>
    <train_method>BACKPROP</train_method>
    <dw_scale>1.0000000000000001e-01</dw_scale>
    <moment_scale>1.0000000000000001e-01</moment_scale>
    <term_criteria><epsilon>9.9999999747524271e-07</epsilon>
      <iterations>4000</iterations></term_criteria></training_params>
  <input_scale>
    4.8981395852523119e-02 -8.0582296402538042e-02
    3.4748079342599832e-02 -1.1433239009500590e-01
    4.8981395852523119e-02 -8.0582296402538042e-02 1. 0.
    4.8981395852523119e-02 -8.0582296402538042e-02
    4.8981395852523119e-02 -8.0582296402538042e-02
    3.4748079342599832e-02 -1.1433239009500590e-01
    2.8464862901012265e-02 -1.4048787173725408e-01
    2.2195293179947909e-02 -1.8257418583505539e-01
    2.0329315612559004e-02 -2.0067001862719533e-01
    1.8884767398075687e-02 -2.1747941810042001e-01
    1.6768485324623141e-02 -2.4828176658071038e-01
    2.0329315612559004e-02 -2.0067001862719533e-01
    1.7725065832464641e-02 -2.3328473740792174e-01
    1.7725065832464641e-02 -2.3328473740792174e-01
    1.8884767398075687e-02 -2.1747941810042001e-01
    1.6768485324623141e-02 -2.4828176658071038e-01
    1.4673471605042447e-02 -2.8968272975116055e-01
    1.3681003171369270e-02 -3.1510439562444059e-01
    1.0840523345685820e-02 -4.2802582500385300e-01
    9.2868148391746907e-03 -5.5001909821692685e-01
    1.0495665679906415e-02 -4.4894363521148084e-01
    1.1957634184462572e-02 -3.7377250079820101e-01
    1.3681003171369270e-02 -3.1510439562444059e-01
    1.4147368615281921e-02 -3.0257114167522303e-01
    1.5962742818240783e-02 -2.6261286571944514e-01
    2.2195293179947909e-02 -1.8257418583505539e-01
    1.6768485324623141e-02 -2.4828176658071038e-01
    1.8884767398075687e-02 -2.1747941810042001e-01
    2.8464862901012265e-02 -1.4048787173725408e-01
    2.8464862901012265e-02 -1.4048787173725408e-01
    2.2195293179947909e-02 -1.8257418583505539e-01
    2.0329315612559004e-02 -2.0067001862719533e-01
    3.4748079342599832e-02 -1.1433239009500590e-01
    4.8981395852523119e-02 -8.0582296402538042e-02
    3.4748079342599832e-02 -1.1433239009500590e-01
    3.4748079342599832e-02 -1.1433239009500590e-01
    4.8981395852523119e-02 -8.0582296402538042e-02 1. 0. 1. 0.
    4.8981395852523119e-02 -8.0582296402538042e-02
    3.4748079342599832e-02 -1.1433239009500590e-01
    4.8981395852523119e-02 -8.0582296402538042e-02 1. 0.
    3.4748079342599832e-02 -1.1433239009500590e-01
    3.4748079342599832e-02 -1.1433239009500590e-01
    3.4748079342599832e-02 -1.1433239009500590e-01
    2.4732786492064653e-02 -1.6275769175423191e-01
    1.6768485324623141e-02 -2.4828176658071038e-01
    1.6768485324623141e-02 -2.4828176658071038e-01
    1.5962742818240783e-02 -2.6261286571944514e-01
    1.3264224700619146e-02 -3.2732683535398860e-01
    1.4147368615281921e-02 -3.0257114167522303e-01
    1.2549531524252625e-02 -3.5098205908151697e-01
    1.1237102875511081e-02 -4.0671062665559460e-01
    9.5797600782302188e-03 -5.2008826489230509e-01
    9.9260368661801979e-03 -4.8989794855663554e-01
    9.6886657377271996e-03 -5.1006137045067068e-01
    8.6976853029394202e-03 -6.2960018773535675e-01
    9.4767489116181353e-03 -5.3008653589502730e-01
    8.6976853029394202e-03 -6.2960018773535675e-01
    8.6395061529724489e-03 -6.3960214906683133e-01
    8.6976853029394202e-03 -6.2960018773535675e-01
    9.3792232329899007e-03 -5.4006172486732174e-01
    1.1237102875511081e-02 -4.0671062665559460e-01
    1.2549531524252625e-02 -3.5098205908151697e-01
    1.3264224700619146e-02 -3.2732683535398860e-01
    1.3264224700619146e-02 -3.2732683535398860e-01
    1.3264224700619146e-02 -3.2732683535398860e-01
    1.7725065832464641e-02 -2.3328473740792174e-01
    1.7725065832464641e-02 -2.3328473740792174e-01
    2.0329315612559004e-02 -2.0067001862719533e-01
    1.8884767398075687e-02 -2.1747941810042001e-01
    1.8884767398075687e-02 -2.1747941810042001e-01
    2.4732786492064653e-02 -1.6275769175423191e-01
    2.4732786492064653e-02 -1.6275769175423191e-01
    3.4748079342599832e-02 -1.1433239009500590e-01 1. 0. 1. 0.
    4.8981395852523119e-02 -8.0582296402538042e-02
    4.8981395852523119e-02 -8.0582296402538042e-02
    3.4748079342599832e-02 -1.1433239009500590e-01
    3.4748079342599832e-02 -1.1433239009500590e-01
    3.4748079342599832e-02 -1.1433239009500590e-01
    2.8464862901012265e-02 -1.4048787173725408e-01
    2.2195293179947909e-02 -1.8257418583505539e-01
    2.0329315612559004e-02 -2.0067001862719533e-01
    1.7725065832464641e-02 -2.3328473740792174e-01
    1.4673471605042447e-02 -2.8968272975116055e-01
    1.3681003171369270e-02 -3.1510439562444059e-01
    1.3264224700619146e-02 -3.2732683535398860e-01
    1.2240382283160448e-02 -3.6247325599810615e-01
    1.0339621735604373e-02 -4.5927932677184585e-01
    9.0371235475253074e-03 -5.7983350761380115e-01
    8.8909294417890139e-03 -5.9970753105744612e-01
    8.5841906188963424e-03 -6.4962939328809088e-01
    8.6976853029394202e-03 -6.2960018773535675e-01
    8.6395061529724489e-03 -6.3960214906683133e-01
    8.1038548527574972e-03 -7.7326460175666700e-01
    9.1991913383657233e-03 -5.5996367920955226e-01
    9.1991913383657233e-03 -5.5996367920955226e-01
    9.0371235475253074e-03 -5.7983350761380115e-01
    8.8909294417890139e-03 -5.9970753105744612e-01
    8.8232310245018701e-03 -6.0965680175751624e-01
    8.2306465277039269e-03 -7.3120001733214890e-01
    8.3462186901047935e-03 -7.0027467138588928e-01
    9.9260368661801979e-03 -4.8989794855663554e-01
    1.1957634184462572e-02 -3.7377250079820101e-01
    1.2549531524252625e-02 -3.5098205908151697e-01
    1.3264224700619146e-02 -3.2732683535398860e-01
    1.5272633467174302e-02 -2.7638539919628335e-01
    1.4147368615281921e-02 -3.0257114167522303e-01
    1.4147368615281921e-02 -3.0257114167522303e-01
    1.4673471605042447e-02 -2.8968272975116055e-01
    1.5962742818240783e-02 -2.6261286571944514e-01
    1.5962742818240783e-02 -2.6261286571944514e-01
    2.4732786492064653e-02 -1.6275769175423191e-01
    3.4748079342599832e-02 -1.1433239009500590e-01
    2.8464862901012265e-02 -1.4048787173725408e-01
    3.4748079342599832e-02 -1.1433239009500590e-01 1. 0.
    4.8981395852523119e-02 -8.0582296402538042e-02
    2.4732786492064653e-02 -1.6275769175423191e-01
    2.4732786492064653e-02 -1.6275769175423191e-01
    1.8884767398075687e-02 -2.1747941810042001e-01
    1.7725065832464641e-02 -2.3328473740792174e-01
    1.4147368615281921e-02 -3.0257114167522303e-01
    1.3264224700619146e-02 -3.2732683535398860e-01
    1.2889145500038774e-02 -3.3927557187198837e-01
    1.2549531524252625e-02 -3.5098205908151697e-01
    1.2549531524252625e-02 -3.5098205908151697e-01
    9.8039215686274508e-03 -5.0000000000000000e-01
    9.3792232329899007e-03 -5.4006172486732174e-01
    8.6976853029394202e-03 -6.2960018773535675e-01
    8.3056042462108341e-03 -7.1053104712745585e-01
    8.1328179717177918e-03 -7.6264844657366526e-01
    8.1038548527574972e-03 -7.7326460175666700e-01
    8.1038548527574972e-03 -7.7326460175666700e-01
    8.5316044291052582e-03 -6.5968567150210666e-01
    8.8909294417890139e-03 -5.9970753105744612e-01
    8.6976853029394202e-03 -6.2960018773535675e-01
    8.6976853029394202e-03 -6.2960018773535675e-01
    8.5841906188963424e-03 -6.4962939328809088e-01
    8.5841906188963424e-03 -6.4962939328809088e-01
    8.5316044291052582e-03 -6.5968567150210666e-01
    8.9621581192192382e-03 -5.8976782461958865e-01
    8.8232310245018701e-03 -6.0965680175751624e-01
    8.4816238910609687e-03 -6.6977468662313711e-01
    1.1237102875511081e-02 -4.0671062665559460e-01
    1.0840523345685820e-02 -4.2802582500385300e-01
    1.1697946630639477e-02 -3.8490017945975058e-01
    1.3264224700619146e-02 -3.2732683535398860e-01
    1.5272633467174302e-02 -2.7638539919628335e-01
    1.4673471605042447e-02 -2.8968272975116055e-01
    1.5272633467174302e-02 -2.7638539919628335e-01
    1.5272633467174302e-02 -2.7638539919628335e-01
    1.8884767398075687e-02 -2.1747941810042001e-01
    2.8464862901012265e-02 -1.4048787173725408e-01
    2.8464862901012265e-02 -1.4048787173725408e-01
    2.8464862901012265e-02 -1.4048787173725408e-01 1. 0.
    2.8464862901012265e-02 -1.4048787173725408e-01
    2.8464862901012265e-02 -1.4048787173725408e-01
    1.7725065832464641e-02 -2.3328473740792174e-01
    1.6768485324623141e-02 -2.4828176658071038e-01
    1.3681003171369270e-02 -3.1510439562444059e-01
    1.2549531524252625e-02 -3.5098205908151697e-01
    1.1237102875511081e-02 -4.0671062665559460e-01
    1.1697946630639477e-02 -3.8490017945975058e-01
    1.1458544908681249e-02 -3.9587424507089086e-01
    9.4767489116181353e-03 -5.3008653589502730e-01
    9.1160518893080213e-03 -5.6990027617674022e-01
    8.7588739945251397e-03 -6.1961969903205261e-01
    8.3890322900443074e-03 -6.9006555934235436e-01
    8.2671058269926049e-03 -7.2083829194712934e-01
    8.2671058269926049e-03 -7.2083829194712934e-01
    7.9161274966614310e-03 -8.7256153729329378e-01
    8.3056042462108341e-03 -7.1053104712745585e-01
    8.3056042462108341e-03 -7.1053104712745585e-01
    8.5841906188963424e-03 -6.4962939328809088e-01
    8.5316044291052582e-03 -6.5968567150210666e-01
    8.6976853029394202e-03 -6.2960018773535675e-01
    8.5316044291052582e-03 -6.5968567150210666e-01
    8.7588739945251397e-03 -6.1961969903205261e-01
    8.5841906188963424e-03 -6.4962939328809088e-01
    8.5316044291052582e-03 -6.5968567150210666e-01
    8.4341349392367485e-03 -6.7990010365008491e-01
    8.9621581192192382e-03 -5.8976782461958865e-01
    9.2868148391746907e-03 -5.5001909821692685e-01
    9.1991913383657233e-03 -5.5996367920955226e-01
    9.8039215686274508e-03 -5.0000000000000000e-01
    1.1697946630639477e-02 -3.8490017945975058e-01
    1.4147368615281921e-02 -3.0257114167522303e-01
    1.4673471605042447e-02 -2.8968272975116055e-01
    1.5272633467174302e-02 -2.7638539919628335e-01
    1.6768485324623141e-02 -2.4828176658071038e-01
    1.8884767398075687e-02 -2.1747941810042001e-01
    2.0329315612559004e-02 -2.0067001862719533e-01
    2.8464862901012265e-02 -1.4048787173725408e-01
    2.4732786492064653e-02 -1.6275769175423191e-01 1. 0.
    2.2195293179947909e-02 -1.8257418583505539e-01
    1.7725065832464641e-02 -2.3328473740792174e-01
    1.4673471605042447e-02 -2.8968272975116055e-01
    1.2889145500038774e-02 -3.3927557187198837e-01
    1.1957634184462572e-02 -3.7377250079820101e-01
    1.0840523345685820e-02 -4.2802582500385300e-01
    9.9260368661801979e-03 -4.8989794855663554e-01
    9.4767489116181353e-03 -5.3008653589502730e-01
    9.5797600782302188e-03 -5.2008826489230509e-01
    9.4767489116181353e-03 -5.3008653589502730e-01
    8.7588739945251397e-03 -6.1961969903205261e-01
    8.4341349392367485e-03 -6.7990010365008491e-01
    9.1160518893080213e-03 -5.6990027617674022e-01
    8.5841906188963424e-03 -6.4962939328809088e-01
    8.0048684404679018e-03 -8.1649658092772603e-01
    7.8472211589823496e-03 -1.0327955589886448e+00
    7.8708692924283289e-03 -9.1936831315751555e-01
    7.8907402387001259e-03 -8.9572628709631430e-01
    8.1635659754205198e-03 -7.5210143309035493e-01
    8.3890322900443074e-03 -6.9006555934235436e-01
    8.2306465277039269e-03 -7.3120001733214890e-01
    8.6395061529724489e-03 -6.3960214906683133e-01
    8.5316044291052582e-03 -6.5968567150210666e-01
    8.4341349392367485e-03 -6.7990010365008491e-01
    8.4816238910609687e-03 -6.6977468662313711e-01
    8.1961551907296093e-03 -7.4161984870956621e-01
    8.6976853029394202e-03 -6.2960018773535675e-01
    9.1991913383657233e-03 -5.5996367920955226e-01
    9.3792232329899007e-03 -5.4006172486732174e-01
    9.1160518893080213e-03 -5.6990027617674022e-01
    9.0371235475253074e-03 -5.7983350761380115e-01
    1.0840523345685820e-02 -4.2802582500385300e-01
    1.1237102875511081e-02 -4.0671062665559460e-01
    1.4147368615281921e-02 -3.0257114167522303e-01
    1.3681003171369270e-02 -3.1510439562444059e-01
    1.5962742818240783e-02 -2.6261286571944514e-01
    2.0329315612559004e-02 -2.0067001862719533e-01
    2.4732786492064653e-02 -1.6275769175423191e-01
    2.4732786492064653e-02 -1.6275769175423191e-01 1. 0.
    1.7725065832464641e-02 -2.3328473740792174e-01
    1.4673471605042447e-02 -2.8968272975116055e-01
    1.2549531524252625e-02 -3.5098205908151697e-01
    1.1957634184462572e-02 -3.7377250079820101e-01
    1.1031654052872283e-02 -4.1742355496836087e-01
    1.0339621735604373e-02 -4.5927932677184585e-01
    9.2868148391746907e-03 -5.5001909821692685e-01
    9.0371235475253074e-03 -5.7983350761380115e-01
    8.8909294417890139e-03 -5.9970753105744612e-01
    8.8232310245018701e-03 -6.0965680175751624e-01
    8.5841906188963424e-03 -6.4962939328809088e-01
    8.3056042462108341e-03 -7.1053104712745585e-01
    8.4341349392367485e-03 -6.7990010365008491e-01
    7.8446067257400415e-03 -9.8082889254736771e-01
    7.8511477147241767e-03 -9.5581391856029163e-01
    7.8433004886606771e-03 -1.0064725594803927e+00
    7.8801236980851359e-03 -9.0748521297303009e-01
    7.8472211589823478e-03 -9.6824583655185426e-01
    7.8472211589823496e-03 -1.0327955589886448e+00
    7.8629628421229801e-03 -9.3138063084759948e-01
    7.9309378510438334e-03 -8.6114634860043682e-01
    8.1328179717177918e-03 -7.6264844657366526e-01
    8.3890322900443074e-03 -6.9006555934235436e-01
    8.7588739945251397e-03 -6.1961969903205261e-01
    8.0510790331404618e-03 -7.9471941423902615e-01
    8.1635659754205198e-03 -7.5210143309035493e-01
    8.2671058269926049e-03 -7.2083829194712934e-01
    8.7588739945251397e-03 -6.1961969903205261e-01
    8.5841906188963424e-03 -6.4962939328809088e-01
    9.1160518893080213e-03 -5.6990027617674022e-01
    8.7588739945251397e-03 -6.1961969903205261e-01
    8.6395061529724489e-03 -6.3960214906683133e-01
    1.0495665679906415e-02 -4.4894363521148084e-01
    1.0840523345685820e-02 -4.2802582500385300e-01
    1.1957634184462572e-02 -3.7377250079820101e-01
    1.3264224700619146e-02 -3.2732683535398860e-01
    1.8884767398075687e-02 -2.1747941810042001e-01
    1.8884767398075687e-02 -2.1747941810042001e-01
    2.8464862901012265e-02 -1.4048787173725408e-01
    2.4732786492064653e-02 -1.6275769175423191e-01
    1.5272633467174302e-02 -2.7638539919628335e-01
    1.2549531524252625e-02 -3.5098205908151697e-01
    1.1697946630639477e-02 -3.8490017945975058e-01
    1.0840523345685820e-02 -4.2802582500385300e-01
    1.0055582795130340e-02 -4.7974861141928304e-01
    8.8232310245018701e-03 -6.0965680175751624e-01
    8.6976853029394202e-03 -6.2960018773535675e-01
    8.6976853029394202e-03 -6.2960018773535675e-01
    8.5316044291052582e-03 -6.5968567150210666e-01
    8.2671058269926049e-03 -7.2083829194712934e-01
    7.8446067257400415e-03 -9.8082889254736771e-01
    7.8472211589823478e-03 -9.6824583655185426e-01
    7.8472211589823496e-03 -1.0327955589886448e+00
    7.8433004886606771e-03 -9.9356906512807996e-01
    7.8472211589823478e-03 -9.6824583655185426e-01
    7.8801236980851359e-03 -9.0748521297303009e-01
    7.9161274966614310e-03 -8.7256153729329378e-01
    8.1961551907296093e-03 -7.4161984870956621e-01
    8.0766245622719366e-03 -7.8395365509278248e-01
    7.9309378510438334e-03 -8.6114634860043682e-01
    7.9471897899133399e-03 -8.4983658559879749e-01
    7.8472211589823478e-03 -9.6824583655185426e-01
    7.8563923029608389e-03 -9.4352737238461948e-01
    7.8629628421229801e-03 -9.3138063084759948e-01
    8.0510790331404618e-03 -7.9471941423902615e-01
    8.0271739339053457e-03 -8.0556574543159776e-01
    8.1328179717177918e-03 -7.6264844657366526e-01
    8.3462186901047935e-03 -7.0027467138588928e-01
    8.5841906188963424e-03 -6.4962939328809088e-01
    8.6395061529724489e-03 -6.3960214906683133e-01
    8.4341349392367485e-03 -6.7990010365008491e-01
    8.4816238910609687e-03 -6.6977468662313711e-01
    8.4816238910609687e-03 -6.6977468662313711e-01
    1.0193202253956700e-02 -4.6954492963387634e-01
    1.0495665679906415e-02 -4.4894363521148084e-01
    1.2240382283160448e-02 -3.6247325599810615e-01
    1.4673471605042447e-02 -2.8968272975116055e-01
    1.6768485324623141e-02 -2.4828176658071038e-01
    2.4732786492064653e-02 -1.6275769175423191e-01
    2.0329315612559004e-02 -2.0067001862719533e-01
    1.4673471605042447e-02 -2.8968272975116055e-01
    1.2889145500038774e-02 -3.3927557187198837e-01
    1.1458544908681249e-02 -3.9587424507089086e-01
    1.0840523345685820e-02 -4.2802582500385300e-01
    8.9621581192192382e-03 -5.8976782461958865e-01
    8.6395061529724489e-03 -6.3960214906683133e-01
    8.3890322900443074e-03 -6.9006555934235436e-01
    8.2306465277039269e-03 -7.3120001733214890e-01
    8.1038548527574972e-03 -7.7326460175666700e-01
    7.8629628421229801e-03 -9.3138063084759948e-01
    7.8446067257400432e-03 -1.0195458225163430e+00
    7.8801236980851359e-03 -9.0748521297303009e-01
    7.8907402387001259e-03 -8.9572628709631430e-01
    7.9161274966614310e-03 -8.7256153729329378e-01
    7.8801236980851359e-03 -9.0748521297303009e-01
    8.0510790331404618e-03 -7.9471941423902615e-01
    8.0271739339053457e-03 -8.0556574543159776e-01
    8.1038548527574972e-03 -7.7326460175666700e-01
    8.1328179717177918e-03 -7.6264844657366526e-01
    8.2306465277039269e-03 -7.3120001733214890e-01
    8.0766245622719366e-03 -7.8395365509278248e-01
    8.0510790331404618e-03 -7.9471941423902615e-01
    8.5316044291052582e-03 -6.5968567150210666e-01
    8.1635659754205198e-03 -7.5210143309035493e-01
    7.8629628421229801e-03 -9.3138063084759948e-01
    7.8708692924283289e-03 -9.1936831315751555e-01
    8.4341349392367485e-03 -6.7990010365008491e-01
    8.3056042462108341e-03 -7.1053104712745585e-01
    8.3056042462108341e-03 -7.1053104712745585e-01
    8.1635659754205198e-03 -7.5210143309035493e-01
    8.1038548527574972e-03 -7.7326460175666700e-01
    8.1961551907296093e-03 -7.4161984870956621e-01
    8.5316044291052582e-03 -6.5968567150210666e-01
    8.5316044291052582e-03 -6.5968567150210666e-01
    9.9260368661801979e-03 -4.8989794855663554e-01
    1.0840523345685820e-02 -4.2802582500385300e-01
    1.2549531524252625e-02 -3.5098205908151697e-01
    1.5272633467174302e-02 -2.7638539919628335e-01
    2.8464862901012265e-02 -1.4048787173725408e-01
    1.8884767398075687e-02 -2.1747941810042001e-01
    1.4673471605042447e-02 -2.8968272975116055e-01
    1.2549531524252625e-02 -3.5098205908151697e-01
    1.0840523345685820e-02 -4.2802582500385300e-01
    8.7588739945251397e-03 -6.1961969903205261e-01
    8.7588739945251397e-03 -6.1961969903205261e-01
    8.5316044291052582e-03 -6.5968567150210666e-01
    8.1961551907296093e-03 -7.4161984870956621e-01
    8.0048684404679018e-03 -8.1649658092772603e-01
    7.9649092986224194e-03 -8.3862786937753475e-01
    7.8433004886606771e-03 -9.9356906512807996e-01
    7.9027352903248312e-03 -1.1311108542958477e+00
    7.8433004886606771e-03 -9.9356906512807996e-01
    7.8511477147241767e-03 -9.5581391856029163e-01
    7.9027352903248312e-03 -8.8408664473698440e-01
    7.9471897899133399e-03 -8.4983658559879749e-01
    7.9027352903248312e-03 -8.8408664473698440e-01
    7.9161274966614310e-03 -8.7256153729329378e-01
    8.0766245622719366e-03 -7.8395365509278248e-01
    8.1635659754205198e-03 -7.5210143309035493e-01
    8.1961551907296093e-03 -7.4161984870956621e-01
    8.0048684404679018e-03 -8.1649658092772603e-01
    8.0048684404679018e-03 -8.1649658092772603e-01
    8.2306465277039269e-03 -7.3120001733214890e-01
    8.1038548527574972e-03 -7.7326460175666700e-01
    7.8433004886606771e-03 -9.9356906512807996e-01
    7.8511477147241767e-03 -9.5581391856029163e-01
    7.8433004886606771e-03 -1.0064725594803927e+00
    8.0766245622719366e-03 -7.8395365509278248e-01
    7.9027352903248312e-03 -8.8408664473698440e-01
    7.9841250305268362e-03 -8.2751592655105555e-01
    8.1961551907296093e-03 -7.4161984870956621e-01
    8.1328179717177918e-03 -7.6264844657366526e-01
    8.1635659754205198e-03 -7.5210143309035493e-01
    8.3890322900443074e-03 -6.9006555934235436e-01
    8.6976853029394202e-03 -6.2960018773535675e-01
    1.0193202253956700e-02 -4.6954492963387634e-01
    1.1031654052872283e-02 -4.1742355496836087e-01
    1.5272633467174302e-02 -2.7638539919628335e-01
    2.0329315612559004e-02 -2.0067001862719533e-01
    1.5962742818240783e-02 -2.6261286571944514e-01
    1.2549531524252625e-02 -3.5098205908151697e-01
    1.1237102875511081e-02 -4.0671062665559460e-01
    1.0495665679906415e-02 -4.4894363521148084e-01
    8.4341349392367485e-03 -6.7990010365008491e-01
    8.6976853029394202e-03 -6.2960018773535675e-01
    8.4816238910609687e-03 -6.6977468662313711e-01
    8.0510790331404618e-03 -7.9471941423902615e-01
    8.0048684404679018e-03 -8.1649658092772603e-01
    7.8446067257400432e-03 -1.0195458225163430e+00
    7.9309378510438316e-03 -1.1612428034157403e+00
    7.8472211589823478e-03 -9.6824583655185426e-01
    7.8511477147241767e-03 -9.5581391856029163e-01
    7.8472211589823496e-03 -1.0327955589886448e+00
    7.8446067257400415e-03 -9.8082889254736771e-01
    7.8563923029608389e-03 -9.4352737238461948e-01
    7.8629628421229801e-03 -9.3138063084759948e-01
    7.9027352903248312e-03 -8.8408664473698440e-01
    8.0510790331404618e-03 -7.9471941423902615e-01
    7.9841250305268362e-03 -8.2751592655105555e-01
    8.0510790331404618e-03 -7.9471941423902615e-01
    7.9471897899133399e-03 -8.4983658559879749e-01
    7.9161274966614310e-03 -8.7256153729329378e-01
    8.0048684404679018e-03 -8.1649658092772603e-01
    8.1038548527574972e-03 -7.7326460175666700e-01
    8.0271739339053457e-03 -8.0556574543159776e-01
    8.0048684404679018e-03 -8.1649658092772603e-01
    7.9471897899133399e-03 -1.1766968108291043e+00
    7.8801236980851376e-03 -1.1019463300386798e+00
    7.9309378510438316e-03 -1.1612428034157403e+00
    7.8801236980851359e-03 -9.0748521297303009e-01
    8.1038548527574972e-03 -7.7326460175666700e-01
    8.1328179717177918e-03 -7.6264844657366526e-01
    8.1961551907296093e-03 -7.4161984870956621e-01
    8.1961551907296093e-03 -7.4161984870956621e-01
    8.5841906188963424e-03 -6.4962939328809088e-01
    9.5797600782302188e-03 -5.2008826489230509e-01
    1.0662273960203101e-02 -4.3852900965351466e-01
    1.2889145500038774e-02 -3.3927557187198837e-01
    1.5272633467174302e-02 -2.7638539919628335e-01
    1.6768485324623141e-02 -2.4828176658071038e-01
    1.2240382283160448e-02 -3.6247325599810615e-01
    1.0055582795130340e-02 -4.7974861141928304e-01
    8.3056042462108341e-03 -7.1053104712745585e-01
    8.0510790331404618e-03 -7.9471941423902615e-01
    8.3462186901047935e-03 -7.0027467138588928e-01
    8.3056042462108341e-03 -7.1053104712745585e-01
    7.9309378510438334e-03 -8.6114634860043682e-01
    7.8511477147241767e-03 -9.5581391856029163e-01
    7.8472211589823496e-03 -1.0327955589886448e+00
    7.8907402387001242e-03 -1.1164124737722174e+00
    7.8446067257400415e-03 -9.8082889254736771e-01
    7.8563923029608389e-03 -9.4352737238461948e-01
    7.8907402387001259e-03 -8.9572628709631430e-01
    7.8708692924283289e-03 -9.1936831315751555e-01
    7.8511477147241767e-03 -9.5581391856029163e-01
    7.8472211589823478e-03 -9.6824583655185426e-01
    7.9161274966614310e-03 -8.7256153729329378e-01
    8.0048684404679018e-03 -8.1649658092772603e-01
    7.9841250305268362e-03 -8.2751592655105555e-01
    8.0510790331404618e-03 -7.9471941423902615e-01
    7.9471897899133399e-03 -8.4983658559879749e-01
    8.1328179717177918e-03 -7.6264844657366526e-01
    8.0271739339053457e-03 -8.0556574543159776e-01
    8.0766245622719366e-03 -7.8395365509278248e-01
    7.9309378510438334e-03 -8.6114634860043682e-01
    7.8801236980851359e-03 -9.0748521297303009e-01
    7.8446067257400432e-03 -1.0195458225163430e+00
    7.9309378510438316e-03 -1.1612428034157403e+00
    7.8708692924283289e-03 -1.0877033564117085e+00
    7.9309378510438316e-03 -1.1612428034157403e+00
    7.9471897899133399e-03 -8.4983658559879749e-01
    7.9649092986224194e-03 -8.3862786937753475e-01
    7.9161274966614310e-03 -8.7256153729329378e-01
    7.9841250305268362e-03 -8.2751592655105555e-01
    8.1961551907296093e-03 -7.4161984870956621e-01
    8.6976853029394202e-03 -6.2960018773535675e-01
    1.0495665679906415e-02 -4.4894363521148084e-01
    1.4147368615281921e-02 -3.0257114167522303e-01
    1.5272633467174302e-02 -2.7638539919628335e-01
    1.3264224700619146e-02 -3.2732683535398860e-01
    1.1031654052872283e-02 -4.1742355496836087e-01
    9.9260368661801979e-03 -4.8989794855663554e-01
    8.4341349392367485e-03 -6.7990010365008491e-01
    8.0271739339053457e-03 -8.0556574543159776e-01
    7.9471897899133399e-03 -8.4983658559879749e-01
    7.9471897899133399e-03 -8.4983658559879749e-01
    8.0048684404679018e-03 -8.1649658092772603e-01
    7.8511477147241784e-03 -1.0462287486943735e+00
    7.9161274966614310e-03 -1.1460509743553711e+00
    7.8446067257400415e-03 -9.8082889254736771e-01
    7.8511477147241784e-03 -1.0462287486943735e+00
    7.8629628421229801e-03 -9.3138063084759948e-01
    8.0271739339053457e-03 -8.0556574543159776e-01
    7.8629628421229801e-03 -9.3138063084759948e-01
    7.8446067257400432e-03 -1.0195458225163430e+00
    7.8629628421229801e-03 -9.3138063084759948e-01
    7.9161274966614310e-03 -8.7256153729329378e-01
    7.9471897899133399e-03 -8.4983658559879749e-01
    8.1635659754205198e-03 -7.5210143309035493e-01
    8.0048684404679018e-03 -8.1649658092772603e-01
    7.9161274966614310e-03 -8.7256153729329378e-01
    7.9471897899133399e-03 -8.4983658559879749e-01
    7.9161274966614310e-03 -8.7256153729329378e-01
    8.0510790331404618e-03 -7.9471941423902615e-01
    7.8801236980851359e-03 -9.0748521297303009e-01
    7.8472211589823496e-03 -1.0327955589886448e+00
    7.8472211589823478e-03 -9.6824583655185426e-01
    8.0048684404679018e-03 -1.2247448713915889e+00
    7.8563923029608407e-03 -1.0598526648703948e+00
    7.8907402387001242e-03 -1.1164124737722174e+00
    7.8801236980851359e-03 -9.0748521297303009e-01
    7.8801236980851359e-03 -9.0748521297303009e-01
    7.8563923029608389e-03 -9.4352737238461948e-01
    7.9027352903248312e-03 -8.8408664473698440e-01
    8.1038548527574972e-03 -7.7326460175666700e-01
    8.1961551907296093e-03 -7.4161984870956621e-01
    9.8039215686274508e-03 -5.0000000000000000e-01
    1.1957634184462572e-02 -3.7377250079820101e-01
    1.5962742818240783e-02 -2.6261286571944514e-01
    1.1957634184462572e-02 -3.7377250079820101e-01
    1.0055582795130340e-02 -4.7974861141928304e-01
    8.3890322900443074e-03 -6.9006555934235436e-01
    8.1635659754205198e-03 -7.5210143309035493e-01
    7.9649092986224194e-03 -8.3862786937753475e-01
    7.8563923029608389e-03 -9.4352737238461948e-01
    7.9309378510438334e-03 -8.6114634860043682e-01
    7.8563923029608407e-03 -1.0598526648703948e+00
    7.8801236980851376e-03 -1.1019463300386798e+00
    7.8433004886606771e-03 -1.0064725594803927e+00
    7.8629628421229818e-03 -1.0736748938937608e+00
    7.8433004886606771e-03 -1.0064725594803927e+00
    7.8446067257400432e-03 -1.0195458225163430e+00
    7.9649092986224194e-03 -8.3862786937753475e-01
    7.9027352903248312e-03 -8.8408664473698440e-01
    7.9161274966614310e-03 -8.7256153729329378e-01
    7.9309378510438334e-03 -8.6114634860043682e-01
    7.9027352903248312e-03 -8.8408664473698440e-01
    7.9841250305268362e-03 -8.2751592655105555e-01
    8.0271739339053457e-03 -8.0556574543159776e-01
    8.1961551907296093e-03 -7.4161984870956621e-01
    8.1328179717177918e-03 -7.6264844657366526e-01
    8.1038548527574972e-03 -7.7326460175666700e-01
    7.9309378510438334e-03 -8.6114634860043682e-01
    7.9841250305268362e-03 -8.2751592655105555e-01
    7.9309378510438334e-03 -8.6114634860043682e-01
    7.8433004886606771e-03 -9.9356906512807996e-01
    7.8629628421229801e-03 -9.3138063084759948e-01
    7.8907402387001242e-03 -1.1164124737722174e+00
    8.1961551907296110e-03 -1.3483997249264845e+00
    7.9471897899133399e-03 -1.1766968108291043e+00
    7.8801236980851376e-03 -1.1019463300386798e+00
    7.9471897899133399e-03 -8.4983658559879749e-01
    7.9471897899133399e-03 -8.4983658559879749e-01
    7.8907402387001259e-03 -8.9572628709631430e-01
    7.9841250305268362e-03 -8.2751592655105555e-01
    8.2671058269926049e-03 -7.2083829194712934e-01
    9.1991913383657233e-03 -5.5996367920955226e-01
    9.9260368661801979e-03 -4.8989794855663554e-01
    1.2549531524252625e-02 -3.5098205908151697e-01
    1.1237102875511081e-02 -4.0671062665559460e-01
    9.5797600782302188e-03 -5.2008826489230509e-01
    8.4341349392367485e-03 -6.7990010365008491e-01
    8.0766245622719366e-03 -7.8395365509278248e-01
    7.9309378510438334e-03 -8.6114634860043682e-01
    7.8801236980851359e-03 -9.0748521297303009e-01
    7.8629628421229801e-03 -9.3138063084759948e-01
    7.8563923029608407e-03 -1.0598526648703948e+00
    7.8708692924283289e-03 -1.0877033564117085e+00
    7.9309378510438316e-03 -1.1612428034157403e+00
    7.8629628421229818e-03 -1.0736748938937608e+00
    7.8446067257400432e-03 -1.0195458225163430e+00
    7.8629628421229801e-03 -9.3138063084759948e-01
    7.8907402387001259e-03 -8.9572628709631430e-01
    7.9471897899133399e-03 -8.4983658559879749e-01
    8.0766245622719366e-03 -7.8395365509278248e-01
    8.0048684404679018e-03 -8.1649658092772603e-01
    8.1961551907296093e-03 -7.4161984870956621e-01
    8.0048684404679018e-03 -8.1649658092772603e-01
    8.0510790331404618e-03 -7.9471941423902615e-01
    8.3462186901047935e-03 -7.0027467138588928e-01
    8.2671058269926049e-03 -7.2083829194712934e-01
    8.0048684404679018e-03 -8.1649658092772603e-01
    7.9309378510438334e-03 -8.6114634860043682e-01
    7.9841250305268362e-03 -8.2751592655105555e-01
    7.8563923029608389e-03 -9.4352737238461948e-01
    7.8629628421229801e-03 -9.3138063084759948e-01
    7.8629628421229801e-03 -9.3138063084759948e-01
    7.8708692924283289e-03 -1.0877033564117085e+00
    7.8629628421229818e-03 -1.0736748938937608e+00
    8.0048684404679018e-03 -1.2247448713915889e+00
    7.8907402387001242e-03 -1.1164124737722174e+00
    7.8511477147241784e-03 -1.0462287486943735e+00
    7.8629628421229801e-03 -9.3138063084759948e-01
    7.8433004886606771e-03 -1.0064725594803927e+00
    7.8801236980851359e-03 -9.0748521297303009e-01
    8.0766245622719366e-03 -7.8395365509278248e-01
    8.2306465277039269e-03 -7.3120001733214890e-01
    9.3792232329899007e-03 -5.4006172486732174e-01
    1.1697946630639477e-02 -3.8490017945975058e-01
    1.2240382283160448e-02 -3.6247325599810615e-01
    9.4767489116181353e-03 -5.3008653589502730e-01
    8.1328179717177918e-03 -7.6264844657366526e-01
    7.9471897899133399e-03 -8.4983658559879749e-01
    7.9027352903248312e-03 -8.8408664473698440e-01
    7.8446067257400415e-03 -9.8082889254736771e-01
    7.8511477147241767e-03 -9.5581391856029163e-01
    7.9161274966614310e-03 -1.1460509743553711e+00
    8.0048684404679018e-03 -1.2247448713915889e+00
    7.9309378510438316e-03 -1.1612428034157403e+00
    7.8708692924283289e-03 -1.0877033564117085e+00
    7.8563923029608407e-03 -1.0598526648703948e+00
    7.8907402387001259e-03 -8.9572628709631430e-01
    8.1038548527574972e-03 -7.7326460175666700e-01
    8.1038548527574972e-03 -7.7326460175666700e-01
    8.2671058269926049e-03 -7.2083829194712934e-01
    8.1961551907296093e-03 -7.4161984870956621e-01
    8.2671058269926049e-03 -7.2083829194712934e-01
    8.1635659754205198e-03 -7.5210143309035493e-01
    8.1328179717177918e-03 -7.6264844657366526e-01
    8.3462186901047935e-03 -7.0027467138588928e-01
    8.4341349392367485e-03 -6.7990010365008491e-01
    8.0510790331404618e-03 -7.9471941423902615e-01
    8.0271739339053457e-03 -8.0556574543159776e-01
    8.0766245622719366e-03 -7.8395365509278248e-01
    7.9027352903248312e-03 -8.8408664473698440e-01
    7.8446067257400415e-03 -9.8082889254736771e-01
    7.8629628421229801e-03 -9.3138063084759948e-01
    7.9309378510438334e-03 -8.6114634860043682e-01
    7.8472211589823496e-03 -1.0327955589886448e+00
    7.8446067257400432e-03 -1.0195458225163430e+00
    7.8907402387001242e-03 -1.1164124737722174e+00
    7.8708692924283289e-03 -1.0877033564117085e+00
    7.8446067257400432e-03 -1.0195458225163430e+00
    7.8472211589823478e-03 -9.6824583655185426e-01
    7.9309378510438334e-03 -8.6114634860043682e-01
    7.9471897899133399e-03 -8.4983658559879749e-01
    8.1635659754205198e-03 -7.5210143309035493e-01
    8.8909294417890139e-03 -5.9970753105744612e-01
    1.0662273960203101e-02 -4.3852900965351466e-01
    1.2240382283160448e-02 -3.6247325599810615e-01
    8.8232310245018701e-03 -6.0965680175751624e-01
    8.0271739339053457e-03 -8.0556574543159776e-01
    7.9471897899133399e-03 -8.4983658559879749e-01
    7.8629628421229801e-03 -9.3138063084759948e-01
    7.8446067257400415e-03 -9.8082889254736771e-01
    7.8433004886606771e-03 -1.0064725594803927e+00
    7.9649092986224194e-03 -1.1924240017711822e+00
    8.1038548527574989e-03 -1.2932183856964952e+00
    7.8708692924283289e-03 -1.0877033564117085e+00
    7.9309378510438316e-03 -1.1612428034157403e+00
    7.8708692924283289e-03 -1.0877033564117085e+00
    8.0048684404679018e-03 -8.1649658092772603e-01
    8.2671058269926049e-03 -7.2083829194712934e-01
    8.2671058269926049e-03 -7.2083829194712934e-01
    8.5316044291052582e-03 -6.5968567150210666e-01
    8.3890322900443074e-03 -6.9006555934235436e-01
    8.3890322900443074e-03 -6.9006555934235436e-01
    8.4341349392367485e-03 -6.7990010365008491e-01
    8.3056042462108341e-03 -7.1053104712745585e-01
    8.3890322900443074e-03 -6.9006555934235436e-01
    8.1038548527574972e-03 -7.7326460175666700e-01
    8.0766245622719366e-03 -7.8395365509278248e-01
    8.0048684404679018e-03 -8.1649658092772603e-01
    7.9841250305268362e-03 -8.2751592655105555e-01
    7.9161274966614310e-03 -8.7256153729329378e-01
    7.9841250305268362e-03 -8.2751592655105555e-01
    7.8907402387001259e-03 -8.9572628709631430e-01
    7.8708692924283289e-03 -9.1936831315751555e-01
    7.8907402387001259e-03 -8.9572628709631430e-01
    7.8433004886606771e-03 -1.0064725594803927e+00
    7.8446067257400432e-03 -1.0195458225163430e+00
    7.8708692924283289e-03 -1.0877033564117085e+00
    7.8472211589823496e-03 -1.0327955589886448e+00
    7.8708692924283289e-03 -9.1936831315751555e-01
    7.8801236980851359e-03 -9.0748521297303009e-01
    7.9027352903248312e-03 -8.8408664473698440e-01
    7.9471897899133399e-03 -8.4983658559879749e-01
    8.8232310245018701e-03 -6.0965680175751624e-01
    9.5797600782302188e-03 -5.2008826489230509e-01
    1.1237102875511081e-02 -4.0671062665559460e-01
    8.8232310245018701e-03 -6.0965680175751624e-01
    8.0271739339053457e-03 -8.0556574543159776e-01
    7.8708692924283289e-03 -9.1936831315751555e-01
    7.8472211589823496e-03 -1.0327955589886448e+00
    7.8433004886606771e-03 -1.0064725594803927e+00
    7.8511477147241767e-03 -9.5581391856029163e-01
    7.9161274966614310e-03 -1.1460509743553711e+00
    7.9471897899133399e-03 -1.1766968108291043e+00
    7.8708692924283289e-03 -1.0877033564117085e+00
    7.8907402387001242e-03 -1.1164124737722174e+00
    7.8708692924283289e-03 -9.1936831315751555e-01
    8.0766245622719366e-03 -7.8395365509278248e-01
    8.1961551907296093e-03 -7.4161984870956621e-01
    8.1038548527574972e-03 -7.7326460175666700e-01
    8.2306465277039269e-03 -7.3120001733214890e-01
    8.2671058269926049e-03 -7.2083829194712934e-01
    8.1961551907296093e-03 -7.4161984870956621e-01
    8.3056042462108341e-03 -7.1053104712745585e-01
    8.1635659754205198e-03 -7.5210143309035493e-01
    8.2671058269926049e-03 -7.2083829194712934e-01
    8.1961551907296093e-03 -7.4161984870956621e-01
    8.1328179717177918e-03 -7.6264844657366526e-01
    7.9309378510438334e-03 -8.6114634860043682e-01
    7.9649092986224194e-03 -8.3862786937753475e-01
    8.0766245622719366e-03 -7.8395365509278248e-01
    8.0271739339053457e-03 -8.0556574543159776e-01
    7.9649092986224194e-03 -8.3862786937753475e-01
    7.8907402387001259e-03 -8.9572628709631430e-01
    8.0271739339053457e-03 -8.0556574543159776e-01
    7.8446067257400432e-03 -1.0195458225163430e+00
    7.8801236980851376e-03 -1.1019463300386798e+00
    7.9841250305268362e-03 -1.2084359562332876e+00
    8.0510790331404618e-03 -1.2583057392117916e+00
    7.8801236980851376e-03 -1.1019463300386798e+00
    7.8446067257400432e-03 -1.0195458225163430e+00
    7.8433004886606771e-03 -1.0064725594803927e+00
    7.9027352903248312e-03 -8.8408664473698440e-01
    8.6976853029394202e-03 -6.2960018773535675e-01
    1.1031654052872283e-02 -4.1742355496836087e-01
    1.0840523345685820e-02 -4.2802582500385300e-01
    8.9621581192192382e-03 -5.8976782461958865e-01
    8.1328179717177918e-03 -7.6264844657366526e-01
    7.8801236980851359e-03 -9.0748521297303009e-01
    7.8563923029608407e-03 -1.0598526648703948e+00
    7.8433004886606771e-03 -9.9356906512807996e-01
    7.8563923029608389e-03 -9.4352737238461948e-01
    7.8472211589823478e-03 -9.6824583655185426e-01
    7.9309378510438316e-03 -1.1612428034157403e+00
    7.8801236980851376e-03 -1.1019463300386798e+00
    7.8563923029608407e-03 -1.0598526648703948e+00
    7.8629628421229818e-03 -1.0736748938937608e+00
    8.1038548527574972e-03 -7.7326460175666700e-01
    8.0271739339053457e-03 -8.0556574543159776e-01
    8.1328179717177918e-03 -7.6264844657366526e-01
    8.1328179717177918e-03 -7.6264844657366526e-01
    8.1328179717177918e-03 -7.6264844657366526e-01
    8.0510790331404618e-03 -7.9471941423902615e-01
    8.1961551907296093e-03 -7.4161984870956621e-01
    8.1328179717177918e-03 -7.6264844657366526e-01
    8.0271739339053457e-03 -8.0556574543159776e-01
    8.0510790331404618e-03 -7.9471941423902615e-01
    8.1038548527574972e-03 -7.7326460175666700e-01
    8.0271739339053457e-03 -8.0556574543159776e-01
    7.9471897899133399e-03 -8.4983658559879749e-01
    8.0510790331404618e-03 -7.9471941423902615e-01
    8.0510790331404618e-03 -7.9471941423902615e-01
    8.1038548527574972e-03 -7.7326460175666700e-01
    8.1961551907296093e-03 -7.4161984870956621e-01
    8.1328179717177918e-03 -7.6264844657366526e-01
    7.8563923029608389e-03 -9.4352737238461948e-01
    7.8801236980851359e-03 -9.0748521297303009e-01
    8.1635659754205215e-03 -1.3296078906418778e+00
    8.0048684404679018e-03 -1.2247448713915889e+00
    7.8472211589823496e-03 -1.0327955589886448e+00
    7.8801236980851376e-03 -1.1019463300386798e+00
    7.8563923029608389e-03 -9.4352737238461948e-01
    7.9841250305268362e-03 -8.2751592655105555e-01
    8.3890322900443074e-03 -6.9006555934235436e-01
    9.5797600782302188e-03 -5.2008826489230509e-01
    1.2889145500038774e-02 -3.3927557187198837e-01
    9.1991913383657233e-03 -5.5996367920955226e-01
    8.2671058269926049e-03 -7.2083829194712934e-01
    7.8708692924283289e-03 -9.1936831315751555e-01
    7.8511477147241784e-03 -1.0462287486943735e+00
    7.8629628421229801e-03 -9.3138063084759948e-01
    7.8472211589823478e-03 -9.6824583655185426e-01
    7.8708692924283289e-03 -1.0877033564117085e+00
    7.9161274966614310e-03 -1.1460509743553711e+00
    7.8708692924283289e-03 -1.0877033564117085e+00
    7.8629628421229818e-03 -1.0736748938937608e+00
    7.8472211589823478e-03 -9.6824583655185426e-01
    7.9471897899133399e-03 -8.4983658559879749e-01
    8.0048684404679018e-03 -8.1649658092772603e-01
    8.1635659754205198e-03 -7.5210143309035493e-01
    8.1328179717177918e-03 -7.6264844657366526e-01
    8.2671058269926049e-03 -7.2083829194712934e-01
    7.9841250305268362e-03 -8.2751592655105555e-01
    7.9471897899133399e-03 -8.4983658559879749e-01
    8.0766245622719366e-03 -7.8395365509278248e-01
    8.0048684404679018e-03 -8.1649658092772603e-01
    8.0510790331404618e-03 -7.9471941423902615e-01
    8.1635659754205198e-03 -7.5210143309035493e-01
    8.1038548527574972e-03 -7.7326460175666700e-01
    7.9471897899133399e-03 -8.4983658559879749e-01
    8.0766245622719366e-03 -7.8395365509278248e-01
    8.0510790331404618e-03 -7.9471941423902615e-01
    8.2306465277039269e-03 -7.3120001733214890e-01
    8.0766245622719366e-03 -7.8395365509278248e-01
    7.9309378510438334e-03 -8.6114634860043682e-01
    7.8801236980851359e-03 -9.0748521297303009e-01
    7.8433004886606771e-03 -1.0064725594803927e+00
    8.0271739339053474e-03 -1.2413636077142658e+00
    8.0048684404679018e-03 -1.2247448713915889e+00
    7.8446067257400415e-03 -9.8082889254736771e-01
    7.9027352903248312e-03 -1.1311108542958477e+00
    7.8446067257400432e-03 -1.0195458225163430e+00
    7.8907402387001259e-03 -8.9572628709631430e-01
    8.7588739945251397e-03 -6.1961969903205261e-01
    1.0055582795130340e-02 -4.7974861141928304e-01
    1.2240382283160448e-02 -3.6247325599810615e-01
    9.0371235475253074e-03 -5.7983350761380115e-01
    8.1328179717177918e-03 -7.6264844657366526e-01
    7.8433004886606771e-03 -1.0064725594803927e+00
    7.8446067257400415e-03 -9.8082889254736771e-01
    7.8472211589823478e-03 -9.6824583655185426e-01
    7.8563923029608407e-03 -1.0598526648703948e+00
    7.8511477147241784e-03 -1.0462287486943735e+00
    8.0271739339053474e-03 -1.2413636077142658e+00
    7.8511477147241767e-03 -9.5581391856029163e-01
    7.8563923029608407e-03 -1.0598526648703948e+00
    7.8433004886606771e-03 -1.0064725594803927e+00
    7.9841250305268362e-03 -8.2751592655105555e-01
    8.0271739339053457e-03 -8.0556574543159776e-01
    8.1635659754205198e-03 -7.5210143309035493e-01
    8.2671058269926049e-03 -7.2083829194712934e-01
    8.1328179717177918e-03 -7.6264844657366526e-01
    8.1635659754205198e-03 -7.5210143309035493e-01
    8.0271739339053457e-03 -8.0556574543159776e-01
    7.9649092986224194e-03 -8.3862786937753475e-01
    7.9027352903248312e-03 -8.8408664473698440e-01
    8.0766245622719366e-03 -7.8395365509278248e-01
    8.1328179717177918e-03 -7.6264844657366526e-01
    7.9471897899133399e-03 -8.4983658559879749e-01
    7.8801236980851359e-03 -9.0748521297303009e-01
    8.0048684404679018e-03 -8.1649658092772603e-01
    8.0510790331404618e-03 -7.9471941423902615e-01
    8.0271739339053457e-03 -8.0556574543159776e-01
    8.1328179717177918e-03 -7.6264844657366526e-01
    7.9471897899133399e-03 -8.4983658559879749e-01
    7.8446067257400415e-03 -9.8082889254736771e-01
    7.8907402387001242e-03 -1.1164124737722174e+00
    7.8472211589823496e-03 -1.0327955589886448e+00
    7.9649092986224194e-03 -1.1924240017711822e+00
    7.8563923029608407e-03 -1.0598526648703948e+00
    7.8472211589823478e-03 -9.6824583655185426e-01
    7.8511477147241767e-03 -9.5581391856029163e-01
    7.9027352903248312e-03 -8.8408664473698440e-01
    8.4341349392367485e-03 -6.7990010365008491e-01
    1.0055582795130340e-02 -4.7974861141928304e-01
    1.0840523345685820e-02 -4.2802582500385300e-01
    9.2868148391746907e-03 -5.5001909821692685e-01
    7.9309378510438334e-03 -8.6114634860043682e-01
    7.8629628421229801e-03 -9.3138063084759948e-01
    7.8511477147241784e-03 -1.0462287486943735e+00
    7.8472211589823496e-03 -1.0327955589886448e+00
    7.8472211589823478e-03 -9.6824583655185426e-01
    7.8433004886606771e-03 -1.0064725594803927e+00
    7.8433004886606771e-03 -1.0064725594803927e+00
    7.8708692924283289e-03 -9.1936831315751555e-01
    7.8472211589823478e-03 -9.6824583655185426e-01
    7.8708692924283289e-03 -9.1936831315751555e-01
    8.0271739339053457e-03 -8.0556574543159776e-01
    8.1961551907296093e-03 -7.4161984870956621e-01
    8.3056042462108341e-03 -7.1053104712745585e-01
    8.1038548527574972e-03 -7.7326460175666700e-01
    8.1635659754205198e-03 -7.5210143309035493e-01
    8.1635659754205198e-03 -7.5210143309035493e-01
    8.0510790331404618e-03 -7.9471941423902615e-01
    8.1038548527574972e-03 -7.7326460175666700e-01
    8.0048684404679018e-03 -8.1649658092772603e-01
    8.0766245622719366e-03 -7.8395365509278248e-01
    8.3056042462108341e-03 -7.1053104712745585e-01
    8.0766245622719366e-03 -7.8395365509278248e-01
    8.0510790331404618e-03 -7.9471941423902615e-01
    8.1038548527574972e-03 -7.7326460175666700e-01
    8.0271739339053457e-03 -8.0556574543159776e-01
    8.3056042462108341e-03 -7.1053104712745585e-01
    8.1961551907296093e-03 -7.4161984870956621e-01
    8.1961551907296093e-03 -7.4161984870956621e-01
    7.8708692924283289e-03 -9.1936831315751555e-01
    7.8446067257400432e-03 -1.0195458225163430e+00
    7.8708692924283289e-03 -1.0877033564117085e+00
    7.8907402387001242e-03 -1.1164124737722174e+00
    7.8907402387001259e-03 -8.9572628709631430e-01
    7.8907402387001259e-03 -8.9572628709631430e-01
    7.9161274966614310e-03 -8.7256153729329378e-01
    7.9841250305268362e-03 -8.2751592655105555e-01
    8.0766245622719366e-03 -7.8395365509278248e-01
    1.0495665679906415e-02 -4.4894363521148084e-01
    1.1957634184462572e-02 -3.7377250079820101e-01
    9.9260368661801979e-03 -4.8989794855663554e-01
    8.3462186901047935e-03 -7.0027467138588928e-01
    7.8511477147241767e-03 -9.5581391856029163e-01
    7.8433004886606771e-03 -9.9356906512807996e-01
    7.8511477147241784e-03 -1.0462287486943735e+00
    7.8446067257400415e-03 -9.8082889254736771e-01
    7.8511477147241767e-03 -9.5581391856029163e-01
    7.8563923029608407e-03 -1.0598526648703948e+00
    7.8563923029608389e-03 -9.4352737238461948e-01
    7.8629628421229801e-03 -9.3138063084759948e-01
    8.0271739339053457e-03 -8.0556574543159776e-01
    7.9161274966614310e-03 -8.7256153729329378e-01
    8.2306465277039269e-03 -7.3120001733214890e-01
    8.2306465277039269e-03 -7.3120001733214890e-01
    8.1038548527574972e-03 -7.7326460175666700e-01
    8.0271739339053457e-03 -8.0556574543159776e-01
    8.0766245622719366e-03 -7.8395365509278248e-01
    8.1961551907296093e-03 -7.4161984870956621e-01
    8.1038548527574972e-03 -7.7326460175666700e-01
    8.0766245622719366e-03 -7.8395365509278248e-01
    8.2306465277039269e-03 -7.3120001733214890e-01
    8.0510790331404618e-03 -7.9471941423902615e-01
    8.1038548527574972e-03 -7.7326460175666700e-01
    8.1038548527574972e-03 -7.7326460175666700e-01
    8.1961551907296093e-03 -7.4161984870956621e-01
    8.1038548527574972e-03 -7.7326460175666700e-01
    8.4341349392367485e-03 -6.7990010365008491e-01
    8.1635659754205198e-03 -7.5210143309035493e-01
    8.1635659754205198e-03 -7.5210143309035493e-01
    8.0048684404679018e-03 -8.1649658092772603e-01
    7.8801236980851359e-03 -9.0748521297303009e-01
    7.8629628421229818e-03 -1.0736748938937608e+00
    8.0048684404679018e-03 -1.2247448713915889e+00
    7.8563923029608389e-03 -9.4352737238461948e-01
    7.8708692924283289e-03 -9.1936831315751555e-01
    7.8629628421229801e-03 -9.3138063084759948e-01
    7.9841250305268362e-03 -8.2751592655105555e-01
    8.0271739339053457e-03 -8.0556574543159776e-01
    9.9260368661801979e-03 -4.8989794855663554e-01
    1.3681003171369270e-02 -3.1510439562444059e-01
    1.0339621735604373e-02 -4.5927932677184585e-01
    8.5841906188963424e-03 -6.4962939328809088e-01
    7.8708692924283289e-03 -9.1936831315751555e-01
    7.8708692924283289e-03 -9.1936831315751555e-01
    7.8446067257400432e-03 -1.0195458225163430e+00
    7.8472211589823478e-03 -9.6824583655185426e-01
    7.8472211589823496e-03 -1.0327955589886448e+00
    7.8563923029608407e-03 -1.0598526648703948e+00
    7.8563923029608389e-03 -9.4352737238461948e-01
    7.9027352903248312e-03 -8.8408664473698440e-01
    7.9161274966614310e-03 -8.7256153729329378e-01
    7.9649092986224194e-03 -8.3862786937753475e-01
    8.1635659754205198e-03 -7.5210143309035493e-01
    8.3462186901047935e-03 -7.0027467138588928e-01
    8.2671058269926049e-03 -7.2083829194712934e-01
    8.1328179717177918e-03 -7.6264844657366526e-01
    7.9841250305268362e-03 -8.2751592655105555e-01
    8.0048684404679018e-03 -8.1649658092772603e-01
    8.1635659754205198e-03 -7.5210143309035493e-01
    8.0766245622719366e-03 -7.8395365509278248e-01
    8.2671058269926049e-03 -7.2083829194712934e-01
    8.1635659754205198e-03 -7.5210143309035493e-01
    8.2306465277039269e-03 -7.3120001733214890e-01
    8.1328179717177918e-03 -7.6264844657366526e-01
    8.4341349392367485e-03 -6.7990010365008491e-01
    8.4341349392367485e-03 -6.7990010365008491e-01
    8.2306465277039269e-03 -7.3120001733214890e-01
    8.0766245622719366e-03 -7.8395365509278248e-01
    7.8511477147241767e-03 -9.5581391856029163e-01
    7.8446067257400415e-03 -9.8082889254736771e-01
    8.1038548527574972e-03 -7.7326460175666700e-01
    7.8907402387001242e-03 -1.1164124737722174e+00
    7.8472211589823496e-03 -1.0327955589886448e+00
    7.9027352903248312e-03 -8.8408664473698440e-01
    7.9161274966614310e-03 -8.7256153729329378e-01
    7.8907402387001259e-03 -8.9572628709631430e-01
    8.0271739339053457e-03 -8.0556574543159776e-01
    8.0766245622719366e-03 -7.8395365509278248e-01
    9.9260368661801979e-03 -4.8989794855663554e-01
    1.5272633467174302e-02 -2.7638539919628335e-01
    9.6886657377271996e-03 -5.1006137045067068e-01
    8.6395061529724489e-03 -6.3960214906683133e-01
    8.2671058269926049e-03 -7.2083829194712934e-01
    7.8801236980851359e-03 -9.0748521297303009e-01
    7.8472211589823478e-03 -9.6824583655185426e-01
    7.8446067257400415e-03 -9.8082889254736771e-01
    7.8511477147241784e-03 -1.0462287486943735e+00
    7.8433004886606771e-03 -1.0064725594803927e+00
    7.8511477147241767e-03 -9.5581391856029163e-01
    7.9841250305268362e-03 -8.2751592655105555e-01
    8.0048684404679018e-03 -8.1649658092772603e-01
    7.9161274966614310e-03 -8.7256153729329378e-01
    7.9649092986224194e-03 -8.3862786937753475e-01
    8.0766245622719366e-03 -7.8395365509278248e-01
    7.9649092986224194e-03 -8.3862786937753475e-01
    8.2306465277039269e-03 -7.3120001733214890e-01
    8.1038548527574972e-03 -7.7326460175666700e-01
    8.0271739339053457e-03 -8.0556574543159776e-01
    8.1328179717177918e-03 -7.6264844657366526e-01
    8.3056042462108341e-03 -7.1053104712745585e-01
    8.1961551907296093e-03 -7.4161984870956621e-01
    8.1038548527574972e-03 -7.7326460175666700e-01
    8.3890322900443074e-03 -6.9006555934235436e-01
    8.3056042462108341e-03 -7.1053104712745585e-01
    8.3462186901047935e-03 -7.0027467138588928e-01
    8.0510790331404618e-03 -7.9471941423902615e-01
    8.0510790331404618e-03 -7.9471941423902615e-01
    8.2306465277039269e-03 -7.3120001733214890e-01
    7.8801236980851359e-03 -9.0748521297303009e-01
    8.2671058269926049e-03 -7.2083829194712934e-01
    7.9027352903248312e-03 -8.8408664473698440e-01
    7.8907402387001242e-03 -1.1164124737722174e+00
    7.8629628421229818e-03 -1.0736748938937608e+00
    7.8801236980851359e-03 -9.0748521297303009e-01
    7.8472211589823478e-03 -9.6824583655185426e-01
    7.8629628421229801e-03 -9.3138063084759948e-01
    8.0048684404679018e-03 -8.1649658092772603e-01
    8.0048684404679018e-03 -8.1649658092772603e-01
    9.8039215686274508e-03 -5.0000000000000000e-01
    1.5272633467174302e-02 -2.7638539919628335e-01
    1.0662273960203101e-02 -4.3852900965351466e-01
    8.9621581192192382e-03 -5.8976782461958865e-01
    8.7588739945251397e-03 -6.1961969903205261e-01
    8.0048684404679018e-03 -8.1649658092772603e-01
    8.0766245622719366e-03 -7.8395365509278248e-01
    7.8433004886606771e-03 -1.0064725594803927e+00
    7.8446067257400432e-03 -1.0195458225163430e+00
    7.8511477147241767e-03 -9.5581391856029163e-01
    7.8433004886606771e-03 -9.9356906512807996e-01
    7.8708692924283289e-03 -9.1936831315751555e-01
    7.8433004886606771e-03 -1.0064725594803927e+00
    7.8629628421229818e-03 -1.0736748938937608e+00
    7.8472211589823478e-03 -9.6824583655185426e-01
    7.9027352903248312e-03 -8.8408664473698440e-01
    8.1038548527574972e-03 -7.7326460175666700e-01
    8.0271739339053457e-03 -8.0556574543159776e-01
    8.2306465277039269e-03 -7.3120001733214890e-01
    8.0766245622719366e-03 -7.8395365509278248e-01
    8.1328179717177918e-03 -7.6264844657366526e-01
    8.5316044291052582e-03 -6.5968567150210666e-01
    8.4341349392367485e-03 -6.7990010365008491e-01
    8.3890322900443074e-03 -6.9006555934235436e-01
    8.5841906188963424e-03 -6.4962939328809088e-01
    8.3890322900443074e-03 -6.9006555934235436e-01
    8.2671058269926049e-03 -7.2083829194712934e-01
    8.3056042462108341e-03 -7.1053104712745585e-01
    8.0766245622719366e-03 -7.8395365509278248e-01
    7.9027352903248312e-03 -8.8408664473698440e-01
    7.8563923029608389e-03 -9.4352737238461948e-01
    7.9649092986224194e-03 -8.3862786937753475e-01
    7.8801236980851359e-03 -9.0748521297303009e-01
    7.9027352903248312e-03 -1.1311108542958477e+00
    7.9309378510438316e-03 -1.1612428034157403e+00
    7.8511477147241767e-03 -9.5581391856029163e-01
    7.8563923029608389e-03 -9.4352737238461948e-01
    7.9471897899133399e-03 -8.4983658559879749e-01
    8.0048684404679018e-03 -8.1649658092772603e-01
    7.9841250305268362e-03 -8.2751592655105555e-01
    1.0339621735604373e-02 -4.5927932677184585e-01
    1.8884767398075687e-02 -2.1747941810042001e-01
    1.2549531524252625e-02 -3.5098205908151697e-01
    8.9621581192192382e-03 -5.8976782461958865e-01
    8.4341349392367485e-03 -6.7990010365008491e-01
    7.9027352903248312e-03 -8.8408664473698440e-01
    7.9027352903248312e-03 -8.8408664473698440e-01
    7.8801236980851359e-03 -9.0748521297303009e-01
    7.8907402387001259e-03 -8.9572628709631430e-01
    7.8511477147241767e-03 -9.5581391856029163e-01
    7.8446067257400432e-03 -1.0195458225163430e+00
    7.9027352903248312e-03 -8.8408664473698440e-01
    7.8511477147241767e-03 -9.5581391856029163e-01
    7.8446067257400432e-03 -1.0195458225163430e+00
    7.8446067257400432e-03 -1.0195458225163430e+00
    7.8446067257400432e-03 -1.0195458225163430e+00
    7.8472211589823478e-03 -9.6824583655185426e-01
    8.1961551907296093e-03 -7.4161984870956621e-01
    8.0766245622719366e-03 -7.8395365509278248e-01
    8.0048684404679018e-03 -8.1649658092772603e-01
    8.0510790331404618e-03 -7.9471941423902615e-01
    8.1635659754205198e-03 -7.5210143309035493e-01
    8.3462186901047935e-03 -7.0027467138588928e-01
    8.5316044291052582e-03 -6.5968567150210666e-01
    8.3056042462108341e-03 -7.1053104712745585e-01
    8.1635659754205198e-03 -7.5210143309035493e-01
    8.1328179717177918e-03 -7.6264844657366526e-01
    8.0766245622719366e-03 -7.8395365509278248e-01
    8.0271739339053457e-03 -8.0556574543159776e-01
    7.8433004886606771e-03 -9.9356906512807996e-01
    7.8472211589823478e-03 -9.6824583655185426e-01
    7.9471897899133399e-03 -8.4983658559879749e-01
    7.8563923029608407e-03 -1.0598526648703948e+00
    7.8907402387001242e-03 -1.1164124737722174e+00
    7.8801236980851359e-03 -9.0748521297303009e-01
    7.8907402387001259e-03 -8.9572628709631430e-01
    7.9027352903248312e-03 -8.8408664473698440e-01
    8.0510790331404618e-03 -7.9471941423902615e-01
    8.0510790331404618e-03 -7.9471941423902615e-01
    8.3462186901047935e-03 -7.0027467138588928e-01
    1.1031654052872283e-02 -4.1742355496836087e-01
    1.4147368615281921e-02 -3.0257114167522303e-01
    1.1458544908681249e-02 -3.9587424507089086e-01
    9.1160518893080213e-03 -5.6990027617674022e-01
    8.6976853029394202e-03 -6.2960018773535675e-01
    7.9471897899133399e-03 -8.4983658559879749e-01
    7.8708692924283289e-03 -9.1936831315751555e-01
    7.8629628421229801e-03 -9.3138063084759948e-01
    7.8629628421229801e-03 -9.3138063084759948e-01
    7.8433004886606771e-03 -1.0064725594803927e+00
    7.8433004886606771e-03 -1.0064725594803927e+00
    7.8472211589823478e-03 -9.6824583655185426e-01
    7.8511477147241767e-03 -9.5581391856029163e-01
    7.8446067257400415e-03 -9.8082889254736771e-01
    7.8511477147241767e-03 -9.5581391856029163e-01
    7.8511477147241767e-03 -9.5581391856029163e-01
    7.8433004886606771e-03 -9.9356906512807996e-01
    7.8801236980851359e-03 -9.0748521297303009e-01
    8.1635659754205198e-03 -7.5210143309035493e-01
    7.9471897899133399e-03 -8.4983658559879749e-01
    8.0766245622719366e-03 -7.8395365509278248e-01
    8.4341349392367485e-03 -6.7990010365008491e-01
    8.3056042462108341e-03 -7.1053104712745585e-01
    8.4341349392367485e-03 -6.7990010365008491e-01
    8.1961551907296093e-03 -7.4161984870956621e-01
    8.0510790331404618e-03 -7.9471941423902615e-01
    8.0271739339053457e-03 -8.0556574543159776e-01
    7.8511477147241767e-03 -9.5581391856029163e-01
    7.8708692924283289e-03 -9.1936831315751555e-01
    7.9471897899133399e-03 -8.4983658559879749e-01
    7.8907402387001259e-03 -8.9572628709631430e-01
    7.9309378510438334e-03 -8.6114634860043682e-01
    7.8907402387001242e-03 -1.1164124737722174e+00
    7.8801236980851376e-03 -1.1019463300386798e+00
    7.8801236980851359e-03 -9.0748521297303009e-01
    7.8563923029608389e-03 -9.4352737238461948e-01
    7.9027352903248312e-03 -8.8408664473698440e-01
    8.1038548527574972e-03 -7.7326460175666700e-01
    8.1635659754205198e-03 -7.5210143309035493e-01
    8.9621581192192382e-03 -5.8976782461958865e-01
    1.2240382283160448e-02 -3.6247325599810615e-01
    1.5272633467174302e-02 -2.7638539919628335e-01
    1.2240382283160448e-02 -3.6247325599810615e-01
    9.3792232329899007e-03 -5.4006172486732174e-01
    8.6976853029394202e-03 -6.2960018773535675e-01
    8.1961551907296093e-03 -7.4161984870956621e-01
    7.9649092986224194e-03 -8.3862786937753475e-01
    7.8629628421229801e-03 -9.3138063084759948e-01
    7.8433004886606771e-03 -9.9356906512807996e-01
    7.8629628421229818e-03 -1.0736748938937608e+00
    7.8563923029608389e-03 -9.4352737238461948e-01
    7.8563923029608389e-03 -9.4352737238461948e-01
    7.8563923029608389e-03 -9.4352737238461948e-01
    7.8907402387001242e-03 -1.1164124737722174e+00
    7.8907402387001242e-03 -1.1164124737722174e+00
    7.8472211589823496e-03 -1.0327955589886448e+00
    7.8472211589823496e-03 -1.0327955589886448e+00
    7.8472211589823478e-03 -9.6824583655185426e-01
    7.9161274966614310e-03 -8.7256153729329378e-01
    7.8563923029608389e-03 -9.4352737238461948e-01
    7.8708692924283289e-03 -9.1936831315751555e-01
    8.2671058269926049e-03 -7.2083829194712934e-01
    7.9161274966614310e-03 -8.7256153729329378e-01
    7.9161274966614310e-03 -8.7256153729329378e-01
    7.8801236980851359e-03 -9.0748521297303009e-01
    7.8629628421229818e-03 -1.0736748938937608e+00
    7.8472211589823496e-03 -1.0327955589886448e+00
    7.8563923029608389e-03 -9.4352737238461948e-01
    7.8472211589823478e-03 -9.6824583655185426e-01
    7.8511477147241784e-03 -1.0462287486943735e+00
    7.9161274966614310e-03 -8.7256153729329378e-01
    7.8511477147241784e-03 -1.0462287486943735e+00
    7.9161274966614310e-03 -1.1460509743553711e+00
    7.8801236980851359e-03 -9.0748521297303009e-01
    7.9161274966614310e-03 -8.7256153729329378e-01
    7.9309378510438334e-03 -8.6114634860043682e-01
    8.0510790331404618e-03 -7.9471941423902615e-01
    8.0510790331404618e-03 -7.9471941423902615e-01
    8.3056042462108341e-03 -7.1053104712745585e-01
    8.8232310245018701e-03 -6.0965680175751624e-01
    1.2889145500038774e-02 -3.3927557187198837e-01
    2.0329315612559004e-02 -2.0067001862719533e-01
    1.5272633467174302e-02 -2.7638539919628335e-01
    1.0193202253956700e-02 -4.6954492963387634e-01
    8.6395061529724489e-03 -6.3960214906683133e-01
    8.3056042462108341e-03 -7.1053104712745585e-01
    8.1038548527574972e-03 -7.7326460175666700e-01
    7.8563923029608389e-03 -9.4352737238461948e-01
    7.8472211589823478e-03 -9.6824583655185426e-01
    7.8433004886606771e-03 -1.0064725594803927e+00
    7.8433004886606771e-03 -9.9356906512807996e-01
    7.8629628421229818e-03 -1.0736748938937608e+00
    7.8433004886606771e-03 -1.0064725594803927e+00
    7.9027352903248312e-03 -1.1311108542958477e+00
    8.1038548527574989e-03 -1.2932183856964952e+00
    7.8563923029608407e-03 -1.0598526648703948e+00
    7.8511477147241784e-03 -1.0462287486943735e+00
    7.8446067257400415e-03 -9.8082889254736771e-01
    7.8629628421229801e-03 -9.3138063084759948e-01
    7.8708692924283289e-03 -9.1936831315751555e-01
    7.8907402387001259e-03 -8.9572628709631430e-01
    7.8801236980851359e-03 -9.0748521297303009e-01
    7.8563923029608389e-03 -9.4352737238461948e-01
    7.8801236980851359e-03 -9.0748521297303009e-01
    7.8446067257400415e-03 -9.8082889254736771e-01
    7.8433004886606771e-03 -1.0064725594803927e+00
    7.8511477147241784e-03 -1.0462287486943735e+00
    7.8433004886606771e-03 -1.0064725594803927e+00
    7.8629628421229818e-03 -1.0736748938937608e+00
    7.8433004886606771e-03 -9.9356906512807996e-01
    7.9471897899133399e-03 -8.4983658559879749e-01
    7.8433004886606771e-03 -9.9356906512807996e-01
    7.8801236980851359e-03 -9.0748521297303009e-01
    7.9471897899133399e-03 -8.4983658559879749e-01
    8.0048684404679018e-03 -8.1649658092772603e-01
    8.1038548527574972e-03 -7.7326460175666700e-01
    8.1038548527574972e-03 -7.7326460175666700e-01
    8.0510790331404618e-03 -7.9471941423902615e-01
    8.3890322900443074e-03 -6.9006555934235436e-01
    9.2868148391746907e-03 -5.5001909821692685e-01
    1.2889145500038774e-02 -3.3927557187198837e-01
    1.7725065832464641e-02 -2.3328473740792174e-01
    1.4673471605042447e-02 -2.8968272975116055e-01
    1.1957634184462572e-02 -3.7377250079820101e-01
    8.8232310245018701e-03 -6.0965680175751624e-01
    8.2306465277039269e-03 -7.3120001733214890e-01
    8.1961551907296093e-03 -7.4161984870956621e-01
    8.2306465277039269e-03 -7.3120001733214890e-01
    7.9161274966614310e-03 -8.7256153729329378e-01
    7.9841250305268362e-03 -8.2751592655105555e-01
    7.8801236980851359e-03 -9.0748521297303009e-01
    7.9027352903248312e-03 -8.8408664473698440e-01
    7.8907402387001259e-03 -8.9572628709631430e-01
    7.8907402387001259e-03 -8.9572628709631430e-01
    7.9161274966614310e-03 -1.1460509743553711e+00
    7.9649092986224194e-03 -1.1924240017711822e+00
    7.9649092986224194e-03 -1.1924240017711822e+00
    7.8801236980851376e-03 -1.1019463300386798e+00
    7.8629628421229818e-03 -1.0736748938937608e+00
    7.8629628421229818e-03 -1.0736748938937608e+00
    7.8472211589823478e-03 -9.6824583655185426e-01
    7.8446067257400415e-03 -9.8082889254736771e-01
    7.8433004886606771e-03 -9.9356906512807996e-01
    7.8563923029608389e-03 -9.4352737238461948e-01
    7.8446067257400415e-03 -9.8082889254736771e-01
    7.8433004886606771e-03 -1.0064725594803927e+00
    7.8629628421229818e-03 -1.0736748938937608e+00
    7.8563923029608407e-03 -1.0598526648703948e+00
    7.9309378510438334e-03 -8.6114634860043682e-01
    7.8446067257400432e-03 -1.0195458225163430e+00
    7.9309378510438334e-03 -8.6114634860043682e-01
    7.9161274966614310e-03 -1.1460509743553711e+00
    7.8907402387001259e-03 -8.9572628709631430e-01
    8.0048684404679018e-03 -8.1649658092772603e-01
    7.9841250305268362e-03 -8.2751592655105555e-01
    8.1038548527574972e-03 -7.7326460175666700e-01
    8.3056042462108341e-03 -7.1053104712745585e-01
    8.1635659754205198e-03 -7.5210143309035493e-01
    8.8232310245018701e-03 -6.0965680175751624e-01
    1.0055582795130340e-02 -4.7974861141928304e-01
    1.5962742818240783e-02 -2.6261286571944514e-01
    2.0329315612559004e-02 -2.0067001862719533e-01
    1.4673471605042447e-02 -2.8968272975116055e-01
    1.2889145500038774e-02 -3.3927557187198837e-01
    1.0193202253956700e-02 -4.6954492963387634e-01
    8.8232310245018701e-03 -6.0965680175751624e-01
    8.2671058269926049e-03 -7.2083829194712934e-01
    8.2671058269926049e-03 -7.2083829194712934e-01
    8.3890322900443074e-03 -6.9006555934235436e-01
    7.9841250305268362e-03 -8.2751592655105555e-01
    8.0510790331404618e-03 -7.9471941423902615e-01
    8.0271739339053457e-03 -8.0556574543159776e-01
    8.0766245622719366e-03 -7.8395365509278248e-01
    7.8708692924283289e-03 -9.1936831315751555e-01
    7.8472211589823478e-03 -9.6824583655185426e-01
    7.9161274966614310e-03 -1.1460509743553711e+00
    8.1328179717177918e-03 -1.3112201362143716e+00
    8.1328179717177918e-03 -1.3112201362143716e+00
    7.9027352903248312e-03 -1.1311108542958477e+00
    7.8433004886606771e-03 -9.9356906512807996e-01
    7.8472211589823496e-03 -1.0327955589886448e+00
    7.8511477147241767e-03 -9.5581391856029163e-01
    7.8511477147241767e-03 -9.5581391856029163e-01
    7.8708692924283289e-03 -1.0877033564117085e+00
    7.8446067257400432e-03 -1.0195458225163430e+00
    7.9309378510438334e-03 -8.6114634860043682e-01
    7.8472211589823478e-03 -9.6824583655185426e-01
    7.8511477147241784e-03 -1.0462287486943735e+00
    7.8433004886606771e-03 -1.0064725594803927e+00
    7.8629628421229818e-03 -1.0736748938937608e+00
    7.8801236980851359e-03 -9.0748521297303009e-01
    7.8472211589823478e-03 -9.6824583655185426e-01
    8.0271739339053457e-03 -8.0556574543159776e-01
    8.1328179717177918e-03 -7.6264844657366526e-01
    8.1961551907296093e-03 -7.4161984870956621e-01
    8.1635659754205198e-03 -7.5210143309035493e-01
    8.8909294417890139e-03 -5.9970753105744612e-01
    8.4816238910609687e-03 -6.6977468662313711e-01
    9.1991913383657233e-03 -5.5996367920955226e-01
    1.2549531524252625e-02 -3.5098205908151697e-01
    1.5962742818240783e-02 -2.6261286571944514e-01
    2.4732786492064653e-02 -1.6275769175423191e-01
    1.7725065832464641e-02 -2.3328473740792174e-01
    1.3264224700619146e-02 -3.2732683535398860e-01
    1.0662273960203101e-02 -4.3852900965351466e-01
    9.9260368661801979e-03 -4.8989794855663554e-01
    9.1160518893080213e-03 -5.6990027617674022e-01
    8.6976853029394202e-03 -6.2960018773535675e-01
    8.5841906188963424e-03 -6.4962939328809088e-01
    8.2671058269926049e-03 -7.2083829194712934e-01
    7.9649092986224194e-03 -8.3862786937753475e-01
    8.1328179717177918e-03 -7.6264844657366526e-01
    7.9841250305268362e-03 -8.2751592655105555e-01
    7.9161274966614310e-03 -8.7256153729329378e-01
    7.9471897899133399e-03 -8.4983658559879749e-01
    7.8801236980851359e-03 -9.0748521297303009e-01
    7.8472211589823496e-03 -1.0327955589886448e+00
    7.8433004886606771e-03 -9.9356906512807996e-01
    7.8472211589823478e-03 -9.6824583655185426e-01
    7.8511477147241767e-03 -9.5581391856029163e-01
    7.8433004886606771e-03 -9.9356906512807996e-01
    7.8511477147241784e-03 -1.0462287486943735e+00
    7.8511477147241767e-03 -9.5581391856029163e-01
    7.8629628421229818e-03 -1.0736748938937608e+00
    7.8472211589823496e-03 -1.0327955589886448e+00
    7.9027352903248312e-03 -8.8408664473698440e-01
    7.9471897899133399e-03 -8.4983658559879749e-01
    7.8708692924283289e-03 -9.1936831315751555e-01
    7.8629628421229818e-03 -1.0736748938937608e+00
    7.8629628421229801e-03 -9.3138063084759948e-01
    7.8472211589823478e-03 -9.6824583655185426e-01
    7.8907402387001259e-03 -8.9572628709631430e-01
    8.3056042462108341e-03 -7.1053104712745585e-01
    8.4816238910609687e-03 -6.6977468662313711e-01
    8.4341349392367485e-03 -6.7990010365008491e-01
    8.4341349392367485e-03 -6.7990010365008491e-01
    8.4341349392367485e-03 -6.7990010365008491e-01
    9.1160518893080213e-03 -5.6990027617674022e-01
    9.6886657377271996e-03 -5.1006137045067068e-01
    1.2549531524252625e-02 -3.5098205908151697e-01
    1.8884767398075687e-02 -2.1747941810042001e-01
    2.4732786492064653e-02 -1.6275769175423191e-01
    2.0329315612559004e-02 -2.0067001862719533e-01
    1.3681003171369270e-02 -3.1510439562444059e-01
    1.1237102875511081e-02 -4.0671062665559460e-01
    1.0193202253956700e-02 -4.6954492963387634e-01
    9.6886657377271996e-03 -5.1006137045067068e-01
    9.3792232329899007e-03 -5.4006172486732174e-01
    9.1991913383657233e-03 -5.5996367920955226e-01
    8.6976853029394202e-03 -6.2960018773535675e-01
    8.4341349392367485e-03 -6.7990010365008491e-01
    8.2306465277039269e-03 -7.3120001733214890e-01
    8.0766245622719366e-03 -7.8395365509278248e-01
    8.1038548527574972e-03 -7.7326460175666700e-01
    8.0271739339053457e-03 -8.0556574543159776e-01
    8.0766245622719366e-03 -7.8395365509278248e-01
    8.1328179717177918e-03 -7.6264844657366526e-01
    7.8708692924283289e-03 -9.1936831315751555e-01
    7.8801236980851359e-03 -9.0748521297303009e-01
    8.0048684404679018e-03 -8.1649658092772603e-01
    7.8708692924283289e-03 -9.1936831315751555e-01
    7.8563923029608389e-03 -9.4352737238461948e-01
    7.8629628421229818e-03 -1.0736748938937608e+00
    7.9027352903248312e-03 -1.1311108542958477e+00
    7.8629628421229801e-03 -9.3138063084759948e-01
    7.8801236980851359e-03 -9.0748521297303009e-01
    7.8472211589823478e-03 -9.6824583655185426e-01
    7.8446067257400432e-03 -1.0195458225163430e+00
    7.8629628421229801e-03 -9.3138063084759948e-01
    7.9027352903248312e-03 -8.8408664473698440e-01
    7.9161274966614310e-03 -8.7256153729329378e-01
    8.4341349392367485e-03 -6.7990010365008491e-01
    8.3462186901047935e-03 -7.0027467138588928e-01
    8.4341349392367485e-03 -6.7990010365008491e-01
    8.4816238910609687e-03 -6.6977468662313711e-01
    8.3462186901047935e-03 -7.0027467138588928e-01
    8.6395061529724489e-03 -6.3960214906683133e-01
    9.2868148391746907e-03 -5.5001909821692685e-01
    9.9260368661801979e-03 -4.8989794855663554e-01
    1.4673471605042447e-02 -2.8968272975116055e-01
    1.8884767398075687e-02 -2.1747941810042001e-01
    2.8464862901012265e-02 -1.4048787173725408e-01
    2.4732786492064653e-02 -1.6275769175423191e-01
    1.5272633467174302e-02 -2.7638539919628335e-01
    1.4673471605042447e-02 -2.8968272975116055e-01
    1.2549531524252625e-02 -3.5098205908151697e-01
    1.0662273960203101e-02 -4.3852900965351466e-01
    1.0193202253956700e-02 -4.6954492963387634e-01
    9.6886657377271996e-03 -5.1006137045067068e-01
    9.0371235475253074e-03 -5.7983350761380115e-01
    9.4767489116181353e-03 -5.3008653589502730e-01
    9.1160518893080213e-03 -5.6990027617674022e-01
    8.6395061529724489e-03 -6.3960214906683133e-01
    8.3056042462108341e-03 -7.1053104712745585e-01
    8.3462186901047935e-03 -7.0027467138588928e-01
    8.2306465277039269e-03 -7.3120001733214890e-01
    8.1038548527574972e-03 -7.7326460175666700e-01
    8.1635659754205198e-03 -7.5210143309035493e-01
    7.8563923029608389e-03 -9.4352737238461948e-01
    7.8563923029608389e-03 -9.4352737238461948e-01
    7.8629628421229801e-03 -9.3138063084759948e-01
    7.9841250305268362e-03 -8.2751592655105555e-01
    7.9309378510438334e-03 -8.6114634860043682e-01
    7.8446067257400432e-03 -1.0195458225163430e+00
    7.8511477147241767e-03 -9.5581391856029163e-01
    7.8801236980851359e-03 -9.0748521297303009e-01
    7.9649092986224194e-03 -8.3862786937753475e-01
    7.9841250305268362e-03 -8.2751592655105555e-01
    7.9649092986224194e-03 -8.3862786937753475e-01
    8.0048684404679018e-03 -8.1649658092772603e-01
    7.9649092986224194e-03 -8.3862786937753475e-01
    8.4816238910609687e-03 -6.6977468662313711e-01
    8.1961551907296093e-03 -7.4161984870956621e-01
    8.3890322900443074e-03 -6.9006555934235436e-01
    8.3462186901047935e-03 -7.0027467138588928e-01
    8.6976853029394202e-03 -6.2960018773535675e-01
    9.1160518893080213e-03 -5.6990027617674022e-01
    9.5797600782302188e-03 -5.2008826489230509e-01
    1.3264224700619146e-02 -3.2732683535398860e-01
    1.4673471605042447e-02 -2.8968272975116055e-01
    2.2195293179947909e-02 -1.8257418583505539e-01
    3.4748079342599832e-02 -1.1433239009500590e-01
    1.8884767398075687e-02 -2.1747941810042001e-01
    1.8884767398075687e-02 -2.1747941810042001e-01
    1.5962742818240783e-02 -2.6261286571944514e-01
    1.4147368615281921e-02 -3.0257114167522303e-01
    1.1458544908681249e-02 -3.9587424507089086e-01
    1.0495665679906415e-02 -4.4894363521148084e-01
    1.1237102875511081e-02 -4.0671062665559460e-01
    1.0339621735604373e-02 -4.5927932677184585e-01
    9.6886657377271996e-03 -5.1006137045067068e-01
    1.0339621735604373e-02 -4.5927932677184585e-01
    9.4767489116181353e-03 -5.3008653589502730e-01
    8.4341349392367485e-03 -6.7990010365008491e-01
    8.2671058269926049e-03 -7.2083829194712934e-01
    8.3890322900443074e-03 -6.9006555934235436e-01
    8.2671058269926049e-03 -7.2083829194712934e-01
    8.2306465277039269e-03 -7.3120001733214890e-01
    8.1635659754205198e-03 -7.5210143309035493e-01
    7.9027352903248312e-03 -8.8408664473698440e-01
    7.9027352903248312e-03 -8.8408664473698440e-01
    7.8708692924283289e-03 -9.1936831315751555e-01
    7.8446067257400415e-03 -9.8082889254736771e-01
    7.8708692924283289e-03 -9.1936831315751555e-01
    8.0510790331404618e-03 -7.9471941423902615e-01
    7.8907402387001259e-03 -8.9572628709631430e-01
    7.9841250305268362e-03 -8.2751592655105555e-01
    8.0271739339053457e-03 -8.0556574543159776e-01
    8.5841906188963424e-03 -6.4962939328809088e-01
    8.4816238910609687e-03 -6.6977468662313711e-01
    8.3462186901047935e-03 -7.0027467138588928e-01
    8.3056042462108341e-03 -7.1053104712745585e-01
    8.1635659754205198e-03 -7.5210143309035493e-01
    8.7588739945251397e-03 -6.1961969903205261e-01
    9.1160518893080213e-03 -5.6990027617674022e-01
    9.1160518893080213e-03 -5.6990027617674022e-01
    9.4767489116181353e-03 -5.3008653589502730e-01
    1.1458544908681249e-02 -3.9587424507089086e-01
    1.3264224700619146e-02 -3.2732683535398860e-01
    1.7725065832464641e-02 -2.3328473740792174e-01
    2.0329315612559004e-02 -2.0067001862719533e-01
    2.8464862901012265e-02 -1.4048787173725408e-01
    2.4732786492064653e-02 -1.6275769175423191e-01
    2.2195293179947909e-02 -1.8257418583505539e-01
    1.7725065832464641e-02 -2.3328473740792174e-01
    1.6768485324623141e-02 -2.4828176658071038e-01
    1.3681003171369270e-02 -3.1510439562444059e-01
    1.1237102875511081e-02 -4.0671062665559460e-01
    1.1458544908681249e-02 -3.9587424507089086e-01
    1.1697946630639477e-02 -3.8490017945975058e-01
    1.0193202253956700e-02 -4.6954492963387634e-01
    1.0055582795130340e-02 -4.7974861141928304e-01
    1.0495665679906415e-02 -4.4894363521148084e-01
    9.8039215686274508e-03 -5.0000000000000000e-01
    9.5797600782302188e-03 -5.2008826489230509e-01
    8.7588739945251397e-03 -6.1961969903205261e-01
    8.5316044291052582e-03 -6.5968567150210666e-01
    8.5841906188963424e-03 -6.4962939328809088e-01
    8.8232310245018701e-03 -6.0965680175751624e-01
    8.1038548527574972e-03 -7.7326460175666700e-01
    7.9471897899133399e-03 -8.4983658559879749e-01
    7.9309378510438334e-03 -8.6114634860043682e-01
    7.8708692924283289e-03 -9.1936831315751555e-01
    7.8801236980851359e-03 -9.0748521297303009e-01
    7.9649092986224194e-03 -8.3862786937753475e-01
    8.0766245622719366e-03 -7.8395365509278248e-01
    7.9841250305268362e-03 -8.2751592655105555e-01
    8.3056042462108341e-03 -7.1053104712745585e-01
    8.5841906188963424e-03 -6.4962939328809088e-01
    8.2306465277039269e-03 -7.3120001733214890e-01
    8.2671058269926049e-03 -7.2083829194712934e-01
    8.4816238910609687e-03 -6.6977468662313711e-01
    8.5841906188963424e-03 -6.4962939328809088e-01
    9.1991913383657233e-03 -5.5996367920955226e-01
    9.4767489116181353e-03 -5.3008653589502730e-01
    9.3792232329899007e-03 -5.4006172486732174e-01
    1.1697946630639477e-02 -3.8490017945975058e-01
    1.3681003171369270e-02 -3.1510439562444059e-01
    1.6768485324623141e-02 -2.4828176658071038e-01
    1.8884767398075687e-02 -2.1747941810042001e-01
    2.8464862901012265e-02 -1.4048787173725408e-01
    3.4748079342599832e-02 -1.1433239009500590e-01
    2.4732786492064653e-02 -1.6275769175423191e-01
    2.8464862901012265e-02 -1.4048787173725408e-01
    2.2195293179947909e-02 -1.8257418583505539e-01
    1.8884767398075687e-02 -2.1747941810042001e-01
    1.5962742818240783e-02 -2.6261286571944514e-01
    1.2549531524252625e-02 -3.5098205908151697e-01
    1.1957634184462572e-02 -3.7377250079820101e-01
    1.2240382283160448e-02 -3.6247325599810615e-01
    1.1957634184462572e-02 -3.7377250079820101e-01
    1.1237102875511081e-02 -4.0671062665559460e-01
    1.1697946630639477e-02 -3.8490017945975058e-01
    1.0193202253956700e-02 -4.6954492963387634e-01
    1.0662273960203101e-02 -4.3852900965351466e-01
    1.0662273960203101e-02 -4.3852900965351466e-01
    1.0055582795130340e-02 -4.7974861141928304e-01
    9.1160518893080213e-03 -5.6990027617674022e-01
    8.6976853029394202e-03 -6.2960018773535675e-01
    8.8909294417890139e-03 -5.9970753105744612e-01
    8.1328179717177918e-03 -7.6264844657366526e-01
    8.0766245622719366e-03 -7.8395365509278248e-01
    8.0510790331404618e-03 -7.9471941423902615e-01
    8.5841906188963424e-03 -6.4962939328809088e-01
    8.2671058269926049e-03 -7.2083829194712934e-01
    8.1635659754205198e-03 -7.5210143309035493e-01
    8.1038548527574972e-03 -7.7326460175666700e-01
    8.4341349392367485e-03 -6.7990010365008491e-01
    8.5841906188963424e-03 -6.4962939328809088e-01
    8.6395061529724489e-03 -6.3960214906683133e-01
    9.1991913383657233e-03 -5.5996367920955226e-01
    9.1160518893080213e-03 -5.6990027617674022e-01
    8.7588739945251397e-03 -6.1961969903205261e-01
    9.2868148391746907e-03 -5.5001909821692685e-01
    9.8039215686274508e-03 -5.0000000000000000e-01
    1.1957634184462572e-02 -3.7377250079820101e-01
    1.4673471605042447e-02 -2.8968272975116055e-01
    1.5962742818240783e-02 -2.6261286571944514e-01
    1.8884767398075687e-02 -2.1747941810042001e-01
    2.4732786492064653e-02 -1.6275769175423191e-01
    3.4748079342599832e-02 -1.1433239009500590e-01
    4.8981395852523119e-02 -8.0582296402538042e-02
    3.4748079342599832e-02 -1.1433239009500590e-01
    2.8464862901012265e-02 -1.4048787173725408e-01
    3.4748079342599832e-02 -1.1433239009500590e-01
    2.0329315612559004e-02 -2.0067001862719533e-01
    2.0329315612559004e-02 -2.0067001862719533e-01
    2.0329315612559004e-02 -2.0067001862719533e-01
    1.5272633467174302e-02 -2.7638539919628335e-01
    1.2889145500038774e-02 -3.3927557187198837e-01
    1.2889145500038774e-02 -3.3927557187198837e-01
    1.2240382283160448e-02 -3.6247325599810615e-01
    1.1957634184462572e-02 -3.7377250079820101e-01
    1.2240382283160448e-02 -3.6247325599810615e-01
    1.1031654052872283e-02 -4.1742355496836087e-01
    1.1458544908681249e-02 -3.9587424507089086e-01
    1.0193202253956700e-02 -4.6954492963387634e-01
    1.0193202253956700e-02 -4.6954492963387634e-01
    9.0371235475253074e-03 -5.7983350761380115e-01
    8.3890322900443074e-03 -6.9006555934235436e-01
    9.1160518893080213e-03 -5.6990027617674022e-01
    9.0371235475253074e-03 -5.7983350761380115e-01
    8.1961551907296093e-03 -7.4161984870956621e-01
    8.8232310245018701e-03 -6.0965680175751624e-01
    8.1961551907296093e-03 -7.4161984870956621e-01
    8.8232310245018701e-03 -6.0965680175751624e-01
    8.1635659754205198e-03 -7.5210143309035493e-01
    8.6976853029394202e-03 -6.2960018773535675e-01
    9.0371235475253074e-03 -5.7983350761380115e-01
    9.3792232329899007e-03 -5.4006172486732174e-01
    9.8039215686274508e-03 -5.0000000000000000e-01
    9.4767489116181353e-03 -5.3008653589502730e-01
    9.1160518893080213e-03 -5.6990027617674022e-01
    9.9260368661801979e-03 -4.8989794855663554e-01
    1.2549531524252625e-02 -3.5098205908151697e-01
    1.4147368615281921e-02 -3.0257114167522303e-01
    1.8884767398075687e-02 -2.1747941810042001e-01
    1.8884767398075687e-02 -2.1747941810042001e-01
    2.0329315612559004e-02 -2.0067001862719533e-01
    2.8464862901012265e-02 -1.4048787173725408e-01
    4.8981395852523119e-02 -8.0582296402538042e-02
    4.8981395852523119e-02 -8.0582296402538042e-02
    3.4748079342599832e-02 -1.1433239009500590e-01
    3.4748079342599832e-02 -1.1433239009500590e-01
    2.8464862901012265e-02 -1.4048787173725408e-01
    4.8981395852523119e-02 -8.0582296402538042e-02
    2.8464862901012265e-02 -1.4048787173725408e-01
    2.4732786492064653e-02 -1.6275769175423191e-01
    2.2195293179947909e-02 -1.8257418583505539e-01
    2.0329315612559004e-02 -2.0067001862719533e-01
    1.5962742818240783e-02 -2.6261286571944514e-01
    1.4673471605042447e-02 -2.8968272975116055e-01
    1.3681003171369270e-02 -3.1510439562444059e-01
    1.4147368615281921e-02 -3.0257114167522303e-01
    1.4673471605042447e-02 -2.8968272975116055e-01
    1.5272633467174302e-02 -2.7638539919628335e-01
    1.2240382283160448e-02 -3.6247325599810615e-01
    1.1957634184462572e-02 -3.7377250079820101e-01
    1.2549531524252625e-02 -3.5098205908151697e-01
    1.2549531524252625e-02 -3.5098205908151697e-01
    1.1458544908681249e-02 -3.9587424507089086e-01
    8.6395061529724489e-03 -6.3960214906683133e-01
    8.6395061529724489e-03 -6.3960214906683133e-01
    9.8039215686274508e-03 -5.0000000000000000e-01
    9.0371235475253074e-03 -5.7983350761380115e-01
    8.9621581192192382e-03 -5.8976782461958865e-01
    9.8039215686274508e-03 -5.0000000000000000e-01
    9.9260368661801979e-03 -4.8989794855663554e-01
    1.0055582795130340e-02 -4.7974861141928304e-01
    1.0055582795130340e-02 -4.7974861141928304e-01
    1.0495665679906415e-02 -4.4894363521148084e-01
    1.0339621735604373e-02 -4.5927932677184585e-01
    1.2240382283160448e-02 -3.6247325599810615e-01
    1.2889145500038774e-02 -3.3927557187198837e-01
    1.7725065832464641e-02 -2.3328473740792174e-01
    1.8884767398075687e-02 -2.1747941810042001e-01
    2.2195293179947909e-02 -1.8257418583505539e-01
    2.8464862901012265e-02 -1.4048787173725408e-01
    2.8464862901012265e-02 -1.4048787173725408e-01
    2.8464862901012265e-02 -1.4048787173725408e-01
    3.4748079342599832e-02 -1.1433239009500590e-01</input_scale>
  <output_scale>
    1.0526315789473684e+00 0.</output_scale>
  <inv_output_scale>
    9.4999999999999996e-01 0.</inv_output_scale>
  <weights>
    <_>
      -3.0311438797356840e-02 -4.1569797503421841e-03
      -4.0906778252344615e-03 -5.7298617195075709e-03
      3.5503375473783876e-03 -5.6400130737897097e-03
      6.9531943833876179e-03 3.5605397040832207e-03
      4.5583076165907847e-03 -3.6874354943008999e-03
      -7.5858837942772497e-03 -3.5584320398799290e-03
      -6.3456275154835165e-03 2.9753181445697214e-03
      5.0837959631282667e-03 -8.2347602738406661e-03
      6.2917098562930091e-03 -2.4194835909912265e-03
      3.6019281165935104e-03 -3.3692432321073829e-03
      3.7487076670900754e-03 -6.8750056044512616e-03
      -5.8759205041894903e-03 -2.1495963706671057e-03
      -7.9958135558106710e-03 5.4791946131669943e-03
      -3.3206964561530647e-03 3.3878053110953693e-03
      -4.7806215206435123e-03 -7.2324717290516045e-03
      4.7421361224886244e-03 3.6766314607075599e-03
      -3.2386125661282186e-03 -4.0572078047591163e-03
      -2.4271418282816827e-03 -5.5734425395544962e-03
      -2.2254839044931118e-03 -3.5201754047647655e-03
      4.9144897835530109e-03 3.0662616743345156e-03
      7.7802570926218631e-02 2.5677784266930119e-02
      2.1812629464445076e-02 1.0566355300403153e-02
      -2.0669551706369100e-02 4.1910225201683545e-03
      -1.0753354312419607e-02 -1.7878517208075921e-02
      -1.6314755279584646e-03 2.9466328874760514e-02
      8.1288419138268175e-03 1.9094122888600448e-02
      9.7711485955941403e-03 -1.3709431259817268e-02
      -2.2470118788125511e-03 8.4561720629326362e-03
      -2.4346070928529819e-03 1.6567921268745848e-02
      -3.1518911680125224e-02 3.1477151488218467e-02
      -1.7123450890807634e-02 4.7028192864255382e-03
      2.4960192267396283e-03 2.3146745980534365e-02
      7.9523459519642951e-03 -4.3292291503684733e-03
      2.7546650892218787e-02 -2.9259781766361528e-02
      1.0657161987845002e-02 7.5261338099002779e-03
      -2.2822274078259056e-02 -2.6353842148579960e-02
      2.9739491252871838e-02 1.1753763088255308e-02
      1.4747065100379063e-02 3.7709954737243211e-03
      2.2595252922614103e-02 1.2315968934417970e-02
      -2.4930942391618364e-02 -2.1445802282024175e-02
      1.3849130093813913e-01 4.0287392853890727e-02
      3.4439363987133223e-02 1.9659171517259044e-02
      -3.1406450304522611e-02 1.5247344235170893e-02
      -1.9577032332521494e-02 -2.9129597404188492e-02
      -9.4603352513392917e-03 4.5332875060401186e-02
      1.7932889801552238e-02 2.7797799777675946e-02
      1.9843006570431830e-02 -2.4087053319101132e-02
      -6.3785529093346059e-03 1.7084464929189122e-02
      -8.1079247964683521e-03 2.6995397310596355e-02
      -4.7867341068601542e-02 4.7212008548192567e-02
      -2.7187317581017549e-02 1.2366873004228207e-02
      8.1029132866773639e-03 3.5095720215858384e-02
      1.7259327089693324e-02 -9.4698139886178617e-03
      4.2416789182795345e-02 -4.5070001661287780e-02
      2.1166923414919523e-02 1.7640515185262391e-02
      -3.4882905600816007e-02 -4.2361682601162874e-02
      4.6043266577952491e-02 1.9750456575595706e-02
      2.4986329235706747e-02 1.2712442777265775e-02
      3.2633664547025848e-02 2.2172609506217258e-02
      -3.8764340992451803e-02 -3.2212251484370902e-02
      -5.6608375907186883e-04 9.8280077323760939e-04
      5.8674145612284837e-04 -2.3404810589499834e-05
      5.1210201631407039e-04 -3.6144653169046793e-04
      1.0328318839991015e-03 -7.3189054801951596e-04
      3.4695438364743398e-04 -4.4022363701253322e-04
      1.6853111414949609e-04 5.4427262316709827e-04
      4.0928371062340927e-04 -5.0198130336476655e-04
      -5.3837339186742325e-04 5.4130025805742177e-04
      7.2451646606574787e-04 7.2928225531841261e-04
      -8.9596085780997226e-04 -1.0633593111381934e-03
      4.7189397411756106e-04 -4.9248951343733988e-04
      9.9480067882329781e-04 -2.5035076196965137e-04
      1.2025051274339787e-03 7.9488783461768411e-05
      -2.3343960668910767e-04 -8.4511454584403696e-04
      1.2165178234286608e-03 4.8608291870555205e-04
      8.1330602239910749e-04 1.0184280383176761e-03
      1.0704245511725459e-03 -7.2497964613305542e-04
      4.9328224232276271e-04 1.8830881034114335e-04
      9.4414942372186774e-04 6.1239348253836216e-04
      8.3569334300787762e-04 -7.7516820246783386e-04
      2.8535416103099415e-01 9.7980846659743673e-02
      8.0516517039277424e-02 2.9996726479009576e-02
      -7.2498650280671678e-02 1.4063165103864479e-02
      -2.6883662904317415e-02 -6.1553358974819117e-02
      -6.0626892457189500e-03 1.1754870139313740e-01
      2.5198506077992691e-02 6.0874376043734336e-02
      2.7589921686992841e-02 -4.2164405179764247e-02
      -4.2404359628008285e-03 2.1240227177659211e-02
      -5.0755002625874051e-03 5.2240262054439622e-02
      -1.1894846340964552e-01 1.1889337647306976e-01
      -5.8940823160145636e-02 9.0230240522885443e-03
      4.4913803849765208e-03 8.1504872326948086e-02
      2.2460922731496868e-02 -7.1672599934032829e-03
      1.0334188988335323e-01 -1.0685431356698621e-01
      2.8073891235281635e-02 2.2522264401964188e-02
      -8.5247162812018107e-02 -1.0041460268479725e-01
      1.2173840350349412e-01 3.2167624203717778e-02
      4.4388070520429555e-02 9.5525007410129058e-03
      7.9139248102620852e-02 3.8422978366844038e-02
      -9.1245137131443860e-02 -7.4287668717050170e-02
      2.8577992519696083e-01 9.6609854007290608e-02
      8.1367284109431698e-02 3.0626655132819418e-02
      -7.1354564061921616e-02 1.2713764081071876e-02
      -2.7394490967882545e-02 -6.2010869552946928e-02
      -5.9098240953967505e-03 1.1776287564512895e-01
      2.3957881747303875e-02 6.0466097059885864e-02
      2.7783796697854711e-02 -4.2570602578665399e-02
      -2.6408586912389531e-03 2.1698525398092004e-02
      -5.7752437497262414e-03 5.0842668172099259e-02
      -1.2087208092459190e-01 1.1874158238472383e-01
      -5.8931238881657744e-02 1.0413608539436847e-02
      5.9189515465390002e-03 8.1617716553025244e-02
      2.0470523117662662e-02 -7.8625744293049690e-03
      1.0494346241258364e-01 -1.0761070269129284e-01
      2.8567827933146928e-02 2.2797099315994929e-02
      -8.5894146459032122e-02 -1.0051326970341264e-01
      1.2321544087617337e-01 3.3066644963759960e-02
      4.5597812056380978e-02 9.4586744720790115e-03
      7.9918141035798626e-02 3.8409771638834488e-02
      -9.0189486575255884e-02 -7.5713321272033923e-02
      9.1600288789864925e-02 4.3733729367233770e-02
      3.8292252335485097e-02 9.8197259010407503e-03
      -3.4172799736197072e-02 -5.2768221162429602e-04
      -7.4841441083502757e-03 -2.9319781764889759e-02
      3.4256957949957843e-03 4.2677356412691464e-02
      5.1788087841913534e-03 2.8231582927876486e-02
      6.0520236757580191e-03 -1.6187128546411262e-02
      3.4696522317025692e-03 4.6759621944421582e-03
      1.2984279170887565e-03 2.1561757320259715e-02
      -4.8871490349661220e-02 4.5995836612602370e-02
      -2.6194976215022380e-02 -2.0907481792255600e-04
      -1.6286396737012717e-03 3.7149124374702545e-02
      2.6727754175371724e-03 2.9996229635374442e-03
      4.2747185598420577e-02 -4.1118323857171485e-02
      7.0504507365872840e-03 4.4038488918498762e-03
      -3.9057874786196135e-02 -4.4069049934971266e-02
      4.2801909701206627e-02 9.3815960703410878e-03
      1.9757213758383230e-02 -3.7754025686423436e-04
      3.6217296095317292e-02 1.4433273041372104e-02
      -4.2443479185609950e-02 -3.4320584441633377e-02
      1.0388618955806454e-01 3.4070771045375065e-02
      2.9598969619714428e-02 1.4186096485136353e-02
      -3.0602390258547798e-02 7.5347212685328794e-03
      -1.1923999973203345e-02 -2.7130434803906561e-02
      -1.7397389205987351e-03 3.3234218330384063e-02
      1.2757032461245824e-02 2.8433459098202902e-02
      1.1271980653768374e-02 -1.9642537823965550e-02
      -1.0733244539355442e-03 9.3189038641057938e-03
      -4.2608653870239103e-03 2.4523126374160542e-02
      -3.8466328721625649e-02 3.5862490122124592e-02
      -2.6169383860363188e-02 4.2095510225472563e-03
      3.4781122982737852e-03 3.1625926089211283e-02
      9.9623014270947240e-03 -5.0862225969550657e-03
      3.2109105737382092e-02 -3.3402342068350063e-02
      1.4339850916397910e-02 1.0364741554215053e-02
      -3.2323661614013323e-02 -3.5369878032176706e-02
      3.3727745285931067e-02 1.5211091552070767e-02
      2.2097696069454775e-02 5.3729467201386761e-03
      3.1147890345693367e-02 1.7880222618983577e-02
      -3.1606776955372562e-02 -2.9304203538096478e-02
      9.5519028882724261e-02 2.4586982619413923e-02
      2.1925271106805932e-02 1.4959362972679699e-02
      -2.2552702330725354e-02 8.6586082913420858e-03
      -1.3787970478721401e-02 -2.1575167653136201e-02
      -4.8697022449382650e-03 2.2584724531626042e-02
      1.1086468209879826e-02 2.1176395899152035e-02
      1.2223456164114310e-02 -1.8843022785749425e-02
      -3.8977366072750434e-03 9.9809907155597611e-03
      -4.8471841665120507e-03 1.8777790390798136e-02
      -2.6886615897322094e-02 2.4341845538239343e-02
      -2.0216776663990674e-02 5.3257981152904834e-03
      5.7601454260144134e-03 2.0977206940879636e-02
      9.9935405508208772e-03 -6.1627422186884906e-03
      2.3377329936666680e-02 -2.2156162141156715e-02
      1.2206501559558667e-02 1.2057618721643555e-02
      -2.2063469440796176e-02 -2.3790463596472917e-02
      2.1987336713912859e-02 1.4654561393754569e-02
      1.7660322287627078e-02 6.1590279239485870e-03
      2.2706177834410597e-02 1.5651116167605977e-02
      -2.3566007072430339e-02 -2.0664837858380535e-02
      9.0301521321812420e-02 3.0357377500507762e-02
      2.8091806532864513e-02 8.9271610750868632e-03
      -2.6103795050216046e-02 -2.5171439890814831e-05
      -7.2273870916644469e-03 -2.3755327865407381e-02
      9.4579949176668108e-04 3.3333256296639996e-02
      5.5707044508998211e-03 2.3978238750020989e-02
      5.5921425428958173e-03 -1.5370954913755303e-02
      3.5177041631466750e-03 2.3650607812175568e-03
      2.3686573705126758e-03 2.1162910711508456e-02
      -3.5573488737191225e-02 3.5192886054779576e-02
      -2.2146694896193538e-02 -8.0815316605719982e-04
      -3.3001332870596146e-03 2.7925336175351142e-02
      4.2716210097851655e-03 2.0716865414701475e-03
      3.0698504727160014e-02 -3.0026626674140203e-02
      7.7586114346620853e-03 3.8720991171969140e-03
      -2.8172834048123995e-02 -3.2217329644664790e-02
      3.2718614239488443e-02 1.0791955944162776e-02
      1.7676059781552587e-02 -2.5415764467502690e-03
      2.8006984238730350e-02 1.4479847020546260e-02
      -3.0493358790986674e-02 -2.6634695661563946e-02
      1.0117277147020499e-01 2.4403077107809167e-02
      2.4083804902159729e-02 1.0355196741137071e-02
      -2.1368382041990177e-02 2.8785190941231866e-03
      -9.5971149808663572e-03 -2.1022734431533185e-02
      1.0441151636479916e-03 9.2611227758479468e-03
      8.3266925021140952e-03 1.9696163353591780e-02
      8.8072314902569605e-03 -1.4283389510796420e-02
      5.7752184496499912e-04 4.5550198987472116e-03
      -2.1439074511346199e-04 1.6751643079852392e-02
      -1.9926899759535929e-02 1.1180299682901252e-02
      -2.0415638423178565e-02 1.7236917675302295e-03
      8.2791652160904528e-04 2.4996561185044661e-02
      5.0949836661023330e-03 3.0086795290938868e-04
      2.1630279045422796e-02 -1.8766396821732791e-02
      9.0239381405088585e-03 6.1301333078918885e-03
      -2.4242570351361681e-02 -2.3338883497155790e-02
      9.3322175950220181e-03 1.0556962756845154e-02
      1.5400783464568742e-02 -1.0301566043531184e-04
      2.4716375634412823e-02 1.4149673256276725e-02
      -2.5000959130875276e-02 -2.2552383804815702e-02
      8.5758065193012753e-02 2.0165608533662591e-02
      2.0426061105599313e-02 9.4105158515281756e-03
      -1.9862789031784754e-02 1.4200899725119959e-03
      -8.4292602793067887e-03 -1.6596733790075473e-02
      2.4970811332729993e-04 4.7468707561364289e-03
      7.0629249991376562e-03 1.6721626479883338e-02
      8.3282239990146514e-03 -1.5013039888581303e-02
      -9.6411307403272863e-05 5.7399313101411317e-03
      -7.7587150344844984e-04 1.6557375075707370e-02
      -1.3956417530361831e-02 9.7741345341361870e-03
      -1.6522133894940741e-02 9.9251469284271756e-04
      -1.1189512537226028e-03 2.0881400915980630e-02
      5.2012538985694899e-03 3.9608421846007197e-04
      1.7208103045818501e-02 -1.4586106899852971e-02
      9.1804973909195182e-03 4.4665859645889629e-03
      -1.8646894656641287e-02 -1.7452887868556269e-02
      6.6997831021364997e-03 9.5732107721656252e-03
      1.5968181174687263e-02 4.9124864024025340e-04
      2.0397970635568981e-02 1.1256522648577861e-02
      -1.8554133162055501e-02 -1.8425660858417424e-02
      5.9821741793963407e-02 5.7803647522238983e-03
      7.5672028845737453e-03 9.1648201874959066e-03
      -8.0341798099053934e-03 2.6994171940924621e-03
      -7.0049898680987236e-03 -8.9754669382613918e-03
      -1.0471291723801273e-03 -3.7488519059604938e-03
      5.2587067464441948e-03 1.0938879528655429e-02
      6.1326553232433625e-03 -9.8217615727021809e-03
      -1.3855932853280076e-03 5.6810175498680322e-03
      -2.8940705984912612e-03 1.0563485638484249e-02
      -4.8297944712319329e-03 -6.8088599484397282e-04
      -9.4675846404428249e-03 1.7126398377985119e-03
      2.6066698470061074e-03 8.9685498219145097e-03
      4.0202833976288096e-03 -2.6547351546579623e-03
      4.3264068713099986e-03 -2.4812317033660112e-03
      7.3559058052727255e-03 4.9509246766154822e-03
      -8.0781974976744230e-03 -6.0818969302947985e-03
      -2.1145127171520901e-03 8.3514568497578771e-03
      1.0328827940748091e-02 2.3266652842962266e-03
      7.4736596675686832e-03 9.1017475782365145e-03
      -6.4421756088605103e-03 -9.4408144149724389e-03
      8.3008741342003214e-02 1.9282724802639747e-02
      1.8816169314929028e-02 6.0087720607590522e-03
      -1.7307399991123469e-02 7.5829843231141705e-04
      -5.2451626390747352e-03 -1.3841673887804058e-02
      1.7482880814842565e-04 1.2836183100696844e-02
      3.5946825773951687e-03 1.4391815350378954e-02
      5.4315496209494689e-03 -1.1561115947261837e-02
      1.5213268044989463e-03 1.8778462991584205e-03
      -6.5721644526236687e-04 1.2062041898053261e-02
      -1.9589323997883337e-02 1.6251924753640113e-02
      -1.5537960090169906e-02 1.1805849706449999e-03
      -6.8078433053180942e-04 1.9250051476259262e-02
      2.6331756951541115e-03 -3.3287201646486041e-04
      1.9963976318013121e-02 -1.7291461484883766e-02
      5.6106471181809692e-03 2.6979884886938589e-03
      -1.9705111605430783e-02 -1.9764909822499382e-02
      1.2869969353903967e-02 7.6740579955054409e-03
      1.1647131421300912e-02 6.5437494797479021e-05
      1.7625780737578842e-02 8.4156229907567763e-03
      -2.0786564644998406e-02 -1.6921039727470832e-02
      1.3785210944507481e-01 4.6219438297854937e-02
      4.0062519500062461e-02 1.4056832505191989e-02
      -3.7653760532994837e-02 1.6758756065169563e-03
      -1.0426336207240853e-02 -3.1792387678991299e-02
      2.4578498877452599e-03 3.7391283487092968e-02
      9.2283384609035818e-03 3.2677280248216381e-02
      1.0906375176137639e-02 -2.0198200351288585e-02
      1.5355829919556012e-03 5.5533420417993038e-03
      1.1933689487483401e-03 2.6902856717084027e-02
      -4.5342016256326861e-02 4.0240444113699647e-02
      -2.9913376586324533e-02 -5.8166902206734593e-04
      -1.2857538236394537e-03 4.2331748554082810e-02
      5.5568006557222809e-03 1.7042964177704969e-03
      4.5326555236359589e-02 -4.2677671936760614e-02
      1.1186997280654091e-02 6.5678203101683704e-03
      -4.2578006022962918e-02 -4.5432573211573658e-02
      3.8940882692199884e-02 1.5111368970449894e-02
      2.4262488354421581e-02 -1.7665010160847516e-03
      4.0342948278998467e-02 1.9670614351992514e-02
      -4.4640251781689386e-02 -3.9506221123977357e-02
      1.6468353854768261e-01 5.0792709093664991e-02
      4.2992198964273164e-02 1.7212242333568804e-02
      -3.9852005282719927e-02 7.9955420223439995e-03
      -1.5877411201351960e-02 -3.5582041875384177e-02
      -3.8866285660891205e-03 5.4340734672685895e-02
      1.4299884735038813e-02 3.4607207977771816e-02
      1.5876490425952145e-02 -2.5864520887335318e-02
      -7.5186225970316311e-04 1.0901182423602171e-02
      -3.1468783097402301e-03 3.0062520846834605e-02
      -6.0742476557901187e-02 5.6309620602133154e-02
      -3.4049352822741422e-02 6.4141930653531772e-03
      2.1550599383924440e-03 4.3966272556031138e-02
      1.1026956088892918e-02 -4.8022998999414377e-03
      5.3131367889427634e-02 -5.3351684175233123e-02
      1.7845001732244254e-02 1.1465480434698435e-02
      -4.6478043483661323e-02 -5.3450276109570719e-02
      5.7055728892324020e-02 2.0007897639740299e-02
      2.7441483152158296e-02 4.5001555742487463e-03
      4.2754346040064083e-02 2.3249143752685518e-02
      -4.8654730511378155e-02 -4.1054128255951422e-02
      1.7172185157770237e-01 7.6172775202288961e-02
      6.2206405247121004e-02 1.3119132743776829e-02
      -5.1890950299938773e-02 -3.1976365332885503e-03
      -9.1294012358726362e-03 -4.4158144018603122e-02
      4.7344713656544803e-03 8.7288162392177335e-02
      5.5855474560866361e-03 4.3562833222446716e-02
      8.2641346613498961e-03 -2.2522926321020709e-02
      4.3620294107934651e-03 4.0666808886744643e-03
      4.8132733301981421e-03 3.4920085912763514e-02
      -9.1242518860668489e-02 9.1205890154798477e-02
      -3.9481598980764705e-02 -4.2980715224251913e-03
      -5.5473777303136143e-03 6.1783952878717664e-02
      3.6848147213466589e-03 3.1407412293905273e-03
      8.0145617643200037e-02 -8.2323802689184392e-02
      9.4633785237749207e-03 4.6247904557121045e-03
      -6.7870136153851179e-02 -7.7629556767600749e-02
      9.1089968766283336e-02 1.3636561273178157e-02
      2.7815568666713430e-02 -3.1853178074874857e-03
