<?xml version="1.0"?>
<opencv_storage>
<shapeML type_id="opencv-ml-ann-mlp">
  <layer_sizes type_id="opencv-matrix">
    <rows>1</rows>
    <cols>3</cols>
    <dt>i</dt>
    <data>
      1600 40 1</data></layer_sizes>
  <activation_function>SIGMOID_SYM</activation_function>
  <f_param1>5.9999999999999998e-01</f_param1>
  <f_param2>1.</f_param2>
  <min_val>-9.4999999999999996e-01</min_val>
  <max_val>9.4999999999999996e-01</max_val>
  <min_val1>-9.7999999999999998e-01</min_val1>
  <max_val1>9.7999999999999998e-01</max_val1>
  <training_params>
    <train_method>BACKPROP</train_method>
    <dw_scale>1.0000000000000001e-01</dw_scale>
    <moment_scale>1.0000000000000001e-01</moment_scale>
    <term_criteria><epsilon>9.9999999747524271e-07</epsilon>
      <iterations>4000</iterations></term_criteria></training_params>
  <input_scale>
    5.1431769840353074e-02 -7.6696498884737035e-02
    3.6475191427722362e-02 -1.0878565864408424e-01
    5.1431769840353074e-02 -7.6696498884737035e-02 1. 0.
    5.1431769840353074e-02 -7.6696498884737035e-02
    5.1431769840353074e-02 -7.6696498884737035e-02
    3.6475191427722362e-02 -1.0878565864408424e-01
    2.9870374096094485e-02 -1.3363062095621217e-01
    2.3276457450903253e-02 -1.7355253362515582e-01
    2.1312693171372063e-02 -1.9069251784911848e-01
    1.9791785975149676e-02 -2.0659846763533432e-01
    1.7562129205940396e-02 -2.3570226039551584e-01
    2.1312693171372063e-02 -1.9069251784911848e-01
    1.6712560481127018e-02 -2.4922239313961342e-01
    1.6712560481127018e-02 -2.4922239313961342e-01
    1.7562129205940396e-02 -2.3570226039551584e-01
    1.5984519878529047e-02 -2.6220221204253791e-01
    1.4796387972658356e-02 -2.8684225806644709e-01
    1.3862705630558591e-02 -3.1008683647302110e-01
    1.1289940203818826e-02 -4.0406101782088433e-01
    9.6191743239138448e-03 -5.1639777949432220e-01
    1.0754563837845970e-02 -4.3301270189221930e-01
    1.1948149638437797e-02 -3.7416573867739417e-01
    1.4303492280140651e-02 -2.9861676865556797e-01
    1.4303492280140651e-02 -2.9861676865556797e-01
    1.5984519878529047e-02 -2.6220221204253791e-01
    2.1312693171372063e-02 -1.9069251784911848e-01
    1.7562129205940396e-02 -2.3570226039551584e-01
    1.9791785975149676e-02 -2.0659846763533432e-01
    2.9870374096094485e-02 -1.3363062095621217e-01
    2.9870374096094485e-02 -1.3363062095621217e-01
    2.3276457450903253e-02 -1.7355253362515582e-01
    2.1312693171372063e-02 -1.9069251784911848e-01
    2.9870374096094485e-02 -1.3363062095621217e-01
    3.6475191427722362e-02 -1.0878565864408424e-01
    2.9870374096094485e-02 -1.3363062095621217e-01
    3.6475191427722362e-02 -1.0878565864408424e-01
    5.1431769840353074e-02 -7.6696498884737035e-02 1. 0. 1. 0.
    5.1431769840353074e-02 -7.6696498884737035e-02
    3.6475191427722362e-02 -1.0878565864408424e-01
    5.1431769840353074e-02 -7.6696498884737035e-02 1. 0.
    3.6475191427722362e-02 -1.0878565864408424e-01
    3.6475191427722362e-02 -1.0878565864408424e-01
    3.6475191427722362e-02 -1.0878565864408424e-01
    2.5945837796732825e-02 -1.5476464650682736e-01
    1.7562129205940396e-02 -2.3570226039551584e-01
    1.6712560481127018e-02 -2.4922239313961342e-01
    1.6712560481127018e-02 -2.4922239313961342e-01
    1.3862705630558591e-02 -3.1008683647302110e-01
    1.4796387972658356e-02 -2.8684225806644709e-01
    1.2478354962115544e-02 -3.5355339059327373e-01
    1.1099655447137639e-02 -4.1380294430118392e-01
    9.7196908918204591e-03 -5.0729965619589235e-01
    1.0054802412509360e-02 -4.7980811512325366e-01
    9.8255345667450159e-03 -4.9817184031391393e-01
    8.8434557608376152e-03 -6.0663003552412420e-01
    9.6191743239138448e-03 -5.1639777949432220e-01
    8.8434557608376152e-03 -6.0663003552412420e-01
    8.7840774919258902e-03 -6.1565595754813918e-01
    8.8434557608376152e-03 -6.0663003552412420e-01
    9.4327497145561545e-03 -5.3452248382484868e-01
    1.1099655447137639e-02 -4.1380294430118392e-01
    1.2478354962115544e-02 -3.5355339059327373e-01
    1.3106028524901159e-02 -3.3224931962249432e-01
    1.3106028524901159e-02 -3.3224931962249432e-01
    1.3106028524901159e-02 -3.3224931962249432e-01
    1.7562129205940396e-02 -2.3570226039551584e-01
    1.8570223653198555e-02 -2.2153951024868451e-01
    1.9791785975149676e-02 -2.0659846763533432e-01
    1.7562129205940396e-02 -2.3570226039551584e-01
    1.7562129205940396e-02 -2.3570226039551584e-01
    2.1312693171372063e-02 -1.9069251784911848e-01
    2.1312693171372063e-02 -1.9069251784911848e-01
    2.9870374096094485e-02 -1.3363062095621217e-01
    5.1431769840353074e-02 -7.6696498884737035e-02
    5.1431769840353074e-02 -7.6696498884737035e-02
    5.1431769840353074e-02 -7.6696498884737035e-02
    5.1431769840353074e-02 -7.6696498884737035e-02
    3.6475191427722362e-02 -1.0878565864408424e-01
    3.6475191427722362e-02 -1.0878565864408424e-01
    3.6475191427722362e-02 -1.0878565864408424e-01
    2.9870374096094485e-02 -1.3363062095621217e-01
    2.3276457450903253e-02 -1.7355253362515582e-01
    1.9791785975149676e-02 -2.0659846763533432e-01
    1.7562129205940396e-02 -2.3570226039551584e-01
    1.4303492280140651e-02 -2.9861676865556797e-01
    1.3465735808071306e-02 -3.2128773156099955e-01
    1.3106028524901159e-02 -3.3224931962249432e-01
    1.2202602335020537e-02 -3.6393726262341952e-01
    1.0449915022217105e-02 -4.5191299175026606e-01
    9.1103786899089569e-03 -5.7059740215745569e-01
    8.9707288785949146e-03 -5.8860571940254358e-01
    8.6731723099555576e-03 -6.3375022229762978e-01
    8.7840774919258902e-03 -6.1565595754813918e-01
    8.6731723099555576e-03 -6.3375022229762978e-01
    8.1864322098888515e-03 -7.4467808786445078e-01
    9.1852784298537202e-03 -5.6159114610596861e-01
    9.2638238081604839e-03 -5.5257896399553763e-01
    9.1103786899089569e-03 -5.7059740215745569e-01
    8.9707288785949146e-03 -5.8860571940254358e-01
    8.9707288785949146e-03 -5.8860571940254358e-01
    8.2832870447254008e-03 -7.1643166895607413e-01
    8.4365739799009097e-03 -6.7936622048675743e-01
    1.0054802412509360e-02 -4.7980811512325366e-01
    1.1712549931781635e-02 -3.8425383109529226e-01
    1.2478354962115544e-02 -3.5355339059327373e-01
    1.3106028524901159e-02 -3.3224931962249432e-01
    1.4796387972658356e-02 -2.8684225806644709e-01
    1.4303492280140651e-02 -2.9861676865556797e-01
    1.4303492280140651e-02 -2.9861676865556797e-01
    1.4796387972658356e-02 -2.8684225806644709e-01
    1.5984519878529047e-02 -2.6220221204253791e-01
    1.5352063029559361e-02 -2.7472112789737807e-01
    2.1312693171372063e-02 -1.9069251784911848e-01
    2.5945837796732825e-02 -1.5476464650682736e-01
    2.5945837796732825e-02 -1.5476464650682736e-01
    2.9870374096094485e-02 -1.3363062095621217e-01 1. 0.
    5.1431769840353074e-02 -7.6696498884737035e-02
    2.5945837796732825e-02 -1.5476464650682736e-01
    2.5945837796732825e-02 -1.5476464650682736e-01
    1.9791785975149676e-02 -2.0659846763533432e-01
    1.8570223653198555e-02 -2.2153951024868451e-01
    1.4303492280140651e-02 -2.9861676865556797e-01
    1.3106028524901159e-02 -3.3224931962249432e-01
    1.2478354962115544e-02 -3.5355339059327373e-01
    1.2478354962115544e-02 -3.5355339059327373e-01
    1.2202602335020537e-02 -3.6393726262341952e-01
    9.9370944294274750e-03 -4.8900964692182575e-01
    9.3462342294910149e-03 -5.4355730650460898e-01
    8.7273572820103385e-03 -6.2469504755442429e-01
    8.3562802405635073e-03 -6.9782270079091746e-01
    8.2171045998719692e-03 -7.3521462209380772e-01
    8.1864322098888515e-03 -7.4467808786445078e-01
    8.2171045998719692e-03 -7.3521462209380772e-01
    8.6214088829161938e-03 -6.4282434653322496e-01
    8.9056249322954830e-03 -5.9761430466719689e-01
    8.7273572820103385e-03 -6.2469504755442429e-01
    8.7840774919258902e-03 -6.1565595754813918e-01
    8.6214088829161938e-03 -6.4282434653322496e-01
    8.6731723099555576e-03 -6.3375022229762978e-01
    8.4796317344325509e-03 -6.7018843795822181e-01
    8.9707288785949146e-03 -5.8860571940254358e-01
    8.8434557608376152e-03 -6.0663003552412420e-01
    8.4796317344325509e-03 -6.7018843795822181e-01
    1.0921574556798238e-02 -4.2345052228989660e-01
    1.0921574556798238e-02 -4.2345052228989660e-01
    1.1712549931781635e-02 -3.8425383109529226e-01
    1.3106028524901159e-02 -3.3224931962249432e-01
    1.4303492280140651e-02 -2.9861676865556797e-01
    1.4796387972658356e-02 -2.8684225806644709e-01
    1.5352063029559361e-02 -2.7472112789737807e-01
    1.4796387972658356e-02 -2.8684225806644709e-01
    1.7562129205940396e-02 -2.3570226039551584e-01
    2.3276457450903253e-02 -1.7355253362515582e-01
    2.5945837796732825e-02 -1.5476464650682736e-01
    2.5945837796732825e-02 -1.5476464650682736e-01 1. 0.
    2.9870374096094485e-02 -1.3363062095621217e-01
    2.9870374096094485e-02 -1.3363062095621217e-01
    1.8570223653198555e-02 -2.2153951024868451e-01
    1.7562129205940396e-02 -2.3570226039551584e-01
    1.3862705630558591e-02 -3.1008683647302110e-01
    1.2478354962115544e-02 -3.5355339059327373e-01
    1.1099655447137639e-02 -4.1380294430118392e-01
    1.1289940203818826e-02 -4.0406101782088433e-01
    1.1099655447137639e-02 -4.1380294430118392e-01
    9.1103786899089569e-03 -5.7059740215745569e-01
    8.7273572820103385e-03 -6.2469504755442429e-01
    8.5247328418566228e-03 -6.6104068703519780e-01
    8.3189033080770299e-03 -7.0710678118654757e-01
    8.2171045998719692e-03 -7.3521462209380772e-01
    8.2493724659976481e-03 -7.2580005117505619e-01
    7.9752852087257887e-03 -8.3250784196348138e-01
    8.3562802405635073e-03 -6.9782270079091746e-01
    8.3954811448998991e-03 -6.8857674302468475e-01
    8.6731723099555576e-03 -6.3375022229762978e-01
    8.6214088829161938e-03 -6.4282434653322496e-01
    8.6731723099555576e-03 -6.3375022229762978e-01
    8.5719616400588457e-03 -6.5192024052026487e-01
    8.8434557608376152e-03 -6.0663003552412420e-01
    8.6214088829161938e-03 -6.4282434653322496e-01
    8.5719616400588457e-03 -6.5192024052026487e-01
    8.5247328418566228e-03 -6.6104068703519780e-01
    8.9707288785949146e-03 -5.8860571940254358e-01
    9.1852784298537202e-03 -5.6159114610596861e-01
    9.2638238081604839e-03 -5.5257896399553763e-01
    1.0054802412509360e-02 -4.7980811512325366e-01
    1.1493734323791317e-02 -3.9421492285986010e-01
    1.3862705630558591e-02 -3.1008683647302110e-01
    1.3862705630558591e-02 -3.1008683647302110e-01
    1.4796387972658356e-02 -2.8684225806644709e-01
    1.5984519878529047e-02 -2.6220221204253791e-01
    1.7562129205940396e-02 -2.3570226039551584e-01
    1.9791785975149676e-02 -2.0659846763533432e-01
    2.3276457450903253e-02 -1.7355253362515582e-01
    2.3276457450903253e-02 -1.7355253362515582e-01 1. 0.
    2.3276457450903253e-02 -1.7355253362515582e-01
    1.8570223653198555e-02 -2.2153951024868451e-01
    1.5352063029559361e-02 -2.7472112789737807e-01
    1.3106028524901159e-02 -3.3224931962249432e-01
    1.2478354962115544e-02 -3.5355339059327373e-01
    1.0921574556798238e-02 -4.2345052228989660e-01
    9.9370944294274750e-03 -4.8900964692182575e-01
    9.2638238081604839e-03 -5.5257896399553763e-01
    9.3462342294910149e-03 -5.4355730650460898e-01
    8.9056249322954830e-03 -5.9761430466719689e-01
    8.4796317344325509e-03 -6.7018843795822181e-01
    8.2493724659976481e-03 -7.2580005117505619e-01
    8.9707288785949146e-03 -5.8860571940254358e-01
    8.5719616400588457e-03 -6.5192024052026487e-01
    8.0334456339462724e-03 -8.0263987518112312e-01
    7.8464922060152396e-03 -9.7117548269188614e-01
    7.8920046264698458e-03 -8.9442719099991586e-01
    7.9029581426731770e-03 -8.8388347648318422e-01
    8.2493724659976481e-03 -7.2580005117505619e-01
    8.3954811448998991e-03 -6.8857674302468475e-01
    8.2171045998719692e-03 -7.3521462209380772e-01
    8.6731723099555576e-03 -6.3375022229762978e-01
    8.5719616400588457e-03 -6.5192024052026487e-01
    8.4365739799009097e-03 -6.7936622048675743e-01
    8.4796317344325509e-03 -6.7018843795822181e-01
    8.2493724659976481e-03 -7.2580005117505619e-01
    8.6731723099555576e-03 -6.3375022229762978e-01
    9.2638238081604839e-03 -5.5257896399553763e-01
    9.4327497145561545e-03 -5.3452248382484868e-01
    9.2638238081604839e-03 -5.5257896399553763e-01
    9.0389236361705736e-03 -5.7960115596848150e-01
    1.0754563837845970e-02 -4.3301270189221930e-01
    1.1099655447137639e-02 -4.1380294430118392e-01
    1.3465735808071306e-02 -3.2128773156099955e-01
    1.3465735808071306e-02 -3.2128773156099955e-01
    1.5984519878529047e-02 -2.6220221204253791e-01
    1.9791785975149676e-02 -2.0659846763533432e-01
    2.3276457450903253e-02 -1.7355253362515582e-01
    2.3276457450903253e-02 -1.7355253362515582e-01 1. 0.
    1.8570223653198555e-02 -2.2153951024868451e-01
    1.5352063029559361e-02 -2.7472112789737807e-01
    1.3106028524901159e-02 -3.3224931962249432e-01
    1.1948149638437797e-02 -3.7416573867739417e-01
    1.0921574556798238e-02 -4.2345052228989660e-01
    1.0310642913264010e-02 -4.6126560401444255e-01
    9.3462342294910149e-03 -5.4355730650460898e-01
    8.7273572820103385e-03 -6.2469504755442429e-01
    8.5719616400588457e-03 -6.5192024052026487e-01
    8.5247328418566228e-03 -6.6104068703519780e-01
    8.3562802405635073e-03 -6.9782270079091746e-01
    8.1864322098888515e-03 -7.4467808786445078e-01
    8.3562802405635073e-03 -6.9782270079091746e-01
    7.8443445414872540e-03 -9.8260736888103495e-01
    7.8497170128666478e-03 -9.5986890490667598e-01
    7.8432713703294188e-03 -9.9416904650228155e-01
    7.8920046264698458e-03 -8.9442719099991586e-01
    7.8594153422041884e-03 -9.3761446187699082e-01
    7.8497170128666478e-03 -9.5986890490667598e-01
    7.9029581426731770e-03 -8.8388347648318422e-01
    8.0127734021953004e-03 -8.1252333797699716e-01
    8.1864322098888515e-03 -7.4467808786445078e-01
    8.3954811448998991e-03 -6.8857674302468475e-01
    8.7840774919258902e-03 -6.1565595754813918e-01
    8.1296861068310897e-03 -7.6376261582597338e-01
    8.2171045998719692e-03 -7.3521462209380772e-01
    8.3562802405635073e-03 -6.9782270079091746e-01
    8.7840774919258902e-03 -6.1565595754813918e-01
    8.6214088829161938e-03 -6.4282434653322496e-01
    9.0389236361705736e-03 -5.7960115596848150e-01
    8.8434557608376152e-03 -6.0663003552412420e-01
    8.7273572820103385e-03 -6.2469504755442429e-01
    1.0449915022217105e-02 -4.5191299175026606e-01
    1.0754563837845970e-02 -4.3301270189221930e-01
    1.1712549931781635e-02 -3.8425383109529226e-01
    1.3465735808071306e-02 -3.2128773156099955e-01
    1.8570223653198555e-02 -2.2153951024868451e-01
    1.8570223653198555e-02 -2.2153951024868451e-01
    2.5945837796732825e-02 -1.5476464650682736e-01
    2.5945837796732825e-02 -1.5476464650682736e-01
    1.5984519878529047e-02 -2.6220221204253791e-01
    1.3106028524901159e-02 -3.3224931962249432e-01
    1.2202602335020537e-02 -3.6393726262341952e-01
    1.0921574556798238e-02 -4.2345052228989660e-01
    1.0054802412509360e-02 -4.7980811512325366e-01
    8.9056249322954830e-03 -5.9761430466719689e-01
    8.6731723099555576e-03 -6.3375022229762978e-01
    8.3954811448998991e-03 -6.8857674302468475e-01
    8.2493724659976481e-03 -7.2580005117505619e-01
    8.0554408429249977e-03 -7.9282496717209183e-01
    7.8464922060152414e-03 -1.0296800298420001e+00
    7.8443445414872522e-03 -1.0177004891982144e+00
    7.8594153422041867e-03 -1.0665364503850769e+00
    7.8432713703294188e-03 -1.0058651529317202e+00
    7.8432713703294188e-03 -9.9416904650228155e-01
    7.8734877175591703e-03 -9.1581093977925077e-01
    7.8734877175591703e-03 -9.1581093977925077e-01
    8.0554408429249977e-03 -7.9282496717209183e-01
    8.1035264522945332e-03 -7.7338919123653083e-01
    7.9584181784764282e-03 -8.4261497731763579e-01
    8.0127734021953004e-03 -8.1252333797699716e-01
    7.8821853039918906e-03 -9.0506847043205130e-01
    7.8821853039918906e-03 -9.0506847043205130e-01
    7.9150598466463384e-03 -8.7343379711237656e-01
    8.1035264522945332e-03 -7.7338919123653083e-01
    8.0787899957892022e-03 -7.8307569696026913e-01
    8.2171045998719692e-03 -7.3521462209380772e-01
    8.3954811448998991e-03 -6.8857674302468475e-01
    8.6214088829161938e-03 -6.4282434653322496e-01
    8.6731723099555576e-03 -6.3375022229762978e-01
    8.5719616400588457e-03 -6.5192024052026487e-01
    8.5719616400588457e-03 -6.5192024052026487e-01
    8.5719616400588457e-03 -6.5192024052026487e-01
    1.0179139476758303e-02 -4.7056197405716016e-01
    1.0449915022217105e-02 -4.5191299175026606e-01
    1.1948149638437797e-02 -3.7416573867739417e-01
    1.4796387972658356e-02 -2.8684225806644709e-01
    1.6712560481127018e-02 -2.4922239313961342e-01
    2.5945837796732825e-02 -1.5476464650682736e-01
    2.1312693171372063e-02 -1.9069251784911848e-01
    1.5352063029559361e-02 -2.7472112789737807e-01
    1.3465735808071306e-02 -3.2128773156099955e-01
    1.1948149638437797e-02 -3.7416573867739417e-01
    1.0921574556798238e-02 -4.2345052228989660e-01
    9.0389236361705736e-03 -5.7960115596848150e-01
    8.6214088829161938e-03 -6.4282434653322496e-01
    8.1573075440362283e-03 -7.5419317117668283e-01
    8.0334456339462724e-03 -8.0263987518112312e-01
    7.9584181784764282e-03 -8.4261497731763579e-01
    7.8432713703294188e-03 -9.9416904650228155e-01
    7.8594153422041867e-03 -1.0665364503850769e+00
    7.8497170128666478e-03 -9.5986890490667598e-01
    7.8594153422041884e-03 -9.3761446187699082e-01
    7.8659009012851527e-03 -9.2665832547596139e-01
    7.8464922060152396e-03 -9.7117548269188614e-01
    7.9752852087257887e-03 -8.3250784196348138e-01
    7.9584181784764282e-03 -8.4261497731763579e-01
    8.0127734021953004e-03 -8.1252333797699716e-01
    8.1573075440362283e-03 -7.5419317117668283e-01
    8.2493724659976481e-03 -7.2580005117505619e-01
    8.1035264522945332e-03 -7.7338919123653083e-01
    8.0787899957892022e-03 -7.8307569696026913e-01
    8.5247328418566228e-03 -6.6104068703519780e-01
    8.2171045998719692e-03 -7.3521462209380772e-01
    7.9029581426731770e-03 -8.8388347648318422e-01
    7.8920046264698458e-03 -8.9442719099991586e-01
    8.4796317344325509e-03 -6.7018843795822181e-01
    8.3562802405635073e-03 -6.9782270079091746e-01
    8.2832870447254008e-03 -7.1643166895607413e-01
    8.1864322098888515e-03 -7.4467808786445078e-01
    8.1573075440362283e-03 -7.5419317117668283e-01
    8.2832870447254008e-03 -7.1643166895607413e-01
    8.6731723099555576e-03 -6.3375022229762978e-01
    8.6731723099555576e-03 -6.3375022229762978e-01
    9.9370944294274750e-03 -4.8900964692182575e-01
    1.0754563837845970e-02 -4.3301270189221930e-01
    1.2478354962115544e-02 -3.5355339059327373e-01
    1.5984519878529047e-02 -2.6220221204253791e-01
    2.5945837796732825e-02 -1.5476464650682736e-01
    1.9791785975149676e-02 -2.0659846763533432e-01
    1.5352063029559361e-02 -2.7472112789737807e-01
    1.2778325951794775e-02 -3.4299717028501764e-01
    1.1099655447137639e-02 -4.1380294430118392e-01
    8.8434557608376152e-03 -6.0663003552412420e-01
    8.7273572820103385e-03 -6.2469504755442429e-01
    8.2493724659976481e-03 -7.2580005117505619e-01
    8.0334456339462724e-03 -8.0263987518112312e-01
    7.8920046264698458e-03 -8.9442719099991586e-01
    7.8734877175591703e-03 -9.1581093977925077e-01
    7.8497170128666461e-03 -1.0418089333743188e+00
    7.9283253193840296e-03 -1.1586482440433152e+00
    7.8464922060152414e-03 -1.0296800298420001e+00
    7.8432713703294188e-03 -9.9416904650228155e-01
    7.8594153422041884e-03 -9.3761446187699082e-01
    7.8920046264698458e-03 -8.9442719099991586e-01
    7.8540229468234257e-03 -9.4868329805051377e-01
    7.8821853039918906e-03 -9.0506847043205130e-01
    7.9933954454063996e-03 -8.2247832082997430e-01
    8.1573075440362283e-03 -7.5419317117668283e-01
    8.2493724659976481e-03 -7.2580005117505619e-01
    8.0127734021953004e-03 -8.1252333797699716e-01
    8.0127734021953004e-03 -8.1252333797699716e-01
    8.2832870447254008e-03 -7.1643166895607413e-01
    8.1864322098888515e-03 -7.4467808786445078e-01
    7.8594153422041884e-03 -9.3761446187699082e-01
    7.8659009012851527e-03 -9.2665832547596139e-01
    7.8443445414872540e-03 -9.8260736888103495e-01
    8.0787899957892022e-03 -7.8307569696026913e-01
    7.9427717857972514e-03 -8.5280286542244166e-01
    8.0127734021953004e-03 -8.1252333797699716e-01
    8.3189033080770299e-03 -7.0710678118654757e-01
    8.2171045998719692e-03 -7.3521462209380772e-01
    8.2832870447254008e-03 -7.1643166895607413e-01
    8.5247328418566228e-03 -6.6104068703519780e-01
    8.8434557608376152e-03 -6.0663003552412420e-01
    1.0310642913264010e-02 -4.6126560401444255e-01
    1.1099655447137639e-02 -4.1380294430118392e-01
    1.4796387972658356e-02 -2.8684225806644709e-01
    1.9791785975149676e-02 -2.0659846763533432e-01
    1.5984519878529047e-02 -2.6220221204253791e-01
    1.2778325951794775e-02 -3.4299717028501764e-01
    1.1099655447137639e-02 -4.1380294430118392e-01
    1.0597633485511116e-02 -4.4249767886870978e-01
    8.2832870447254008e-03 -7.1643166895607413e-01
    8.3954811448998991e-03 -6.8857674302468475e-01
    8.2171045998719692e-03 -7.3521462209380772e-01
    7.9427717857972514e-03 -8.5280286542244166e-01
    7.9150598466463384e-03 -8.7343379711237656e-01
    7.8497170128666461e-03 -1.0418089333743188e+00
    7.9584181784764282e-03 -1.1867816581938533e+00
    7.8432713703294188e-03 -1.0058651529317202e+00
    7.8443445414872540e-03 -9.8260736888103495e-01
    7.8659009012851545e-03 -1.0791464043517529e+00
    7.8443445414872522e-03 -1.0177004891982144e+00
    7.8432713703294188e-03 -9.9416904650228155e-01
    7.8464922060152396e-03 -9.7117548269188614e-01
    7.8659009012851527e-03 -9.2665832547596139e-01
    7.9584181784764282e-03 -8.4261497731763579e-01
    7.9427717857972514e-03 -8.5280286542244166e-01
    8.0127734021953004e-03 -8.1252333797699716e-01
    7.9283253193840296e-03 -8.6307471239961231e-01
    7.9427717857972514e-03 -8.5280286542244166e-01
    8.0334456339462724e-03 -8.0263987518112312e-01
    8.1296861068310897e-03 -7.6376261582597338e-01
    8.0554408429249977e-03 -7.9282496717209183e-01
    8.0334456339462724e-03 -8.0263987518112312e-01
    7.9029581426731770e-03 -1.1313708498984758e+00
    7.8659009012851545e-03 -1.0791464043517529e+00
    7.8920046264698458e-03 -1.1180339887498947e+00
    7.9150598466463384e-03 -8.7343379711237656e-01
    8.1573075440362283e-03 -7.5419317117668283e-01
    8.2171045998719692e-03 -7.3521462209380772e-01
    8.3562802405635073e-03 -6.9782270079091746e-01
    8.3189033080770299e-03 -7.0710678118654757e-01
    8.6731723099555576e-03 -6.3375022229762978e-01
    9.7196908918204591e-03 -5.0729965619589235e-01
    1.0597633485511116e-02 -4.4249767886870978e-01
    1.2778325951794775e-02 -3.4299717028501764e-01
    1.5984519878529047e-02 -2.6220221204253791e-01
    1.6712560481127018e-02 -2.4922239313961342e-01
    1.2202602335020537e-02 -3.6393726262341952e-01
    1.0054802412509360e-02 -4.7980811512325366e-01
    8.3954811448998991e-03 -6.8857674302468475e-01
    7.9752852087257887e-03 -8.3250784196348138e-01
    8.1296861068310897e-03 -7.6376261582597338e-01
    8.1573075440362283e-03 -7.5419317117668283e-01
    7.8659009012851527e-03 -9.2665832547596139e-01
    7.8432713703294188e-03 -9.9416904650228155e-01
    7.8594153422041867e-03 -1.0665364503850769e+00
    7.9029581426731770e-03 -1.1313708498984758e+00
    7.8443445414872522e-03 -1.0177004891982144e+00
    7.8443445414872540e-03 -9.8260736888103495e-01
    7.8659009012851527e-03 -9.2665832547596139e-01
    7.8497170128666478e-03 -9.5986890490667598e-01
    7.8432713703294188e-03 -9.9416904650228155e-01
    7.8443445414872522e-03 -1.0177004891982144e+00
    7.8659009012851527e-03 -9.2665832547596139e-01
    7.9283253193840296e-03 -8.6307471239961231e-01
    7.9283253193840296e-03 -8.6307471239961231e-01
    8.0334456339462724e-03 -8.0263987518112312e-01
    7.9150598466463384e-03 -8.7343379711237656e-01
    8.1864322098888515e-03 -7.4467808786445078e-01
    8.0787899957892022e-03 -7.8307569696026913e-01
    8.1296861068310897e-03 -7.6376261582597338e-01
    7.9933954454063996e-03 -8.2247832082997430e-01
    7.9029581426731770e-03 -8.8388347648318422e-01
    7.8443445414872540e-03 -9.8260736888103495e-01
    7.9029581426731770e-03 -1.1313708498984758e+00
    7.8594153422041867e-03 -1.0665364503850769e+00
    7.8821853039918906e-03 -1.1048887820858808e+00
    7.9752852087257887e-03 -8.3250784196348138e-01
    7.9933954454063996e-03 -8.2247832082997430e-01
    7.9933954454063996e-03 -8.2247832082997430e-01
    8.0554408429249977e-03 -7.9282496717209183e-01
    8.2832870447254008e-03 -7.1643166895607413e-01
    8.8434557608376152e-03 -6.0663003552412420e-01
    1.0449915022217105e-02 -4.5191299175026606e-01
    1.3862705630558591e-02 -3.1008683647302110e-01
    1.5984519878529047e-02 -2.6220221204253791e-01
    1.2778325951794775e-02 -3.4299717028501764e-01
    1.0921574556798238e-02 -4.2345052228989660e-01
    9.4327497145561545e-03 -5.3452248382484868e-01
    8.3189033080770299e-03 -7.0710678118654757e-01
    7.9584181784764282e-03 -8.4261497731763579e-01
    7.8821853039918906e-03 -9.0506847043205130e-01
    7.8821853039918906e-03 -9.0506847043205130e-01
    7.9150598466463384e-03 -8.7343379711237656e-01
    7.8659009012851545e-03 -1.0791464043517529e+00
    7.9283253193840296e-03 -1.1586482440433152e+00
    7.8443445414872522e-03 -1.0177004891982144e+00
    7.8734877175591703e-03 -1.0919284281983375e+00
    7.8464922060152396e-03 -9.7117548269188614e-01
    7.9283253193840296e-03 -8.6307471239961231e-01
    7.8464922060152396e-03 -9.7117548269188614e-01
    7.8497170128666461e-03 -1.0418089333743188e+00
    7.8540229468234257e-03 -9.4868329805051377e-01
    7.8659009012851527e-03 -9.2665832547596139e-01
    7.9029581426731770e-03 -8.8388347648318422e-01
    8.0787899957892022e-03 -7.8307569696026913e-01
    7.9752852087257887e-03 -8.3250784196348138e-01
    7.8920046264698458e-03 -8.9442719099991586e-01
    7.9933954454063996e-03 -8.2247832082997430e-01
    7.9933954454063996e-03 -8.2247832082997430e-01
    8.0787899957892022e-03 -7.8307569696026913e-01
    7.9029581426731770e-03 -8.8388347648318422e-01
    7.8432713703294188e-03 -9.9416904650228155e-01
    7.8594153422041884e-03 -9.3761446187699082e-01
    7.9150598466463367e-03 -1.1449064637824393e+00
    7.8464922060152414e-03 -1.0296800298420001e+00
    7.8497170128666461e-03 -1.0418089333743188e+00
    7.9283253193840296e-03 -8.6307471239961231e-01
    7.9150598466463384e-03 -8.7343379711237656e-01
    7.8734877175591703e-03 -9.1581093977925077e-01
    7.9427717857972514e-03 -8.5280286542244166e-01
    8.1864322098888515e-03 -7.4467808786445078e-01
    8.2832870447254008e-03 -7.1643166895607413e-01
    9.7196908918204591e-03 -5.0729965619589235e-01
    1.1948149638437797e-02 -3.7416573867739417e-01
    1.5984519878529047e-02 -2.6220221204253791e-01
    1.1493734323791317e-02 -3.9421492285986010e-01
    9.8255345667450159e-03 -4.9817184031391393e-01
    8.2493724659976481e-03 -7.2580005117505619e-01
    8.0334456339462724e-03 -8.0263987518112312e-01
    7.8920046264698458e-03 -8.9442719099991586e-01
    7.8432713703294188e-03 -9.9416904650228155e-01
    7.8659009012851527e-03 -9.2665832547596139e-01
    7.8821853039918906e-03 -1.1048887820858808e+00
    7.8920046264698458e-03 -1.1180339887498947e+00
    7.8464922060152414e-03 -1.0296800298420001e+00
    7.8821853039918906e-03 -1.1048887820858808e+00
    7.8497170128666461e-03 -1.0418089333743188e+00
    7.8540229468234274e-03 -1.0540925533894601e+00
    7.8920046264698458e-03 -8.9442719099991586e-01
    7.8594153422041884e-03 -9.3761446187699082e-01
    7.8734877175591703e-03 -9.1581093977925077e-01
    7.8920046264698458e-03 -8.9442719099991586e-01
    7.8594153422041884e-03 -9.3761446187699082e-01
    7.9283253193840296e-03 -8.6307471239961231e-01
    7.9752852087257887e-03 -8.3250784196348138e-01
    8.1035264522945332e-03 -7.7338919123653083e-01
    8.0334456339462724e-03 -8.0263987518112312e-01
    8.1296861068310897e-03 -7.6376261582597338e-01
    7.9752852087257887e-03 -8.3250784196348138e-01
    8.0334456339462724e-03 -8.0263987518112312e-01
    7.9584181784764282e-03 -8.4261497731763579e-01
    7.8464922060152396e-03 -9.7117548269188614e-01
    7.8734877175591703e-03 -9.1581093977925077e-01
    7.8594153422041867e-03 -1.0665364503850769e+00
    8.1035264522945332e-03 -1.2930100540985749e+00
    7.8920046264698458e-03 -1.1180339887498947e+00
    7.8594153422041867e-03 -1.0665364503850769e+00
    7.9584181784764282e-03 -8.4261497731763579e-01
    7.9933954454063996e-03 -8.2247832082997430e-01
    7.9427717857972514e-03 -8.5280286542244166e-01
    8.0127734021953004e-03 -8.1252333797699716e-01
    8.3189033080770299e-03 -7.0710678118654757e-01
    9.1852784298537202e-03 -5.6159114610596861e-01
    9.9370944294274750e-03 -4.8900964692182575e-01
    1.2478354962115544e-02 -3.5355339059327373e-01
    1.0449915022217105e-02 -4.5191299175026606e-01
    9.2638238081604839e-03 -5.5257896399553763e-01
    8.2493724659976481e-03 -7.2580005117505619e-01
    7.9584181784764282e-03 -8.4261497731763579e-01
    7.8659009012851527e-03 -9.2665832547596139e-01
    7.8497170128666478e-03 -9.5986890490667598e-01
    7.8443445414872540e-03 -9.8260736888103495e-01
    7.8734877175591703e-03 -1.0919284281983375e+00
    7.8920046264698458e-03 -1.1180339887498947e+00
    7.9427717857972497e-03 -1.1726039399558570e+00
    7.8734877175591703e-03 -1.0919284281983375e+00
    7.8594153422041867e-03 -1.0665364503850769e+00
    7.8464922060152396e-03 -9.7117548269188614e-01
    7.8659009012851527e-03 -9.2665832547596139e-01
    7.9150598466463384e-03 -8.7343379711237656e-01
    7.9584181784764282e-03 -8.4261497731763579e-01
    7.9283253193840296e-03 -8.6307471239961231e-01
    8.0554408429249977e-03 -7.9282496717209183e-01
    7.9427717857972514e-03 -8.5280286542244166e-01
    7.9752852087257887e-03 -8.3250784196348138e-01
    8.2171045998719692e-03 -7.3521462209380772e-01
    8.1573075440362283e-03 -7.5419317117668283e-01
    8.0334456339462724e-03 -8.0263987518112312e-01
    7.9933954454063996e-03 -8.2247832082997430e-01
    8.0787899957892022e-03 -7.8307569696026913e-01
    7.8821853039918906e-03 -9.0506847043205130e-01
    7.8734877175591703e-03 -9.1581093977925077e-01
    7.8734877175591703e-03 -9.1581093977925077e-01
    7.8540229468234274e-03 -1.0540925533894601e+00
    7.8497170128666461e-03 -1.0418089333743188e+00
    7.9427717857972497e-03 -1.1726039399558570e+00
    7.8659009012851545e-03 -1.0791464043517529e+00
    7.8432713703294188e-03 -1.0058651529317202e+00
    7.8920046264698458e-03 -8.9442719099991586e-01
    7.8594153422041884e-03 -9.3761446187699082e-01
    7.9029581426731770e-03 -8.8388347648318422e-01
    8.1035264522945332e-03 -7.7338919123653083e-01
    8.3189033080770299e-03 -7.0710678118654757e-01
    9.5236333845258748e-03 -5.2547064902340135e-01
    1.1712549931781635e-02 -3.8425383109529226e-01
    1.1099655447137639e-02 -4.1380294430118392e-01
    9.1852784298537202e-03 -5.6159114610596861e-01
    8.0127734021953004e-03 -8.1252333797699716e-01
    7.8821853039918906e-03 -9.0506847043205130e-01
    7.8594153422041884e-03 -9.3761446187699082e-01
    7.8464922060152414e-03 -1.0296800298420001e+00
    7.8443445414872540e-03 -9.8260736888103495e-01
    7.9150598466463367e-03 -1.1449064637824393e+00
    7.9933954454063996e-03 -1.2158375177486576e+00
    7.9283253193840296e-03 -1.1586482440433152e+00
    7.8734877175591703e-03 -1.0919284281983375e+00
    7.8594153422041867e-03 -1.0665364503850769e+00
    7.8821853039918906e-03 -9.0506847043205130e-01
    8.0127734021953004e-03 -8.1252333797699716e-01
    8.0334456339462724e-03 -8.0263987518112312e-01
    8.1035264522945332e-03 -7.7338919123653083e-01
    8.0334456339462724e-03 -8.0263987518112312e-01
    8.1035264522945332e-03 -7.7338919123653083e-01
    8.0554408429249977e-03 -7.9282496717209183e-01
    8.0127734021953004e-03 -8.1252333797699716e-01
    8.2171045998719692e-03 -7.3521462209380772e-01
    8.2832870447254008e-03 -7.1643166895607413e-01
    8.1296861068310897e-03 -7.6376261582597338e-01
    8.1035264522945332e-03 -7.7338919123653083e-01
    8.1573075440362283e-03 -7.5419317117668283e-01
    7.9584181784764282e-03 -8.4261497731763579e-01
    7.8497170128666478e-03 -9.5986890490667598e-01
    7.8734877175591703e-03 -9.1581093977925077e-01
    7.9427717857972514e-03 -8.5280286542244166e-01
    7.8443445414872522e-03 -1.0177004891982144e+00
    7.8443445414872540e-03 -9.8260736888103495e-01
    7.8734877175591703e-03 -1.0919284281983375e+00
    7.8540229468234274e-03 -1.0540925533894601e+00
    7.8443445414872540e-03 -9.8260736888103495e-01
    7.8659009012851527e-03 -9.2665832547596139e-01
    7.9752852087257887e-03 -8.3250784196348138e-01
    7.9584181784764282e-03 -8.4261497731763579e-01
    8.2171045998719692e-03 -7.3521462209380772e-01
    9.1103786899089569e-03 -5.7059740215745569e-01
    1.1099655447137639e-02 -4.1380294430118392e-01
    1.1099655447137639e-02 -4.1380294430118392e-01
    8.6214088829161938e-03 -6.4282434653322496e-01
    7.9427717857972514e-03 -8.5280286542244166e-01
    7.8734877175591703e-03 -9.1581093977925077e-01
    7.8464922060152396e-03 -9.7117548269188614e-01
    7.8443445414872522e-03 -1.0177004891982144e+00
    7.8464922060152414e-03 -1.0296800298420001e+00
    7.9427717857972497e-03 -1.1726039399558570e+00
    8.0554408429249977e-03 -1.2613124477737825e+00
    7.8734877175591703e-03 -1.0919284281983375e+00
    7.9427717857972497e-03 -1.1726039399558570e+00
    7.8659009012851545e-03 -1.0791464043517529e+00
    7.9752852087257887e-03 -8.3250784196348138e-01
    8.1573075440362283e-03 -7.5419317117668283e-01
    8.0334456339462724e-03 -8.0263987518112312e-01
    8.2171045998719692e-03 -7.3521462209380772e-01
    8.1573075440362283e-03 -7.5419317117668283e-01
    8.1864322098888515e-03 -7.4467808786445078e-01
    8.2493724659976481e-03 -7.2580005117505619e-01
    8.1573075440362283e-03 -7.5419317117668283e-01
    8.2171045998719692e-03 -7.3521462209380772e-01
    8.0334456339462724e-03 -8.0263987518112312e-01
    8.1296861068310897e-03 -7.6376261582597338e-01
    8.0334456339462724e-03 -8.0263987518112312e-01
    7.9933954454063996e-03 -8.2247832082997430e-01
    7.9150598466463384e-03 -8.7343379711237656e-01
    7.9584181784764282e-03 -8.4261497731763579e-01
    7.8920046264698458e-03 -8.9442719099991586e-01
    7.8920046264698458e-03 -8.9442719099991586e-01
    7.8821853039918906e-03 -9.0506847043205130e-01
    7.8464922060152414e-03 -1.0296800298420001e+00
    7.8432713703294188e-03 -9.9416904650228155e-01
    7.8497170128666461e-03 -1.0418089333743188e+00
    7.8464922060152396e-03 -9.7117548269188614e-01
    7.8920046264698458e-03 -8.9442719099991586e-01
    7.8920046264698458e-03 -8.9442719099991586e-01
    7.9029581426731770e-03 -8.8388347648318422e-01
    7.9752852087257887e-03 -8.3250784196348138e-01
    9.0389236361705736e-03 -5.7960115596848150e-01
    9.9370944294274750e-03 -4.8900964692182575e-01
    1.0449915022217105e-02 -4.5191299175026606e-01
    8.6214088829161938e-03 -6.4282434653322496e-01
    7.9427717857972514e-03 -8.5280286542244166e-01
    7.8443445414872540e-03 -9.8260736888103495e-01
    7.8594153422041867e-03 -1.0665364503850769e+00
    7.8464922060152414e-03 -1.0296800298420001e+00
    7.8443445414872540e-03 -9.8260736888103495e-01
    7.9029581426731770e-03 -1.1313708498984758e+00
    7.8821853039918906e-03 -1.1048887820858808e+00
    7.8540229468234274e-03 -1.0540925533894601e+00
    7.8734877175591703e-03 -1.0919284281983375e+00
    7.9029581426731770e-03 -8.8388347648318422e-01
    8.1573075440362283e-03 -7.5419317117668283e-01
    8.2493724659976481e-03 -7.2580005117505619e-01
    8.0787899957892022e-03 -7.8307569696026913e-01
    8.2171045998719692e-03 -7.3521462209380772e-01
    8.1573075440362283e-03 -7.5419317117668283e-01
    8.0787899957892022e-03 -7.8307569696026913e-01
    8.1573075440362283e-03 -7.5419317117668283e-01
    8.0334456339462724e-03 -8.0263987518112312e-01
    8.1296861068310897e-03 -7.6376261582597338e-01
    8.1035264522945332e-03 -7.7338919123653083e-01
    8.0787899957892022e-03 -7.8307569696026913e-01
    7.9283253193840296e-03 -8.6307471239961231e-01
    7.9283253193840296e-03 -8.6307471239961231e-01
    8.0334456339462724e-03 -8.0263987518112312e-01
    7.9584181784764282e-03 -8.4261497731763579e-01
    7.9584181784764282e-03 -8.4261497731763579e-01
    7.8734877175591703e-03 -9.1581093977925077e-01
    7.9427717857972514e-03 -8.5280286542244166e-01
    7.8734877175591703e-03 -1.0919284281983375e+00
    7.9150598466463367e-03 -1.1449064637824393e+00
    7.9584181784764282e-03 -1.1867816581938533e+00
    7.9427717857972497e-03 -1.1726039399558570e+00
    7.8540229468234274e-03 -1.0540925533894601e+00
    7.8432713703294188e-03 -9.9416904650228155e-01
    7.8464922060152396e-03 -9.7117548269188614e-01
    7.9427717857972514e-03 -8.5280286542244166e-01
    8.9056249322954830e-03 -5.9761430466719689e-01
    1.1493734323791317e-02 -3.9421492285986010e-01
    1.0310642913264010e-02 -4.6126560401444255e-01
    8.7840774919258902e-03 -6.1565595754813918e-01
    8.0334456339462724e-03 -8.0263987518112312e-01
    7.8497170128666478e-03 -9.5986890490667598e-01
    7.8659009012851545e-03 -1.0791464043517529e+00
    7.8464922060152414e-03 -1.0296800298420001e+00
    7.8443445414872540e-03 -9.8260736888103495e-01
    7.8464922060152396e-03 -9.7117548269188614e-01
    7.8734877175591703e-03 -1.0919284281983375e+00
    7.8594153422041867e-03 -1.0665364503850769e+00
    7.8464922060152414e-03 -1.0296800298420001e+00
    7.8464922060152414e-03 -1.0296800298420001e+00
    8.1296861068310897e-03 -7.6376261582597338e-01
    8.1035264522945332e-03 -7.7338919123653083e-01
    8.1573075440362283e-03 -7.5419317117668283e-01
    8.0787899957892022e-03 -7.8307569696026913e-01
    8.1035264522945332e-03 -7.7338919123653083e-01
    7.9584181784764282e-03 -8.4261497731763579e-01
    8.0554408429249977e-03 -7.9282496717209183e-01
    8.0334456339462724e-03 -8.0263987518112312e-01
    7.9933954454063996e-03 -8.2247832082997430e-01
    8.0127734021953004e-03 -8.1252333797699716e-01
    8.0334456339462724e-03 -8.0263987518112312e-01
    7.9933954454063996e-03 -8.2247832082997430e-01
    7.9283253193840296e-03 -8.6307471239961231e-01
    7.9933954454063996e-03 -8.2247832082997430e-01
    8.0334456339462724e-03 -8.0263987518112312e-01
    8.0127734021953004e-03 -8.1252333797699716e-01
    8.0554408429249977e-03 -7.9282496717209183e-01
    7.9933954454063996e-03 -8.2247832082997430e-01
    7.8464922060152414e-03 -1.0296800298420001e+00
    7.8497170128666478e-03 -9.5986890490667598e-01
    8.1573075440362283e-03 -1.3259202525525553e+00
    7.9427717857972497e-03 -1.1726039399558570e+00
    7.8443445414872522e-03 -1.0177004891982144e+00
    7.8594153422041867e-03 -1.0665364503850769e+00
    7.8821853039918906e-03 -9.0506847043205130e-01
    8.0127734021953004e-03 -8.1252333797699716e-01
    8.5247328418566228e-03 -6.6104068703519780e-01
    9.7196908918204591e-03 -5.0729965619589235e-01
    1.1712549931781635e-02 -3.8425383109529226e-01
    8.9707288785949146e-03 -5.8860571940254358e-01
    8.1035264522945332e-03 -7.7338919123653083e-01
    7.8540229468234257e-03 -9.4868329805051377e-01
    7.8594153422041867e-03 -1.0665364503850769e+00
    7.8497170128666478e-03 -9.5986890490667598e-01
    7.8432713703294188e-03 -9.9416904650228155e-01
    7.8594153422041867e-03 -1.0665364503850769e+00
    7.8594153422041867e-03 -1.0665364503850769e+00
    7.8464922060152414e-03 -1.0296800298420001e+00
    7.8464922060152414e-03 -1.0296800298420001e+00
    7.8540229468234257e-03 -9.4868329805051377e-01
    7.9752852087257887e-03 -8.3250784196348138e-01
    8.0787899957892022e-03 -7.8307569696026913e-01
    8.1573075440362283e-03 -7.5419317117668283e-01
    8.1035264522945332e-03 -7.7338919123653083e-01
    8.1573075440362283e-03 -7.5419317117668283e-01
    7.9029581426731770e-03 -8.8388347648318422e-01
    7.9029581426731770e-03 -8.8388347648318422e-01
    7.9752852087257887e-03 -8.3250784196348138e-01
    7.9752852087257887e-03 -8.3250784196348138e-01
    8.0127734021953004e-03 -8.1252333797699716e-01
    8.0787899957892022e-03 -7.8307569696026913e-01
    8.0554408429249977e-03 -7.9282496717209183e-01
    7.9427717857972514e-03 -8.5280286542244166e-01
    8.0127734021953004e-03 -8.1252333797699716e-01
    7.9752852087257887e-03 -8.3250784196348138e-01
    8.0554408429249977e-03 -7.9282496717209183e-01
    7.9752852087257887e-03 -8.3250784196348138e-01
    7.9029581426731770e-03 -8.8388347648318422e-01
    7.8464922060152396e-03 -9.7117548269188614e-01
    7.8659009012851545e-03 -1.0791464043517529e+00
    8.0787899957892005e-03 -1.2770157519659771e+00
    8.0127734021953004e-03 -1.2307338795828044e+00
    7.8443445414872540e-03 -9.8260736888103495e-01
    7.8920046264698458e-03 -1.1180339887498947e+00
    7.8443445414872522e-03 -1.0177004891982144e+00
    7.9283253193840296e-03 -8.6307471239961231e-01
    8.7840774919258902e-03 -6.1565595754813918e-01
    1.0054802412509360e-02 -4.7980811512325366e-01
    1.1289940203818826e-02 -4.0406101782088433e-01
    8.9056249322954830e-03 -5.9761430466719689e-01
    7.9933954454063996e-03 -8.2247832082997430e-01
    7.8443445414872522e-03 -1.0177004891982144e+00
    7.8443445414872522e-03 -1.0177004891982144e+00
    7.8432713703294188e-03 -1.0058651529317202e+00
    7.8734877175591703e-03 -1.0919284281983375e+00
    7.8540229468234274e-03 -1.0540925533894601e+00
    7.9427717857972497e-03 -1.1726039399558570e+00
    7.8659009012851527e-03 -9.2665832547596139e-01
    7.8443445414872522e-03 -1.0177004891982144e+00
    7.8540229468234257e-03 -9.4868329805051377e-01
    8.0127734021953004e-03 -8.1252333797699716e-01
    8.0787899957892022e-03 -7.8307569696026913e-01
    8.1573075440362283e-03 -7.5419317117668283e-01
    8.1864322098888515e-03 -7.4467808786445078e-01
    8.0787899957892022e-03 -7.8307569696026913e-01
    7.9933954454063996e-03 -8.2247832082997430e-01
    7.9150598466463384e-03 -8.7343379711237656e-01
    7.8920046264698458e-03 -8.9442719099991586e-01
    7.8594153422041884e-03 -9.3761446187699082e-01
    7.9584181784764282e-03 -8.4261497731763579e-01
    8.0334456339462724e-03 -8.0263987518112312e-01
    7.9029581426731770e-03 -8.8388347648318422e-01
    7.8734877175591703e-03 -9.1581093977925077e-01
    7.9752852087257887e-03 -8.3250784196348138e-01
    7.9933954454063996e-03 -8.2247832082997430e-01
    7.9752852087257887e-03 -8.3250784196348138e-01
    8.0334456339462724e-03 -8.0263987518112312e-01
    7.8821853039918906e-03 -9.0506847043205130e-01
    7.8464922060152414e-03 -1.0296800298420001e+00
    7.9150598466463367e-03 -1.1449064637824393e+00
    7.8594153422041867e-03 -1.0665364503850769e+00
    7.9752852087257887e-03 -1.2011898862615946e+00
    7.8540229468234274e-03 -1.0540925533894601e+00
    7.8464922060152396e-03 -9.7117548269188614e-01
    7.8594153422041884e-03 -9.3761446187699082e-01
    7.9584181784764282e-03 -8.4261497731763579e-01
    8.5247328418566228e-03 -6.6104068703519780e-01
    1.0179139476758303e-02 -4.7056197405716016e-01
    1.0597633485511116e-02 -4.4249767886870978e-01
    9.0389236361705736e-03 -5.7960115596848150e-01
    7.8821853039918906e-03 -9.0506847043205130e-01
    7.8540229468234257e-03 -9.4868329805051377e-01
    7.8659009012851545e-03 -1.0791464043517529e+00
    7.8594153422041867e-03 -1.0665364503850769e+00
    7.8443445414872522e-03 -1.0177004891982144e+00
    7.8594153422041867e-03 -1.0665364503850769e+00
    7.8497170128666478e-03 -9.5986890490667598e-01
    7.9029581426731770e-03 -8.8388347648318422e-01
    7.8540229468234257e-03 -9.4868329805051377e-01
    7.8734877175591703e-03 -9.1581093977925077e-01
    8.0127734021953004e-03 -8.1252333797699716e-01
    8.2493724659976481e-03 -7.2580005117505619e-01
    8.2493724659976481e-03 -7.2580005117505619e-01
    8.0787899957892022e-03 -7.8307569696026913e-01
    8.1296861068310897e-03 -7.6376261582597338e-01
    8.0554408429249977e-03 -7.9282496717209183e-01
    7.9283253193840296e-03 -8.6307471239961231e-01
    7.9584181784764282e-03 -8.4261497731763579e-01
    7.9283253193840296e-03 -8.6307471239961231e-01
    7.9933954454063996e-03 -8.2247832082997430e-01
    8.1573075440362283e-03 -7.5419317117668283e-01
    7.9933954454063996e-03 -8.2247832082997430e-01
    7.9584181784764282e-03 -8.4261497731763579e-01
    8.0787899957892022e-03 -7.8307569696026913e-01
    8.0127734021953004e-03 -8.1252333797699716e-01
    8.1864322098888515e-03 -7.4467808786445078e-01
    8.1035264522945332e-03 -7.7338919123653083e-01
    8.0334456339462724e-03 -8.0263987518112312e-01
    7.8464922060152396e-03 -9.7117548269188614e-01
    7.8497170128666461e-03 -1.0418089333743188e+00
    7.9029581426731770e-03 -1.1313708498984758e+00
    7.9029581426731770e-03 -1.1313708498984758e+00
    7.8821853039918906e-03 -9.0506847043205130e-01
    7.8821853039918906e-03 -9.0506847043205130e-01
    7.9150598466463384e-03 -8.7343379711237656e-01
    8.0554408429249977e-03 -7.9282496717209183e-01
    8.1864322098888515e-03 -7.4467808786445078e-01
    1.0754563837845970e-02 -4.3301270189221930e-01
    1.1099655447137639e-02 -4.1380294430118392e-01
    9.4327497145561545e-03 -5.3452248382484868e-01
    8.1573075440362283e-03 -7.5419317117668283e-01
    7.8464922060152396e-03 -9.7117548269188614e-01
    7.8497170128666461e-03 -1.0418089333743188e+00
    7.8821853039918906e-03 -1.1048887820858808e+00
    7.8464922060152414e-03 -1.0296800298420001e+00
    7.8443445414872540e-03 -9.8260736888103495e-01
    7.8432713703294188e-03 -1.0058651529317202e+00
    7.8821853039918906e-03 -9.0506847043205130e-01
    7.8920046264698458e-03 -8.9442719099991586e-01
    8.0554408429249977e-03 -7.9282496717209183e-01
    7.9029581426731770e-03 -8.8388347648318422e-01
    8.2171045998719692e-03 -7.3521462209380772e-01
    8.2171045998719692e-03 -7.3521462209380772e-01
    8.0334456339462724e-03 -8.0263987518112312e-01
    7.9427717857972514e-03 -8.5280286542244166e-01
    7.9150598466463384e-03 -8.7343379711237656e-01
    8.0334456339462724e-03 -8.0263987518112312e-01
    7.9752852087257887e-03 -8.3250784196348138e-01
    7.9584181784764282e-03 -8.4261497731763579e-01
    8.1035264522945332e-03 -7.7338919123653083e-01
    7.9427717857972514e-03 -8.5280286542244166e-01
    7.9752852087257887e-03 -8.3250784196348138e-01
    7.9752852087257887e-03 -8.3250784196348138e-01
    8.1296861068310897e-03 -7.6376261582597338e-01
    8.0554408429249977e-03 -7.9282496717209183e-01
    8.3562802405635073e-03 -6.9782270079091746e-01
    8.1035264522945332e-03 -7.7338919123653083e-01
    8.0787899957892022e-03 -7.8307569696026913e-01
    7.9283253193840296e-03 -8.6307471239961231e-01
    7.8464922060152396e-03 -9.7117548269188614e-01
    7.8821853039918906e-03 -1.1048887820858808e+00
    8.0554408429249977e-03 -1.2613124477737825e+00
    7.8497170128666478e-03 -9.5986890490667598e-01
    7.8659009012851527e-03 -9.2665832547596139e-01
    7.8659009012851527e-03 -9.2665832547596139e-01
    8.0554408429249977e-03 -7.9282496717209183e-01
    8.1035264522945332e-03 -7.7338919123653083e-01
    9.9370944294274750e-03 -4.8900964692182575e-01
    1.3465735808071306e-02 -3.2128773156099955e-01
    1.0179139476758303e-02 -4.7056197405716016e-01
    8.5247328418566228e-03 -6.6104068703519780e-01
    7.8821853039918906e-03 -9.0506847043205130e-01
    7.8540229468234257e-03 -9.4868329805051377e-01
    7.8464922060152414e-03 -1.0296800298420001e+00
    7.8443445414872540e-03 -9.8260736888103495e-01
    7.8464922060152414e-03 -1.0296800298420001e+00
    7.8443445414872522e-03 -1.0177004891982144e+00
    7.8821853039918906e-03 -9.0506847043205130e-01
    7.9427717857972514e-03 -8.5280286542244166e-01
    7.9427717857972514e-03 -8.5280286542244166e-01
    7.9584181784764282e-03 -8.4261497731763579e-01
    8.1035264522945332e-03 -7.7338919123653083e-01
    8.1864322098888515e-03 -7.4467808786445078e-01
    8.0334456339462724e-03 -8.0263987518112312e-01
    7.9427717857972514e-03 -8.5280286542244166e-01
    7.8734877175591703e-03 -9.1581093977925077e-01
    7.9029581426731770e-03 -8.8388347648318422e-01
    8.0127734021953004e-03 -8.1252333797699716e-01
    7.9933954454063996e-03 -8.2247832082997430e-01
    8.1573075440362283e-03 -7.5419317117668283e-01
    8.0554408429249977e-03 -7.9282496717209183e-01
    8.1573075440362283e-03 -7.5419317117668283e-01
    8.0554408429249977e-03 -7.9282496717209183e-01
    8.3562802405635073e-03 -6.9782270079091746e-01
    8.3189033080770299e-03 -7.0710678118654757e-01
    8.2171045998719692e-03 -7.3521462209380772e-01
    8.0554408429249977e-03 -7.9282496717209183e-01
    7.8659009012851527e-03 -9.2665832547596139e-01
    7.8464922060152396e-03 -9.7117548269188614e-01
    7.9933954454063996e-03 -8.2247832082997430e-01
    7.9150598466463367e-03 -1.1449064637824393e+00
    7.8594153422041867e-03 -1.0665364503850769e+00
    7.8821853039918906e-03 -9.0506847043205130e-01
    7.8920046264698458e-03 -8.9442719099991586e-01
    7.8920046264698458e-03 -8.9442719099991586e-01
    8.0127734021953004e-03 -8.1252333797699716e-01
    8.0787899957892022e-03 -7.8307569696026913e-01
    9.6191743239138448e-03 -5.1639777949432220e-01
    1.4796387972658356e-02 -2.8684225806644709e-01
    9.6191743239138448e-03 -5.1639777949432220e-01
    8.6214088829161938e-03 -6.4282434653322496e-01
    8.3189033080770299e-03 -7.0710678118654757e-01
    7.8734877175591703e-03 -9.1581093977925077e-01
    7.8432713703294188e-03 -9.9416904650228155e-01
    7.8432713703294188e-03 -1.0058651529317202e+00
    7.8659009012851545e-03 -1.0791464043517529e+00
    7.8443445414872540e-03 -9.8260736888103495e-01
    7.8659009012851527e-03 -9.2665832547596139e-01
    7.9752852087257887e-03 -8.3250784196348138e-01
    7.9752852087257887e-03 -8.3250784196348138e-01
    7.8920046264698458e-03 -8.9442719099991586e-01
    7.9150598466463384e-03 -8.7343379711237656e-01
    8.0127734021953004e-03 -8.1252333797699716e-01
    7.8821853039918906e-03 -9.0506847043205130e-01
    8.0554408429249977e-03 -7.9282496717209183e-01
    7.9427717857972514e-03 -8.5280286542244166e-01
    7.9150598466463384e-03 -8.7343379711237656e-01
    8.0334456339462724e-03 -8.0263987518112312e-01
    8.1573075440362283e-03 -7.5419317117668283e-01
    8.1296861068310897e-03 -7.6376261582597338e-01
    8.0554408429249977e-03 -7.9282496717209183e-01
    8.2832870447254008e-03 -7.1643166895607413e-01
    8.2171045998719692e-03 -7.3521462209380772e-01
    8.2832870447254008e-03 -7.1643166895607413e-01
    8.0334456339462724e-03 -8.0263987518112312e-01
    8.0334456339462724e-03 -8.0263987518112312e-01
    8.2493724659976481e-03 -7.2580005117505619e-01
    7.9150598466463384e-03 -8.7343379711237656e-01
    8.1864322098888515e-03 -7.4467808786445078e-01
    7.8821853039918906e-03 -9.0506847043205130e-01
    7.9150598466463367e-03 -1.1449064637824393e+00
    7.8920046264698458e-03 -1.1180339887498947e+00
    7.8540229468234257e-03 -9.4868329805051377e-01
    7.8432713703294188e-03 -9.9416904650228155e-01
    7.8734877175591703e-03 -9.1581093977925077e-01
    7.9752852087257887e-03 -8.3250784196348138e-01
    8.0127734021953004e-03 -8.1252333797699716e-01
    9.6191743239138448e-03 -5.1639777949432220e-01
    1.4796387972658356e-02 -2.8684225806644709e-01
    1.0449915022217105e-02 -4.5191299175026606e-01
    8.8434557608376152e-03 -6.0663003552412420e-01
    8.6731723099555576e-03 -6.3375022229762978e-01
    7.9427717857972514e-03 -8.5280286542244166e-01
    7.9933954454063996e-03 -8.2247832082997430e-01
    7.8497170128666461e-03 -1.0418089333743188e+00
    7.8540229468234274e-03 -1.0540925533894601e+00
    7.8464922060152396e-03 -9.7117548269188614e-01
    7.8432713703294188e-03 -1.0058651529317202e+00
    7.8540229468234257e-03 -9.4868329805051377e-01
    7.8659009012851545e-03 -1.0791464043517529e+00
    7.8920046264698458e-03 -1.1180339887498947e+00
    7.8464922060152414e-03 -1.0296800298420001e+00
    7.8464922060152396e-03 -9.7117548269188614e-01
    7.9584181784764282e-03 -8.4261497731763579e-01
    7.9283253193840296e-03 -8.6307471239961231e-01
    8.0787899957892022e-03 -7.8307569696026913e-01
    7.9584181784764282e-03 -8.4261497731763579e-01
    8.1035264522945332e-03 -7.7338919123653083e-01
    8.4796317344325509e-03 -6.7018843795822181e-01
    8.3562802405635073e-03 -6.9782270079091746e-01
    8.5247328418566228e-03 -6.6104068703519780e-01
    8.6214088829161938e-03 -6.4282434653322496e-01
    8.4365739799009097e-03 -6.7936622048675743e-01
    8.3562802405635073e-03 -6.9782270079091746e-01
    8.3562802405635073e-03 -6.9782270079091746e-01
    8.1035264522945332e-03 -7.7338919123653083e-01
    7.9283253193840296e-03 -8.6307471239961231e-01
    7.8734877175591703e-03 -9.1581093977925077e-01
    7.9427717857972514e-03 -8.5280286542244166e-01
    7.8659009012851527e-03 -9.2665832547596139e-01
    7.9283253193840296e-03 -1.1586482440433152e+00
    7.9584181784764282e-03 -1.1867816581938533e+00
    7.8464922060152396e-03 -9.7117548269188614e-01
    7.8497170128666478e-03 -9.5986890490667598e-01
    7.9427717857972514e-03 -8.5280286542244166e-01
    7.9752852087257887e-03 -8.3250784196348138e-01
    7.9933954454063996e-03 -8.2247832082997430e-01
    1.0054802412509360e-02 -4.7980811512325366e-01
    1.7562129205940396e-02 -2.3570226039551584e-01
    1.2478354962115544e-02 -3.5355339059327373e-01
    8.8434557608376152e-03 -6.0663003552412420e-01
    8.3954811448998991e-03 -6.8857674302468475e-01
    7.9029581426731770e-03 -8.8388347648318422e-01
    7.9283253193840296e-03 -8.6307471239961231e-01
    7.9029581426731770e-03 -8.8388347648318422e-01
    7.9029581426731770e-03 -8.8388347648318422e-01
    7.8594153422041884e-03 -9.3761446187699082e-01
    7.8432713703294188e-03 -9.9416904650228155e-01
    7.9150598466463384e-03 -8.7343379711237656e-01
    7.8540229468234257e-03 -9.4868329805051377e-01
    7.8443445414872522e-03 -1.0177004891982144e+00
    7.8443445414872522e-03 -1.0177004891982144e+00
    7.8464922060152414e-03 -1.0296800298420001e+00
    7.8443445414872540e-03 -9.8260736888103495e-01
    8.0787899957892022e-03 -7.8307569696026913e-01
    8.0127734021953004e-03 -8.1252333797699716e-01
    7.9584181784764282e-03 -8.4261497731763579e-01
    8.0127734021953004e-03 -8.1252333797699716e-01
    8.1573075440362283e-03 -7.5419317117668283e-01
    8.2832870447254008e-03 -7.1643166895607413e-01
    8.6731723099555576e-03 -6.3375022229762978e-01
    8.3562802405635073e-03 -6.9782270079091746e-01
    8.2171045998719692e-03 -7.3521462209380772e-01
    8.1864322098888515e-03 -7.4467808786445078e-01
    8.1573075440362283e-03 -7.5419317117668283e-01
    8.1296861068310897e-03 -7.6376261582597338e-01
    7.8659009012851527e-03 -9.2665832547596139e-01
    7.8734877175591703e-03 -9.1581093977925077e-01
    7.9283253193840296e-03 -8.6307471239961231e-01
    7.8821853039918906e-03 -1.1048887820858808e+00
    7.9150598466463367e-03 -1.1449064637824393e+00
    7.8540229468234257e-03 -9.4868329805051377e-01
    7.8659009012851527e-03 -9.2665832547596139e-01
    7.8821853039918906e-03 -9.0506847043205130e-01
    8.0127734021953004e-03 -8.1252333797699716e-01
    8.0334456339462724e-03 -8.0263987518112312e-01
    8.3189033080770299e-03 -7.0710678118654757e-01
    1.0754563837845970e-02 -4.3301270189221930e-01
    1.3862705630558591e-02 -3.1008683647302110e-01
    1.1289940203818826e-02 -4.0406101782088433e-01
    9.0389236361705736e-03 -5.7960115596848150e-01
    8.5719616400588457e-03 -6.5192024052026487e-01
    7.9752852087257887e-03 -8.3250784196348138e-01
    7.8734877175591703e-03 -9.1581093977925077e-01
    7.8659009012851527e-03 -9.2665832547596139e-01
    7.8734877175591703e-03 -9.1581093977925077e-01
    7.8464922060152396e-03 -9.7117548269188614e-01
    7.8432713703294188e-03 -9.9416904650228155e-01
    7.8497170128666478e-03 -9.5986890490667598e-01
    7.8497170128666478e-03 -9.5986890490667598e-01
    7.8464922060152396e-03 -9.7117548269188614e-01
    7.8659009012851527e-03 -9.2665832547596139e-01
    7.8594153422041884e-03 -9.3761446187699082e-01
    7.8432713703294188e-03 -1.0058651529317202e+00
    7.8594153422041884e-03 -9.3761446187699082e-01
    8.1035264522945332e-03 -7.7338919123653083e-01
    7.9029581426731770e-03 -8.8388347648318422e-01
    7.9427717857972514e-03 -8.5280286542244166e-01
    8.2832870447254008e-03 -7.1643166895607413e-01
    8.2493724659976481e-03 -7.2580005117505619e-01
    8.5247328418566228e-03 -6.6104068703519780e-01
    8.3189033080770299e-03 -7.0710678118654757e-01
    8.0787899957892022e-03 -7.8307569696026913e-01
    8.1035264522945332e-03 -7.7338919123653083e-01
    7.8821853039918906e-03 -9.0506847043205130e-01
    7.9150598466463384e-03 -8.7343379711237656e-01
    8.0127734021953004e-03 -8.1252333797699716e-01
    7.9150598466463384e-03 -8.7343379711237656e-01
    7.9283253193840296e-03 -8.6307471239961231e-01
    7.8920046264698458e-03 -1.1180339887498947e+00
    7.9029581426731770e-03 -1.1313708498984758e+00
    7.8659009012851527e-03 -9.2665832547596139e-01
    7.8540229468234257e-03 -9.4868329805051377e-01
    7.8821853039918906e-03 -9.0506847043205130e-01
    8.0334456339462724e-03 -8.0263987518112312e-01
    8.0787899957892022e-03 -7.8307569696026913e-01
    8.7273572820103385e-03 -6.2469504755442429e-01
    1.1948149638437797e-02 -3.7416573867739417e-01
    1.4796387972658356e-02 -2.8684225806644709e-01
    1.2202602335020537e-02 -3.6393726262341952e-01
    9.3462342294910149e-03 -5.4355730650460898e-01
    8.5719616400588457e-03 -6.5192024052026487e-01
    8.1296861068310897e-03 -7.6376261582597338e-01
    7.9150598466463384e-03 -8.7343379711237656e-01
    7.8659009012851527e-03 -9.2665832547596139e-01
    7.8443445414872540e-03 -9.8260736888103495e-01
    7.8594153422041867e-03 -1.0665364503850769e+00
    7.8594153422041884e-03 -9.3761446187699082e-01
    7.8659009012851527e-03 -9.2665832547596139e-01
    7.8659009012851527e-03 -9.2665832547596139e-01
    7.8821853039918906e-03 -1.1048887820858808e+00
    7.8659009012851545e-03 -1.0791464043517529e+00
    7.8464922060152414e-03 -1.0296800298420001e+00
    7.8497170128666461e-03 -1.0418089333743188e+00
    7.8432713703294188e-03 -9.9416904650228155e-01
    7.8920046264698458e-03 -8.9442719099991586e-01
    7.8540229468234257e-03 -9.4868329805051377e-01
    7.8497170128666478e-03 -9.5986890490667598e-01
    8.1864322098888515e-03 -7.4467808786445078e-01
    7.8920046264698458e-03 -8.9442719099991586e-01
    7.9283253193840296e-03 -8.6307471239961231e-01
    7.9029581426731770e-03 -8.8388347648318422e-01
    7.8432713703294188e-03 -1.0058651529317202e+00
    7.8464922060152396e-03 -9.7117548269188614e-01
    7.8659009012851527e-03 -9.2665832547596139e-01
    7.8594153422041884e-03 -9.3761446187699082e-01
    7.8432713703294188e-03 -1.0058651529317202e+00
    7.9283253193840296e-03 -8.6307471239961231e-01
    7.8443445414872522e-03 -1.0177004891982144e+00
    7.9029581426731770e-03 -1.1313708498984758e+00
    7.8594153422041884e-03 -9.3761446187699082e-01
    7.8920046264698458e-03 -8.9442719099991586e-01
    7.8821853039918906e-03 -9.0506847043205130e-01
    7.9752852087257887e-03 -8.3250784196348138e-01
    7.9933954454063996e-03 -8.2247832082997430e-01
    8.2171045998719692e-03 -7.3521462209380772e-01
    8.6731723099555576e-03 -6.3375022229762978e-01
    1.2202602335020537e-02 -3.6393726262341952e-01
    1.6712560481127018e-02 -2.4922239313961342e-01
    1.3862705630558591e-02 -3.1008683647302110e-01
    1.0054802412509360e-02 -4.7980811512325366e-01
    8.5719616400588457e-03 -6.5192024052026487e-01
    8.2171045998719692e-03 -7.3521462209380772e-01
    8.0554408429249977e-03 -7.9282496717209183e-01
    7.8594153422041884e-03 -9.3761446187699082e-01
    7.8540229468234257e-03 -9.4868329805051377e-01
    7.8432713703294188e-03 -1.0058651529317202e+00
    7.8464922060152396e-03 -9.7117548269188614e-01
    7.8464922060152414e-03 -1.0296800298420001e+00
    7.8432713703294188e-03 -1.0058651529317202e+00
    7.8920046264698458e-03 -1.1180339887498947e+00
    8.0554408429249977e-03 -1.2613124477737825e+00
    7.8464922060152414e-03 -1.0296800298420001e+00
    7.8443445414872522e-03 -1.0177004891982144e+00
    7.8464922060152396e-03 -9.7117548269188614e-01
    7.8594153422041884e-03 -9.3761446187699082e-01
    7.8594153422041884e-03 -9.3761446187699082e-01
    7.8659009012851527e-03 -9.2665832547596139e-01
    7.8464922060152396e-03 -9.7117548269188614e-01
    7.8443445414872540e-03 -9.8260736888103495e-01
    7.8920046264698458e-03 -8.9442719099991586e-01
    7.8443445414872540e-03 -9.8260736888103495e-01
    7.8497170128666478e-03 -9.5986890490667598e-01
    7.8432713703294188e-03 -9.9416904650228155e-01
    7.8464922060152396e-03 -9.7117548269188614e-01
    7.8464922060152414e-03 -1.0296800298420001e+00
    7.8443445414872540e-03 -9.8260736888103495e-01
    7.9283253193840296e-03 -8.6307471239961231e-01
    7.8443445414872540e-03 -9.8260736888103495e-01
    7.8594153422041884e-03 -9.3761446187699082e-01
    7.9150598466463384e-03 -8.7343379711237656e-01
    7.9283253193840296e-03 -8.6307471239961231e-01
    8.1035264522945332e-03 -7.7338919123653083e-01
    8.0554408429249977e-03 -7.9282496717209183e-01
    8.0554408429249977e-03 -7.9282496717209183e-01
    8.2832870447254008e-03 -7.1643166895607413e-01
    9.0389236361705736e-03 -5.7960115596848150e-01
    1.2202602335020537e-02 -3.6393726262341952e-01
    1.7562129205940396e-02 -2.3570226039551584e-01
    1.4303492280140651e-02 -2.9861676865556797e-01
    1.1712549931781635e-02 -3.8425383109529226e-01
    8.7273572820103385e-03 -6.2469504755442429e-01
    8.1573075440362283e-03 -7.5419317117668283e-01
    8.1864322098888515e-03 -7.4467808786445078e-01
    8.1864322098888515e-03 -7.4467808786445078e-01
    7.9283253193840296e-03 -8.6307471239961231e-01
    7.9752852087257887e-03 -8.3250784196348138e-01
    7.8734877175591703e-03 -9.1581093977925077e-01
    7.9029581426731770e-03 -8.8388347648318422e-01
    7.9029581426731770e-03 -8.8388347648318422e-01
    7.8821853039918906e-03 -9.0506847043205130e-01
    7.9029581426731770e-03 -1.1313708498984758e+00
    7.9150598466463367e-03 -1.1449064637824393e+00
    7.8920046264698458e-03 -1.1180339887498947e+00
    7.8540229468234274e-03 -1.0540925533894601e+00
    7.8659009012851545e-03 -1.0791464043517529e+00
    7.8540229468234274e-03 -1.0540925533894601e+00
    7.8432713703294188e-03 -1.0058651529317202e+00
    7.8432713703294188e-03 -1.0058651529317202e+00
    7.8443445414872522e-03 -1.0177004891982144e+00
    7.8540229468234257e-03 -9.4868329805051377e-01
    7.8497170128666478e-03 -9.5986890490667598e-01
    7.8432713703294188e-03 -1.0058651529317202e+00
    7.8594153422041867e-03 -1.0665364503850769e+00
    7.8594153422041867e-03 -1.0665364503850769e+00
    7.9283253193840296e-03 -8.6307471239961231e-01
    7.8497170128666461e-03 -1.0418089333743188e+00
    7.9029581426731770e-03 -8.8388347648318422e-01
    7.9283253193840296e-03 -1.1586482440433152e+00
    7.8659009012851527e-03 -9.2665832547596139e-01
    7.9752852087257887e-03 -8.3250784196348138e-01
    7.9584181784764282e-03 -8.4261497731763579e-01
    8.0554408429249977e-03 -7.9282496717209183e-01
    8.1864322098888515e-03 -7.4467808786445078e-01
    8.1035264522945332e-03 -7.7338919123653083e-01
    8.6731723099555576e-03 -6.3375022229762978e-01
    9.6191743239138448e-03 -5.1639777949432220e-01
    1.3106028524901159e-02 -3.3224931962249432e-01
    1.9791785975149676e-02 -2.0659846763533432e-01
    1.4303492280140651e-02 -2.9861676865556797e-01
    1.2778325951794775e-02 -3.4299717028501764e-01
    9.8255345667450159e-03 -4.9817184031391393e-01
    8.7840774919258902e-03 -6.1565595754813918e-01
    8.2832870447254008e-03 -7.1643166895607413e-01
    8.2832870447254008e-03 -7.1643166895607413e-01
    8.3562802405635073e-03 -6.9782270079091746e-01
    7.9933954454063996e-03 -8.2247832082997430e-01
    8.0554408429249977e-03 -7.9282496717209183e-01
    8.0127734021953004e-03 -8.1252333797699716e-01
    8.0554408429249977e-03 -7.9282496717209183e-01
    7.8734877175591703e-03 -9.1581093977925077e-01
    7.8464922060152396e-03 -9.7117548269188614e-01
    7.9029581426731770e-03 -1.1313708498984758e+00
    8.0127734021953004e-03 -1.2307338795828044e+00
    8.0554408429249977e-03 -1.2613124477737825e+00
    7.9150598466463367e-03 -1.1449064637824393e+00
    7.8443445414872540e-03 -9.8260736888103495e-01
    7.8540229468234274e-03 -1.0540925533894601e+00
    7.8432713703294188e-03 -9.9416904650228155e-01
    7.8432713703294188e-03 -9.9416904650228155e-01
    7.8659009012851545e-03 -1.0791464043517529e+00
    7.8432713703294188e-03 -1.0058651529317202e+00
    7.9283253193840296e-03 -8.6307471239961231e-01
    7.8594153422041884e-03 -9.3761446187699082e-01
    7.8497170128666461e-03 -1.0418089333743188e+00
    7.8432713703294188e-03 -1.0058651529317202e+00
    7.8734877175591703e-03 -1.0919284281983375e+00
    7.8594153422041884e-03 -9.3761446187699082e-01
    7.8443445414872540e-03 -9.8260736888103495e-01
    8.0127734021953004e-03 -8.1252333797699716e-01
    8.0787899957892022e-03 -7.8307569696026913e-01
    8.1296861068310897e-03 -7.6376261582597338e-01
    8.1035264522945332e-03 -7.7338919123653083e-01
    8.5719616400588457e-03 -6.5192024052026487e-01
    8.3189033080770299e-03 -7.0710678118654757e-01
    8.9707288785949146e-03 -5.8860571940254358e-01
    1.1289940203818826e-02 -4.0406101782088433e-01
    1.3106028524901159e-02 -3.3224931962249432e-01
    2.5945837796732825e-02 -1.5476464650682736e-01
    1.6712560481127018e-02 -2.4922239313961342e-01
    1.3106028524901159e-02 -3.3224931962249432e-01
    1.0449915022217105e-02 -4.5191299175026606e-01
    9.8255345667450159e-03 -4.9817184031391393e-01
    9.0389236361705736e-03 -5.7960115596848150e-01
    8.6214088829161938e-03 -6.4282434653322496e-01
    8.5247328418566228e-03 -6.6104068703519780e-01
    8.2493724659976481e-03 -7.2580005117505619e-01
    7.9933954454063996e-03 -8.2247832082997430e-01
    8.1573075440362283e-03 -7.5419317117668283e-01
    7.9933954454063996e-03 -8.2247832082997430e-01
    7.9150598466463384e-03 -8.7343379711237656e-01
    7.9427717857972514e-03 -8.5280286542244166e-01
    7.8659009012851527e-03 -9.2665832547596139e-01
    7.8497170128666461e-03 -1.0418089333743188e+00
    7.8443445414872540e-03 -9.8260736888103495e-01
    7.8464922060152396e-03 -9.7117548269188614e-01
    7.8464922060152396e-03 -9.7117548269188614e-01
    7.8432713703294188e-03 -9.9416904650228155e-01
    7.8821853039918906e-03 -1.1048887820858808e+00
    7.8443445414872522e-03 -1.0177004891982144e+00
    7.9029581426731770e-03 -1.1313708498984758e+00
    7.8659009012851545e-03 -1.0791464043517529e+00
    7.8594153422041884e-03 -9.3761446187699082e-01
    7.8920046264698458e-03 -8.9442719099991586e-01
    7.8659009012851527e-03 -9.2665832547596139e-01
    7.8659009012851545e-03 -1.0791464043517529e+00
    7.8464922060152396e-03 -9.7117548269188614e-01
    7.8443445414872540e-03 -9.8260736888103495e-01
    7.8734877175591703e-03 -9.1581093977925077e-01
    8.1573075440362283e-03 -7.5419317117668283e-01
    8.3562802405635073e-03 -6.9782270079091746e-01
    8.3562802405635073e-03 -6.9782270079091746e-01
    8.3954811448998991e-03 -6.8857674302468475e-01
    8.3189033080770299e-03 -7.0710678118654757e-01
    8.8434557608376152e-03 -6.0663003552412420e-01
    9.1852784298537202e-03 -5.6159114610596861e-01
    1.1493734323791317e-02 -3.9421492285986010e-01
    1.4796387972658356e-02 -2.8684225806644709e-01
    2.5945837796732825e-02 -1.5476464650682736e-01
    1.9791785975149676e-02 -2.0659846763533432e-01
    1.3465735808071306e-02 -3.2128773156099955e-01
    1.0921574556798238e-02 -4.2345052228989660e-01
    1.0179139476758303e-02 -4.7056197405716016e-01
    9.6191743239138448e-03 -5.1639777949432220e-01
    9.1852784298537202e-03 -5.6159114610596861e-01
    9.0389236361705736e-03 -5.7960115596848150e-01
    8.6214088829161938e-03 -6.4282434653322496e-01
    8.4365739799009097e-03 -6.7936622048675743e-01
    8.2171045998719692e-03 -7.3521462209380772e-01
    8.0787899957892022e-03 -7.8307569696026913e-01
    8.1035264522945332e-03 -7.7338919123653083e-01
    8.0334456339462724e-03 -8.0263987518112312e-01
    8.0334456339462724e-03 -8.0263987518112312e-01
    8.0787899957892022e-03 -7.8307569696026913e-01
    7.8734877175591703e-03 -9.1581093977925077e-01
    7.8821853039918906e-03 -9.0506847043205130e-01
    7.9933954454063996e-03 -8.2247832082997430e-01
    7.8734877175591703e-03 -9.1581093977925077e-01
    7.8432713703294188e-03 -9.9416904650228155e-01
    7.8920046264698458e-03 -1.1180339887498947e+00
    7.9427717857972497e-03 -1.1726039399558570e+00
    7.8464922060152396e-03 -9.7117548269188614e-01
    7.8497170128666478e-03 -9.5986890490667598e-01
    7.8464922060152414e-03 -1.0296800298420001e+00
    7.8540229468234274e-03 -1.0540925533894601e+00
    7.8540229468234257e-03 -9.4868329805051377e-01
    7.8821853039918906e-03 -9.0506847043205130e-01
    7.9029581426731770e-03 -8.8388347648318422e-01
    8.2832870447254008e-03 -7.1643166895607413e-01
    8.2493724659976481e-03 -7.2580005117505619e-01
    8.2493724659976481e-03 -7.2580005117505619e-01
    8.3562802405635073e-03 -6.9782270079091746e-01
    8.2493724659976481e-03 -7.2580005117505619e-01
    8.3954811448998991e-03 -6.8857674302468475e-01
    8.9056249322954830e-03 -5.9761430466719689e-01
    9.3462342294910149e-03 -5.4355730650460898e-01
    1.2478354962115544e-02 -3.5355339059327373e-01
    1.4796387972658356e-02 -2.8684225806644709e-01
    2.9870374096094485e-02 -1.3363062095621217e-01
    2.5945837796732825e-02 -1.5476464650682736e-01
    1.4796387972658356e-02 -2.8684225806644709e-01
    1.3862705630558591e-02 -3.1008683647302110e-01
    1.1948149638437797e-02 -3.7416573867739417e-01
    1.0310642913264010e-02 -4.6126560401444255e-01
    1.0179139476758303e-02 -4.7056197405716016e-01
    9.5236333845258748e-03 -5.2547064902340135e-01
    8.9707288785949146e-03 -5.8860571940254358e-01
    9.3462342294910149e-03 -5.4355730650460898e-01
    9.1852784298537202e-03 -5.6159114610596861e-01
    8.6731723099555576e-03 -6.3375022229762978e-01
    8.3562802405635073e-03 -6.9782270079091746e-01
    8.3189033080770299e-03 -7.0710678118654757e-01
    8.2171045998719692e-03 -7.3521462209380772e-01
    8.1296861068310897e-03 -7.6376261582597338e-01
    8.1573075440362283e-03 -7.5419317117668283e-01
    7.8734877175591703e-03 -9.1581093977925077e-01
    7.8821853039918906e-03 -9.0506847043205130e-01
    7.9029581426731770e-03 -8.8388347648318422e-01
    7.9283253193840296e-03 -8.6307471239961231e-01
    7.8821853039918906e-03 -9.0506847043205130e-01
    7.8540229468234274e-03 -1.0540925533894601e+00
    7.8443445414872522e-03 -1.0177004891982144e+00
    7.8497170128666478e-03 -9.5986890490667598e-01
    7.9029581426731770e-03 -8.8388347648318422e-01
    7.8920046264698458e-03 -8.9442719099991586e-01
    7.9283253193840296e-03 -8.6307471239961231e-01
    7.9584181784764282e-03 -8.4261497731763579e-01
    7.9283253193840296e-03 -8.6307471239961231e-01
    8.2832870447254008e-03 -7.1643166895607413e-01
    8.0787899957892022e-03 -7.8307569696026913e-01
    8.2493724659976481e-03 -7.2580005117505619e-01
    8.2171045998719692e-03 -7.3521462209380772e-01
    8.5247328418566228e-03 -6.6104068703519780e-01
    8.9056249322954830e-03 -5.9761430466719689e-01
    9.4327497145561545e-03 -5.3452248382484868e-01
    1.1712549931781635e-02 -3.8425383109529226e-01
    1.2778325951794775e-02 -3.4299717028501764e-01
    1.6712560481127018e-02 -2.4922239313961342e-01
    3.6475191427722362e-02 -1.0878565864408424e-01
    1.9791785975149676e-02 -2.0659846763533432e-01
    1.8570223653198555e-02 -2.2153951024868451e-01
    1.5984519878529047e-02 -2.6220221204253791e-01
    1.3465735808071306e-02 -3.2128773156099955e-01
    1.1493734323791317e-02 -3.9421492285986010e-01
    1.0449915022217105e-02 -4.5191299175026606e-01
    1.0754563837845970e-02 -4.3301270189221930e-01
    1.0054802412509360e-02 -4.7980811512325366e-01
    9.7196908918204591e-03 -5.0729965619589235e-01
    1.0310642913264010e-02 -4.6126560401444255e-01
    9.6191743239138448e-03 -5.1639777949432220e-01
    8.5719616400588457e-03 -6.5192024052026487e-01
    8.2832870447254008e-03 -7.1643166895607413e-01
    8.4365739799009097e-03 -6.7936622048675743e-01
    8.2832870447254008e-03 -7.1643166895607413e-01
    8.2832870447254008e-03 -7.1643166895607413e-01
    8.1864322098888515e-03 -7.4467808786445078e-01
    7.9427717857972514e-03 -8.5280286542244166e-01
    7.9150598466463384e-03 -8.7343379711237656e-01
    7.8659009012851527e-03 -9.2665832547596139e-01
    7.8464922060152396e-03 -9.7117548269188614e-01
    7.8594153422041884e-03 -9.3761446187699082e-01
    8.0127734021953004e-03 -8.1252333797699716e-01
    7.8734877175591703e-03 -9.1581093977925077e-01
    7.9584181784764282e-03 -8.4261497731763579e-01
    7.9752852087257887e-03 -8.3250784196348138e-01
    8.5247328418566228e-03 -6.6104068703519780e-01
    8.3954811448998991e-03 -6.8857674302468475e-01
    8.2493724659976481e-03 -7.2580005117505619e-01
    8.1864322098888515e-03 -7.4467808786445078e-01
    8.1573075440362283e-03 -7.5419317117668283e-01
    8.6731723099555576e-03 -6.3375022229762978e-01
    8.9707288785949146e-03 -5.8860571940254358e-01
    9.0389236361705736e-03 -5.7960115596848150e-01
    9.3462342294910149e-03 -5.4355730650460898e-01
    1.0921574556798238e-02 -4.2345052228989660e-01
    1.2478354962115544e-02 -3.5355339059327373e-01
    1.5984519878529047e-02 -2.6220221204253791e-01
    1.7562129205940396e-02 -2.3570226039551584e-01
    2.9870374096094485e-02 -1.3363062095621217e-01
    2.5945837796732825e-02 -1.5476464650682736e-01
    2.3276457450903253e-02 -1.7355253362515582e-01
    1.8570223653198555e-02 -2.2153951024868451e-01
    1.7562129205940396e-02 -2.3570226039551584e-01
    1.3465735808071306e-02 -3.2128773156099955e-01
    1.1289940203818826e-02 -4.0406101782088433e-01
    1.1099655447137639e-02 -4.1380294430118392e-01
    1.1712549931781635e-02 -3.8425383109529226e-01
    1.0449915022217105e-02 -4.5191299175026606e-01
    1.0179139476758303e-02 -4.7056197405716016e-01
    1.0597633485511116e-02 -4.4249767886870978e-01
    1.0054802412509360e-02 -4.7980811512325366e-01
    9.5236333845258748e-03 -5.2547064902340135e-01
    8.7273572820103385e-03 -6.2469504755442429e-01
    8.5247328418566228e-03 -6.6104068703519780e-01
    8.5719616400588457e-03 -6.5192024052026487e-01
    8.6731723099555576e-03 -6.3375022229762978e-01
    8.0787899957892022e-03 -7.8307569696026913e-01
    7.9584181784764282e-03 -8.4261497731763579e-01
    7.9029581426731770e-03 -8.8388347648318422e-01
    7.8594153422041884e-03 -9.3761446187699082e-01
    7.8734877175591703e-03 -9.1581093977925077e-01
    7.9029581426731770e-03 -8.8388347648318422e-01
    7.9933954454063996e-03 -8.2247832082997430e-01
    7.9427717857972514e-03 -8.5280286542244166e-01
    8.2171045998719692e-03 -7.3521462209380772e-01
    8.4365739799009097e-03 -6.7936622048675743e-01
    8.1864322098888515e-03 -7.4467808786445078e-01
    8.2493724659976481e-03 -7.2580005117505619e-01
    8.4365739799009097e-03 -6.7936622048675743e-01
    8.5247328418566228e-03 -6.6104068703519780e-01
    8.9707288785949146e-03 -5.8860571940254358e-01
    9.2638238081604839e-03 -5.5257896399553763e-01
    9.2638238081604839e-03 -5.5257896399553763e-01
    1.1493734323791317e-02 -3.9421492285986010e-01
    1.2478354962115544e-02 -3.5355339059327373e-01
    1.4796387972658356e-02 -2.8684225806644709e-01
    1.5984519878529047e-02 -2.6220221204253791e-01
    2.1312693171372063e-02 -1.9069251784911848e-01
    3.6475191427722362e-02 -1.0878565864408424e-01
    2.5945837796732825e-02 -1.5476464650682736e-01
    2.9870374096094485e-02 -1.3363062095621217e-01
    2.3276457450903253e-02 -1.7355253362515582e-01
    1.9791785975149676e-02 -2.0659846763533432e-01
    1.6712560481127018e-02 -2.4922239313961342e-01
    1.2478354962115544e-02 -3.5355339059327373e-01
    1.1948149638437797e-02 -3.7416573867739417e-01
    1.2202602335020537e-02 -3.6393726262341952e-01
    1.2202602335020537e-02 -3.6393726262341952e-01
    1.1099655447137639e-02 -4.1380294430118392e-01
    1.1712549931781635e-02 -3.8425383109529226e-01
    1.0179139476758303e-02 -4.7056197405716016e-01
    1.0449915022217105e-02 -4.5191299175026606e-01
    1.0179139476758303e-02 -4.7056197405716016e-01
    9.8255345667450159e-03 -4.9817184031391393e-01
    8.9707288785949146e-03 -5.8860571940254358e-01
    8.6214088829161938e-03 -6.4282434653322496e-01
    8.7273572820103385e-03 -6.2469504755442429e-01
    8.1035264522945332e-03 -7.7338919123653083e-01
    8.0554408429249977e-03 -7.9282496717209183e-01
    8.0554408429249977e-03 -7.9282496717209183e-01
    8.5247328418566228e-03 -6.6104068703519780e-01
    8.2493724659976481e-03 -7.2580005117505619e-01
    8.1864322098888515e-03 -7.4467808786445078e-01
    8.1296861068310897e-03 -7.6376261582597338e-01
    8.4796317344325509e-03 -6.7018843795822181e-01
    8.6214088829161938e-03 -6.4282434653322496e-01
    8.6731723099555576e-03 -6.3375022229762978e-01
    9.1852784298537202e-03 -5.6159114610596861e-01
    9.1103786899089569e-03 -5.7059740215745569e-01
    8.8434557608376152e-03 -6.0663003552412420e-01
    9.4327497145561545e-03 -5.3452248382484868e-01
    9.9370944294274750e-03 -4.8900964692182575e-01
    1.1712549931781635e-02 -3.8425383109529226e-01
    1.4796387972658356e-02 -2.8684225806644709e-01
    1.5984519878529047e-02 -2.6220221204253791e-01
    1.9791785975149676e-02 -2.0659846763533432e-01
    2.5945837796732825e-02 -1.5476464650682736e-01
    3.6475191427722362e-02 -1.0878565864408424e-01
    5.1431769840353074e-02 -7.6696498884737035e-02
    3.6475191427722362e-02 -1.0878565864408424e-01
    2.9870374096094485e-02 -1.3363062095621217e-01
    3.6475191427722362e-02 -1.0878565864408424e-01
    2.1312693171372063e-02 -1.9069251784911848e-01
    2.1312693171372063e-02 -1.9069251784911848e-01
    2.1312693171372063e-02 -1.9069251784911848e-01
    1.5352063029559361e-02 -2.7472112789737807e-01
    1.3106028524901159e-02 -3.3224931962249432e-01
    1.2778325951794775e-02 -3.4299717028501764e-01
    1.1948149638437797e-02 -3.7416573867739417e-01
    1.1712549931781635e-02 -3.8425383109529226e-01
    1.2478354962115544e-02 -3.5355339059327373e-01
    1.0921574556798238e-02 -4.2345052228989660e-01
    1.1099655447137639e-02 -4.1380294430118392e-01
    1.0054802412509360e-02 -4.7980811512325366e-01
    1.0310642913264010e-02 -4.6126560401444255e-01
    8.9707288785949146e-03 -5.8860571940254358e-01
    8.4365739799009097e-03 -6.7936622048675743e-01
    9.0389236361705736e-03 -5.7960115596848150e-01
    8.9707288785949146e-03 -5.8860571940254358e-01
    8.2171045998719692e-03 -7.3521462209380772e-01
    8.8434557608376152e-03 -6.0663003552412420e-01
    8.2832870447254008e-03 -7.1643166895607413e-01
    8.8434557608376152e-03 -6.0663003552412420e-01
    8.2493724659976481e-03 -7.2580005117505619e-01
    8.7840774919258902e-03 -6.1565595754813918e-01
    9.1103786899089569e-03 -5.7059740215745569e-01
    9.4327497145561545e-03 -5.3452248382484868e-01
    9.8255345667450159e-03 -4.9817184031391393e-01
    9.5236333845258748e-03 -5.2547064902340135e-01
    9.2638238081604839e-03 -5.5257896399553763e-01
    1.0054802412509360e-02 -4.7980811512325366e-01
    1.2478354962115544e-02 -3.5355339059327373e-01
    1.4303492280140651e-02 -2.9861676865556797e-01
    1.8570223653198555e-02 -2.2153951024868451e-01
    1.8570223653198555e-02 -2.2153951024868451e-01
    2.1312693171372063e-02 -1.9069251784911848e-01
    2.9870374096094485e-02 -1.3363062095621217e-01
    5.1431769840353074e-02 -7.6696498884737035e-02
    5.1431769840353074e-02 -7.6696498884737035e-02
    3.6475191427722362e-02 -1.0878565864408424e-01
    3.6475191427722362e-02 -1.0878565864408424e-01
    2.9870374096094485e-02 -1.3363062095621217e-01
    5.1431769840353074e-02 -7.6696498884737035e-02
    2.9870374096094485e-02 -1.3363062095621217e-01
    2.5945837796732825e-02 -1.5476464650682736e-01
    2.3276457450903253e-02 -1.7355253362515582e-01
    1.8570223653198555e-02 -2.2153951024868451e-01
    1.5352063029559361e-02 -2.7472112789737807e-01
    1.4303492280140651e-02 -2.9861676865556797e-01
    1.3465735808071306e-02 -3.2128773156099955e-01
    1.3862705630558591e-02 -3.1008683647302110e-01
    1.4303492280140651e-02 -2.9861676865556797e-01
    1.5352063029559361e-02 -2.7472112789737807e-01
    1.2778325951794775e-02 -3.4299717028501764e-01
    1.2202602335020537e-02 -3.6393726262341952e-01
    1.2778325951794775e-02 -3.4299717028501764e-01
    1.2778325951794775e-02 -3.4299717028501764e-01
    1.1493734323791317e-02 -3.9421492285986010e-01
    8.7273572820103385e-03 -6.2469504755442429e-01
    8.7840774919258902e-03 -6.1565595754813918e-01
    9.9370944294274750e-03 -4.8900964692182575e-01
    9.1852784298537202e-03 -5.6159114610596861e-01
    9.1103786899089569e-03 -5.7059740215745569e-01
    9.8255345667450159e-03 -4.9817184031391393e-01
    1.0054802412509360e-02 -4.7980811512325366e-01
    1.0179139476758303e-02 -4.7056197405716016e-01
    1.0054802412509360e-02 -4.7980811512325366e-01
    1.0754563837845970e-02 -4.3301270189221930e-01
    1.0597633485511116e-02 -4.4249767886870978e-01
    1.2778325951794775e-02 -3.4299717028501764e-01
    1.3106028524901159e-02 -3.3224931962249432e-01
    1.8570223653198555e-02 -2.2153951024868451e-01
    1.9791785975149676e-02 -2.0659846763533432e-01
    2.3276457450903253e-02 -1.7355253362515582e-01
    2.9870374096094485e-02 -1.3363062095621217e-01
    2.9870374096094485e-02 -1.3363062095621217e-01
    2.9870374096094485e-02 -1.3363062095621217e-01
    3.6475191427722362e-02 -1.0878565864408424e-01</input_scale>
  <output_scale>
    1.0526315789473684e+00 0.</output_scale>
  <inv_output_scale>
    9.4999999999999996e-01 0.</inv_output_scale>
  <weights>
    <_>
      1.9841946127465360e-02 8.7242411154946371e-03
      7.6858498194887718e-03 -3.8615866086676729e-04
      -7.7741643754883323e-03 -2.5790155280626913e-03
      2.1708011887847769e-03 -6.9204152830367677e-03
      2.7383001255419327e-03 8.6125353563354066e-03
      -3.2334815300771968e-03 7.0145089324170655e-03
      -1.6862713398886489e-03 -4.1083641118831891e-03
      3.8906510569378908e-03 -4.1200991236961075e-03
      4.4821151249961211e-03 6.4462707332021757e-03
      -1.0842411081407299e-02 9.0623176474055218e-03
      -6.2467248169579791e-03 -4.4669504283282807e-03
      -3.8917241044901388e-03 9.6350287578399890e-03
      -4.0508143632879221e-03 3.3532033149646736e-03
      9.5051705538057012e-03 -9.5873173565709929e-03
      5.0087178794849989e-05 -2.9461052737847710e-03
      -7.3633804473302545e-03 -9.3968025216850642e-03
      9.9182733601926344e-03 1.2149898008596781e-03
      5.2266030939227600e-03 -3.2499689016903220e-03
      9.4516688544881381e-03 2.8941866407261119e-03
      -7.4462931703815722e-03 -8.3027595065521664e-03
      1.4864159862325987e-01 5.4138071678781374e-02
      4.6060910351571213e-02 1.2568988633149196e-02
      -4.2661666264991918e-02 -2.6536917768268372e-04
      -1.1129503231760353e-02 -3.7298609145562690e-02
      2.9487063798178709e-03 6.2121863603243940e-02
      6.7355757076639133e-03 3.8031859764334527e-02
      9.3982203291074710e-03 -2.2060811156969177e-02
      1.9714982465525123e-03 6.0619654315534578e-03
      1.7168863506129655e-03 3.0780029552133582e-02
      -6.6263746311945385e-02 6.5228451713757921e-02
      -3.4348596395289040e-02 4.1078418882676464e-04
      -1.6582649327178238e-03 4.7902978897595871e-02
      5.4754011216172011e-03 2.6990055378587474e-04
      5.8003254233196647e-02 -5.9858594973507387e-02
      1.1621360396592201e-02 5.6209511253400421e-03
      -4.8790826568445675e-02 -5.5867734403368646e-02
      6.5130610574614778e-02 1.4539343416379316e-02
      2.5418135012641115e-02 -8.7216575783226173e-04
      4.7161327280330248e-02 1.8800630992825584e-02
      -5.2640700335772395e-02 -4.4579586211927813e-02
      1.8825763682559146e-01 6.7547727393160686e-02
      5.6863747067243980e-02 1.7143995255104707e-02
      -5.1100629735927966e-02 5.9048655075375194e-03
      -1.5329221835145453e-02 -4.6039737896810456e-02
      -1.1831861353303321e-03 7.9091868774533849e-02
      1.1619713041226255e-02 4.3935785598672089e-02
      1.4661830374762716e-02 -2.8785252171820843e-02
      7.6208855693028906e-04 9.5972427750617411e-03
      -4.4568652848801397e-04 3.8176378146375964e-02
      -8.2428130180014686e-02 8.2384688655889340e-02
      -4.1487686799398932e-02 3.9085133571171724e-03
      2.6209037363858994e-04 5.8228135749667641e-02
      9.8250135365040691e-03 -8.6031094975310817e-04
      7.2548067608286790e-02 -7.5253043171934708e-02
      1.7700161629367099e-02 1.0671180948003473e-02
      -5.9404307526625261e-02 -7.0915839941781231e-02
      8.2802971575438034e-02 1.8410951262724230e-02
      3.2385660675346283e-02 3.8435562088306209e-03
      5.5605269458960965e-02 2.4907446444185025e-02
      -6.5486101710125560e-02 -5.3472012518521038e-02
      -5.6608375907186883e-04 9.8280077323760939e-04
      5.8674145612284837e-04 -2.3404810589499834e-05
      5.1210201631407039e-04 -3.6144653169046793e-04
      1.0328318839991015e-03 -7.3189054801951596e-04
      3.4695438364743398e-04 -4.4022363701253322e-04
      1.6853111414949609e-04 5.4427262316709827e-04
      4.0928371062340927e-04 -5.0198130336476655e-04
      -5.3837339186742325e-04 5.4130025805742177e-04
      7.2451646606574787e-04 7.2928225531841261e-04
      -8.9596085780997226e-04 -1.0633593111381934e-03
      4.7189397411756106e-04 -4.9248951343733988e-04
      9.9480067882329781e-04 -2.5035076196965137e-04
      1.2025051274339787e-03 7.9488783461768411e-05
      -2.3343960668910767e-04 -8.4511454584403696e-04
      1.2165178234286608e-03 4.8608291870555205e-04
      8.1330602239910749e-04 1.0184280383176761e-03
      1.0704245511725459e-03 -7.2497964613305542e-04
      4.9328224232276271e-04 1.8830881034114335e-04
      9.4414942372186774e-04 6.1239348253836216e-04
      8.3569334300787762e-04 -7.7516820246783386e-04
      -3.3332836370044347e-02 -2.3000263468914298e-03
      -1.3430930943955331e-03 -8.0829031756885512e-03
      5.3707118525733754e-04 -7.7271349669667359e-03
      8.7991135814807133e-03 2.4759675811801816e-03
      6.0775776636877591e-03 -3.7182995895464824e-03
      -8.5229636917445954e-03 -2.5292125481559107e-03
      -7.4106473734982222e-03 4.4053138370226562e-03
      4.7959465312125684e-03 -1.0061060636359798e-02
      7.7419378549303990e-03 -2.9802039723141778e-03
      3.3119423999002553e-03 -4.2031498967252398e-03
      1.4052947469652159e-03 -8.4407430551246120e-03
      -7.2877447401490658e-03 -8.0157176035758500e-04
      -8.3604428503945057e-03 8.3854279075236005e-03
      -4.2009710195457023e-03 3.9721595661516076e-03
      -9.0364004526263218e-03 -9.1013093864290157e-03
      3.2317847148568331e-03 3.8879586104731906e-03
      -4.4264712882539220e-03 -7.2577743297608148e-03
      -5.4420418203290060e-03 -7.2041382976263373e-03
      -1.5866182750824574e-03 -4.5904414775135224e-03
      2.0338008795963824e-03 1.9741892063243607e-03
      -3.2907072204077702e-02 -3.6710189993445011e-03
      -4.9232602424132278e-04 -7.4529745218784348e-03
      1.6811574040073909e-03 -9.0765359897593788e-03
      8.2882855179155796e-03 2.0184570030539234e-03
      6.2304428140099585e-03 -3.5041253375549331e-03
      -9.7635880224334372e-03 -2.9374915320043793e-03
      -7.2167723626362134e-03 3.9991164381215274e-03
      6.3955238027744677e-03 -9.6027624159270037e-03
      7.0421943677915809e-03 -4.3777978546545209e-03
      1.3883248849537592e-03 -4.3549439850711774e-03
      1.4148790254531170e-03 -7.0501585679764870e-03
      -5.8601735785865482e-03 -6.8872753428042327e-04
      -1.0350842464228790e-02 7.6901134716219656e-03
      -2.5993984903152252e-03 3.2157704418449996e-03
      -8.5424637547614288e-03 -8.8264744723982949e-03
      2.5848010678428185e-03 3.7892915918577965e-03
      -2.9494339155746682e-03 -6.3587535697186108e-03
      -4.2323002843775714e-03 -7.2979645665602281e-03
      -8.0772534190464698e-04 -4.6036482055230787e-03
      3.0894514357843379e-03 5.4853665134057671e-04
      3.9222059186443420e-02 4.9763729710953428e-03
      7.5750991625797614e-03 8.4104698037432059e-03
      -9.0163443590006581e-03 1.9829128947058713e-03
      -7.4672217279175218e-03 -9.4277830195204117e-03
      -7.6735705338089560e-04 7.8923208608107365e-03
      5.5297951034288147e-03 9.1073977374287237e-03
      6.3383680892007332e-03 -9.3195451208170528e-03
      -6.5657855153914465e-04 5.8380993021142002e-03
      -2.4595435151930434e-03 6.7484146816626893e-03
      -6.5926234624252922e-03 9.0651546733806591e-03
      -8.8173589532890232e-03 3.1114028251076043e-03
      2.3345486490870949e-03 5.8532076431978847e-03
      3.4632704914034436e-03 -7.6887587262070456e-04
      6.4576593258005143e-03 -4.8496230694617158e-03
      6.3849169020592312e-03 5.5769321351943311e-03
      -4.7003346023474085e-03 -4.7806910939078547e-03
      9.1788090067525720e-03 7.3311811928227178e-03
      9.6738575169385988e-03 3.2605861668081964e-03
      6.1499761421586960e-03 1.0013733401923635e-02
      -6.1615617854497784e-03 -7.0787396311608906e-03
      5.9045204677213685e-02 -8.5949676542895612e-05
      1.3170993011695172e-03 1.4674983171746469e-02
      -5.1598096573300424e-03 1.0348434314181415e-02
      -1.3595318837519773e-02 -5.8305580210066370e-03
      -5.5961380558795749e-03 1.5515606636372593e-03
      1.4726246503077411e-02 7.7802565912363413e-03
      1.3215321898977991e-02 -1.5014614118807139e-02
      -4.8863031852815512e-03 1.1737339676628289e-02
      -7.8794441851545230e-03 9.7496779337961394e-03
      -1.3356023913574733e-03 2.4264559602873229e-03
      -7.0842577289396301e-03 7.6432087742051924e-03
      6.9075472005785798e-03 2.9086035659030402e-03
      1.1996573659032719e-02 -8.9423995622181281e-03
      -2.8588507319466039e-04 -1.2094940050074816e-03
      1.5437360071579779e-02 1.2767708391487779e-02
      -1.9840836192862952e-03 -7.5635958347569372e-04
      3.0381065168682193e-03 1.5334243150004277e-02
      1.3969926470982231e-02 9.1414118435089245e-03
      3.4356349837214389e-03 1.5681211546305300e-02
      4.7636621376072504e-04 -2.8396048405762990e-03
      8.8439368289639747e-02 2.3772001997036277e-02
      2.1328707519924224e-02 1.1087665281550247e-02
      -2.0432264464196895e-02 1.9208653698501812e-03
      -9.3134208735203301e-03 -1.8863043038312700e-02
      1.3798039765862828e-04 2.7613713442542171e-02
      6.0133257102147558e-03 1.8270428225084751e-02
      7.4696750287275198e-03 -1.6674755780114570e-02
      2.6562816253535964e-04 4.4456276778380276e-03
      7.6918271297141786e-05 1.5222566146659630e-02
      -2.9167224311378508e-02 2.8035055633843894e-02
      -1.7015262450805448e-02 -5.4128946251547918e-04
      9.5491202730234326e-04 1.9960234710687717e-02
      4.0835524484195175e-03 -6.8851359368356680e-04
      2.5344815708479941e-02 -2.5305781605168439e-02
      7.7178084810002106e-03 6.4242868657141726e-03
      -2.1947499448735718e-02 -2.3758827367589629e-02
      2.8746921161821849e-02 1.1136972066883731e-02
      1.4924046961739731e-02 3.5738004969309889e-04
      2.2023361533544915e-02 1.2969332244007648e-02
      -2.2948535962193747e-02 -1.9381426525071594e-02
      -1.2776738258956614e-02 -9.4758731957713619e-03
      -4.3100666752535540e-03 -7.1523421251012465e-04
      3.4564288981597299e-03 -4.0193405651101988e-03
      7.5982621774074233e-04 2.0776803196983621e-03
      1.6640260402207081e-03 -9.0094691440098951e-03
      -1.5883500924810021e-03 -1.4154455878637561e-03
      -1.9849736906616378e-03 -5.4788833804559104e-04
      3.5694574394171553e-03 -3.6831291608735990e-03
      3.5090202590169327e-03 -5.0265560850911101e-04
      9.2904147482897916e-03 -8.7413102835013964e-03
      1.9914951417999804e-03 -3.4136651768202088e-03
      -3.9466571875840092e-03 -4.9756263034696569e-03
      -2.1455567961071575e-03 3.9519474575130283e-03
      -9.3521518099545561e-03 9.8998816469850603e-03
      -1.1429704068908135e-03 -2.3153235267493254e-03
      6.9657308814446367e-03 8.4540599304064913e-03
      -9.2422583445016422e-03 4.6870201997988893e-04
      1.1466982172326199e-04 -4.8447550754643597e-03
      -4.0824405469631810e-03 1.7349572856785792e-03
      6.7597629889733770e-03 3.8447475741004004e-03
      5.1615440835875416e-02 7.9049017735014545e-03
      1.2849656865395215e-02 3.7508452924048673e-03
      -1.1597336838105973e-02 6.4329885249554274e-04
      -3.9622384253706613e-03 -1.3603146922867149e-02
      5.5439003839036422e-04 -4.6597222497278806e-03
      3.3375955158911762e-03 1.2207647074283234e-02
      3.4940140520095418e-03 -5.3721410935613960e-03
      -4.7095990842445530e-04 3.8587921839828649e-04
      -5.1380365538528756e-04 7.1964503184386774e-03
      2.2960436851211831e-03 -5.3099416837873023e-03
      -1.2937753080639991e-02 8.7138104786118210e-04
      1.3173503454135831e-03 1.3043252736175334e-02
      7.0961053826955475e-04 7.2114719299842844e-04
      3.8389198101232611e-03 -1.9112209681249230e-03
      2.9132815895370505e-03 1.7766230906916247e-03
      -1.0677877368926423e-02 -5.3736565915042823e-03
      -6.1792264536433064e-03 3.6561951052244677e-03
      5.6127837175254077e-03 -9.9000478534484000e-04
      1.3613038715933588e-02 5.9107155713480370e-03
      -1.0647147714428633e-02 -1.2451429205903728e-02
      1.0570067403137814e-01 3.0519255990748392e-02
      3.1451548427647594e-02 7.3435393153871579e-03
      -2.9596710117863780e-02 -1.4834808892406023e-03
      -5.9813846820789256e-03 -2.5855537521539698e-02
      1.7510348028251025e-03 2.0861953534926897e-02
      4.3686371453888215e-03 2.5602830899466071e-02
      5.7679554689927370e-03 -1.5253955714057950e-02
      1.0277815529983231e-03 3.0376160051720342e-03
      6.9102047650592237e-04 2.0306422645005505e-02
      -2.4106725332961786e-02 2.3755028152793928e-02
      -2.4339209820766719e-02 -1.1254793054179463e-03
      -2.3875925497270369e-03 3.1197526316131458e-02
      2.1612581553716015e-03 2.4008595157269112e-03
      2.7738371700140461e-02 -2.6678572939565819e-02
      6.6384534848245146e-03 1.6735120320195557e-03
      -2.9365642917616858e-02 -2.7480953234077617e-02
      2.2439072016094550e-02 7.7229275566714512e-03
      1.6950508033797856e-02 -1.8333953822526265e-03
      3.1228146593430477e-02 1.0384873620831058e-02
      -2.9415726512515377e-02 -2.8899257476966148e-02
      5.9951396941606304e-02 8.9133311191317652e-03
      1.1307330485707629e-02 7.9724738642774542e-03
      -1.1135095732324825e-02 1.4415801029580464e-03
      -5.8462576456274904e-03 -1.2776680382993830e-02
      -9.4059787655584337e-04 5.6171872303390786e-03
      4.0103748706285976e-03 1.4408802824696801e-02
      4.8925770045051761e-03 -9.4735428047662707e-03
      -1.5398265564348717e-03 4.5543550900079884e-03
      -2.7409133799273953e-03 1.0816457098406665e-02
      -8.9265918418013467e-03 6.8940616742935133e-03
      -1.2563175979408328e-02 1.0634206722315155e-03
      2.3905694648887160e-03 1.2102746366480985e-02
      2.5502262749367123e-03 -2.2345861985241483e-03
      8.7378180317089667e-03 -8.4863474091653249e-03
      5.9155013216405008e-03 3.7785546297195724e-03
      -1.1801378445473234e-02 -1.0082985008972586e-02
      7.0004254151188111e-03 7.3649869562638489e-03
      9.9082635467721107e-03 1.6055582317963983e-03
      1.1190544185365312e-02 8.2941863182166148e-03
      -1.0044889044349966e-02 -1.2953091504991635e-02
      1.9382191192786768e-01 4.8859952695463650e-02
      4.0806833914761344e-02 2.3792160324570863e-02
      -4.1337310797489840e-02 1.7433141949327269e-02
      -2.3116692462122074e-02 -3.5778379603748113e-02
      -1.2474113489142253e-02 5.7871756228024741e-02
      2.1598519285731380e-02 3.6086831089082769e-02
      2.3366121210332352e-02 -2.9522275960179353e-02
      -9.0405728242851022e-03 2.0262848179482783e-02
      -1.3309426867240206e-02 3.1201334458104777e-02
      -6.0888879201331972e-02 5.9311583428029314e-02
      -3.6803448633622171e-02 1.6368553442693980e-02
      1.1384679494545811e-02 4.0308372887076310e-02
      2.0393645105822839e-02 -1.4819232022508018e-02
      5.2575467040935971e-02 -5.4547984752590088e-02
      2.3273327449125143e-02 2.0665811879576737e-02
      -4.4188728697350507e-02 -5.1953418660242751e-02
      5.9800435057439781e-02 2.5312120797797502e-02
      3.0210002867437025e-02 1.4995239676164241e-02
      4.0924342667277014e-02 2.5936612811972102e-02
      -4.6939418441052053e-02 -3.9904716538090752e-02
      2.9928026625828252e-01 6.3639319503282069e-02
      6.0132638010951950e-02 4.3629627040906935e-02
      -6.2821991202968969e-02 2.5815014336662220e-02
      -3.9730325823677776e-02 -6.0500209091542245e-02
      -1.5959580341570141e-02 6.3353796401327545e-02
      3.7866774316976257e-02 6.2376125578382381e-02
      4.0276385294211563e-02 -5.1148187266395730e-02
      -1.4024722925890507e-02 3.3901734373690720e-02
      -1.7198339413627219e-02 5.6263931065862909e-02
      -6.5201425726319040e-02 6.2161044983258112e-02
      -5.9909749516442769e-02 2.1377549614606105e-02
      1.6276508927372896e-02 6.1108794050066355e-02
      3.2677205215271329e-02 -1.9077388665855378e-02
      6.2253637022037414e-02 -6.2930931937281220e-02
      4.0533289755498983e-02 3.4832175630740148e-02
      -6.0532709749359134e-02 -6.2732028940903503e-02
      6.3784243003796579e-02 4.4998443122701723e-02
      5.4235766707586779e-02 2.0016577408856488e-02
      6.1345819589328256e-02 4.9966938826256517e-02
      -6.2274648464249661e-02 -6.2742116219089081e-02
      1.0384997119647921e-01 1.0638232538675265e-02
      1.3651786810049162e-02 1.6809176632734450e-02
      -1.7918490688393945e-02 1.0387914336682152e-02
      -1.6416205695353833e-02 -1.9594643392768649e-02
      -7.9436642006232815e-03 1.1043420556614227e-02
      1.5179133018521734e-02 1.9125456909300818e-02
      1.6712987525325795e-02 -2.1606270464687726e-02
      -4.8593063126264316e-03 1.2281000915907857e-02
      -6.9264461337975296e-03 1.8255180482189499e-02
      -8.9714937390856994e-03 1.1624377464943910e-02
      -2.0318277921125880e-02 9.6837468996007463e-03
      5.7886267073583965e-03 1.4306316725543479e-02
      1.1826939917318341e-02 -8.5470933885765637e-03
      1.3601835837587204e-02 -1.0717463037884015e-02
      1.7750927445291605e-02 1.2904970918672343e-02
      -1.2753682753881375e-02 -1.1652323145446902e-02
      1.1134909610751240e-02 1.9045915386058914e-02
      2.0346711219545854e-02 8.1116812174700809e-03
      1.4775819830310911e-02 2.0646805075036100e-02
      -1.2827799129655515e-02 -1.6167849026959898e-02
      1.8279754254795372e-01 6.6229860132237237e-02
      5.4989734585782227e-02 1.7142687086306257e-02
      -4.7435145398671809e-02 -2.7342664920700159e-04
      -1.3480430653442560e-02 -4.0631211172392087e-02
      1.8010899986854001e-03 7.8537008788784668e-02
      9.5109423499718012e-03 4.0138482423899585e-02
      1.2631505908904467e-02 -2.4909848869267795e-02
      1.8362031228112846e-03 8.2214780143810961e-03
      1.9914444030009909e-03 3.3193339473653549e-02
      -7.4100620694172434e-02 8.1474741654159327e-02
      -3.6600108302164994e-02 -1.3609123338958087e-03
      -2.1714622033891079e-03 5.4775099613960723e-02
      6.9218314659963073e-03 3.9243942766500504e-04
      7.2535448628800556e-02 -7.2339081634664265e-02
      1.3475438025815771e-02 8.9055202827711174e-03
