<?xml version="1.0"?>
<opencv_storage>
<shapeML type_id="opencv-ml-ann-mlp">
  <layer_sizes type_id="opencv-matrix">
    <rows>1</rows>
    <cols>3</cols>
    <dt>i</dt>
    <data>
      1600 40 1</data></layer_sizes>
  <activation_function>SIGMOID_SYM</activation_function>
  <f_param1>5.9999999999999998e-01</f_param1>
  <f_param2>1.</f_param2>
  <min_val>-9.4999999999999996e-01</min_val>
  <max_val>9.4999999999999996e-01</max_val>
  <min_val1>-9.7999999999999998e-01</min_val1>
  <max_val1>9.7999999999999998e-01</max_val1>
  <training_params>
    <train_method>BACKPROP</train_method>
    <dw_scale>1.0000000000000001e-01</dw_scale>
    <moment_scale>1.0000000000000001e-01</moment_scale>
    <term_criteria><epsilon>9.9999999747524271e-07</epsilon>
      <iterations>4000</iterations></term_criteria></training_params>
  <input_scale>
    4.9760099496040412e-02 -7.9305158571814402e-02
    3.5296875323169379e-02 -1.1250879009260240e-01
    4.9760099496040412e-02 -7.9305158571814402e-02 1. 0.
    4.9760099496040412e-02 -7.9305158571814402e-02
    4.9760099496040412e-02 -7.9305158571814402e-02
    3.5296875323169379e-02 -1.1250879009260240e-01
    2.8911415064099853e-02 -1.3823270327522744e-01
    2.2538704568065868e-02 -1.7960530202677488e-01
    2.0641621802659420e-02 -1.9738550848793071e-01
    1.9172779022812263e-02 -2.1389631597324932e-01
    1.7020412209592876e-02 -2.4413653763134782e-01
    2.0641621802659420e-02 -1.9738550848793071e-01
    1.7993390891808767e-02 -2.2941573387056177e-01
    1.7993390891808767e-02 -2.2941573387056177e-01
    1.7993390891808767e-02 -2.2941573387056177e-01
    1.6200714650802268e-02 -2.5819888974716115e-01
    1.4353223870483999e-02 -2.9738085706659034e-01
    1.3453961221493895e-02 -3.2163376045133840e-01
    1.0982588894337331e-02 -4.2008402520840293e-01
    9.3911269033607782e-03 -5.3881590608032470e-01
    1.0630182707007016e-02 -4.4048819592160321e-01
    1.2122534964830045e-02 -3.6708551190375982e-01
    1.3878398594629297e-02 -3.0966176864266620e-01
    1.4353223870483999e-02 -2.9738085706659034e-01
    1.6200714650802268e-02 -2.5819888974716115e-01
    2.2538704568065868e-02 -1.7960530202677488e-01
    1.7020412209592876e-02 -2.4413653763134782e-01
    1.9172779022812263e-02 -2.1389631597324932e-01
    2.8911415064099853e-02 -1.3823270327522744e-01
    2.8911415064099853e-02 -1.3823270327522744e-01
    2.2538704568065868e-02 -1.7960530202677488e-01
    2.0641621802659420e-02 -1.9738550848793071e-01
    3.5296875323169379e-02 -1.1250879009260240e-01
    4.9760099496040412e-02 -7.9305158571814402e-02
    3.5296875323169379e-02 -1.1250879009260240e-01
    3.5296875323169379e-02 -1.1250879009260240e-01
    4.9760099496040412e-02 -7.9305158571814402e-02 1. 0. 1. 0.
    4.9760099496040412e-02 -7.9305158571814402e-02
    3.5296875323169379e-02 -1.1250879009260240e-01
    4.9760099496040412e-02 -7.9305158571814402e-02 1. 0.
    3.5296875323169379e-02 -1.1250879009260240e-01
    3.5296875323169379e-02 -1.1250879009260240e-01
    3.5296875323169379e-02 -1.1250879009260240e-01
    2.5118141773347001e-02 -1.6012815380508713e-01
    1.7020412209592876e-02 -2.4413653763134782e-01
    1.7020412209592876e-02 -2.4413653763134782e-01
    1.6200714650802268e-02 -2.5819888974716115e-01
    1.3453961221493895e-02 -3.2163376045133840e-01
    1.4353223870483999e-02 -2.9738085706659034e-01
    1.2725865322585673e-02 -3.4479141358380555e-01
    1.1177781107073584e-02 -4.0973553870616608e-01
    9.5863895114061317e-03 -5.1946248164931974e-01
    9.9221114321795360e-03 -4.9021431794612019e-01
    9.6921688568588054e-03 -5.0974750581541783e-01
    8.7221715684005132e-03 -6.2554324217122426e-01
    9.4861671657217820e-03 -5.2915026221291817e-01
    8.7221715684005132e-03 -6.2554324217122426e-01
    8.7221715684005132e-03 -6.2554324217122426e-01
    8.7826276228369308e-03 -6.1588176205143974e-01
    9.4861671657217820e-03 -5.2915026221291817e-01
    1.1387513861029454e-02 -3.9927470475234522e-01
    1.2725865322585673e-02 -3.4479141358380555e-01
    1.3453961221493895e-02 -3.2163376045133840e-01
    1.3453961221493895e-02 -3.2163376045133840e-01
    1.3453961221493895e-02 -3.2163376045133840e-01
    1.7993390891808767e-02 -2.2941573387056177e-01
    1.7993390891808767e-02 -2.2941573387056177e-01
    2.0641621802659420e-02 -1.9738550848793071e-01
    1.9172779022812263e-02 -2.1389631597324932e-01
    1.9172779022812263e-02 -2.1389631597324932e-01
    2.5118141773347001e-02 -1.6012815380508713e-01
    2.5118141773347001e-02 -1.6012815380508713e-01
    3.5296875323169379e-02 -1.1250879009260240e-01 1. 0. 1. 0.
    4.9760099496040412e-02 -7.9305158571814402e-02
    4.9760099496040412e-02 -7.9305158571814402e-02
    3.5296875323169379e-02 -1.1250879009260240e-01
    3.5296875323169379e-02 -1.1250879009260240e-01
    3.5296875323169379e-02 -1.1250879009260240e-01
    2.8911415064099853e-02 -1.3823270327522744e-01
    2.2538704568065868e-02 -1.7960530202677488e-01
    2.0641621802659420e-02 -1.9738550848793071e-01
    1.7993390891808767e-02 -2.2941573387056177e-01
    1.4353223870483999e-02 -2.9738085706659034e-01
    1.3453961221493895e-02 -3.2163376045133840e-01
    1.3071895424836602e-02 -3.3333333333333337e-01
    1.2410788582419381e-02 -3.5603449745815596e-01
    1.0470612796272080e-02 -4.5056355688958294e-01
    9.0564748108176597e-03 -5.7735026918962584e-01
    8.9127998388570367e-03 -5.9660053921349288e-01
    8.6097720137201812e-03 -6.4492573490272731e-01
    8.7221715684005132e-03 -6.2554324217122426e-01
    8.6645988496644299e-03 -6.3522340316602355e-01
    8.1281761994577185e-03 -7.6430256825525855e-01
    9.2152705168007318e-03 -5.5809982067374431e-01
    9.2152705168007318e-03 -5.5809982067374431e-01
    9.0564748108176597e-03 -5.7735026918962584e-01
    8.9127998388570367e-03 -5.9660053921349288e-01
    8.9127998388570367e-03 -5.9660053921349288e-01
    8.2933499160067359e-03 -7.1374642714632974e-01
    8.4155298582193599e-03 -6.8402478628839236e-01
    1.0047256709338800e-02 -4.8038446141526142e-01
    1.2122534964830045e-02 -3.6708551190375982e-01
    1.2725865322585673e-02 -3.4479141358380555e-01
    1.3453961221493895e-02 -3.2163376045133840e-01
    1.5498523474617693e-02 -2.7170848966439143e-01
    1.4353223870483999e-02 -2.9738085706659034e-01
    1.4353223870483999e-02 -2.9738085706659034e-01
    1.4888752874549003e-02 -2.8474739872574967e-01
    1.6200714650802268e-02 -2.5819888974716115e-01
    1.6200714650802268e-02 -2.5819888974716115e-01
    2.5118141773347001e-02 -1.6012815380508713e-01
    3.5296875323169379e-02 -1.1250879009260240e-01
    2.8911415064099853e-02 -1.3823270327522744e-01
    3.5296875323169379e-02 -1.1250879009260240e-01 1. 0.
    4.9760099496040412e-02 -7.9305158571814402e-02
    2.5118141773347001e-02 -1.6012815380508713e-01
    2.5118141773347001e-02 -1.6012815380508713e-01
    1.9172779022812263e-02 -2.1389631597324932e-01
    1.7993390891808767e-02 -2.2941573387056177e-01
    1.4353223870483999e-02 -2.9738085706659034e-01
    1.3453961221493895e-02 -3.2163376045133840e-01
    1.2725865322585673e-02 -3.4479141358380555e-01
    1.2410788582419381e-02 -3.5603449745815596e-01
    1.2410788582419381e-02 -3.5603449745815596e-01
    9.9221114321795360e-03 -4.9021431794612019e-01
    9.3911269033607782e-03 -5.3881590608032470e-01
    8.7221715684005132e-03 -6.2554324217122426e-01
    8.3320137615741485e-03 -7.0379478742296631e-01
    8.1576622351740187e-03 -7.5407390286389830e-01
    8.1281761994577185e-03 -7.6430256825525855e-01
    8.1281761994577185e-03 -7.6430256825525855e-01
    8.5575643229800942e-03 -6.5465367070797720e-01
    8.9127998388570367e-03 -5.9660053921349288e-01
    8.7221715684005132e-03 -6.2554324217122426e-01
    8.7221715684005132e-03 -6.2554324217122426e-01
    8.6097720137201812e-03 -6.4492573490272731e-01
    8.6097720137201812e-03 -6.4492573490272731e-01
    8.5575643229800942e-03 -6.5465367070797720e-01
    9.0564748108176597e-03 -5.7735026918962584e-01
    8.9127998388570367e-03 -5.9660053921349288e-01
    8.5575643229800942e-03 -6.5465367070797720e-01
    1.1387513861029454e-02 -3.9927470475234522e-01
    1.0982588894337331e-02 -4.2008402520840293e-01
    1.1857708957152227e-02 -3.7796447300922725e-01
    1.3453961221493895e-02 -3.2163376045133840e-01
    1.5498523474617693e-02 -2.7170848966439143e-01
    1.4888752874549003e-02 -2.8474739872574967e-01
    1.5498523474617693e-02 -2.7170848966439143e-01
    1.5498523474617693e-02 -2.7170848966439143e-01
    1.9172779022812263e-02 -2.1389631597324932e-01
    2.8911415064099853e-02 -1.3823270327522744e-01
    2.8911415064099853e-02 -1.3823270327522744e-01
    2.8911415064099853e-02 -1.3823270327522744e-01 1. 0.
    2.8911415064099853e-02 -1.3823270327522744e-01
    2.8911415064099853e-02 -1.3823270327522744e-01
    1.7993390891808767e-02 -2.2941573387056177e-01
    1.7020412209592876e-02 -2.4413653763134782e-01
    1.3878398594629297e-02 -3.0966176864266620e-01
    1.2725865322585673e-02 -3.4479141358380555e-01
    1.1177781107073584e-02 -4.0973553870616608e-01
    1.1613490118041584e-02 -3.8868899738820428e-01
    1.1387513861029454e-02 -3.9927470475234522e-01
    9.3911269033607782e-03 -5.3881590608032470e-01
    8.9828550775546308e-03 -5.8697343647396039e-01
    8.6645988496644299e-03 -6.3522340316602355e-01
    8.3727139244490004e-03 -6.9388866648871095e-01
    8.2566487210637678e-03 -7.2374686445574588e-01
    8.2566487210637678e-03 -7.2374686445574588e-01
    7.9328899988105675e-03 -8.5972695362109530e-01
    8.3320137615741485e-03 -7.0379478742296631e-01
    8.3320137615741485e-03 -7.0379478742296631e-01
    8.6097720137201812e-03 -6.4492573490272731e-01
    8.5575643229800942e-03 -6.5465367070797720e-01
    8.7221715684005132e-03 -6.2554324217122426e-01
    8.5575643229800942e-03 -6.5465367070797720e-01
    8.7826276228369308e-03 -6.1588176205143974e-01
    8.6097720137201812e-03 -6.4492573490272731e-01
    8.5575643229800942e-03 -6.5465367070797720e-01
    8.5078587854565731e-03 -6.6441059702674921e-01
    9.0564748108176597e-03 -5.7735026918962584e-01
    9.3911269033607782e-03 -5.3881590608032470e-01
    9.3009301849924612e-03 -5.4846422684627416e-01
    9.9221114321795360e-03 -4.9021431794612019e-01
    1.1857708957152227e-02 -3.7796447300922725e-01
    1.4353223870483999e-02 -2.9738085706659034e-01
    1.4888752874549003e-02 -2.8474739872574967e-01
    1.5498523474617693e-02 -2.7170848966439143e-01
    1.7020412209592876e-02 -2.4413653763134782e-01
    1.9172779022812263e-02 -2.1389631597324932e-01
    2.0641621802659420e-02 -1.9738550848793071e-01
    2.8911415064099853e-02 -1.3823270327522744e-01
    2.5118141773347001e-02 -1.6012815380508713e-01 1. 0.
    2.2538704568065868e-02 -1.7960530202677488e-01
    1.7993390891808767e-02 -2.2941573387056177e-01
    1.4888752874549003e-02 -2.8474739872574967e-01
    1.3071895424836602e-02 -3.3333333333333337e-01
    1.2122534964830045e-02 -3.6708551190375982e-01
    1.0982588894337331e-02 -4.2008402520840293e-01
    9.9221114321795360e-03 -4.9021431794612019e-01
    9.3009301849924612e-03 -5.4846422684627416e-01
    9.3911269033607782e-03 -5.3881590608032470e-01
    9.1338697357625457e-03 -5.6772709076349070e-01
    8.6097720137201812e-03 -6.4492573490272731e-01
    8.3320137615741485e-03 -7.0379478742296631e-01
    9.0564748108176597e-03 -5.7735026918962584e-01
    8.5575643229800942e-03 -6.5465367070797720e-01
    8.0048684404679018e-03 -8.1649658092772603e-01
    7.8431372549019607e-03 -1. 7.8826495314448016e-03
    -9.0453403373329100e-01 7.9051393047681520e-03
    -8.8191710368819698e-01 8.2218418566424971e-03
    -7.3379938570534287e-01 8.4605472936563706e-03
    -6.7419986246324204e-01 8.2566487210637678e-03
    -7.2374686445574588e-01 8.6645988496644299e-03
    -6.3522340316602355e-01 8.5575643229800942e-03
    -6.5465367070797720e-01 8.4605472936563706e-03
    -6.7419986246324204e-01 8.5078587854565731e-03
    -6.6441059702674921e-01 8.2218418566424971e-03
    -7.3379938570534287e-01 8.7221715684005132e-03
    -6.2554324217122426e-01 9.3009301849924612e-03
    -5.4846422684627416e-01 9.4861671657217820e-03
    -5.2915026221291817e-01 9.2152705168007318e-03
    -5.5809982067374431e-01 9.1338697357625457e-03
    -5.6772709076349070e-01 1.0982588894337331e-02
    -4.2008402520840293e-01 1.1387513861029454e-02
    -3.9927470475234522e-01 1.4353223870483999e-02
    -2.9738085706659034e-01 1.3878398594629297e-02
    -3.0966176864266620e-01 1.6200714650802268e-02
    -2.5819888974716115e-01 2.0641621802659420e-02
    -1.9738550848793071e-01 2.5118141773347001e-02
    -1.6012815380508713e-01 2.5118141773347001e-02
    -1.6012815380508713e-01 1. 0. 1.7993390891808767e-02
    -2.2941573387056177e-01 1.4888752874549003e-02
    -2.8474739872574967e-01 1.2725865322585673e-02
    -3.4479141358380555e-01 1.2122534964830045e-02
    -3.6708551190375982e-01 1.0982588894337331e-02
    -4.2008402520840293e-01 1.0320810901329710e-02
    -4.6056618647183833e-01 9.3009301849924612e-03
    -5.4846422684627416e-01 8.8461162758235509e-03
    -6.0623540602753268e-01 8.6645988496644299e-03
    -6.3522340316602355e-01 8.6097720137201812e-03
    -6.4492573490272731e-01 8.4605472936563706e-03
    -6.7419986246324204e-01 8.2218418566424971e-03
    -7.3379938570534287e-01 8.3727139244490004e-03
    -6.9388866648871095e-01 7.8437500718154165e-03
    -9.8757715747950980e-01 7.8529595972040601e-03
    -9.5118973121134176e-01 7.8431372549019607e-03 -1.
    7.8932457519430080e-03 -8.9317008961830102e-01
    7.8529595972040601e-03 -9.5118973121134176e-01
    7.8431372549019607e-03 -1. 7.8826495314448016e-03
    -9.0453403373329100e-01 7.9660661352004003e-03
    -8.3793058159639211e-01 8.1888659532056429e-03
    -7.4390729143652512e-01 8.4155298582193599e-03
    -6.8402478628839236e-01 8.7826276228369308e-03
    -6.1588176205143974e-01 8.0741588128855728e-03
    -7.8495962709021927e-01 8.1888659532056429e-03
    -7.4390729143652512e-01 8.2933499160067359e-03
    -7.1374642714632974e-01 8.7826276228369308e-03
    -6.1588176205143974e-01 8.6645988496644299e-03
    -6.3522340316602355e-01 9.2152705168007318e-03
    -5.5809982067374431e-01 8.8461162758235509e-03
    -6.0623540602753268e-01 8.7221715684005132e-03
    -6.2554324217122426e-01 1.0630182707007016e-02
    -4.4048819592160321e-01 1.0982588894337331e-02
    -4.2008402520840293e-01 1.2122534964830045e-02
    -3.6708551190375982e-01 1.3453961221493895e-02
    -3.2163376045133840e-01 1.9172779022812263e-02
    -2.1389631597324932e-01 1.9172779022812263e-02
    -2.1389631597324932e-01 2.8911415064099853e-02
    -1.3823270327522744e-01 2.5118141773347001e-02
    -1.6012815380508713e-01 1.5498523474617693e-02
    -2.7170848966439143e-01 1.2725865322585673e-02
    -3.4479141358380555e-01 1.1857708957152227e-02
    -3.7796447300922725e-01 1.0800476433868177e-02
    -4.3033148291193518e-01 1.0047256709338800e-02
    -4.8038446141526142e-01 8.8461162758235509e-03
    -6.0623540602753268e-01 8.6097720137201812e-03
    -6.4492573490272731e-01 8.5078587854565731e-03
    -6.6441059702674921e-01 8.3727139244490004e-03
    -6.9388866648871095e-01 8.1576622351740187e-03
    -7.5407390286389830e-01 7.8437500718154165e-03
    -1.0125791108334214e+00 7.8431372549019607e-03 -1.
    7.8585009077352091e-03 -1.0645812948447542e+00
    7.8437500718154165e-03 -1.0125791108334214e+00
    7.8437500718154165e-03 -9.8757715747950980e-01
    7.8826495314448016e-03 -9.0453403373329100e-01
    7.9051393047681520e-03 -8.8191710368819698e-01
    8.1576622351740187e-03 -7.5407390286389830e-01
    8.1003573254011339e-03 -7.7459666924148340e-01
    7.9487882271087121e-03 -8.4878154287595220e-01
    7.9660661352004003e-03 -8.3793058159639211e-01
    7.8529595972040601e-03 -9.5118973121134176e-01
    7.8652895774729437e-03 -9.2761258954321535e-01
    7.8826495314448016e-03 -9.0453403373329100e-01
    8.0741588128855728e-03 -7.8495962709021927e-01
    8.0495373457378106e-03 -7.9539490897571741e-01
    8.1576622351740187e-03 -7.5407390286389830e-01
    8.3727139244490004e-03 -6.9388866648871095e-01
    8.6097720137201812e-03 -6.4492573490272731e-01
    8.7221715684005132e-03 -6.2554324217122426e-01
    8.5078587854565731e-03 -6.6441059702674921e-01
    8.5575643229800942e-03 -6.5465367070797720e-01
    8.5575643229800942e-03 -6.5465367070797720e-01
    1.0320810901329710e-02 -4.6056618647183833e-01
    1.0630182707007016e-02 -4.4048819592160321e-01
    1.2410788582419381e-02 -3.5603449745815596e-01
    1.4888752874549003e-02 -2.8474739872574967e-01
    1.7020412209592876e-02 -2.4413653763134782e-01
    2.5118141773347001e-02 -1.6012815380508713e-01
    2.0641621802659420e-02 -1.9738550848793071e-01
    1.4888752874549003e-02 -2.8474739872574967e-01
    1.3071895424836602e-02 -3.3333333333333337e-01
    1.1613490118041584e-02 -3.8868899738820428e-01
    1.0800476433868177e-02 -4.3033148291193518e-01
    8.9828550775546308e-03 -5.8697343647396039e-01
    8.6097720137201812e-03 -6.4492573490272731e-01
    8.2566487210637678e-03 -7.2374686445574588e-01
    8.1281761994577185e-03 -7.6430256825525855e-01
    8.0264528779433863e-03 -8.0590603427600316e-01
    7.8486577839000371e-03 -9.6317747241798268e-01
    7.8529595972040601e-03 -1.0513149660756935e+00
    7.8652895774729437e-03 -9.2761258954321535e-01
    7.8733352784794985e-03 -9.1601335130559913e-01
    7.8932457519430080e-03 -8.9317008961830102e-01
    7.8652895774729437e-03 -9.2761258954321535e-01
    8.0495373457378106e-03 -7.9539490897571741e-01
    8.0048684404679018e-03 -8.1649658092772603e-01
    8.0741588128855728e-03 -7.8495962709021927e-01
    8.1576622351740187e-03 -7.5407390286389830e-01
    8.2566487210637678e-03 -7.2374686445574588e-01
    8.1003573254011339e-03 -7.7459666924148340e-01
    8.0741588128855728e-03 -7.8495962709021927e-01
    8.5575643229800942e-03 -6.5465367070797720e-01
    8.2218418566424971e-03 -7.3379938570534287e-01
    7.8826495314448016e-03 -9.0453403373329100e-01
    7.8826495314448016e-03 -9.0453403373329100e-01
    8.4605472936563706e-03 -6.7419986246324204e-01
    8.3320137615741485e-03 -7.0379478742296631e-01
    8.3320137615741485e-03 -7.0379478742296631e-01
    8.1888659532056429e-03 -7.4390729143652512e-01
    8.1281761994577185e-03 -7.6430256825525855e-01
    8.2566487210637678e-03 -7.2374686445574588e-01
    8.6097720137201812e-03 -6.4492573490272731e-01
    8.6097720137201812e-03 -6.4492573490272731e-01
    1.0047256709338800e-02 -4.8038446141526142e-01
    1.0982588894337331e-02 -4.2008402520840293e-01
    1.2725865322585673e-02 -3.4479141358380555e-01
    1.5498523474617693e-02 -2.7170848966439143e-01
    2.8911415064099853e-02 -1.3823270327522744e-01
    1.9172779022812263e-02 -2.1389631597324932e-01
    1.4888752874549003e-02 -2.8474739872574967e-01
    1.2410788582419381e-02 -3.5603449745815596e-01
    1.0800476433868177e-02 -4.3033148291193518e-01
    8.7221715684005132e-03 -6.2554324217122426e-01
    8.6645988496644299e-03 -6.3522340316602355e-01
    8.3727139244490004e-03 -6.9388866648871095e-01
    8.1003573254011339e-03 -7.7459666924148340e-01
    7.9487882271087121e-03 -8.4878154287595220e-01
    7.9183475667855326e-03 -8.7077078398494656e-01
    7.8437500718154165e-03 -1.0125791108334214e+00
    7.9051393047681520e-03 -1.1338934190276817e+00
    7.8431372549019607e-03 -1. 7.8455893847898875e-03
    -9.7530483039669291e-01 7.8826495314448016e-03
    -9.0453403373329100e-01 7.9183475667855326e-03
    -8.7077078398494656e-01 7.8826495314448016e-03
    -9.0453403373329100e-01 7.8932457519430080e-03
    -8.9317008961830102e-01 8.0264528779433863e-03
    -8.0590603427600316e-01 8.1888659532056429e-03
    -7.4390729143652512e-01 8.2218418566424971e-03
    -7.3379938570534287e-01 8.0264528779433863e-03
    -8.0590603427600316e-01 8.0264528779433863e-03
    -8.0590603427600316e-01 8.2566487210637678e-03
    -7.2374686445574588e-01 8.1281761994577185e-03
    -7.6430256825525855e-01 7.8455893847898875e-03
    -9.7530483039669291e-01 7.8585009077352091e-03
    -9.3933643662772426e-01 7.8431372549019607e-03 -1.
    8.1003573254011339e-03 -7.7459666924148340e-01
    7.9183475667855326e-03 -8.7077078398494656e-01
    8.0048684404679018e-03 -8.1649658092772603e-01
    8.2218418566424971e-03 -7.3379938570534287e-01
    8.1888659532056429e-03 -7.4390729143652512e-01
    8.2218418566424971e-03 -7.3379938570534287e-01
    8.4605472936563706e-03 -6.7419986246324204e-01
    8.7826276228369308e-03 -6.1588176205143974e-01
    1.0320810901329710e-02 -4.6056618647183833e-01
    1.1177781107073584e-02 -4.0973553870616608e-01
    1.5498523474617693e-02 -2.7170848966439143e-01
    2.0641621802659420e-02 -1.9738550848793071e-01
    1.5498523474617693e-02 -2.7170848966439143e-01
    1.2410788582419381e-02 -3.5603449745815596e-01
    1.0982588894337331e-02 -4.2008402520840293e-01
    1.0320810901329710e-02 -4.6056618647183833e-01
    8.3320137615741485e-03 -7.0379478742296631e-01
    8.5575643229800942e-03 -6.5465367070797720e-01
    8.3320137615741485e-03 -7.0379478742296631e-01
    7.9847499667548578e-03 -8.2717019186851104e-01
    7.9660661352004003e-03 -8.3793058159639211e-01
    7.8486577839000371e-03 -1.0382302624765267e+00
    7.9328899988105675e-03 -1.1631599960755994e+00
    7.8455893847898875e-03 -9.7530483039669291e-01
    7.8486577839000371e-03 -9.6317747241798268e-01
    7.8486577839000371e-03 -1.0382302624765267e+00
    7.8431372549019607e-03 -1. 7.8486577839000371e-03
    -9.6317747241798268e-01 7.8529595972040601e-03
    -9.5118973121134176e-01 7.8826495314448016e-03
    -9.0453403373329100e-01 8.0048684404679018e-03
    -8.1649658092772603e-01 7.9660661352004003e-03
    -8.3793058159639211e-01 8.0495373457378106e-03
    -7.9539490897571741e-01 7.9487882271087121e-03
    -8.4878154287595220e-01 7.9328899988105675e-03
    -8.5972695362109530e-01 8.0264528779433863e-03
    -8.0590603427600316e-01 8.1281761994577185e-03
    -7.6430256825525855e-01 8.0495373457378106e-03
    -7.9539490897571741e-01 8.0264528779433863e-03
    -8.0590603427600316e-01 7.9183475667855326e-03
    -1.1484078455453643e+00 7.8733352784794985e-03
    -1.0916871447066729e+00 7.9183475667855326e-03
    -1.1484078455453643e+00 7.8932457519430080e-03
    -8.9317008961830102e-01 8.1281761994577185e-03
    -7.6430256825525855e-01 8.1888659532056429e-03
    -7.4390729143652512e-01 8.2566487210637678e-03
    -7.2374686445574588e-01 8.2566487210637678e-03
    -7.2374686445574588e-01 8.6645988496644299e-03
    -6.3522340316602355e-01 9.6921688568588054e-03
    -5.0974750581541783e-01 1.0800476433868177e-02
    -4.3033148291193518e-01 1.3071895424836602e-02
    -3.3333333333333337e-01 1.5498523474617693e-02
    -2.7170848966439143e-01 1.6200714650802268e-02
    -2.5819888974716115e-01 1.2122534964830045e-02
    -3.6708551190375982e-01 9.9221114321795360e-03
    -4.9021431794612019e-01 8.2933499160067359e-03
    -7.1374642714632974e-01 8.0048684404679018e-03
    -8.1649658092772603e-01 8.2566487210637678e-03
    -7.2374686445574588e-01 8.1888659532056429e-03
    -7.4390729143652512e-01 7.8932457519430080e-03
    -8.9317008961830102e-01 7.8455893847898875e-03
    -9.7530483039669291e-01 7.8529595972040601e-03
    -1.0513149660756935e+00 7.8932457519430080e-03
    -1.1196075771271661e+00 7.8437500718154165e-03
    -9.8757715747950980e-01 7.8529595972040601e-03
    -9.5118973121134176e-01 7.8826495314448016e-03
    -9.0453403373329100e-01 7.8585009077352091e-03
    -9.3933643662772426e-01 7.8455893847898875e-03
    -9.7530483039669291e-01 7.8437500718154165e-03
    -9.8757715747950980e-01 7.8932457519430080e-03
    -8.9317008961830102e-01 7.9660661352004003e-03
    -8.3793058159639211e-01 7.9660661352004003e-03
    -8.3793058159639211e-01 8.0495373457378106e-03
    -7.9539490897571741e-01 7.9487882271087121e-03
    -8.4878154287595220e-01 8.1576622351740187e-03
    -7.5407390286389830e-01 8.0495373457378106e-03
    -7.9539490897571741e-01 8.1003573254011339e-03
    -7.7459666924148340e-01 7.9487882271087121e-03
    -8.4878154287595220e-01 7.8932457519430080e-03
    -8.9317008961830102e-01 7.8431372549019607e-03 -1.
    7.9183475667855326e-03 -1.1484078455453643e+00
    7.8652895774729437e-03 -1.0780362527123855e+00
    7.9051393047681520e-03 -1.1338934190276817e+00
    7.9660661352004003e-03 -8.3793058159639211e-01
    7.9847499667548578e-03 -8.2717019186851104e-01
    7.9487882271087121e-03 -8.4878154287595220e-01
    8.0264528779433863e-03 -8.0590603427600316e-01
    8.2566487210637678e-03 -7.2374686445574588e-01
    8.7826276228369308e-03 -6.1588176205143974e-01
    1.0630182707007016e-02 -4.4048819592160321e-01
    1.4353223870483999e-02 -2.9738085706659034e-01
    1.5498523474617693e-02 -2.7170848966439143e-01
    1.3071895424836602e-02 -3.3333333333333337e-01
    1.0982588894337331e-02 -4.2008402520840293e-01
    9.5863895114061317e-03 -5.1946248164931974e-01
    8.3320137615741485e-03 -7.0379478742296631e-01
    7.9847499667548578e-03 -8.2717019186851104e-01
    7.9183475667855326e-03 -8.7077078398494656e-01
    7.9051393047681520e-03 -8.8191710368819698e-01
    7.9660661352004003e-03 -8.3793058159639211e-01
    7.8585009077352091e-03 -1.0645812948447542e+00
    7.9328899988105675e-03 -1.1631599960755994e+00
    7.8431372549019607e-03 -1. 7.8529595972040601e-03
    -1.0513149660756935e+00 7.8585009077352091e-03
    -9.3933643662772426e-01 8.0048684404679018e-03
    -8.1649658092772603e-01 7.8529595972040601e-03
    -9.5118973121134176e-01 7.8486577839000371e-03
    -1.0382302624765267e+00 7.8529595972040601e-03
    -9.5118973121134176e-01 7.8932457519430080e-03
    -8.9317008961830102e-01 7.9183475667855326e-03
    -8.7077078398494656e-01 8.1281761994577185e-03
    -7.6430256825525855e-01 8.0048684404679018e-03
    -8.1649658092772603e-01 7.9183475667855326e-03
    -8.7077078398494656e-01 7.9660661352004003e-03
    -8.3793058159639211e-01 7.9328899988105675e-03
    -8.5972695362109530e-01 8.0741588128855728e-03
    -7.8495962709021927e-01 7.8932457519430080e-03
    -8.9317008961830102e-01 7.8437500718154165e-03
    -1.0125791108334214e+00 7.8529595972040601e-03
    -9.5118973121134176e-01 7.9660661352004003e-03
    -1.1934162828797099e+00 7.8529595972040601e-03
    -1.0513149660756935e+00 7.8733352784794985e-03
    -1.0916871447066729e+00 7.8932457519430080e-03
    -8.9317008961830102e-01 7.8932457519430080e-03
    -8.9317008961830102e-01 7.8733352784794985e-03
    -9.1601335130559913e-01 7.9328899988105675e-03
    -8.5972695362109530e-01 8.1576622351740187e-03
    -7.5407390286389830e-01 8.2566487210637678e-03
    -7.2374686445574588e-01 9.9221114321795360e-03
    -4.9021431794612019e-01 1.2122534964830045e-02
    -3.6708551190375982e-01 1.6200714650802268e-02
    -2.5819888974716115e-01 1.1387513861029454e-02
    -3.9927470475234522e-01 9.8039215686274508e-03
    -5.0000000000000000e-01 8.2933499160067359e-03
    -7.1374642714632974e-01 8.1003573254011339e-03
    -7.7459666924148340e-01 7.9328899988105675e-03
    -8.5972695362109530e-01 7.8486577839000371e-03
    -9.6317747241798268e-01 7.8932457519430080e-03
    -8.9317008961830102e-01 7.8652895774729437e-03
    -1.0780362527123855e+00 7.8932457519430080e-03
    -1.1196075771271661e+00 7.8455893847898875e-03
    -1.0253204627247283e+00 7.8733352784794985e-03
    -1.0916871447066729e+00 7.8437500718154165e-03
    -1.0125791108334214e+00 7.8455893847898875e-03
    -1.0253204627247283e+00 7.9487882271087121e-03
    -8.4878154287595220e-01 7.8826495314448016e-03
    -9.0453403373329100e-01 7.8932457519430080e-03
    -8.9317008961830102e-01 7.9051393047681520e-03
    -8.8191710368819698e-01 7.8826495314448016e-03
    -9.0453403373329100e-01 7.9487882271087121e-03
    -8.4878154287595220e-01 8.0048684404679018e-03
    -8.1649658092772603e-01 8.1576622351740187e-03
    -7.5407390286389830e-01 8.1003573254011339e-03
    -7.7459666924148340e-01 8.1281761994577185e-03
    -7.6430256825525855e-01 7.9487882271087121e-03
    -8.4878154287595220e-01 8.0048684404679018e-03
    -8.1649658092772603e-01 7.9328899988105675e-03
    -8.5972695362109530e-01 7.8437500718154165e-03
    -9.8757715747950980e-01 7.8652895774729437e-03
    -9.2761258954321535e-01 7.8733352784794985e-03
    -1.0916871447066729e+00 8.1576622351740187e-03
    -1.3261299671054765e+00 7.9328899988105675e-03
    -1.1631599960755994e+00 7.8652895774729437e-03
    -1.0780362527123855e+00 7.9660661352004003e-03
    -8.3793058159639211e-01 7.9847499667548578e-03
    -8.2717019186851104e-01 7.9183475667855326e-03
    -8.7077078398494656e-01 8.0264528779433863e-03
    -8.0590603427600316e-01 8.3320137615741485e-03
    -7.0379478742296631e-01 9.3009301849924612e-03
    -5.4846422684627416e-01 1.0047256709338800e-02
    -4.8038446141526142e-01 1.2725865322585673e-02
    -3.4479141358380555e-01 1.0630182707007016e-02
    -4.4048819592160321e-01 9.3009301849924612e-03
    -5.4846422684627416e-01 8.3320137615741485e-03
    -7.0379478742296631e-01 8.0264528779433863e-03
    -8.0590603427600316e-01 7.9051393047681520e-03
    -8.8191710368819698e-01 7.8652895774729437e-03
    -9.2761258954321535e-01 7.8529595972040601e-03
    -9.5118973121134176e-01 7.8652895774729437e-03
    -1.0780362527123855e+00 7.8826495314448016e-03
    -1.1055415967851334e+00 7.9487882271087121e-03
    -1.1781594550367693e+00 7.8733352784794985e-03
    -1.0916871447066729e+00 7.8486577839000371e-03
    -1.0382302624765267e+00 7.8585009077352091e-03
    -9.3933643662772426e-01 7.8826495314448016e-03
    -9.0453403373329100e-01 7.9183475667855326e-03
    -8.7077078398494656e-01 8.0264528779433863e-03
    -8.0590603427600316e-01 7.9660661352004003e-03
    -8.3793058159639211e-01 8.1281761994577185e-03
    -7.6430256825525855e-01 7.9660661352004003e-03
    -8.3793058159639211e-01 8.0264528779433863e-03
    -8.0590603427600316e-01 8.2933499160067359e-03
    -7.1374642714632974e-01 8.2218418566424971e-03
    -7.3379938570534287e-01 8.0264528779433863e-03
    -8.0590603427600316e-01 7.9487882271087121e-03
    -8.4878154287595220e-01 8.0048684404679018e-03
    -8.1649658092772603e-01 7.8585009077352091e-03
    -9.3933643662772426e-01 7.8652895774729437e-03
    -9.2761258954321535e-01 7.8652895774729437e-03
    -9.2761258954321535e-01 7.8585009077352091e-03
    -1.0645812948447542e+00 7.8585009077352091e-03
    -1.0645812948447542e+00 7.9847499667548578e-03
    -1.2089410496539776e+00 7.8733352784794985e-03
    -1.0916871447066729e+00 7.8455893847898875e-03
    -1.0253204627247283e+00 7.8826495314448016e-03
    -9.0453403373329100e-01 7.8455893847898875e-03
    -9.7530483039669291e-01 7.9051393047681520e-03
    -8.8191710368819698e-01 8.1281761994577185e-03
    -7.6430256825525855e-01 8.2933499160067359e-03
    -7.1374642714632974e-01 9.4861671657217820e-03
    -5.2915026221291817e-01 1.1857708957152227e-02
    -3.7796447300922725e-01 1.1387513861029454e-02
    -3.9927470475234522e-01 9.2152705168007318e-03
    -5.5809982067374431e-01 8.0741588128855728e-03
    -7.8495962709021927e-01 7.9183475667855326e-03
    -8.7077078398494656e-01 7.8826495314448016e-03
    -9.0453403373329100e-01 7.8431372549019607e-03 -1.
    7.8455893847898875e-03 -9.7530483039669291e-01
    7.9183475667855326e-03 -1.1484078455453643e+00
    8.0048684404679018e-03 -1.2247448713915889e+00
    7.9328899988105675e-03 -1.1631599960755994e+00
    7.8733352784794985e-03 -1.0916871447066729e+00
    7.8585009077352091e-03 -1.0645812948447542e+00
    7.8932457519430080e-03 -8.9317008961830102e-01
    8.0741588128855728e-03 -7.8495962709021927e-01
    8.0495373457378106e-03 -7.9539490897571741e-01
    8.1888659532056429e-03 -7.4390729143652512e-01
    8.1281761994577185e-03 -7.6430256825525855e-01
    8.2218418566424971e-03 -7.3379938570534287e-01
    8.1281761994577185e-03 -7.6430256825525855e-01
    8.1003573254011339e-03 -7.7459666924148340e-01
    8.2933499160067359e-03 -7.1374642714632974e-01
    8.3727139244490004e-03 -6.9388866648871095e-01
    8.0741588128855728e-03 -7.8495962709021927e-01
    8.0495373457378106e-03 -7.9539490897571741e-01
    8.1003573254011339e-03 -7.7459666924148340e-01
    7.9183475667855326e-03 -8.7077078398494656e-01
    7.8486577839000371e-03 -9.6317747241798268e-01
    7.8652895774729437e-03 -9.2761258954321535e-01
    7.9328899988105675e-03 -8.5972695362109530e-01
    7.8486577839000371e-03 -1.0382302624765267e+00
    7.8455893847898875e-03 -1.0253204627247283e+00
    7.8826495314448016e-03 -1.1055415967851334e+00
    7.8652895774729437e-03 -1.0780362527123855e+00
    7.8437500718154165e-03 -9.8757715747950980e-01
    7.8585009077352091e-03 -9.3933643662772426e-01
    7.9660661352004003e-03 -8.3793058159639211e-01
    7.9847499667548578e-03 -8.2717019186851104e-01
    8.2218418566424971e-03 -7.3379938570534287e-01
    8.9828550775546308e-03 -5.8697343647396039e-01
    1.0800476433868177e-02 -4.3033148291193518e-01
    1.1387513861029454e-02 -3.9927470475234522e-01
    8.6645988496644299e-03 -6.3522340316602355e-01
    7.9847499667548578e-03 -8.2717019186851104e-01
    7.9183475667855326e-03 -8.7077078398494656e-01
    7.8529595972040601e-03 -9.5118973121134176e-01
    7.8431372549019607e-03 -1. 7.8455893847898875e-03
    -1.0253204627247283e+00 7.9328899988105675e-03
    -1.1631599960755994e+00 8.0495373457378106e-03
    -1.2572371141874243e+00 7.8652895774729437e-03
    -1.0780362527123855e+00 7.9183475667855326e-03
    -1.1484078455453643e+00 7.8652895774729437e-03
    -1.0780362527123855e+00 8.0048684404679018e-03
    -8.1649658092772603e-01 8.2566487210637678e-03
    -7.2374686445574588e-01 8.1888659532056429e-03
    -7.4390729143652512e-01 8.4155298582193599e-03
    -6.8402478628839236e-01 8.2933499160067359e-03
    -7.1374642714632974e-01 8.3320137615741485e-03
    -7.0379478742296631e-01 8.3727139244490004e-03
    -6.9388866648871095e-01 8.2566487210637678e-03
    -7.2374686445574588e-01 8.3320137615741485e-03
    -7.0379478742296631e-01 8.0741588128855728e-03
    -7.8495962709021927e-01 8.0741588128855728e-03
    -7.8495962709021927e-01 8.0048684404679018e-03
    -8.1649658092772603e-01 7.9660661352004003e-03
    -8.3793058159639211e-01 7.9051393047681520e-03
    -8.8191710368819698e-01 7.9660661352004003e-03
    -8.3793058159639211e-01 7.8826495314448016e-03
    -9.0453403373329100e-01 7.8652895774729437e-03
    -9.2761258954321535e-01 7.8826495314448016e-03
    -9.0453403373329100e-01 7.8437500718154165e-03
    -1.0125791108334214e+00 7.8437500718154165e-03
    -1.0125791108334214e+00 7.8652895774729437e-03
    -1.0780362527123855e+00 7.8431372549019607e-03 -1.
    7.8932457519430080e-03 -8.9317008961830102e-01
    7.9051393047681520e-03 -8.8191710368819698e-01
    7.9328899988105675e-03 -8.5972695362109530e-01
    7.9847499667548578e-03 -8.2717019186851104e-01
    8.9127998388570367e-03 -5.9660053921349288e-01
    9.6921688568588054e-03 -5.0974750581541783e-01
    1.0630182707007016e-02 -4.4048819592160321e-01
    8.6645988496644299e-03 -6.3522340316602355e-01
    7.9847499667548578e-03 -8.2717019186851104e-01
    7.8585009077352091e-03 -9.3933643662772426e-01
    7.8529595972040601e-03 -1.0513149660756935e+00
    7.8455893847898875e-03 -1.0253204627247283e+00
    7.8455893847898875e-03 -9.7530483039669291e-01
    7.8932457519430080e-03 -1.1196075771271661e+00
    7.9051393047681520e-03 -1.1338934190276817e+00
    7.8529595972040601e-03 -1.0513149660756935e+00
    7.8733352784794985e-03 -1.0916871447066729e+00
    7.8826495314448016e-03 -9.0453403373329100e-01
    8.1003573254011339e-03 -7.7459666924148340e-01
    8.2218418566424971e-03 -7.3379938570534287e-01
    8.0495373457378106e-03 -7.9539490897571741e-01
    8.1888659532056429e-03 -7.4390729143652512e-01
    8.2218418566424971e-03 -7.3379938570534287e-01
    8.1576622351740187e-03 -7.5407390286389830e-01
    8.2566487210637678e-03 -7.2374686445574588e-01
    8.1281761994577185e-03 -7.6430256825525855e-01
    8.2218418566424971e-03 -7.3379938570534287e-01
    8.1576622351740187e-03 -7.5407390286389830e-01
    8.1281761994577185e-03 -7.6430256825525855e-01
    7.9328899988105675e-03 -8.5972695362109530e-01
    7.9487882271087121e-03 -8.4878154287595220e-01
    8.0495373457378106e-03 -7.9539490897571741e-01
    8.0048684404679018e-03 -8.1649658092772603e-01
    7.9487882271087121e-03 -8.4878154287595220e-01
    7.8733352784794985e-03 -9.1601335130559913e-01
    7.9847499667548578e-03 -8.2717019186851104e-01
    7.8486577839000371e-03 -1.0382302624765267e+00
    7.8932457519430080e-03 -1.1196075771271661e+00
    7.9847499667548578e-03 -1.2089410496539776e+00
    7.9847499667548578e-03 -1.2089410496539776e+00
    7.8585009077352091e-03 -1.0645812948447542e+00
    7.8437500718154165e-03 -9.8757715747950980e-01
    7.8455893847898875e-03 -9.7530483039669291e-01
    7.9328899988105675e-03 -8.5972695362109530e-01
    8.7826276228369308e-03 -6.1588176205143974e-01
    1.1177781107073584e-02 -4.0973553870616608e-01
    1.0470612796272080e-02 -4.5056355688958294e-01
    8.8461162758235509e-03 -6.0623540602753268e-01
    8.0741588128855728e-03 -7.8495962709021927e-01
    7.8652895774729437e-03 -9.2761258954321535e-01
    7.8652895774729437e-03 -1.0780362527123855e+00
    7.8437500718154165e-03 -1.0125791108334214e+00
    7.8486577839000371e-03 -9.6317747241798268e-01
    7.8486577839000371e-03 -9.6317747241798268e-01
    7.8932457519430080e-03 -1.1196075771271661e+00
    7.8585009077352091e-03 -1.0645812948447542e+00
    7.8486577839000371e-03 -1.0382302624765267e+00
    7.8585009077352091e-03 -1.0645812948447542e+00
    8.1003573254011339e-03 -7.7459666924148340e-01
    8.0264528779433863e-03 -8.0590603427600316e-01
    8.0741588128855728e-03 -7.8495962709021927e-01
    8.0741588128855728e-03 -7.8495962709021927e-01
    8.1003573254011339e-03 -7.7459666924148340e-01
    8.0048684404679018e-03 -8.1649658092772603e-01
    8.1281761994577185e-03 -7.6430256825525855e-01
    8.1003573254011339e-03 -7.7459666924148340e-01
    8.0264528779433863e-03 -8.0590603427600316e-01
    8.0495373457378106e-03 -7.9539490897571741e-01
    8.0741588128855728e-03 -7.8495962709021927e-01
    8.0048684404679018e-03 -8.1649658092772603e-01
    7.9328899988105675e-03 -8.5972695362109530e-01
    8.0264528779433863e-03 -8.0590603427600316e-01
    8.0264528779433863e-03 -8.0590603427600316e-01
    8.0495373457378106e-03 -7.9539490897571741e-01
    8.1281761994577185e-03 -7.6430256825525855e-01
    8.0741588128855728e-03 -7.8495962709021927e-01
    7.8455893847898875e-03 -9.7530483039669291e-01
    7.8733352784794985e-03 -9.1601335130559913e-01
    8.1281761994577185e-03 -1.3083823626064597e+00
    7.9660661352004003e-03 -1.1934162828797099e+00
    7.8431372549019607e-03 -1. 7.8585009077352091e-03
    -1.0645812948447542e+00 7.8733352784794985e-03
    -9.1601335130559913e-01 8.0264528779433863e-03
    -8.0590603427600316e-01 8.4605472936563706e-03
    -6.7419986246324204e-01 9.6921688568588054e-03
    -5.0974750581541783e-01 1.2122534964830045e-02
    -3.6708551190375982e-01 9.0564748108176597e-03
    -5.7735026918962584e-01 8.1888659532056429e-03
    -7.4390729143652512e-01 7.8585009077352091e-03
    -9.3933643662772426e-01 7.8585009077352091e-03
    -1.0645812948447542e+00 7.8529595972040601e-03
    -9.5118973121134176e-01 7.8437500718154165e-03
    -9.8757715747950980e-01 7.8652895774729437e-03
    -1.0780362527123855e+00 7.8826495314448016e-03
    -1.1055415967851334e+00 7.8529595972040601e-03
    -1.0513149660756935e+00 7.8486577839000371e-03
    -1.0382302624765267e+00 7.8486577839000371e-03
    -9.6317747241798268e-01 7.9487882271087121e-03
    -8.4878154287595220e-01 8.0048684404679018e-03
    -8.1649658092772603e-01 8.1003573254011339e-03
    -7.7459666924148340e-01 8.0741588128855728e-03
    -7.8495962709021927e-01 8.1888659532056429e-03
    -7.4390729143652512e-01 7.9328899988105675e-03
    -8.5972695362109530e-01 7.9183475667855326e-03
    -8.7077078398494656e-01 8.0264528779433863e-03
    -8.0590603427600316e-01 7.9847499667548578e-03
    -8.2717019186851104e-01 8.0264528779433863e-03
    -8.0590603427600316e-01 8.1281761994577185e-03
    -7.6430256825525855e-01 8.0741588128855728e-03
    -7.8495962709021927e-01 7.9328899988105675e-03
    -8.5972695362109530e-01 8.0495373457378106e-03
    -7.9539490897571741e-01 8.0048684404679018e-03
    -8.1649658092772603e-01 8.1576622351740187e-03
    -7.5407390286389830e-01 8.0264528779433863e-03
    -8.0590603427600316e-01 7.9051393047681520e-03
    -8.8191710368819698e-01 7.8585009077352091e-03
    -9.3933643662772426e-01 7.8486577839000371e-03
    -1.0382302624765267e+00 8.0495373457378106e-03
    -1.2572371141874243e+00 7.9847499667548578e-03
    -1.2089410496539776e+00 7.8486577839000371e-03
    -9.6317747241798268e-01 7.8826495314448016e-03
    -1.1055415967851334e+00 7.8431372549019607e-03 -1.
    7.9183475667855326e-03 -8.7077078398494656e-01
    8.8461162758235509e-03 -6.0623540602753268e-01
    1.0179938526640534e-02 -4.7050403377816719e-01
    1.1613490118041584e-02 -3.8868899738820428e-01
    8.9127998388570367e-03 -5.9660053921349288e-01
    8.1003573254011339e-03 -7.7459666924148340e-01
    7.8437500718154165e-03 -1.0125791108334214e+00
    7.8431372549019607e-03 -1. 7.8437500718154165e-03
    -9.8757715747950980e-01 7.8652895774729437e-03
    -1.0780362527123855e+00 7.8486577839000371e-03
    -1.0382302624765267e+00 7.9847499667548578e-03
    -1.2089410496539776e+00 7.8585009077352091e-03
    -9.3933643662772426e-01 7.8486577839000371e-03
    -1.0382302624765267e+00 7.8437500718154165e-03
    -9.8757715747950980e-01 7.9847499667548578e-03
    -8.2717019186851104e-01 8.0264528779433863e-03
    -8.0590603427600316e-01 8.1003573254011339e-03
    -7.7459666924148340e-01 8.1888659532056429e-03
    -7.4390729143652512e-01 8.0741588128855728e-03
    -7.8495962709021927e-01 8.0741588128855728e-03
    -7.8495962709021927e-01 7.9660661352004003e-03
    -8.3793058159639211e-01 7.9328899988105675e-03
    -8.5972695362109530e-01 7.8826495314448016e-03
    -9.0453403373329100e-01 8.0264528779433863e-03
    -8.0590603427600316e-01 8.0741588128855728e-03
    -7.8495962709021927e-01 7.9183475667855326e-03
    -8.7077078398494656e-01 7.8733352784794985e-03
    -9.1601335130559913e-01 7.9660661352004003e-03
    -8.3793058159639211e-01 8.0048684404679018e-03
    -8.1649658092772603e-01 7.9847499667548578e-03
    -8.2717019186851104e-01 8.0741588128855728e-03
    -7.8495962709021927e-01 7.9183475667855326e-03
    -8.7077078398494656e-01 7.8431372549019607e-03 -1.
    7.9051393047681520e-03 -1.1338934190276817e+00
    7.8529595972040601e-03 -1.0513149660756935e+00
    7.9487882271087121e-03 -1.1781594550367693e+00
    7.8486577839000371e-03 -1.0382302624765267e+00
    7.8529595972040601e-03 -9.5118973121134176e-01
    7.8585009077352091e-03 -9.3933643662772426e-01
    7.9328899988105675e-03 -8.5972695362109530e-01
    8.5078587854565731e-03 -6.6441059702674921e-01
    1.0179938526640534e-02 -4.7050403377816719e-01
    1.0800476433868177e-02 -4.3033148291193518e-01
    9.3009301849924612e-03 -5.4846422684627416e-01
    7.9183475667855326e-03 -8.7077078398494656e-01
    7.8585009077352091e-03 -9.3933643662772426e-01
    7.8585009077352091e-03 -1.0645812948447542e+00
    7.8529595972040601e-03 -1.0513149660756935e+00
    7.8437500718154165e-03 -9.8757715747950980e-01
    7.8455893847898875e-03 -1.0253204627247283e+00
    7.8437500718154165e-03 -9.8757715747950980e-01
    7.8826495314448016e-03 -9.0453403373329100e-01
    7.8529595972040601e-03 -9.5118973121134176e-01
    7.8652895774729437e-03 -9.2761258954321535e-01
    8.0048684404679018e-03 -8.1649658092772603e-01
    8.1576622351740187e-03 -7.5407390286389830e-01
    8.2218418566424971e-03 -7.3379938570534287e-01
    8.0495373457378106e-03 -7.9539490897571741e-01
    8.1003573254011339e-03 -7.7459666924148340e-01
    8.0741588128855728e-03 -7.8495962709021927e-01
    7.9847499667548578e-03 -8.2717019186851104e-01
    8.0495373457378106e-03 -7.9539490897571741e-01
    7.9660661352004003e-03 -8.3793058159639211e-01
    8.0264528779433863e-03 -8.0590603427600316e-01
    8.2218418566424971e-03 -7.3379938570534287e-01
    8.0264528779433863e-03 -8.0590603427600316e-01
    8.0048684404679018e-03 -8.1649658092772603e-01
    8.1003573254011339e-03 -7.7459666924148340e-01
    8.0264528779433863e-03 -8.0590603427600316e-01
    8.2218418566424971e-03 -7.3379938570534287e-01
    8.1281761994577185e-03 -7.6430256825525855e-01
    8.1281761994577185e-03 -7.6430256825525855e-01
    7.8652895774729437e-03 -9.2761258954321535e-01
    7.8486577839000371e-03 -1.0382302624765267e+00
    7.8826495314448016e-03 -1.1055415967851334e+00
    7.9051393047681520e-03 -1.1338934190276817e+00
    7.8932457519430080e-03 -8.9317008961830102e-01
    7.8932457519430080e-03 -8.9317008961830102e-01
    7.9328899988105675e-03 -8.5972695362109530e-01
    8.0264528779433863e-03 -8.0590603427600316e-01
    8.1281761994577185e-03 -7.6430256825525855e-01
    1.0630182707007016e-02 -4.4048819592160321e-01
    1.1857708957152227e-02 -3.7796447300922725e-01
    9.9221114321795360e-03 -4.9021431794612019e-01
    8.2933499160067359e-03 -7.1374642714632974e-01
    7.8486577839000371e-03 -9.6317747241798268e-01
    7.8437500718154165e-03 -1.0125791108334214e+00
    7.8585009077352091e-03 -1.0645812948447542e+00
    7.8431372549019607e-03 -1. 7.8455893847898875e-03
    -9.7530483039669291e-01 7.8486577839000371e-03
    -1.0382302624765267e+00 7.8652895774729437e-03
    -9.2761258954321535e-01 7.8733352784794985e-03
    -9.1601335130559913e-01 8.0048684404679018e-03
    -8.1649658092772603e-01 7.9051393047681520e-03
    -8.8191710368819698e-01 8.1576622351740187e-03
    -7.5407390286389830e-01 8.1576622351740187e-03
    -7.5407390286389830e-01 8.0495373457378106e-03
    -7.9539490897571741e-01 7.9847499667548578e-03
    -8.2717019186851104e-01 8.0048684404679018e-03
    -8.1649658092772603e-01 8.1003573254011339e-03
    -7.7459666924148340e-01 8.0495373457378106e-03
    -7.9539490897571741e-01 8.0264528779433863e-03
    -8.0590603427600316e-01 8.1576622351740187e-03
    -7.5407390286389830e-01 8.0048684404679018e-03
    -8.1649658092772603e-01 8.0495373457378106e-03
    -7.9539490897571741e-01 8.0495373457378106e-03
    -7.9539490897571741e-01 8.1888659532056429e-03
    -7.4390729143652512e-01 8.1003573254011339e-03
    -7.7459666924148340e-01 8.3320137615741485e-03
    -7.0379478742296631e-01 8.1003573254011339e-03
    -7.7459666924148340e-01 8.1281761994577185e-03
    -7.6430256825525855e-01 7.9847499667548578e-03
    -8.2717019186851104e-01 7.8652895774729437e-03
    -9.2761258954321535e-01 7.8733352784794985e-03
    -1.0916871447066729e+00 8.0264528779433863e-03
    -1.2408394495995603e+00 7.8585009077352091e-03
    -9.3933643662772426e-01 7.8733352784794985e-03
    -9.1601335130559913e-01 7.8733352784794985e-03
    -9.1601335130559913e-01 8.0264528779433863e-03
    -8.0590603427600316e-01 8.0741588128855728e-03
    -7.8495962709021927e-01 1.0047256709338800e-02
    -4.8038446141526142e-01 1.3878398594629297e-02
    -3.0966176864266620e-01 1.0470612796272080e-02
    -4.5056355688958294e-01 8.6097720137201812e-03
    -6.4492573490272731e-01 7.8826495314448016e-03
    -9.0453403373329100e-01 7.8652895774729437e-03
    -9.2761258954321535e-01 7.8455893847898875e-03
    -1.0253204627247283e+00 7.8455893847898875e-03
    -9.7530483039669291e-01 7.8486577839000371e-03
    -1.0382302624765267e+00 7.8529595972040601e-03
    -1.0513149660756935e+00 7.8585009077352091e-03
    -9.3933643662772426e-01 7.9051393047681520e-03
    -8.8191710368819698e-01 7.9051393047681520e-03
    -8.8191710368819698e-01 7.9328899988105675e-03
    -8.5972695362109530e-01 8.1003573254011339e-03
    -7.7459666924148340e-01 8.2566487210637678e-03
    -7.2374686445574588e-01 8.1576622351740187e-03
    -7.5407390286389830e-01 8.0495373457378106e-03
    -7.9539490897571741e-01 7.9328899988105675e-03
    -8.5972695362109530e-01 7.9487882271087121e-03
    -8.4878154287595220e-01 8.1003573254011339e-03
    -7.7459666924148340e-01 8.0741588128855728e-03
    -7.8495962709021927e-01 8.2566487210637678e-03
    -7.2374686445574588e-01 8.1576622351740187e-03
    -7.5407390286389830e-01 8.2218418566424971e-03
    -7.3379938570534287e-01 8.1281761994577185e-03
    -7.6430256825525855e-01 8.4155298582193599e-03
    -6.8402478628839236e-01 8.4155298582193599e-03
    -6.8402478628839236e-01 8.2218418566424971e-03
    -7.3379938570534287e-01 8.0495373457378106e-03
    -7.9539490897571741e-01 7.8486577839000371e-03
    -9.6317747241798268e-01 7.8437500718154165e-03
    -9.8757715747950980e-01 8.0495373457378106e-03
    -7.9539490897571741e-01 7.9051393047681520e-03
    -1.1338934190276817e+00 7.8529595972040601e-03
    -1.0513149660756935e+00 7.9051393047681520e-03
    -8.8191710368819698e-01 7.9183475667855326e-03
    -8.7077078398494656e-01 7.8932457519430080e-03
    -8.9317008961830102e-01 8.0495373457378106e-03
    -7.9539490897571741e-01 8.1003573254011339e-03
    -7.7459666924148340e-01 9.9221114321795360e-03
    -4.9021431794612019e-01 1.5498523474617693e-02
    -2.7170848966439143e-01 9.8039215686274508e-03
    -5.0000000000000000e-01 8.7221715684005132e-03
    -6.2554324217122426e-01 8.3320137615741485e-03
    -7.0379478742296631e-01 7.8733352784794985e-03
    -9.1601335130559913e-01 7.8455893847898875e-03
    -9.7530483039669291e-01 7.8437500718154165e-03
    -9.8757715747950980e-01 7.8529595972040601e-03
    -1.0513149660756935e+00 7.8431372549019607e-03 -1.
    7.8529595972040601e-03 -9.5118973121134176e-01
    7.9660661352004003e-03 -8.3793058159639211e-01
    7.9660661352004003e-03 -8.3793058159639211e-01
    7.8932457519430080e-03 -8.9317008961830102e-01
    7.9328899988105675e-03 -8.5972695362109530e-01
    8.0264528779433863e-03 -8.0590603427600316e-01
    7.9183475667855326e-03 -8.7077078398494656e-01
    8.1281761994577185e-03 -7.6430256825525855e-01
    8.0264528779433863e-03 -8.0590603427600316e-01
    7.9660661352004003e-03 -8.3793058159639211e-01
    8.1281761994577185e-03 -7.6430256825525855e-01
    8.2933499160067359e-03 -7.1374642714632974e-01
    8.1888659532056429e-03 -7.4390729143652512e-01
    8.1003573254011339e-03 -7.7459666924148340e-01
    8.3727139244490004e-03 -6.9388866648871095e-01
    8.2933499160067359e-03 -7.1374642714632974e-01
    8.3320137615741485e-03 -7.0379478742296631e-01
    8.0495373457378106e-03 -7.9539490897571741e-01
    8.0495373457378106e-03 -7.9539490897571741e-01
    8.2566487210637678e-03 -7.2374686445574588e-01
    7.8932457519430080e-03 -8.9317008961830102e-01
    8.2218418566424971e-03 -7.3379938570534287e-01
    7.8826495314448016e-03 -9.0453403373329100e-01
    7.9051393047681520e-03 -1.1338934190276817e+00
    7.8826495314448016e-03 -1.1055415967851334e+00
    7.8585009077352091e-03 -9.3933643662772426e-01
    7.8437500718154165e-03 -9.8757715747950980e-01
    7.8652895774729437e-03 -9.2761258954321535e-01
    8.0048684404679018e-03 -8.1649658092772603e-01
    8.0048684404679018e-03 -8.1649658092772603e-01
    9.8039215686274508e-03 -5.0000000000000000e-01
    1.5498523474617693e-02 -2.7170848966439143e-01
    1.0800476433868177e-02 -4.3033148291193518e-01
    9.0564748108176597e-03 -5.7735026918962584e-01
    8.8461162758235509e-03 -6.0623540602753268e-01
    7.9847499667548578e-03 -8.2717019186851104e-01
    8.0495373457378106e-03 -7.9539490897571741e-01
    7.8437500718154165e-03 -1.0125791108334214e+00
    7.8455893847898875e-03 -1.0253204627247283e+00
    7.8486577839000371e-03 -9.6317747241798268e-01
    7.8431372549019607e-03 -1. 7.8585009077352091e-03
    -9.3933643662772426e-01 7.8486577839000371e-03
    -1.0382302624765267e+00 7.8826495314448016e-03
    -1.1055415967851334e+00 7.8431372549019607e-03 -1.
    7.8733352784794985e-03 -9.1601335130559913e-01
    8.0495373457378106e-03 -7.9539490897571741e-01
    7.9847499667548578e-03 -8.2717019186851104e-01
    8.1576622351740187e-03 -7.5407390286389830e-01
    8.0264528779433863e-03 -8.0590603427600316e-01
    8.1576622351740187e-03 -7.5407390286389830e-01
    8.5575643229800942e-03 -6.5465367070797720e-01
    8.4605472936563706e-03 -6.7419986246324204e-01
    8.4605472936563706e-03 -6.7419986246324204e-01
    8.6645988496644299e-03 -6.3522340316602355e-01
    8.4605472936563706e-03 -6.7419986246324204e-01
    8.3320137615741485e-03 -7.0379478742296631e-01
    8.3320137615741485e-03 -7.0379478742296631e-01
    8.1003573254011339e-03 -7.7459666924148340e-01
    7.9183475667855326e-03 -8.7077078398494656e-01
    7.8652895774729437e-03 -9.2761258954321535e-01
    7.9487882271087121e-03 -8.4878154287595220e-01
    7.8652895774729437e-03 -9.2761258954321535e-01
    7.9183475667855326e-03 -1.1484078455453643e+00
    7.9487882271087121e-03 -1.1781594550367693e+00
    7.8455893847898875e-03 -9.7530483039669291e-01
    7.8486577839000371e-03 -9.6317747241798268e-01
    7.9487882271087121e-03 -8.4878154287595220e-01
    8.0048684404679018e-03 -8.1649658092772603e-01
    7.9847499667548578e-03 -8.2717019186851104e-01
    1.0320810901329710e-02 -4.6056618647183833e-01
    1.9172779022812263e-02 -2.1389631597324932e-01
    1.2725865322585673e-02 -3.4479141358380555e-01
    9.0564748108176597e-03 -5.7735026918962584e-01
    8.5078587854565731e-03 -6.6441059702674921e-01
    7.9183475667855326e-03 -8.7077078398494656e-01
    7.9183475667855326e-03 -8.7077078398494656e-01
    7.8932457519430080e-03 -8.9317008961830102e-01
    7.9051393047681520e-03 -8.8191710368819698e-01
    7.8585009077352091e-03 -9.3933643662772426e-01
    7.8437500718154165e-03 -1.0125791108334214e+00
    7.9051393047681520e-03 -8.8191710368819698e-01
    7.8529595972040601e-03 -9.5118973121134176e-01
    7.8437500718154165e-03 -1.0125791108334214e+00
    7.8455893847898875e-03 -1.0253204627247283e+00
    7.8437500718154165e-03 -1.0125791108334214e+00
    7.8486577839000371e-03 -9.6317747241798268e-01
    8.1576622351740187e-03 -7.5407390286389830e-01
    8.0495373457378106e-03 -7.9539490897571741e-01
    7.9847499667548578e-03 -8.2717019186851104e-01
    8.0741588128855728e-03 -7.8495962709021927e-01
    8.1888659532056429e-03 -7.4390729143652512e-01
    8.3727139244490004e-03 -6.9388866648871095e-01
    8.6097720137201812e-03 -6.4492573490272731e-01
    8.3727139244490004e-03 -6.9388866648871095e-01
    8.2218418566424971e-03 -7.3379938570534287e-01
    8.1888659532056429e-03 -7.4390729143652512e-01
    8.1281761994577185e-03 -7.6430256825525855e-01
    8.0741588128855728e-03 -7.8495962709021927e-01
    7.8486577839000371e-03 -9.6317747241798268e-01
    7.8585009077352091e-03 -9.3933643662772426e-01
    7.9487882271087121e-03 -8.4878154287595220e-01
    7.8652895774729437e-03 -1.0780362527123855e+00
    7.9051393047681520e-03 -1.1338934190276817e+00
    7.8652895774729437e-03 -9.2761258954321535e-01
    7.8826495314448016e-03 -9.0453403373329100e-01
    7.8932457519430080e-03 -8.9317008961830102e-01
    8.0264528779433863e-03 -8.0590603427600316e-01
    8.0495373457378106e-03 -7.9539490897571741e-01
    8.3320137615741485e-03 -7.0379478742296631e-01
    1.0982588894337331e-02 -4.2008402520840293e-01
    1.4353223870483999e-02 -2.9738085706659034e-01
    1.1613490118041584e-02 -3.8868899738820428e-01
    9.2152705168007318e-03 -5.5809982067374431e-01
    8.7826276228369308e-03 -6.1588176205143974e-01
    7.9847499667548578e-03 -8.2717019186851104e-01
    7.8826495314448016e-03 -9.0453403373329100e-01
    7.8733352784794985e-03 -9.1601335130559913e-01
    7.8733352784794985e-03 -9.1601335130559913e-01
    7.8437500718154165e-03 -9.8757715747950980e-01
    7.8431372549019607e-03 -1. 7.8486577839000371e-03
    -9.6317747241798268e-01 7.8529595972040601e-03
    -9.5118973121134176e-01 7.8455893847898875e-03
    -9.7530483039669291e-01 7.8529595972040601e-03
    -9.5118973121134176e-01 7.8529595972040601e-03
    -9.5118973121134176e-01 7.8437500718154165e-03
    -9.8757715747950980e-01 7.8733352784794985e-03
    -9.1601335130559913e-01 8.1281761994577185e-03
    -7.6430256825525855e-01 7.9328899988105675e-03
    -8.5972695362109530e-01 8.0495373457378106e-03
    -7.9539490897571741e-01 8.4605472936563706e-03
    -6.7419986246324204e-01 8.3320137615741485e-03
    -7.0379478742296631e-01 8.5078587854565731e-03
    -6.6441059702674921e-01 8.2566487210637678e-03
    -7.2374686445574588e-01 8.1003573254011339e-03
    -7.7459666924148340e-01 8.0741588128855728e-03
    -7.8495962709021927e-01 7.8652895774729437e-03
    -9.2761258954321535e-01 7.8932457519430080e-03
    -8.9317008961830102e-01 7.9847499667548578e-03
    -8.2717019186851104e-01 7.9183475667855326e-03
    -8.7077078398494656e-01 7.9328899988105675e-03
    -8.5972695362109530e-01 7.8932457519430080e-03
    -1.1196075771271661e+00 7.8932457519430080e-03
    -1.1196075771271661e+00 7.8652895774729437e-03
    -9.2761258954321535e-01 7.8529595972040601e-03
    -9.5118973121134176e-01 7.8932457519430080e-03
    -8.9317008961830102e-01 8.0741588128855728e-03
    -7.8495962709021927e-01 8.1003573254011339e-03
    -7.7459666924148340e-01 8.7826276228369308e-03
    -6.1588176205143974e-01 1.2122534964830045e-02
    -3.6708551190375982e-01 1.5498523474617693e-02
    -2.7170848966439143e-01 1.2410788582419381e-02
    -3.5603449745815596e-01 9.4861671657217820e-03
    -5.2915026221291817e-01 8.7826276228369308e-03
    -6.1588176205143974e-01 8.2566487210637678e-03
    -7.2374686445574588e-01 7.9847499667548578e-03
    -8.2717019186851104e-01 7.8733352784794985e-03
    -9.1601335130559913e-01 7.8455893847898875e-03
    -9.7530483039669291e-01 7.8529595972040601e-03
    -1.0513149660756935e+00 7.8585009077352091e-03
    -9.3933643662772426e-01 7.8585009077352091e-03
    -9.3933643662772426e-01 7.8585009077352091e-03
    -9.3933643662772426e-01 7.8826495314448016e-03
    -1.1055415967851334e+00 7.8826495314448016e-03
    -1.1055415967851334e+00 7.8455893847898875e-03
    -1.0253204627247283e+00 7.8455893847898875e-03
    -1.0253204627247283e+00 7.8455893847898875e-03
    -9.7530483039669291e-01 7.9051393047681520e-03
    -8.8191710368819698e-01 7.8529595972040601e-03
    -9.5118973121134176e-01 7.8585009077352091e-03
    -9.3933643662772426e-01 8.2933499160067359e-03
    -7.1374642714632974e-01 7.9328899988105675e-03
    -8.5972695362109530e-01 7.9487882271087121e-03
    -8.4878154287595220e-01 7.9051393047681520e-03
    -8.8191710368819698e-01 7.8486577839000371e-03
    -1.0382302624765267e+00 7.8431372549019607e-03 -1.
    7.8733352784794985e-03 -9.1601335130559913e-01
    7.8585009077352091e-03 -9.3933643662772426e-01
    7.8437500718154165e-03 -1.0125791108334214e+00
    7.9487882271087121e-03 -8.4878154287595220e-01
    7.8529595972040601e-03 -1.0513149660756935e+00
    7.9183475667855326e-03 -1.1484078455453643e+00
    7.8652895774729437e-03 -9.2761258954321535e-01
    7.8932457519430080e-03 -8.9317008961830102e-01
    7.9051393047681520e-03 -8.8191710368819698e-01
    8.0048684404679018e-03 -8.1649658092772603e-01
    8.0048684404679018e-03 -8.1649658092772603e-01
    8.2218418566424971e-03 -7.3379938570534287e-01
    8.6645988496644299e-03 -6.3522340316602355e-01
    1.2410788582419381e-02 -3.5603449745815596e-01
    2.0641621802659420e-02 -1.9738550848793071e-01
    1.5498523474617693e-02 -2.7170848966439143e-01
    1.0320810901329710e-02 -4.6056618647183833e-01
    8.7221715684005132e-03 -6.2554324217122426e-01
    8.3727139244490004e-03 -6.9388866648871095e-01
    8.1576622351740187e-03 -7.5407390286389830e-01
    7.8733352784794985e-03 -9.1601335130559913e-01
    7.8585009077352091e-03 -9.3933643662772426e-01
    7.8455893847898875e-03 -9.7530483039669291e-01
    7.8455893847898875e-03 -9.7530483039669291e-01
    7.8585009077352091e-03 -1.0645812948447542e+00
    7.8431372549019607e-03 -1. 7.8932457519430080e-03
    -1.1196075771271661e+00 8.1003573254011339e-03
    -1.2909944487358056e+00 7.8486577839000371e-03
    -1.0382302624765267e+00 7.8455893847898875e-03
    -1.0253204627247283e+00 7.8486577839000371e-03
    -9.6317747241798268e-01 7.8585009077352091e-03
    -9.3933643662772426e-01 7.8652895774729437e-03
    -9.2761258954321535e-01 7.8733352784794985e-03
    -9.1601335130559913e-01 7.8652895774729437e-03
    -9.2761258954321535e-01 7.8486577839000371e-03
    -9.6317747241798268e-01 7.8826495314448016e-03
    -9.0453403373329100e-01 7.8455893847898875e-03
    -9.7530483039669291e-01 7.8455893847898875e-03
    -9.7530483039669291e-01 7.8437500718154165e-03
    -1.0125791108334214e+00 7.8455893847898875e-03
    -9.7530483039669291e-01 7.8486577839000371e-03
    -1.0382302624765267e+00 7.8437500718154165e-03
    -9.8757715747950980e-01 7.9487882271087121e-03
    -8.4878154287595220e-01 7.8431372549019607e-03 -1.
    7.8733352784794985e-03 -9.1601335130559913e-01
    7.9183475667855326e-03 -8.7077078398494656e-01
    7.9660661352004003e-03 -8.3793058159639211e-01
    8.1003573254011339e-03 -7.7459666924148340e-01
    8.1003573254011339e-03 -7.7459666924148340e-01
    8.0495373457378106e-03 -7.9539490897571741e-01
    8.2933499160067359e-03 -7.1374642714632974e-01
    9.0564748108176597e-03 -5.7735026918962584e-01
    1.2410788582419381e-02 -3.5603449745815596e-01
    1.7993390891808767e-02 -2.2941573387056177e-01
    1.4888752874549003e-02 -2.8474739872574967e-01
    1.2122534964830045e-02 -3.6708551190375982e-01
    8.9127998388570367e-03 -5.9660053921349288e-01
    8.2933499160067359e-03 -7.1374642714632974e-01
    8.2566487210637678e-03 -7.2374686445574588e-01
    8.2933499160067359e-03 -7.1374642714632974e-01
    7.9487882271087121e-03 -8.4878154287595220e-01
    8.0264528779433863e-03 -8.0590603427600316e-01
    7.8932457519430080e-03 -8.9317008961830102e-01
    7.9183475667855326e-03 -8.7077078398494656e-01
    7.9051393047681520e-03 -8.8191710368819698e-01
    7.9051393047681520e-03 -8.8191710368819698e-01
    7.9051393047681520e-03 -1.1338934190276817e+00
    7.9328899988105675e-03 -1.1631599960755994e+00
    7.9328899988105675e-03 -1.1631599960755994e+00
    7.8652895774729437e-03 -1.0780362527123855e+00
    7.8652895774729437e-03 -1.0780362527123855e+00
    7.8652895774729437e-03 -1.0780362527123855e+00
    7.8437500718154165e-03 -9.8757715747950980e-01
    7.8431372549019607e-03 -1. 7.8437500718154165e-03
    -1.0125791108334214e+00 7.8585009077352091e-03
    -9.3933643662772426e-01 7.8455893847898875e-03
    -9.7530483039669291e-01 7.8431372549019607e-03 -1.
    7.8585009077352091e-03 -1.0645812948447542e+00
    7.8529595972040601e-03 -1.0513149660756935e+00
    7.9328899988105675e-03 -8.5972695362109530e-01
    7.8455893847898875e-03 -1.0253204627247283e+00
    7.9183475667855326e-03 -8.7077078398494656e-01
    7.9183475667855326e-03 -1.1484078455453643e+00
    7.8826495314448016e-03 -9.0453403373329100e-01
    7.9660661352004003e-03 -8.3793058159639211e-01
    7.9487882271087121e-03 -8.4878154287595220e-01
    8.0495373457378106e-03 -7.9539490897571741e-01
    8.2218418566424971e-03 -7.3379938570534287e-01
    8.1003573254011339e-03 -7.7459666924148340e-01
    8.6645988496644299e-03 -6.3522340316602355e-01
    9.6921688568588054e-03 -5.0974750581541783e-01
    1.3878398594629297e-02 -3.0966176864266620e-01
    2.0641621802659420e-02 -1.9738550848793071e-01
    1.4888752874549003e-02 -2.8474739872574967e-01
    1.3071895424836602e-02 -3.3333333333333337e-01
    1.0320810901329710e-02 -4.6056618647183833e-01
    8.9127998388570367e-03 -5.9660053921349288e-01
    8.3320137615741485e-03 -7.0379478742296631e-01
    8.3320137615741485e-03 -7.0379478742296631e-01
    8.4605472936563706e-03 -6.7419986246324204e-01
    8.0264528779433863e-03 -8.0590603427600316e-01
    8.1003573254011339e-03 -7.7459666924148340e-01
    8.0495373457378106e-03 -7.9539490897571741e-01
    8.1003573254011339e-03 -7.7459666924148340e-01
    7.8826495314448016e-03 -9.0453403373329100e-01
    7.8486577839000371e-03 -9.6317747241798268e-01
    7.9051393047681520e-03 -1.1338934190276817e+00
    8.0741588128855728e-03 -1.2739508701956017e+00
    8.0741588128855728e-03 -1.2739508701956017e+00
    7.9051393047681520e-03 -1.1338934190276817e+00
    7.8431372549019607e-03 -1. 7.8529595972040601e-03
    -1.0513149660756935e+00 7.8455893847898875e-03
    -9.7530483039669291e-01 7.8455893847898875e-03
    -9.7530483039669291e-01 7.8733352784794985e-03
    -1.0916871447066729e+00 7.8455893847898875e-03
    -1.0253204627247283e+00 7.9183475667855326e-03
    -8.7077078398494656e-01 7.8455893847898875e-03
    -9.7530483039669291e-01 7.8529595972040601e-03
    -1.0513149660756935e+00 7.8437500718154165e-03
    -1.0125791108334214e+00 7.8652895774729437e-03
    -1.0780362527123855e+00 7.8733352784794985e-03
    -9.1601335130559913e-01 7.8455893847898875e-03
    -9.7530483039669291e-01 8.0048684404679018e-03
    -8.1649658092772603e-01 8.0741588128855728e-03
    -7.8495962709021927e-01 8.1281761994577185e-03
    -7.6430256825525855e-01 8.1003573254011339e-03
    -7.7459666924148340e-01 8.7221715684005132e-03
    -6.2554324217122426e-01 8.3727139244490004e-03
    -6.9388866648871095e-01 8.9828550775546308e-03
    -5.8697343647396039e-01 1.1613490118041584e-02
    -3.8868899738820428e-01 1.3878398594629297e-02
    -3.0966176864266620e-01 2.5118141773347001e-02
    -1.6012815380508713e-01 1.7993390891808767e-02
    -2.2941573387056177e-01 1.3453961221493895e-02
    -3.2163376045133840e-01 1.0800476433868177e-02
    -4.3033148291193518e-01 1.0047256709338800e-02
    -4.8038446141526142e-01 9.2152705168007318e-03
    -5.5809982067374431e-01 8.7826276228369308e-03
    -6.1588176205143974e-01 8.6645988496644299e-03
    -6.3522340316602355e-01 8.3320137615741485e-03
    -7.0379478742296631e-01 8.0048684404679018e-03
    -8.1649658092772603e-01 8.1888659532056429e-03
    -7.4390729143652512e-01 8.0048684404679018e-03
    -8.1649658092772603e-01 7.9328899988105675e-03
    -8.5972695362109530e-01 7.9660661352004003e-03
    -8.3793058159639211e-01 7.8826495314448016e-03
    -9.0453403373329100e-01 7.8455893847898875e-03
    -1.0253204627247283e+00 7.8455893847898875e-03
    -9.7530483039669291e-01 7.8455893847898875e-03
    -9.7530483039669291e-01 7.8486577839000371e-03
    -9.6317747241798268e-01 7.8431372549019607e-03 -1.
    7.8585009077352091e-03 -1.0645812948447542e+00
    7.8455893847898875e-03 -9.7530483039669291e-01
    7.8733352784794985e-03 -1.0916871447066729e+00
    7.8529595972040601e-03 -1.0513149660756935e+00
    7.8826495314448016e-03 -9.0453403373329100e-01
    7.9183475667855326e-03 -8.7077078398494656e-01
    7.8652895774729437e-03 -9.2761258954321535e-01
    7.8652895774729437e-03 -1.0780362527123855e+00
    7.8585009077352091e-03 -9.3933643662772426e-01
    7.8455893847898875e-03 -9.7530483039669291e-01
    7.8826495314448016e-03 -9.0453403373329100e-01
    8.2218418566424971e-03 -7.3379938570534287e-01
    8.3727139244490004e-03 -6.9388866648871095e-01
    8.3320137615741485e-03 -7.0379478742296631e-01
    8.4155298582193599e-03 -6.8402478628839236e-01
    8.4155298582193599e-03 -6.8402478628839236e-01
    9.0564748108176597e-03 -5.7735026918962584e-01
    9.4861671657217820e-03 -5.2915026221291817e-01
    1.1857708957152227e-02 -3.7796447300922725e-01
    1.6200714650802268e-02 -2.5819888974716115e-01
    2.5118141773347001e-02 -1.6012815380508713e-01
    2.0641621802659420e-02 -1.9738550848793071e-01
    1.3878398594629297e-02 -3.0966176864266620e-01
    1.1387513861029454e-02 -3.9927470475234522e-01
    1.0320810901329710e-02 -4.6056618647183833e-01
    9.8039215686274508e-03 -5.0000000000000000e-01
    9.4861671657217820e-03 -5.2915026221291817e-01
    9.3009301849924612e-03 -5.4846422684627416e-01
    8.7826276228369308e-03 -6.1588176205143974e-01
    8.5078587854565731e-03 -6.6441059702674921e-01
    8.2933499160067359e-03 -7.1374642714632974e-01
    8.1281761994577185e-03 -7.6430256825525855e-01
    8.1281761994577185e-03 -7.6430256825525855e-01
    8.0495373457378106e-03 -7.9539490897571741e-01
    8.0741588128855728e-03 -7.8495962709021927e-01
    8.1281761994577185e-03 -7.6430256825525855e-01
    7.8733352784794985e-03 -9.1601335130559913e-01
    7.8826495314448016e-03 -9.0453403373329100e-01
    8.0264528779433863e-03 -8.0590603427600316e-01
    7.8826495314448016e-03 -9.0453403373329100e-01
    7.8486577839000371e-03 -9.6317747241798268e-01
    7.8733352784794985e-03 -1.0916871447066729e+00
    7.9183475667855326e-03 -1.1484078455453643e+00
    7.8529595972040601e-03 -9.5118973121134176e-01
    7.8652895774729437e-03 -9.2761258954321535e-01
    7.8437500718154165e-03 -9.8757715747950980e-01
    7.8455893847898875e-03 -1.0253204627247283e+00
    7.8585009077352091e-03 -9.3933643662772426e-01
    7.8932457519430080e-03 -8.9317008961830102e-01
    7.9051393047681520e-03 -8.8191710368819698e-01
    8.3320137615741485e-03 -7.0379478742296631e-01
    8.2566487210637678e-03 -7.2374686445574588e-01
    8.3320137615741485e-03 -7.0379478742296631e-01
    8.3727139244490004e-03 -6.9388866648871095e-01
    8.2566487210637678e-03 -7.2374686445574588e-01
    8.5078587854565731e-03 -6.6441059702674921e-01
    9.0564748108176597e-03 -5.7735026918962584e-01
    9.6921688568588054e-03 -5.0974750581541783e-01
    1.3453961221493895e-02 -3.2163376045133840e-01
    1.6200714650802268e-02 -2.5819888974716115e-01
    2.8911415064099853e-02 -1.3823270327522744e-01
    2.5118141773347001e-02 -1.6012815380508713e-01
    1.5498523474617693e-02 -2.7170848966439143e-01
    1.4888752874549003e-02 -2.8474739872574967e-01
    1.2725865322585673e-02 -3.4479141358380555e-01
    1.0800476433868177e-02 -4.3033148291193518e-01
    1.0320810901329710e-02 -4.6056618647183833e-01
    9.8039215686274508e-03 -5.0000000000000000e-01
    9.1338697357625457e-03 -5.6772709076349070e-01
    9.5863895114061317e-03 -5.1946248164931974e-01
    9.2152705168007318e-03 -5.5809982067374431e-01
    8.7221715684005132e-03 -6.2554324217122426e-01
    8.3727139244490004e-03 -6.9388866648871095e-01
    8.3727139244490004e-03 -6.9388866648871095e-01
    8.2566487210637678e-03 -7.2374686445574588e-01
    8.1281761994577185e-03 -7.6430256825525855e-01
    8.1576622351740187e-03 -7.5407390286389830e-01
    7.8585009077352091e-03 -9.3933643662772426e-01
    7.8585009077352091e-03 -9.3933643662772426e-01
    7.8733352784794985e-03 -9.1601335130559913e-01
    7.9487882271087121e-03 -8.4878154287595220e-01
    7.9051393047681520e-03 -8.8191710368819698e-01
    7.8486577839000371e-03 -1.0382302624765267e+00
    7.8455893847898875e-03 -9.7530483039669291e-01
    7.8652895774729437e-03 -9.2761258954321535e-01
    7.9328899988105675e-03 -8.5972695362109530e-01
    7.9487882271087121e-03 -8.4878154287595220e-01
    7.9328899988105675e-03 -8.5972695362109530e-01
    7.9660661352004003e-03 -8.3793058159639211e-01
    7.9183475667855326e-03 -8.7077078398494656e-01
    8.3320137615741485e-03 -7.0379478742296631e-01
    8.1003573254011339e-03 -7.7459666924148340e-01
    8.2566487210637678e-03 -7.2374686445574588e-01
    8.2218418566424971e-03 -7.3379938570534287e-01
    8.5575643229800942e-03 -6.5465367070797720e-01
    8.9828550775546308e-03 -5.8697343647396039e-01
    9.3911269033607782e-03 -5.3881590608032470e-01
    1.2410788582419381e-02 -3.5603449745815596e-01
    1.3453961221493895e-02 -3.2163376045133840e-01
    1.7993390891808767e-02 -2.2941573387056177e-01
    3.5296875323169379e-02 -1.1250879009260240e-01
    1.9172779022812263e-02 -2.1389631597324932e-01
    1.9172779022812263e-02 -2.1389631597324932e-01
    1.6200714650802268e-02 -2.5819888974716115e-01
    1.4353223870483999e-02 -2.9738085706659034e-01
    1.1613490118041584e-02 -3.8868899738820428e-01
    1.0630182707007016e-02 -4.4048819592160321e-01
    1.1387513861029454e-02 -3.9927470475234522e-01
    1.0470612796272080e-02 -4.5056355688958294e-01
    9.8039215686274508e-03 -5.0000000000000000e-01
    1.0470612796272080e-02 -4.5056355688958294e-01
    9.5863895114061317e-03 -5.1946248164931974e-01
    8.5078587854565731e-03 -6.6441059702674921e-01
    8.3320137615741485e-03 -7.0379478742296631e-01
    8.4605472936563706e-03 -6.7419986246324204e-01
    8.2933499160067359e-03 -7.1374642714632974e-01
    8.2566487210637678e-03 -7.2374686445574588e-01
    8.1576622351740187e-03 -7.5407390286389830e-01
    7.9051393047681520e-03 -8.8191710368819698e-01
    7.9051393047681520e-03 -8.8191710368819698e-01
    7.8652895774729437e-03 -9.2761258954321535e-01
    7.8455893847898875e-03 -9.7530483039669291e-01
    7.8733352784794985e-03 -9.1601335130559913e-01
    8.0495373457378106e-03 -7.9539490897571741e-01
    7.8932457519430080e-03 -8.9317008961830102e-01
    7.9847499667548578e-03 -8.2717019186851104e-01
    8.0264528779433863e-03 -8.0590603427600316e-01
    8.5575643229800942e-03 -6.5465367070797720e-01
    8.4155298582193599e-03 -6.8402478628839236e-01
    8.2933499160067359e-03 -7.1374642714632974e-01
    8.1888659532056429e-03 -7.4390729143652512e-01
    8.1281761994577185e-03 -7.6430256825525855e-01
    8.6645988496644299e-03 -6.3522340316602355e-01
    9.0564748108176597e-03 -5.7735026918962584e-01
    9.1338697357625457e-03 -5.6772709076349070e-01
    9.4861671657217820e-03 -5.2915026221291817e-01
    1.0982588894337331e-02 -4.2008402520840293e-01
    1.3071895424836602e-02 -3.3333333333333337e-01
    1.7020412209592876e-02 -2.4413653763134782e-01
    1.9172779022812263e-02 -2.1389631597324932e-01
    2.8911415064099853e-02 -1.3823270327522744e-01
    2.5118141773347001e-02 -1.6012815380508713e-01
    2.2538704568065868e-02 -1.7960530202677488e-01
    1.7993390891808767e-02 -2.2941573387056177e-01
    1.7020412209592876e-02 -2.4413653763134782e-01
    1.3878398594629297e-02 -3.0966176864266620e-01
    1.1387513861029454e-02 -3.9927470475234522e-01
    1.1613490118041584e-02 -3.8868899738820428e-01
    1.1857708957152227e-02 -3.7796447300922725e-01
    1.0320810901329710e-02 -4.6056618647183833e-01
    1.0179938526640534e-02 -4.7050403377816719e-01
    1.0630182707007016e-02 -4.4048819592160321e-01
    9.9221114321795360e-03 -4.9021431794612019e-01
    9.6921688568588054e-03 -5.0974750581541783e-01
    8.8461162758235509e-03 -6.0623540602753268e-01
    8.6097720137201812e-03 -6.4492573490272731e-01
    8.6097720137201812e-03 -6.4492573490272731e-01
    8.7826276228369308e-03 -6.1588176205143974e-01
    8.1003573254011339e-03 -7.7459666924148340e-01
    7.9487882271087121e-03 -8.4878154287595220e-01
    7.9183475667855326e-03 -8.7077078398494656e-01
    7.8652895774729437e-03 -9.2761258954321535e-01
    7.8733352784794985e-03 -9.1601335130559913e-01
    7.9487882271087121e-03 -8.4878154287595220e-01
    8.0495373457378106e-03 -7.9539490897571741e-01
    7.9660661352004003e-03 -8.3793058159639211e-01
    8.2566487210637678e-03 -7.2374686445574588e-01
    8.5078587854565731e-03 -6.6441059702674921e-01
    8.1888659532056429e-03 -7.4390729143652512e-01
    8.2218418566424971e-03 -7.3379938570534287e-01
    8.4155298582193599e-03 -6.8402478628839236e-01
    8.5078587854565731e-03 -6.6441059702674921e-01
    9.0564748108176597e-03 -5.7735026918962584e-01
    9.4861671657217820e-03 -5.2915026221291817e-01
    9.3911269033607782e-03 -5.3881590608032470e-01
    1.1613490118041584e-02 -3.8868899738820428e-01
    1.3453961221493895e-02 -3.2163376045133840e-01
    1.6200714650802268e-02 -2.5819888974716115e-01
    1.7993390891808767e-02 -2.2941573387056177e-01
    2.5118141773347001e-02 -1.6012815380508713e-01
    3.5296875323169379e-02 -1.1250879009260240e-01
    2.5118141773347001e-02 -1.6012815380508713e-01
    2.8911415064099853e-02 -1.3823270327522744e-01
    2.2538704568065868e-02 -1.7960530202677488e-01
    1.9172779022812263e-02 -2.1389631597324932e-01
    1.6200714650802268e-02 -2.5819888974716115e-01
    1.2725865322585673e-02 -3.4479141358380555e-01
    1.2122534964830045e-02 -3.6708551190375982e-01
    1.2410788582419381e-02 -3.5603449745815596e-01
    1.2122534964830045e-02 -3.6708551190375982e-01
    1.1387513861029454e-02 -3.9927470475234522e-01
    1.1857708957152227e-02 -3.7796447300922725e-01
    1.0320810901329710e-02 -4.6056618647183833e-01
    1.0800476433868177e-02 -4.3033148291193518e-01
    1.0800476433868177e-02 -4.3033148291193518e-01
    1.0179938526640534e-02 -4.7050403377816719e-01
    9.1338697357625457e-03 -5.6772709076349070e-01
    8.7221715684005132e-03 -6.2554324217122426e-01
    8.9127998388570367e-03 -5.9660053921349288e-01
    8.1576622351740187e-03 -7.5407390286389830e-01
    8.0741588128855728e-03 -7.8495962709021927e-01
    8.0495373457378106e-03 -7.9539490897571741e-01
    8.5575643229800942e-03 -6.5465367070797720e-01
    8.2566487210637678e-03 -7.2374686445574588e-01
    8.1576622351740187e-03 -7.5407390286389830e-01
    8.1003573254011339e-03 -7.7459666924148340e-01
    8.4155298582193599e-03 -6.8402478628839236e-01
    8.5575643229800942e-03 -6.5465367070797720e-01
    8.6097720137201812e-03 -6.4492573490272731e-01
    9.1338697357625457e-03 -5.6772709076349070e-01
    9.0564748108176597e-03 -5.7735026918962584e-01
    8.7826276228369308e-03 -6.1588176205143974e-01
    9.3911269033607782e-03 -5.3881590608032470e-01
    9.9221114321795360e-03 -4.9021431794612019e-01
    1.2122534964830045e-02 -3.6708551190375982e-01
    1.4888752874549003e-02 -2.8474739872574967e-01
    1.6200714650802268e-02 -2.5819888974716115e-01
    1.9172779022812263e-02 -2.1389631597324932e-01
    2.5118141773347001e-02 -1.6012815380508713e-01
    3.5296875323169379e-02 -1.1250879009260240e-01
    4.9760099496040412e-02 -7.9305158571814402e-02
    3.5296875323169379e-02 -1.1250879009260240e-01
    2.8911415064099853e-02 -1.3823270327522744e-01
    3.5296875323169379e-02 -1.1250879009260240e-01
    2.0641621802659420e-02 -1.9738550848793071e-01
    2.0641621802659420e-02 -1.9738550848793071e-01
    2.0641621802659420e-02 -1.9738550848793071e-01
    1.5498523474617693e-02 -2.7170848966439143e-01
    1.3071895424836602e-02 -3.3333333333333337e-01
    1.3071895424836602e-02 -3.3333333333333337e-01
    1.2410788582419381e-02 -3.5603449745815596e-01
    1.2122534964830045e-02 -3.6708551190375982e-01
    1.2410788582419381e-02 -3.5603449745815596e-01
    1.1177781107073584e-02 -4.0973553870616608e-01
    1.1613490118041584e-02 -3.8868899738820428e-01
    1.0320810901329710e-02 -4.6056618647183833e-01
    1.0320810901329710e-02 -4.6056618647183833e-01
    9.0564748108176597e-03 -5.7735026918962584e-01
    8.4155298582193599e-03 -6.8402478628839236e-01
    9.1338697357625457e-03 -5.6772709076349070e-01
    9.0564748108176597e-03 -5.7735026918962584e-01
    8.2218418566424971e-03 -7.3379938570534287e-01
    8.8461162758235509e-03 -6.0623540602753268e-01
    8.2218418566424971e-03 -7.3379938570534287e-01
    8.8461162758235509e-03 -6.0623540602753268e-01
    8.1888659532056429e-03 -7.4390729143652512e-01
    8.7221715684005132e-03 -6.2554324217122426e-01
    9.0564748108176597e-03 -5.7735026918962584e-01
    9.3911269033607782e-03 -5.3881590608032470e-01
    9.8039215686274508e-03 -5.0000000000000000e-01
    9.4861671657217820e-03 -5.2915026221291817e-01
    9.2152705168007318e-03 -5.5809982067374431e-01
    1.0047256709338800e-02 -4.8038446141526142e-01
    1.2725865322585673e-02 -3.4479141358380555e-01
    1.4353223870483999e-02 -2.9738085706659034e-01
    1.9172779022812263e-02 -2.1389631597324932e-01
    1.9172779022812263e-02 -2.1389631597324932e-01
    2.0641621802659420e-02 -1.9738550848793071e-01
    2.8911415064099853e-02 -1.3823270327522744e-01
    4.9760099496040412e-02 -7.9305158571814402e-02
    4.9760099496040412e-02 -7.9305158571814402e-02
    3.5296875323169379e-02 -1.1250879009260240e-01
    3.5296875323169379e-02 -1.1250879009260240e-01
    2.8911415064099853e-02 -1.3823270327522744e-01
    4.9760099496040412e-02 -7.9305158571814402e-02
    2.8911415064099853e-02 -1.3823270327522744e-01
    2.5118141773347001e-02 -1.6012815380508713e-01
    2.2538704568065868e-02 -1.7960530202677488e-01
    2.0641621802659420e-02 -1.9738550848793071e-01
    1.6200714650802268e-02 -2.5819888974716115e-01
    1.4888752874549003e-02 -2.8474739872574967e-01
    1.3878398594629297e-02 -3.0966176864266620e-01
    1.4353223870483999e-02 -2.9738085706659034e-01
    1.4888752874549003e-02 -2.8474739872574967e-01
    1.5498523474617693e-02 -2.7170848966439143e-01
    1.2410788582419381e-02 -3.5603449745815596e-01
    1.2122534964830045e-02 -3.6708551190375982e-01
    1.2725865322585673e-02 -3.4479141358380555e-01
    1.2725865322585673e-02 -3.4479141358380555e-01
    1.1613490118041584e-02 -3.8868899738820428e-01
    8.6645988496644299e-03 -6.3522340316602355e-01
    8.6645988496644299e-03 -6.3522340316602355e-01
    9.8039215686274508e-03 -5.0000000000000000e-01
    9.0564748108176597e-03 -5.7735026918962584e-01
    8.9828550775546308e-03 -5.8697343647396039e-01
    9.8039215686274508e-03 -5.0000000000000000e-01
    9.9221114321795360e-03 -4.9021431794612019e-01
    1.0047256709338800e-02 -4.8038446141526142e-01
    1.0047256709338800e-02 -4.8038446141526142e-01
    1.0470612796272080e-02 -4.5056355688958294e-01
    1.0470612796272080e-02 -4.5056355688958294e-01
    1.2410788582419381e-02 -3.5603449745815596e-01
    1.3071895424836602e-02 -3.3333333333333337e-01
    1.7993390891808767e-02 -2.2941573387056177e-01
    1.9172779022812263e-02 -2.1389631597324932e-01
    2.2538704568065868e-02 -1.7960530202677488e-01
    2.8911415064099853e-02 -1.3823270327522744e-01
    2.8911415064099853e-02 -1.3823270327522744e-01
    2.8911415064099853e-02 -1.3823270327522744e-01
    3.5296875323169379e-02 -1.1250879009260240e-01</input_scale>
  <output_scale>
    1.0526315789473684e+00 0.</output_scale>
  <inv_output_scale>
    9.4999999999999996e-01 0.</inv_output_scale>
  <weights>
    <_>
      2.5983719770562302e-01 9.1156369663866726e-02
      7.3453086516748881e-02 3.0485737331283267e-02
      -6.7054014477650969e-02 1.8092978200993773e-02
      -2.7732807741474824e-02 -5.8733678340358655e-02
      -9.2688332323257686e-03 1.0984217436799172e-01
      2.5502509763421024e-02 5.7729185428024646e-02
      2.7929355493144192e-02 -4.1171189412394428e-02
      -5.5748581685332206e-03 2.3597479236780010e-02
      -8.1455246887652110e-03 5.0446817491715298e-02
      -1.1390105942118255e-01 1.1273084817352225e-01
      -5.4248139540614373e-02 1.2851109721065582e-02
      8.0172552612659161e-03 7.6558054693108335e-02
      2.3111441593038344e-02 -1.2099152137482489e-02
      9.8224225420506545e-02 -1.0239086941210382e-01
      3.0891885514678419e-02 2.4917530349999367e-02
      -7.9008991656229599e-02 -9.6271397525636127e-02
      1.1908243742617169e-01 3.3065807020099709e-02
      4.4888991641622848e-02 1.3767405204896476e-02
      7.4588440392619040e-02 3.7022074475523983e-02
      -8.4088735731932873e-02 -6.9561325120075582e-02
      2.3766152179296005e-01 6.6690514114756988e-02
      5.6629054091724348e-02 2.8970940478546193e-02
      -5.5551571989136780e-02 1.6156113415775632e-02
      -2.8308599931690215e-02 -4.9126337585814792e-02
      -8.6639283293508240e-03 7.4756505158187769e-02
      2.4763133612782900e-02 5.0003723861986128e-02
      2.7101757572669274e-02 -3.6328046221104450e-02
      -7.6255876390920940e-03 2.4614166717378566e-02
      -9.6062692765015046e-03 4.3439689583027817e-02
      -7.7762040222462137e-02 7.7337458803449916e-02
      -4.6536042774052093e-02 1.4776955732649862e-02
      9.2981545444525502e-03 5.8715474551234603e-02
      2.3430002357845862e-02 -1.3294250531092427e-02
      7.0111910397337884e-02 -7.2451661421562966e-02
      2.8680588861418974e-02 2.3599614586882194e-02
      -6.0010919285580708e-02 -6.8443865860778788e-02
      7.8014107269305383e-02 3.0564713968810990e-02
      3.8850590434726301e-02 1.3435220665483012e-02
      5.7476030317320605e-02 3.3059328648477486e-02
      -6.3769330857004286e-02 -5.6192408072192258e-02
      7.3716437806860477e-02 2.7958596366540666e-03
      5.9816110024871342e-03 9.3911846782554018e-03
      -9.9802740957075486e-03 8.3830016943187511e-03
      -9.6411032701984156e-03 -1.0889903658308804e-02
      -5.5476395214890464e-03 -4.3441106036576941e-03
      8.2961132683712791e-03 1.0087890322542125e-02
      1.0001356900600828e-02 -1.1829365904216068e-02
      -3.3026651949015222e-03 8.0322404040006137e-03
      -3.7813960476295750e-03 1.2014155074357120e-02
      4.4395385891807023e-03 -4.2316461213906678e-03
      -1.0657659244161576e-02 6.8434239271392876e-03
      3.7994833514579294e-03 6.5346123310331666e-03
      7.9729441476303863e-03 -4.5304849665429468e-03
      8.8260684443181980e-04 -1.8561582591144471e-04
      1.0904574563618903e-02 8.1513992335372140e-03
      -3.5621636615019007e-03 -1.7543294048527934e-03
      -8.2177102315936900e-03 9.1479895034770834e-03
      1.1652489445966438e-02 6.9963838054543865e-03
      4.9963876130260558e-03 1.0875347278181832e-02
      -4.5173899546517658e-03 -8.5720363257744559e-03
      -5.6608375907186883e-04 9.8280077323760939e-04
      5.8674145612284837e-04 -2.3404810589499834e-05
      5.1210201631407039e-04 -3.6144653169046793e-04
      1.0328318839991015e-03 -7.3189054801951596e-04
      3.4695438364743398e-04 -4.4022363701253322e-04
      1.6853111414949609e-04 5.4427262316709827e-04
      4.0928371062340927e-04 -5.0198130336476655e-04
      -5.3837339186742325e-04 5.4130025805742177e-04
      7.2451646606574787e-04 7.2928225531841261e-04
      -8.9596085780997226e-04 -1.0633593111381934e-03
      4.7189397411756106e-04 -4.9248951343733988e-04
      9.9480067882329781e-04 -2.5035076196965137e-04
      1.2025051274339787e-03 7.9488783461768411e-05
      -2.3343960668910767e-04 -8.4511454584403696e-04
      1.2165178234286608e-03 4.8608291870555205e-04
      8.1330602239910749e-04 1.0184280383176761e-03
      1.0704245511725459e-03 -7.2497964613305542e-04
      4.9328224232276271e-04 1.8830881034114335e-04
      9.4414942372186774e-04 6.1239348253836216e-04
      8.3569334300787762e-04 -7.7516820246783386e-04
      -5.1928684888923639e-02 -6.8780524701595458e-03
      -5.6744624984628317e-03 -9.6058646513707407e-03
      4.8977233250389243e-03 -8.4021423970062712e-03
      9.8852255971616943e-03 6.8295539595833220e-03
      6.6479453135225427e-03 -9.6312175957516000e-03
      -9.2624481110424404e-03 -6.8271612060706397e-03
      -8.4594482429565035e-03 6.5916053350158739e-03
      5.1194565508274770e-03 -1.0919331234188971e-02
      7.9583969714565553e-03 -6.0438708008943142e-03
      1.0082998096687109e-02 -9.8824654272190275e-03
      5.4181567761873405e-03 -8.7730736807246010e-03
      -7.7353188329748442e-03 -5.0288737003713023e-03
      -8.6243152444507552e-03 8.7790990495658187e-03
      -8.5150135978604487e-03 9.0050367083758971e-03
      -1.0154764165948979e-02 -9.5792105174485019e-03
      7.7680701654982481e-03 8.4794607518365716e-03
      -1.0611782084037976e-02 -8.6216432884081897e-03
      -7.8843817633131464e-03 -7.3765690217375019e-03
      -5.7504136546325134e-03 -6.4131672468162532e-03
      6.5903774748883748e-03 6.3183179553258943e-03
      -5.1502920722956945e-02 -8.2490451226125104e-03
      -4.8236954283085703e-03 -8.9759359975607068e-03
      6.0418095437890142e-03 -9.7515434197989193e-03
      9.3743975335964652e-03 6.3720433814570647e-03
      6.8008104638447508e-03 -9.4170433437600429e-03
      -1.0503072441731315e-02 -7.2354401899191213e-03
      -8.2655732320944825e-03 6.1854079361147321e-03
      6.7190338223893416e-03 -1.0461033013756234e-02
      7.2586534843177668e-03 -7.4414646832346790e-03
      8.1593805817406721e-03 -1.0034259515564945e-02
      5.4277410546752294e-03 -7.3824891935764698e-03
      -6.3077476714122971e-03 -4.9160294742941479e-03
      -1.0614714858284963e-02 8.0837846136641908e-03
      -6.9134410686299448e-03 8.2486475840692890e-03
      -9.6608274680840215e-03 -9.3043756034177933e-03
      7.1210865184842325e-03 8.3807937332211896e-03
      -9.1347447113587187e-03 -7.7226225283659362e-03
      -6.6746402273617968e-03 -7.4703952906713944e-03
      -4.9715207214547346e-03 -6.4263739748258086e-03
      7.6460280310763603e-03 4.8926654003421631e-03
      1.8010405676220395e-01 6.7682118336053740e-02
      5.6805546691046649e-02 2.0735300483253533e-02
      -5.1026158080246020e-02 8.5563711725675663e-03
      -1.8789773733610224e-02 -4.4411814242171693e-02
      -2.7574711083781555e-03 8.1962842667966579e-02
      1.6212025894314707e-02 4.2631455779617758e-02
      1.7313781989487242e-02 -2.7399217265526229e-02
      -1.7603927136182712e-03 1.5733745016156809e-02
      -5.2911529482371263e-03 3.4293197689925281e-02
      -8.4029018807754319e-02 8.4010572738026604e-02
      -3.9647425218297984e-02 8.1755049265799223e-03
      4.8938706184337988e-03 5.6059026260082766e-02
      1.3629321705910706e-02 -4.5895160388268264e-03
      7.3129953366320943e-02 -7.4814008635260942e-02
      1.8387415171335374e-02 1.5704202786837991e-02
      -5.8941529784655472e-02 -7.0970353959903795e-02
      8.7945399625687801e-02 2.0332152990574996e-02
      3.1530109346864350e-02 7.9964518716138661e-03
      5.4820814564080771e-02 2.5433932530350908e-02
      -6.4456696098146860e-02 -5.1707307357969426e-02
      1.6350736680940009e-01 5.1488622572657156e-02
      4.1627383326639289e-02 1.9907946104153737e-02
      -4.0633272120769476e-02 1.2137808758901423e-02
      -1.7968780359832123e-02 -3.5934029424992651e-02
      -4.6653578979709799e-03 6.1838964268353579e-02
      1.8643188352717444e-02 3.6653647731240052e-02
      1.7272848277578058e-02 -2.5457448062801379e-02
      -3.6116464614889751e-03 1.5319283352495406e-02
      -7.4393535515010593e-03 3.1481001462391536e-02
      -6.3931954804465951e-02 6.3441527873584078e-02
      -3.3716530526339508e-02 8.4528223584351882e-03
      6.5169309056531928e-03 4.4058827894651785e-02
      1.5795295942261981e-02 -8.9188213970630200e-03
      5.4637377350412034e-02 -5.8562921973464022e-02
      2.0266732729414910e-02 1.6361217843195219e-02
      -4.6452813557408178e-02 -5.5231499652664919e-02
      6.7070172638636724e-02 2.0873381008097869e-02
      2.8419962929788264e-02 9.5779505019890319e-03
      4.3395573512127729e-02 2.3573428735436341e-02
      -4.7449388517902244e-02 -3.9974404649136860e-02
      6.9215508679434851e-02 1.7871326652330419e-02
      1.4288688790497016e-02 9.5552821791040493e-03
      -1.5185259692354182e-02 5.4889597819468578e-03
      -8.9881328007754332e-03 -1.4288047886363344e-02
      -2.9193900186550207e-03 1.8242695365216378e-02
      6.6276625554717809e-03 1.3604639129196827e-02
      7.4966486675140881e-03 -1.2135985892207832e-02
      -2.5921404714662750e-03 5.9517767902527398e-03
      -2.9537850981135485e-03 1.1644896642946970e-02
      -2.0185703471638731e-02 1.8930964175013675e-02
      -1.2719377921936514e-02 2.8623800141883843e-03
      3.9210469157244122e-03 1.3585718968218814e-02
      5.9918010321630081e-03 -4.0064258392123759e-03
      1.8994599534328662e-02 -1.8866320849545693e-02
      7.0630246961227178e-03 7.8432498327152510e-03
      -1.5097471309541085e-02 -1.8152872093644270e-02
      2.0024756780182985e-02 9.0085717940176016e-03
      1.0738119904845198e-02 3.8610086213650783e-03
      1.5543264459817191e-02 9.3676753138404231e-03
      -1.6821933380113167e-02 -1.3280482503222465e-02
      1.8322816963719418e-01 5.7568715281361406e-02
      4.8502369568828814e-02 1.8834612173953123e-02
      -4.3641869625980989e-02 7.2573638110314592e-03
      -1.7537386046806276e-02 -3.8901698122133545e-02
      -3.5292253240974702e-03 7.0129092297683202e-02
      1.5882868553546609e-02 3.8628514799923991e-02
      1.5944095996980219e-02 -2.5893797384230935e-02
      -5.5608453345167328e-05 1.2602080152373145e-02
      -2.5027219809404784e-03 3.3772706260188828e-02
      -7.0130812536901885e-02 7.1283409761963484e-02
      -3.5829435428357891e-02 5.5381445779211997e-03
      1.4962619943188660e-03 4.8717690655255941e-02
      1.4380500979783481e-02 -3.6277093880220305e-03
      6.2736102272891642e-02 -6.4393754219590038e-02
      1.7928714530009517e-02 1.4285037772064905e-02
      -5.1176424572617868e-02 -6.1987548138318166e-02
      7.3268102793393228e-02 2.0686006385031812e-02
      2.8819165884500210e-02 3.7352755790066704e-03
      4.8567022867686112e-02 2.4603093102278796e-02
      -5.5471538029907570e-02 -4.5323627291949858e-02
      1.5876910865576419e-01 6.1698385102408645e-02
      5.0485581328337366e-02 1.2905707451838827e-02
      -4.2145570870147933e-02 1.9016899252410750e-03
      -1.1682881481202563e-02 -3.7417989927473923e-02
      2.5246050884156490e-03 7.4489912728515129e-02
      1.0230731809557801e-02 3.4439142081720851e-02
      1.0871343566196791e-02 -1.9875315641181265e-02
      1.6712879418737433e-03 5.7788380876849050e-03
      3.2346901305698947e-04 2.7492093319005935e-02
      -7.7186704250924415e-02 7.5398476149919097e-02
      -3.3405964304416690e-02 1.1734172879057894e-03
      1.5792681665723532e-04 5.1713181432727962e-02
      6.8928724694905744e-03 1.2297529222531150e-03
      6.5601100423244560e-02 -6.8814876121358295e-02
      1.1367656698210923e-02 8.2042734361865016e-03
      -5.4097990737770420e-02 -6.4766823959858499e-02
      7.9315769104769535e-02 1.3555680356458297e-02
      2.2886444053622605e-02 -7.8257634512195152e-04
      5.0962484976463419e-02 1.8348987402131756e-02
      -5.8393719594588979e-02 -4.5617439544297575e-02
      2.2935107180010375e-01 8.4740274738914087e-02
      6.9100995963133294e-02 2.2436333763911243e-02
      -6.1471118911681832e-02 7.3382475793863167e-03
      -2.0517438032016781e-02 -5.1202447672157272e-02
      -2.1589987558484789e-03 9.9476668762429457e-02
      1.8501412954887005e-02 4.9495371289923637e-02
      2.0275996570927879e-02 -3.3485652155150029e-02
      -1.9364801101248094e-03 1.6183072813745276e-02
      -4.1847408824476013e-03 4.2739373533704793e-02
      -1.0308685477465260e-01 1.0447806857017758e-01
      -4.6583573249929261e-02 6.0163105915970174e-03
      1.9710636474487651e-03 7.0254595896726432e-02
      1.5897201711493995e-02 -3.6663892186204836e-03
      8.9721539489716853e-02 -9.3861452049878530e-02
      2.1810038916474098e-02 1.5704918960704022e-02
      -7.2725313934269120e-02 -8.7285956126200201e-02
      1.0859312412149272e-01 2.3314071427239080e-02
      3.7251398263271472e-02 5.2752318453536031e-03
      6.8780404447131335e-02 2.7244061384169460e-02
      -7.7542069795238089e-02 -6.2818873808123621e-02
      1.3961027792668815e-01 4.8182952341710945e-02
      3.8970110307270059e-02 1.4009054722955733e-02
      -3.4074842026387726e-02 2.4221727896642331e-03
      -1.1067049493154768e-02 -2.9786446594890836e-02
      6.7676735804915987e-04 6.0530789986539900e-02
      9.0435572635514262e-03 3.0162484084359651e-02
      1.0233658686056898e-02 -1.8390000746926767e-02
      1.5768172694750454e-04 8.6758157014947372e-03
      -2.0087203879482728e-03 2.4795784610759430e-02
      -6.2921813267779070e-02 6.2403911790589413e-02
      -2.6736488438162950e-02 1.1838117262308048e-03
      1.3830962563097810e-03 4.0900842919336856e-02
      7.3330828577299915e-03 -1.6235724952701591e-03
      5.3038172023747512e-02 -5.5377328275586946e-02
      1.1801007873610860e-02 8.7078648948496380e-03
      -4.3423949835472868e-02 -5.2110085129600997e-02
      6.5491317550684394e-02 1.3721749391742288e-02
      2.1020269191982931e-02 1.4768510442713496e-03
      3.8878288759284563e-02 1.6049464509617521e-02
      -4.5068076241537657e-02 -3.8071343698760279e-02
      2.2989553381249125e-01 6.2217964675573424e-02
      6.3203309904524593e-02 1.8930285547290752e-02
      -5.6140788380863234e-02 5.0325218293185547e-03
      -1.6884272475473489e-02 -4.6082585882074055e-02
      7.3784505774174402e-06 6.8584373679126773e-02
      1.4427243977770308e-02 4.5134832711411617e-02
      1.6950714563663306e-02 -2.9297920896748073e-02
      1.9609733634115595e-03 1.1546691481711852e-02
      -1.6966458103525061e-03 3.6587663418377311e-02
      -7.5098164124911465e-02 7.0559001551078707e-02
      -4.3781934613696082e-02 4.0017397859251295e-03
      -5.4568746688011147e-06 6.2940083746862399e-02
      1.2272695657550346e-02 -1.9202840975006165e-03
      5.8863968456170632e-02 -6.0099727809276429e-02
      1.7961727788716235e-02 1.3039752057849099e-02
      -6.4895464587826399e-02 -5.8277583255730313e-02
      6.3771161874481216e-02 2.1182508110734181e-02
      3.1855431097008079e-02 2.3777541792951201e-03
      6.0965208960886599e-02 2.4091016773588946e-02
      -6.1407456383744959e-02 -5.8690130182518535e-02
      3.2403644459178654e-01 1.0584582706240729e-01
      8.5146862014978508e-02 3.9982923245680146e-02
      -8.1001998316949958e-02 2.1187473480654372e-02
      -3.5832364233856356e-02 -7.1198600837466819e-02
      -1.1029202997756676e-02 1.2726098063436772e-01
      3.4033712660159018e-02 7.0662332553795407e-02
      3.6367064117846987e-02 -4.9369442403063887e-02
      -9.7284322335589000e-03 3.0056969078494890e-02
      -1.2710322376959548e-02 6.0815515121648192e-02
      -1.2921298012538288e-01 1.2997179146554338e-01
      -6.6028346234540250e-02 1.6722354028087225e-02
      1.2255426147712269e-02 8.8229010878444161e-02
      2.9577310236521426e-02 -1.4247412451949479e-02
      1.1295450746423427e-01 -1.1687494571234272e-01
      3.6831937271130377e-02 3.1530358349124300e-02
      -9.2271201362523966e-02 -1.1028825509617982e-01
      1.3607065867125892e-01 4.1392503393708181e-02
      5.4901759314402103e-02 1.5170851684812680e-02
      8.5527091015576137e-02 4.7041418602687624e-02
      -9.9236382956393476e-02 -8.3973332223481106e-02
      1.5685807906592536e-01 2.9379376892818419e-02
      2.4068917354091810e-02 2.5972281657573013e-02
      -3.0726080841076572e-02 1.9539419903789833e-02
      -2.5661554282640962e-02 -3.1176009667967214e-02
      -1.4283461478018301e-02 3.6046807320917806e-02
      2.4669139253601681e-02 3.0002264793500131e-02
      2.6240873223928457e-02 -3.0339682678910119e-02
      -1.0211017520979505e-02 2.2555007500478539e-02
      -1.2871875811082572e-02 2.9733634692361784e-02
      -3.7686477531727963e-02 3.6908352299238743e-02
      -3.1068491540842322e-02 1.7319558066002553e-02
      1.1786713524860642e-02 2.5748185253676018e-02
      2.1825265206545517e-02 -1.5614784071640580e-02
      3.2927195611744876e-02 -3.3771021658074954e-02
      2.6876136984155346e-02 2.2875515220050879e-02
      -2.6229698776597792e-02 -3.2779584516720021e-02
      4.0308434698590238e-02 2.7974802978625427e-02
      2.9850922207453997e-02 1.5444128753025917e-02
      2.5110728966749284e-02 2.8947758799601594e-02
      -2.8495867367557957e-02 -2.8968538924382642e-02
      1.3158626771506854e-01 5.7126779894347356e-02
      4.6028336087009264e-02 1.8367864724626554e-02
      -4.1769981017872146e-02 4.0542499235397067e-03
      -1.5512348731544541e-02 -3.8683209819977464e-02
      -1.4969298310817071e-03 6.8464238154069226e-02
      1.2467629487511405e-02 3.7647192552884269e-02
      1.5107443228536325e-02 -2.4505183980697669e-02
      -1.3828149161045852e-03 1.1811823556851512e-02
      -1.5223856948508930e-03 3.2897892300939244e-02
      -6.7457277387041131e-02 7.0641701583292665e-02
      -3.4911934883493589e-02 3.0326722938929665e-03
      1.0203162213146815e-03 4.6423433352762063e-02
      1.1151881973878064e-02 -3.6473010692228604e-03
      6.2578327181498708e-02 -6.4701418693766999e-02
      1.5402390876541721e-02 1.2733703538989663e-02
      -4.9781795621287095e-02 -5.9790118458338710e-02
      7.2736565861639305e-02 1.8410968616141752e-02
      2.8431375395299552e-02 4.4104270296019092e-03
      4.5398918622132904e-02 2.0662770646880758e-02
      -5.4327813126663821e-02 -4.3396270126505515e-02
      1.6931530266006520e-01 5.3824958967916163e-02
      4.2396476959209665e-02 1.4421806041121497e-02
      -3.5427743980353109e-02 5.6237273612693784e-03
      -1.3072814294966470e-02 -3.2803253912709204e-02
      -3.1926395350594570e-03 6.4646964909319191e-02
      1.2213023782877201e-02 2.9813692398272779e-02
      1.3494686872907589e-02 -1.9361177316774045e-02
      -1.0042420844192713e-03 1.0280829994787707e-02
      -3.1934030184729194e-03 2.7037297929443271e-02
