<?xml version="1.0"?>
<opencv_storage>
<shapeML type_id="opencv-ml-ann-mlp">
  <layer_sizes type_id="opencv-matrix">
    <rows>1</rows>
    <cols>3</cols>
    <dt>i</dt>
    <data>
      1600 40 1</data></layer_sizes>
  <activation_function>SIGMOID_SYM</activation_function>
  <f_param1>5.9999999999999998e-01</f_param1>
  <f_param2>1.</f_param2>
  <min_val>-9.4999999999999996e-01</min_val>
  <max_val>9.4999999999999996e-01</max_val>
  <min_val1>-9.7999999999999998e-01</min_val1>
  <max_val1>9.7999999999999998e-01</max_val1>
  <training_params>
    <train_method>BACKPROP</train_method>
    <dw_scale>1.0000000000000001e-01</dw_scale>
    <moment_scale>1.0000000000000001e-01</moment_scale>
    <term_criteria><epsilon>9.9999999747524271e-07</epsilon>
      <iterations>4000</iterations></term_criteria></training_params>
  <input_scale>
    4.9914382675206773e-02 -7.9056941504209485e-02
    3.5405614434831027e-02 -1.1215443081840884e-01
    4.9914382675206773e-02 -7.9056941504209485e-02 1. 0.
    4.9914382675206773e-02 -7.9056941504209485e-02
    4.9914382675206773e-02 -7.9056941504209485e-02
    3.5405614434831027e-02 -1.1215443081840884e-01
    2.8999901631417524e-02 -1.3779456365238762e-01
    2.2606763670656605e-02 -1.7902871850985821e-01
    2.0703521482591455e-02 -1.9674775073518591e-01
    1.9229868534035448e-02 -2.1320071635561041e-01
    1.7070358694152136e-02 -2.4333213169614379e-01
    2.0703521482591455e-02 -1.9674775073518591e-01
    1.8046583142447011e-02 -2.2866478019001180e-01
    1.8046583142447011e-02 -2.2866478019001180e-01
    1.8046583142447011e-02 -2.2866478019001180e-01
    1.6247899419108154e-02 -2.5734250632748940e-01
    1.4394055130705111e-02 -2.9637448918190956e-01
    1.3491605637349179e-02 -3.2053038237801618e-01
    1.1010823248317656e-02 -4.1854806384909354e-01
    9.4119462582344087e-03 -5.3665631459994945e-01
    1.0656930594801982e-02 -4.3885372573625553e-01
    1.2155273158205840e-02 -3.6579067361184658e-01
    1.3917557055404367e-02 -3.0860669992418382e-01
    1.4394055130705111e-02 -2.9637448918190956e-01
    1.6247899419108154e-02 -2.5734250632748940e-01
    2.2606763670656605e-02 -1.7902871850985821e-01
    1.7070358694152136e-02 -2.4333213169614379e-01
    1.9229868534035448e-02 -2.1320071635561041e-01
    2.8999901631417524e-02 -1.3779456365238762e-01
    2.8999901631417524e-02 -1.3779456365238762e-01
    2.2606763670656605e-02 -1.7902871850985821e-01
    2.0703521482591455e-02 -1.9674775073518591e-01
    3.5405614434831027e-02 -1.1215443081840884e-01
    4.9914382675206773e-02 -7.9056941504209485e-02
    3.5405614434831027e-02 -1.1215443081840884e-01
    3.5405614434831027e-02 -1.1215443081840884e-01
    4.9914382675206773e-02 -7.9056941504209485e-02 1. 0. 1. 0.
    4.9914382675206773e-02 -7.9056941504209485e-02
    3.5405614434831027e-02 -1.1215443081840884e-01
    4.9914382675206773e-02 -7.9056941504209485e-02 1. 0.
    3.5405614434831027e-02 -1.1215443081840884e-01
    3.5405614434831027e-02 -1.1215443081840884e-01
    3.5405614434831027e-02 -1.1215443081840884e-01
    2.5194507529271992e-02 -1.5961737689352443e-01
    1.7070358694152136e-02 -2.4333213169614379e-01
    1.7070358694152136e-02 -2.4333213169614379e-01
    1.6247899419108154e-02 -2.5734250632748940e-01
    1.3491605637349179e-02 -3.2053038237801618e-01
    1.4394055130705111e-02 -2.9637448918190956e-01
    1.2760861317271116e-02 -3.4359213546813844e-01
    1.1206815816655063e-02 -4.0824829046386302e-01
    9.6082518145016761e-03 -5.1741331199832008e-01
    9.9456500168139915e-03 -4.8832523840319625e-01
    9.7145735527806708e-03 -5.0775240028974744e-01
    8.7387727166353818e-03 -6.2284109890304973e-01
    9.5075014619441459e-03 -5.2704627669472981e-01
    8.7387727166353818e-03 -6.2284109890304973e-01
    8.7387727166353818e-03 -6.2284109890304973e-01
    8.7996708242576212e-03 -6.1324414067186650e-01
    9.5075014619441459e-03 -5.2704627669472981e-01
    1.1417393126839056e-02 -3.9783587230787021e-01
    1.2760861317271116e-02 -3.4359213546813844e-01
    1.3491605637349179e-02 -3.2053038237801618e-01
    1.3491605637349179e-02 -3.2053038237801618e-01
    1.3491605637349179e-02 -3.2053038237801618e-01
    1.8046583142447011e-02 -2.2866478019001180e-01
    1.8046583142447011e-02 -2.2866478019001180e-01
    2.0703521482591455e-02 -1.9674775073518591e-01
    1.9229868534035448e-02 -2.1320071635561041e-01
    1.9229868534035448e-02 -2.1320071635561041e-01
    2.5194507529271992e-02 -1.5961737689352443e-01
    2.5194507529271992e-02 -1.5961737689352443e-01
    3.5405614434831027e-02 -1.1215443081840884e-01 1. 0. 1. 0.
    4.9914382675206773e-02 -7.9056941504209485e-02
    4.9914382675206773e-02 -7.9056941504209485e-02
    3.5405614434831027e-02 -1.1215443081840884e-01
    3.5405614434831027e-02 -1.1215443081840884e-01
    3.5405614434831027e-02 -1.1215443081840884e-01
    2.8999901631417524e-02 -1.3779456365238762e-01
    2.2606763670656605e-02 -1.7902871850985821e-01
    2.0703521482591455e-02 -1.9674775073518591e-01
    1.8046583142447011e-02 -2.2866478019001180e-01
    1.4394055130705111e-02 -2.9637448918190956e-01
    1.3491605637349179e-02 -3.2053038237801618e-01
    1.3108159074953073e-02 -3.3218191941495984e-01
    1.2444613824083961e-02 -3.5478743759344955e-01
    1.0496666870152216e-02 -4.4887920124843483e-01
    9.0753423045830482e-03 -5.7495957457606894e-01
    8.9307425444954940e-03 -5.9408852578600457e-01
    8.6255012205448643e-03 -6.4209088278403859e-01
    8.7387727166353818e-03 -6.2284109890304973e-01
    8.6807622043837875e-03 -6.3245553203367599e-01
    8.1387855228258615e-03 -7.6054675894978319e-01
    9.2350944524389102e-03 -5.5582649219958413e-01
    9.2350944524389102e-03 -5.5582649219958413e-01
    9.0753423045830482e-03 -5.7495957457606894e-01
    8.9307425444954940e-03 -5.9408852578600457e-01
    8.9307425444954940e-03 -5.9408852578600457e-01
    8.3060956282471378e-03 -7.1040333416747259e-01
    8.4295475532708813e-03 -6.8090848403905468e-01
    1.0071390155181775e-02 -4.7854742041702220e-01
    1.2155273158205840e-02 -3.6579067361184658e-01
    1.2760861317271116e-02 -3.4359213546813844e-01
    1.3491605637349179e-02 -3.2053038237801618e-01
    1.5543317684449073e-02 -2.7080128015453198e-01
    1.4394055130705111e-02 -2.9637448918190956e-01
    1.4394055130705111e-02 -2.9637448918190956e-01
    1.4931448420451909e-02 -2.8379026190424128e-01
    1.6247899419108154e-02 -2.5734250632748940e-01
    1.6247899419108154e-02 -2.5734250632748940e-01
    2.5194507529271992e-02 -1.5961737689352443e-01
    3.5405614434831027e-02 -1.1215443081840884e-01
    2.8999901631417524e-02 -1.3779456365238762e-01
    3.5405614434831027e-02 -1.1215443081840884e-01 1. 0.
    4.9914382675206773e-02 -7.9056941504209485e-02
    2.5194507529271992e-02 -1.5961737689352443e-01
    2.5194507529271992e-02 -1.5961737689352443e-01
    1.9229868534035448e-02 -2.1320071635561041e-01
    1.8046583142447011e-02 -2.2866478019001180e-01
    1.4394055130705111e-02 -2.9637448918190956e-01
    1.3491605637349179e-02 -3.2053038237801618e-01
    1.2760861317271116e-02 -3.4359213546813844e-01
    1.2444613824083961e-02 -3.5478743759344955e-01
    1.2444613824083961e-02 -3.5478743759344955e-01
    9.9456500168139915e-03 -4.8832523840319625e-01
    9.4119462582344087e-03 -5.3665631459994945e-01
    8.7387727166353818e-03 -6.2284109890304973e-01
    8.3451833529817783e-03 -7.0052890071769403e-01
    8.1687026297991312e-03 -7.5040442170639232e-01
    8.1387855228258615e-03 -7.6054675894978319e-01
    8.1387855228258615e-03 -7.6054675894978319e-01
    8.5728624413298534e-03 -6.5175053591228205e-01
    8.9307425444954940e-03 -5.9408852578600457e-01
    8.7387727166353818e-03 -6.2284109890304973e-01
    8.7387727166353818e-03 -6.2284109890304973e-01
    8.6255012205448643e-03 -6.4209088278403859e-01
    8.6255012205448643e-03 -6.4209088278403859e-01
    8.5728624413298534e-03 -6.5175053591228205e-01
    9.0753423045830482e-03 -5.7495957457606894e-01
    8.9307425444954940e-03 -5.9408852578600457e-01
    8.5728624413298534e-03 -6.5175053591228205e-01
    1.1417393126839056e-02 -3.9783587230787021e-01
    1.1010823248317656e-02 -4.1854806384909354e-01
    1.1889432933520412e-02 -3.7662178857735468e-01
    1.3491605637349179e-02 -3.2053038237801618e-01
    1.5543317684449073e-02 -2.7080128015453198e-01
    1.4931448420451909e-02 -2.8379026190424128e-01
    1.5543317684449073e-02 -2.7080128015453198e-01
    1.5543317684449073e-02 -2.7080128015453198e-01
    1.9229868534035448e-02 -2.1320071635561041e-01
    2.8999901631417524e-02 -1.3779456365238762e-01
    2.8999901631417524e-02 -1.3779456365238762e-01
    2.8999901631417524e-02 -1.3779456365238762e-01 1. 0.
    2.8999901631417524e-02 -1.3779456365238762e-01
    2.8999901631417524e-02 -1.3779456365238762e-01
    1.8046583142447011e-02 -2.2866478019001180e-01
    1.7070358694152136e-02 -2.4333213169614379e-01
    1.3917557055404367e-02 -3.0860669992418382e-01
    1.2760861317271116e-02 -3.4359213546813844e-01
    1.1206815816655063e-02 -4.0824829046386302e-01
    1.1644263655264130e-02 -3.8729833462074170e-01
    1.1417393126839056e-02 -3.9783587230787021e-01
    9.4119462582344087e-03 -5.3665631459994945e-01
    9.0012566382808197e-03 -5.8452259722500599e-01
    8.6807622043837875e-03 -6.3245553203367599e-01
    8.3863073496332000e-03 -6.9069835687041137e-01
    8.2689700364717809e-03 -7.2032487429513492e-01
    8.2689700364717809e-03 -7.2032487429513492e-01
    7.9394380614985251e-03 -8.5509227320735670e-01
    8.3451833529817783e-03 -7.0052890071769403e-01
    8.3451833529817783e-03 -7.0052890071769403e-01
    8.6255012205448643e-03 -6.4209088278403859e-01
    8.5728624413298534e-03 -6.5175053591228205e-01
    8.7387727166353818e-03 -6.2284109890304973e-01
    8.5728624413298534e-03 -6.5175053591228205e-01
    8.7996708242576212e-03 -6.1324414067186650e-01
    8.6255012205448643e-03 -6.4209088278403859e-01
    8.5728624413298534e-03 -6.5175053591228205e-01
    8.5227283129531636e-03 -6.6143782776614768e-01
    9.0753423045830482e-03 -5.7495957457606894e-01
    9.4119462582344087e-03 -5.3665631459994945e-01
    9.3212464561329717e-03 -5.4624820070568070e-01
    9.9456500168139915e-03 -4.8832523840319625e-01
    1.1889432933520412e-02 -3.7662178857735468e-01
    1.4394055130705111e-02 -2.9637448918190956e-01
    1.4931448420451909e-02 -2.8379026190424128e-01
    1.5543317684449073e-02 -2.7080128015453198e-01
    1.7070358694152136e-02 -2.4333213169614379e-01
    1.9229868534035448e-02 -2.1320071635561041e-01
    2.0703521482591455e-02 -1.9674775073518591e-01
    2.8999901631417524e-02 -1.3779456365238762e-01
    2.5194507529271992e-02 -1.5961737689352443e-01 1. 0.
    2.2606763670656605e-02 -1.7902871850985821e-01
    1.8046583142447011e-02 -2.2866478019001180e-01
    1.4931448420451909e-02 -2.8379026190424128e-01
    1.3108159074953073e-02 -3.3218191941495984e-01
    1.2155273158205840e-02 -3.6579067361184658e-01
    1.1010823248317656e-02 -4.1854806384909354e-01
    9.9456500168139915e-03 -4.8832523840319625e-01
    9.3212464561329717e-03 -5.4624820070568070e-01
    9.4119462582344087e-03 -5.3665631459994945e-01
    9.1532110612231737e-03 -5.6539555281903398e-01
    8.6255012205448643e-03 -6.4209088278403859e-01
    8.3451833529817783e-03 -7.0052890071769403e-01
    9.0753423045830482e-03 -5.7495957457606894e-01
    8.5728624413298534e-03 -6.5175053591228205e-01
    8.0132712052212087e-03 -8.1227693210689522e-01
    7.8432885485286742e-03 -9.9380798999990660e-01
    7.8872288842048166e-03 -8.9943802679503371e-01
    7.9107193898281056e-03 -8.7705801930702909e-01
    8.2337377925613200e-03 -7.3029674334022143e-01
    8.4749901874084637e-03 -6.7115605521402422e-01
    8.2689700364717809e-03 -7.2032487429513492e-01
    8.6807622043837875e-03 -6.3245553203367599e-01
    8.5728624413298534e-03 -6.5175053591228205e-01
    8.4749901874084637e-03 -6.7115605521402422e-01
    8.5227283129531636e-03 -6.6143782776614768e-01
    8.2337377925613200e-03 -7.3029674334022143e-01
    8.7387727166353818e-03 -6.2284109890304973e-01
    9.3212464561329717e-03 -5.4624820070568070e-01
    9.5075014619441459e-03 -5.2704627669472981e-01
    9.2350944524389102e-03 -5.5582649219958413e-01
    9.1532110612231737e-03 -5.6539555281903398e-01
    1.1010823248317656e-02 -4.1854806384909354e-01
    1.1417393126839056e-02 -3.9783587230787021e-01
    1.4394055130705111e-02 -2.9637448918190956e-01
    1.3917557055404367e-02 -3.0860669992418382e-01
    1.6247899419108154e-02 -2.5734250632748940e-01
    2.0703521482591455e-02 -1.9674775073518591e-01
    2.5194507529271992e-02 -1.5961737689352443e-01
    2.5194507529271992e-02 -1.5961737689352443e-01 1. 0.
    1.8046583142447011e-02 -2.2866478019001180e-01
    1.4931448420451909e-02 -2.8379026190424128e-01
    1.2760861317271116e-02 -3.4359213546813844e-01
    1.2155273158205840e-02 -3.6579067361184658e-01
    1.1010823248317656e-02 -4.1854806384909354e-01
    1.0346199762790042e-02 -4.5883146774112360e-01
    9.3212464561329717e-03 -5.4624820070568070e-01
    8.8636064358237170e-03 -6.0366114639010593e-01
    8.6807622043837875e-03 -6.3245553203367599e-01
    8.6255012205448643e-03 -6.4209088278403859e-01
    8.4749901874084637e-03 -6.7115605521402422e-01
    8.2337377925613200e-03 -7.3029674334022143e-01
    8.3863073496332000e-03 -6.9069835687041137e-01
    7.8444992128175132e-03 -9.8153687355409203e-01
    7.8554204792886037e-03 -9.4557794340753509e-01
    7.8432885485286742e-03 -9.9380798999990660e-01
    7.8983298452005909e-03 -8.8819417296494840e-01
    7.8554204792886037e-03 -9.4557794340753509e-01
    7.8432885485286742e-03 -9.9380798999990660e-01
    7.8872288842048166e-03 -8.9943802679503371e-01
    7.9735537319135467e-03 -8.3350875346649067e-01
    8.2003350674555997e-03 -7.4032217518923693e-01
    8.4295475532708813e-03 -6.8090848403905468e-01
    8.7996708242576212e-03 -6.1324414067186650e-01
    8.0838971251750002e-03 -7.8102496759066531e-01
    8.2003350674555997e-03 -7.4032217518923693e-01
    8.3060956282471378e-03 -7.1040333416747259e-01
    8.7996708242576212e-03 -6.1324414067186650e-01
    8.6807622043837875e-03 -6.3245553203367599e-01
    9.2350944524389102e-03 -5.5582649219958413e-01
    8.8636064358237170e-03 -6.0366114639010593e-01
    8.7387727166353818e-03 -6.2284109890304973e-01
    1.0656930594801982e-02 -4.3885372573625553e-01
    1.1010823248317656e-02 -4.1854806384909354e-01
    1.2155273158205840e-02 -3.6579067361184658e-01
    1.3491605637349179e-02 -3.2053038237801618e-01
    1.9229868534035448e-02 -2.1320071635561041e-01
    1.9229868534035448e-02 -2.1320071635561041e-01
    2.8999901631417524e-02 -1.3779456365238762e-01
    2.5194507529271992e-02 -1.5961737689352443e-01
    1.5543317684449073e-02 -2.7080128015453198e-01
    1.2760861317271116e-02 -3.4359213546813844e-01
    1.1889432933520412e-02 -3.7662178857735468e-01
    1.0827949885468206e-02 -4.2874646285627210e-01
    1.0071390155181775e-02 -4.7854742041702220e-01
    8.8636064358237170e-03 -6.0366114639010593e-01
    8.6255012205448643e-03 -6.4209088278403859e-01
    8.5227283129531636e-03 -6.6143782776614768e-01
    8.3863073496332000e-03 -6.9069835687041137e-01
    8.1387855228258615e-03 -7.6054675894978319e-01
    7.8444992128175132e-03 -1.0188104257143740e+00
    7.8432885485286742e-03 -9.9380798999990660e-01
    7.8554204792886037e-03 -1.0575542788110590e+00
    7.8432885485286742e-03 -1.0062305898749055e+00
    7.8444992128175132e-03 -9.8153687355409203e-01
    7.8872288842048166e-03 -8.9943802679503371e-01
    7.9107193898281056e-03 -8.7705801930702909e-01
    8.1687026297991312e-03 -7.5040442170639232e-01
    8.1105327727188214e-03 -7.7075249330806184e-01
    7.9558093525445763e-03 -8.4425467570325519e-01
    7.9735537319135467e-03 -8.3350875346649067e-01
    7.8554204792886037e-03 -9.4557794340753509e-01
    7.8688308444900545e-03 -9.2226607475482814e-01
    7.8872288842048166e-03 -8.9943802679503371e-01
    8.0838971251750002e-03 -7.8102496759066531e-01
    8.0588348073114286e-03 -7.9136756710306633e-01
    8.1687026297991312e-03 -7.5040442170639232e-01
    8.3863073496332000e-03 -6.9069835687041137e-01
    8.6255012205448643e-03 -6.4209088278403859e-01
    8.7387727166353818e-03 -6.2284109890304973e-01
    8.5227283129531636e-03 -6.6143782776614768e-01
    8.5728624413298534e-03 -6.5175053591228205e-01
    8.5728624413298534e-03 -6.5175053591228205e-01
    1.0346199762790042e-02 -4.5883146774112360e-01
    1.0656930594801982e-02 -4.3885372573625553e-01
    1.2444613824083961e-02 -3.5478743759344955e-01
    1.4931448420451909e-02 -2.8379026190424128e-01
    1.7070358694152136e-02 -2.4333213169614379e-01
    2.5194507529271992e-02 -1.5961737689352443e-01
    2.0703521482591455e-02 -1.9674775073518591e-01
    1.4931448420451909e-02 -2.8379026190424128e-01
    1.3108159074953073e-02 -3.3218191941495984e-01
    1.1644263655264130e-02 -3.8729833462074170e-01
    1.0827949885468206e-02 -4.2874646285627210e-01
    9.0012566382808197e-03 -5.8452259722500599e-01
    8.6255012205448643e-03 -6.4209088278403859e-01
    8.2689700364717809e-03 -7.2032487429513492e-01
    8.1387855228258615e-03 -7.6054675894978319e-01
    8.0353053123996872e-03 -8.0178372573727308e-01
    7.8469222242151630e-03 -9.6941169589838261e-01
    7.8505609548648048e-03 -1.0444659357341870e+00
    7.8688308444900545e-03 -9.2226607475482814e-01
    7.8774005577899892e-03 -9.1079385952335801e-01
    7.8983298452005909e-03 -8.8819417296494840e-01
    7.8688308444900545e-03 -9.2226607475482814e-01
    8.0588348073114286e-03 -7.9136756710306633e-01
    8.0132712052212087e-03 -8.1227693210689522e-01
    8.0838971251750002e-03 -7.8102496759066531e-01
    8.1687026297991312e-03 -7.5040442170639232e-01
    8.2689700364717809e-03 -7.2032487429513492e-01
    8.1105327727188214e-03 -7.7075249330806184e-01
    8.0838971251750002e-03 -7.8102496759066531e-01
    8.5728624413298534e-03 -6.5175053591228205e-01
    8.2337377925613200e-03 -7.3029674334022143e-01
    7.8872288842048166e-03 -8.9943802679503371e-01
    7.8872288842048166e-03 -8.9943802679503371e-01
    8.4749901874084637e-03 -6.7115605521402422e-01
    8.3451833529817783e-03 -7.0052890071769403e-01
    8.3451833529817783e-03 -7.0052890071769403e-01
    8.2003350674555997e-03 -7.4032217518923693e-01
    8.1387855228258615e-03 -7.6054675894978319e-01
    8.2689700364717809e-03 -7.2032487429513492e-01
    8.6255012205448643e-03 -6.4209088278403859e-01
    8.6255012205448643e-03 -6.4209088278403859e-01
    1.0071390155181775e-02 -4.7854742041702220e-01
    1.1010823248317656e-02 -4.1854806384909354e-01
    1.2760861317271116e-02 -3.4359213546813844e-01
    1.5543317684449073e-02 -2.7080128015453198e-01
    2.8999901631417524e-02 -1.3779456365238762e-01
    1.9229868534035448e-02 -2.1320071635561041e-01
    1.4931448420451909e-02 -2.8379026190424128e-01
    1.2444613824083961e-02 -3.5478743759344955e-01
    1.0827949885468206e-02 -4.2874646285627210e-01
    8.7387727166353818e-03 -6.2284109890304973e-01
    8.6807622043837875e-03 -6.3245553203367599e-01
    8.3863073496332000e-03 -6.9069835687041137e-01
    8.1105327727188214e-03 -7.7075249330806184e-01
    7.9394380614985251e-03 -8.5509227320735670e-01
    7.9107193898281056e-03 -8.7705801930702909e-01
    7.8444992128175132e-03 -1.0188104257143740e+00
    7.9107193898281056e-03 -1.1401754250991378e+00
    7.8432885485286742e-03 -9.9380798999990660e-01
    7.8469222242151630e-03 -9.6941169589838261e-01
    7.8872288842048166e-03 -8.9943802679503371e-01
    7.9244154594654524e-03 -8.6602540378443882e-01
    7.8872288842048166e-03 -8.9943802679503371e-01
    7.8983298452005909e-03 -8.8819417296494840e-01
    8.0353053123996872e-03 -8.0178372573727308e-01
    8.2003350674555997e-03 -7.4032217518923693e-01
    8.2337377925613200e-03 -7.3029674334022143e-01
    8.0353053123996872e-03 -8.0178372573727308e-01
    8.0353053123996872e-03 -8.0178372573727308e-01
    8.2689700364717809e-03 -7.2032487429513492e-01
    8.1387855228258615e-03 -7.6054675894978319e-01
    7.8469222242151630e-03 -9.6941169589838261e-01
    7.8615075940953044e-03 -9.3385920954703538e-01
    7.8432885485286742e-03 -9.9380798999990660e-01
    8.1105327727188214e-03 -7.7075249330806184e-01
    7.9244154594654524e-03 -8.6602540378443882e-01
    8.0132712052212087e-03 -8.1227693210689522e-01
    8.2337377925613200e-03 -7.3029674334022143e-01
    8.2003350674555997e-03 -7.4032217518923693e-01
    8.2337377925613200e-03 -7.3029674334022143e-01
    8.4749901874084637e-03 -6.7115605521402422e-01
    8.7996708242576212e-03 -6.1324414067186650e-01
    1.0346199762790042e-02 -4.5883146774112360e-01
    1.1206815816655063e-02 -4.0824829046386302e-01
    1.5543317684449073e-02 -2.7080128015453198e-01
    2.0703521482591455e-02 -1.9674775073518591e-01
    1.5543317684449073e-02 -2.7080128015453198e-01
    1.2444613824083961e-02 -3.5478743759344955e-01
    1.1010823248317656e-02 -4.1854806384909354e-01
    1.0346199762790042e-02 -4.5883146774112360e-01
    8.3451833529817783e-03 -7.0052890071769403e-01
    8.5728624413298534e-03 -6.5175053591228205e-01
    8.3451833529817783e-03 -7.0052890071769403e-01
    7.9926979461014853e-03 -8.2285073575547896e-01
    7.9558093525445763e-03 -8.4425467570325519e-01
    7.8469222242151648e-03 -1.0315534712764842e+00
    7.9394380614985251e-03 -1.1694644324747672e+00
    7.8444992128175132e-03 -9.8153687355409203e-01
    7.8505609548648048e-03 -9.5742710775633821e-01
    7.8469222242151648e-03 -1.0315534712764842e+00
    7.8432885485286742e-03 -9.9380798999990660e-01
    7.8505609548648048e-03 -9.5742710775633821e-01
    7.8554204792886037e-03 -9.4557794340753509e-01
    7.8872288842048166e-03 -8.9943802679503371e-01
    8.0132712052212087e-03 -8.1227693210689522e-01
    7.9735537319135467e-03 -8.3350875346649067e-01
    8.0588348073114286e-03 -7.9136756710306633e-01
    7.9558093525445763e-03 -8.4425467570325519e-01
    7.9394380614985251e-03 -8.5509227320735670e-01
    8.0353053123996872e-03 -8.0178372573727308e-01
    8.1387855228258615e-03 -7.6054675894978319e-01
    8.0588348073114286e-03 -7.9136756710306633e-01
    8.0353053123996872e-03 -8.0178372573727308e-01
    7.9107193898281056e-03 -1.1401754250991378e+00
    7.8688308444900528e-03 -1.0842857905901355e+00
    7.9107193898281056e-03 -1.1401754250991378e+00
    7.8983298452005909e-03 -8.8819417296494840e-01
    8.1387855228258615e-03 -7.6054675894978319e-01
    8.2003350674555997e-03 -7.4032217518923693e-01
    8.2689700364717809e-03 -7.2032487429513492e-01
    8.2689700364717809e-03 -7.2032487429513492e-01
    8.6807622043837875e-03 -6.3245553203367599e-01
    9.7145735527806708e-03 -5.0775240028974744e-01
    1.0827949885468206e-02 -4.2874646285627210e-01
    1.3108159074953073e-02 -3.3218191941495984e-01
    1.5543317684449073e-02 -2.7080128015453198e-01
    1.6247899419108154e-02 -2.5734250632748940e-01
    1.2155273158205840e-02 -3.6579067361184658e-01
    9.9456500168139915e-03 -4.8832523840319625e-01
    8.3060956282471378e-03 -7.1040333416747259e-01
    8.0132712052212087e-03 -8.1227693210689522e-01
    8.2689700364717809e-03 -7.2032487429513492e-01
    8.2003350674555997e-03 -7.4032217518923693e-01
    7.8872288842048166e-03 -8.9943802679503371e-01
    7.8469222242151630e-03 -9.6941169589838261e-01
    7.8505609548648048e-03 -1.0444659357341870e+00
    7.8983298452005926e-03 -1.1258799375612025e+00
    7.8432885485286742e-03 -9.9380798999990660e-01
    7.8554204792886037e-03 -9.4557794340753509e-01
    7.8872288842048166e-03 -8.9943802679503371e-01
    7.8615075940953044e-03 -9.3385920954703538e-01
    7.8469222242151630e-03 -9.6941169589838261e-01
    7.8444992128175132e-03 -9.8153687355409203e-01
    7.8983298452005909e-03 -8.8819417296494840e-01
    7.9735537319135467e-03 -8.3350875346649067e-01
    7.9735537319135467e-03 -8.3350875346649067e-01
    8.0588348073114286e-03 -7.9136756710306633e-01
    7.9558093525445763e-03 -8.4425467570325519e-01
    8.1687026297991312e-03 -7.5040442170639232e-01
    8.0588348073114286e-03 -7.9136756710306633e-01
    8.1105327727188214e-03 -7.7075249330806184e-01
    7.9558093525445763e-03 -8.4425467570325519e-01
    7.8983298452005909e-03 -8.8819417296494840e-01
    7.8432885485286742e-03 -9.9380798999990660e-01
    7.9107193898281056e-03 -1.1401754250991378e+00
    7.8615075940953044e-03 -1.0708252269472673e+00
    7.8983298452005926e-03 -1.1258799375612025e+00
    7.9735537319135467e-03 -8.3350875346649067e-01
    7.9926979461014853e-03 -8.2285073575547896e-01
    7.9558093525445763e-03 -8.4425467570325519e-01
    8.0353053123996872e-03 -8.0178372573727308e-01
    8.2689700364717809e-03 -7.2032487429513492e-01
    8.7996708242576212e-03 -6.1324414067186650e-01
    1.0656930594801982e-02 -4.3885372573625553e-01
    1.4394055130705111e-02 -2.9637448918190956e-01
    1.5543317684449073e-02 -2.7080128015453198e-01
    1.3108159074953073e-02 -3.3218191941495984e-01
    1.1010823248317656e-02 -4.1854806384909354e-01
    9.6082518145016761e-03 -5.1741331199832008e-01
    8.3451833529817783e-03 -7.0052890071769403e-01
    7.9926979461014853e-03 -8.2285073575547896e-01
    7.9107193898281056e-03 -8.7705801930702909e-01
    7.8983298452005909e-03 -8.8819417296494840e-01
    7.9558093525445763e-03 -8.4425467570325519e-01
    7.8615075940953044e-03 -1.0708252269472673e+00
    7.9244154594654524e-03 -1.1547005383792517e+00
    7.8432885485286742e-03 -9.9380798999990660e-01
    7.8554204792886037e-03 -1.0575542788110590e+00
    7.8615075940953044e-03 -9.3385920954703538e-01
    8.0132712052212087e-03 -8.1227693210689522e-01
    7.8554204792886037e-03 -9.4557794340753509e-01
    7.8469222242151648e-03 -1.0315534712764842e+00
    7.8554204792886037e-03 -9.4557794340753509e-01
    7.8983298452005909e-03 -8.8819417296494840e-01
    7.9244154594654524e-03 -8.6602540378443882e-01
    8.1387855228258615e-03 -7.6054675894978319e-01
    8.0132712052212087e-03 -8.1227693210689522e-01
    7.9244154594654524e-03 -8.6602540378443882e-01
    7.9735537319135467e-03 -8.3350875346649067e-01
    7.9394380614985251e-03 -8.5509227320735670e-01
    8.0838971251750002e-03 -7.8102496759066531e-01
    7.8983298452005909e-03 -8.8819417296494840e-01
    7.8432885485286742e-03 -1.0062305898749055e+00
    7.8554204792886037e-03 -9.4557794340753509e-01
    7.9558093525445746e-03 -1.1844767091956117e+00
    7.8505609548648048e-03 -1.0444659357341870e+00
    7.8688308444900528e-03 -1.0842857905901355e+00
    7.8983298452005909e-03 -8.8819417296494840e-01
    7.8983298452005909e-03 -8.8819417296494840e-01
    7.8774005577899892e-03 -9.1079385952335801e-01
    7.9394380614985251e-03 -8.5509227320735670e-01
    8.1687026297991312e-03 -7.5040442170639232e-01
    8.2689700364717809e-03 -7.2032487429513492e-01
    9.9456500168139915e-03 -4.8832523840319625e-01
    1.2155273158205840e-02 -3.6579067361184658e-01
    1.6247899419108154e-02 -2.5734250632748940e-01
    1.1417393126839056e-02 -3.9783587230787021e-01
    9.8268844926191323e-03 -4.9805824509175228e-01
    8.2689700364717809e-03 -7.2032487429513492e-01
    8.0838971251750002e-03 -7.8102496759066531e-01
    7.9244154594654524e-03 -8.6602540378443882e-01
    7.8469222242151630e-03 -9.6941169589838261e-01
    7.8872288842048166e-03 -8.9943802679503371e-01
    7.8688308444900528e-03 -1.0842857905901355e+00
    7.8983298452005926e-03 -1.1258799375612025e+00
    7.8469222242151648e-03 -1.0315534712764842e+00
    7.8774005577899892e-03 -1.0979432827130893e+00
    7.8444992128175132e-03 -1.0188104257143740e+00
    7.8469222242151648e-03 -1.0315534712764842e+00
    7.9394380614985251e-03 -8.5509227320735670e-01
    7.8872288842048166e-03 -8.9943802679503371e-01
    7.8983298452005909e-03 -8.8819417296494840e-01
    7.9107193898281056e-03 -8.7705801930702909e-01
    7.8872288842048166e-03 -8.9943802679503371e-01
    7.9558093525445763e-03 -8.4425467570325519e-01
    8.0132712052212087e-03 -8.1227693210689522e-01
    8.1687026297991312e-03 -7.5040442170639232e-01
    8.1105327727188214e-03 -7.7075249330806184e-01
    8.1387855228258615e-03 -7.6054675894978319e-01
    7.9558093525445763e-03 -8.4425467570325519e-01
    8.0132712052212087e-03 -8.1227693210689522e-01
    7.9394380614985251e-03 -8.5509227320735670e-01
    7.8444992128175132e-03 -9.8153687355409203e-01
    7.8688308444900545e-03 -9.2226607475482814e-01
    7.8688308444900528e-03 -1.0842857905901355e+00
    8.1387855228258615e-03 -1.3148435493708115e+00
    7.9244154594654524e-03 -1.1547005383792517e+00
    7.8615075940953044e-03 -1.0708252269472673e+00
    7.9735537319135467e-03 -8.3350875346649067e-01
    7.9926979461014853e-03 -8.2285073575547896e-01
    7.9244154594654524e-03 -8.6602540378443882e-01
    8.0353053123996872e-03 -8.0178372573727308e-01
    8.3451833529817783e-03 -7.0052890071769403e-01
    9.3212464561329717e-03 -5.4624820070568070e-01
    1.0071390155181775e-02 -4.7854742041702220e-01
    1.2760861317271116e-02 -3.4359213546813844e-01
    1.0656930594801982e-02 -4.3885372573625553e-01
    9.3212464561329717e-03 -5.4624820070568070e-01
    8.3060956282471378e-03 -7.1040333416747259e-01
    8.0132712052212087e-03 -8.1227693210689522e-01
    7.8983298452005909e-03 -8.8819417296494840e-01
    7.8615075940953044e-03 -9.3385920954703538e-01
    7.8505609548648048e-03 -9.5742710775633821e-01
    7.8688308444900528e-03 -1.0842857905901355e+00
    7.8872288842048149e-03 -1.1118053386771942e+00
    7.9394380614985251e-03 -1.1694644324747672e+00
    7.8688308444900528e-03 -1.0842857905901355e+00
    7.8505609548648048e-03 -1.0444659357341870e+00
    7.8554204792886037e-03 -9.4557794340753509e-01
    7.8774005577899892e-03 -9.1079385952335801e-01
    7.9244154594654524e-03 -8.6602540378443882e-01
    8.0353053123996872e-03 -8.0178372573727308e-01
    7.9735537319135467e-03 -8.3350875346649067e-01
    8.1387855228258615e-03 -7.6054675894978319e-01
    7.9735537319135467e-03 -8.3350875346649067e-01
    8.0353053123996872e-03 -8.0178372573727308e-01
    8.3060956282471378e-03 -7.1040333416747259e-01
    8.2337377925613200e-03 -7.3029674334022143e-01
    8.0353053123996872e-03 -8.0178372573727308e-01
    7.9558093525445763e-03 -8.4425467570325519e-01
    8.0132712052212087e-03 -8.1227693210689522e-01
    7.8615075940953044e-03 -9.3385920954703538e-01
    7.8688308444900545e-03 -9.2226607475482814e-01
    7.8688308444900545e-03 -9.2226607475482814e-01
    7.8554204792886037e-03 -1.0575542788110590e+00
    7.8615075940953044e-03 -1.0708252269472673e+00
    7.9735537319135467e-03 -1.1997474481714638e+00
    7.8688308444900528e-03 -1.0842857905901355e+00
    7.8444992128175132e-03 -1.0188104257143740e+00
    7.8872288842048166e-03 -8.9943802679503371e-01
    7.8469222242151630e-03 -9.6941169589838261e-01
    7.9107193898281056e-03 -8.7705801930702909e-01
    8.1387855228258615e-03 -7.6054675894978319e-01
    8.3060956282471378e-03 -7.1040333416747259e-01
    9.5075014619441459e-03 -5.2704627669472981e-01
    1.1889432933520412e-02 -3.7662178857735468e-01
    1.1417393126839056e-02 -3.9783587230787021e-01
    9.2350944524389102e-03 -5.5582649219958413e-01
    8.0588348073114286e-03 -7.9136756710306633e-01
    7.9107193898281056e-03 -8.7705801930702909e-01
    7.8774005577899892e-03 -9.1079385952335801e-01
    7.8432885485286742e-03 -1.0062305898749055e+00
    7.8444992128175132e-03 -9.8153687355409203e-01
    7.9244154594654524e-03 -1.1547005383792517e+00
    8.0132712052212087e-03 -1.2311072252245130e+00
    7.9244154594654524e-03 -1.1547005383792517e+00
    7.8688308444900528e-03 -1.0842857905901355e+00
    7.8615075940953044e-03 -1.0708252269472673e+00
    7.8872288842048166e-03 -8.9943802679503371e-01
    8.0588348073114286e-03 -7.9136756710306633e-01
    8.0588348073114286e-03 -7.9136756710306633e-01
    8.2003350674555997e-03 -7.4032217518923693e-01
    8.1387855228258615e-03 -7.6054675894978319e-01
    8.2337377925613200e-03 -7.3029674334022143e-01
    8.1387855228258615e-03 -7.6054675894978319e-01
    8.1105327727188214e-03 -7.7075249330806184e-01
    8.3060956282471378e-03 -7.1040333416747259e-01
    8.3863073496332000e-03 -6.9069835687041137e-01
    8.0838971251750002e-03 -7.8102496759066531e-01
    8.0588348073114286e-03 -7.9136756710306633e-01
    8.1105327727188214e-03 -7.7075249330806184e-01
    7.9244154594654524e-03 -8.6602540378443882e-01
    7.8505609548648048e-03 -9.5742710775633821e-01
    7.8688308444900545e-03 -9.2226607475482814e-01
    7.9394380614985251e-03 -8.5509227320735670e-01
    7.8505609548648048e-03 -1.0444659357341870e+00
    7.8444992128175132e-03 -1.0188104257143740e+00
    7.8774005577899892e-03 -1.0979432827130893e+00
    7.8615075940953044e-03 -1.0708252269472673e+00
    7.8444992128175132e-03 -9.8153687355409203e-01
    7.8615075940953044e-03 -9.3385920954703538e-01
    7.9735537319135467e-03 -8.3350875346649067e-01
    7.9926979461014853e-03 -8.2285073575547896e-01
    8.2337377925613200e-03 -7.3029674334022143e-01
    9.0012566382808197e-03 -5.8452259722500599e-01
    1.0827949885468206e-02 -4.2874646285627210e-01
    1.1417393126839056e-02 -3.9783587230787021e-01
    8.6255012205448643e-03 -6.4209088278403859e-01
    7.9735537319135467e-03 -8.3350875346649067e-01
    7.9107193898281056e-03 -8.7705801930702909e-01
    7.8505609548648048e-03 -9.5742710775633821e-01
    7.8432885485286742e-03 -1.0062305898749055e+00
    7.8469222242151648e-03 -1.0315534712764842e+00
    7.9394380614985251e-03 -1.1694644324747672e+00
    8.0588348073114286e-03 -1.2636353087613479e+00
    7.8688308444900528e-03 -1.0842857905901355e+00
    7.9244154594654524e-03 -1.1547005383792517e+00
    7.8615075940953044e-03 -1.0708252269472673e+00
    8.0132712052212087e-03 -8.1227693210689522e-01
    8.2337377925613200e-03 -7.3029674334022143e-01
    8.1687026297991312e-03 -7.5040442170639232e-01
    8.4295475532708813e-03 -6.8090848403905468e-01
    8.3060956282471378e-03 -7.1040333416747259e-01
    8.3451833529817783e-03 -7.0052890071769403e-01
    8.3863073496332000e-03 -6.9069835687041137e-01
    8.2689700364717809e-03 -7.2032487429513492e-01
    8.3451833529817783e-03 -7.0052890071769403e-01
    8.0838971251750002e-03 -7.8102496759066531e-01
    8.0838971251750002e-03 -7.8102496759066531e-01
    8.0132712052212087e-03 -8.1227693210689522e-01
    7.9735537319135467e-03 -8.3350875346649067e-01
    7.9107193898281056e-03 -8.7705801930702909e-01
    7.9735537319135467e-03 -8.3350875346649067e-01
    7.8872288842048166e-03 -8.9943802679503371e-01
    7.8688308444900545e-03 -9.2226607475482814e-01
    7.8774005577899892e-03 -9.1079385952335801e-01
    7.8444992128175132e-03 -1.0188104257143740e+00
    7.8432885485286742e-03 -1.0062305898749055e+00
    7.8615075940953044e-03 -1.0708252269472673e+00
    7.8432885485286742e-03 -9.9380798999990660e-01
    7.8983298452005909e-03 -8.8819417296494840e-01
    7.9107193898281056e-03 -8.7705801930702909e-01
    7.9394380614985251e-03 -8.5509227320735670e-01
    7.9926979461014853e-03 -8.2285073575547896e-01
    8.9307425444954940e-03 -5.9408852578600457e-01
    9.7145735527806708e-03 -5.0775240028974744e-01
    1.0496666870152216e-02 -4.4887920124843483e-01
    8.6255012205448643e-03 -6.4209088278403859e-01
    7.9735537319135467e-03 -8.3350875346649067e-01
    7.8554204792886037e-03 -9.4557794340753509e-01
    7.8554204792886037e-03 -1.0575542788110590e+00
    7.8469222242151648e-03 -1.0315534712764842e+00
    7.8444992128175132e-03 -9.8153687355409203e-01
    7.8983298452005926e-03 -1.1258799375612025e+00
    7.9107193898281056e-03 -1.1401754250991378e+00
    7.8554204792886037e-03 -1.0575542788110590e+00
    7.8774005577899892e-03 -1.0979432827130893e+00
    7.8872288842048166e-03 -8.9943802679503371e-01
    8.1105327727188214e-03 -7.7075249330806184e-01
    8.2003350674555997e-03 -7.4032217518923693e-01
    8.0353053123996872e-03 -8.0178372573727308e-01
    8.2003350674555997e-03 -7.4032217518923693e-01
    8.2337377925613200e-03 -7.3029674334022143e-01
    8.1687026297991312e-03 -7.5040442170639232e-01
    8.2689700364717809e-03 -7.2032487429513492e-01
    8.1387855228258615e-03 -7.6054675894978319e-01
    8.2337377925613200e-03 -7.3029674334022143e-01
    8.1687026297991312e-03 -7.5040442170639232e-01
    8.1387855228258615e-03 -7.6054675894978319e-01
    7.9394380614985251e-03 -8.5509227320735670e-01
    7.9558093525445763e-03 -8.4425467570325519e-01
    8.0588348073114286e-03 -7.9136756710306633e-01
    8.0132712052212087e-03 -8.1227693210689522e-01
    7.9558093525445763e-03 -8.4425467570325519e-01
    7.8774005577899892e-03 -9.1079385952335801e-01
    7.9735537319135467e-03 -8.3350875346649067e-01
    7.8505609548648048e-03 -1.0444659357341870e+00
    7.8872288842048149e-03 -1.1118053386771942e+00
    7.9735537319135467e-03 -1.1997474481714638e+00
    7.9735537319135467e-03 -1.1997474481714638e+00
    7.8554204792886037e-03 -1.0575542788110590e+00
    7.8444992128175132e-03 -9.8153687355409203e-01
    7.8469222242151630e-03 -9.6941169589838261e-01
    7.9394380614985251e-03 -8.5509227320735670e-01
    8.7996708242576212e-03 -6.1324414067186650e-01
    1.1206815816655063e-02 -4.0824829046386302e-01
    1.0496666870152216e-02 -4.4887920124843483e-01
    8.7996708242576212e-03 -6.1324414067186650e-01
    8.0588348073114286e-03 -7.9136756710306633e-01
    7.8615075940953044e-03 -9.3385920954703538e-01
    7.8688308444900528e-03 -1.0842857905901355e+00
    7.8444992128175132e-03 -1.0188104257143740e+00
    7.8469222242151630e-03 -9.6941169589838261e-01
    7.8469222242151630e-03 -9.6941169589838261e-01
    7.8983298452005926e-03 -1.1258799375612025e+00
    7.8615075940953044e-03 -1.0708252269472673e+00
    7.8505609548648048e-03 -1.0444659357341870e+00
    7.8554204792886037e-03 -1.0575542788110590e+00
    8.1105327727188214e-03 -7.7075249330806184e-01
    8.0353053123996872e-03 -8.0178372573727308e-01
    8.0838971251750002e-03 -7.8102496759066531e-01
    8.0838971251750002e-03 -7.8102496759066531e-01
    8.1105327727188214e-03 -7.7075249330806184e-01
    8.0132712052212087e-03 -8.1227693210689522e-01
    8.1387855228258615e-03 -7.6054675894978319e-01
    8.1105327727188214e-03 -7.7075249330806184e-01
    8.0353053123996872e-03 -8.0178372573727308e-01
    8.0588348073114286e-03 -7.9136756710306633e-01
    8.0838971251750002e-03 -7.8102496759066531e-01
    8.0132712052212087e-03 -8.1227693210689522e-01
    7.9394380614985251e-03 -8.5509227320735670e-01
    8.0353053123996872e-03 -8.0178372573727308e-01
    8.0353053123996872e-03 -8.0178372573727308e-01
    8.0588348073114286e-03 -7.9136756710306633e-01
    8.1387855228258615e-03 -7.6054675894978319e-01
    8.0588348073114286e-03 -7.9136756710306633e-01
    7.8444992128175132e-03 -9.8153687355409203e-01
    7.8774005577899892e-03 -9.1079385952335801e-01
    8.1387855228258615e-03 -1.3148435493708115e+00
    7.9558093525445746e-03 -1.1844767091956117e+00
    7.8432885485286742e-03 -9.9380798999990660e-01
    7.8554204792886037e-03 -1.0575542788110590e+00
    7.8774005577899892e-03 -9.1079385952335801e-01
    8.0353053123996872e-03 -8.0178372573727308e-01
    8.4749901874084637e-03 -6.7115605521402422e-01
    9.7145735527806708e-03 -5.0775240028974744e-01
    1.2155273158205840e-02 -3.6579067361184658e-01
    9.0753423045830482e-03 -5.7495957457606894e-01
    8.1687026297991312e-03 -7.5040442170639232e-01
    7.8554204792886037e-03 -9.4557794340753509e-01
    7.8615075940953044e-03 -1.0708252269472673e+00
    7.8505609548648048e-03 -9.5742710775633821e-01
    7.8432885485286742e-03 -9.9380798999990660e-01
    7.8688308444900528e-03 -1.0842857905901355e+00
    7.8774005577899892e-03 -1.0979432827130893e+00
    7.8505609548648048e-03 -1.0444659357341870e+00
    7.8469222242151648e-03 -1.0315534712764842e+00
    7.8505609548648048e-03 -9.5742710775633821e-01
    7.9558093525445763e-03 -8.4425467570325519e-01
    8.0132712052212087e-03 -8.1227693210689522e-01
    8.1105327727188214e-03 -7.7075249330806184e-01
    8.0838971251750002e-03 -7.8102496759066531e-01
    8.2003350674555997e-03 -7.4032217518923693e-01
    7.9394380614985251e-03 -8.5509227320735670e-01
    7.9244154594654524e-03 -8.6602540378443882e-01
    8.0353053123996872e-03 -8.0178372573727308e-01
    7.9926979461014853e-03 -8.2285073575547896e-01
    8.0353053123996872e-03 -8.0178372573727308e-01
    8.1387855228258615e-03 -7.6054675894978319e-01
    8.0838971251750002e-03 -7.8102496759066531e-01
    7.9394380614985251e-03 -8.5509227320735670e-01
    8.0588348073114286e-03 -7.9136756710306633e-01
    8.0132712052212087e-03 -8.1227693210689522e-01
    8.1687026297991312e-03 -7.5040442170639232e-01
    8.0353053123996872e-03 -8.0178372573727308e-01
    7.8983298452005909e-03 -8.8819417296494840e-01
    7.8554204792886037e-03 -9.4557794340753509e-01
    7.8505609548648048e-03 -1.0444659357341870e+00
    8.0588348073114286e-03 -1.2636353087613479e+00
    7.9735537319135467e-03 -1.1997474481714638e+00
    7.8505609548648048e-03 -9.5742710775633821e-01
    7.8774005577899892e-03 -1.0979432827130893e+00
    7.8432885485286742e-03 -9.9380798999990660e-01
    7.9244154594654524e-03 -8.6602540378443882e-01
    8.8636064358237170e-03 -6.0366114639010593e-01
    1.0204687999752254e-02 -4.6871843328054608e-01
    1.1644263655264130e-02 -3.8729833462074170e-01
    8.9307425444954940e-03 -5.9408852578600457e-01
    8.0838971251750002e-03 -7.8102496759066531e-01
    7.8444992128175132e-03 -1.0188104257143740e+00
    7.8432885485286742e-03 -1.0062305898749055e+00
    7.8432885485286742e-03 -9.9380798999990660e-01
    7.8688308444900528e-03 -1.0842857905901355e+00
    7.8505609548648048e-03 -1.0444659357341870e+00
    7.9926979461014871e-03 -1.2152872405004000e+00
    7.8615075940953044e-03 -9.3385920954703538e-01
    7.8469222242151648e-03 -1.0315534712764842e+00
    7.8444992128175132e-03 -9.8153687355409203e-01
    7.9926979461014853e-03 -8.2285073575547896e-01
    8.0353053123996872e-03 -8.0178372573727308e-01
    8.1105327727188214e-03 -7.7075249330806184e-01
    8.2003350674555997e-03 -7.4032217518923693e-01
    8.0838971251750002e-03 -7.8102496759066531e-01
    8.0838971251750002e-03 -7.8102496759066531e-01
    7.9735537319135467e-03 -8.3350875346649067e-01
    7.9394380614985251e-03 -8.5509227320735670e-01
    7.8872288842048166e-03 -8.9943802679503371e-01
    8.0353053123996872e-03 -8.0178372573727308e-01
    8.0838971251750002e-03 -7.8102496759066531e-01
    7.9244154594654524e-03 -8.6602540378443882e-01
    7.8774005577899892e-03 -9.1079385952335801e-01
    7.9735537319135467e-03 -8.3350875346649067e-01
    8.0132712052212087e-03 -8.1227693210689522e-01
    7.9926979461014853e-03 -8.2285073575547896e-01
    8.0588348073114286e-03 -7.9136756710306633e-01
    7.9107193898281056e-03 -8.7705801930702909e-01
    7.8432885485286742e-03 -1.0062305898749055e+00
    7.9107193898281056e-03 -1.1401754250991378e+00
    7.8554204792886037e-03 -1.0575542788110590e+00
    7.9394380614985251e-03 -1.1694644324747672e+00
    7.8469222242151648e-03 -1.0315534712764842e+00
    7.8554204792886037e-03 -9.4557794340753509e-01
    7.8615075940953044e-03 -9.3385920954703538e-01
    7.9394380614985251e-03 -8.5509227320735670e-01
    8.5227283129531636e-03 -6.6143782776614768e-01
    1.0204687999752254e-02 -4.6871843328054608e-01
    1.0827949885468206e-02 -4.2874646285627210e-01
    9.3212464561329717e-03 -5.4624820070568070e-01
    7.9244154594654524e-03 -8.6602540378443882e-01
    7.8615075940953044e-03 -9.3385920954703538e-01
    7.8615075940953044e-03 -1.0708252269472673e+00
    7.8554204792886037e-03 -1.0575542788110590e+00
    7.8432885485286742e-03 -9.9380798999990660e-01
    7.8469222242151648e-03 -1.0315534712764842e+00
    7.8444992128175132e-03 -9.8153687355409203e-01
    7.8872288842048166e-03 -8.9943802679503371e-01
    7.8554204792886037e-03 -9.4557794340753509e-01
    7.8688308444900545e-03 -9.2226607475482814e-01
    8.0132712052212087e-03 -8.1227693210689522e-01
    8.1687026297991312e-03 -7.5040442170639232e-01
    8.2337377925613200e-03 -7.3029674334022143e-01
    8.0588348073114286e-03 -7.9136756710306633e-01
    8.1105327727188214e-03 -7.7075249330806184e-01
    8.0838971251750002e-03 -7.8102496759066531e-01
    7.9926979461014853e-03 -8.2285073575547896e-01
    8.0588348073114286e-03 -7.9136756710306633e-01
    7.9735537319135467e-03 -8.3350875346649067e-01
    8.0353053123996872e-03 -8.0178372573727308e-01
    8.2337377925613200e-03 -7.3029674334022143e-01
    8.0353053123996872e-03 -8.0178372573727308e-01
    8.0132712052212087e-03 -8.1227693210689522e-01
    8.1105327727188214e-03 -7.7075249330806184e-01
    8.0353053123996872e-03 -8.0178372573727308e-01
    8.2337377925613200e-03 -7.3029674334022143e-01
    8.1387855228258615e-03 -7.6054675894978319e-01
    8.1105327727188214e-03 -7.7075249330806184e-01
    7.8615075940953044e-03 -9.3385920954703538e-01
    7.8505609548648048e-03 -1.0444659357341870e+00
    7.8872288842048149e-03 -1.1118053386771942e+00
    7.8983298452005926e-03 -1.1258799375612025e+00
    7.8983298452005909e-03 -8.8819417296494840e-01
    7.8983298452005909e-03 -8.8819417296494840e-01
    7.9394380614985251e-03 -8.5509227320735670e-01
    8.0353053123996872e-03 -8.0178372573727308e-01
    8.1387855228258615e-03 -7.6054675894978319e-01
    1.0656930594801982e-02 -4.3885372573625553e-01
    1.1889432933520412e-02 -3.7662178857735468e-01
    9.9456500168139915e-03 -4.8832523840319625e-01
    8.3060956282471378e-03 -7.1040333416747259e-01
    7.8505609548648048e-03 -9.5742710775633821e-01
    7.8444992128175132e-03 -1.0188104257143740e+00
    7.8615075940953044e-03 -1.0708252269472673e+00
    7.8432885485286742e-03 -1.0062305898749055e+00
    7.8444992128175132e-03 -9.8153687355409203e-01
    7.8469222242151648e-03 -1.0315534712764842e+00
    7.8688308444900545e-03 -9.2226607475482814e-01
    7.8774005577899892e-03 -9.1079385952335801e-01
    8.0132712052212087e-03 -8.1227693210689522e-01
    7.9107193898281056e-03 -8.7705801930702909e-01
    8.1687026297991312e-03 -7.5040442170639232e-01
    8.1687026297991312e-03 -7.5040442170639232e-01
    8.0353053123996872e-03 -8.0178372573727308e-01
    7.9926979461014853e-03 -8.2285073575547896e-01
    7.9926979461014853e-03 -8.2285073575547896e-01
    8.1105327727188214e-03 -7.7075249330806184e-01
    8.0588348073114286e-03 -7.9136756710306633e-01
    8.0353053123996872e-03 -8.0178372573727308e-01
    8.1687026297991312e-03 -7.5040442170639232e-01
    8.0132712052212087e-03 -8.1227693210689522e-01
    8.0588348073114286e-03 -7.9136756710306633e-01
    8.0588348073114286e-03 -7.9136756710306633e-01
    8.2003350674555997e-03 -7.4032217518923693e-01
    8.1105327727188214e-03 -7.7075249330806184e-01
    8.3451833529817783e-03 -7.0052890071769403e-01
    8.1105327727188214e-03 -7.7075249330806184e-01
    8.1387855228258615e-03 -7.6054675894978319e-01
    7.9926979461014853e-03 -8.2285073575547896e-01
    7.8688308444900545e-03 -9.2226607475482814e-01
    7.8688308444900528e-03 -1.0842857905901355e+00
    8.0132712052212087e-03 -1.2311072252245130e+00
    7.8554204792886037e-03 -9.4557794340753509e-01
    7.8688308444900545e-03 -9.2226607475482814e-01
    7.8688308444900545e-03 -9.2226607475482814e-01
    8.0132712052212087e-03 -8.1227693210689522e-01
    8.0838971251750002e-03 -7.8102496759066531e-01
    1.0071390155181775e-02 -4.7854742041702220e-01
    1.3917557055404367e-02 -3.0860669992418382e-01
    1.0496666870152216e-02 -4.4887920124843483e-01
    8.6255012205448643e-03 -6.4209088278403859e-01
    7.8774005577899892e-03 -9.1079385952335801e-01
    7.8615075940953044e-03 -9.3385920954703538e-01
    7.8444992128175132e-03 -1.0188104257143740e+00
    7.8444992128175132e-03 -9.8153687355409203e-01
    7.8505609548648048e-03 -1.0444659357341870e+00
    7.8505609548648048e-03 -1.0444659357341870e+00
    7.8615075940953044e-03 -9.3385920954703538e-01
    7.9107193898281056e-03 -8.7705801930702909e-01
    7.9107193898281056e-03 -8.7705801930702909e-01
    7.9394380614985251e-03 -8.5509227320735670e-01
    8.0838971251750002e-03 -7.8102496759066531e-01
    8.2337377925613200e-03 -7.3029674334022143e-01
    8.1387855228258615e-03 -7.6054675894978319e-01
    8.0353053123996872e-03 -8.0178372573727308e-01
    7.9244154594654524e-03 -8.6602540378443882e-01
    7.9558093525445763e-03 -8.4425467570325519e-01
    8.1105327727188214e-03 -7.7075249330806184e-01
    8.0838971251750002e-03 -7.8102496759066531e-01
    8.2689700364717809e-03 -7.2032487429513492e-01
    8.1687026297991312e-03 -7.5040442170639232e-01
    8.2337377925613200e-03 -7.3029674334022143e-01
    8.1387855228258615e-03 -7.6054675894978319e-01
    8.4295475532708813e-03 -6.8090848403905468e-01
    8.4295475532708813e-03 -6.8090848403905468e-01
    8.2337377925613200e-03 -7.3029674334022143e-01
    8.0588348073114286e-03 -7.9136756710306633e-01
    7.8505609548648048e-03 -9.5742710775633821e-01
    7.8444992128175132e-03 -9.8153687355409203e-01
    8.0588348073114286e-03 -7.9136756710306633e-01
    7.8983298452005926e-03 -1.1258799375612025e+00
    7.8505609548648048e-03 -1.0444659357341870e+00
    7.8983298452005909e-03 -8.8819417296494840e-01
    7.9107193898281056e-03 -8.7705801930702909e-01
    7.8872288842048166e-03 -8.9943802679503371e-01
    8.0353053123996872e-03 -8.0178372573727308e-01
    8.1105327727188214e-03 -7.7075249330806184e-01
    9.9456500168139915e-03 -4.8832523840319625e-01
    1.5543317684449073e-02 -2.7080128015453198e-01
    9.8268844926191323e-03 -4.9805824509175228e-01
    8.7387727166353818e-03 -6.2284109890304973e-01
    8.3060956282471378e-03 -7.1040333416747259e-01
    7.8774005577899892e-03 -9.1079385952335801e-01
    7.8469222242151630e-03 -9.6941169589838261e-01
    7.8432885485286742e-03 -9.9380798999990660e-01
    7.8554204792886037e-03 -1.0575542788110590e+00
    7.8432885485286742e-03 -1.0062305898749055e+00
    7.8505609548648048e-03 -9.5742710775633821e-01
    7.9735537319135467e-03 -8.3350875346649067e-01
    7.9735537319135467e-03 -8.3350875346649067e-01
    7.8872288842048166e-03 -8.9943802679503371e-01
    7.9244154594654524e-03 -8.6602540378443882e-01
    8.0132712052212087e-03 -8.1227693210689522e-01
    7.9107193898281056e-03 -8.7705801930702909e-01
    8.1387855228258615e-03 -7.6054675894978319e-01
    8.0132712052212087e-03 -8.1227693210689522e-01
    7.9735537319135467e-03 -8.3350875346649067e-01
    8.1387855228258615e-03 -7.6054675894978319e-01
    8.3060956282471378e-03 -7.1040333416747259e-01
    8.2003350674555997e-03 -7.4032217518923693e-01
    8.1105327727188214e-03 -7.7075249330806184e-01
    8.3863073496332000e-03 -6.9069835687041137e-01
    8.3060956282471378e-03 -7.1040333416747259e-01
    8.3451833529817783e-03 -7.0052890071769403e-01
    8.0588348073114286e-03 -7.9136756710306633e-01
    8.0588348073114286e-03 -7.9136756710306633e-01
    8.2689700364717809e-03 -7.2032487429513492e-01
    7.8983298452005909e-03 -8.8819417296494840e-01
    8.2337377925613200e-03 -7.3029674334022143e-01
    7.8872288842048166e-03 -8.9943802679503371e-01
    7.8983298452005926e-03 -1.1258799375612025e+00
    7.8774005577899892e-03 -1.0979432827130893e+00
    7.8615075940953044e-03 -9.3385920954703538e-01
    7.8432885485286742e-03 -9.9380798999990660e-01
    7.8615075940953044e-03 -9.3385920954703538e-01
    7.9926979461014853e-03 -8.2285073575547896e-01
    7.9926979461014853e-03 -8.2285073575547896e-01
    9.7145735527806708e-03 -5.0775240028974744e-01
    1.5543317684449073e-02 -2.7080128015453198e-01
    1.0827949885468206e-02 -4.2874646285627210e-01
    9.0753423045830482e-03 -5.7495957457606894e-01
    8.7996708242576212e-03 -6.1324414067186650e-01
    7.9926979461014853e-03 -8.2285073575547896e-01
    8.0588348073114286e-03 -7.9136756710306633e-01
    7.8432885485286742e-03 -1.0062305898749055e+00
    7.8444992128175132e-03 -1.0188104257143740e+00
    7.8505609548648048e-03 -9.5742710775633821e-01
    7.8432885485286742e-03 -1.0062305898749055e+00
    7.8554204792886037e-03 -9.4557794340753509e-01
    7.8505609548648048e-03 -1.0444659357341870e+00
    7.8872288842048149e-03 -1.1118053386771942e+00
    7.8432885485286742e-03 -1.0062305898749055e+00
    7.8688308444900545e-03 -9.2226607475482814e-01
    8.0353053123996872e-03 -8.0178372573727308e-01
    7.9926979461014853e-03 -8.2285073575547896e-01
    8.1687026297991312e-03 -7.5040442170639232e-01
    8.0132712052212087e-03 -8.1227693210689522e-01
    8.1687026297991312e-03 -7.5040442170639232e-01
    8.5728624413298534e-03 -6.5175053591228205e-01
    8.4749901874084637e-03 -6.7115605521402422e-01
    8.4749901874084637e-03 -6.7115605521402422e-01
    8.6807622043837875e-03 -6.3245553203367599e-01
    8.4749901874084637e-03 -6.7115605521402422e-01
    8.3451833529817783e-03 -7.0052890071769403e-01
    8.3451833529817783e-03 -7.0052890071769403e-01
    8.1105327727188214e-03 -7.7075249330806184e-01
    7.9244154594654524e-03 -8.6602540378443882e-01
    7.8688308444900545e-03 -9.2226607475482814e-01
    7.9558093525445763e-03 -8.4425467570325519e-01
    7.8688308444900545e-03 -9.2226607475482814e-01
    7.9107193898281056e-03 -1.1401754250991378e+00
    7.9558093525445746e-03 -1.1844767091956117e+00
    7.8444992128175132e-03 -9.8153687355409203e-01
    7.8469222242151630e-03 -9.6941169589838261e-01
    7.9394380614985251e-03 -8.5509227320735670e-01
    7.9926979461014853e-03 -8.2285073575547896e-01
    7.9926979461014853e-03 -8.2285073575547896e-01
    1.0204687999752254e-02 -4.6871843328054608e-01
    1.9229868534035448e-02 -2.1320071635561041e-01
    1.2760861317271116e-02 -3.4359213546813844e-01
    9.0753423045830482e-03 -5.7495957457606894e-01
    8.4749901874084637e-03 -6.7115605521402422e-01
    7.9107193898281056e-03 -8.7705801930702909e-01
    7.9244154594654524e-03 -8.6602540378443882e-01
    7.8983298452005909e-03 -8.8819417296494840e-01
    7.9107193898281056e-03 -8.7705801930702909e-01
    7.8615075940953044e-03 -9.3385920954703538e-01
    7.8432885485286742e-03 -1.0062305898749055e+00
    7.8983298452005909e-03 -8.8819417296494840e-01
    7.8505609548648048e-03 -9.5742710775633821e-01
    7.8444992128175132e-03 -1.0188104257143740e+00
    7.8469222242151648e-03 -1.0315534712764842e+00
    7.8444992128175132e-03 -1.0188104257143740e+00
    7.8469222242151630e-03 -9.6941169589838261e-01
    8.1687026297991312e-03 -7.5040442170639232e-01
    8.0588348073114286e-03 -7.9136756710306633e-01
    7.9735537319135467e-03 -8.3350875346649067e-01
    8.0838971251750002e-03 -7.8102496759066531e-01
    8.2003350674555997e-03 -7.4032217518923693e-01
    8.3863073496332000e-03 -6.9069835687041137e-01
    8.6255012205448643e-03 -6.4209088278403859e-01
    8.3863073496332000e-03 -6.9069835687041137e-01
    8.2337377925613200e-03 -7.3029674334022143e-01
    8.2003350674555997e-03 -7.4032217518923693e-01
    8.1387855228258615e-03 -7.6054675894978319e-01
    8.0838971251750002e-03 -7.8102496759066531e-01
    7.8505609548648048e-03 -9.5742710775633821e-01
    7.8615075940953044e-03 -9.3385920954703538e-01
    7.9558093525445763e-03 -8.4425467570325519e-01
    7.8688308444900528e-03 -1.0842857905901355e+00
    7.9107193898281056e-03 -1.1401754250991378e+00
    7.8688308444900545e-03 -9.2226607475482814e-01
    7.8774005577899892e-03 -9.1079385952335801e-01
    7.8872288842048166e-03 -8.9943802679503371e-01
    8.0132712052212087e-03 -8.1227693210689522e-01
    8.0353053123996872e-03 -8.0178372573727308e-01
    8.3060956282471378e-03 -7.1040333416747259e-01
    1.0827949885468206e-02 -4.2874646285627210e-01
    1.4394055130705111e-02 -2.9637448918190956e-01
    1.1644263655264130e-02 -3.8729833462074170e-01
    9.2350944524389102e-03 -5.5582649219958413e-01
    8.7996708242576212e-03 -6.1324414067186650e-01
    7.9735537319135467e-03 -8.3350875346649067e-01
    7.8872288842048166e-03 -8.9943802679503371e-01
    7.8774005577899892e-03 -9.1079385952335801e-01
    7.8774005577899892e-03 -9.1079385952335801e-01
    7.8444992128175132e-03 -9.8153687355409203e-01
    7.8432885485286742e-03 -9.9380798999990660e-01
    7.8469222242151630e-03 -9.6941169589838261e-01
    7.8505609548648048e-03 -9.5742710775633821e-01
    7.8444992128175132e-03 -9.8153687355409203e-01
    7.8505609548648048e-03 -9.5742710775633821e-01
    7.8505609548648048e-03 -9.5742710775633821e-01
    7.8432885485286742e-03 -9.9380798999990660e-01
    7.8688308444900545e-03 -9.2226607475482814e-01
    8.1105327727188214e-03 -7.7075249330806184e-01
    7.9244154594654524e-03 -8.6602540378443882e-01
    8.0353053123996872e-03 -8.0178372573727308e-01
    8.4749901874084637e-03 -6.7115605521402422e-01
    8.3451833529817783e-03 -7.0052890071769403e-01
    8.5227283129531636e-03 -6.6143782776614768e-01
    8.2689700364717809e-03 -7.2032487429513492e-01
    8.1105327727188214e-03 -7.7075249330806184e-01
    8.0838971251750002e-03 -7.8102496759066531e-01
    7.8688308444900545e-03 -9.2226607475482814e-01
    7.8983298452005909e-03 -8.8819417296494840e-01
    7.9926979461014853e-03 -8.2285073575547896e-01
    7.9244154594654524e-03 -8.6602540378443882e-01
    7.9244154594654524e-03 -8.6602540378443882e-01
    7.8983298452005926e-03 -1.1258799375612025e+00
    7.8983298452005926e-03 -1.1258799375612025e+00
    7.8688308444900545e-03 -9.2226607475482814e-01
    7.8505609548648048e-03 -9.5742710775633821e-01
    7.8872288842048166e-03 -8.9943802679503371e-01
    8.0588348073114286e-03 -7.9136756710306633e-01
    8.0838971251750002e-03 -7.8102496759066531e-01
    8.7387727166353818e-03 -6.2284109890304973e-01
    1.2155273158205840e-02 -3.6579067361184658e-01
    1.5543317684449073e-02 -2.7080128015453198e-01
    1.2444613824083961e-02 -3.5478743759344955e-01
    9.5075014619441459e-03 -5.2704627669472981e-01
    8.7996708242576212e-03 -6.1324414067186650e-01
    8.2337377925613200e-03 -7.3029674334022143e-01
    7.9735537319135467e-03 -8.3350875346649067e-01
    7.8688308444900545e-03 -9.2226607475482814e-01
    7.8444992128175132e-03 -9.8153687355409203e-01
    7.8554204792886037e-03 -1.0575542788110590e+00
    7.8554204792886037e-03 -9.4557794340753509e-01
    7.8615075940953044e-03 -9.3385920954703538e-01
    7.8615075940953044e-03 -9.3385920954703538e-01
    7.8774005577899892e-03 -1.0979432827130893e+00
    7.8774005577899892e-03 -1.0979432827130893e+00
    7.8469222242151648e-03 -1.0315534712764842e+00
    7.8469222242151648e-03 -1.0315534712764842e+00
    7.8444992128175132e-03 -9.8153687355409203e-01
    7.9107193898281056e-03 -8.7705801930702909e-01
    7.8554204792886037e-03 -9.4557794340753509e-01
    7.8554204792886037e-03 -9.4557794340753509e-01
    8.3060956282471378e-03 -7.1040333416747259e-01
    7.9394380614985251e-03 -8.5509227320735670e-01
    7.9558093525445763e-03 -8.4425467570325519e-01
    7.9107193898281056e-03 -8.7705801930702909e-01
    7.8469222242151648e-03 -1.0315534712764842e+00
    7.8432885485286742e-03 -9.9380798999990660e-01
    7.8774005577899892e-03 -9.1079385952335801e-01
    7.8615075940953044e-03 -9.3385920954703538e-01
    7.8432885485286742e-03 -1.0062305898749055e+00
    7.9394380614985251e-03 -8.5509227320735670e-01
    7.8505609548648048e-03 -1.0444659357341870e+00
    7.9244154594654524e-03 -1.1547005383792517e+00
    7.8615075940953044e-03 -9.3385920954703538e-01
    7.8983298452005909e-03 -8.8819417296494840e-01
    7.8983298452005909e-03 -8.8819417296494840e-01
    7.9926979461014853e-03 -8.2285073575547896e-01
    7.9926979461014853e-03 -8.2285073575547896e-01
    8.2337377925613200e-03 -7.3029674334022143e-01
    8.6807622043837875e-03 -6.3245553203367599e-01
    1.2444613824083961e-02 -3.5478743759344955e-01
    2.0703521482591455e-02 -1.9674775073518591e-01
    1.5543317684449073e-02 -2.7080128015453198e-01
    1.0346199762790042e-02 -4.5883146774112360e-01
    8.7387727166353818e-03 -6.2284109890304973e-01
    8.3863073496332000e-03 -6.9069835687041137e-01
    8.1687026297991312e-03 -7.5040442170639232e-01
    7.8688308444900545e-03 -9.2226607475482814e-01
    7.8554204792886037e-03 -9.4557794340753509e-01
    7.8444992128175132e-03 -9.8153687355409203e-01
    7.8444992128175132e-03 -9.8153687355409203e-01
    7.8554204792886037e-03 -1.0575542788110590e+00
    7.8432885485286742e-03 -9.9380798999990660e-01
    7.8872288842048149e-03 -1.1118053386771942e+00
    8.0838971251750002e-03 -1.2803687993289596e+00
    7.8469222242151648e-03 -1.0315534712764842e+00
    7.8444992128175132e-03 -1.0188104257143740e+00
    7.8469222242151630e-03 -9.6941169589838261e-01
    7.8615075940953044e-03 -9.3385920954703538e-01
    7.8688308444900545e-03 -9.2226607475482814e-01
    7.8774005577899892e-03 -9.1079385952335801e-01
    7.8615075940953044e-03 -9.3385920954703538e-01
    7.8505609548648048e-03 -9.5742710775633821e-01
    7.8872288842048166e-03 -8.9943802679503371e-01
    7.8444992128175132e-03 -9.8153687355409203e-01
    7.8444992128175132e-03 -9.8153687355409203e-01
    7.8444992128175132e-03 -1.0188104257143740e+00
    7.8444992128175132e-03 -9.8153687355409203e-01
    7.8505609548648048e-03 -1.0444659357341870e+00
    7.8432885485286742e-03 -9.9380798999990660e-01
    7.9394380614985251e-03 -8.5509227320735670e-01
    7.8432885485286742e-03 -9.9380798999990660e-01
    7.8688308444900545e-03 -9.2226607475482814e-01
    7.9107193898281056e-03 -8.7705801930702909e-01
    7.9558093525445763e-03 -8.4425467570325519e-01
    8.1105327727188214e-03 -7.7075249330806184e-01
    8.1105327727188214e-03 -7.7075249330806184e-01
    8.0588348073114286e-03 -7.9136756710306633e-01
    8.3060956282471378e-03 -7.1040333416747259e-01
    9.0753423045830482e-03 -5.7495957457606894e-01
    1.2444613824083961e-02 -3.5478743759344955e-01
    1.8046583142447011e-02 -2.2866478019001180e-01
    1.4931448420451909e-02 -2.8379026190424128e-01
    1.2155273158205840e-02 -3.6579067361184658e-01
    8.9307425444954940e-03 -5.9408852578600457e-01
    8.3060956282471378e-03 -7.1040333416747259e-01
    8.2689700364717809e-03 -7.2032487429513492e-01
    8.3060956282471378e-03 -7.1040333416747259e-01
    7.9394380614985251e-03 -8.5509227320735670e-01
    8.0132712052212087e-03 -8.1227693210689522e-01
    7.8983298452005909e-03 -8.8819417296494840e-01
    7.9244154594654524e-03 -8.6602540378443882e-01
    7.9107193898281056e-03 -8.7705801930702909e-01
    7.9107193898281056e-03 -8.7705801930702909e-01
    7.8983298452005926e-03 -1.1258799375612025e+00
    7.9244154594654524e-03 -1.1547005383792517e+00
    7.9244154594654524e-03 -1.1547005383792517e+00
    7.8615075940953044e-03 -1.0708252269472673e+00
    7.8688308444900528e-03 -1.0842857905901355e+00
    7.8615075940953044e-03 -1.0708252269472673e+00
    7.8444992128175132e-03 -9.8153687355409203e-01
    7.8432885485286742e-03 -9.9380798999990660e-01
    7.8432885485286742e-03 -1.0062305898749055e+00
    7.8554204792886037e-03 -9.4557794340753509e-01
    7.8469222242151630e-03 -9.6941169589838261e-01
    7.8432885485286742e-03 -9.9380798999990660e-01
    7.8615075940953044e-03 -1.0708252269472673e+00
    7.8554204792886037e-03 -1.0575542788110590e+00
    7.9244154594654524e-03 -8.6602540378443882e-01
    7.8469222242151648e-03 -1.0315534712764842e+00
    7.9107193898281056e-03 -8.7705801930702909e-01
    7.9244154594654524e-03 -1.1547005383792517e+00
    7.8774005577899892e-03 -9.1079385952335801e-01
    7.9558093525445763e-03 -8.4425467570325519e-01
    7.9558093525445763e-03 -8.4425467570325519e-01
    8.0588348073114286e-03 -7.9136756710306633e-01
    8.2337377925613200e-03 -7.3029674334022143e-01
    8.1105327727188214e-03 -7.7075249330806184e-01
    8.6807622043837875e-03 -6.3245553203367599e-01
    9.7145735527806708e-03 -5.0775240028974744e-01
    1.3917557055404367e-02 -3.0860669992418382e-01
    2.0703521482591455e-02 -1.9674775073518591e-01
    1.4931448420451909e-02 -2.8379026190424128e-01
    1.3108159074953073e-02 -3.3218191941495984e-01
    1.0346199762790042e-02 -4.5883146774112360e-01
    8.9307425444954940e-03 -5.9408852578600457e-01
    8.3451833529817783e-03 -7.0052890071769403e-01
    8.3451833529817783e-03 -7.0052890071769403e-01
    8.4749901874084637e-03 -6.7115605521402422e-01
    8.0353053123996872e-03 -8.0178372573727308e-01
    8.1105327727188214e-03 -7.7075249330806184e-01
    8.0588348073114286e-03 -7.9136756710306633e-01
    8.1105327727188214e-03 -7.7075249330806184e-01
    7.8872288842048166e-03 -8.9943802679503371e-01
    7.8505609548648048e-03 -9.5742710775633821e-01
    7.8983298452005926e-03 -1.1258799375612025e+00
    8.0588348073114286e-03 -1.2636353087613479e+00
    8.0588348073114286e-03 -1.2636353087613479e+00
    7.9107193898281056e-03 -1.1401754250991378e+00
    7.8432885485286742e-03 -1.0062305898749055e+00
    7.8505609548648048e-03 -1.0444659357341870e+00
    7.8469222242151630e-03 -9.6941169589838261e-01
    7.8469222242151630e-03 -9.6941169589838261e-01
    7.8688308444900528e-03 -1.0842857905901355e+00
    7.8469222242151648e-03 -1.0315534712764842e+00
    7.9107193898281056e-03 -8.7705801930702909e-01
    7.8444992128175132e-03 -9.8153687355409203e-01
    7.8554204792886037e-03 -1.0575542788110590e+00
    7.8444992128175132e-03 -1.0188104257143740e+00
    7.8688308444900528e-03 -1.0842857905901355e+00
    7.8688308444900545e-03 -9.2226607475482814e-01
    7.8444992128175132e-03 -9.8153687355409203e-01
    7.9926979461014853e-03 -8.2285073575547896e-01
    8.0838971251750002e-03 -7.8102496759066531e-01
    8.1387855228258615e-03 -7.6054675894978319e-01
    8.1105327727188214e-03 -7.7075249330806184e-01
    8.7387727166353818e-03 -6.2284109890304973e-01
    8.3863073496332000e-03 -6.9069835687041137e-01
    9.0012566382808197e-03 -5.8452259722500599e-01
    1.1644263655264130e-02 -3.8729833462074170e-01
    1.3917557055404367e-02 -3.0860669992418382e-01
    2.5194507529271992e-02 -1.5961737689352443e-01
    1.8046583142447011e-02 -2.2866478019001180e-01
    1.3491605637349179e-02 -3.2053038237801618e-01
    1.0827949885468206e-02 -4.2874646285627210e-01
    1.0071390155181775e-02 -4.7854742041702220e-01
    9.2350944524389102e-03 -5.5582649219958413e-01
    8.7996708242576212e-03 -6.1324414067186650e-01
    8.6807622043837875e-03 -6.3245553203367599e-01
    8.3451833529817783e-03 -7.0052890071769403e-01
    8.0132712052212087e-03 -8.1227693210689522e-01
    8.2003350674555997e-03 -7.4032217518923693e-01
    8.0132712052212087e-03 -8.1227693210689522e-01
    7.9394380614985251e-03 -8.5509227320735670e-01
    7.9735537319135467e-03 -8.3350875346649067e-01
    7.8872288842048166e-03 -8.9943802679503371e-01
    7.8444992128175132e-03 -1.0188104257143740e+00
    7.8469222242151630e-03 -9.6941169589838261e-01
    7.8469222242151630e-03 -9.6941169589838261e-01
    7.8469222242151630e-03 -9.6941169589838261e-01
    7.8432885485286742e-03 -1.0062305898749055e+00
    7.8615075940953044e-03 -1.0708252269472673e+00
    7.8444992128175132e-03 -9.8153687355409203e-01
    7.8774005577899892e-03 -1.0979432827130893e+00
    7.8554204792886037e-03 -1.0575542788110590e+00
    7.8774005577899892e-03 -9.1079385952335801e-01
    7.9107193898281056e-03 -8.7705801930702909e-01
    7.8615075940953044e-03 -9.3385920954703538e-01
    7.8688308444900528e-03 -1.0842857905901355e+00
    7.8615075940953044e-03 -9.3385920954703538e-01
    7.8469222242151630e-03 -9.6941169589838261e-01
    7.8774005577899892e-03 -9.1079385952335801e-01
    8.2003350674555997e-03 -7.4032217518923693e-01
    8.3863073496332000e-03 -6.9069835687041137e-01
    8.3451833529817783e-03 -7.0052890071769403e-01
    8.4295475532708813e-03 -6.8090848403905468e-01
    8.4295475532708813e-03 -6.8090848403905468e-01
    9.0753423045830482e-03 -5.7495957457606894e-01
    9.5075014619441459e-03 -5.2704627669472981e-01
    1.1889432933520412e-02 -3.7662178857735468e-01
    1.6247899419108154e-02 -2.5734250632748940e-01
    2.5194507529271992e-02 -1.5961737689352443e-01
    2.0703521482591455e-02 -1.9674775073518591e-01
    1.3917557055404367e-02 -3.0860669992418382e-01
    1.1417393126839056e-02 -3.9783587230787021e-01
    1.0346199762790042e-02 -4.5883146774112360e-01
    9.8268844926191323e-03 -4.9805824509175228e-01
    9.5075014619441459e-03 -5.2704627669472981e-01
    9.3212464561329717e-03 -5.4624820070568070e-01
    8.7996708242576212e-03 -6.1324414067186650e-01
    8.5227283129531636e-03 -6.6143782776614768e-01
    8.3060956282471378e-03 -7.1040333416747259e-01
    8.1387855228258615e-03 -7.6054675894978319e-01
    8.1387855228258615e-03 -7.6054675894978319e-01
    8.0588348073114286e-03 -7.9136756710306633e-01
    8.0838971251750002e-03 -7.8102496759066531e-01
    8.1387855228258615e-03 -7.6054675894978319e-01
    7.8774005577899892e-03 -9.1079385952335801e-01
    7.8872288842048166e-03 -8.9943802679503371e-01
    8.0353053123996872e-03 -8.0178372573727308e-01
    7.8872288842048166e-03 -8.9943802679503371e-01
    7.8505609548648048e-03 -9.5742710775633821e-01
    7.8688308444900528e-03 -1.0842857905901355e+00
    7.9107193898281056e-03 -1.1401754250991378e+00
    7.8554204792886037e-03 -9.4557794340753509e-01
    7.8688308444900545e-03 -9.2226607475482814e-01
    7.8444992128175132e-03 -9.8153687355409203e-01
    7.8444992128175132e-03 -1.0188104257143740e+00
    7.8615075940953044e-03 -9.3385920954703538e-01
    7.8983298452005909e-03 -8.8819417296494840e-01
    7.9107193898281056e-03 -8.7705801930702909e-01
    8.3451833529817783e-03 -7.0052890071769403e-01
    8.2689700364717809e-03 -7.2032487429513492e-01
    8.3451833529817783e-03 -7.0052890071769403e-01
    8.3863073496332000e-03 -6.9069835687041137e-01
    8.2689700364717809e-03 -7.2032487429513492e-01
    8.5227283129531636e-03 -6.6143782776614768e-01
    9.0753423045830482e-03 -5.7495957457606894e-01
    9.7145735527806708e-03 -5.0775240028974744e-01
    1.3491605637349179e-02 -3.2053038237801618e-01
    1.6247899419108154e-02 -2.5734250632748940e-01
    2.8999901631417524e-02 -1.3779456365238762e-01
    2.5194507529271992e-02 -1.5961737689352443e-01
    1.5543317684449073e-02 -2.7080128015453198e-01
    1.4931448420451909e-02 -2.8379026190424128e-01
    1.2760861317271116e-02 -3.4359213546813844e-01
    1.0827949885468206e-02 -4.2874646285627210e-01
    1.0346199762790042e-02 -4.5883146774112360e-01
    9.8268844926191323e-03 -4.9805824509175228e-01
    9.1532110612231737e-03 -5.6539555281903398e-01
    9.6082518145016761e-03 -5.1741331199832008e-01
    9.2350944524389102e-03 -5.5582649219958413e-01
    8.7387727166353818e-03 -6.2284109890304973e-01
    8.3863073496332000e-03 -6.9069835687041137e-01
    8.3863073496332000e-03 -6.9069835687041137e-01
    8.2689700364717809e-03 -7.2032487429513492e-01
    8.1387855228258615e-03 -7.6054675894978319e-01
    8.1687026297991312e-03 -7.5040442170639232e-01
    7.8615075940953044e-03 -9.3385920954703538e-01
    7.8615075940953044e-03 -9.3385920954703538e-01
    7.8774005577899892e-03 -9.1079385952335801e-01
    7.9558093525445763e-03 -8.4425467570325519e-01
    7.9107193898281056e-03 -8.7705801930702909e-01
    7.8469222242151648e-03 -1.0315534712764842e+00
    7.8469222242151630e-03 -9.6941169589838261e-01
    7.8688308444900545e-03 -9.2226607475482814e-01
    7.9394380614985251e-03 -8.5509227320735670e-01
    7.9558093525445763e-03 -8.4425467570325519e-01
    7.9394380614985251e-03 -8.5509227320735670e-01
    7.9735537319135467e-03 -8.3350875346649067e-01
    7.9244154594654524e-03 -8.6602540378443882e-01
    8.3451833529817783e-03 -7.0052890071769403e-01
    8.1105327727188214e-03 -7.7075249330806184e-01
    8.2689700364717809e-03 -7.2032487429513492e-01
    8.2337377925613200e-03 -7.3029674334022143e-01
    8.5728624413298534e-03 -6.5175053591228205e-01
    9.0012566382808197e-03 -5.8452259722500599e-01
    9.4119462582344087e-03 -5.3665631459994945e-01
    1.2444613824083961e-02 -3.5478743759344955e-01
    1.3491605637349179e-02 -3.2053038237801618e-01
    1.8046583142447011e-02 -2.2866478019001180e-01
    3.5405614434831027e-02 -1.1215443081840884e-01
    1.9229868534035448e-02 -2.1320071635561041e-01
    1.9229868534035448e-02 -2.1320071635561041e-01
    1.6247899419108154e-02 -2.5734250632748940e-01
    1.4394055130705111e-02 -2.9637448918190956e-01
    1.1644263655264130e-02 -3.8729833462074170e-01
    1.0656930594801982e-02 -4.3885372573625553e-01
    1.1417393126839056e-02 -3.9783587230787021e-01
    1.0496666870152216e-02 -4.4887920124843483e-01
    9.8268844926191323e-03 -4.9805824509175228e-01
    1.0496666870152216e-02 -4.4887920124843483e-01
    9.6082518145016761e-03 -5.1741331199832008e-01
    8.5227283129531636e-03 -6.6143782776614768e-01
    8.3451833529817783e-03 -7.0052890071769403e-01
    8.4749901874084637e-03 -6.7115605521402422e-01
    8.3060956282471378e-03 -7.1040333416747259e-01
    8.2689700364717809e-03 -7.2032487429513492e-01
    8.1687026297991312e-03 -7.5040442170639232e-01
    7.9107193898281056e-03 -8.7705801930702909e-01
    7.9107193898281056e-03 -8.7705801930702909e-01
    7.8688308444900545e-03 -9.2226607475482814e-01
    7.8469222242151630e-03 -9.6941169589838261e-01
    7.8774005577899892e-03 -9.1079385952335801e-01
    8.0588348073114286e-03 -7.9136756710306633e-01
    7.8983298452005909e-03 -8.8819417296494840e-01
    7.9926979461014853e-03 -8.2285073575547896e-01
    8.0353053123996872e-03 -8.0178372573727308e-01
    8.5728624413298534e-03 -6.5175053591228205e-01
    8.4295475532708813e-03 -6.8090848403905468e-01
    8.3060956282471378e-03 -7.1040333416747259e-01
    8.2003350674555997e-03 -7.4032217518923693e-01
    8.1387855228258615e-03 -7.6054675894978319e-01
    8.6807622043837875e-03 -6.3245553203367599e-01
    9.0753423045830482e-03 -5.7495957457606894e-01
    9.1532110612231737e-03 -5.6539555281903398e-01
    9.5075014619441459e-03 -5.2704627669472981e-01
    1.1010823248317656e-02 -4.1854806384909354e-01
    1.3108159074953073e-02 -3.3218191941495984e-01
    1.7070358694152136e-02 -2.4333213169614379e-01
    1.9229868534035448e-02 -2.1320071635561041e-01
    2.8999901631417524e-02 -1.3779456365238762e-01
    2.5194507529271992e-02 -1.5961737689352443e-01
    2.2606763670656605e-02 -1.7902871850985821e-01
    1.8046583142447011e-02 -2.2866478019001180e-01
    1.7070358694152136e-02 -2.4333213169614379e-01
    1.3917557055404367e-02 -3.0860669992418382e-01
    1.1417393126839056e-02 -3.9783587230787021e-01
    1.1644263655264130e-02 -3.8729833462074170e-01
    1.1889432933520412e-02 -3.7662178857735468e-01
    1.0346199762790042e-02 -4.5883146774112360e-01
    1.0204687999752254e-02 -4.6871843328054608e-01
    1.0656930594801982e-02 -4.3885372573625553e-01
    9.9456500168139915e-03 -4.8832523840319625e-01
    9.7145735527806708e-03 -5.0775240028974744e-01
    8.8636064358237170e-03 -6.0366114639010593e-01
    8.6255012205448643e-03 -6.4209088278403859e-01
    8.6255012205448643e-03 -6.4209088278403859e-01
    8.7996708242576212e-03 -6.1324414067186650e-01
    8.1105327727188214e-03 -7.7075249330806184e-01
    7.9558093525445763e-03 -8.4425467570325519e-01
    7.9244154594654524e-03 -8.6602540378443882e-01
    7.8688308444900545e-03 -9.2226607475482814e-01
    7.8774005577899892e-03 -9.1079385952335801e-01
    7.9558093525445763e-03 -8.4425467570325519e-01
    8.0588348073114286e-03 -7.9136756710306633e-01
    7.9735537319135467e-03 -8.3350875346649067e-01
    8.2689700364717809e-03 -7.2032487429513492e-01
    8.5227283129531636e-03 -6.6143782776614768e-01
    8.2003350674555997e-03 -7.4032217518923693e-01
    8.2337377925613200e-03 -7.3029674334022143e-01
    8.4295475532708813e-03 -6.8090848403905468e-01
    8.5227283129531636e-03 -6.6143782776614768e-01
    9.0753423045830482e-03 -5.7495957457606894e-01
    9.5075014619441459e-03 -5.2704627669472981e-01
    9.4119462582344087e-03 -5.3665631459994945e-01
    1.1644263655264130e-02 -3.8729833462074170e-01
    1.3491605637349179e-02 -3.2053038237801618e-01
    1.6247899419108154e-02 -2.5734250632748940e-01
    1.8046583142447011e-02 -2.2866478019001180e-01
    2.5194507529271992e-02 -1.5961737689352443e-01
    3.5405614434831027e-02 -1.1215443081840884e-01
    2.5194507529271992e-02 -1.5961737689352443e-01
    2.8999901631417524e-02 -1.3779456365238762e-01
    2.2606763670656605e-02 -1.7902871850985821e-01
    1.9229868534035448e-02 -2.1320071635561041e-01
    1.6247899419108154e-02 -2.5734250632748940e-01
    1.2760861317271116e-02 -3.4359213546813844e-01
    1.2155273158205840e-02 -3.6579067361184658e-01
    1.2444613824083961e-02 -3.5478743759344955e-01
    1.2155273158205840e-02 -3.6579067361184658e-01
    1.1417393126839056e-02 -3.9783587230787021e-01
    1.1889432933520412e-02 -3.7662178857735468e-01
    1.0346199762790042e-02 -4.5883146774112360e-01
    1.0827949885468206e-02 -4.2874646285627210e-01
    1.0827949885468206e-02 -4.2874646285627210e-01
    1.0204687999752254e-02 -4.6871843328054608e-01
    9.1532110612231737e-03 -5.6539555281903398e-01
    8.7387727166353818e-03 -6.2284109890304973e-01
    8.9307425444954940e-03 -5.9408852578600457e-01
    8.1687026297991312e-03 -7.5040442170639232e-01
    8.0838971251750002e-03 -7.8102496759066531e-01
    8.0588348073114286e-03 -7.9136756710306633e-01
    8.5728624413298534e-03 -6.5175053591228205e-01
    8.2689700364717809e-03 -7.2032487429513492e-01
    8.1687026297991312e-03 -7.5040442170639232e-01
    8.1105327727188214e-03 -7.7075249330806184e-01
    8.4295475532708813e-03 -6.8090848403905468e-01
    8.5728624413298534e-03 -6.5175053591228205e-01
    8.6255012205448643e-03 -6.4209088278403859e-01
    9.1532110612231737e-03 -5.6539555281903398e-01
    9.0753423045830482e-03 -5.7495957457606894e-01
    8.7996708242576212e-03 -6.1324414067186650e-01
    9.4119462582344087e-03 -5.3665631459994945e-01
    9.9456500168139915e-03 -4.8832523840319625e-01
    1.2155273158205840e-02 -3.6579067361184658e-01
    1.4931448420451909e-02 -2.8379026190424128e-01
    1.6247899419108154e-02 -2.5734250632748940e-01
    1.9229868534035448e-02 -2.1320071635561041e-01
    2.5194507529271992e-02 -1.5961737689352443e-01
    3.5405614434831027e-02 -1.1215443081840884e-01
    4.9914382675206773e-02 -7.9056941504209485e-02
    3.5405614434831027e-02 -1.1215443081840884e-01
    2.8999901631417524e-02 -1.3779456365238762e-01
    3.5405614434831027e-02 -1.1215443081840884e-01
    2.0703521482591455e-02 -1.9674775073518591e-01
    2.0703521482591455e-02 -1.9674775073518591e-01
    2.0703521482591455e-02 -1.9674775073518591e-01
    1.5543317684449073e-02 -2.7080128015453198e-01
    1.3108159074953073e-02 -3.3218191941495984e-01
    1.3108159074953073e-02 -3.3218191941495984e-01
    1.2444613824083961e-02 -3.5478743759344955e-01
    1.2155273158205840e-02 -3.6579067361184658e-01
    1.2444613824083961e-02 -3.5478743759344955e-01
    1.1206815816655063e-02 -4.0824829046386302e-01
    1.1644263655264130e-02 -3.8729833462074170e-01
    1.0346199762790042e-02 -4.5883146774112360e-01
    1.0346199762790042e-02 -4.5883146774112360e-01
    9.0753423045830482e-03 -5.7495957457606894e-01
    8.4295475532708813e-03 -6.8090848403905468e-01
    9.1532110612231737e-03 -5.6539555281903398e-01
    9.0753423045830482e-03 -5.7495957457606894e-01
    8.2337377925613200e-03 -7.3029674334022143e-01
    8.8636064358237170e-03 -6.0366114639010593e-01
    8.2337377925613200e-03 -7.3029674334022143e-01
    8.8636064358237170e-03 -6.0366114639010593e-01
    8.2003350674555997e-03 -7.4032217518923693e-01
    8.7387727166353818e-03 -6.2284109890304973e-01
    9.0753423045830482e-03 -5.7495957457606894e-01
    9.4119462582344087e-03 -5.3665631459994945e-01
    9.8268844926191323e-03 -4.9805824509175228e-01
    9.5075014619441459e-03 -5.2704627669472981e-01
    9.2350944524389102e-03 -5.5582649219958413e-01
    1.0071390155181775e-02 -4.7854742041702220e-01
    1.2760861317271116e-02 -3.4359213546813844e-01
    1.4394055130705111e-02 -2.9637448918190956e-01
    1.9229868534035448e-02 -2.1320071635561041e-01
    1.9229868534035448e-02 -2.1320071635561041e-01
    2.0703521482591455e-02 -1.9674775073518591e-01
    2.8999901631417524e-02 -1.3779456365238762e-01
    4.9914382675206773e-02 -7.9056941504209485e-02
    4.9914382675206773e-02 -7.9056941504209485e-02
    3.5405614434831027e-02 -1.1215443081840884e-01
    3.5405614434831027e-02 -1.1215443081840884e-01
    2.8999901631417524e-02 -1.3779456365238762e-01
    4.9914382675206773e-02 -7.9056941504209485e-02
    2.8999901631417524e-02 -1.3779456365238762e-01
    2.5194507529271992e-02 -1.5961737689352443e-01
    2.2606763670656605e-02 -1.7902871850985821e-01
    2.0703521482591455e-02 -1.9674775073518591e-01
    1.6247899419108154e-02 -2.5734250632748940e-01
    1.4931448420451909e-02 -2.8379026190424128e-01
    1.3917557055404367e-02 -3.0860669992418382e-01
    1.4394055130705111e-02 -2.9637448918190956e-01
    1.4931448420451909e-02 -2.8379026190424128e-01
    1.5543317684449073e-02 -2.7080128015453198e-01
    1.2444613824083961e-02 -3.5478743759344955e-01
    1.2155273158205840e-02 -3.6579067361184658e-01
    1.2760861317271116e-02 -3.4359213546813844e-01
    1.2760861317271116e-02 -3.4359213546813844e-01
    1.1644263655264130e-02 -3.8729833462074170e-01
    8.6807622043837875e-03 -6.3245553203367599e-01
    8.6807622043837875e-03 -6.3245553203367599e-01
    9.8268844926191323e-03 -4.9805824509175228e-01
    9.0753423045830482e-03 -5.7495957457606894e-01
    9.0012566382808197e-03 -5.8452259722500599e-01
    9.8268844926191323e-03 -4.9805824509175228e-01
    9.9456500168139915e-03 -4.8832523840319625e-01
    1.0071390155181775e-02 -4.7854742041702220e-01
    1.0071390155181775e-02 -4.7854742041702220e-01
    1.0496666870152216e-02 -4.4887920124843483e-01
    1.0496666870152216e-02 -4.4887920124843483e-01
    1.2444613824083961e-02 -3.5478743759344955e-01
    1.3108159074953073e-02 -3.3218191941495984e-01
    1.8046583142447011e-02 -2.2866478019001180e-01
    1.9229868534035448e-02 -2.1320071635561041e-01
    2.2606763670656605e-02 -1.7902871850985821e-01
    2.8999901631417524e-02 -1.3779456365238762e-01
    2.8999901631417524e-02 -1.3779456365238762e-01
    2.8999901631417524e-02 -1.3779456365238762e-01
    3.5405614434831027e-02 -1.1215443081840884e-01</input_scale>
  <output_scale>
    1.0526315789473684e+00 0.</output_scale>
  <inv_output_scale>
    9.4999999999999996e-01 0.</inv_output_scale>
  <weights>
    <_>
      1.3691492962332633e-01 4.4481653179282460e-02
      3.5938123829490638e-02 1.5270431318540402e-02
      -3.2451574738649853e-02 1.0203175588931376e-02
      -1.3791756082098323e-02 -2.9240729347593173e-02
      -5.1287521425278683e-03 5.1991844810344801e-02
      1.2845332868882243e-02 2.8620673938459153e-02
      1.4499100364020658e-02 -2.0615392009592160e-02
      -2.2841529935522104e-03 1.1983954889526555e-02
      -3.5305422393940972e-03 2.5401505901453861e-02
      -5.3399963421728459e-02 5.3065985158007881e-02
      -2.7005685246007310e-02 6.0630439748869547e-03
      3.5215411426507024e-03 3.7847005891631529e-02
      1.1642728924354851e-02 -6.3482284655985337e-03
      4.8873774743396048e-02 -5.0372828743226017e-02
      1.6539976273528236e-02 1.2985077067173570e-02
      -3.8781284675948102e-02 -4.6794708403901798e-02
      5.4672882503068572e-02 1.7213909372215543e-02
      2.2684322433427263e-02 7.1249320646790170e-03
      3.7026800499682058e-02 1.8696274456721649e-02
      -4.0853210621005699e-02 -3.4638557106688214e-02
      2.8540274365956070e-01 9.2969948719711093e-02
      7.7993178581018022e-02 3.2844106281141074e-02
      -6.9758251546922626e-02 1.5038041479503257e-02
      -3.1599524441962616e-02 -6.0967038984374104e-02
      -6.2707389529099563e-03 6.7760737088737769e-02
      2.7656735057928462e-02 6.1645498820422376e-02
      3.0175703150493095e-02 -4.2180448434351342e-02
      -4.9994697828828743e-03 2.6717924243084366e-02
      -7.3026120223010308e-03 5.2279352443044304e-02
      -7.1848124630791640e-02 7.1126381972646952e-02
      -5.7208873988162712e-02 1.2637069879464377e-02
      6.8404843818299756e-03 7.9026132300123939e-02
      2.5476093975179841e-02 -1.1001854826372295e-02
      9.7792730333798941e-02 -9.4090497719695340e-02
      3.2453542959287304e-02 2.5869673560972532e-02
      -8.4280686010728717e-02 -9.4527545881725267e-02
      6.6979071913482499e-02 3.4726131698034200e-02
      4.5745095549050950e-02 1.1153344859800646e-02
      7.7672965132793162e-02 3.8085463167181165e-02
      -8.9794668881617565e-02 -7.3468261563957346e-02
      2.6395026897465895e-01 8.6520850075969880e-02
      7.3617036158488705e-02 3.0067646947503763e-02
      -6.4612644154653426e-02 1.4697038794082634e-02
      -2.8222417530007964e-02 -5.7077097303735322e-02
      -6.3141018797831742e-03 4.3645779568068289e-02
      2.5033360572272040e-02 5.5610191479624843e-02
      2.7765963438656061e-02 -4.0636823969666030e-02
      -2.8913047368258394e-03 2.2612283486920490e-02
      -5.1489866115059721e-03 4.9522708630822233e-02
      -4.7726336079670917e-02 4.6679053593713743e-02
      -5.2947838365308399e-02 1.0615094318222225e-02
      4.8306667684053384e-03 7.3880973763195523e-02
      2.2326854227735320e-02 -7.0499637532922734e-03
      8.9259074196473345e-02 -8.2711811240543526e-02
      3.0576330588685176e-02 2.3284821510296733e-02
      -7.8006758554019298e-02 -8.8005376100452531e-02
      4.0637001765911167e-02 3.0867439726391842e-02
      4.3578024719422667e-02 1.0422274298886518e-02
      7.1032986149467611e-02 3.6287860564718166e-02
      -8.4444859381750809e-02 -6.7851631864596501e-02
      -5.6608375907186883e-04 9.8280077323760939e-04
      5.8674145612284837e-04 -2.3404810589499834e-05
      5.1210201631407039e-04 -3.6144653169046793e-04
      1.0328318839991015e-03 -7.3189054801951596e-04
      3.4695438364743398e-04 -4.4022363701253322e-04
      1.6853111414949609e-04 5.4427262316709827e-04
      4.0928371062340927e-04 -5.0198130336476655e-04
      -5.3837339186742325e-04 5.4130025805742177e-04
      7.2451646606574787e-04 7.2928225531841261e-04
      -8.9596085780997226e-04 -1.0633593111381934e-03
      4.7189397411756106e-04 -4.9248951343733988e-04
      9.9480067882329781e-04 -2.5035076196965137e-04
      1.2025051274339787e-03 7.9488783461768411e-05
      -2.3343960668910767e-04 -8.4511454584403696e-04
      1.2165178234286608e-03 4.8608291870555205e-04
      8.1330602239910749e-04 1.0184280383176761e-03
      1.0704245511725459e-03 -7.2497964613305542e-04
      4.9328224232276271e-04 1.8830881034114335e-04
      9.4414942372186774e-04 6.1239348253836216e-04
      8.3569334300787762e-04 -7.7516820246783386e-04
      -2.5471495765281727e-03 6.0979916333738504e-03
      6.1102484829715521e-03 -5.7412646010814874e-04
      -6.8121094741737673e-03 -3.7264705732444462e-03
      1.1904859373167080e-03 -4.7245120805031997e-03
      4.0346476506478999e-03 4.8878605738459369e-03
      -9.1466380295356358e-04 4.7209787368252014e-03
      2.8872230794515835e-04 -2.7547074889969010e-03
      3.1622555009408102e-03 -2.6268557301626729e-03
      5.5799636888021397e-03 4.3128736448987109e-03
      -5.5185032364268808e-03 5.0573298896631307e-03
      -6.0114090024067446e-03 -5.2564156047166079e-03
      -5.4733168606279905e-03 6.8187728760053020e-03
      -1.0570367804974489e-03 5.5571944682449867e-03
      5.1770094840416303e-03 -4.7898240728888077e-03
      -1.3079131043139433e-03 -1.6562505319164841e-03
      -4.6990535991950477e-03 -4.5115306281701822e-03
      4.1290331545127063e-03 2.1708633853039985e-04
      1.7699074039145011e-03 -4.1666881797339907e-03
      5.7681680545689593e-03 2.5991569606412996e-03
      -5.9600254228649001e-03 -5.1714865146079755e-03
      -2.1213854105615608e-03 4.7269989809207904e-03
      6.9610155531258100e-03 5.5802193702003790e-05
      -5.6680232554236929e-03 -5.0758715960370114e-03
      6.7965787375152151e-04 -5.1820226586294423e-03
      4.1875128009700941e-03 5.1020348258374905e-03
      -2.1552881336424218e-03 4.3126997529767284e-03
      4.8259731880717248e-04 -3.1609048878980671e-03
      4.7618327725027281e-03 -2.1685575097298670e-03
      4.8802202016633165e-03 2.9152797625582633e-03
      -7.4421207513733767e-03 4.9055358013172078e-03
      -6.0018247239188452e-03 -3.8658311175685332e-03
      -4.0457456990654677e-03 6.9316171020824642e-03
      -3.0474363943316617e-03 4.8618800323433744e-03
      6.7785820132720215e-03 -5.5462131971954348e-03
      -8.1397640644900152e-04 -1.3814156178857504e-03
      -5.3460372462090615e-03 -4.6101976467855781e-03
      5.6060705271919397e-03 1.1161070985726102e-03
      2.9796489398658697e-03 -4.2605144486678832e-03
      6.5470609877467459e-03 2.5859502326317581e-03
      -4.9043748666769051e-03 -6.5971390695917318e-03
      1.5903122401503428e-01 4.7646038862620942e-02
      4.0974095833550918e-02 2.0830001116553285e-02
      -3.6828705526807455e-02 1.2028298148513512e-02
      -1.9738073203489491e-02 -3.3696638826337263e-02
      -6.6235793325020408e-03 5.8622682184341544e-02
      1.7773195085679427e-02 3.2211106869286285e-02
      1.8650209863908449e-02 -2.3397603287662584e-02
      -5.0000571257182644e-03 1.8120347446913477e-02
      -8.5790498052356855e-03 2.6019790919406711e-02
      -5.9052901379700526e-02 5.9751432481133793e-02
      -3.0408609860154798e-02 1.1265856246227579e-02
      8.1209451397952145e-03 3.9382934382707714e-02
      1.5649829371062660e-02 -8.0731929604805318e-03
      5.2402500905650955e-02 -5.3120574686106738e-02
      1.9162553163718631e-02 1.7712288737078370e-02
      -4.2154286621370482e-02 -4.9385670935354925e-02
      6.0992814486593674e-02 1.9937498831779376e-02
      2.5845702291315595e-02 1.1089848851717410e-02
      3.8742196322979205e-02 2.3187908355040879e-02
      -4.5962481246409427e-02 -3.7379560543491092e-02
      2.8286011534182204e-01 9.2745889237377852e-02
      7.5631547329213344e-02 2.9594616355281357e-02
      -6.9571105699882022e-02 1.4710036789083567e-02
      -2.6286266582185372e-02 -6.1372367404065147e-02
      -5.0784460511445603e-03 1.1472660099103757e-01
      2.6130325495227438e-02 6.1556888540365014e-02
      2.5108454226445361e-02 -4.0025908297374083e-02
      -3.3465997197589135e-03 2.1559536270837551e-02
      -8.0722829822062383e-03 5.1171103811143884e-02
      -1.1535753471617706e-01 1.1605202043817116e-01
      -5.6728550004009316e-02 9.9132108885510422e-03
      6.7721264972540772e-03 7.7494125165937996e-02
      2.1918836531891781e-02 -1.0059198717305382e-02
      9.9904722404789550e-02 -1.0572967100514141e-01
      2.9542943270282573e-02 2.2747239153270017e-02
      -8.3812261247916783e-02 -9.7601116542020111e-02
      1.1964482269360173e-01 3.1358943723506935e-02
      4.4901417925292210e-02 1.0649729215811133e-02
      7.6549326102863108e-02 3.6467655119060804e-02
      -8.6237267994878533e-02 -7.1469124694563624e-02
      1.6816266421838971e-01 6.3906453203893043e-02
      5.0099918436885556e-02 1.8638242864227633e-02
      -4.3666966502404016e-02 7.8809829677950263e-03
      -1.6936398404825196e-02 -3.9202054439217107e-02
      -3.1977611330065324e-03 8.1550142433460607e-02
      1.3852072533775536e-02 3.7818064340344168e-02
      1.5050446751249872e-02 -2.5646737553400328e-02
      -2.3971735462051148e-03 1.2136130371938940e-02
      -3.5882847204872993e-03 3.0065545147554208e-02
      -8.2722429257759009e-02 8.2362822304420602e-02
      -3.4813952735969406e-02 4.3484408690093708e-03
      4.2076454116068054e-03 4.9045075621237999e-02
      1.2124634533128113e-02 -5.0290178903049272e-03
      7.1337539680071282e-02 -7.4369968497229655e-02
      1.5787335429802568e-02 1.4197874241462549e-02
      -5.5785990750896040e-02 -6.6051271381013174e-02
      8.4449679625745136e-02 1.8799289965709239e-02
      2.6104927690609861e-02 4.9028082283553822e-03
      5.0332253066532315e-02 2.1274583450969716e-02
      -5.9704523044740811e-02 -4.4935638017858520e-02
      1.0661337168347204e-01 5.3746265151624645e-02
      4.3959126285218655e-02 9.2085468318381745e-03
      -3.7229214044282671e-02 -2.7843128707951978e-03
      -7.6062443977992595e-03 -3.3286361607277680e-02
      3.4232504470379675e-03 7.2237229385474833e-02
      5.8966523074902456e-03 3.2857541200723310e-02
      5.7081547123999671e-03 -1.7192211127948321e-02
      5.7470579119413712e-03 2.2430253142117504e-03
      4.7052553425121499e-03 2.6222806886664937e-02
      -7.1605336786507365e-02 7.3174754560175984e-02
      -2.9616483866260906e-02 -3.2211908980295419e-03
      -5.6189881732364201e-03 4.3538242221842841e-02
      4.0666398884974548e-03 4.4768006057269456e-03
      6.1492728113471049e-02 -6.4311667430180616e-02
      8.1330213414110720e-03 3.9518981475459829e-03
      -4.7870598628172646e-02 -5.7826355966573539e-02
      7.4515919775144962e-02 1.1125893574972619e-02
      2.0595052554904868e-02 -5.1605757038472597e-03
      4.3454208935520190e-02 1.5663513687019397e-02
      -5.1808729486283241e-02 -3.9962465060083462e-02
      2.6078069201921711e-01 -1.6808030394522217e-03
      1.6799860743069765e-02 1.1561809080581581e-02
      -2.5333398139801799e-02 6.1211333544200133e-03
      -1.1766191463908515e-02 -2.1539748875723363e-02
      -2.7391308173373517e-03 -3.3029671445634880e-02
      1.0870315940204017e-02 2.0631220314617321e-02
      1.1082501616750267e-02 -1.3439537120385456e-02
      -2.7264551996331976e-03 7.7829191848843926e-03
      -3.8671843325077701e-03 1.6207595833933816e-02
      3.1981839855344835e-02 -3.4516901755215303e-02
      -2.2149842942395838e-02 5.5642351934011396e-03
      4.3779410298723457e-03 1.6661156971387335e-02
      8.2666943638739516e-03 -3.6329650529508210e-03
      -1.7606475239886191e-02 2.1559646244934408e-02
      1.0902541733537696e-02 9.1185541209661426e-03
      -7.0842296952070925e-03 6.1547578302052477e-03
      -3.6261009103788773e-02 1.1564598488679899e-02
      1.3905107484861411e-02 3.5993263875096931e-03
      1.7527743448785403e-02 1.4107737966566138e-02
      -4.4566167516611232e-03 -2.1416537326494595e-02
      2.7794919055872402e-01 1.2323813381229320e-02
      2.6276051621624472e-02 1.6572291656896054e-02
      -3.4086626190684019e-02 9.0520221335443421e-03
      -1.6426215982426353e-02 -2.6827050002429347e-02
      -5.9701546110511516e-03 -1.5398021689448198e-02
      1.5376369365425168e-02 2.7111705266293407e-02
      1.6508881546993277e-02 -2.1062537398937660e-02
      -5.2204346027721702e-03 1.4663849646059128e-02
      -6.9485543128667863e-03 2.4074294850723883e-02
      1.4076911171096105e-02 -1.3102746468712512e-02
      -2.7176726220357356e-02 8.2356238335134987e-03
      4.7860013374558903e-03 2.5790166590288231e-02
      1.3908590724399547e-02 -6.6123688730487162e-03
      -1.0563527320846461e-03 4.0849879056618589e-03
      1.7098007042826234e-02 1.3146346487040994e-02
      -1.7190841330151991e-02 -7.1533180166422749e-03
      -1.5602912811670684e-02 1.6670980861636486e-02
      2.1894417288658281e-02 7.5757104763379910e-03
      2.6064531126568691e-02 1.7652166762391917e-02
      -1.4757609231973058e-02 -2.8785003350802349e-02
      2.8458891619315363e-02 7.1454604529038812e-04
      6.5239928502759835e-03 7.4490211170111049e-03
      -5.6060387322827490e-03 1.3067980496064494e-03
      -5.9241823533599854e-03 -6.2954036233495150e-03
      -3.2445095728343487e-04 -3.3897570014256022e-02
      4.2041640466835136e-03 8.5283691317126036e-03
      4.9349270817041135e-03 -6.9454634588232041e-03
      -9.4161262455628525e-04 4.9567265281313857e-03
      -2.1030676850024594e-03 6.9389493209114222e-03
      3.1605736050696789e-02 -3.3390909406708164e-02
      -6.8913032453960304e-03 5.8030373583412476e-04
      1.7611605620588369e-03 7.2505379103440844e-03
      3.0546588113806992e-03 -1.6618485723575720e-03
      -1.5939719156626859e-02 2.1238055926697051e-02
      5.8834755717243744e-03 4.3014049908688175e-03
      -7.2272880080068436e-03 2.6342549315802313e-03
      -3.4675621461243013e-02 6.5264735958192686e-03
      6.5496725072251615e-03 1.1371231104030386e-03
      6.0178468511872538e-03 6.9499455612976463e-03
      -4.9391999914843426e-03 -8.1290649696630010e-03
      6.8881471600041280e-02 3.5122314016644444e-02
      3.4470476529930946e-02 5.7393644022779343e-03
      -2.9694344002763828e-02 -1.8106347977299023e-03
      -5.1891252213691558e-03 -2.2902522935138937e-02
      2.9857618525669497e-03 1.2453911156676906e-02
      3.3267889058591583e-03 2.3415841794897817e-02
      5.1950563239425464e-03 -1.2004607530903140e-02
      4.0356521392942504e-03 1.6533656311388120e-03
      2.2350163360528703e-03 1.5667214112495404e-02
      -1.5227721369259841e-02 1.3807347313269509e-02
      -2.2891669276722239e-02 -1.5732944269760219e-03
      -3.5069357785924237e-03 3.4065636849915447e-02
      2.1205926173213274e-03 2.5396656608680877e-03
      2.3490788483013055e-02 -1.8526485133454073e-02
      5.2371436253575102e-03 2.5758435437970573e-03
      -3.6604759685553032e-02 -3.3407656127291796e-02
      1.0282750183966372e-02 7.1314276576912652e-03
      1.2519841022722515e-02 -3.0267762337417184e-03
      3.2464426295615946e-02 8.6319683440263389e-03
      -3.7430980212287648e-02 -3.1126213159162582e-02
      3.8795856075671120e-01 4.1189101467079256e-02
      5.1174285106990916e-02 2.7979441771987551e-02
      -5.9612075327002974e-02 1.5082905148358009e-02
      -2.5158412039115112e-02 -4.9934904982676991e-02
      -7.7201682373943849e-03 7.7322575289835663e-03
      2.3973848942981085e-02 5.1043374372663049e-02
      2.5704390199206128e-02 -3.3473926139534434e-02
      -6.6082033821975627e-03 2.0998551854392210e-02
      -8.7246218695459597e-03 4.2310549238763567e-02
      -6.6350642636753164e-03 7.8764456285321995e-03
      -4.8670738674946763e-02 1.1584242163012785e-02
      8.3887365295354319e-03 5.2407719934747486e-02
      2.0544701881647819e-02 -9.8609406591654968e-03
      2.7935875215926644e-02 -2.4042681777921106e-02
      2.5910357270732806e-02 2.1792976208474580e-02
      -4.4628565837112000e-02 -3.7610563342096844e-02
      5.6478186203650568e-03 2.8957215438889496e-02
      3.7647983108727474e-02 1.0233606219719830e-02
      5.1263099213118217e-02 3.3120196129273874e-02
      -4.4114309434800783e-02 -5.6542967952990499e-02
      2.0930468336013480e-01 6.4174648959331032e-02
      5.8140582337500947e-02 2.5393349050155389e-02
      -5.2630966066602121e-02 1.2604853837770149e-02
      -2.4386060191129481e-02 -4.6439702112597632e-02
      -6.2829882660550953e-03 3.9426188224455885e-02
      2.2343358219303153e-02 4.5051178129168777e-02
      2.4167618745187427e-02 -3.4177827082729179e-02
      -2.6332029280496487e-03 1.9176426676603922e-02
      -5.5151641991505723e-03 3.8408020118570786e-02
      -3.9814797170371376e-02 3.9363488293078445e-02
      -4.3809444221787931e-02 9.9905653685644132e-03
      4.3270081222376352e-03 5.8661495709839355e-02
      1.8643804432878747e-02 -7.9476574351276929e-03
      5.6224410815369004e-02 -5.3475089778449322e-02
      2.6331503665791893e-02 1.9850372786345286e-02
      -6.2906153821012195e-02 -6.4240800269987089e-02
      3.8900102681514746e-02 2.8191312479346923e-02
      3.5155983647973330e-02 7.8525674863793929e-03
      5.7307794858505075e-02 3.1616667320839426e-02
      -6.5281742011848609e-02 -5.5362542000045485e-02
      1.7655241220807794e-01 9.2766079339895460e-02
      8.0077582316626275e-02 1.5194736104352267e-02
      -6.7383227322233410e-02 -5.9621749969327462e-03
      -1.1388081969491421e-02 -5.5290268838932392e-02
      9.2197665447168869e-03 7.3764454742771268e-02
      7.2767608644246006e-03 5.4357809503243960e-02
      1.0102602612683913e-02 -2.6085040334968702e-02
      8.5323687036407657e-03 5.7182465917608710e-03
      9.3581668530619052e-03 4.1201553844515224e-02
      -7.3444860562208100e-02 7.6363177129138066e-02
      -4.8117855762628295e-02 -7.8007296402663505e-03
      -9.8199180962628956e-03 7.9310615461324618e-02
      4.8711849607318836e-03 7.1491021530052682e-03
      8.8514382006157549e-02 -8.8339761436441663e-02
      1.1645653099363275e-02 6.5505563822791085e-03
      -8.7295763530360448e-02 -9.2379027301452865e-02
      7.3969967127307107e-02 1.5685813554262056e-02
